elements: [C]
E0: [0]
deltaSplineBins: 0.001
embeddings:
  0: {ndensity: 2, FS_parameters: [1, 1, 1, 0.5], npoti: FinnisSinclairShiftedScaled, rho_core_cutoff: 100000, drho_core_cutoff: 250}
bonds:
  [0, 0]: {nradmax: 6, lmax: 6, nradbasemax: 20, radbasename: ChebExpCos, radparameters: [5.25], radcoefficients: [[[-0.0041203432560571792, -0.064593121529619893, 0.17582379121718966, 0.6739179112611895, 0.56851987465018261, -0.25019624063914025, -0.48140703633327014, -0.11958789728030561, 0.14211221178069974, 0.25761450203102332, -0.12875117979087, -0.18674000350793851, 0.29989009726500693, -0.025104058134365399, -0.16025666035057917, -0.032974027642877726, 0.17772398924112806, -0.21270014111670607, 0.23859452909386253, -0.12951583047610216], [-0.060025366899507167, 0.15694591364868665, 0.2193836772331868, 0.38169992213099696, 0.26109064286975392, 0.016408289614982537, -0.132732341780402, -0.21137481257567642, -0.069088968633111203, 0.19853953463963173, -0.0050128642822902291, -0.16753927018870979, 0.2315931785609171, 0.1199226726881412, -0.29904431229968176, 0.090636696365066355, 0.33644560840540744, -0.48640128686911982, 0.32762220361321159, -0.11055261565915846], [0.10231447247806104, 0.27862218552545748, 0.54240255458840425, 0.17921421273237026, -0.032947432825776585, -0.11752713808435113, -0.070877448899669404, -0.22156531702035376, -0.057580697844613705, 0.30326365380233294, 0.009728501619093069, -0.26046927263644604, 0.18948368932791229, 0.066338478837012743, -0.27354908017332624, 0.066084278942988295, 0.25634179926987222, -0.42737202266280505, 0.32289829790801183, -0.11418810927821943], [-0.12920639882270368, -0.05478155358326816, 0.45452060258295329, 0.2060206300855931, 0.0053567037157309589, -0.0067182265281378424, -0.015224066864658615, -0.40895812535861026, 0.06668953445591444, 0.56193193641093064, -0.42557605248613928, 0.086600192506724863, 0.24676365511728832, -0.0058249870467681599, -0.21217314766862627, 0.054681250536981307, 0.21375868484759208, -0.3035140278666808, 0.20187595716230461, -0.038586865164910701], [0.397022621397498, -0.062112070621705283, -0.34288284750828596, 0.29893602925732721, 0.21434712151266413, 0.11253651338665337, 0.18946203650891907, 0.066615950664941956, -0.10484481606188209, -0.2001997362804635, -0.036850332352758794, -0.073700912214797312, -0.35610167244740742, 0.14416677369206998, -0.18936254395270613, 0.20340238249692355, -0.099090919360790758, -0.25472952779951546, 0.45805630736247543, -0.32376991073083961], [0.24105671319394023, -0.17638418421119936, 0.07532666930787113, -0.040869940947987009, 0.13142845947162399, 0.32986665306428647, 0.16925200628432155, -0.173862451886416, -0.21390235043815348, 0.01354466375138433, 0.25816203107430513, 0.30312957989822881, 0.10670006480829729, -0.0039516248850588647, 0.0015710791010618691, 0.19219639261941954, 0.098913712353930094, -0.1723525548988081, 0.29505990509039121, -0.36898739767322503], [-0.13865194297266908, -0.19101365808327947, -0.21462005535086229, -0.42072376074666157, -0.054964120967469554, -0.20827701031673324, -0.052100839487758607, -0.19736555044520979, 0.052388840600572299, 0.28118356877320588, 0.10129951233430452, -0.14649753796697371, -0.034452738093982624, 0.10289470295374038, -0.20143086475867239, -0.47180645057648729, -0.056910644327836456, 0.30680510187234467, -0.26163314705381779, 0.23530566059574465]], [[-0.027342691371566325, 0.66822467799597451, 0.16852110685623917, -0.012597845353796036, -0.16845605041322675, 0.098584817243844297, -0.054025259377184054, 0.029167643152356086, -0.20515619927709236, 0.43524073844180799, -0.27260890718389374, -0.09158614028304625, 0.2947483473329211, -0.11044000904420881, -0.2298799757626902, 0.39997308751825811, -0.34494675641191369, 0.18563045903364922, -0.04987030234315154, -0.00077295192397960986], [0.035648057700759406, 0.066872526959904116, 0.1149034413282702, 0.030841622562348247, 0.17350931848446643, 0.039458015406677496, -0.43161786793636503, -0.11825133772053753, 0.68444041999489014, -0.27502945007299517, -0.34271666223964586, 0.32375609670381689, -0.029035853501948535, 0.0082951196308731316, -0.18778809938009772, 0.13965714927686707, 0.012364530359680676, -0.07111217621768337, 0.052128699210167835, -0.016448775135382777], [-0.040145983153081058, 0.11359244166794524, 0.23286975426090101, 0.12560396985107222, -0.18817603622891108, 0.11016986239381468, 0.26533353390337028, -0.0070133698040188283, -0.37955098976300961, -0.1693917054039572, 0.40557573176649986, 0.016055437284206078, -0.21425325748618168, 0.15309430423541273, 0.16984368527727112, -0.30793782178957591, 0.11698291809819342, 0.2426673439210415, -0.35532025049008575, 0.17091691999588543], [-0.12770766978981068, 0.30182015157237263, 0.11488627434326433, 0.09556593093855538, -0.1545665176269046, -0.0057126701018387679, -0.026345361293811317, -0.093642567719133582, -0.11580294855871612, 0.14108730343051673, 0.52961730530098328, -0.41031427378212526, -0.13043355048684716, 0.41717499376782896, -0.066231212410716278, -0.37464683850373393, 0.40921583476999812, -0.19836965816615965, 0.06069475555256585, -0.017502547261504211], [-0.22991135498935303, 0.042851998427167796, -0.041750600522774552, -0.10853487768276213, 0.57783507675971779, -0.20816633544101526, -0.052803466971975153, 0.20904596639140377, 0.42293933612658213, 0.081421856502523857, -0.25858237758049518, -0.25551120256023863, -0.13233155994702467, 0.31358250222181439, 0.082008049690272158, -0.20545903484042755, -0.17108232275211302, 0.45070056021940919, -0.2350367126516798, 0.0053671538752225797], [0.71773410740753252, 0.12238457810989697, -0.091918616058697, 0.053742983320875688, 0.15977201542389213, -0.40207902256030736, -0.095515940849254993, 0.010742190207910599, -0.1546101722873798, -0.2263887824352239, -0.045638033599702338, 0.11447451955618618, 0.039720238361627809, -0.24618642931660714, -0.17180162480927608, -0.017112493825468283, 0.14918716319793832, 0.16484732045906952, -0.30374491160838912, 0.10669390854216979], [0.72184973167330768, -0.017437658646338731, -0.3353422066567881, -0.13760508426837437, -0.00097162567526262668, 0.1635339045626365, -0.27806800356333872, -0.19333881920785334, -0.030974933698004404, 0.0095404092982257407, -0.047271048553268809, -0.034707716486172942, 0.054471062321393995, 0.088031002913413953, 0.033714799726232855, -0.030224012374140321, -0.066718524131929996, -0.044800636931000143, 0.1221249518049973, -0.11983319699566448]], [[0.010751857291005303, 0.18309227386033386, 0.78355272318538627, -0.024207514329207036, -0.32619771732875535, -0.081249213527712721, 0.028437775300322782, -0.25528508106681264, 0.53592032318934402, -0.13733695236048671, -0.18448501211646473, 0.12748214141763548, 0.03391060624540982, -0.068739054163226496, -0.00054301318277701516, -0.079895193684757448, 0.10509398693239369, -0.019681127021796259, -0.018960091667170585, -0.0028051969652502316], [0.044614814887837861, 0.052368682998455041, 0.42703887574067229, 0.43483623399627425, -0.023606045157063386, -0.31556170295804592, -0.018203545776350145, 0.25298700601472285, -0.13641711898596168, -0.020471157589855508, -0.10868678889941849, -0.0028506797879642842, 0.2365179505964789, -0.24936763337726492, 0.15428924465480789, -0.093654487060668104, 0.065770847943912331, 0.056750523480274102, -0.098363724707717815, 0.047112456792732557], [-0.0098838332192876539, -0.15978986079740412, 0.2419308497598498, 0.10709090305845236, 0.32830486047699353, -0.016728549924914154, -0.13018845702349574, -0.16299120583304422, -0.063149938367278377, 0.017418926410264358, -0.0010229962673665876, 0.036727957410122539, 0.3613359588693128, -0.30494002805270415, -0.15175649711607059, 0.40016828909949254, -0.24505732004071917, 0.027726177490953911, -0.0053672372085453298, 0.030904558169923321], [-0.61114127068032797, -0.025885202260506925, 0.12318332305159208, 0.20855611822260611, 0.060240124563291114, -0.10010501288870575, -0.27918743247660294, -0.097442121882156493, 0.22831543493816001, 0.30533379856061238, 0.11748903170092527, 0.030877957096331961, 0.045402791690632542, 0.24666606672316477, 0.19875607733073569, -0.24598677760434706, -0.14039426995139737, 0.56622133202738745, -0.53948222096095522, 0.11738456218836794], [0.22696321285045887, 0.10894271114892085, -0.11690451602908762, -0.53370932978114238, 0.12530721409875475, 0.055107070783691481, 0.27430265940961668, 0.040789165102450224, -0.34101257799817808, -0.31873814056806804, 0.20706516013334056, 0.36188504831133134, -0.32867295910114575, -0.23576437701241792, 0.22983296502417136, 0.11711404999271384, -0.28041065225389211, 0.19366564914310117, -0.06810790478280429, -0.020511448705468133], [0.01896296556437695, 0.16564714248833912, 0.74178419431357856, 0.43653918497985733, 0.2824154070984049, 0.1112487896890651, -0.32740028073885791, -0.31364926751719235, 0.039426946570891255, 0.19143370755577904, -0.049419147116606006, -0.287911058060489, -0.18936134445355823, 0.081627897816940215, 0.081465940297858336, -0.047062252356557033, -0.040251353843627907, 0.025991647626831264, 0.1617052710725311, -0.060380621424986479], [0.17216576980282916, -0.14008365541190262, 0.46164493945334317, -0.13625205953227082, -0.14224655853738705, -0.63135447884562823, 0.010689236515714469, 0.10031017112600532, 0.055662103443759867, -0.10900587980772192, -0.16291706898575081, -0.051399535544801395, -0.037678737112558452, -0.20502204245965328, -0.21500968546610558, 0.059583168488622475, 0.17701820581656244, -0.01453747957150946, 0.064170783861852695, -0.032200167744015809]], [[0.28535964953549303, 0.051532916188363989, -0.11858381074410625, 0.11206648778121577, 0.46188566233693168, 0.31715828316212319, -0.44730297975241801, -0.33045136450333729, 0.26219731971876414, -0.065219549965221515, -0.26206630095188388, 0.16026199079625442, 0.025577348444611226, 0.02487259842158562, -0.1805900530673917, -0.0032795869274564503, -0.018119130841192599, 0.3394542085752762, -0.38274734771246022, 0.13787473800630892], [0.024727918904336635, 0.11765208222941886, -0.063213250047801955, 0.09271498107610221, 0.089964256669600812, 0.1865698879009613, 0.04611195551313798, -0.26758300639979349, -0.060505074541244541, 0.27862501452505029, -0.26258939523172364, 0.0019440859016375015, 0.41069930348044514, -0.52244119118397159, 0.16870741144901316, 0.30200559751388073, -0.36340270847186945, 0.070038635382275935, 0.12807015031118318, -0.071154640472025521], [-0.19755870124339422, -0.27764903951637437, -0.50463960013847087, 0.087820740148376791, 0.37825951524384593, 0.19347385000064157, -0.25755496068428879, -0.12739982562007388, 0.086532957360981405, -0.064611486035669546, 0.025913559796252244, 0.1408247804533293, 0.20667638673938304, 0.00063861620926296053, -0.28383543399798744, -0.026283351898669271, 0.50831269592352157, -0.47206585706004228, 0.11463783429819524, 0.066867053550044769], [0.48725681824496847, 0.2112347631212344, 0.47635685863343391, 0.47144171085285147, 0.097667010621826103, -0.35789914363566866, -0.3950525620627291, -0.22129375744474825, -0.045746657393347642, 0.17401969871595752, 0.26234552707673597, -0.039193516545187268, -0.31953917309553814, -0.24935099209113207, 0.1362141359691772, 0.0050830631916513316, -0.35671358343017695, 0.21561087462781159, 0.16560710077105703, -0.015553321062687369], [0.05328986262240145, -0.18714182954090719, -0.097924821101537107, 0.3761387578515859, -0.10759805429529919, 0.35804095036989908, -0.23172575344307517, -0.038454139928872311, -0.0025290416530150688, 0.018183670967380192, 0.070889697208256011, 0.17562999825954945, 0.087340495273140084, -0.42173673944503171, -0.035888948939818095, -0.29305191608375153, -0.020800608692351914, 0.38553922248994971, -0.35514472200226632, -0.0011164823005435948], [-0.19327764204534256, 0.041210468743728079, 0.029696340020602074, 0.48792985013478013, 0.21844933472686778, 0.11290482668948744, 0.37082175156441188, 0.29126951966358239, -0.052730557148344515, -0.37432125803128907, -0.34235401107395269, -0.10385353882579715, -0.068653771875918146, -0.19784758053268689, -0.011819368270211851, 0.33809226230059586, 0.19273842455743878, -0.28553769328374395, 0.047189380065272908, 0.2604071768593707], [0.0013149901442139592, 0.1917239071187157, -0.11148226169269138, 0.37273977234167921, -0.21581272515258507, -0.28388024062352374, -0.060387880188506778, -0.076058781288581123, -0.037354384003280769, 0.16346351318364724, 0.21874819275151497, -0.13300818800097308, -0.42815626035042986, -0.09905429927229796, 0.36462239357615905, 0.11007432983619322, -0.26911212023560982, 0.24993568684843107, 0.19335814446224736, -0.048156010337462661]], [[0.37847005361080099, 0.06839305050223829, 0.4386085060470446, 0.17252652960847037, 0.014153611632118526, -0.07894861979975136, 0.1412318227318361, -0.16963909490252194, -0.30689877220398831, 0.012135875361638609, 0.17261756092976158, -0.26088859645050988, 0.051167900002925051, 0.069895511321974968, -0.080838283804776562, -0.34204152524605336, 0.29511889332546787, 0.23295214674406961, -0.37847122789841992, 0.17169822828060455], [-0.028757531045181046, 0.13831397669606307, 0.30589922110131529, 0.079384535430878589, -0.34429737463451082, -0.47875870535813358, -0.16468769156373991, 0.21290639431746128, 0.32928678238553072, 0.23576351957622321, 0.17202814379402692, -0.05678985733779824, -0.29030246194900944, -0.19376054826166564, -0.010202531206971635, 0.060073291215612057, -0.20564776412669403, -0.13821543301381589, 0.46462433286661053, -0.24955403728115189], [0.60542205498248181, -0.017333738720799165, -0.14273658085837035, 0.35497442293511883, 0.20341443788286911, -0.043386457774876583, -0.40529805784264489, -0.10936953406622445, 0.092067798014603547, -0.055951094580754861, 0.051479588381066962, -0.23601096896035584, -0.37866005949248377, 0.1654925720898095, 0.26276730442507457, -0.19257543011456085, -0.24129111702061995, -0.04893294484125215, 0.3600945693741423, -0.2695157721932116], [-0.16352027033536254, 0.090782696881491043, 0.28741897890921442, 0.38930361531007063, 0.0979140138725694, 0.078604185756120812, 0.013181588712960022, 0.22364995025074935, 0.16865002199979123, -0.18241200627710641, -0.15218435740191288, -0.10202376148473855, -0.056988733014642433, 0.11251290167896835, 0.29597327080415714, 0.13138264454460871, -0.159523325203134, -0.14102723200293624, 0.45955486823973135, -0.0096329408938090142], [0.01601375765186977, -0.18308308220973019, -0.3390685722012311, -0.45640993040392464, 0.41069258369269457, 0.15360281403207948, -0.26855931771335045, -0.23481358560746049, 0.087113178447413633, 0.021564809919762253, -0.1051031116190725, 0.24303114069203147, 0.35207755887706238, -0.35027963777159965, -0.11282628402553779, 0.1587770155394583, 0.08440881368878389, -0.22616166301583573, 0.07459894076743831, 0.0088363671806056636], [-0.28154002873230066, -0.03859007216264608, -0.19334059808434861, -0.015310119308723395, 0.69476291814509894, -0.2903268110690565, -0.22979612193157412, 0.19483720665916318, 0.28438109094863084, 0.17704744243588139, 0.15809530412060244, 0.2049141212234242, 0.16816851798493632, 0.00081614244238408743, 0.097094464155708923, 0.10391433015654369, -0.016386551031567647, 0.12609887198518646, 0.10133773352167508, -0.24423345151149398], [-0.10256964256190854, 0.088020258743384344, 0.26754100181949886, 0.16120077792968004, 0.22089097301483207, 0.13968928017339921, -0.41390600484947238, -0.18506018239974115, 0.18658124075290777, 0.25030701470481803, 0.014621356788048146, -0.056281324276015419, 0.19537123299645998, 0.35502806544042509, 0.23370754407617397, 0.25557201470427743, 0.46130368681471973, 0.19540750692863376, -0.12341223735299485, 0.11318418458484716]], [[0.24328414373038743, 0.093552075070560375, 0.11345703553146815, 0.35710238410383516, -0.17352143143430057, -0.42908864793245677, -0.15985396462427631, 0.49995105044216631, -0.050938296493941319, -0.30925616949171963, -0.019133488848668081, 0.1888534807322462, -0.11169535323359014, -0.016692729726119106, -0.16407194068114533, 0.054281983160959668, -0.0039409709415297338, 0.1719411245380697, -0.20293303852942207, 0.096599759170111932], [0.03785449398127403, 0.10707161161932274, -0.13339231193516821, -0.19993611770015035, -0.23405217564792125, -0.096283204360021538, -0.047597238062803922, -0.057132616149235788, 0.31674158231397398, 0.50471103780110749, -0.14188336015016081, -0.4569815569832677, 0.062078456260834441, 0.075364415846527213, -0.23319523473091974, -0.25980919866718194, 0.12101924849821953, 0.30958371342611785, -0.24628142206682638, 0.065435001951064872], [0.80347397035580048, -0.13355287960227824, -0.31821574235192807, -0.43432245182050722, 0.0049358484172777519, 0.34416685559059684, 0.34151667708622291, -0.087712290660035094, -0.29174369671518285, -0.18354397482857515, -0.24899083599544247, -0.18793832367829952, -0.00021439893013297788, -0.087339632867667674, -0.10953083328880284, 0.048361244727319397, 0.0030580659649224219, -0.16575070745906806, -0.038506422775348562, -0.021946756476708015], [-0.23455821565336088, -0.18243125963174783, -0.37317756774637667, 0.0063702147625734097, 0.58570439837100241, 0.40528822223323929, -0.34894999868928372, -0.3457878457215815, -0.027049624004249422, 0.10634982307525212, 0.447414278983988, 0.13233206964573074, -0.23461981820349181, -0.11947728364941379, -0.014667385349338799, 0.077415187084566739, -0.096873128658537075, -0.21671371317608026, 0.33344988957071142, -0.23739693566835179], [-0.28395703660137928, -0.14597062667991867, -0.46518298130147162, -0.11104560999166725, -0.061558744313345765, 0.063650148680449464, 0.10824120353875956, -0.26392348911989261, -0.29559536938403069, 0.015757577344678492, 0.22987482579196575, 0.042716155888389951, -0.0024997458715226998, 0.41575259823534017, 0.041569871657073813, 0.18217803990864692, 0.15058980803361882, -0.03564215992278405, -0.2537206947187246, 0.34573777560209051], [0.3466933200400345, -0.094909714155713948, 0.058718461132017764, -0.28046471842127491, 0.046425651326790968, 0.22119155583519901, 0.17351874321984193, 0.42676936615370586, 0.39634935718289233, 0.11857185522062549, -0.17515761057836193, -0.2639251111667888, -0.11905023262164002, 0.099763782689862662, 0.16374349358492005, 0.17949917900749129, 0.21594712992525106, 0.20201466881554386, -0.065765575903523638, -0.037972028882246503], [-0.26696349219517718, -0.054089152586710876, -0.069223238606167081, -0.28345648935434942, -0.040129714451070934, -0.034206516787206306, -0.34836067695496281, -0.019574413456201051, 0.28469112963064963, 0.24702676981359573, -0.059928304289797431, -0.29570522004240907, -0.31178116700480429, -0.23054236606738493, -0.12236942396982688, -0.0038755856983598552, -0.096214881879151212, -0.27634050649586805, 0.42363648572539636, 0.019690132721636701]]], prehc: 10000, lambdahc: 1, rcut: 5.5, dcut: 0.01, rcut_in: 0.69999999999999996, dcut_in: 0.10000000000000001, inner_cutoff_type: distance}
functions:
  0:
    - {mu0: 0, rank: 1, ndensity: 2, num_ms_combs: 1, mus: [0], ns: [1], ls: [0], ms_combs: [0], ctildes: [0.54800501635844368, -1.8886106271030743]}
    - {mu0: 0, rank: 1, ndensity: 2, num_ms_combs: 1, mus: [0], ns: [2], ls: [0], ms_combs: [0], ctildes: [-1.0224646249161511, 0.1279969849674466]}
    - {mu0: 0, rank: 1, ndensity: 2, num_ms_combs: 1, mus: [0], ns: [3], ls: [0], ms_combs: [0], ctildes: [-2.7911548759436857, -0.10619111231117431]}
    - {mu0: 0, rank: 1, ndensity: 2, num_ms_combs: 1, mus: [0], ns: [4], ls: [0], ms_combs: [0], ctildes: [-2.8773895420000111, -1.2518911085047666]}
    - {mu0: 0, rank: 1, ndensity: 2, num_ms_combs: 1, mus: [0], ns: [5], ls: [0], ms_combs: [0], ctildes: [-0.70589042299263993, -2.2035428825460759]}
    - {mu0: 0, rank: 1, ndensity: 2, num_ms_combs: 1, mus: [0], ns: [6], ls: [0], ms_combs: [0], ctildes: [1.4703224870099074, -1.3978471136451494]}
    - {mu0: 0, rank: 1, ndensity: 2, num_ms_combs: 1, mus: [0], ns: [7], ls: [0], ms_combs: [0], ctildes: [1.4193488759678983, 0.70095222107944843]}
    - {mu0: 0, rank: 1, ndensity: 2, num_ms_combs: 1, mus: [0], ns: [8], ls: [0], ms_combs: [0], ctildes: [-0.095434202852000605, 1.799637828623404]}
    - {mu0: 0, rank: 1, ndensity: 2, num_ms_combs: 1, mus: [0], ns: [9], ls: [0], ms_combs: [0], ctildes: [-0.82606804805744738, 0.86062172275099247]}
    - {mu0: 0, rank: 1, ndensity: 2, num_ms_combs: 1, mus: [0], ns: [10], ls: [0], ms_combs: [0], ctildes: [-0.37879803452606575, -0.22677355656374837]}
    - {mu0: 0, rank: 1, ndensity: 2, num_ms_combs: 1, mus: [0], ns: [11], ls: [0], ms_combs: [0], ctildes: [0.37800556162802346, 0.52005079731459758]}
    - {mu0: 0, rank: 1, ndensity: 2, num_ms_combs: 1, mus: [0], ns: [12], ls: [0], ms_combs: [0], ctildes: [0.27572963887092311, -0.033961331855953791]}
    - {mu0: 0, rank: 1, ndensity: 2, num_ms_combs: 1, mus: [0], ns: [13], ls: [0], ms_combs: [0], ctildes: [-0.84157309420131954, 0.039696761327905311]}
    - {mu0: 0, rank: 1, ndensity: 2, num_ms_combs: 1, mus: [0], ns: [14], ls: [0], ms_combs: [0], ctildes: [0.0087035526510658434, -0.52875515932102091]}
    - {mu0: 0, rank: 1, ndensity: 2, num_ms_combs: 1, mus: [0], ns: [15], ls: [0], ms_combs: [0], ctildes: [0.38889318898162623, -0.37185202413776558]}
    - {mu0: 0, rank: 1, ndensity: 2, num_ms_combs: 1, mus: [0], ns: [16], ls: [0], ms_combs: [0], ctildes: [0.39997760518174957, 0.27522993410644692]}
    - {mu0: 0, rank: 1, ndensity: 2, num_ms_combs: 1, mus: [0], ns: [17], ls: [0], ms_combs: [0], ctildes: [-0.40560716175517142, 0.88999948688450869]}
    - {mu0: 0, rank: 1, ndensity: 2, num_ms_combs: 1, mus: [0], ns: [18], ls: [0], ms_combs: [0], ctildes: [-0.5674695869403743, 0.52134854113374618]}
    - {mu0: 0, rank: 1, ndensity: 2, num_ms_combs: 1, mus: [0], ns: [19], ls: [0], ms_combs: [0], ctildes: [0.56901395171601066, -0.43955374061852098]}
    - {mu0: 0, rank: 1, ndensity: 2, num_ms_combs: 1, mus: [0], ns: [20], ls: [0], ms_combs: [0], ctildes: [-0.093349950157230063, -0.25906184180015246]}
    - {mu0: 0, rank: 2, ndensity: 2, num_ms_combs: 1, mus: [0, 0], ns: [1, 1], ls: [0, 0], ms_combs: [0, 0], ctildes: [1.4219164729833627, 2.1695649338924619]}
    - {mu0: 0, rank: 2, ndensity: 2, num_ms_combs: 2, mus: [0, 0], ns: [1, 1], ls: [1, 1], ms_combs: [0, 0, 1, -1], ctildes: [0.00011667193587998646, -0.7333296121574493, -0.00023334387175997286, 1.4666592243148984]}
    - {mu0: 0, rank: 2, ndensity: 2, num_ms_combs: 3, mus: [0, 0], ns: [1, 1], ls: [2, 2], ms_combs: [0, 0, 1, -1, 2, -2], ctildes: [0.72978083653504799, -0.14852150045123022, -1.4595616730700962, 0.2970430009024605, 1.4595616730700967, -0.29704300090246055]}
    - {mu0: 0, rank: 2, ndensity: 2, num_ms_combs: 4, mus: [0, 0], ns: [1, 1], ls: [3, 3], ms_combs: [0, 0, 1, -1, 2, -2, 3, -3], ctildes: [0.12593233861316111, 0.21034215858193256, -0.25186467722632222, -0.42068431716386512, 0.25186467722632216, 0.42068431716386506, -0.25186467722632216, -0.42068431716386506]}
    - {mu0: 0, rank: 2, ndensity: 2, num_ms_combs: 5, mus: [0, 0], ns: [1, 1], ls: [4, 4], ms_combs: [0, 0, 1, -1, 2, -2, 3, -3, 4, -4], ctildes: [0.021526070114280385, -0.08224327877076984, -0.043052140228560749, 0.1644865575415396, 0.043052140228560749, -0.1644865575415396, -0.043052140228560749, 0.1644865575415396, 0.043052140228560756, -0.16448655754153962]}
    - {mu0: 0, rank: 2, ndensity: 2, num_ms_combs: 6, mus: [0, 0], ns: [1, 1], ls: [5, 5], ms_combs: [0, 0, 1, -1, 2, -2, 3, -3, 4, -4, 5, -5], ctildes: [0.0068932448284070762, 0.020513741313869509, -0.013786489656814152, -0.041027482627739018, 0.013786489656814154, 0.041027482627739024, -0.013786489656814158, -0.041027482627739031, 0.013786489656814154, 0.041027482627739024, -0.01378648965681414, -0.041027482627738983]}
    - {mu0: 0, rank: 2, ndensity: 2, num_ms_combs: 7, mus: [0, 0], ns: [1, 1], ls: [6, 6], ms_combs: [0, 0, 1, -1, 2, -2, 3, -3, 4, -4, 5, -5, 6, -6], ctildes: [0.021682051991893873, -0.083175239945493668, -0.043364103983787768, 0.16635047989098742, 0.043364103983787747, -0.16635047989098734, -0.043364103983787761, 0.16635047989098739, 0.043364103983787761, -0.16635047989098739, -0.043364103983787747, 0.16635047989098734, 0.043364103983787726, -0.16635047989098725]}
    - {mu0: 0, rank: 2, ndensity: 2, num_ms_combs: 1, mus: [0, 0], ns: [1, 2], ls: [0, 0], ms_combs: [0, 0], ctildes: [-0.43318744497779094, -0.91213854456090637]}
    - {mu0: 0, rank: 2, ndensity: 2, num_ms_combs: 2, mus: [0, 0], ns: [1, 2], ls: [1, 1], ms_combs: [0, 0, 1, -1], ctildes: [1.4537603276285165, -0.068513814824273253, -2.9075206552570325, 0.13702762964854648]}
    - {mu0: 0, rank: 2, ndensity: 2, num_ms_combs: 3, mus: [0, 0], ns: [1, 2], ls: [2, 2], ms_combs: [0, 0, 1, -1, 2, -2], ctildes: [0.33089312021029504, 0.46445864722169578, -0.66178624042059009, -0.92891729444339166, 0.66178624042059031, 0.92891729444339188]}
    - {mu0: 0, rank: 2, ndensity: 2, num_ms_combs: 4, mus: [0, 0], ns: [1, 2], ls: [3, 3], ms_combs: [0, 0, 1, -1, 2, -2, 3, -3], ctildes: [0.80993194140343017, 0.61680056161134955, -1.6198638828068603, -1.2336011232226991, 1.6198638828068601, 1.2336011232226989, -1.6198638828068601, -1.2336011232226989]}
    - {mu0: 0, rank: 2, ndensity: 2, num_ms_combs: 5, mus: [0, 0], ns: [1, 2], ls: [4, 4], ms_combs: [0, 0, 1, -1, 2, -2, 3, -3, 4, -4], ctildes: [0.24362173864699546, 0.14724268882102981, -0.4872434772939907, -0.29448537764205945, 0.4872434772939907, 0.29448537764205945, -0.4872434772939907, -0.29448537764205945, 0.48724347729399076, 0.29448537764205951]}
    - {mu0: 0, rank: 2, ndensity: 2, num_ms_combs: 6, mus: [0, 0], ns: [1, 2], ls: [5, 5], ms_combs: [0, 0, 1, -1, 2, -2, 3, -3, 4, -4, 5, -5], ctildes: [-0.0013835743926136814, 0.096200491899325419, 0.0027671487852273628, -0.19240098379865084, -0.0027671487852273633, 0.19240098379865087, 0.0027671487852273637, -0.19240098379865092, -0.0027671487852273633, 0.19240098379865087, 0.0027671487852273602, -0.19240098379865067]}
    - {mu0: 0, rank: 2, ndensity: 2, num_ms_combs: 7, mus: [0, 0], ns: [1, 2], ls: [6, 6], ms_combs: [0, 0, 1, -1, 2, -2, 3, -3, 4, -4, 5, -5, 6, -6], ctildes: [-0.053542631159526212, 0.010687223714819706, 0.10708526231905247, -0.021374447429639423, -0.10708526231905242, 0.021374447429639412, 0.10708526231905244, -0.021374447429639416, -0.10708526231905244, 0.021374447429639416, 0.10708526231905242, -0.021374447429639412, -0.10708526231905235, 0.021374447429639398]}
    - {mu0: 0, rank: 2, ndensity: 2, num_ms_combs: 1, mus: [0, 0], ns: [1, 3], ls: [0, 0], ms_combs: [0, 0], ctildes: [-1.2700560444266167, -2.3684832899534825]}
    - {mu0: 0, rank: 2, ndensity: 2, num_ms_combs: 2, mus: [0, 0], ns: [1, 3], ls: [1, 1], ms_combs: [0, 0, 1, -1], ctildes: [1.4192223145176039, 0.19550034268946143, -2.8384446290352074, -0.3910006853789228]}
    - {mu0: 0, rank: 2, ndensity: 2, num_ms_combs: 3, mus: [0, 0], ns: [1, 3], ls: [2, 2], ms_combs: [0, 0, 1, -1, 2, -2], ctildes: [0.15011475702951813, 0.25604389526605376, -0.30022951405903631, -0.51208779053210751, 0.30022951405903636, 0.51208779053210762]}
    - {mu0: 0, rank: 2, ndensity: 2, num_ms_combs: 4, mus: [0, 0], ns: [1, 3], ls: [3, 3], ms_combs: [0, 0, 1, -1, 2, -2, 3, -3], ctildes: [-0.096866190381483239, -0.35563852391404271, 0.19373238076296648, 0.71127704782808543, -0.19373238076296645, -0.71127704782808532, 0.19373238076296645, 0.71127704782808532]}
    - {mu0: 0, rank: 2, ndensity: 2, num_ms_combs: 5, mus: [0, 0], ns: [1, 3], ls: [4, 4], ms_combs: [0, 0, 1, -1, 2, -2, 3, -3, 4, -4], ctildes: [0.00046216751368274996, 0.76161788090645521, -0.00092433502736549949, -1.5232357618129095, 0.00092433502736549949, 1.5232357618129095, -0.00092433502736549949, -1.5232357618129095, 0.00092433502736549971, 1.5232357618129098]}
    - {mu0: 0, rank: 2, ndensity: 2, num_ms_combs: 6, mus: [0, 0], ns: [1, 3], ls: [5, 5], ms_combs: [0, 0, 1, -1, 2, -2, 3, -3, 4, -4, 5, -5], ctildes: [-0.0035468660884478437, 0.055520373437220889, 0.0070937321768956875, -0.11104074687444178, -0.0070937321768956884, 0.11104074687444181, 0.0070937321768956901, -0.11104074687444182, -0.0070937321768956884, 0.11104074687444181, 0.0070937321768956806, -0.11104074687444168]}
    - {mu0: 0, rank: 2, ndensity: 2, num_ms_combs: 7, mus: [0, 0], ns: [1, 3], ls: [6, 6], ms_combs: [0, 0, 1, -1, 2, -2, 3, -3, 4, -4, 5, -5, 6, -6], ctildes: [-0.014516376693873135, -0.043349937215293177, 0.029032753387746284, 0.086699874430586382, -0.029032753387746271, -0.086699874430586354, 0.029032753387746277, 0.086699874430586368, -0.029032753387746277, -0.086699874430586368, 0.029032753387746271, 0.086699874430586354, -0.029032753387746253, -0.086699874430586299]}
    - {mu0: 0, rank: 2, ndensity: 2, num_ms_combs: 1, mus: [0, 0], ns: [1, 4], ls: [0, 0], ms_combs: [0, 0], ctildes: [-0.38166653284909635, 0.019258940079071113]}
    - {mu0: 0, rank: 2, ndensity: 2, num_ms_combs: 2, mus: [0, 0], ns: [1, 4], ls: [1, 1], ms_combs: [0, 0, 1, -1], ctildes: [-0.15568464762014381, 0.16634367956773982, 0.3113692952402875, -0.33268735913547959]}
    - {mu0: 0, rank: 2, ndensity: 2, num_ms_combs: 3, mus: [0, 0], ns: [1, 4], ls: [2, 2], ms_combs: [0, 0, 1, -1, 2, -2], ctildes: [-0.076735805723983225, -0.44625798187075244, 0.15347161144796648, 0.89251596374150499, -0.15347161144796651, -0.89251596374150521]}
    - {mu0: 0, rank: 2, ndensity: 2, num_ms_combs: 4, mus: [0, 0], ns: [1, 4], ls: [3, 3], ms_combs: [0, 0, 1, -1, 2, -2, 3, -3], ctildes: [0.27082046977291108, -0.99043859045402871, -0.54164093954582215, 1.9808771809080574, 0.54164093954582215, -1.980877180908057, -0.54164093954582215, 1.980877180908057]}
    - {mu0: 0, rank: 2, ndensity: 2, num_ms_combs: 5, mus: [0, 0], ns: [1, 4], ls: [4, 4], ms_combs: [0, 0, 1, -1, 2, -2, 3, -3, 4, -4], ctildes: [0.07558666777397742, -0.15140837809203422, -0.15117333554795476, 0.30281675618406828, 0.15117333554795476, -0.30281675618406828, -0.15117333554795476, 0.30281675618406828, 0.15117333554795478, -0.30281675618406834]}
    - {mu0: 0, rank: 2, ndensity: 2, num_ms_combs: 6, mus: [0, 0], ns: [1, 4], ls: [5, 5], ms_combs: [0, 0, 1, -1, 2, -2, 3, -3, 4, -4, 5, -5], ctildes: [-0.055356012099554666, -0.023821236927555136, 0.11071202419910933, 0.047642473855110272, -0.11071202419910935, -0.047642473855110279, 0.11071202419910937, 0.047642473855110286, -0.11071202419910935, -0.047642473855110279, 0.11071202419910922, 0.047642473855110223]}
    - {mu0: 0, rank: 2, ndensity: 2, num_ms_combs: 7, mus: [0, 0], ns: [1, 4], ls: [6, 6], ms_combs: [0, 0, 1, -1, 2, -2, 3, -3, 4, -4, 5, -5, 6, -6], ctildes: [0.041351398600620329, 0.092076431268007755, -0.082702797201240699, -0.18415286253601559, 0.082702797201240658, 0.18415286253601551, -0.082702797201240685, -0.18415286253601554, 0.082702797201240685, 0.18415286253601554, -0.082702797201240658, -0.18415286253601551, 0.082702797201240616, 0.1841528625360154]}
    - {mu0: 0, rank: 2, ndensity: 2, num_ms_combs: 1, mus: [0, 0], ns: [1, 5], ls: [0, 0], ms_combs: [0, 0], ctildes: [-1.6225624330582755, 1.0743712944072534]}
    - {mu0: 0, rank: 2, ndensity: 2, num_ms_combs: 2, mus: [0, 0], ns: [1, 5], ls: [1, 1], ms_combs: [0, 0, 1, -1], ctildes: [-0.18746996859988777, -0.36685568131214213, 0.37493993719977542, 0.73371136262428416]}
    - {mu0: 0, rank: 2, ndensity: 2, num_ms_combs: 3, mus: [0, 0], ns: [1, 5], ls: [2, 2], ms_combs: [0, 0, 1, -1, 2, -2], ctildes: [-0.36726410935067633, 0.89013247713195309, 0.73452821870135276, -1.7802649542639064, -0.73452821870135288, 1.7802649542639069]}
    - {mu0: 0, rank: 2, ndensity: 2, num_ms_combs: 4, mus: [0, 0], ns: [1, 5], ls: [3, 3], ms_combs: [0, 0, 1, -1, 2, -2, 3, -3], ctildes: [0.020797274574061393, -0.77538912376271985, -0.041594549148122786, 1.5507782475254397, 0.041594549148122786, -1.5507782475254395, -0.041594549148122786, 1.5507782475254395]}
    - {mu0: 0, rank: 2, ndensity: 2, num_ms_combs: 5, mus: [0, 0], ns: [1, 5], ls: [4, 4], ms_combs: [0, 0, 1, -1, 2, -2, 3, -3, 4, -4], ctildes: [0.16494868035671303, 0.015029211488242506, -0.3298973607134259, -0.030058422976484998, 0.3298973607134259, 0.030058422976484998, -0.3298973607134259, -0.030058422976484998, 0.32989736071342596, 0.030058422976485005]}
    - {mu0: 0, rank: 2, ndensity: 2, num_ms_combs: 6, mus: [0, 0], ns: [1, 5], ls: [5, 5], ms_combs: [0, 0, 1, -1, 2, -2, 3, -3, 4, -4, 5, -5], ctildes: [-0.087810838257199972, -0.067258707748941465, 0.17562167651439994, 0.13451741549788293, -0.17562167651439997, -0.13451741549788296, 0.1756216765144, 0.13451741549788299, -0.17562167651439997, -0.13451741549788296, 0.17562167651439978, 0.13451741549788282]}
    - {mu0: 0, rank: 2, ndensity: 2, num_ms_combs: 7, mus: [0, 0], ns: [1, 5], ls: [6, 6], ms_combs: [0, 0, 1, -1, 2, -2, 3, -3, 4, -4, 5, -5, 6, -6], ctildes: [0.001724481681354592, -0.14679148503755093, -0.0034489633627091854, 0.29358297007510198, 0.0034489633627091841, -0.29358297007510187, -0.0034489633627091845, 0.29358297007510192, 0.0034489633627091845, -0.29358297007510192, -0.0034489633627091841, 0.29358297007510187, 0.0034489633627091819, -0.2935829700751017]}
    - {mu0: 0, rank: 2, ndensity: 2, num_ms_combs: 1, mus: [0, 0], ns: [1, 6], ls: [0, 0], ms_combs: [0, 0], ctildes: [2.3588063720472192, -0.19306660335818052]}
    - {mu0: 0, rank: 2, ndensity: 2, num_ms_combs: 2, mus: [0, 0], ns: [1, 6], ls: [1, 1], ms_combs: [0, 0, 1, -1], ctildes: [0.31278883532551527, -0.42950035682304383, -0.62557767065103043, 0.85900071364608743]}
    - {mu0: 0, rank: 2, ndensity: 2, num_ms_combs: 3, mus: [0, 0], ns: [1, 6], ls: [2, 2], ms_combs: [0, 0, 1, -1, 2, -2], ctildes: [-0.18236995391529998, -0.35188270238838137, 0.36473990783060001, 0.70376540477676286, -0.36473990783060012, -0.70376540477676297]}
    - {mu0: 0, rank: 2, ndensity: 2, num_ms_combs: 4, mus: [0, 0], ns: [1, 6], ls: [3, 3], ms_combs: [0, 0, 1, -1, 2, -2, 3, -3], ctildes: [0.11921529795898887, 0.044745256711350524, -0.23843059591797774, -0.089490513422701048, 0.23843059591797772, 0.089490513422701035, -0.23843059591797772, -0.089490513422701035]}
    - {mu0: 0, rank: 2, ndensity: 2, num_ms_combs: 5, mus: [0, 0], ns: [1, 6], ls: [4, 4], ms_combs: [0, 0, 1, -1, 2, -2, 3, -3, 4, -4], ctildes: [0.11469909434938771, -0.045072875025308504, -0.22939818869877532, 0.090145750050616966, 0.22939818869877532, -0.090145750050616966, -0.22939818869877532, 0.090145750050616966, 0.22939818869877537, -0.09014575005061698]}
    - {mu0: 0, rank: 2, ndensity: 2, num_ms_combs: 6, mus: [0, 0], ns: [1, 6], ls: [5, 5], ms_combs: [0, 0, 1, -1, 2, -2, 3, -3, 4, -4, 5, -5], ctildes: [0.049934389854070081, -0.0041853292391767095, -0.099868779708140162, 0.0083706584783534189, 0.099868779708140176, -0.0083706584783534207, -0.09986877970814019, 0.0083706584783534224, 0.099868779708140176, -0.0083706584783534207, -0.099868779708140065, 0.0083706584783534103]}
    - {mu0: 0, rank: 2, ndensity: 2, num_ms_combs: 7, mus: [0, 0], ns: [1, 6], ls: [6, 6], ms_combs: [0, 0, 1, -1, 2, -2, 3, -3, 4, -4, 5, -5, 6, -6], ctildes: [-0.050495814215476637, 0.0037465711223344049, 0.10099162843095331, -0.0074931422446688134, -0.10099162843095327, 0.0074931422446688099, 0.1009916284309533, -0.0074931422446688116, -0.1009916284309533, 0.0074931422446688116, 0.10099162843095327, -0.0074931422446688099, -0.10099162843095322, 0.0074931422446688056]}
    - {mu0: 0, rank: 2, ndensity: 2, num_ms_combs: 1, mus: [0, 0], ns: [2, 2], ls: [0, 0], ms_combs: [0, 0], ctildes: [-0.028116772006554509, -0.28609697481073121]}
    - {mu0: 0, rank: 2, ndensity: 2, num_ms_combs: 2, mus: [0, 0], ns: [2, 2], ls: [1, 1], ms_combs: [0, 0, 1, -1], ctildes: [0.18814924135250757, 0.064366309069881958, -0.37629848270501509, -0.12873261813976389]}
    - {mu0: 0, rank: 2, ndensity: 2, num_ms_combs: 3, mus: [0, 0], ns: [2, 2], ls: [2, 2], ms_combs: [0, 0, 1, -1, 2, -2], ctildes: [-0.014979314825900375, -0.88671357027343978, 0.029958629651800753, 1.7734271405468798, -0.02995862965180076, -1.7734271405468802]}
    - {mu0: 0, rank: 2, ndensity: 2, num_ms_combs: 4, mus: [0, 0], ns: [2, 2], ls: [3, 3], ms_combs: [0, 0, 1, -1, 2, -2, 3, -3], ctildes: [-0.034151912231867906, -0.068800932616767105, 0.068303824463735813, 0.13760186523353421, -0.068303824463735799, -0.13760186523353421, 0.068303824463735799, 0.13760186523353421]}
    - {mu0: 0, rank: 2, ndensity: 2, num_ms_combs: 5, mus: [0, 0], ns: [2, 2], ls: [4, 4], ms_combs: [0, 0, 1, -1, 2, -2, 3, -3, 4, -4], ctildes: [-0.08086444663637965, -0.34994463306626644, 0.16172889327275922, 0.69988926613253255, -0.16172889327275922, -0.69988926613253255, 0.16172889327275922, 0.69988926613253255, -0.16172889327275924, -0.69988926613253266]}
    - {mu0: 0, rank: 2, ndensity: 2, num_ms_combs: 6, mus: [0, 0], ns: [2, 2], ls: [5, 5], ms_combs: [0, 0, 1, -1, 2, -2, 3, -3, 4, -4, 5, -5], ctildes: [0.033811225792431759, -0.33165902558207228, -0.067622451584863519, 0.66331805116414455, 0.067622451584863533, -0.66331805116414466, -0.067622451584863547, 0.66331805116414488, 0.067622451584863533, -0.66331805116414466, -0.067622451584863463, 0.663318051164144]}
    - {mu0: 0, rank: 2, ndensity: 2, num_ms_combs: 7, mus: [0, 0], ns: [2, 2], ls: [6, 6], ms_combs: [0, 0, 1, -1, 2, -2, 3, -3, 4, -4, 5, -5, 6, -6], ctildes: [0.014625441029799895, 0.61936436676776463, -0.029250882059599803, -1.2387287335355297, 0.029250882059599789, 1.2387287335355293, -0.029250882059599796, -1.2387287335355295, 0.029250882059599796, 1.2387287335355295, -0.029250882059599789, -1.2387287335355293, 0.029250882059599772, 1.2387287335355286]}
    - {mu0: 0, rank: 2, ndensity: 2, num_ms_combs: 1, mus: [0, 0], ns: [2, 3], ls: [0, 0], ms_combs: [0, 0], ctildes: [-0.093301813810979115, -0.98594040076905276]}
    - {mu0: 0, rank: 2, ndensity: 2, num_ms_combs: 2, mus: [0, 0], ns: [2, 3], ls: [1, 1], ms_combs: [0, 0, 1, -1], ctildes: [0.36740747531064405, 0.35410333205913891, -0.73481495062128799, -0.7082066641182776]}
    - {mu0: 0, rank: 2, ndensity: 2, num_ms_combs: 3, mus: [0, 0], ns: [2, 3], ls: [2, 2], ms_combs: [0, 0, 1, -1, 2, -2], ctildes: [1.2524772379394373, -0.034567757016887711, -2.5049544758788751, 0.069135514033775422, 2.504954475878876, -0.06913551403377545]}
    - {mu0: 0, rank: 2, ndensity: 2, num_ms_combs: 4, mus: [0, 0], ns: [2, 3], ls: [3, 3], ms_combs: [0, 0, 1, -1, 2, -2, 3, -3], ctildes: [0.17489272213459733, -0.7545319318868281, -0.34978544426919467, 1.5090638637736562, 0.34978544426919461, -1.509063863773656, -0.34978544426919461, 1.509063863773656]}
    - {mu0: 0, rank: 2, ndensity: 2, num_ms_combs: 5, mus: [0, 0], ns: [2, 3], ls: [4, 4], ms_combs: [0, 0, 1, -1, 2, -2, 3, -3, 4, -4], ctildes: [-0.40986981547290113, 0.41402768641878035, 0.81973963094580182, -0.82805537283756037, -0.81973963094580182, 0.82805537283756037, 0.81973963094580182, -0.82805537283756037, -0.81973963094580204, 0.82805537283756048]}
    - {mu0: 0, rank: 2, ndensity: 2, num_ms_combs: 6, mus: [0, 0], ns: [2, 3], ls: [5, 5], ms_combs: [0, 0, 1, -1, 2, -2, 3, -3, 4, -4, 5, -5], ctildes: [-0.0068919001002576965, 0.27189672510765284, 0.013783800200515393, -0.54379345021530567, -0.013783800200515397, 0.54379345021530578, 0.013783800200515398, -0.54379345021530578, -0.013783800200515397, 0.54379345021530578, 0.013783800200515381, -0.54379345021530512]}
    - {mu0: 0, rank: 2, ndensity: 2, num_ms_combs: 7, mus: [0, 0], ns: [2, 3], ls: [6, 6], ms_combs: [0, 0, 1, -1, 2, -2, 3, -3, 4, -4, 5, -5, 6, -6], ctildes: [0.051930049422014117, 0.21347044504222906, -0.10386009884402828, -0.42694089008445829, 0.10386009884402823, 0.42694089008445812, -0.10386009884402826, -0.42694089008445824, 0.10386009884402826, 0.42694089008445824, -0.10386009884402823, -0.42694089008445812, 0.10386009884402818, 0.42694089008445785]}
    - {mu0: 0, rank: 2, ndensity: 2, num_ms_combs: 1, mus: [0, 0], ns: [2, 4], ls: [0, 0], ms_combs: [0, 0], ctildes: [0.70898101387598889, 0.12531490121331465]}
    - {mu0: 0, rank: 2, ndensity: 2, num_ms_combs: 2, mus: [0, 0], ns: [2, 4], ls: [1, 1], ms_combs: [0, 0, 1, -1], ctildes: [0.17649505121359044, 0.0056869321230603462, -0.35299010242718082, -0.011373864246120691]}
    - {mu0: 0, rank: 2, ndensity: 2, num_ms_combs: 3, mus: [0, 0], ns: [2, 4], ls: [2, 2], ms_combs: [0, 0, 1, -1, 2, -2], ctildes: [-0.88020227081945857, 0.13685387132626822, 1.7604045416389174, -0.2737077426525365, -1.7604045416389178, 0.27370774265253656]}
    - {mu0: 0, rank: 2, ndensity: 2, num_ms_combs: 4, mus: [0, 0], ns: [2, 4], ls: [3, 3], ms_combs: [0, 0, 1, -1, 2, -2, 3, -3], ctildes: [0.39321923110140222, 1.3471725537105592, -0.78643846220280444, -2.6943451074211184, 0.78643846220280433, 2.694345107421118, -0.78643846220280433, -2.694345107421118]}
    - {mu0: 0, rank: 2, ndensity: 2, num_ms_combs: 5, mus: [0, 0], ns: [2, 4], ls: [4, 4], ms_combs: [0, 0, 1, -1, 2, -2, 3, -3, 4, -4], ctildes: [-0.070553360902234255, -0.69054440883028601, 0.14110672180446843, 1.3810888176605713, -0.14110672180446843, -1.3810888176605713, 0.14110672180446843, 1.3810888176605713, -0.14110672180446845, -1.3810888176605716]}
    - {mu0: 0, rank: 2, ndensity: 2, num_ms_combs: 6, mus: [0, 0], ns: [2, 4], ls: [5, 5], ms_combs: [0, 0, 1, -1, 2, -2, 3, -3, 4, -4, 5, -5], ctildes: [-0.039343589666738954, 0.012758383427574849, 0.078687179333477908, -0.025516766855149697, -0.078687179333477922, 0.025516766855149701, 0.078687179333477936, -0.025516766855149708, -0.078687179333477922, 0.025516766855149701, 0.078687179333477839, -0.025516766855149673]}
    - {mu0: 0, rank: 2, ndensity: 2, num_ms_combs: 7, mus: [0, 0], ns: [2, 4], ls: [6, 6], ms_combs: [0, 0, 1, -1, 2, -2, 3, -3, 4, -4, 5, -5, 6, -6], ctildes: [-0.17803071464755035, 0.1368145371185254, 0.35606142929510082, -0.27362907423705091, -0.35606142929510071, 0.2736290742370508, 0.35606142929510076, -0.27362907423705085, -0.35606142929510076, 0.27362907423705085, 0.35606142929510071, -0.2736290742370508, -0.35606142929510048, 0.27362907423705063]}
    - {mu0: 0, rank: 2, ndensity: 2, num_ms_combs: 1, mus: [0, 0], ns: [2, 5], ls: [0, 0], ms_combs: [0, 0], ctildes: [1.0070849931771757, 0.50817061641931782]}
    - {mu0: 0, rank: 2, ndensity: 2, num_ms_combs: 2, mus: [0, 0], ns: [2, 5], ls: [1, 1], ms_combs: [0, 0, 1, -1], ctildes: [0.19395148381426122, 1.3907700160050773, -0.38790296762852239, -2.7815400320101542]}
    - {mu0: 0, rank: 2, ndensity: 2, num_ms_combs: 3, mus: [0, 0], ns: [2, 5], ls: [2, 2], ms_combs: [0, 0, 1, -1, 2, -2], ctildes: [-0.1929776881405755, 0.75643896134510191, 0.38595537628115106, -1.512877922690204, -0.38595537628115117, 1.5128779226902045]}
    - {mu0: 0, rank: 2, ndensity: 2, num_ms_combs: 4, mus: [0, 0], ns: [2, 5], ls: [3, 3], ms_combs: [0, 0, 1, -1, 2, -2, 3, -3], ctildes: [-0.56815630710901532, -0.15761609715573718, 1.1363126142180306, 0.31523219431147437, -1.1363126142180304, -0.31523219431147431, 1.1363126142180304, 0.31523219431147431]}
    - {mu0: 0, rank: 2, ndensity: 2, num_ms_combs: 5, mus: [0, 0], ns: [2, 5], ls: [4, 4], ms_combs: [0, 0, 1, -1, 2, -2, 3, -3, 4, -4], ctildes: [0.3177397618439079, 0.25886696808442117, -0.63547952368781546, -0.517733936168842, 0.63547952368781546, 0.517733936168842, -0.63547952368781546, -0.517733936168842, 0.63547952368781557, 0.51773393616884211]}
    - {mu0: 0, rank: 2, ndensity: 2, num_ms_combs: 6, mus: [0, 0], ns: [2, 5], ls: [5, 5], ms_combs: [0, 0, 1, -1, 2, -2, 3, -3, 4, -4, 5, -5], ctildes: [-0.047422691189342683, 0.059256433246119011, 0.094845382378685367, -0.11851286649223802, -0.094845382378685381, 0.11851286649223804, 0.094845382378685394, -0.11851286649223806, -0.094845382378685381, 0.11851286649223804, 0.09484538237868527, -0.11851286649223791]}
    - {mu0: 0, rank: 2, ndensity: 2, num_ms_combs: 7, mus: [0, 0], ns: [2, 5], ls: [6, 6], ms_combs: [0, 0, 1, -1, 2, -2, 3, -3, 4, -4, 5, -5, 6, -6], ctildes: [0.067570484874723891, -0.086865467825053583, -0.13514096974944784, 0.17373093565010725, 0.13514096974944778, -0.17373093565010717, -0.13514096974944781, 0.17373093565010719, 0.13514096974944781, -0.17373093565010719, -0.13514096974944778, 0.17373093565010717, 0.1351409697494477, -0.17373093565010705]}
    - {mu0: 0, rank: 2, ndensity: 2, num_ms_combs: 1, mus: [0, 0], ns: [2, 6], ls: [0, 0], ms_combs: [0, 0], ctildes: [-0.075167007983605039, -0.42283123197470784]}
    - {mu0: 0, rank: 2, ndensity: 2, num_ms_combs: 2, mus: [0, 0], ns: [2, 6], ls: [1, 1], ms_combs: [0, 0, 1, -1], ctildes: [0.099102521821574988, -0.16920000551249864, -0.19820504364314995, 0.33840001102499723]}
    - {mu0: 0, rank: 2, ndensity: 2, num_ms_combs: 3, mus: [0, 0], ns: [2, 6], ls: [2, 2], ms_combs: [0, 0, 1, -1, 2, -2], ctildes: [-0.1596606083756843, -0.54846422652024729, 0.31932121675136865, 1.0969284530404946, -0.31932121675136871, -1.0969284530404948]}
    - {mu0: 0, rank: 2, ndensity: 2, num_ms_combs: 4, mus: [0, 0], ns: [2, 6], ls: [3, 3], ms_combs: [0, 0, 1, -1, 2, -2, 3, -3], ctildes: [-0.042488293069970311, 0.53120979855293737, 0.084976586139940621, -1.0624195971058747, -0.084976586139940608, 1.0624195971058745, 0.084976586139940608, -1.0624195971058745]}
    - {mu0: 0, rank: 2, ndensity: 2, num_ms_combs: 5, mus: [0, 0], ns: [2, 6], ls: [4, 4], ms_combs: [0, 0, 1, -1, 2, -2, 3, -3, 4, -4], ctildes: [-0.12276490400115744, -0.18735609623268329, 0.24552980800231478, 0.37471219246536641, -0.24552980800231478, -0.37471219246536641, 0.24552980800231478, 0.37471219246536641, -0.24552980800231483, -0.37471219246536647]}
    - {mu0: 0, rank: 2, ndensity: 2, num_ms_combs: 6, mus: [0, 0], ns: [2, 6], ls: [5, 5], ms_combs: [0, 0, 1, -1, 2, -2, 3, -3, 4, -4, 5, -5], ctildes: [0.020524716710489142, -0.076796193169792859, -0.041049433420978283, 0.15359238633958572, 0.04104943342097829, -0.15359238633958575, -0.041049433420978297, 0.15359238633958577, 0.04104943342097829, -0.15359238633958575, -0.041049433420978249, 0.15359238633958558]}
    - {mu0: 0, rank: 2, ndensity: 2, num_ms_combs: 7, mus: [0, 0], ns: [2, 6], ls: [6, 6], ms_combs: [0, 0, 1, -1, 2, -2, 3, -3, 4, -4, 5, -5, 6, -6], ctildes: [0.13512840240964671, 0.077022931927633903, -0.27025680481929354, -0.15404586385526786, 0.27025680481929343, 0.15404586385526781, -0.27025680481929348, -0.15404586385526783, 0.27025680481929348, 0.15404586385526783, -0.27025680481929343, -0.15404586385526781, 0.27025680481929326, 0.15404586385526772]}
    - {mu0: 0, rank: 2, ndensity: 2, num_ms_combs: 1, mus: [0, 0], ns: [3, 3], ls: [0, 0], ms_combs: [0, 0], ctildes: [0.19404192130845199, -3.5515012942692046]}
    - {mu0: 0, rank: 2, ndensity: 2, num_ms_combs: 2, mus: [0, 0], ns: [3, 3], ls: [1, 1], ms_combs: [0, 0, 1, -1], ctildes: [0.4720601623699236, 1.1996029181088324, -0.94412032473984708, -2.3992058362176638]}
    - {mu0: 0, rank: 2, ndensity: 2, num_ms_combs: 3, mus: [0, 0], ns: [3, 3], ls: [2, 2], ms_combs: [0, 0, 1, -1, 2, -2], ctildes: [0.067523744152659354, -0.32160334972782706, -0.13504748830531871, 0.64320669945565423, 0.13504748830531874, -0.64320669945565434]}
    - {mu0: 0, rank: 2, ndensity: 2, num_ms_combs: 4, mus: [0, 0], ns: [3, 3], ls: [3, 3], ms_combs: [0, 0, 1, -1, 2, -2, 3, -3], ctildes: [-0.13719694040526006, -0.05591999422257328, 0.27439388081052013, 0.11183998844514656, -0.27439388081052007, -0.11183998844514653, 0.27439388081052007, 0.11183998844514653]}
    - {mu0: 0, rank: 2, ndensity: 2, num_ms_combs: 5, mus: [0, 0], ns: [3, 3], ls: [4, 4], ms_combs: [0, 0, 1, -1, 2, -2, 3, -3, 4, -4], ctildes: [-0.19487964430004176, -0.15166650777998536, 0.38975928860008335, 0.30333301555997055, -0.38975928860008335, -0.30333301555997055, 0.38975928860008335, 0.30333301555997055, -0.38975928860008341, -0.30333301555997061]}
    - {mu0: 0, rank: 2, ndensity: 2, num_ms_combs: 6, mus: [0, 0], ns: [3, 3], ls: [5, 5], ms_combs: [0, 0, 1, -1, 2, -2, 3, -3, 4, -4, 5, -5], ctildes: [0.013965086902164987, -0.072411108053370352, -0.027930173804329973, 0.1448222161067407, 0.027930173804329977, -0.14482221610674073, -0.027930173804329984, 0.14482221610674076, 0.027930173804329977, -0.14482221610674073, -0.027930173804329946, 0.14482221610674056]}
    - {mu0: 0, rank: 2, ndensity: 2, num_ms_combs: 7, mus: [0, 0], ns: [3, 3], ls: [6, 6], ms_combs: [0, 0, 1, -1, 2, -2, 3, -3, 4, -4, 5, -5, 6, -6], ctildes: [0.0072537427452838881, 0.1434237970247613, -0.014507485490567781, -0.2868475940495227, 0.014507485490567776, 0.28684759404952259, -0.014507485490567778, -0.28684759404952265, 0.014507485490567778, 0.28684759404952265, -0.014507485490567776, -0.28684759404952259, 0.014507485490567767, 0.28684759404952243]}
    - {mu0: 0, rank: 2, ndensity: 2, num_ms_combs: 1, mus: [0, 0], ns: [3, 4], ls: [0, 0], ms_combs: [0, 0], ctildes: [1.1243144896025201, 0.83570643041329595]}
    - {mu0: 0, rank: 2, ndensity: 2, num_ms_combs: 2, mus: [0, 0], ns: [3, 4], ls: [1, 1], ms_combs: [0, 0, 1, -1], ctildes: [-1.9909670935972132, 0.7506016975029709, 3.9819341871944256, -1.5012033950059416]}
    - {mu0: 0, rank: 2, ndensity: 2, num_ms_combs: 3, mus: [0, 0], ns: [3, 4], ls: [2, 2], ms_combs: [0, 0, 1, -1, 2, -2], ctildes: [-0.43437972248161277, 0.7615570042505293, 0.86875944496322555, -1.5231140085010586, -0.86875944496322577, 1.523114008501059]}
    - {mu0: 0, rank: 2, ndensity: 2, num_ms_combs: 4, mus: [0, 0], ns: [3, 4], ls: [3, 3], ms_combs: [0, 0, 1, -1, 2, -2, 3, -3], ctildes: [-0.39792366163794718, -0.3062952731459338, 0.79584732327589436, 0.6125905462918676, -0.79584732327589425, -0.61259054629186749, 0.79584732327589425, 0.61259054629186749]}
    - {mu0: 0, rank: 2, ndensity: 2, num_ms_combs: 5, mus: [0, 0], ns: [3, 4], ls: [4, 4], ms_combs: [0, 0, 1, -1, 2, -2, 3, -3, 4, -4], ctildes: [-0.088243051264490197, 0.37613297619025754, 0.17648610252898031, -0.75226595238051464, -0.17648610252898031, 0.75226595238051464, 0.17648610252898031, -0.75226595238051464, -0.17648610252898034, 0.75226595238051486]}
    - {mu0: 0, rank: 2, ndensity: 2, num_ms_combs: 6, mus: [0, 0], ns: [3, 4], ls: [5, 5], ms_combs: [0, 0, 1, -1, 2, -2, 3, -3, 4, -4, 5, -5], ctildes: [-0.048992922492662967, -0.011226786919308201, 0.097985844985325934, 0.022453573838616403, -0.097985844985325948, -0.022453573838616406, 0.097985844985325962, 0.02245357383861641, -0.097985844985325948, -0.022453573838616406, 0.097985844985325837, 0.022453573838616382]}
    - {mu0: 0, rank: 2, ndensity: 2, num_ms_combs: 7, mus: [0, 0], ns: [3, 4], ls: [6, 6], ms_combs: [0, 0, 1, -1, 2, -2, 3, -3, 4, -4, 5, -5, 6, -6], ctildes: [-0.11164683480608291, 0.013742745695606283, 0.2232936696121659, -0.027485491391212577, -0.22329366961216582, 0.027485491391212567, 0.22329366961216587, -0.027485491391212574, -0.22329366961216587, 0.027485491391212574, 0.22329366961216582, -0.027485491391212567, -0.22329366961216568, 0.027485491391212549]}
    - {mu0: 0, rank: 2, ndensity: 2, num_ms_combs: 1, mus: [0, 0], ns: [3, 5], ls: [0, 0], ms_combs: [0, 0], ctildes: [0.95692601340707439, 1.6435636435407537]}
    - {mu0: 0, rank: 2, ndensity: 2, num_ms_combs: 2, mus: [0, 0], ns: [3, 5], ls: [1, 1], ms_combs: [0, 0, 1, -1], ctildes: [0.30252764942329086, -0.80305418843389487, -0.6050552988465816, 1.6061083768677895]}
    - {mu0: 0, rank: 2, ndensity: 2, num_ms_combs: 3, mus: [0, 0], ns: [3, 5], ls: [2, 2], ms_combs: [0, 0, 1, -1, 2, -2], ctildes: [-0.59616386513966479, 0.69079616952950917, 1.1923277302793298, -1.3815923390590183, -1.19232773027933, 1.3815923390590188]}
    - {mu0: 0, rank: 2, ndensity: 2, num_ms_combs: 4, mus: [0, 0], ns: [3, 5], ls: [3, 3], ms_combs: [0, 0, 1, -1, 2, -2, 3, -3], ctildes: [0.11680212306420745, 0.28988271719019054, -0.23360424612841491, -0.57976543438038108, 0.23360424612841488, 0.57976543438038108, -0.23360424612841488, -0.57976543438038108]}
    - {mu0: 0, rank: 2, ndensity: 2, num_ms_combs: 5, mus: [0, 0], ns: [3, 5], ls: [4, 4], ms_combs: [0, 0, 1, -1, 2, -2, 3, -3, 4, -4], ctildes: [-0.12677523038520958, 0.49346740554534763, 0.25355046077041904, -0.9869348110906947, -0.25355046077041904, 0.9869348110906947, 0.25355046077041904, -0.9869348110906947, -0.25355046077041909, 0.98693481109069492]}
    - {mu0: 0, rank: 2, ndensity: 2, num_ms_combs: 6, mus: [0, 0], ns: [3, 5], ls: [5, 5], ms_combs: [0, 0, 1, -1, 2, -2, 3, -3, 4, -4, 5, -5], ctildes: [-0.055090137138501367, -0.19152931837608786, 0.11018027427700273, 0.38305863675217572, -0.11018027427700275, -0.38305863675217577, 0.11018027427700278, 0.38305863675217589, -0.11018027427700275, -0.38305863675217577, 0.11018027427700262, 0.38305863675217539]}
    - {mu0: 0, rank: 2, ndensity: 2, num_ms_combs: 7, mus: [0, 0], ns: [3, 5], ls: [6, 6], ms_combs: [0, 0, 1, -1, 2, -2, 3, -3, 4, -4, 5, -5, 6, -6], ctildes: [0.036218615783718107, 0.01134221956681682, -0.072437231567436242, -0.02268443913363365, 0.072437231567436214, 0.02268443913363364, -0.072437231567436228, -0.022684439133633647, 0.072437231567436228, 0.022684439133633647, -0.072437231567436214, -0.02268443913363364, 0.072437231567436172, 0.022684439133633626]}
    - {mu0: 0, rank: 2, ndensity: 2, num_ms_combs: 1, mus: [0, 0], ns: [3, 6], ls: [0, 0], ms_combs: [0, 0], ctildes: [-1.8737876280167678, -0.87838187316941418]}
    - {mu0: 0, rank: 2, ndensity: 2, num_ms_combs: 2, mus: [0, 0], ns: [3, 6], ls: [1, 1], ms_combs: [0, 0, 1, -1], ctildes: [-0.22596923794941043, 0.23223007277273977, 0.45193847589882075, -0.46446014554547943]}
    - {mu0: 0, rank: 2, ndensity: 2, num_ms_combs: 3, mus: [0, 0], ns: [3, 6], ls: [2, 2], ms_combs: [0, 0, 1, -1, 2, -2], ctildes: [0.63908274969020196, 0.46991974693880872, -1.2781654993804039, -0.93983949387761767, 1.2781654993804044, 0.93983949387761789]}
    - {mu0: 0, rank: 2, ndensity: 2, num_ms_combs: 4, mus: [0, 0], ns: [3, 6], ls: [3, 3], ms_combs: [0, 0, 1, -1, 2, -2, 3, -3], ctildes: [-0.1057035994099399, -0.25435495379928136, 0.21140719881987979, 0.50870990759856272, -0.21140719881987977, -0.50870990759856272, 0.21140719881987977, 0.50870990759856272]}
    - {mu0: 0, rank: 2, ndensity: 2, num_ms_combs: 5, mus: [0, 0], ns: [3, 6], ls: [4, 4], ms_combs: [0, 0, 1, -1, 2, -2, 3, -3, 4, -4], ctildes: [-0.10678713728440517, 0.25238110592900509, 0.21357427456881023, -0.50476221185800996, -0.21357427456881023, 0.50476221185800996, 0.21357427456881023, -0.50476221185800996, -0.21357427456881029, 0.50476221185800996]}
    - {mu0: 0, rank: 2, ndensity: 2, num_ms_combs: 6, mus: [0, 0], ns: [3, 6], ls: [5, 5], ms_combs: [0, 0, 1, -1, 2, -2, 3, -3, 4, -4, 5, -5], ctildes: [0.040025091372195364, 0.038161862941572679, -0.080050182744390727, -0.076323725883145357, 0.080050182744390741, 0.076323725883145371, -0.080050182744390755, -0.076323725883145385, 0.080050182744390741, 0.076323725883145371, -0.080050182744390644, -0.076323725883145288]}
    - {mu0: 0, rank: 2, ndensity: 2, num_ms_combs: 7, mus: [0, 0], ns: [3, 6], ls: [6, 6], ms_combs: [0, 0, 1, -1, 2, -2, 3, -3, 4, -4, 5, -5, 6, -6], ctildes: [0.074914002116634223, -0.033198781090821021, -0.1498280042332685, 0.06639756218164207, 0.14982800423326845, -0.066397562181642042, -0.14982800423326847, 0.066397562181642056, 0.14982800423326847, -0.066397562181642056, -0.14982800423326845, 0.066397562181642042, 0.14982800423326836, -0.066397562181642]}
    - {mu0: 0, rank: 2, ndensity: 2, num_ms_combs: 1, mus: [0, 0], ns: [4, 4], ls: [0, 0], ms_combs: [0, 0], ctildes: [-0.26170622209215838, 1.4193439261287595]}
    - {mu0: 0, rank: 2, ndensity: 2, num_ms_combs: 2, mus: [0, 0], ns: [4, 4], ls: [1, 1], ms_combs: [0, 0, 1, -1], ctildes: [0.42380478590445808, 0.028277776383595007, -0.84760957180891605, -0.056555552767190001]}
    - {mu0: 0, rank: 2, ndensity: 2, num_ms_combs: 3, mus: [0, 0], ns: [4, 4], ls: [2, 2], ms_combs: [0, 0, 1, -1, 2, -2], ctildes: [0.11925206169147308, 0.32471265776033481, -0.23850412338294621, -0.64942531552066962, 0.23850412338294627, 0.64942531552066984]}
    - {mu0: 0, rank: 2, ndensity: 2, num_ms_combs: 4, mus: [0, 0], ns: [4, 4], ls: [3, 3], ms_combs: [0, 0, 1, -1, 2, -2, 3, -3], ctildes: [-0.19782158663421806, -0.0931577759320142, 0.39564317326843612, 0.1863155518640284, -0.39564317326843607, -0.18631555186402837, 0.39564317326843607, 0.18631555186402837]}
    - {mu0: 0, rank: 2, ndensity: 2, num_ms_combs: 5, mus: [0, 0], ns: [4, 4], ls: [4, 4], ms_combs: [0, 0, 1, -1, 2, -2, 3, -3, 4, -4], ctildes: [-0.14960715497261459, 0.040905647683395566, 0.29921430994522902, -0.08181129536679109, -0.29921430994522902, 0.08181129536679109, 0.29921430994522902, -0.08181129536679109, -0.29921430994522907, 0.081811295366791104]}
    - {mu0: 0, rank: 2, ndensity: 2, num_ms_combs: 6, mus: [0, 0], ns: [4, 4], ls: [5, 5], ms_combs: [0, 0, 1, -1, 2, -2, 3, -3, 4, -4, 5, -5], ctildes: [0.091980186745003301, -0.069652214802700979, -0.1839603734900066, 0.13930442960540196, 0.18396037349000663, -0.13930442960540199, -0.18396037349000666, 0.13930442960540201, 0.18396037349000663, -0.13930442960540199, -0.18396037349000643, 0.13930442960540185]}
    - {mu0: 0, rank: 2, ndensity: 2, num_ms_combs: 7, mus: [0, 0], ns: [4, 4], ls: [6, 6], ms_combs: [0, 0, 1, -1, 2, -2, 3, -3, 4, -4, 5, -5, 6, -6], ctildes: [0.11162746569924076, -0.41027160777901672, -0.2232549313984816, 0.82054321555803378, 0.22325493139848152, -0.82054321555803345, -0.22325493139848157, 0.82054321555803367, 0.22325493139848157, -0.82054321555803367, -0.22325493139848152, 0.82054321555803345, 0.22325493139848138, -0.820543215558033]}
    - {mu0: 0, rank: 2, ndensity: 2, num_ms_combs: 1, mus: [0, 0], ns: [4, 5], ls: [0, 0], ms_combs: [0, 0], ctildes: [0.31712701649388253, 0.73590877701621382]}
    - {mu0: 0, rank: 2, ndensity: 2, num_ms_combs: 2, mus: [0, 0], ns: [4, 5], ls: [1, 1], ms_combs: [0, 0, 1, -1], ctildes: [0.033783993053337853, 2.0825045797800863, -0.067567986106675693, -4.1650091595601717]}
    - {mu0: 0, rank: 2, ndensity: 2, num_ms_combs: 3, mus: [0, 0], ns: [4, 5], ls: [2, 2], ms_combs: [0, 0, 1, -1, 2, -2], ctildes: [0.34725841917651501, -0.92672059416901986, -0.69451683835303013, 1.8534411883380399, 0.69451683835303024, -1.8534411883380404]}
    - {mu0: 0, rank: 2, ndensity: 2, num_ms_combs: 4, mus: [0, 0], ns: [4, 5], ls: [3, 3], ms_combs: [0, 0, 1, -1, 2, -2, 3, -3], ctildes: [0.011336366709675234, 0.41653100544127236, -0.022672733419350468, -0.83306201088254472, 0.022672733419350465, 0.83306201088254461, -0.022672733419350465, -0.83306201088254461]}
    - {mu0: 0, rank: 2, ndensity: 2, num_ms_combs: 5, mus: [0, 0], ns: [4, 5], ls: [4, 4], ms_combs: [0, 0, 1, -1, 2, -2, 3, -3, 4, -4], ctildes: [0.25736950174304662, 0.18998072843909167, -0.51473900348609303, -0.37996145687818311, 0.51473900348609303, 0.37996145687818311, -0.51473900348609303, -0.37996145687818311, 0.51473900348609303, 0.37996145687818317]}
    - {mu0: 0, rank: 2, ndensity: 2, num_ms_combs: 6, mus: [0, 0], ns: [4, 5], ls: [5, 5], ms_combs: [0, 0, 1, -1, 2, -2, 3, -3, 4, -4, 5, -5], ctildes: [0.26011921149041684, 0.051837150895556343, -0.52023842298083367, -0.10367430179111269, 0.52023842298083378, 0.1036743017911127, -0.52023842298083389, -0.10367430179111271, 0.52023842298083378, 0.1036743017911127, -0.52023842298083323, -0.10367430179111259]}
    - {mu0: 0, rank: 2, ndensity: 2, num_ms_combs: 7, mus: [0, 0], ns: [4, 5], ls: [6, 6], ms_combs: [0, 0, 1, -1, 2, -2, 3, -3, 4, -4, 5, -5, 6, -6], ctildes: [0.00030878910168388453, -0.064117743784754169, -0.00061757820336776927, 0.12823548756950839, 0.00061757820336776905, -0.12823548756950834, -0.00061757820336776916, 0.12823548756950837, 0.00061757820336776916, -0.12823548756950837, -0.00061757820336776905, 0.12823548756950834, 0.00061757820336776873, -0.12823548756950826]}
    - {mu0: 0, rank: 2, ndensity: 2, num_ms_combs: 1, mus: [0, 0], ns: [4, 6], ls: [0, 0], ms_combs: [0, 0], ctildes: [-2.5237969566223573, 1.2797140092791259]}
    - {mu0: 0, rank: 2, ndensity: 2, num_ms_combs: 2, mus: [0, 0], ns: [4, 6], ls: [1, 1], ms_combs: [0, 0, 1, -1], ctildes: [-0.54556435016182991, -0.79335662230150228, 1.0911287003236598, 1.5867132446030041]}
    - {mu0: 0, rank: 2, ndensity: 2, num_ms_combs: 3, mus: [0, 0], ns: [4, 6], ls: [2, 2], ms_combs: [0, 0, 1, -1, 2, -2], ctildes: [-0.2946311104832936, -0.46183833969501031, 0.5892622209665872, 0.92367667939002074, -0.58926222096658742, -0.92367667939002096]}
    - {mu0: 0, rank: 2, ndensity: 2, num_ms_combs: 4, mus: [0, 0], ns: [4, 6], ls: [3, 3], ms_combs: [0, 0, 1, -1, 2, -2, 3, -3], ctildes: [-0.1467557943811785, 0.24295386604587921, 0.293511588762357, -0.48590773209175842, -0.29351158876235695, 0.48590773209175836, 0.29351158876235695, -0.48590773209175836]}
    - {mu0: 0, rank: 2, ndensity: 2, num_ms_combs: 5, mus: [0, 0], ns: [4, 6], ls: [4, 4], ms_combs: [0, 0, 1, -1, 2, -2, 3, -3, 4, -4], ctildes: [-0.3278121219030985, 0.47830646673699784, 0.65562424380619666, -0.95661293347399512, -0.65562424380619666, 0.95661293347399512, 0.65562424380619666, -0.95661293347399512, -0.65562424380619677, 0.95661293347399534]}
    - {mu0: 0, rank: 2, ndensity: 2, num_ms_combs: 6, mus: [0, 0], ns: [4, 6], ls: [5, 5], ms_combs: [0, 0, 1, -1, 2, -2, 3, -3, 4, -4, 5, -5], ctildes: [-0.12301526230267197, 0.036191856474107019, 0.24603052460534394, -0.072383712948214038, -0.24603052460534397, 0.072383712948214052, 0.24603052460534403, -0.072383712948214052, -0.24603052460534397, 0.072383712948214052, 0.24603052460534372, -0.072383712948213969]}
    - {mu0: 0, rank: 2, ndensity: 2, num_ms_combs: 7, mus: [0, 0], ns: [4, 6], ls: [6, 6], ms_combs: [0, 0, 1, -1, 2, -2, 3, -3, 4, -4, 5, -5, 6, -6], ctildes: [-0.063736094883519681, 0.049337335141767531, 0.12747218976703939, -0.098674670283535104, -0.12747218976703936, 0.098674670283535063, 0.12747218976703939, -0.09867467028353509, -0.12747218976703939, 0.09867467028353509, 0.12747218976703936, -0.098674670283535063, -0.12747218976703928, 0.098674670283535007]}
    - {mu0: 0, rank: 2, ndensity: 2, num_ms_combs: 1, mus: [0, 0], ns: [5, 5], ls: [0, 0], ms_combs: [0, 0], ctildes: [1.3203684598764522, -1.271530748135441]}
    - {mu0: 0, rank: 2, ndensity: 2, num_ms_combs: 2, mus: [0, 0], ns: [5, 5], ls: [1, 1], ms_combs: [0, 0, 1, -1], ctildes: [0.28956199367223412, -0.67043525104918977, -0.57912398734446813, 1.3408705020983791]}
    - {mu0: 0, rank: 2, ndensity: 2, num_ms_combs: 3, mus: [0, 0], ns: [5, 5], ls: [2, 2], ms_combs: [0, 0, 1, -1, 2, -2], ctildes: [0.12726382821095528, 0.17505816133998198, -0.25452765642191061, -0.35011632267996401, 0.25452765642191066, 0.35011632267996412]}
    - {mu0: 0, rank: 2, ndensity: 2, num_ms_combs: 4, mus: [0, 0], ns: [5, 5], ls: [3, 3], ms_combs: [0, 0, 1, -1, 2, -2, 3, -3], ctildes: [-0.024562311483278892, 0.12112919763792822, 0.049124622966557785, -0.24225839527585644, -0.049124622966557778, 0.24225839527585641, 0.049124622966557778, -0.24225839527585641]}
    - {mu0: 0, rank: 2, ndensity: 2, num_ms_combs: 5, mus: [0, 0], ns: [5, 5], ls: [4, 4], ms_combs: [0, 0, 1, -1, 2, -2, 3, -3, 4, -4], ctildes: [0.24018196363397118, -0.81456382726225851, -0.48036392726794214, 1.6291276545245161, 0.48036392726794214, -1.6291276545245161, -0.48036392726794214, 1.6291276545245161, 0.48036392726794219, -1.6291276545245164]}
    - {mu0: 0, rank: 2, ndensity: 2, num_ms_combs: 6, mus: [0, 0], ns: [5, 5], ls: [5, 5], ms_combs: [0, 0, 1, -1, 2, -2, 3, -3, 4, -4, 5, -5], ctildes: [0.20103711231454144, 0.11764103607520673, -0.40207422462908288, -0.23528207215041347, 0.40207422462908299, 0.23528207215041352, -0.40207422462908304, -0.23528207215041355, 0.40207422462908299, 0.23528207215041352, -0.40207422462908254, -0.23528207215041325]}
    - {mu0: 0, rank: 2, ndensity: 2, num_ms_combs: 7, mus: [0, 0], ns: [5, 5], ls: [6, 6], ms_combs: [0, 0, 1, -1, 2, -2, 3, -3, 4, -4, 5, -5, 6, -6], ctildes: [-0.020609505258132651, 0.098430059836913386, 0.041219010516265316, -0.19686011967382686, -0.041219010516265302, 0.19686011967382677, 0.041219010516265309, -0.1968601196738268, -0.041219010516265309, 0.1968601196738268, 0.041219010516265302, -0.19686011967382677, -0.041219010516265274, 0.19686011967382666]}
    - {mu0: 0, rank: 2, ndensity: 2, num_ms_combs: 1, mus: [0, 0], ns: [5, 6], ls: [0, 0], ms_combs: [0, 0], ctildes: [-1.0693859200297273, -0.74765058561447162]}
    - {mu0: 0, rank: 2, ndensity: 2, num_ms_combs: 2, mus: [0, 0], ns: [5, 6], ls: [1, 1], ms_combs: [0, 0, 1, -1], ctildes: [-0.57968251173743246, 0.44608716522614478, 1.1593650234748647, -0.89217433045228933]}
    - {mu0: 0, rank: 2, ndensity: 2, num_ms_combs: 3, mus: [0, 0], ns: [5, 6], ls: [2, 2], ms_combs: [0, 0, 1, -1, 2, -2], ctildes: [-0.045670616514188807, -1.0053870520320305, 0.091341233028377627, 2.0107741040640614, -0.091341233028377655, -2.0107741040640619]}
    - {mu0: 0, rank: 2, ndensity: 2, num_ms_combs: 4, mus: [0, 0], ns: [5, 6], ls: [3, 3], ms_combs: [0, 0, 1, -1, 2, -2, 3, -3], ctildes: [0.0024738995211484654, -0.20542657027815012, -0.0049477990422969308, 0.41085314055630023, 0.00494779904229693, -0.41085314055630018, -0.00494779904229693, 0.41085314055630018]}
    - {mu0: 0, rank: 2, ndensity: 2, num_ms_combs: 5, mus: [0, 0], ns: [5, 6], ls: [4, 4], ms_combs: [0, 0, 1, -1, 2, -2, 3, -3, 4, -4], ctildes: [0.29152366093716703, 0.13903010299853416, -0.58304732187433372, -0.27806020599706821, 0.58304732187433372, 0.27806020599706821, -0.58304732187433372, -0.27806020599706821, 0.58304732187433383, 0.27806020599706827]}
    - {mu0: 0, rank: 2, ndensity: 2, num_ms_combs: 6, mus: [0, 0], ns: [5, 6], ls: [5, 5], ms_combs: [0, 0, 1, -1, 2, -2, 3, -3, 4, -4, 5, -5], ctildes: [-0.18762517289100256, -0.048677520399145392, 0.37525034578200511, 0.097355040798290784, -0.37525034578200522, -0.097355040798290798, 0.37525034578200528, 0.097355040798290812, -0.37525034578200522, -0.097355040798290798, 0.37525034578200478, 0.097355040798290687]}
    - {mu0: 0, rank: 2, ndensity: 2, num_ms_combs: 7, mus: [0, 0], ns: [5, 6], ls: [6, 6], ms_combs: [0, 0, 1, -1, 2, -2, 3, -3, 4, -4, 5, -5, 6, -6], ctildes: [-0.042787457024574392, 0.28769806539677339, 0.085574914049148812, -0.57539613079354712, -0.085574914049148784, 0.57539613079354679, 0.085574914049148798, -0.57539613079354701, -0.085574914049148798, 0.57539613079354701, 0.085574914049148784, -0.57539613079354679, -0.085574914049148729, 0.57539613079354646]}
    - {mu0: 0, rank: 2, ndensity: 2, num_ms_combs: 1, mus: [0, 0], ns: [6, 6], ls: [0, 0], ms_combs: [0, 0], ctildes: [1.1991236148274658, -1.8743020319689565]}
    - {mu0: 0, rank: 2, ndensity: 2, num_ms_combs: 2, mus: [0, 0], ns: [6, 6], ls: [1, 1], ms_combs: [0, 0, 1, -1], ctildes: [0.20538831472964592, 0.49634893087140386, -0.41077662945929178, -0.99269786174280761]}
    - {mu0: 0, rank: 2, ndensity: 2, num_ms_combs: 3, mus: [0, 0], ns: [6, 6], ls: [2, 2], ms_combs: [0, 0, 1, -1, 2, -2], ctildes: [0.0093457171659961386, -0.065775382445376632, -0.018691434331992277, 0.13155076489075326, 0.018691434331992284, -0.13155076489075332]}
    - {mu0: 0, rank: 2, ndensity: 2, num_ms_combs: 4, mus: [0, 0], ns: [6, 6], ls: [3, 3], ms_combs: [0, 0, 1, -1, 2, -2, 3, -3], ctildes: [0.055244377766581435, -0.4721792277606921, -0.11048875553316287, 0.9443584555213842, 0.11048875553316284, -0.94435845552138409, -0.11048875553316284, 0.94435845552138409]}
    - {mu0: 0, rank: 2, ndensity: 2, num_ms_combs: 5, mus: [0, 0], ns: [6, 6], ls: [4, 4], ms_combs: [0, 0, 1, -1, 2, -2, 3, -3, 4, -4], ctildes: [-0.16073034007712958, 0.39499144407495013, 0.32146068015425899, -0.78998288814989981, -0.32146068015425899, 0.78998288814989981, 0.32146068015425899, -0.78998288814989981, -0.32146068015425905, 0.78998288814990003]}
    - {mu0: 0, rank: 2, ndensity: 2, num_ms_combs: 6, mus: [0, 0], ns: [6, 6], ls: [5, 5], ms_combs: [0, 0, 1, -1, 2, -2, 3, -3, 4, -4, 5, -5], ctildes: [0.040546356546338355, 0.0054608196303276664, -0.08109271309267671, -0.010921639260655333, 0.081092713092676724, 0.010921639260655336, -0.081092713092676738, -0.010921639260655338, 0.081092713092676724, 0.010921639260655336, -0.081092713092676627, -0.010921639260655324]}
    - {mu0: 0, rank: 2, ndensity: 2, num_ms_combs: 7, mus: [0, 0], ns: [6, 6], ls: [6, 6], ms_combs: [0, 0, 1, -1, 2, -2, 3, -3, 4, -4, 5, -5, 6, -6], ctildes: [0.0069128145976557788, 0.14239646679464524, -0.013825629195311563, -0.28479293358929064, 0.013825629195311558, 0.28479293358929048, -0.013825629195311561, -0.28479293358929053, 0.013825629195311561, 0.28479293358929053, -0.013825629195311558, -0.28479293358929048, 0.013825629195311549, 0.28479293358929031]}
    - {mu0: 0, rank: 3, ndensity: 2, num_ms_combs: 1, mus: [0, 0, 0], ns: [1, 1, 1], ls: [0, 0, 0], ms_combs: [0, 0, 0], ctildes: [-0.0054333765345306404, -1.091355395952734]}
    - {mu0: 0, rank: 3, ndensity: 2, num_ms_combs: 2, mus: [0, 0, 0], ns: [1, 1, 1], ls: [0, 1, 1], ms_combs: [0, 0, 0, 0, 1, -1], ctildes: [0.11023379639597022, -0.88466183395068954, -0.22046759279194042, 1.7693236679013788]}
    - {mu0: 0, rank: 3, ndensity: 2, num_ms_combs: 3, mus: [0, 0, 0], ns: [1, 1, 1], ls: [0, 2, 2], ms_combs: [0, 0, 0, 0, 1, -1, 0, 2, -2], ctildes: [-0.055007053567298375, -1.1414016594613499, 0.11001410713459676, 2.2828033189226997, -0.11001410713459679, -2.2828033189227006]}
    - {mu0: 0, rank: 3, ndensity: 2, num_ms_combs: 4, mus: [0, 0, 0], ns: [1, 1, 1], ls: [0, 3, 3], ms_combs: [0, 0, 0, 0, 1, -1, 0, 2, -2, 0, 3, -3], ctildes: [-0.048008180007174814, 0.23916868115333242, 0.096016360014349628, -0.47833736230666485, -0.096016360014349614, 0.47833736230666479, 0.096016360014349614, -0.47833736230666479]}
    - {mu0: 0, rank: 3, ndensity: 2, num_ms_combs: 5, mus: [0, 0, 0], ns: [1, 1, 1], ls: [0, 4, 4], ms_combs: [0, 0, 0, 0, 1, -1, 0, 2, -2, 0, 3, -3, 0, 4, -4], ctildes: [-0.0032253196316928512, 0.011773626632183582, 0.0064506392633856997, -0.02354725326436715, -0.0064506392633856997, 0.02354725326436715, 0.0064506392633856997, -0.02354725326436715, -0.0064506392633857006, 0.023547253264367157]}
    - {mu0: 0, rank: 3, ndensity: 2, num_ms_combs: 4, mus: [0, 0, 0], ns: [1, 1, 1], ls: [1, 1, 2], ms_combs: [-1, 1, 0, 0, 0, 0, 0, 1, -1, 1, 1, -2], ctildes: [0.05389763395342366, -1.1452467330933471, 0.053897633953423653, -1.1452467330933469, -0.18670688083015841, 3.967251057839901, 0.13202170152919365, -2.8052701256680983]}
    - {mu0: 0, rank: 3, ndensity: 2, num_ms_combs: 8, mus: [0, 0, 0], ns: [1, 1, 1], ls: [1, 2, 3], ms_combs: [0, 0, 0, 0, 1, -1, 0, 2, -2, 1, -2, 1, 1, -1, 0, 1, 0, -1, 1, 1, -2, 1, 2, -3], ctildes: [0.16708253023261796, -0.092547161971829953, -0.31505384038744133, 0.17450860215960193, 0.24907193030186495, -0.1379611635291301, -0.11138835348841196, 0.061698107981219955, 0.1929302876133715, -0.10686425775434381, -0.27284462933537196, 0.15112888264912724, 0.35224090183934365, -0.19510654854366821, -0.4314052380220843, 0.23895574470377176]}
    - {mu0: 0, rank: 3, ndensity: 2, num_ms_combs: 11, mus: [0, 0, 0], ns: [1, 1, 1], ls: [1, 3, 4], ms_combs: [0, 0, 0, 0, 1, -1, 0, 2, -2, 0, 3, -3, 1, -3, 2, 1, -2, 1, 1, -1, 0, 1, 0, -1, 1, 1, -2, 1, 2, -3, 1, 3, -4], ctildes: [-0.026541782255918491, 0.35074109539417897, 0.051397940327917897, -0.67920721064610068, -0.045971715390680901, 0.60750139752508003, 0.035111477600793597, -0.46398685649168953, -0.013270891127959237, 0.17537054769708935, 0.02298585769534045, -0.30375069876254002, -0.032506911695528447, 0.42956835777028873, 0.041966242544472239, -0.55457036523399894, -0.05139794032791789, 0.67920721064610057, 0.060814863133391101, -0.80364880948777562, -0.070222955201587209, 0.92797371298337927]}
    - {mu0: 0, rank: 3, ndensity: 2, num_ms_combs: 5, mus: [0, 0, 0], ns: [1, 1, 1], ls: [2, 2, 2], ms_combs: [-2, 0, 2, -2, 1, 1, -1, -1, 2, -1, 0, 1, 0, 0, 0], ctildes: [0.51364223579557589, 0.47715252900136113, -0.41938712934716049, -0.38959340851062896, -0.20969356467358025, -0.19479670425531448, 0.25682111789778789, 0.23857626450068048, -0.085607039299262611, -0.079525421500226817]}
    - {mu0: 0, rank: 3, ndensity: 2, num_ms_combs: 10, mus: [0, 0, 0], ns: [1, 1, 1], ls: [2, 2, 4], ms_combs: [-2, 1, 1, -2, 2, 0, -1, 1, 0, -1, 2, -1, 0, 0, 0, 0, 1, -1, 0, 2, -2, 1, 1, -2, 1, 2, -3, 2, 2, -4], ctildes: [0.03663096610921749, -0.32881781084918771, -0.016381866060340259, 0.14705179545429034, -0.065527464241361064, 0.58820718181716147, 0.03663096610921749, -0.32881781084918771, -0.049145598181020801, 0.44115538636287116, 0.17945435150553293, -1.6108717098390091, -0.12689338886299661, 1.1390583096487317, -0.10360801814896914, 0.93003721530550432, 0.19383285321804952, -1.7399403083112539, -0.13706052492721954, 1.2303235908666998]}
    - {mu0: 0, rank: 3, ndensity: 2, num_ms_combs: 9, mus: [0, 0, 0], ns: [1, 1, 1], ls: [2, 3, 3], ms_combs: [0, -3, 3, 0, -1, 1, 0, 0, 0, 1, -3, 2, 1, -2, 1, 1, -1, 0, 2, -3, 1, 2, -2, 0, 2, -1, -1], ctildes: [-0.068317839280451514, -0.15077979199196659, 0.040990703568270906, 0.090467875195179931, -0.027327135712180609, -0.060311916796786637, 0.13663567856090303, 0.30155958398393318, -0.10583754151282547, -0.23358704933180205, 0.03864640594497596, 0.085293930706733329, -0.086415990779018237, -0.19072302712841238, 0.12221066616559595, 0.2697230916218526, -0.06693753862663028, -0.14773342156132133]}
    - {mu0: 0, rank: 3, ndensity: 2, num_ms_combs: 13, mus: [0, 0, 0], ns: [1, 1, 1], ls: [2, 4, 4], ms_combs: [0, -4, 4, 0, -3, 3, 0, -2, 2, 0, -1, 1, 0, 0, 0, 1, -4, 3, 1, -3, 2, 1, -2, 1, 1, -1, 0, 2, -4, 2, 2, -3, 1, 2, -2, 0, 2, -1, -1], ctildes: [0.010714959601891521, 0.011855642128166357, -0.0026787399004728806, -0.0029639105320415898, -0.0030614170291118621, -0.0033873263223332438, 0.0065055111868627105, 0.0071980684349581469, -0.0038267712863898308, -0.0042341579029165589, -0.018558854431524101, -0.020534574522338138, 0.01753646908716492, 0.019403349094510594, -0.011930692134551212, -0.01320079790721738, 0.0041920179119375447, 0.0046382875909323365, 0.0099201249676820653, 0.01097619177796664, -0.014880187451523096, -0.016464287666949958, 0.01778522575431905, 0.019678587651850012, -0.0093736370139890727, -0.010371526352518435]}
    - {mu0: 0, rank: 3, ndensity: 2, num_ms_combs: 17, mus: [0, 0, 0], ns: [1, 1, 1], ls: [3, 3, 4], ms_combs: [-3, 1, 2, -3, 2, 1, -3, 3, 0, -2, 1, 1, -2, 2, 0, -2, 3, -1, -1, 1, 0, -1, 2, -1, -1, 3, -2, 0, 0, 0, 0, 1, -1, 0, 2, -2, 0, 3, -3, 1, 1, -2, 1, 2, -3, 1, 3, -4, 2, 2, -4], ctildes: [0.030307413524744482, -0.3178169430554757, -0.022589812287841723, 0.23688676302440775, 0.012372949759858304, -0.12974822368284894, -0.023330657809270038, 0.24465559683480373, 0.028870216106336038, -0.30274585525998077, -0.022589812287841723, 0.23688676302440775, 0.0041243165866194347, -0.043249407894282978, -0.023330657809270038, 0.24465559683480373, 0.030307413524744482, -0.3178169430554757, -0.012372949759858304, 0.12974822368284894, 0.031946818908928164, -0.33500847301577896, 0.014287051749047815, -0.14982034374033723, -0.065471496097762802, 0.68656306583439819, -0.026084468410657077, 0.27353327279920192, 0.030863559243437772, -0.32364893304248599, 0.053457252712046308, -0.5605763958450436, -0.034506508247959436, 0.36185050756413845]}
    - {mu0: 0, rank: 3, ndensity: 2, num_ms_combs: 13, mus: [0, 0, 0], ns: [1, 1, 1], ls: [4, 4, 4], ms_combs: [-4, 0, 4, -4, 1, 3, -4, 2, 2, -3, -1, 4, -3, 0, 3, -3, 1, 2, -2, -2, 4, -2, -1, 3, -2, 0, 2, -2, 1, 1, -1, -1, 2, -1, 0, 1, 0, 0, 0], ctildes: [-0.0057243101026909346, 0.05870621191581029, 0.012067905305077136, -0.12376356163631838, -0.0068418592034381054, 0.070167344027424139, 0.0060339526525385653, -0.06188178081815917, -0.0085864651540364014, 0.088059317873715431, 0.0045612394689587363, -0.046778229351616088, -0.0034209296017190523, 0.035083672013712063, 0.0022806197344793682, -0.023389114675808044, 0.0044976722235428764, -0.04612630936242236, -0.0051719594164616293, 0.053041526415565025, -0.0025859797082308147, 0.026520763207782513, 0.0036799136374441725, -0.037739707660163761, -0.001226637879148058, 0.012579902553387924]}
    - {mu0: 0, rank: 3, ndensity: 2, num_ms_combs: 1, mus: [0, 0, 0], ns: [1, 1, 2], ls: [0, 0, 0], ms_combs: [0, 0, 0], ctildes: [-0.53374308296652839, 6.6932468212772411]}
    - {mu0: 0, rank: 3, ndensity: 2, num_ms_combs: 2, mus: [0, 0, 0], ns: [1, 1, 2], ls: [0, 1, 1], ms_combs: [0, 0, 0, 0, 1, -1], ctildes: [-0.7761902490355902, 0.18611292623692396, 1.5523804980711802, -0.37222585247384787]}
    - {mu0: 0, rank: 3, ndensity: 2, num_ms_combs: 3, mus: [0, 0, 0], ns: [1, 1, 2], ls: [0, 2, 2], ms_combs: [0, 0, 0, 0, 1, -1, 0, 2, -2], ctildes: [-0.26374971224304777, -0.88668004828514924, 0.52749942448609566, 1.7733600965702987, -0.52749942448609577, -1.7733600965702991]}
    - {mu0: 0, rank: 3, ndensity: 2, num_ms_combs: 4, mus: [0, 0, 0], ns: [1, 1, 2], ls: [0, 3, 3], ms_combs: [0, 0, 0, 0, 1, -1, 0, 2, -2, 0, 3, -3], ctildes: [0.10025317685348403, -0.35382911263209366, -0.20050635370696807, 0.70765822526418731, 0.20050635370696804, -0.7076582252641872, -0.20050635370696804, 0.7076582252641872]}
    - {mu0: 0, rank: 3, ndensity: 2, num_ms_combs: 5, mus: [0, 0, 0], ns: [1, 1, 2], ls: [0, 4, 4], ms_combs: [0, 0, 0, 0, 1, -1, 0, 2, -2, 0, 3, -3, 0, 4, -4], ctildes: [0.0060028361701652917, 0.027959376616650811, -0.012005672340330578, -0.055918753233301595, 0.012005672340330578, 0.055918753233301595, -0.012005672340330578, -0.055918753233301595, 0.01200567234033058, 0.055918753233301602]}
    - {mu0: 0, rank: 3, ndensity: 2, num_ms_combs: 2, mus: [0, 0, 0], ns: [1, 1, 2], ls: [1, 1, 0], ms_combs: [0, 0, 0, 1, -1, 0], ctildes: [-0.71283367197452729, -2.6540702049770886, 1.4256673439490544, 5.3081404099541754]}
    - {mu0: 0, rank: 3, ndensity: 2, num_ms_combs: 4, mus: [0, 0, 0], ns: [1, 1, 2], ls: [1, 1, 2], ms_combs: [-1, 1, 0, 0, 0, 0, 0, 1, -1, 1, 1, -2], ctildes: [-0.15655534147473699, 0.93974948237190137, -0.15655534147473696, 0.93974948237190126, 0.54232361126107909, -3.2553876997093729, -0.3834807031202862, 2.3019067178557742]}
    - {mu0: 0, rank: 3, ndensity: 2, num_ms_combs: 5, mus: [0, 0, 0], ns: [1, 1, 2], ls: [1, 2, 1], ms_combs: [0, 0, 0, 0, 1, -1, 1, -2, 1, 1, -1, 0, 1, 0, -1], ctildes: [-0.24934587965883112, 0.92522168800678395, 0.43187973222705056, -1.6025309718923901, -0.61077017462955552, 2.266321034573155, 0.43187973222705056, -1.6025309718923901, -0.24934587965883109, 0.92522168800678384]}
    - {mu0: 0, rank: 3, ndensity: 2, num_ms_combs: 8, mus: [0, 0, 0], ns: [1, 1, 2], ls: [1, 2, 3], ms_combs: [0, 0, 0, 0, 1, -1, 0, 2, -2, 1, -2, 1, 1, -1, 0, 1, 0, -1, 1, 1, -2, 1, 2, -3], ctildes: [-0.012637249888729293, 0.18421750651936872, 0.023829026911651802, -0.34736386152832704, -0.018838499866566896, 0.27461524481521266, 0.0084248332591528603, -0.12281167101291246, -0.014592239250148848, 0.2127160539567983, 0.020636542652953508, -0.30082592844019129, -0.02664166200606264, 0.38836460365208147, 0.032629238907273379, -0.47564755655291402]}
    - {mu0: 0, rank: 3, ndensity: 2, num_ms_combs: 8, mus: [0, 0, 0], ns: [1, 1, 2], ls: [1, 3, 2], ms_combs: [0, 0, 0, 0, 1, -1, 0, 2, -2, 1, -3, 2, 1, -2, 1, 1, -1, 0, 1, 0, -1, 1, 1, -2], ctildes: [0.2891506300058474, 0.3235370369833025, -0.54522765669732576, -0.61006728750905626, 0.43104030961997708, 0.48230053862235223, -0.74658371637202015, -0.8353690374117495, 0.60958305179406946, 0.68207596285957905, -0.47218100154574488, -0.52833376900070772, 0.3338823881404519, 0.37358839079024736, -0.19276708667056502, -0.21569135798886846]}
    - {mu0: 0, rank: 3, ndensity: 2, num_ms_combs: 11, mus: [0, 0, 0], ns: [1, 1, 2], ls: [1, 3, 4], ms_combs: [0, 0, 0, 0, 1, -1, 0, 2, -2, 0, 3, -3, 1, -3, 2, 1, -2, 1, 1, -1, 0, 1, 0, -1, 1, 1, -2, 1, 2, -3, 1, 3, -4], ctildes: [0.022093750204418925, -0.3786268725357318, -0.042784363298490585, 0.73320778587874347, 0.038267497883788831, -0.65580098034279244, -0.029227284284837455, 0.5008762722078488, 0.011046875102209456, -0.18931343626786579, -0.019133748941894416, 0.32790049017139622, 0.02705920725266895, -0.4637213203091744, -0.034933286350387248, 0.59866165027958229, 0.042784363298490578, -0.73320778587874336, -0.050623141348597869, 0.86754315176969321, 0.058454568569674917, -1.0017525444156976]}
    - {mu0: 0, rank: 3, ndensity: 2, num_ms_combs: 11, mus: [0, 0, 0], ns: [1, 1, 2], ls: [1, 4, 3], ms_combs: [0, 0, 0, 0, 1, -1, 0, 2, -2, 0, 3, -3, 1, -4, 3, 1, -3, 2, 1, -2, 1, 1, -1, 0, 1, 0, -1, 1, 1, -2, 1, 2, -3], ctildes: [0.023219221282882015, -0.37805128961919787, -0.044963828670253427, 0.73209317435369503, 0.040216870974136246, -0.65480404148738702, -0.030716142575541956, 0.50011484757982583, 0.061432285151083912, -1.0002296951596517, -0.053201919553368233, 0.86622432562782337, 0.044963828670253427, -0.73209317435369503, -0.036712812374681991, 0.59775157378031774, 0.028437622183916173, -0.46301637808408874, -0.020108435487068123, 0.32740202074369351, 0.011609610641441004, -0.18902564480959888]}
    - {mu0: 0, rank: 3, ndensity: 2, num_ms_combs: 3, mus: [0, 0, 0], ns: [1, 1, 2], ls: [2, 2, 0], ms_combs: [0, 0, 0, 1, -1, 0, 2, -2, 0], ctildes: [0.66188258032213032, -1.6035862271242129, -1.3237651606442606, 3.2071724542484263, 1.3237651606442611, -3.2071724542484272]}
    - {mu0: 0, rank: 3, ndensity: 2, num_ms_combs: 8, mus: [0, 0, 0], ns: [1, 1, 2], ls: [2, 2, 2], ms_combs: [-2, 1, 1, -2, 2, 0, -1, 1, 0, -1, 2, -1, 0, 0, 0, 0, 1, -1, 0, 2, -2, 1, 1, -2], ctildes: [-0.29994043012665994, -0.4410011705743595, 0.24490033568040928, 0.36007594795908937, 0.12245016784020464, 0.18003797397954469, -0.29994043012665994, -0.4410011705743595, -0.12245016784020464, -0.18003797397954469, 0.24490033568040928, 0.36007594795908937, 0.48980067136081884, 0.72015189591817907, -0.29994043012665994, -0.4410011705743595]}
    - {mu0: 0, rank: 3, ndensity: 2, num_ms_combs: 10, mus: [0, 0, 0], ns: [1, 1, 2], ls: [2, 2, 4], ms_combs: [-2, 1, 1, -2, 2, 0, -1, 1, 0, -1, 2, -1, 0, 0, 0, 0, 1, -1, 0, 2, -2, 1, 1, -2, 1, 2, -3, 2, 2, -4], ctildes: [-0.044085586214434681, 0.09902757220059985, 0.019715673520680717, -0.044286476617461948, 0.078862694082722895, -0.17714590646984785, -0.044085586214434681, 0.09902757220059985, 0.059147020562042171, -0.13285942985238589, -0.21597438247368247, 0.48513404471617988, 0.15271695040971789, -0.34304157280326852, 0.12469286785924374, -0.28009227130993836, -0.23327899505178321, 0.5240046579625609, 0.164953159309499, -0.3705272470186643]}
    - {mu0: 0, rank: 3, ndensity: 2, num_ms_combs: 8, mus: [0, 0, 0], ns: [1, 1, 2], ls: [2, 3, 1], ms_combs: [0, 0, 0, 0, 1, -1, 1, -2, 1, 1, -1, 0, 1, 0, -1, 2, -3, 1, 2, -2, 0, 2, -1, -1], ctildes: [-0.12230856939060937, 0.21052301835788501, 0.19972905745118807, -0.34378264939159586, -0.25784910442071868, 0.44382149193623815, 0.23062725016886743, -0.39696601033792139, -0.14122977092373262, 0.24309104263907477, 0.31579936823218946, -0.54356809606227119, -0.18232685025876835, 0.31382918658444464, 0.081539046260406214, -0.14034867890525662]}
    - {mu0: 0, rank: 3, ndensity: 2, num_ms_combs: 14, mus: [0, 0, 0], ns: [1, 1, 2], ls: [2, 3, 3], ms_combs: [0, 0, 0, 0, 1, -1, 0, 3, -3, 1, -3, 2, 1, -2, 1, 1, -1, 0, 1, 0, -1, 1, 1, -2, 1, 2, -3, 2, -3, 1, 2, -2, 0, 2, -1, -1, 2, 0, -2, 2, 1, -3], ctildes: [0.0068857172496481333, -0.094618964002105177, -0.010328575874472197, 0.14192844600315774, 0.017214293124120331, -0.23654741000526291, -0.017214293124120331, 0.23654741000526291, 0.013334134117290179, -0.18322883590777619, -0.004868937360559376, 0.066905711074734364, -0.0048689373605593795, 0.06690571107473442, 0.01333413411729018, -0.18322883590777622, -0.017214293124120331, 0.23654741000526291, 0.010887274916399172, -0.14960571804606662, -0.015396931844056118, 0.21157443546931273, 0.0168664937747183, -0.2317681817959274, -0.015396931844056114, 0.2115744354693127, 0.010887274916399171, -0.14960571804606659]}
    - {mu0: 0, rank: 3, ndensity: 2, num_ms_combs: 13, mus: [0, 0, 0], ns: [1, 1, 2], ls: [2, 4, 2], ms_combs: [0, 0, 0, 0, 1, -1, 0, 2, -2, 1, -3, 2, 1, -2, 1, 1, -1, 0, 1, 0, -1, 1, 1, -2, 2, -4, 2, 2, -3, 1, 2, -2, 0, 2, -1, -1, 2, 0, -2], ctildes: [0.0019181320898100042, 0.29044345622908696, -0.0035020140462115493, -0.53027477552145108, 0.0024762978798867257, 0.3749608896633923, -0.0037826074926131958, -0.57276221984349351, 0.0040437775045721767, 0.61230856878355633, -0.0035020140462115488, -0.53027477552145108, 0.0025575094530800066, 0.38725794163878274, -0.0014296912475463006, -0.2164837705827411, 0.0053494148171876676, 0.81000809931758855, -0.0037826074926131962, -0.57276221984349351, 0.0024762978798867248, 0.37496088966339214, -0.0014296912475463006, -0.2164837705827411, 0.00063937736327000143, 0.096814485409695672]}
    - {mu0: 0, rank: 3, ndensity: 2, num_ms_combs: 20, mus: [0, 0, 0], ns: [1, 1, 2], ls: [2, 4, 4], ms_combs: [0, 0, 0, 0, 1, -1, 0, 2, -2, 0, 3, -3, 0, 4, -4, 1, -4, 3, 1, -3, 2, 1, -2, 1, 1, -1, 0, 1, 0, -1, 1, 1, -2, 1, 2, -3, 1, 3, -4, 2, -4, 2, 2, -3, 1, 2, -2, 0, 2, -1, -1, 2, 0, -2, 2, 1, -3, 2, 2, -4], ctildes: [-0.00025569532116833575, 0.14634043763272608, 0.00043468204598617058, -0.24877874397563426, -0.00020455625693466839, 0.11707235010618076, -0.00017898672481783494, 0.10243830634290822, 0.00071594689927133965, -0.40975322537163283, -0.00062002820252967858, 0.35485670245444428, 0.00058587158204997101, -0.33530806634246552, -0.00039858955876907916, 0.2281221658635714, 0.00014005009525242573, -0.080153958766622013, 0.00014005009525242562, -0.080153958766621944, -0.00039858955876907927, 0.22812216586357142, 0.0005858715820499709, -0.33530806634246546, -0.00062002820252967869, 0.35485670245444439, 0.00033141901485762024, -0.18967888599784491, -0.00049712852228643025, 0.28451832899676732, 0.00059418223235287258, -0.34006444669695191, -0.0006263230664794885, 0.35845940093576373, 0.00059418223235287225, -0.34006444669695168, -0.00049712852228643025, 0.28451832899676732, 0.00033141901485762029, -0.18967888599784494]}
    - {mu0: 0, rank: 3, ndensity: 2, num_ms_combs: 4, mus: [0, 0, 0], ns: [1, 1, 2], ls: [3, 3, 0], ms_combs: [0, 0, 0, 1, -1, 0, 2, -2, 0, 3, -3, 0], ctildes: [0.45906226681991319, 0.13421183834036657, -0.91812453363982638, -0.26842367668073314, 0.91812453363982627, 0.26842367668073308, -0.91812453363982627, -0.26842367668073308]}
    - {mu0: 0, rank: 3, ndensity: 2, num_ms_combs: 12, mus: [0, 0, 0], ns: [1, 1, 2], ls: [3, 3, 2], ms_combs: [-3, 1, 2, -3, 2, 1, -3, 3, 0, -2, 1, 1, -2, 3, -1, -1, 1, 0, -1, 2, -1, -1, 3, -2, 0, 0, 0, 0, 1, -1, 0, 2, -2, 1, 1, -2], ctildes: [-0.051866732116976115, -0.11010539827197312, 0.082008504139725671, 0.1740919206097013, -0.082008504139725658, -0.17409192060970127, -0.063523514156107908, -0.13485102184612738, 0.082008504139725671, 0.1740919206097013, 0.049205102483835382, 0.10445515236582074, -0.063523514156107908, -0.13485102184612738, -0.051866732116976115, -0.11010539827197312, -0.032803401655890262, -0.069636768243880515, 0.046391015513732078, 0.098481262090327926, 0.14670127199159969, 0.31142509505343119, -0.080351595884499957, -0.17057454953395476]}
    - {mu0: 0, rank: 3, ndensity: 2, num_ms_combs: 17, mus: [0, 0, 0], ns: [1, 1, 2], ls: [3, 3, 4], ms_combs: [-3, 1, 2, -3, 2, 1, -3, 3, 0, -2, 1, 1, -2, 2, 0, -2, 3, -1, -1, 1, 0, -1, 2, -1, -1, 3, -2, 0, 0, 0, 0, 1, -1, 0, 2, -2, 0, 3, -3, 1, 1, -2, 1, 2, -3, 1, 3, -4, 2, 2, -4], ctildes: [-0.013601370176438395, 0.099870809137640917, 0.010137862767218186, -0.074439306066557409, -0.0055527361224971495, 0.040772087097684685, 0.010470339643619271, -0.076880584719736952, -0.01295638428582668, 0.095134869894597573, 0.010137862767218186, -0.074439306066557409, -0.0018509120408323832, 0.013590695699228229, 0.010470339643619271, -0.076880584719736952, -0.013601370176438395, 0.099870809137640917, 0.0055527361224971495, -0.040772087097684685, -0.014337103018877197, 0.10527307621296733, -0.0064117473901253762, 0.047079550922542242, 0.029382317752185069, -0.21574560578707772, 0.011706195595321812, -0.08595510679163175, -0.013850957419698625, 0.10170345390882819, -0.023990561984391149, 0.17615554947533005, 0.015485841171950612, -0.11370791824332832]}
    - {mu0: 0, rank: 3, ndensity: 2, num_ms_combs: 11, mus: [0, 0, 0], ns: [1, 1, 2], ls: [3, 4, 1], ms_combs: [0, 0, 0, 0, 1, -1, 1, -2, 1, 1, -1, 0, 1, 0, -1, 2, -3, 1, 2, -2, 0, 2, -1, -1, 3, -4, 1, 3, -3, 0, 3, -2, -1], ctildes: [-0.076417829476500332, 0.72915557132463715, 0.12082719749604683, -1.1528961869936054, -0.14798249045790207, 1.4120036922673374, 0.14798249045790204, -1.4120036922673371, -0.093592344734220789, 0.89302954642645338, 0.17509524401014526, -1.6707052994969613, -0.13235956325743323, 1.2629344961561844, 0.066179781628716586, -0.63146724807809196, -0.20218257252616115, 1.9291643088022099, 0.10109128626308055, -0.96458215440110462, -0.03820891473825018, 0.36457778566231863]}
    - {mu0: 0, rank: 3, ndensity: 2, num_ms_combs: 22, mus: [0, 0, 0], ns: [1, 1, 2], ls: [3, 4, 3], ms_combs: [0, 0, 0, 0, 1, -1, 0, 2, -2, 0, 3, -3, 1, -4, 3, 1, -3, 2, 1, -2, 1, 1, -1, 0, 1, 0, -1, 1, 1, -2, 1, 2, -3, 2, -4, 2, 2, -3, 1, 2, -2, 0, 2, -1, -1, 2, 0, -2, 2, 1, -3, 3, -4, 1, 3, -3, 0, 3, -2, -1, 3, -1, -2, 3, 0, -3], ctildes: [0.018408730733763382, -0.17365214262673853, -0.023765569185560734, 0.22418395214219777, -0.010628285644577622, 0.10025811129090276, 0.048704923473889494, -0.45944038402386883, -0.039767403490777314, 0.3751315026956103, -0.022959721110372745, 0.21658227406281944, 0.038809011967623333, -0.36609086084593895, -0.023765569185560744, 0.22418395214219786, -0.0061362435779211341, 0.057884047542246242, 0.034711835559683456, -0.32744162031717428, -0.045091997110010849, 0.42535914217651755, 0.051339497147230399, -0.48429268752595367, -0.022959721110372748, 0.21658227406281946, -0.01062828564457762, 0.10025811129090274, 0.034711835559683463, -0.32744162031717433, -0.04295370504544789, 0.40518833279572325, 0.033609590259736109, -0.31704398558589703, -0.039767403490777314, 0.3751315026956103, 0.048704923473889487, -0.45944038402386878, -0.045091997110010856, 0.4253591421765176, 0.033609590259736102, -0.31704398558589697, -0.018408730733763382, 0.17365214262673853]}
    - {mu0: 0, rank: 3, ndensity: 2, num_ms_combs: 5, mus: [0, 0, 0], ns: [1, 1, 2], ls: [4, 4, 0], ms_combs: [0, 0, 0, 1, -1, 0, 2, -2, 0, 3, -3, 0, 4, -4, 0], ctildes: [0.14167759407239719, -0.27761099528356287, -0.28335518814479421, 0.55522199056712551, 0.28335518814479421, -0.55522199056712551, -0.28335518814479421, 0.55522199056712551, 0.28335518814479427, -0.55522199056712562]}
    - {mu0: 0, rank: 3, ndensity: 2, num_ms_combs: 18, mus: [0, 0, 0], ns: [1, 1, 2], ls: [4, 4, 2], ms_combs: [-4, 2, 2, -4, 3, 1, -4, 4, 0, -3, 1, 2, -3, 2, 1, -3, 3, 0, -3, 4, -1, -2, 1, 1, -2, 2, 0, -2, 3, -1, -2, 4, -2, -1, 1, 0, -1, 2, -1, -1, 3, -2, 0, 0, 0, 0, 1, -1, 0, 2, -2, 1, 1, -2], ctildes: [0.0026156392948006313, 0.00031515760416888283, -0.0048934130442634827, -0.00058960588881823916, 0.0056504266767230934, 0.00068081823724999756, -0.0039234589422009478, -0.00047273640625332424, 0.004623840706228813, 0.00055712519762580678, -0.0014126066691807729, -0.00017020455931249934, -0.0048934130442634827, -0.00058960588881823916, -0.0031457655284550952, -0.00037903235709743936, -0.0016144076219208844, -0.00019451949635714222, 0.004623840706228813, 0.00055712519762580678, 0.0026156392948006313, 0.00031515760416888283, 0.0034306161965818776, 0.00041335392975892706, -0.0031457655284550952, -0.00037903235709743936, -0.0039234589422009478, -0.00047273640625332424, -0.0020180095274011053, -0.00024314937044642775, 0.0022106186788358496, 0.00026635679007337688, 0.0093788607505348558, 0.0011300561548557991, -0.0049430936382077358, -0.000595591888872712]}
    - {mu0: 0, rank: 3, ndensity: 2, num_ms_combs: 25, mus: [0, 0, 0], ns: [1, 1, 2], ls: [4, 4, 4], ms_combs: [-4, 1, 3, -4, 2, 2, -4, 3, 1, -4, 4, 0, -3, 1, 2, -3, 2, 1, -3, 3, 0, -3, 4, -1, -2, 1, 1, -2, 2, 0, -2, 3, -1, -2, 4, -2, -1, 1, 0, -1, 2, -1, -1, 3, -2, -1, 4, -3, 0, 0, 0, 0, 1, -1, 0, 2, -2, 0, 3, -3, 0, 4, -4, 1, 1, -2, 1, 2, -3, 1, 3, -4, 2, 2, -4], ctildes: [-0.01468152892375137, 0.13908766064516764, 0.016647289027906235, -0.15771058307351105, -0.014681528923751361, 0.13908766064516759, 0.009285414186538974, -0.087966760412658884, -0.005549096342635413, 0.052570194357837025, -0.005549096342635413, 0.052570194357837025, 0.013928121279808464, -0.13195014061898835, -0.014681528923751361, 0.13908766064516759, 0.012584167648929745, -0.11921799483871515, -0.0072956825751377694, 0.069116740324232012, -0.005549096342635413, 0.052570194357837025, 0.016647289027906235, -0.15771058307351105, -0.0059691948342036278, 0.056550060265280727, 0.012584167648929745, -0.11921799483871515, -0.005549096342635413, 0.052570194357837025, -0.01468152892375137, 0.13908766064516764, 0.0059691948342036278, -0.056550060265280727, -0.011938389668407252, 0.11310012053056141, -0.014591365150275523, 0.13823348064846389, 0.027856242559616915, -0.2639002812379766, 0.018570828373077948, -0.17593352082531777, 0.012584167648929744, -0.11921799483871512, -0.011098192685270826, 0.10514038871567405, -0.029363057847502743, 0.27817532129033534, 0.016647289027906239, -0.15771058307351107]}
    - {mu0: 0, rank: 3, ndensity: 2, num_ms_combs: 1, mus: [0, 0, 0], ns: [1, 1, 3], ls: [0, 0, 0], ms_combs: [0, 0, 0], ctildes: [-0.12248992877744602, -0.22714604374939074]}
    - {mu0: 0, rank: 3, ndensity: 2, num_ms_combs: 2, mus: [0, 0, 0], ns: [1, 1, 3], ls: [0, 1, 1], ms_combs: [0, 0, 0, 0, 1, -1], ctildes: [-0.18720345535904734, -0.18761915161343976, 0.37440691071809462, 0.37523830322687945]}
    - {mu0: 0, rank: 3, ndensity: 2, num_ms_combs: 3, mus: [0, 0, 0], ns: [1, 1, 3], ls: [0, 2, 2], ms_combs: [0, 0, 0, 0, 1, -1, 0, 2, -2], ctildes: [0.01359427877662295, 1.3504151553478212, -0.027188557553245903, -2.7008303106956428, 0.02718855755324591, 2.7008303106956433]}
    - {mu0: 0, rank: 3, ndensity: 2, num_ms_combs: 4, mus: [0, 0, 0], ns: [1, 1, 3], ls: [0, 3, 3], ms_combs: [0, 0, 0, 0, 1, -1, 0, 2, -2, 0, 3, -3], ctildes: [-0.0098804793294207591, 0.16789689607614258, 0.019760958658841518, -0.33579379215228516, -0.019760958658841515, 0.33579379215228511, 0.019760958658841515, -0.33579379215228511]}
    - {mu0: 0, rank: 3, ndensity: 2, num_ms_combs: 5, mus: [0, 0, 0], ns: [1, 1, 3], ls: [0, 4, 4], ms_combs: [0, 0, 0, 0, 1, -1, 0, 2, -2, 0, 3, -3, 0, 4, -4], ctildes: [0.0033483500029951501, -0.069674370049927006, -0.0066967000059902967, 0.13934874009985393, 0.0066967000059902967, -0.13934874009985393, -0.0066967000059902967, 0.13934874009985393, 0.0066967000059902984, -0.13934874009985396]}
    - {mu0: 0, rank: 3, ndensity: 2, num_ms_combs: 2, mus: [0, 0, 0], ns: [1, 1, 3], ls: [1, 1, 0], ms_combs: [0, 0, 0, 1, -1, 0], ctildes: [0.12849159217097461, 1.5126735214895837, -0.25698318434194917, -3.0253470429791669]}
    - {mu0: 0, rank: 3, ndensity: 2, num_ms_combs: 4, mus: [0, 0, 0], ns: [1, 1, 3], ls: [1, 1, 2], ms_combs: [-1, 1, 0, 0, 0, 0, 0, 1, -1, 1, 1, -2], ctildes: [0.022111920264818615, -1.1191896921104503, 0.022111920264818612, -1.1191896921104501, -0.076597938703155427, 3.8769868200853375, 0.054162921881912705, -2.7414436710532115]}
    - {mu0: 0, rank: 3, ndensity: 2, num_ms_combs: 5, mus: [0, 0, 0], ns: [1, 1, 3], ls: [1, 2, 1], ms_combs: [0, 0, 0, 0, 1, -1, 1, -2, 1, 1, -1, 0, 1, 0, -1], ctildes: [0.29055464897742167, -0.81804470166643894, -0.50325541440423494, 1.4168949861487969, 0.71171063238816124, -2.0037921058700672, -0.50325541440423494, 1.4168949861487969, 0.29055464897742167, -0.81804470166643883]}
    - {mu0: 0, rank: 3, ndensity: 2, num_ms_combs: 8, mus: [0, 0, 0], ns: [1, 1, 3], ls: [1, 2, 3], ms_combs: [0, 0, 0, 0, 1, -1, 0, 2, -2, 1, -2, 1, 1, -1, 0, 1, 0, -1, 1, 1, -2, 1, 2, -3], ctildes: [-0.0088326252482506893, -0.046154811064235822, 0.016654957889913533, 0.087030346367746772, -0.013166900316579661, -0.068803530018860443, 0.0058884168321671256, 0.030769874042823876, -0.010199037129457239, -0.05329498518466573, 0.01442361663162519, 0.07537049085462745, -0.018620809002121552, -0.097302885291816812, 0.022805740326510705, 0.11917120973275673]}
    - {mu0: 0, rank: 3, ndensity: 2, num_ms_combs: 8, mus: [0, 0, 0], ns: [1, 1, 3], ls: [1, 3, 2], ms_combs: [0, 0, 0, 0, 1, -1, 0, 2, -2, 1, -3, 2, 1, -2, 1, 1, -1, 0, 1, 0, -1, 1, 1, -2], ctildes: [-0.36040895456826522, 0.4578916950848213, 0.67959364206819928, -0.86340886038261389, -0.53726594807618322, 0.68258463769484501, 0.93057191924461158, -1.1822712729534657, -0.75980879037057714, 0.96532045209557482, 0.5885453582814496, -0.74773400694391523, -0.41616441387667918, 0.52872778683383148, 0.24027263637884358, -0.3052611300565477]}
    - {mu0: 0, rank: 3, ndensity: 2, num_ms_combs: 11, mus: [0, 0, 0], ns: [1, 1, 3], ls: [1, 3, 4], ms_combs: [0, 0, 0, 0, 1, -1, 0, 2, -2, 0, 3, -3, 1, -3, 2, 1, -2, 1, 1, -1, 0, 1, 0, -1, 1, 1, -2, 1, 2, -3, 1, 3, -4], ctildes: [-0.015073494390291745, -0.12738850796657666, 0.029189696371375411, 0.24668678492638102, -0.026108058131589749, -0.22064336809850338, 0.019940358772719557, 0.16851915598356604, -0.0075367471951458672, -0.06369425398328829, 0.013054029065794875, 0.11032168404925169, -0.018461184948459702, -0.15601842180629133, 0.023833287285546473, 0.20141891645244339, -0.029189696371375407, -0.24668678492638099, 0.034537714515502055, 0.29188374021216112, -0.039880717545439121, -0.33703831196713213]}
    - {mu0: 0, rank: 3, ndensity: 2, num_ms_combs: 11, mus: [0, 0, 0], ns: [1, 1, 3], ls: [1, 4, 3], ms_combs: [0, 0, 0, 0, 1, -1, 0, 2, -2, 0, 3, -3, 1, -4, 3, 1, -3, 2, 1, -2, 1, 1, -1, 0, 1, 0, -1, 1, 1, -2, 1, 2, -3], ctildes: [-0.040672806919226145, 0.39617723593375309, 0.078762551920836324, -0.76719391845895613, -0.070447368070538641, 0.6861991014394625, 0.053805066115609743, -0.52409322069283626, -0.10761013223121949, 1.0481864413856725, 0.09319310821683871, -0.90775608614240111, -0.078762551920836324, 0.76719391845895613, 0.064309354348505363, -0.62641121133028244, -0.049813811679422546, 0.48521603787195955, 0.03522368403526932, -0.34309955071973125, -0.020336403459613069, 0.19808861796687652]}
    - {mu0: 0, rank: 3, ndensity: 2, num_ms_combs: 3, mus: [0, 0, 0], ns: [1, 1, 3], ls: [2, 2, 0], ms_combs: [0, 0, 0, 1, -1, 0, 2, -2, 0], ctildes: [-0.21628725020328551, -0.090157506476657129, 0.43257450040657108, 0.18031501295331429, -0.43257450040657119, -0.18031501295331431]}
    - {mu0: 0, rank: 3, ndensity: 2, num_ms_combs: 8, mus: [0, 0, 0], ns: [1, 1, 3], ls: [2, 2, 2], ms_combs: [-2, 1, 1, -2, 2, 0, -1, 1, 0, -1, 2, -1, 0, 0, 0, 0, 1, -1, 0, 2, -2, 1, 1, -2], ctildes: [0.39654759807221229, -0.68557153017490924, -0.3237797580010634, 0.55976681036920262, -0.1618898790005317, 0.27988340518460131, 0.39654759807221229, -0.68557153017490924, 0.1618898790005317, -0.27988340518460131, -0.3237797580010634, 0.55976681036920262, -0.64755951600212713, 1.1195336207384059, 0.39654759807221229, -0.68557153017490924]}
    - {mu0: 0, rank: 3, ndensity: 2, num_ms_combs: 10, mus: [0, 0, 0], ns: [1, 1, 3], ls: [2, 2, 4], ms_combs: [-2, 1, 1, -2, 2, 0, -1, 1, 0, -1, 2, -1, 0, 0, 0, 0, 1, -1, 0, 2, -2, 1, 1, -2, 1, 2, -3, 2, 2, -4], ctildes: [0.021267260943035802, -0.26422303933118813, -0.0095110082327708682, 0.11816413543322746, -0.038044032931083487, 0.47265654173291, 0.021267260943035802, -0.26422303933118813, -0.028533024698312617, 0.35449240629968248, 0.104187875074119, -1.2944232492974832, -0.0736719529823264, 0.91529545730377504, -0.060152897720337689, 0.74733561142721172, 0.11253576704557947, -1.3981369054479238, -0.07957480400395886, 0.98863208686940185]}
    - {mu0: 0, rank: 3, ndensity: 2, num_ms_combs: 8, mus: [0, 0, 0], ns: [1, 1, 3], ls: [2, 3, 1], ms_combs: [0, 0, 0, 0, 1, -1, 1, -2, 1, 1, -1, 0, 1, 0, -1, 2, -3, 1, 2, -2, 0, 2, -1, -1], ctildes: [-0.37511098688249417, -0.21773941658497425, 0.61255367651596282, 0.35556697834965845, -0.79080339593481663, -0.45903499520317348, 0.70731606005917247, 0.41057338133023441, -0.43314085850518819, -0.25142382155705378, 0.96853240345021885, 0.56220075616434939, -0.55918244385085913, -0.32458675791009833, 0.25007399125499602, 0.14515961105664946]}
