  DATE: 2018-03-30 CONTRIBUTOR: Xiaowang Zhou xzhou@sandia.gov and Lucas Hale lucas.hale@nist.gov CITATION: X. W. Zhou, R. A. Johnson, H. N. G. Wadley, Phys. Rev. B, 69, 144113(2004)
  Generated from Zhou04_create_v2.f
  Fixes precision issues with older version
    5 Ti Zr Hf Nb Ta          
 2000  0.1002575835559828E+00 2000  0.3579473904204014E-02  0.7155368334503824E+01
   22     47.880         4.1491    fcc     
  0.0000000000000000E+00 -0.3919703188385837E-01 -0.7806979498731570E-01 -0.1166196573977492E+00 -0.1548479872025319E+00
 -0.1927561524890371E+00 -0.2303455213446415E+00 -0.2676174618567178E+00 -0.3045733421126409E+00 -0.3412145301997862E+00
 -0.3775423942055260E+00 -0.4135583022172369E+00 -0.4492636223222926E+00 -0.4846597226080662E+00 -0.5197479711619346E+00
 -0.5545297360712707E+00 -0.5890063854234475E+00 -0.6231792873058426E+00 -0.6570498098058286E+00 -0.6906193210107794E+00
 -0.7238891890080705E+00 -0.7568607818850757E+00 -0.7895354677291704E+00 -0.8219146146277285E+00 -0.8539995906681228E+00
 -0.8857917639377311E+00 -0.9172925025239251E+00 -0.9485031745140788E+00 -0.9794251479955696E+00 -0.1010059791055768E+01
 -0.1040408471782053E+01 -0.1070472558261796E+01 -0.1100253418582371E+01 -0.1129752420831154E+01 -0.1158970933095519E+01
 -0.1187910323462840E+01 -0.1216571960020492E+01 -0.1244957210855849E+01 -0.1273067444056285E+01 -0.1300904027709176E+01
 -0.1328468329901895E+01 -0.1355761718721816E+01 -0.1382785562256315E+01 -0.1409541228592766E+01 -0.1436030085818541E+01
 -0.1462253502021019E+01 -0.1488212845287570E+01 -0.1513909483705572E+01 -0.1539344785362396E+01 -0.1564520118345419E+01
 -0.1589436850742015E+01 -0.1614096350639557E+01 -0.1638499986125421E+01 -0.1662649125286981E+01 -0.1686545136211611E+01
 -0.1710189386986686E+01 -0.1733583245699580E+01 -0.1756728080437667E+01 -0.1779625259288323E+01 -0.1802276150338920E+01
 -0.1824682121676835E+01 -0.1846844541389440E+01 -0.1868764777564112E+01 -0.1890444198288223E+01 -0.1911884171649149E+01
 -0.1933086065734264E+01 -0.1954051248630941E+01 -0.1974781088426557E+01 -0.1995276953208485E+01 -0.2015540211064099E+01
 -0.2035572230080774E+01 -0.2055374378345886E+01 -0.2074948023946806E+01 -0.2094294534970910E+01 -0.2113415279505575E+01
 -0.2132311625638171E+01 -0.2150984941456075E+01 -0.2169436595046661E+01 -0.2187667954497303E+01 -0.2205680387895376E+01
 -0.2223475263328254E+01 -0.2241053948883313E+01 -0.2258417812647924E+01 -0.2275568222709465E+01 -0.2292506547155309E+01
 -0.2309234154072829E+01 -0.2325752411549401E+01 -0.2342062687672400E+01 -0.2358166350529198E+01 -0.2374064768207172E+01
 -0.2389759308793696E+01 -0.2405251340376143E+01 -0.2420542231041888E+01 -0.2435633348878306E+01 -0.2450526061972771E+01
 -0.2465221738412658E+01 -0.2479721746285340E+01 -0.2494027453678193E+01 -0.2508140228678590E+01 -0.2522061439373907E+01
 -0.2535792453851518E+01 -0.2549334640198796E+01 -0.2562689366503117E+01 -0.2575858000851855E+01 -0.2588841911332383E+01
 -0.2601642466032078E+01 -0.2614261033038312E+01 -0.2626698980438461E+01 -0.2638957676319900E+01 -0.2651038488770001E+01
 -0.2662942785876141E+01 -0.2674671935725693E+01 -0.2686227306406030E+01 -0.2697610266004530E+01 -0.2708822182608565E+01
 -0.2719864424305509E+01 -0.2730738359182738E+01 -0.2741445355327626E+01 -0.2751986780827547E+01 -0.2762364003769876E+01
 -0.2772578392241986E+01 -0.2782631314331252E+01 -0.2792524138125050E+01 -0.2802258231710754E+01 -0.2811834963175736E+01
 -0.2821255700607373E+01 -0.2830521812093039E+01 -0.2839634665720107E+01 -0.2848595629575952E+01 -0.2857406071747950E+01
 -0.2866067360323473E+01 -0.2874580863389897E+01 -0.2882947949034597E+01 -0.2891169985344946E+01 -0.2899248340408318E+01
 -0.2907184382312090E+01 -0.2914979479143633E+01 -0.2922634998990324E+01 -0.2930152309939536E+01 -0.2937532780078645E+01
 -0.2944777777495023E+01 -0.2951888670276047E+01 -0.2958866826509090E+01 -0.2965713614281527E+01 -0.2972430401680731E+01
 -0.2979018556794078E+01 -0.2985479447708942E+01 -0.2991814442512698E+01 -0.2998024909292719E+01 -0.3004112216136380E+01
 -0.3010077731131056E+01 -0.3015922822364122E+01 -0.3021648857922950E+01 -0.3027257205894917E+01 -0.3032749234367395E+01
 -0.3038126311427760E+01 -0.3043389805163387E+01 -0.3048541083661649E+01 -0.3053581515009921E+01 -0.3058512467295577E+01
 -0.3063335308605993E+01 -0.3068051407028542E+01 -0.3072662130650597E+01 -0.3077168847559536E+01 -0.3081572925842730E+01
 -0.3085875733587557E+01 -0.3090078638881387E+01 -0.3094183009811598E+01 -0.3098190214465563E+01 -0.3102101620930657E+01
 -0.3105918597294253E+01 -0.3109642511643727E+01 -0.3113274732066453E+01 -0.3116816626649805E+01 -0.3120269563481159E+01
 -0.3123634910647886E+01 -0.3126914036237364E+01 -0.3130108308336965E+01 -0.3133219095034065E+01 -0.3136247764416038E+01
 -0.3139195684570258E+01 -0.3142064223584099E+01 -0.3144854749544937E+01 -0.3147568630540145E+01 -0.3150207234657098E+01
 -0.3152771929983170E+01 -0.3155264084605736E+01 -0.3157685066612171E+01 -0.3160036244089848E+01 -0.3162318985126142E+01
 -0.3164534657808427E+01 -0.3166684630224077E+01 -0.3168770270460469E+01 -0.3170792946604975E+01 -0.3172754026744970E+01
 -0.3174654878967829E+01 -0.3176496871360926E+01 -0.3178281372011635E+01 -0.3180009749007331E+01 -0.3181683370435388E+01
 -0.3183303604383181E+01 -0.3184871818938083E+01 -0.3186389382187471E+01 -0.3187857662218717E+01 -0.3189278027119197E+01
 -0.3190651844976283E+01 -0.3191980483877353E+01 -0.3193265311909779E+01 -0.3194507697160935E+01 -0.3195709007718198E+01
 -0.3196870611668940E+01 -0.3197993877100537E+01 -0.3199080172100362E+01 -0.3200130864755790E+01 -0.3201147323154196E+01
 -0.3202130915382953E+01 -0.3203083009529438E+01 -0.3204005116528458E+01 -0.3204897959394897E+01 -0.3205762032850197E+01
 -0.3206597608557503E+01 -0.3207404958179962E+01 -0.3208184353380720E+01 -0.3208936065822923E+01 -0.3209660367169716E+01
 -0.3210357529084247E+01 -0.3211027823229661E+01 -0.3211671521269104E+01 -0.3212288894865722E+01 -0.3212880215682662E+01
 -0.3213445755383070E+01 -0.3213985785630091E+01 -0.3214500578086873E+01 -0.3214990404416560E+01 -0.3215455536282299E+01
 -0.3215896245347237E+01 -0.3216312803274519E+01 -0.3216705481727291E+01 -0.3217074552368699E+01 -0.3217420286861890E+01
 -0.3217742956870011E+01 -0.3218042834056206E+01 -0.3218320190083621E+01 -0.3218575296615404E+01 -0.3218808425314700E+01
 -0.3219019847844655E+01 -0.3219209835868416E+01 -0.3219378661049127E+01 -0.3219526595049937E+01 -0.3219653909533990E+01
 -0.3219760876164433E+01 -0.3219847766604412E+01 -0.3219914852517073E+01 -0.3219962405565562E+01 -0.3219990697413026E+01
 -0.3219999999722609E+01 -0.3219990584157459E+01 -0.3219962722380722E+01 -0.3219916686055543E+01 -0.3219852746845069E+01
 -0.3219771176412446E+01 -0.3219672246420819E+01 -0.3219556228533337E+01 -0.3219423394413143E+01 -0.3219274015723384E+01
 -0.3219108364127207E+01 -0.3218926711287758E+01 -0.3218729328868182E+01 -0.3218516488531626E+01 -0.3218288461941235E+01
 -0.3218045520760157E+01 -0.3217787936651536E+01 -0.3217515981278520E+01 -0.3217229926304254E+01 -0.3216930043391884E+01
 -0.3216616604204558E+01 -0.3216289880405419E+01 -0.3215950143657615E+01 -0.3215597665624292E+01 -0.3215232717968596E+01
 -0.3214855572353674E+01 -0.3214466500442670E+01 -0.3214065773898731E+01 -0.3213653664385004E+01 -0.3213230443564634E+01
 -0.3212796383100768E+01 -0.3212351754656552E+01 -0.3211896829895131E+01 -0.3211431880479652E+01 -0.3210957178073262E+01
 -0.3210472994339105E+01 -0.3209979600940328E+01 -0.3209477269540078E+01 -0.3208966271801501E+01 -0.3208445809781761E+01
 -0.3207913419930160E+01 -0.3207369315241299E+01 -0.3206813571332827E+01 -0.3206246263111129E+01 -0.3205667464780290E+01
 -0.3205077249850880E+01 -0.3204475691148636E+01 -0.3203862860822973E+01 -0.3203238830355396E+01 -0.3202603670567753E+01
 -0.3201957451630373E+01 -0.3201300243070084E+01 -0.3200632113778085E+01 -0.3199953132017728E+01 -0.3199263365432150E+01
 -0.3198562881051809E+01 -0.3197851745301898E+01 -0.3197130024009648E+01 -0.3196397782411511E+01 -0.3195655085160256E+01
 -0.3194901996331934E+01 -0.3194138579432754E+01 -0.3193364897405851E+01 -0.3192581012637956E+01 -0.3191786986965960E+01
 -0.3190982881683389E+01 -0.3190168757546780E+01 -0.3189344674781960E+01 -0.3188510693090236E+01 -0.3187666871654498E+01
 -0.3186813269145224E+01 -0.3185949943726408E+01 -0.3185076953061389E+01 -0.3184194354318612E+01 -0.3183302204177291E+01
 -0.3182400558833000E+01 -0.3181489474003178E+01 -0.3180569004932562E+01 -0.3179639206398537E+01 -0.3178700132716409E+01
 -0.3177751837744611E+01 -0.3176794374889824E+01 -0.3175827797112039E+01 -0.3174852156929540E+01 -0.3173867506423812E+01
 -0.3172873897244396E+01 -0.3171871380613661E+01 -0.3170860007331521E+01 -0.3169839827780079E+01 -0.3168810891928208E+01
 -0.3167773249336075E+01 -0.3166726949159598E+01 -0.3165672040154839E+01 -0.3164608570682347E+01 -0.3163536588711430E+01
 -0.3162456141824376E+01 -0.3161367277220620E+01 -0.3160270041720847E+01 -0.3159164481771038E+01 -0.3158050643446480E+01
 -0.3156928572455697E+01 -0.3155798314144348E+01 -0.3154659913499060E+01 -0.3153513415151226E+01 -0.3152358863380731E+01
 -0.3151196302119650E+01 -0.3150025774955882E+01 -0.3148847325136747E+01 -0.3147660995572528E+01 -0.3146466828839973E+01
 -0.3145264867185743E+01 -0.3144055152529829E+01 -0.3142837726468907E+01 -0.3141612630279669E+01 -0.3140379904922092E+01
 -0.3139139591042681E+01 -0.3137891728977659E+01 -0.3136636358756125E+01 -0.3135373520103164E+01 -0.3134103252442924E+01
 -0.3132825594901647E+01 -0.3131540586310674E+01 -0.3130248265209393E+01 -0.3128948669848170E+01 -0.3127641838191228E+01
 -0.3126327807919501E+01 -0.3125006616433442E+01 -0.3123678300855807E+01 -0.3122342898034393E+01 -0.3121000444544753E+01
 -0.3119650976692872E+01 -0.3118294530517805E+01 -0.3116931141794294E+01 -0.3115560846035347E+01 -0.3114183678494777E+01
 -0.3112799674169732E+01 -0.3111408867803169E+01 -0.3110011293886314E+01 -0.3108606986661089E+01 -0.3107195980122504E+01
 -0.3105778308021033E+01 -0.3104354003864945E+01 -0.3102923100922617E+01 -0.3101485632224820E+01 -0.3100041630566974E+01
 -0.3098591128511378E+01 -0.3097134158389410E+01 -0.3095670752303709E+01 -0.3094200942130321E+01 -0.3092724759520829E+01
 -0.3091242235904451E+01 -0.3089753402490118E+01 -0.3088258290268522E+01 -0.3086756930014151E+01 -0.3085249352287289E+01
 -0.3083735587435994E+01 -0.3082215665598063E+01 -0.3080689616702963E+01 -0.3079157470473744E+01 -0.3077619256428932E+01
 -0.3076075003884399E+01 -0.3074524741955209E+01 -0.3072968499557445E+01 -0.3071406305410016E+01 -0.3069838188036442E+01
 -0.3068264175766622E+01 -0.3066684296738575E+01 -0.3065098578900168E+01 -0.3063507050010821E+01 -0.3061909737643196E+01
 -0.3060306669184865E+01 -0.3058697871839956E+01 -0.3057083372630788E+01 -0.3055463198399481E+01 -0.3053837375809555E+01
 -0.3052205931347499E+01 -0.3050568891324345E+01 -0.3048926281877193E+01 -0.3047278128970753E+01 -0.3045624458398839E+01
 -0.3043965295785874E+01 -0.3042300666588363E+01 -0.3040630596096343E+01 -0.3038955109434841E+01 -0.3037274231565295E+01
 -0.3035587987286965E+01 -0.3033896401238337E+01 -0.3032199497898501E+01 -0.3030497301588518E+01 -0.3028789836472777E+01
 -0.3027077126560330E+01 -0.3025359195706216E+01 -0.3023636067612774E+01 -0.3021907765830935E+01 -0.3020174313761506E+01
 -0.3018435734656445E+01 -0.3016692051620101E+01 -0.3014943287610474E+01 -0.3013189465440427E+01 -0.3011430607778916E+01
 -0.3009666737152186E+01 -0.3007897875944963E+01 -0.3006124046401630E+01 -0.3004345270627400E+01 -0.3002561570589459E+01
 -0.3000772968118119E+01 -0.2998979484907941E+01 -0.2997181142518855E+01 -0.2995377962377267E+01 -0.2993569965777152E+01
 -0.2991757173881147E+01 -0.2989939607721613E+01 -0.2988117288201702E+01 -0.2986290236096411E+01 -0.2984458472053614E+01
 -0.2982622016595104E+01 -0.2980780890117602E+01 -0.2978935112893775E+01 -0.2977084705073223E+01 -0.2975229686683483E+01
 -0.2973370077630996E+01 -0.2971505897702083E+01 -0.2969637166563899E+01 -0.2967763903765391E+01 -0.2965886128738231E+01
 -0.2964003860797747E+01 -0.2962117119143852E+01 -0.2960225922861950E+01 -0.2958330290923842E+01 -0.2956430242188622E+01
 -0.2954525795403558E+01 -0.2952616969204976E+01 -0.2950703782119125E+01 -0.2948786252563036E+01 -0.2946864398845376E+01
 -0.2944938239167292E+01 -0.2943007791623240E+01 -0.2941073074201823E+01 -0.2939134104786600E+01 -0.2937190901156904E+01
 -0.2935243480988636E+01 -0.2933291861855074E+01 -0.2931336061227651E+01 -0.2929376096476738E+01 -0.2927411984872414E+01
 -0.2925443743585241E+01 -0.2923471389687008E+01 -0.2921494940151497E+01 -0.2919514411855213E+01 -0.2917529821578129E+01
 -0.2915541186004416E+01 -0.2913548521723162E+01 -0.2911551845229087E+01 -0.2909551172923260E+01 -0.2907546521113793E+01
 -0.2905537906016543E+01 -0.2903525343755796E+01 -0.2901508850364958E+01 -0.2899488441787221E+01 -0.2897464133876246E+01
 -0.2895435942396815E+01 -0.2893403883025498E+01 -0.2891367971351300E+01 -0.2889328222876309E+01 -0.2887284653016335E+01
 -0.2885237277101548E+01 -0.2883186110377095E+01 -0.2881131168003739E+01 -0.2879072465058461E+01 -0.2877010016535078E+01
 -0.2874943837344853E+01 -0.2872873942317083E+01 -0.2870800346199703E+01 -0.2868723063659875E+01 -0.2866642109284566E+01
 -0.2864557497581133E+01 -0.2862469242977891E+01 -0.2860377359824687E+01 -0.2858281862393456E+01 -0.2856182764878789E+01
 -0.2854080081398474E+01 -0.2851973825994054E+01 -0.2849864012631364E+01 -0.2847750655201076E+01 -0.2845633767519225E+01
 -0.2843513363327742E+01 -0.2841389456294980E+01 -0.2839262060016229E+01 -0.2837131188014235E+01 -0.2834996853739708E+01
 -0.2832859070571829E+01 -0.2830717851818752E+01 -0.2828573210718100E+01 -0.2826425160437458E+01 -0.2824273714074861E+01
 -0.2822118884659282E+01 -0.2819960685151108E+01 -0.2817799128442616E+01 -0.2815634227358444E+01 -0.2813465994656065E+01
 -0.2811294443026243E+01 -0.2809119585093498E+01 -0.2806941433416554E+01 -0.2804760000488802E+01 -0.2802575298738739E+01
 -0.2800387340530416E+01 -0.2798196138163877E+01 -0.2796001703875595E+01 -0.2793804049838907E+01 -0.2791603188164440E+01
 -0.2789399130900541E+01 -0.2787191890033691E+01 -0.2784981477488933E+01 -0.2782767905130279E+01 -0.2780551184761126E+01
 -0.2778331328124661E+01 -0.2776108346904269E+01 -0.2773882252723926E+01 -0.2771653057148606E+01 -0.2769420771684672E+01
 -0.2767185407780265E+01 -0.2764946976825692E+01 -0.2762705490153812E+01 -0.2760460959040419E+01 -0.2758213394704617E+01
 -0.2755962808309194E+01 -0.2753709210961000E+01 -0.2751452613711308E+01 -0.2749193027556189E+01 -0.2746930463436865E+01
 -0.2744664932240076E+01 -0.2742396444798433E+01 -0.2740125011890774E+01 -0.2737850644242517E+01 -0.2735573352526003E+01
 -0.2733293147360844E+01 -0.2731010039314268E+01 -0.2728724038901457E+01 -0.2726435156585881E+01 -0.2724143402779638E+01
 -0.2721848787843781E+01 -0.2719551322088650E+01 -0.2717251015774197E+01 -0.2714947879110309E+01 -0.2712641922257129E+01
 -0.2710333155325381E+01 -0.2708021588376674E+01 -0.2705707231423826E+01 -0.2703390094431169E+01 -0.2701070187314861E+01
 -0.2698747519943189E+01 -0.2696422102136879E+01 -0.2694093943669384E+01 -0.2691763054267200E+01 -0.2689429443610149E+01
 -0.2687093121331678E+01 -0.2684754097019155E+01 -0.2682412380214150E+01 -0.2680067980412729E+01 -0.2677720907065737E+01
 -0.2675371169579077E+01 -0.2673018777314000E+01 -0.2670663739587374E+01 -0.2668306065671965E+01 -0.2665945764796709E+01
 -0.2663582846146987E+01 -0.2661217318864892E+01 -0.2658849192049497E+01 -0.2656478474757121E+01 -0.2654105176001595E+01
 -0.2651729304754520E+01 -0.2649350869945531E+01 -0.2646969880462550E+01 -0.2644586345152043E+01 -0.2642200272819278E+01
 -0.2639811672228568E+01 -0.2637420552103532E+01 -0.2635026921127333E+01 -0.2632630787942931E+01 -0.2630232161153322E+01
 -0.2627831049321784E+01 -0.2625427460972117E+01 -0.2623021404588881E+01 -0.2620612888617630E+01 -0.2618201921465156E+01
 -0.2615788511499711E+01 -0.2613372667051248E+01 -0.2610954396411644E+01 -0.2608533707834934E+01 -0.2606110609537533E+01
 -0.2603685109698463E+01 -0.2601257216459576E+01 -0.2598826937925773E+01 -0.2596394282165229E+01 -0.2593959257209603E+01
 -0.2591521871054268E+01 -0.2589082131658507E+01 -0.2586640046945745E+01 -0.2584195624803749E+01 -0.2581748873084842E+01
 -0.2579299799606112E+01 -0.2576848412149620E+01 -0.2574394718462601E+01 -0.2571938726257675E+01 -0.2569480443213044E+01
 -0.2567019876972695E+01 -0.2564557035146601E+01 -0.2562091925310920E+01 -0.2559624555008186E+01 -0.2557154931747511E+01
 -0.2554683063004774E+01 -0.2552208956222820E+01 -0.2549732618811643E+01 -0.2547254058148583E+01 -0.2544773281578509E+01
 -0.2542290296414009E+01 -0.2539805109935576E+01 -0.2537317729391790E+01 -0.2534828161999505E+01 -0.2532336414944024E+01
 -0.2529842495379290E+01 -0.2527346410428054E+01 -0.2524848167182058E+01 -0.2522347772702215E+01 -0.2519845234018778E+01
 -0.2517340558131519E+01 -0.2514833752009898E+01 -0.2512324822593239E+01 -0.2509813776790896E+01 -0.2507300621482427E+01
 -0.2504785363517757E+01 -0.2502268009717350E+01 -0.2499748566872368E+01 -0.2497227041744845E+01 -0.2494703441067843E+01
 -0.2492177771545616E+01 -0.2489650039853772E+01 -0.2487120252639432E+01 -0.2484588416521393E+01 -0.2482054538090277E+01
 -0.2479518623908698E+01 -0.2476980680511410E+01 -0.2474440714405467E+01 -0.2471898732070369E+01 -0.2469354739958225E+01
 -0.2466808744493895E+01 -0.2464260752075146E+01 -0.2461710769072797E+01 -0.2459158801830871E+01 -0.2456604856666742E+01
 -0.2454048939871279E+01 -0.2451491057708991E+01 -0.2448931216418176E+01 -0.2446369422211057E+01 -0.2443805681273929E+01
 -0.2441239999767304E+01 -0.2438672383826042E+01 -0.2436102839559496E+01 -0.2433531373051653E+01 -0.2430957990361264E+01
 -0.2428382697521990E+01 -0.2425805500542530E+01 -0.2423226405406756E+01 -0.2420645418073854E+01 -0.2418062544478452E+01
 -0.2415477790530750E+01 -0.2412891162116655E+01 -0.2410302665097910E+01 -0.2407712305312224E+01 -0.2405120088573398E+01
 -0.2402526020671457E+01 -0.2399930107372778E+01 -0.2397332354420205E+01 -0.2394732767533188E+01 -0.2392131352407899E+01
 -0.2389528114717360E+01 -0.2386923060111561E+01 -0.2384316194217586E+01 -0.2381707522639735E+01 -0.2379097050959638E+01
 -0.2376484784736381E+01 -0.2373870729506623E+01 -0.2371254890784714E+01 -0.2368637274062807E+01 -0.2366017884810985E+01
 -0.2363396728477369E+01 -0.2360773810488230E+01 -0.2358149136248117E+01 -0.2355522711139954E+01 -0.2352894540525162E+01
 -0.2350264629743769E+01 -0.2347632984114524E+01 -0.2344999608935000E+01 -0.2342364509481713E+01 -0.2339727691010224E+01
 -0.2337089158755251E+01 -0.2334448917930776E+01 -0.2331806973730152E+01 -0.2329163331326208E+01 -0.2326517995871360E+01
 -0.2323870972497705E+01 -0.2321222266317136E+01 -0.2318571882421443E+01 -0.2315919825882413E+01 -0.2313266101751933E+01
 -0.2310610715062094E+01 -0.2307953670825292E+01 -0.2305294974034325E+01 -0.2302634629662495E+01 -0.2299972642663708E+01
 -0.2297309017972571E+01 -0.2294643760504489E+01 -0.2291976875155767E+01 -0.2289308366803698E+01 -0.2286638240306671E+01
 -0.2283966500504251E+01 -0.2281293152217291E+01 -0.2278618200248010E+01 -0.2275941649380104E+01 -0.2273263504378819E+01
 -0.2270583769991059E+01 -0.2267902450945472E+01 -0.2265219551952544E+01 -0.2262535077704685E+01 -0.2259849032876322E+01
 -0.2257161422123993E+01 -0.2254472250086425E+01 -0.2251781521384634E+01 -0.2249089240622008E+01 -0.2246395412384392E+01
 -0.2243700041240182E+01 -0.2241003131740401E+01 -0.2238304688418795E+01 -0.2235604715791915E+01 -0.2232903218359198E+01
 -0.2230200200603055E+01 -0.2227495666988954E+01 -0.2224789621965504E+01 -0.2222082069964535E+01 -0.2219373015401185E+01
 -0.2216662462673976E+01 -0.2213950416164898E+01 -0.2211236880239492E+01 -0.2208521859246928E+01 -0.2205805357520080E+01
 -0.2203087379375618E+01 -0.2200367929114072E+01 -0.2197647011019920E+01 -0.2194924629361663E+01 -0.2192200788391902E+01
 -0.2189475492347416E+01 -0.2186748745449236E+01 -0.2184020551902723E+01 -0.2181290915897647E+01 -0.2178559841608255E+01
 -0.2175827333193345E+01 -0.2173093394796356E+01 -0.2170358030545417E+01 -0.2167621244553441E+01 -0.2164883040918187E+01
 -0.2162143423722338E+01 -0.2159402397033567E+01 -0.2156659964904617E+01 -0.2153916131373363E+01 -0.2151170900462888E+01
 -0.2148424276181554E+01 -0.2145676262523068E+01 -0.2142926863466556E+01 -0.2140176082976629E+01 -0.2137423925003450E+01
 -0.2134670393482810E+01 -0.2131915492336185E+01 -0.2129159225470813E+01 -0.2126401596779757E+01 -0.2123642610141968E+01
 -0.2120882269422359E+01 -0.2118120578471869E+01 -0.2115357541127520E+01 -0.2112593161212495E+01 -0.2109827442536192E+01
 -0.2107060388894295E+01 -0.2104292004068837E+01 -0.2101522291828262E+01 -0.2098751255927485E+01 -0.2095978900107966E+01
 -0.2093205228097758E+01 -0.2090430243611581E+01 -0.2087653950350879E+01 -0.2084876352003880E+01 -0.2082097452245660E+01
 -0.2079317254738202E+01 -0.2076535763130459E+01 -0.2073752981058409E+01 -0.2070968912145120E+01 -0.2068183560000810E+01
 -0.2065396928222896E+01 -0.2062609020396067E+01 -0.2059819840092333E+01 -0.2057029390871084E+01 -0.2054237676279151E+01
 -0.2051444699850862E+01 -0.2048650465108099E+01 -0.2045854975560350E+01 -0.2043058234704775E+01 -0.2040260246026255E+01
 -0.2037461012997450E+01 -0.2034660539078855E+01 -0.2031858827718851E+01 -0.2029055882353767E+01 -0.2026251706407928E+01
 -0.2023446303293714E+01 -0.2020639676411613E+01 -0.2017831829150270E+01 -0.2015022764886544E+01 -0.2012212486985565E+01
 -0.2009400998800780E+01 -0.2006588303674006E+01 -0.2003774404935488E+01 -0.2000959305903945E+01 -0.1998143009886625E+01
 -0.1995325520179352E+01 -0.1992506840066585E+01 -0.1989686972821459E+01 -0.1986865921705839E+01 -0.1984043689970378E+01
 -0.1981220280854554E+01 -0.1978395697586729E+01 -0.1975569943384194E+01 -0.1972743021453216E+01 -0.1969914934989096E+01
 -0.1967085687176207E+01 -0.1964255281188048E+01 -0.1961423720187292E+01 -0.1958591007325829E+01 -0.1955757145744822E+01
 -0.1952922138574744E+01 -0.1950085988935432E+01 -0.1947248699936132E+01 -0.1944410274675548E+01 -0.1941570716241879E+01
 -0.1938730027712876E+01 -0.1935888212155883E+01 -0.1933045272627880E+01 -0.1930201212175534E+01 -0.1927356033835237E+01
 -0.1924509740633156E+01 -0.1921662335585278E+01 -0.1918813821697445E+01 -0.1915964201965416E+01 -0.1913113479374890E+01
 -0.1910261656901563E+01 -0.1907408737511168E+01 -0.1904554724159518E+01 -0.1901699619792548E+01 -0.1898843427346356E+01
 -0.1895986149747250E+01 -0.1893127789911786E+01 -0.1890268350746814E+01 -0.1887407835149514E+01 -0.1884546246007441E+01
 -0.1881683586198571E+01 -0.1878819858591328E+01 -0.1875955066044640E+01 -0.1873089211407973E+01 -0.1870222297521370E+01
 -0.1867354327215494E+01 -0.1864485303311666E+01 -0.1861615228621905E+01 -0.1858744105948971E+01 -0.1855871938086397E+01
 -0.1852998727818539E+01 -0.1850124477920602E+01 -0.1847249191158687E+01 -0.1844372870289831E+01 -0.1841495518062038E+01
 -0.1838617137214324E+01 -0.1835737730476749E+01 -0.1832857300570461E+01 -0.1829975850207728E+01 -0.1827093382091979E+01
 -0.1824209898917839E+01 -0.1821325403371167E+01 -0.1818439898129092E+01 -0.1815553385860048E+01 -0.1812665869223817E+01
 -0.1809777350871557E+01 -0.1806887833445840E+01 -0.1803997319580694E+01 -0.1801105811901632E+01 -0.1798213313025686E+01
 -0.1795319825561449E+01 -0.1792425352109105E+01 -0.1789529895260467E+01 -0.1786633457599008E+01 -0.1783736041699900E+01
 -0.1780837650130046E+01 -0.1777938285448111E+01 -0.1775037950204561E+01 -0.1772136646941698E+01 -0.1769234378193687E+01
 -0.1766331146486593E+01 -0.1763426954338416E+01 -0.1760521804259123E+01 -0.1757615698750682E+01 -0.1754708640307088E+01
 -0.1751800631414404E+01 -0.1748891674550795E+01 -0.1745981772186548E+01 -0.1743070926784118E+01 -0.1740159140798148E+01
 -0.1737246416675515E+01 -0.1734332756855347E+01 -0.1731418163769061E+01 -0.1728502639840398E+01 -0.1725586187485448E+01
 -0.1722668809112683E+01 -0.1719750507122990E+01 -0.1716831283909699E+01 -0.1713911141858615E+01 -0.1710990083348048E+01
 -0.1708068110748843E+01 -0.1705145226424411E+01 -0.1702221432730758E+01 -0.1699296732016516E+01 -0.1696371126622969E+01
 -0.1693444618884089E+01 -0.1690517211126558E+01 -0.1687588905669806E+01 -0.1684659704826030E+01 -0.1681729610900228E+01
 -0.1678798626190235E+01 -0.1675866752986733E+01 -0.1672933993573300E+01 -0.1670000350226426E+01 -0.1667065825215544E+01
 -0.1664130420803057E+01 -0.1661194139244372E+01 -0.1658256982787920E+01 -0.1655318953675186E+01 -0.1652380054140742E+01
 -0.1649440286412264E+01 -0.1646499652710570E+01 -0.1643558155249640E+01 -0.1640615796236645E+01 -0.1637672577871975E+01
 -0.1634728502349265E+01 -0.1631783571855422E+01 -0.1628837788570648E+01 -0.1625891154668472E+01 -0.1622943672315775E+01
 -0.1619995343672810E+01 -0.1617046170893236E+01 -0.1614096156124139E+01 -0.1611145301506062E+01 -0.1608193609173024E+01
 -0.1605241081252549E+01 -0.1602287719865695E+01 -0.1599333527127074E+01 -0.1596378505144877E+01 -0.1593422656020905E+01
 -0.1590465981850586E+01 -0.1587508484723005E+01 -0.1584550166720927E+01 -0.1581591029920820E+01 -0.1578631076392885E+01
 -0.1575670308201071E+01 -0.1572708727403108E+01 -0.1569746336050526E+01 -0.1566783136188681E+01 -0.1563819129856778E+01
 -0.1560854319087894E+01 -0.1557888705909004E+01 -0.1554922292340999E+01 -0.1551955080398719E+01 -0.1548987072090968E+01
 -0.1546018269420535E+01 -0.1543048674384231E+01 -0.1540078288972895E+01 -0.1537107115171427E+01 -0.1534135154958807E+01
 -0.1531162410308121E+01 -0.1528188883186579E+01 -0.1525214575555540E+01 -0.1522239489370535E+01 -0.1519263626581286E+01
 -0.1516286989131732E+01 -0.1513309578960047E+01 -0.1510331397998666E+01 -0.1507352448174303E+01 -0.1504372731407977E+01
 -0.1501392249615026E+01 -0.1498411004705137E+01 -0.1495428998582363E+01 -0.1492446233145146E+01 -0.1489462710286333E+01
 -0.1486478431893206E+01 -0.1483493399847495E+01 -0.1480507616025405E+01 -0.1477521082297629E+01 -0.1474533800529378E+01
 -0.1471545772580394E+01 -0.1468557000304975E+01 -0.1465567485551992E+01 -0.1462577230164915E+01 -0.1459586235981824E+01
 -0.1456594504835440E+01 -0.1453602038553134E+01 -0.1450608838956957E+01 -0.1447614907863651E+01 -0.1444620247084676E+01
 -0.1441624858426226E+01 -0.1438628743689247E+01 -0.1435631904669462E+01 -0.1432634343157385E+01 -0.1429636060938340E+01
 -0.1426637059792487E+01 -0.1423637341494834E+01 -0.1420636907815257E+01 -0.1417635760518525E+01 -0.1414633901364310E+01
 -0.1411631332107212E+01 -0.1408628054496776E+01 -0.1405624070277508E+01 -0.1402619381188900E+01 -0.1399613988965442E+01
 -0.1396607895336641E+01 -0.1393601102027044E+01 -0.1390593610756251E+01 -0.1387585423238937E+01 -0.1384576541184866E+01
 -0.1381566966298912E+01 -0.1378556700281076E+01 -0.1375545744826506E+01 -0.1372534101625509E+01 -0.1369521772363573E+01
 -0.1366508758721383E+01 -0.1363495062374844E+01 -0.1360480684995085E+01 -0.1357465628248492E+01 -0.1354449893796713E+01
 -0.1351433483296683E+01 -0.1348416398400639E+01 -0.1345398640756131E+01 -0.1342380212006050E+01 -0.1339361113788634E+01
 -0.1336341347737494E+01 -0.1333320915481624E+01 -0.1330299818645418E+01 -0.1327278058848693E+01 -0.1324255637706697E+01
 -0.1321232556830132E+01 -0.1318208817825167E+01 -0.1315184422293451E+01 -0.1312159371832140E+01 -0.1309133668033901E+01
 -0.1306107312486936E+01 -0.1303080306774994E+01 -0.1300052652477388E+01 -0.1297024351169012E+01 -0.1293995404420353E+01
 -0.1290965813797511E+01 -0.1287935580862214E+01 -0.1284904707171834E+01 -0.1281873194279394E+01 -0.1278841043733598E+01
 -0.1275808257078835E+01 -0.1272774835855198E+01 -0.1269740781598502E+01 -0.1266706095840293E+01 -0.1263670780107866E+01
 -0.1260634835924286E+01 -0.1257598264808391E+01 -0.1254561068274818E+01 -0.1251523247834009E+01 -0.1248484804992233E+01
 -0.1245445741251597E+01 -0.1242406058110060E+01 -0.1239365757061449E+01 -0.1236324839595474E+01 -0.1233283307197743E+01
 -0.1230241161349772E+01 -0.1227198403529004E+01 -0.1224155035208820E+01 -0.1221111057858558E+01 -0.1218066472943521E+01
 -0.1215021281924996E+01 -0.1211975486260265E+01 -0.1208929087402619E+01 -0.1205882086801374E+01 -0.1202834485901884E+01
 -0.1199786286145555E+01 -0.1196737488969856E+01 -0.1193688095808335E+01 -0.1190638108090634E+01 -0.1187587527242500E+01
 -0.1184536354685799E+01 -0.1181484591838531E+01 -0.1178432240114842E+01 -0.1175379300925037E+01 -0.1172325775675590E+01
 -0.1169271665769169E+01 -0.1166216972604635E+01 -0.1163161697577062E+01 -0.1160105842077749E+01 -0.1157049407494236E+01
 -0.1153992395210311E+01 -0.1150934806606026E+01 -0.1147876643057713E+01 -0.1144817905937986E+01 -0.1141758596615772E+01
 -0.1138698716456302E+01 -0.1135638266821142E+01 -0.1132577249068191E+01 -0.1129515664551711E+01 -0.1126453514622317E+01
 -0.1123390800627009E+01 -0.1120327523909172E+01 -0.1117263685808596E+01 -0.1114199287661484E+01 -0.1111134330800464E+01
 -0.1108068816554606E+01 -0.1105002746249423E+01 -0.1101936121206898E+01 -0.1098868942745487E+01 -0.1095801212180128E+01
 -0.1092732930822261E+01 -0.1089664099979834E+01 -0.1086594720957321E+01 -0.1083524795055723E+01 -0.1080454323572590E+01
 -0.1077383307802028E+01 -0.1074311749034713E+01 -0.1071239648557900E+01 -0.1068167007655432E+01 -0.1065093827607761E+01
 -0.1062020109691947E+01 -0.1058945855181682E+01 -0.1055871065347288E+01 -0.1052795741455741E+01 -0.1049719884770673E+01
 -0.1046643496552386E+01 -0.1043566578057868E+01 -0.1040489130540792E+01 -0.1037411155251544E+01 -0.1034332653437216E+01
 -0.1031253626341634E+01 -0.1028174075205350E+01 -0.1025094001265673E+01 -0.1022013405756665E+01 -0.1018932289909160E+01
 -0.1015850654950766E+01 -0.1012768502105887E+01 -0.1009685832595725E+01 -0.1006602647638294E+01 -0.1003518948448432E+01
 -0.1000434736237805E+01 -0.9973500122149243E+00 -0.9942647775851557E+00 -0.9911790335507281E+00 -0.9880927813107417E+00
 -0.9850060220611832E+00 -0.9819187569949351E+00 -0.9788309873017824E+00 -0.9757427141684262E+00 -0.9726539387784888E+00
 -0.9695646623125335E+00 -0.9664748859480667E+00 -0.9633846108595472E+00 -0.9602938382184010E+00 -0.9572025691930286E+00
 -0.9541108049488166E+00 -0.9510185466481439E+00 -0.9479257954503933E+00 -0.9448325525119665E+00 -0.9417388189862845E+00
 -0.9386445960238033E+00 -0.9355498847720241E+00 -0.9324546863754964E+00 -0.9293590019758355E+00 -0.9262628327117276E+00
 -0.9231661797189432E+00 -0.9200690441303372E+00 -0.9169714270758706E+00 -0.9138733296826124E+00 -0.9107747530747480E+00
 -0.9076756983735949E+00 -0.9045761666976048E+00 -0.9014761591623789E+00 -0.8983756768806741E+00 -0.8952747209624091E+00
 -0.8921732925146795E+00 -0.8890713926417650E+00 -0.8859690224451364E+00 -0.8828661830234641E+00 -0.8797628754726314E+00
 -0.8766591008857390E+00 -0.8735548603531201E+00 -0.8704501549623377E+00 -0.8673449857982045E+00 -0.8642393539427909E+00
 -0.8611332604754250E+00 -0.8580267064727101E+00 -0.8549196930085289E+00 -0.8518122211540553E+00 -0.8487042919777606E+00
 -0.8455959065454233E+00 -0.8424870659201351E+00 -0.8393777711623125E+00 -0.8362680233297073E+00 -0.8331578234774057E+00
 -0.8300471726578509E+00 -0.8269360719208358E+00 -0.8238245223135240E+00 -0.8207125248804530E+00 -0.8176000806635432E+00
 -0.8144871907021016E+00 -0.8113738560328382E+00 -0.8082600776898713E+00 -0.8051458567047315E+00 -0.8020311941063734E+00
 -0.7989160909211835E+00 -0.7958005481729908E+00 -0.7926845668830665E+00 -0.7895681480701431E+00 -0.7864512927504141E+00
 -0.7833340019375452E+00 -0.7802162766426805E+00 -0.7770981178744545E+00 -0.7739795266389926E+00 -0.7708605039399281E+00
 -0.7677410507784033E+00 -0.7646211681530790E+00 -0.7615008570601409E+00 -0.7583801184933118E+00 -0.7552589534438565E+00
 -0.7521373629005877E+00 -0.7490153478498743E+00 -0.7458929092756534E+00 -0.7427700481594300E+00 -0.7396467654802925E+00
 -0.7365230622149163E+00 -0.7333989393375675E+00 -0.7302743978201226E+00 -0.7271494386320566E+00 -0.7240240627404755E+00
 -0.7208982711100954E+00 -0.7177720647032738E+00 -0.7146454444800049E+00 -0.7115184113979272E+00 -0.7083909664123358E+00
 -0.7052631104761840E+00 -0.7021348445400946E+00 -0.6990061695523668E+00 -0.6958770864589783E+00 -0.6927475962035988E+00
 -0.6896176997275971E+00 -0.6864873979700401E+00 -0.6833566918677111E+00 -0.6802255823551058E+00 -0.6770940703644488E+00
 -0.6739621568256924E+00 -0.6708298426665303E+00 -0.6676971288124017E+00 -0.6645640161864967E+00 -0.6614305057097646E+00
 -0.6582965983009220E+00 -0.6551622948764595E+00 -0.6520275963506403E+00 -0.6488925036355243E+00 -0.6457570176409567E+00
 -0.6426211392745840E+00 -0.6394848694418617E+00 -0.6363482090460563E+00 -0.6332111589882563E+00 -0.6300737201673715E+00
 -0.6269358934801492E+00 -0.6237976798211743E+00 -0.6206590800828806E+00 -0.6175200951555496E+00 -0.6143807259273246E+00
 -0.6112409732842150E+00 -0.6081008381100996E+00 -0.6049603212867370E+00 -0.6018194236937702E+00 -0.5986781462087348E+00
 -0.5955364897070594E+00 -0.5923944550620802E+00 -0.5892520431450445E+00 -0.5861092548251114E+00 -0.5829660909693652E+00
 -0.5798225524428180E+00 -0.5766786401084184E+00 -0.5735343548270523E+00 -0.5703896974575576E+00 -0.5672446688567231E+00
 -0.5640992698792968E+00 -0.5609535013779919E+00 -0.5578073642034954E+00 -0.5546608592044699E+00 -0.5515139872275630E+00
 -0.5483667491174116E+00 -0.5452191457166463E+00 -0.5420711778659036E+00 -0.5389228464038232E+00 -0.5357741521670606E+00
 -0.5326250959902903E+00 -0.5294756787062112E+00 -0.5263259011455529E+00 -0.5231757641370854E+00 -0.5200252685076190E+00
 -0.5168744150820113E+00 -0.5137232046831733E+00 -0.5105716381320801E+00 -0.5074197162477705E+00 -0.5042674398473530E+00
 -0.5011148097460162E+00 -0.4979618267570278E+00 -0.4948084916917490E+00 -0.4916548053596293E+00 -0.4885007685682213E+00
 -0.4853463821231833E+00 -0.4821916468282816E+00 -0.4790365634854005E+00 -0.4758811328945454E+00 -0.4727253558538506E+00
 -0.4695692331595806E+00 -0.4664127656061403E+00 -0.4632559539860760E+00 -0.4600987990900871E+00 -0.4569413017070218E+00
 -0.4537834626238942E+00 -0.4506252826258811E+00 -0.4474667624963254E+00 -0.4443079030167539E+00 -0.4411487049668704E+00
 -0.4379891691245628E+00 -0.4348292962659158E+00 -0.4316690871652077E+00 -0.4285085425949210E+00 -0.4253476633257457E+00
 -0.4221864501265797E+00 -0.4190249037645472E+00 -0.4158630250049871E+00 -0.4127008146114727E+00 -0.4095382733458058E+00
 -0.4063754019680297E+00 -0.4032122012364304E+00 -0.4000486719075410E+00 -0.3968848147361491E+00 -0.3937206304752999E+00
 -0.3905561198763049E+00 -0.3873912836887437E+00 -0.3842261226604657E+00 -0.3810606375376022E+00 -0.3778948290645661E+00
 -0.3747286979840609E+00 -0.3715622450370812E+00 -0.3683954709629214E+00 -0.3652283764991762E+00 -0.3620609623817522E+00
 -0.3588932293448673E+00 -0.3557251781210537E+00 -0.3525568094411701E+00 -0.3493881240344000E+00 -0.3462191226282620E+00
 -0.3430498059486062E+00 -0.3398801747196293E+00 -0.3367102296638699E+00 -0.3335399715022206E+00 -0.3303694009539271E+00
 -0.3271985187365977E+00 -0.3240273255662025E+00 -0.3208558221570859E+00 -0.3176840092219603E+00 -0.3145118874719222E+00
 -0.3113394576164483E+00 -0.3081667203634045E+00 -0.3049936764190471E+00 -0.3018203264880330E+00 -0.2986466712734177E+00
 -0.2954727114766653E+00 -0.2922984477976452E+00 -0.2891238809346505E+00 -0.2859490115843842E+00 -0.2827738404419803E+00
 -0.2795983682009978E+00 -0.2764225955534304E+00 -0.2732465231897064E+00 -0.2700701517986987E+00 -0.2668934820677242E+00
 -0.2637165146825513E+00 -0.2605392503274007E+00 -0.2573616896849550E+00 -0.2541838334363579E+00 -0.2510056822612243E+00
 -0.2478272368376370E+00 -0.2446484978421561E+00 -0.2414694659498230E+00 -0.2382901418341629E+00 -0.2351105261671906E+00
 -0.2319306196194133E+00 -0.2287504228598354E+00 -0.2255699365559644E+00 -0.2223891613738116E+00 -0.2192080979779012E+00
 -0.2160267470312645E+00 -0.2128451091954588E+00 -0.2096631851305590E+00 -0.2064809754951685E+00 -0.2032984809464201E+00
 -0.2001157021399793E+00 -0.1969326397300542E+00 -0.1937492943693916E+00 -0.1905656667092874E+00 -0.1873817573995856E+00
 -0.1841975670886882E+00 -0.1810130964235541E+00 -0.1778283460497036E+00 -0.1746433166112254E+00 -0.1714580087507772E+00
 -0.1682724231095919E+00 -0.1650865603274816E+00 -0.1619004210428394E+00 -0.1587140058926453E+00 -0.1555273155124680E+00
 -0.1523403505364735E+00 -0.1491531115974189E+00 -0.1459655993266716E+00 -0.1427778143541981E+00 -0.1395897573085751E+00
 -0.1364014288169954E+00 -0.1332128295052664E+00 -0.1300239599978157E+00 -0.1268348209176985E+00 -0.1236454128865912E+00
 -0.1204557365248104E+00 -0.1172657924513014E+00 -0.1140755812836561E+00 -0.1108851036381034E+00 -0.1076943601295205E+00
 -0.1045033513714390E+00 -0.1013120779760359E+00 -0.9812054055415455E-01 -0.9492873971529599E-01 -0.9173667606762650E-01
 -0.8854435021798214E-01 -0.8535176277186864E-01 -0.8215891433347340E-01 -0.7896580550565380E-01 -0.7577243688995861E-01
 -0.7257880908662193E-01 -0.6938492269456342E-01 -0.6619077831140130E-01 -0.6299637653344863E-01 -0.5980171795572025E-01
 -0.5660680317193306E-01 -0.5341163277451461E-01 -0.5021620735460227E-01 -0.4702052750204794E-01 -0.4382459380542276E-01
 -0.4062840685201701E-01 -0.3743196722784850E-01 -0.3423527551766230E-01 -0.3103833230493524E-01 -0.2784113817188029E-01
 -0.2464369369944709E-01 -0.2144599946733010E-01 -0.1824805605396707E-01 -0.1504986403654509E-01 -0.1185142399100386E-01
 -0.8652736492036735E-02 -0.5453802113097750E-02 -0.2254621426401630E-02  0.9448049970683996E-03  0.4144476587567458E-02
  0.7344392776568710E-02  0.1054455299678004E-01  0.1374495668212580E-01  0.1694560326774710E-01  0.2014649219000792E-01
  0.2334762288647027E-01  0.2654899479591795E-01  0.2975060735833563E-01  0.3295246001490942E-01  0.3615455220802362E-01
  0.3935688338125935E-01  0.4255945297939342E-01  0.4576226044838734E-01  0.4896530523539018E-01  0.5216858678873745E-01
  0.5537210455794031E-01  0.5857585799369059E-01  0.6177984654785198E-01  0.6498406967346118E-01  0.6818852682471929E-01
  0.7139321745699304E-01  0.7459814102681404E-01  0.7780329699186850E-01  0.8100868481099853E-01  0.8421430394420160E-01
  0.8742015385262228E-01  0.9062623399854987E-01  0.9383254384542190E-01  0.9703908285781020E-01  0.1002458505014323E+00
  0.1034528462431316E+00  0.1066600695508872E+00  0.1098675198938057E+00  0.1130751967421195E+00  0.1162830995671883E+00
  0.1194912278414819E+00  0.1226995810385938E+00  0.1259081586332280E+00  0.1291169601012043E+00  0.1323259849194438E+00
  0.1355352325659800E+00  0.1387447025199406E+00  0.1419543942615604E+00  0.1451643072721673E+00  0.1483744410341798E+00
  0.1515847950311159E+00  0.1547953687475721E+00  0.1580061616692377E+00  0.1612171732828776E+00  0.1644284030763412E+00
  0.1676398505385552E+00  0.1708515151595186E+00  0.1740633964302993E+00  0.1772754938430358E+00  0.1804878068909371E+00
  0.1837003350682671E+00  0.1869130778703547E+00  0.1901260347935815E+00  0.1933392053353948E+00  0.1965525889942790E+00
  0.1997661852697829E+00  0.2029799936624909E+00  0.2061940136740349E+00  0.2094082448070888E+00  0.2126226865653671E+00
  0.2158373384536138E+00  0.2190521999776140E+00  0.2222672706441758E+00  0.2254825499611458E+00  0.2286980374373829E+00
  0.2319137325827779E+00  0.2351296349082398E+00  0.2383457439256950E+00  0.2415620591480815E+00  0.2447785800893532E+00
  0.2479953062644772E+00  0.2512122371894203E+00  0.2544293723811550E+00  0.2576467113576636E+00  0.2608642536379184E+00
  0.2640819987418938E+00  0.2672999461905564E+00  0.2705180955058680E+00  0.2737364462107769E+00  0.2769549978292172E+00
  0.2801737498861126E+00  0.2833927019073613E+00  0.2866118534198481E+00  0.2898312039514293E+00  0.2930507530309390E+00
  0.2962705001881820E+00  0.2994904449539321E+00  0.3027105868599294E+00  0.3059309254388823E+00  0.3091514602244569E+00
  0.3123721907512797E+00  0.3155931165549382E+00  0.3188142371719739E+00  0.3220355521398778E+00  0.3252570609970906E+00
  0.3284787632830060E+00  0.3317006585379562E+00  0.3349227463032202E+00  0.3381450261210222E+00  0.3413674975345151E+00
  0.3445901600877911E+00  0.3478130133258808E+00  0.3510360567947396E+00  0.3542592900412561E+00  0.3574827126132450E+00
  0.3607063240594364E+00  0.3639301239294997E+00  0.3671541117740066E+00  0.3703782871444552E+00  0.3736026495932589E+00
  0.3768271986737405E+00  0.3800519339401340E+00  0.3832768549475817E+00  0.3865019612521324E+00  0.3897272524107369E+00
  0.3929527279812521E+00  0.3961783875224305E+00  0.3994042305939164E+00  0.4026302567562574E+00  0.4058564655708906E+00
  0.4090828566001430E+00  0.4123094294072286E+00  0.4155361835562493E+00  0.4187631186121864E+00  0.4219902341409092E+00
  0.4252175297091627E+00  0.4284450048845662E+00  0.4316726592356194E+00  0.4349004923316908E+00  0.4381285037430215E+00
  0.4413566930407222E+00  0.4445850597967650E+00  0.4478136035839905E+00  0.4510423239760994E+00  0.4542712205476538E+00
  0.4575002928740731E+00  0.4607295405316308E+00  0.4639589630974596E+00  0.4671885601495325E+00  0.4704183312666831E+00
  0.4736482760285875E+00  0.4768783940157633E+00  0.4801086848095820E+00  0.4833391479922462E+00  0.4865697831468000E+00
  0.4898005898571282E+00  0.4930315677079448E+00  0.4962627162848008E+00  0.4994940351740756E+00  0.5027255239629800E+00
  0.5059571822395493E+00  0.5091890095926435E+00  0.5124210056119479E+00  0.5156531698879668E+00  0.5188855020120221E+00
  0.5221180015762540E+00  0.5253506681736156E+00  0.5285835013978752E+00  0.5318165008436136E+00  0.5350496661062137E+00
  0.5382829967818714E+00  0.5415164924675835E+00  0.5447501527611530E+00  0.5479839772611823E+00  0.5512179655670748E+00
  0.5544521172790241E+00  0.5576864319980280E+00  0.5609209093258720E+00  0.5641555488651367E+00  0.5673903502191894E+00
  0.5706253129921813E+00  0.5738604367890567E+00  0.5770957212155409E+00  0.5803311658781412E+00  0.5835667703841396E+00
  0.5868025343416039E+00  0.5900384573593747E+00  0.5932745390470628E+00  0.5965107790150606E+00  0.5997471768745244E+00
  0.6029837322373813E+00  0.6062204447163211E+00  0.6094573139248078E+00  0.6126943394770581E+00  0.6159315209880573E+00
  0.6191688580735499E+00  0.6224063503500324E+00  0.6256439974347631E+00  0.6288817989457528E+00  0.6321197545017624E+00
  0.6353578637223080E+00  0.6385961262276451E+00  0.6418345416387887E+00  0.6450731095774891E+00  0.6483118296662462E+00
  0.6515507015282945E+00  0.6547897247876169E+00  0.6580288990689255E+00  0.6612682239976756E+00  0.6645076992000513E+00
  0.6677473243029782E+00  0.6709870989341020E+00  0.6742270227218072E+00  0.6774670952951972E+00  0.6807073162841076E+00
  0.6839476853190984E+00  0.6871882020314447E+00  0.6904288660531517E+00  0.6936696770169349E+00  0.6969106345562356E+00
  0.7001517383052052E+00  0.7033929878987076E+00  0.7066343829723234E+00  0.7098759231623387E+00  0.7131176081057545E+00
  0.7163594374402754E+00  0.7196014108043116E+00  0.7228435278369761E+00  0.7260857881780847E+00  0.7293281914681558E+00
  0.7325707373484036E+00  0.7358134254607426E+00  0.7390562554477785E+00  0.7422992269528168E+00  0.7455423396198497E+00
  0.7487855930935613E+00  0.7520289870193272E+00  0.7552725210432074E+00  0.7585161948119520E+00  0.7617600079729914E+00
  0.7650039601744368E+00  0.7682480510650890E+00  0.7714922802944154E+00  0.7747366475125741E+00  0.7779811523703906E+00
  0.7812257945193657E+00  0.7844705736116790E+00  0.7877154893001779E+00  0.7909605412383774E+00  0.7942057290804653E+00
  0.7974510524812927E+00  0.8006965110963777E+00  0.8039421045819017E+00  0.8071878325947102E+00  0.8104336947923040E+00
  0.8136796908328464E+00  0.8169258203751621E+00  0.8201720830787221E+00  0.8234184786036605E+00  0.8266650066107601E+00
  0.8299116667614600E+00  0.8331584587178412E+00  0.8364053821426383E+00  0.8396524366992322E+00  0.8428996220516514E+00
  0.8461469378645631E+00  0.8493943838032789E+00  0.8526419595337529E+00  0.8558896647225794E+00  0.8591374990369873E+00
  0.8623854621448450E+00  0.8656335537146519E+00  0.8688817734155494E+00  0.8721301209172996E+00  0.8753785958903024E+00
  0.8786271980055878E+00  0.8818759269348085E+00  0.8851247823502482E+00  0.8883737639248138E+00  0.8916228713320308E+00
  0.8948721042460576E+00  0.8981214623416583E+00  0.9013709452942336E+00  0.9046205527797880E+00  0.9078702844749461E+00
  0.9111201400569509E+00  0.9143701192036572E+00  0.9176202215935262E+00  0.9208704469056386E+00  0.9241207948196785E+00
  0.9273712650159417E+00  0.9306218571753263E+00  0.9338725709793376E+00  0.9371234061100836E+00  0.9403743622502786E+00
  0.9436254390832333E+00  0.9468766362928585E+00  0.9501279535636659E+00  0.9533793905807619E+00  0.9566309470298485E+00
  0.9598826225972225E+00  0.9631344169697710E+00  0.9663863298349779E+00  0.9696383608809120E+00  0.9728905097962350E+00
  0.9761427762701929E+00  0.9793951599926168E+00  0.9826476606539253E+00  0.9859002779451215E+00  0.9891530115577863E+00
  0.9924058611840838E+00  0.9956588265167603E+00  0.9989119072491334E+00  0.1002165103075103E+01  0.1005418413689146E+01
  0.1008671838786308E+01  0.1011925378062209E+01  0.1015179031213044E+01  0.1018432797935576E+01  0.1021686677927136E+01
  0.1024940670885625E+01  0.1028194776509511E+01  0.1031448994497821E+01  0.1034703324550154E+01  0.1037957766366669E+01
  0.1041212319648087E+01  0.1044466984095681E+01  0.1047721759411297E+01  0.1050976645297329E+01  0.1054231641456731E+01
  0.1057486747593009E+01  0.1060741963410225E+01  0.1063997288612992E+01  0.1067252722906481E+01  0.1070508265996404E+01
  0.1073763917589027E+01  0.1077019677391165E+01  0.1080275545110174E+01  0.1083531520453960E+01  0.1086787603130969E+01
  0.1090043792850200E+01  0.1093300089321175E+01  0.1096556492253976E+01  0.1099813001359213E+01  0.1103069616348035E+01
  0.1106326336932133E+01  0.1109583162823724E+01  0.1112840093735571E+01  0.1116097129380964E+01  0.1119354269473726E+01
  0.1122611513728207E+01  0.1125868861859292E+01  0.1129126313582396E+01  0.1132383868613452E+01  0.1135641526668929E+01
  0.1138899287465817E+01  0.1142157150721630E+01  0.1145415116154405E+01  0.1148673183482700E+01  0.1151931352425591E+01
  0.1155189622702681E+01  0.1158447994034077E+01  0.1161706466140424E+01  0.1164965038742863E+01  0.1168223711563053E+01
  0.1171482484323179E+01  0.1174741356745925E+01  0.1178000328554494E+01  0.1181259399472592E+01  0.1184518569224442E+01
  0.1187777837534770E+01  0.1191037204128811E+01  0.1194296668732302E+01  0.1197556231071485E+01  0.1200815890873113E+01
  0.1204075647864430E+01  0.1207335501773192E+01  0.1210595452327647E+01  0.1213855499256545E+01  0.1217115642289132E+01
  0.1220375881155155E+01  0.1223636215584853E+01  0.1226896645308960E+01  0.1230157170058707E+01  0.1233417789565812E+01
  0.1236678503562492E+01  0.1239939311781440E+01  0.1243200213955856E+01  0.1246461209819415E+01  0.1249722299106290E+01
  0.1252983481551127E+01  0.1256244756889069E+01  0.1259506124855737E+01  0.1262767585187235E+01  0.1266029137620148E+01
  0.1269290781891546E+01  0.1272552517738971E+01  0.1275814344900455E+01  0.1279076263114499E+01  0.1282338272120080E+01
  0.1285600371656657E+01  0.1288862561464160E+01  0.1292124841282991E+01  0.1295387210854026E+01  0.1298649669918612E+01
  0.1301912218218567E+01  0.1305174855496180E+01  0.1308437581494204E+01  0.1311700395955861E+01  0.1314963298624843E+01
  0.1318226289245304E+01  0.1321489367561864E+01  0.1324752533319604E+01  0.1328015786264064E+01  0.1331279126141258E+01
  0.1334542552697647E+01  0.1337806065680160E+01  0.1341069664836176E+01  0.1344333349913542E+01  0.1347597120660550E+01
  0.1350860976825959E+01  0.1354124918158971E+01  0.1357388944409248E+01  0.1360653055326907E+01  0.1363917250662509E+01
  0.1367181530167073E+01  0.1370445893592058E+01  0.1373710340689384E+01  0.1376974871211407E+01  0.1380239484910941E+01
  0.1383504181541233E+01  0.1386768960855982E+01  0.1390033822609334E+01  0.1393298766555872E+01  0.1396563792450621E+01
  0.1399828900049051E+01  0.1403094089107070E+01  0.1406359359381022E+01  0.1409624710627693E+01  0.1412890142604309E+01
  0.1416155655068523E+01  0.1419421247778430E+01  0.1422686920492557E+01  0.1425952672969871E+01  0.1429218504969762E+01
  0.1432484416252057E+01  0.1435750406577012E+01  0.1439016475705308E+01  0.1442282623398069E+01  0.1445548849416834E+01
  0.1448815153523571E+01  0.1452081535480683E+01  0.1455347995050983E+01  0.1458614531997724E+01  0.1461881146084571E+01
  0.1465147837075616E+01  0.1468414604735374E+01  0.1471681448828781E+01  0.1474948369121189E+01  0.1478215365378372E+01
  0.1481482437366518E+01  0.1484749584852239E+01  0.1488016807602556E+01  0.1491284105384915E+01  0.1494551477967165E+01
  0.1497818925117580E+01  0.1501086446604834E+01  0.1504354042198027E+01  0.1507621711666657E+01  0.1510889454780644E+01
  0.1514157271310308E+01  0.1517425161026384E+01  0.1520693123700012E+01  0.1523961159102735E+01  0.1527229267006508E+01
  0.8835427110100458E+02  0.8835427110100458E+02  0.8835427110100458E+02  0.8835427110100458E+02  0.8835427110100458E+02
  0.8835427110100458E+02  0.8835427110100458E+02  0.8835427110100458E+02  0.8835427110100458E+02  0.8835427110100458E+02
  0.8835427110100458E+02  0.8835427110100458E+02  0.8835427110100458E+02  0.8835427110100458E+02  0.8835427110100458E+02
  0.8835427110100458E+02  0.8835427110100458E+02  0.8835427110100458E+02  0.8835427110100458E+02  0.8835427110100458E+02
  0.8835427110100458E+02  0.8835427110100458E+02  0.8835427110100458E+02  0.8835427110100458E+02  0.8835427110100458E+02
  0.8835427110100458E+02  0.8835427110100458E+02  0.8835427110100458E+02  0.8835427110100458E+02  0.8835427110100458E+02
  0.8835427110100458E+02  0.8835427110100458E+02  0.8835427110100458E+02  0.8835427110100458E+02  0.8835427110100458E+02
  0.8835427110100458E+02  0.8835427110100458E+02  0.8835427110100458E+02  0.8835427110100458E+02  0.8835427110100458E+02
  0.8835427110100458E+02  0.8835427110100458E+02  0.8835427110100458E+02  0.8835427110100458E+02  0.8835427110100458E+02
  0.8835427110100458E+02  0.8835427110100458E+02  0.8835427110100458E+02  0.8835427110100458E+02  0.8835427110100458E+02
  0.8835427110100458E+02  0.8835427110100458E+02  0.8835427110100458E+02  0.8835427110100458E+02  0.8835427110100458E+02
  0.8835427110100458E+02  0.8835427110100458E+02  0.8835427110100458E+02  0.8835427110100458E+02  0.8835427110100458E+02
  0.8835427110100458E+02  0.8835427110100458E+02  0.8835427110100458E+02  0.8835427110100458E+02  0.8835427110100458E+02
  0.8835427110100458E+02  0.8835427110100458E+02  0.8835427110100458E+02  0.8835427110100458E+02  0.8835427110100458E+02
  0.8835427110100458E+02  0.8835427110100458E+02  0.8835427110100458E+02  0.8835427110100458E+02  0.8835427110100458E+02
  0.8835427110100458E+02  0.8835427110100458E+02  0.8835427110100458E+02  0.8835427110100458E+02  0.8835427110100458E+02
  0.8835427110100458E+02  0.8835427110100458E+02  0.8835427110100458E+02  0.8835427110100458E+02  0.8835427110100458E+02
  0.8835427110100458E+02  0.8835427110100458E+02  0.8835427110100458E+02  0.8835427110100458E+02  0.8835427110100458E+02
  0.8835427110100458E+02  0.8835427110100458E+02  0.8835427110100458E+02  0.8835427110100458E+02  0.8835427110100458E+02
  0.8835427110100458E+02  0.8835427110100458E+02  0.8835427110100458E+02  0.8835427110100458E+02  0.8835427110100458E+02
  0.8835427110100458E+02  0.8835427110100458E+02  0.8835427110100458E+02  0.8835427110100458E+02  0.8835427110100458E+02
  0.8835427110100458E+02  0.8835427110100458E+02  0.8835427110100458E+02  0.8835427110100458E+02  0.8835427110100458E+02
  0.8835427110100458E+02  0.8835427110100458E+02  0.8835427110100458E+02  0.8835427110100458E+02  0.8835427110100458E+02
  0.8835427110100458E+02  0.8835427110100458E+02  0.8835427110100458E+02  0.8835427110100458E+02  0.8835427110100458E+02
  0.8835427110100458E+02  0.8835427110100458E+02  0.8835427110100458E+02  0.8835427110100458E+02  0.8835427110100458E+02
  0.8835427110100458E+02  0.8835427110100458E+02  0.8835427110100458E+02  0.8835427110100458E+02  0.8835427110100458E+02
  0.8835427110100458E+02  0.8835427110100458E+02  0.8835427110100458E+02  0.8835427110100458E+02  0.8835427110100458E+02
  0.8835427110100458E+02  0.8835427110100458E+02  0.8835427110100458E+02  0.8835427110100458E+02  0.8835427110100458E+02
  0.8821458010773870E+02  0.8777105136930099E+02  0.8732817575596555E+02  0.8688600497404211E+02  0.8644458898116349E+02
  0.8600397602551459E+02  0.8556421268471776E+02  0.8512534390434561E+02  0.8468741303603541E+02  0.8425046187518129E+02
  0.8381453069818244E+02  0.8337965829922733E+02  0.8294588202659646E+02  0.8251323781846743E+02  0.8208176023820783E+02
  0.8165148250914351E+02  0.8122243654879166E+02  0.8079465300254756E+02  0.8036816127681830E+02  0.7994298957159575E+02
  0.7951916491246300E+02  0.7909671318202999E+02  0.7867565915079483E+02  0.7825602650742805E+02  0.7783783788847867E+02
  0.7742111490750162E+02  0.7700587818360560E+02  0.7659214736942438E+02  0.7617994117851156E+02  0.7576927741216177E+02
  0.7536017298566213E+02  0.7495264395397616E+02  0.7454670553686567E+02  0.7414237214345438E+02  0.7373965739623931E+02
  0.7333857415455404E+02  0.7293913453749143E+02  0.7254134994629088E+02  0.7214523108619721E+02  0.7175078798779782E+02
  0.7135803002784509E+02  0.7096696594957201E+02  0.7057760388250757E+02  0.7018995136180045E+02  0.6980401534705832E+02
  0.6941980224071084E+02  0.6903731790590464E+02  0.6865656768393805E+02  0.6827755641124453E+02  0.6790028843593142E+02
  0.6752476763388503E+02  0.6715099742444750E+02  0.6677898078567573E+02  0.6640872026919008E+02  0.6604021801462100E+02
  0.6567347576366214E+02  0.6530849487373801E+02  0.6494527633129491E+02  0.6458382076472209E+02  0.6422412845691298E+02
  0.6386619935747267E+02  0.6351003309458117E+02  0.6315562898651901E+02  0.6280298605286414E+02  0.6245210302536672E+02
  0.6210297835851004E+02  0.6175561023976539E+02  0.6140999659954672E+02  0.6106613512087448E+02  0.6072402324875406E+02
  0.6038365819927688E+02  0.6004503696845057E+02  0.5970815634076506E+02  0.5937301289750199E+02  0.5903960302479265E+02
  0.5870792292143251E+02  0.5837796860645717E+02  0.5804973592648724E+02  0.5772322056284725E+02  0.5739841803846520E+02
  0.5707532372455830E+02  0.5675393284711058E+02  0.5643424049314844E+02  0.5611624161681894E+02  0.5579993104527681E+02
  0.5548530348438508E+02  0.5517235352423446E+02  0.5486107564448712E+02  0.5455146421954844E+02  0.5424351352357338E+02
  0.5393721773531010E+02  0.5363257094278731E+02  0.5332956714784842E+02  0.5302820027053761E+02  0.5272846415334178E+02
  0.5243035256529255E+02  0.5213385920593262E+02  0.5183897770914979E+02  0.5154570164688349E+02  0.5125402453270637E+02
  0.5096393982528581E+02  0.5067544093172802E+02  0.5038852121080838E+02  0.5010317397609197E+02  0.4981939249894669E+02
  0.4953717001145304E+02  0.4925649970921278E+02  0.4897737475406051E+02  0.4869978827668020E+02  0.4842373337913023E+02
  0.4814920313727921E+02  0.4787619060315571E+02  0.4760468880721447E+02  0.4733469076052123E+02  0.4706618945685944E+02
  0.4679917787476058E+02  0.4653364897946088E+02  0.4626959572478658E+02  0.4600701105496982E+02  0.4574588790639807E+02
  0.4548621920929756E+02  0.4522799788935519E+02  0.4497121686927829E+02  0.4471586907029628E+02  0.4446194741360487E+02
  0.4420944482175510E+02  0.4395835421998891E+02  0.4370866853752275E+02  0.4346038070878156E+02  0.4321348367458355E+02
  0.4296797038327882E+02  0.4272383379184200E+02  0.4248106686692133E+02  0.4223966258584508E+02  0.4199961393758699E+02
  0.4176091392369194E+02  0.4152355555916308E+02  0.4128753187331204E+02  0.4105283591057307E+02  0.4081946073128233E+02
  0.4058739941242395E+02  0.4035664504834314E+02  0.4012719075142861E+02  0.3989902965276393E+02  0.3967215490275025E+02
  0.3944655967170027E+02  0.3922223715040521E+02  0.3899918055067509E+02  0.3877738310585374E+02  0.3855683807130912E+02
  0.3833753872489972E+02  0.3811947836741821E+02  0.3790265032301270E+02  0.3768704793958698E+02  0.3747266458917942E+02
  0.3725949366832292E+02  0.3704752859838457E+02  0.3683676282588754E+02  0.3662718982281477E+02  0.3641880308689527E+02
  0.3621159614187409E+02  0.3600556253776586E+02  0.3580069585109318E+02  0.3559698968510981E+02  0.3539443767000964E+02
  0.3519303346312176E+02  0.3499277074909199E+02  0.3479364324005193E+02  0.3459564467577508E+02  0.3439876882382146E+02
  0.3420300947967038E+02  0.3400836046684257E+02  0.3381481563701088E+02  0.3362236887010168E+02  0.3343101407438554E+02
  0.3324074518655884E+02  0.3305155617181617E+02  0.3286344102391378E+02  0.3267639376522479E+02  0.3249040844678593E+02
  0.3230547914833694E+02  0.3212159997835193E+02  0.3193876507406384E+02  0.3175696860148196E+02  0.3157620475540252E+02
  0.3139646775941326E+02  0.3121775186589144E+02  0.3104005135599637E+02  0.3086336053965592E+02  0.3068767375554786E+02
  0.3051298537107590E+02  0.3033928978234056E+02  0.3016658141410573E+02  0.2999485471976013E+02  0.2982410418127476E+02
  0.2965432430915586E+02  0.2948550964239412E+02  0.2931765474840989E+02  0.2915075422299471E+02  0.2898480269024946E+02
  0.2881979480251892E+02  0.2865572524032345E+02  0.2849258871228722E+02  0.2833037995506390E+02  0.2816909373325931E+02
  0.2800872483935149E+02  0.2784926809360833E+02  0.2769071834400269E+02  0.2753307046612522E+02  0.2737631936309507E+02
  0.2722045996546856E+02  0.2706548723114581E+02  0.2691139614527555E+02  0.2675818172015815E+02  0.2660583899514703E+02
  0.2645436303654842E+02  0.2630374893751967E+02  0.2615399181796622E+02  0.2600508682443706E+02  0.2585702913001915E+02
  0.2570981393423055E+02  0.2556343646291241E+02  0.2541789196812014E+02  0.2527317572801328E+02  0.2512928304674485E+02
  0.2498620925434947E+02  0.2484394970663104E+02  0.2470249978504957E+02  0.2456185489660711E+02  0.2442201047373365E+02
  0.2428296197417173E+02  0.2414470488086113E+02  0.2400723470182272E+02  0.2387054697004211E+02  0.2373463724335280E+02
  0.2359950110431907E+02  0.2346513416011841E+02  0.2333153204242394E+02  0.2319869040728642E+02  0.2306660493501609E+02
  0.2293527133006449E+02  0.2280468532090594E+02  0.2267484265991915E+02  0.2254573912326860E+02  0.2241737051078605E+02
  0.2228973264585181E+02  0.2216282137527629E+02  0.2203663256918149E+02  0.2191116212088243E+02  0.2178640594676892E+02
  0.2166235998618726E+02  0.2153902020132213E+02  0.2141638257707873E+02  0.2129444312096488E+02  0.2117319786297355E+02
  0.2105264285546541E+02  0.2093277417305181E+02  0.2081358791247776E+02  0.2069508019250544E+02  0.2057724715379770E+02
  0.2046008495880210E+02  0.2034358979163514E+02  0.2022775785796667E+02  0.2011258538490503E+02  0.1999806862088199E+02
  0.1988420383553851E+02  0.1977098731961052E+02  0.1965841538481532E+02  0.1954648436373817E+02  0.1943519060971936E+02
  0.1932453049674169E+02  0.1921450041931831E+02  0.1910509679238089E+02  0.1899631605116844E+02  0.1888815465111631E+02
  0.1878060906774574E+02  0.1867367579655382E+02  0.1856735135290390E+02  0.1846163227191645E+02  0.1835651510836036E+02
  0.1825199643654462E+02  0.1814807285021065E+02  0.1804474096242491E+02  0.1794199740547205E+02  0.1783983883074851E+02
  0.1773826190865665E+02  0.1763726332849928E+02  0.1753683979837466E+02  0.1743698804507212E+02  0.1733770481396801E+02
  0.1723898686892216E+02  0.1714083099217490E+02  0.1704323398424451E+02  0.1694619266382516E+02  0.1684970386768541E+02
  0.1675376445056704E+02  0.1665837128508460E+02  0.1656352126162528E+02  0.1646921128824928E+02  0.1637543829059079E+02
  0.1628219921175938E+02  0.1618949101224190E+02  0.1609731066980484E+02  0.1600565517939728E+02  0.1591452155305423E+02
  0.1582390681980052E+02  0.1573380802555522E+02  0.1564422223303642E+02  0.1555514652166669E+02  0.1546657798747885E+02
  0.1537851374302235E+02  0.1529095091727011E+02  0.1520388665552585E+02  0.1511731811933189E+02  0.1503124248637743E+02
  0.1494565695040741E+02  0.1486055872113169E+02  0.1477594502413489E+02  0.1469181310078656E+02  0.1460816020815197E+02
  0.1452498361890328E+02  0.1444228062123120E+02  0.1436004851875717E+02  0.1427828463044601E+02  0.1419698629051901E+02
  0.1411615084836749E+02  0.1403577566846687E+02  0.1395585813029123E+02  0.1387639562822819E+02  0.1379738557149449E+02
  0.1371882538405182E+02  0.1364071250452319E+02  0.1356304438610986E+02  0.1348581849650853E+02  0.1340903231782914E+02
  0.1333268334651308E+02  0.1325676909325184E+02  0.1318128708290612E+02  0.1310623485442538E+02  0.1303160996076785E+02
  0.1295740996882100E+02  0.1288363245932236E+02  0.1281027502678096E+02  0.1273733527939899E+02  0.1266481083899408E+02
  0.1259269934092190E+02  0.1252099843399925E+02  0.1244970578042759E+02  0.1237881905571689E+02  0.1230833594861007E+02
  0.1223825416100774E+02  0.1216857140789341E+02  0.1209928541725909E+02  0.1203039393003139E+02  0.1196189469999790E+02
  0.1189378549373412E+02  0.1182606409053071E+02  0.1175872828232117E+02  0.1169177587360998E+02  0.1162520468140104E+02
  0.1155901253512663E+02  0.1149319727657669E+02  0.1142775675982852E+02  0.1136268885117689E+02  0.1129799142906456E+02
  0.1123366238401310E+02  0.1116969961855425E+02  0.1110610104716153E+02  0.1104286459618230E+02  0.1097998820377027E+02
  0.1091746981981818E+02  0.1085530740589115E+02  0.1079349893516014E+02  0.1073204239233599E+02  0.1067093577360370E+02
  0.1061017708655715E+02  0.1054976435013415E+02  0.1048969559455190E+02  0.1042996886124279E+02  0.1037058220279059E+02
  0.1031153368286692E+02  0.1025282137616819E+02  0.1019444336835287E+02  0.1013639775597899E+02  0.1007868264644226E+02
  0.1002129615791422E+02  0.9964236419281011E+01  0.9907501570082335E+01  0.9851089760450824E+01  0.9794999151051746E+01
  0.9739227913023024E+01  0.9683774227915652E+01  0.9628636287634405E+01  0.9573812294378879E+01  0.9519300460584905E+01
  0.9465099008866273E+01  0.9411206171956794E+01  0.9357620192652675E+01  0.9304339323755228E+01  0.9251361828013952E+01
  0.9198685978069856E+01  0.9146310056399138E+01  0.9094232355257239E+01  0.9042451176623127E+01  0.8990964832143955E+01
  0.8939771643080020E+01  0.8888869940250009E+01  0.8838258063976635E+01  0.8787934364032449E+01  0.8737897199586104E+01
  0.8688144939148835E+01  0.8638675960521264E+01  0.8589488650740517E+01  0.8540581406027622E+01  0.8491952631735261E+01
  0.8443600742295734E+01  0.8395524161169270E+01  0.8347721320792658E+01  0.8300190662528111E+01  0.8252930636612454E+01
  0.8205939702106587E+01  0.8159216326845268E+01  0.8112758987387139E+01  0.8066566168965053E+01  0.8020636365436712E+01
  0.7974968079235510E+01  0.7929559821321760E+01  0.7884410111134123E+01  0.7839517476541318E+01  0.7794880453794156E+01
  0.7750497587477777E+01  0.7706367430464233E+01  0.7662488543865288E+01  0.7618859496985491E+01  0.7575478867275577E+01
  0.7532345240285998E+01  0.7489457209620889E+01  0.7446813376892182E+01  0.7404412351673995E+01  0.7362252751457325E+01
  0.7320333201604942E+01  0.7278652335306595E+01  0.7237208793534435E+01  0.7196001224998706E+01  0.7155028286103681E+01
  0.7114288640903865E+01  0.7073780961060418E+01  0.7033503925797862E+01  0.6993456221861008E+01  0.6953636543472142E+01
  0.6914043592288454E+01  0.6874676077359664E+01  0.6835532715086006E+01  0.6796612229176309E+01  0.6757913350606412E+01
  0.6719434817577787E+01  0.6681175375476385E+01  0.6643133776831743E+01  0.6605308781276302E+01  0.6567699155504966E+01
  0.6530303673234890E+01  0.6493121115165492E+01  0.6456150268938702E+01  0.6419389929099435E+01  0.6382838897056286E+01
  0.6346495981042441E+01  0.6310359996076815E+01  0.6274429763925444E+01  0.6238704113063037E+01  0.6203181878634789E+01
  0.6167861902418410E+01  0.6132743032786333E+01  0.6097824124668204E+01  0.6063104039513509E+01  0.6028581645254476E+01
  0.5994255816269156E+01  0.5960125433344712E+01  0.5926189383640939E+01  0.5892446560653971E+01  0.5858895864180220E+01
  0.5825536200280476E+01  0.5792366481244260E+01  0.5759385625554343E+01  0.5726592557851496E+01  0.5693986208899426E+01
  0.5661565515549903E+01  0.5629329420708104E+01  0.5597276873298140E+01  0.5565406828228793E+01  0.5533718246359433E+01
  0.5502210094466141E+01  0.5470881345208018E+01  0.5439730977093683E+01  0.5408757974447975E+01  0.5377961327378840E+01
  0.5347340031744382E+01  0.5316893089120155E+01  0.5286619506766566E+01  0.5256518297596553E+01  0.5226588480143364E+01
  0.5196829078528578E+01  0.5167239122430274E+01  0.5137817647051394E+01  0.5108563693088292E+01  0.5079476306699449E+01
  0.5050554539474378E+01  0.5021797448402696E+01  0.4993204095843373E+01  0.4964773549494170E+01  0.4936504882361238E+01
  0.4908397172728884E+01  0.4880449504129531E+01  0.4852660965313818E+01  0.4825030650220911E+01  0.4797557657948945E+01
  0.4770241092725652E+01  0.4743080063879153E+01  0.4716073685808934E+01  0.4689221077956931E+01  0.4662521364778867E+01
  0.4635973675715668E+01  0.4609577145165093E+01  0.4583330912453524E+01  0.4557234121807858E+01  0.4531285922327661E+01
  0.4505485467957384E+01  0.4479831917458797E+01  0.4454324434383547E+01  0.4428962187045889E+01  0.4403744348495577E+01
  0.4378670096490892E+01  0.4353738613471834E+01  0.4328949086533469E+01  0.4304300707399409E+01  0.4279792672395482E+01
  0.4255424182423507E+01  0.4231194442935252E+01  0.4207102663906524E+01  0.4183148059811392E+01  0.4159329849596611E+01
  0.4135647256656123E+01  0.4112099508805749E+01  0.4088685838258014E+01  0.4065405481597097E+01  0.4042257679753964E+01
  0.4019241677981596E+01  0.3996356725830394E+01  0.3973602077123705E+01  0.3950976989933487E+01  0.3928480726556129E+01
  0.3906112553488393E+01  0.3883871741403490E+01  0.3861757565127317E+01  0.3839769303614799E+01  0.3817906239926376E+01
  0.3796167661204639E+01  0.3774552858651079E+01  0.3753061127502982E+01  0.3731691767010440E+01  0.3710444080413511E+01
  0.3689317374919500E+01  0.3668310961680366E+01  0.3647424155770267E+01  0.3626656276163224E+01  0.3606006645710911E+01
  0.3585474591120591E+01  0.3565059442933145E+01  0.3544760535501262E+01  0.3524577206967720E+01  0.3504508799243808E+01
  0.3484554657987880E+01  0.3464714132584006E+01  0.3444986576120770E+01  0.3425371345370166E+01  0.3405867800766633E+01
  0.3386475306386199E+01  0.3367193229925748E+01  0.3348020942682400E+01  0.3328957819533015E+01  0.3310003238913807E+01
  0.3291156582800084E+01  0.3272417236686087E+01  0.3253784589564966E+01  0.3235258033908851E+01  0.3216836965649035E+01
  0.3198520784156295E+01  0.3180308892221297E+01  0.3162200696035126E+01  0.3144195605169925E+01  0.3126293032559646E+01
  0.3108492394480900E+01  0.3090793110533935E+01  0.3073194603623708E+01  0.3055696299941063E+01  0.3038297628944035E+01
  0.3020998023339226E+01  0.3003796919063327E+01  0.2986693755264724E+01  0.2969687974285201E+01  0.2952779021641766E+01
  0.2935966346008565E+01  0.2919249399198916E+01  0.2902627636147424E+01  0.2886100514892215E+01  0.2869667496557267E+01
  0.2853328045334828E+01  0.2837081628467963E+01  0.2820927716233168E+01  0.2804865781923107E+01  0.2788895301829440E+01
  0.2773015755225731E+01  0.2757226624350490E+01  0.2741527394390283E+01  0.2725917553462942E+01  0.2710396592600882E+01
  0.2694964005734495E+01  0.2679619289675665E+01  0.2664361944101347E+01  0.2649191471537263E+01  0.2634107377341678E+01
  0.2619109169689267E+01  0.2604196359555090E+01  0.2589368460698636E+01  0.2574624989647977E+01  0.2559965465684001E+01
  0.2545389410824738E+01  0.2530896349809766E+01  0.2516485810084736E+01  0.2502157321785947E+01  0.2487910417725028E+01
  0.2473744633373712E+01  0.2459659506848681E+01  0.2445654578896513E+01  0.2431729392878707E+01  0.2417883494756789E+01
  0.2404116433077514E+01  0.2390427758958140E+01  0.2376817026071798E+01  0.2363283790632933E+01  0.2349827611382845E+01
  0.2336448049575289E+01  0.2323144668962169E+01  0.2309917035779331E+01  0.2296764718732399E+01  0.2283687288982726E+01
  0.2270684320133409E+01  0.2257755388215378E+01  0.2244900071673583E+01  0.2232117951353245E+01  0.2219408610486186E+01
  0.2206771634677246E+01  0.2194206611890764E+01  0.2181713132437150E+01  0.2169290788959524E+01  0.2156939176420436E+01
  0.2144657892088656E+01  0.2132446535526045E+01  0.2120304708574495E+01  0.2108232015342954E+01  0.2096228062194512E+01
  0.2084292457733568E+01  0.2072424812793070E+01  0.2060624740421818E+01  0.2048891855871861E+01  0.2037225776585939E+01
  0.2025626122185017E+01  0.2014092514455884E+01  0.2002624577338810E+01  0.1991221936915297E+01  0.1979884221395882E+01
  0.1968611061108014E+01  0.1957402088484004E+01  0.1946256938049031E+01  0.1935175246409237E+01  0.1924156652239875E+01
  0.1913200796273523E+01  0.1902307321288375E+01  0.1891475872096589E+01  0.1880706095532712E+01  0.1869997640442160E+01
  0.1859350157669770E+01  0.1848763300048417E+01  0.1838236722387691E+01  0.1827770081462641E+01  0.1817363036002595E+01
  0.1807015246680015E+01  0.1796726376099451E+01  0.1786496088786526E+01  0.1776324051177003E+01  0.1766209931605912E+01
  0.1756153400296734E+01  0.1746154129350642E+01  0.1736211792735821E+01  0.1726326066276828E+01  0.1716496627644026E+01
  0.1706723156343078E+01  0.1697005333704485E+01  0.1687342842873215E+01  0.1677735368798350E+01  0.1668182598222829E+01
  0.1658684219673230E+01  0.1649239923449610E+01  0.1639849401615415E+01  0.1630512347987431E+01  0.1621228458125804E+01
  0.1611997429324120E+01  0.1602818960599526E+01  0.1593692752682918E+01  0.1584618508009185E+01  0.1575595930707512E+01
  0.1566624726591720E+01  0.1557704603150687E+01  0.1548835269538803E+01  0.1540016436566487E+01  0.1531247816690763E+01
  0.1522529124005878E+01  0.1513860074233985E+01  0.1505240384715875E+01  0.1496669774401747E+01  0.1488147963842065E+01
  0.1479674675178435E+01  0.1471249632134541E+01  0.1462872560007150E+01  0.1454543185657141E+01  0.1446261237500607E+01
  0.1438026445500003E+01  0.1429838541155331E+01  0.1421697257495396E+01  0.1413602329069094E+01  0.1405553491936756E+01
  0.1397550483661554E+01  0.1389593043300926E+01  0.1381680911398085E+01  0.1373813829973550E+01  0.1365991542516729E+01
  0.1358213793977572E+01  0.1350480330758240E+01  0.1342790900704841E+01  0.1335145253099214E+01  0.1327543138650744E+01
  0.1319984309488239E+01  0.1312468519151853E+01  0.1304995522585040E+01  0.1297565076126571E+01  0.1290176937502586E+01
  0.1282830865818696E+01  0.1275526621552128E+01  0.1268263966543917E+01  0.1261042663991137E+01  0.1253862478439181E+01
  0.1246723175774088E+01  0.1239624523214903E+01  0.1232566289306094E+01  0.1225548243910000E+01  0.1218570158199325E+01
  0.1211631804649688E+01  0.1204732957032192E+01  0.1197873390406056E+01  0.1191052881111277E+01  0.1184271206761335E+01
  0.1177528146235951E+01  0.1170823479673865E+01  0.1164156988465678E+01  0.1157528455246720E+01  0.1150937663889959E+01
  0.1144384399498959E+01  0.1137868448400874E+01  0.1131389598139475E+01  0.1124947637468230E+01  0.1118542356343409E+01
  0.1112173545917243E+01  0.1105840998531108E+01  0.1099544507708756E+01  0.1093283868149588E+01  0.1087058875721950E+01
  0.1080869327456484E+01  0.1074715021539512E+01  0.1068595757306449E+01  0.1062511335235264E+01  0.1056461556939977E+01
  0.1050446225164184E+01  0.1044465143774631E+01  0.1038518117754816E+01  0.1032604953198633E+01  0.1026725457304046E+01
  0.1020879438366807E+01  0.1015066705774199E+01  0.1009287069998829E+01  0.1003540342592442E+01  0.9978263361797796E+00
  0.9921448644524689E+00  0.9864957421629480E+00  0.9808787851184285E+00  0.9752938101748875E+00  0.9697406352310953E+00
  0.9642190792226776E+00  0.9587289621162173E+00  0.9532701049033757E+00  0.9478423295950648E+00  0.9424454592156349E+00
  0.9370793177971135E+00  0.9317437303734591E+00  0.9264385229748612E+00  0.9211635226220696E+00  0.9159185573207476E+00
  0.9107034560558724E+00  0.9055180487861506E+00  0.9003621664384820E+00  0.8952356409024396E+00  0.8901383050247949E+00
  0.8850699926040616E+00  0.8800305383850801E+00  0.8750197780536308E+00  0.8700375482310713E+00  0.8650836864690152E+00
  0.8601580312440303E+00  0.8552604219523744E+00  0.8503906989047610E+00  0.8455487033211471E+00  0.8407342773255612E+00
  0.8359472639409548E+00  0.8311875070840778E+00  0.8264548515603992E+00  0.8217491430590422E+00  0.8170702281477490E+00
  0.8124179542678859E+00  0.8077921697294618E+00  0.8031927237061859E+00  0.7986194662305522E+00  0.7940722481889428E+00
  0.7895509213167736E+00  0.7850553381936545E+00  0.7805853522385845E+00  0.7761408177051748E+00  0.7717215896768916E+00
  0.7673275240623360E+00  0.7629584775905436E+00  0.7586143078063114E+00  0.7542948730655555E+00  0.7500000325306933E+00
  0.7457296461660476E+00  0.7414835747332857E+00  0.7372616797868747E+00  0.7330638236695697E+00  0.7288898695079274E+00
  0.7247396812078383E+00  0.7206131234500947E+00  0.7165100616859738E+00  0.7124303621328530E+00  0.7083738917698493E+00
  0.7043405183334800E+00  0.7003301103133494E+00  0.6963425369478617E+00  0.6923776682199605E+00  0.6884353748528835E+00
  0.6845155283059533E+00  0.6806180007703821E+00  0.6767426651651058E+00  0.6728893951326423E+00  0.6690580650349671E+00
  0.6652485499494230E+00  0.6614607256646402E+00  0.6576944686764904E+00  0.6539496561840614E+00  0.6502261660856472E+00
  0.6465238769747730E+00  0.6428426681362337E+00  0.6391824195421568E+00  0.6355430118480911E+00  0.6319243263891153E+00
  0.6283262451759667E+00  0.6247486508911976E+00  0.6211914268853462E+00  0.6176544571731346E+00  0.6141376264296901E+00
  0.6106408199867795E+00  0.6071639238290747E+00  0.6037068245904343E+00  0.6002694095502035E+00  0.5968515666295441E+00
  0.5934531843877781E+00  0.5900741520187524E+00  0.5867143593472284E+00  0.5833736968252875E+00  0.5800520555287607E+00
  0.5767493271536779E+00  0.5734654040127327E+00  0.5702001790317771E+00  0.5669535457463246E+00  0.5637253982980813E+00
  0.5605156314314963E+00  0.5573241404903256E+00  0.5541508214142238E+00  0.5509955707353478E+00  0.5478582855749847E+00
  0.5447388636401986E+00  0.5416372032204935E+00  0.5385532031844967E+00  0.5354867629766620E+00  0.5324377826139931E+00
  0.5294061626827794E+00  0.5263918043353583E+00  0.5233946092868894E+00  0.5204144798121529E+00  0.5174513187423598E+00
  0.5145050294619858E+00  0.5115755159056214E+00  0.5086626825548386E+00  0.5057664344350761E+00  0.5028866771125431E+00
  0.5000233166911414E+00  0.4971762598094017E+00  0.4943454136374414E+00  0.4915306858739367E+00  0.4887319847431127E+00
  0.4859492189917533E+00  0.4831822978862220E+00  0.4804311312095077E+00  0.4776956292582799E+00  0.4749757028399646E+00
  0.4722712632698381E+00  0.4695822223681321E+00  0.4669084924571613E+00  0.4642499863584642E+00  0.4616066173899572E+00
  0.4589782993631135E+00  0.4563649465801501E+00  0.4537664738312324E+00  0.4511827963916991E+00  0.4486138300192964E+00
  0.4460594909514326E+00  0.4435196959024485E+00  0.4409943620608983E+00  0.4384834070868537E+00  0.4359867491092149E+00
  0.4335043067230437E+00  0.4310359989869092E+00  0.4285817454202483E+00  0.4261414660007396E+00  0.4237150811616981E+00
  0.4213025117894770E+00  0.4189036792208898E+00  0.4165185052406468E+00  0.4141469120788018E+00  0.4117888224082191E+00
  0.4094441593420499E+00  0.4071128464312266E+00  0.4047948076619707E+00  0.4024899674533121E+00  0.4001982506546271E+00
  0.3979195825431864E+00  0.3956538888217185E+00  0.3934010956159889E+00  0.3911611294723903E+00  0.3889339173555462E+00
  0.3867193866459311E+00  0.3845174651375033E+00  0.3823280810353475E+00  0.3801511629533379E+00  0.3779866399118065E+00
  0.3758344413352306E+00  0.3736944970499331E+00  0.3715667372817902E+00  0.3694510926539613E+00  0.3673474941846224E+00
  0.3652558732847186E+00  0.3631761617557287E+00  0.3611082917874401E+00  0.3590521959557367E+00  0.3570078072204033E+00
  0.3549750589229361E+00  0.3529538847843715E+00  0.3509442189031246E+00  0.3489459957528389E+00  0.3469591501802513E+00
  0.3449836174030662E+00  0.3430193330078436E+00  0.3410662329478992E+00  0.3391242535412146E+00  0.3371933314683613E+00
  0.3352734037704375E+00  0.3333644078470110E+00  0.3314662814540828E+00  0.3295789627020537E+00  0.3277023900537068E+00
  0.3258365023222025E+00  0.3239812386690804E+00  0.3221365386022784E+00  0.3203023419741559E+00  0.3184785889795373E+00
  0.3166652201537570E+00  0.3148621763707241E+00  0.3130693988409905E+00  0.3112868291098368E+00  0.3095144090553633E+00
  0.3077520808865967E+00  0.3059997871416039E+00  0.3042574706856178E+00  0.3025250747091759E+00  0.3008025427262635E+00
  0.2990898185724764E+00  0.2973868464031847E+00  0.2956935706917144E+00  0.2940099362275340E+00  0.2923358881144563E+00
  0.2906713717688441E+00  0.2890163329178340E+00  0.2873707175975632E+00  0.2857344721514101E+00  0.2841075432282431E+00
  0.2824898777806830E+00  0.2808814230633691E+00  0.2792821266312406E+00  0.2776919363378259E+00  0.2761108003335391E+00
  0.2745386670639918E+00  0.2729754852683078E+00  0.2714212039774534E+00  0.2698757725125726E+00  0.2683391404833342E+00
  0.2668112577862877E+00  0.2652920746032289E+00  0.2637815413995729E+00  0.2622796089227394E+00  0.2607862282005437E+00
  0.2593013505396002E+00  0.2578249275237324E+00  0.2563569110123919E+00  0.2548972531390898E+00  0.2534459063098313E+00
  0.2520028232015639E+00  0.2505679567606326E+00  0.2491412602012440E+00  0.2477226870039378E+00  0.2463121909140697E+00
  0.2449097259402998E+00  0.2435152463530921E+00  0.2421287066832209E+00  0.2407500617202853E+00  0.2393792665112348E+00
  0.2380162763588982E+00  0.2366610468205264E+00  0.2353135337063401E+00  0.2339736930780860E+00  0.2326414812476008E+00
  0.2313168547753860E+00  0.2299997704691862E+00  0.2286901853825798E+00  0.2273880568135738E+00  0.2260933423032105E+00
  0.2248059996341769E+00  0.2235259868294281E+00  0.2222532621508122E+00  0.2209877840977076E+00  0.2197295114056650E+00
  0.2184784030450588E+00  0.2172344182197453E+00  0.2159975163657271E+00  0.2147676571498285E+00  0.2135448004683734E+00
  0.2123289064458753E+00  0.2111199354337311E+00  0.2099178480089245E+00  0.2087226049727340E+00  0.2075341673494521E+00
  0.2063524963851063E+00  0.2051775535461923E+00  0.2040093005184108E+00  0.2028476992054123E+00  0.2016927117275499E+00
  0.2005443004206367E+00  0.1994024278347118E+00  0.1982670567328133E+00  0.1971381500897568E+00  0.1960156710909206E+00
  0.1948995831310392E+00  0.1937898498130012E+00  0.1926864349466560E+00  0.1915893025476246E+00  0.1904984168361194E+00
  0.1894137422357687E+00  0.1883352433724468E+00  0.1872628850731137E+00  0.1861966323646587E+00  0.1851364504727486E+00
  0.1840823048206871E+00  0.1830341610282754E+00  0.1819919849106809E+00  0.1809557424773132E+00  0.1799253999307035E+00
  0.1789009236653928E+00  0.1778822802668225E+00  0.1768694365102354E+00  0.1758623593595785E+00  0.1748610159664139E+00
  0.1738653736688343E+00  0.1728753999903851E+00  0.1718910626389920E+00  0.1709123295058927E+00  0.1699391686645774E+00
  0.1689715483697310E+00  0.1680094370561842E+00  0.1670528033378670E+00  0.1661016160067707E+00  0.1651558440319127E+00
  0.1642154565583077E+00  0.1632804229059441E+00  0.1623507125687659E+00  0.1614262952136588E+00  0.1605071406794426E+00
  0.1595932189758680E+00  0.1586845002826187E+00  0.1577809549483173E+00  0.1568825534895395E+00  0.1559892665898286E+00
  0.1551010650987185E+00  0.1542179200307602E+00  0.1533398025645522E+00  0.1524666840417774E+00  0.1515985359662430E+00
  0.1507353300029267E+00  0.1498770379770254E+00  0.1490236318730106E+00  0.1481750838336867E+00  0.1473313661592547E+00
  0.1464924513063794E+00  0.1456583118872621E+00  0.1448289206687165E+00  0.1440042505712492E+00  0.1431842746681453E+00
  0.1423689661845559E+00  0.1415582984965932E+00  0.1407522451304250E+00  0.1399507797613787E+00  0.1391538762130439E+00
  0.1383615084563835E+00  0.1375736506088444E+00  0.1367902769334763E+00  0.1360113618380503E+00  0.1352368798741847E+00
  0.1344668057364712E+00  0.1337011142616074E+00  0.1329397804275317E+00  0.1321827793525610E+00  0.1314300862945330E+00
  0.1306816766499524E+00  0.1299375259531385E+00  0.1291976098753772E+00  0.1284619042240769E+00  0.1277303849419264E+00
  0.1270030281060569E+00  0.1262798099272057E+00  0.1255607067488855E+00  0.1248456950465528E+00  0.1241347514267838E+00
  0.1234278526264491E+00  0.1227249755118938E+00  0.1220260970781195E+00  0.1213311944479682E+00  0.1206402448713107E+00
  0.1199532257242353E+00  0.1192701145082417E+00  0.1185908888494345E+00  0.1179155264977211E+00  0.1172440053260114E+00
  0.1165763033294199E+00  0.1159123986244690E+00  0.1152522694482964E+00  0.1145958941578627E+00  0.1139432512291624E+00
  0.1132943192564362E+00  0.1126490769513849E+00  0.1120075031423865E+00  0.1113695767737133E+00  0.1107352769047524E+00
  0.1101045827092265E+00  0.1094774734744174E+00  0.1088539286003901E+00  0.1082339275992192E+00  0.1076174500942158E+00
  0.1070044758191569E+00  0.1063949846175146E+00  0.1057889564416877E+00  0.1051863713522347E+00  0.1045872095171053E+00
  0.1039914512108767E+00  0.1033990768139877E+00  0.1028100668119755E+00  0.1022244017947119E+00  0.1016420624556415E+00
  0.1010630295910192E+00  0.1004872840991500E+00  0.9991480697962697E-01  0.9934557933257203E-01  0.9877958235787485E-01
  0.9821679735443410E-01  0.9765720571939693E-01  0.9710078894740019E-01  0.9654752862981028E-01  0.9599740645396400E-01
  0.9545040420240884E-01  0.9490650375214256E-01  0.9436568707385386E-01  0.9382793623116059E-01  0.9329323337985007E-01
  0.9276156076711581E-01  0.9223290073079708E-01  0.9170723569861430E-01  0.9118454818740661E-01  0.9066482080236613E-01
  0.9014803623627325E-01  0.8963417726872924E-01  0.8912322676538911E-01  0.8861516767719213E-01  0.8810998303959172E-01
  0.8760765597178329E-01  0.8710816967593187E-01  0.8661150743639669E-01  0.8611765261895464E-01  0.8562658867002264E-01
  0.8513829911587681E-01  0.8465276756187143E-01  0.8416997769165380E-01  0.8368991326637919E-01  0.8321255812392205E-01
  0.8273789617808500E-01  0.8226591141780631E-01  0.8179658790636465E-01  0.8132990978058030E-01  0.8086586125001496E-01
  0.8040442659616825E-01  0.7994559017167097E-01  0.7948933639947649E-01  0.7903564977204781E-01  0.7858451485054288E-01
  0.7813591626399514E-01  0.7768983870849254E-01  0.7724626694635153E-01  0.7680518580528879E-01  0.7636658017758845E-01
  0.7593043501926670E-01  0.7549673534923135E-01  0.7506546624843900E-01  0.7463661285904717E-01  0.7421016038356285E-01
  0.7378609408398726E-01  0.7336439928095567E-01  0.7294506135287414E-01  0.7252806573505068E-01  0.7211339791882310E-01
  0.7170104345068140E-01  0.7129098793138670E-01  0.7088321701508440E-01  0.7047771640841372E-01  0.7007447186961191E-01
  0.6967346920761350E-01  0.6927469428114498E-01  0.6887813299781499E-01  0.6848377131319844E-01  0.6809159522991663E-01
  0.6770159079671177E-01  0.6731374410751623E-01  0.6692804130051734E-01  0.6654446855721607E-01  0.6616301210148150E-01
  0.6578365819859897E-01  0.6540639315431394E-01  0.6503120331386998E-01  0.6465807506104178E-01  0.6428699481716248E-01
  0.6391794904014654E-01  0.6355092422350626E-01  0.6318590689536406E-01  0.6282288361745908E-01  0.6246184098414833E-01
  0.6210276562140373E-01  0.6174564418580278E-01  0.6139046336351541E-01  0.6103720986928497E-01  0.6068587044540548E-01
  0.6033643186069280E-01  0.5998888090945252E-01  0.5964320441044230E-01  0.5929938920583077E-01  0.5895742216015151E-01
  0.5861729015925332E-01  0.5827898010924694E-01  0.5794247893544729E-01  0.5760777358131336E-01  0.5727485100738418E-01
  0.5694369819021206E-01  0.5661430212129306E-01  0.5628664980599553E-01  0.5596072826248577E-01  0.5563652452065308E-01
  0.5531402562103228E-01  0.5499321861372637E-01  0.5467409055732738E-01  0.5435662851783869E-01  0.5404081956759605E-01
  0.5372665078419066E-01  0.5341410924939280E-01  0.5310318204807792E-01  0.5279385626715500E-01  0.5248611899449778E-01
  0.5217995731788039E-01  0.5187535832391670E-01  0.5157230909700546E-01  0.5127079671828106E-01  0.5097080826457139E-01
  0.5067233080736269E-01  0.5037535141177395E-01  0.5007985713553956E-01  0.4978583502800364E-01  0.4949327212912498E-01
  0.4920215546849487E-01  0.4891247206436895E-01  0.4862420892271362E-01  0.4833735303626867E-01  0.4805189138362796E-01
  0.4776781092833836E-01  0.4748509861801927E-01  0.4720374138350417E-01  0.4692372613800527E-01  0.4664503977630358E-01
  0.4636766917396531E-01  0.4609160118658732E-01  0.4581682264907280E-01  0.4554332037493874E-01  0.4527108115565889E-01
  0.4500009176004239E-01  0.4473033893365107E-01  0.4446180939825817E-01  0.4419448985134978E-01  0.4392836696567223E-01
  0.4366342738882802E-01  0.4339965774292200E-01  0.4313704462426199E-01  0.4287557460311484E-01  0.4261523422352299E-01
  0.4235601000318241E-01  0.4209788843338679E-01  0.4184085597903992E-01  0.4158489907874065E-01  0.4133000414494314E-01
  0.4107615756419589E-01  0.4082334569746439E-01  0.4057155488053910E-01  0.4032077142453511E-01  0.4007098161648469E-01
  0.3982217172003006E-01  0.3957432797621714E-01  0.3932743660439757E-01  0.3908148380324133E-01  0.3883645575186593E-01
  0.3859233861108551E-01  0.3834911852478600E-01  0.3810678162142986E-01  0.3786531401569611E-01  0.3762470181026038E-01
  0.3738493109772058E-01  0.3714598796267232E-01  0.3690785848394056E-01  0.3667052873697221E-01  0.3643398479639479E-01
  0.3619821273874781E-01  0.3596319864539069E-01  0.3572892860559457E-01  0.3549538871982209E-01  0.3526256510320182E-01
  0.3503044388920236E-01  0.3479901123351217E-01  0.3456825331813013E-01  0.3433815635567333E-01  0.3410870659390666E-01
  0.3387989032050007E-01  0.3365169386801950E-01  0.3342410361915531E-01  0.3319710601219517E-01  0.3297068754674447E-01
  0.3274483478970134E-01  0.3251953438148861E-01  0.3229477304254911E-01  0.3207053758010719E-01  0.3184681489520119E-01
  0.3162359198998999E-01  0.3140085597533736E-01  0.3117859407867676E-01  0.3095679365215877E-01  0.3073544218108465E-01
  0.3051452729262533E-01  0.3029403676482964E-01  0.3007395853592000E-01  0.2985428071387715E-01  0.2963499158631218E-01
  0.2941607963062548E-01  0.2919753352444987E-01  0.2897934215637539E-01  0.2876149463695220E-01  0.2854398030996706E-01
  0.2832678876398785E-01  0.2810990984417048E-01  0.2789333366432006E-01  0.2767705061919871E-01  0.2746105139707041E-01
  0.2724532699247198E-01  0.2702986871919972E-01  0.2681466822349702E-01  0.2659971749743081E-01  0.2638500889243981E-01
  0.2617053513303883E-01  0.2595628933066071E-01  0.2574226499761665E-01  0.2552845606115345E-01  0.2531485687758625E-01
  0.2510146224648218E-01  0.2488826742487031E-01  0.2467526814145078E-01  0.2446246061077473E-01  0.2424984154736631E-01
  0.2403740817975411E-01  0.2382515826438062E-01  0.2361309009935530E-01  0.2340120253801542E-01  0.2318949500225787E-01
  0.2297796749560467E-01  0.2276662061596113E-01  0.2255545556802773E-01  0.2234447417532226E-01  0.2213367889177103E-01
  0.2192307281282399E-01  0.2171265968604969E-01  0.2150244392116510E-01  0.2129243059945370E-01  0.2108262548252561E-01
  0.2087303502037282E-01  0.2066366635867343E-01  0.2045452734529645E-01  0.2024562653596221E-01  0.2003697319901018E-01
  0.1982857731923023E-01  0.1962044960071023E-01  0.1941260146865827E-01  0.1920504507015420E-01  0.1899779327379114E-01
  0.1879085966816537E-01  0.1858425855917843E-01  0.1837800496611401E-01  0.1817211461645707E-01  0.1796660393942473E-01
  0.1776149005817951E-01  0.1755679078070185E-01  0.1735252458929830E-01  0.1714871062872945E-01  0.1694536869294089E-01
  0.1674251921038899E-01  0.1654018322795337E-01  0.1633838239343574E-01  0.1613713893664604E-01  0.1593647564908466E-01
  0.1573641586223138E-01  0.1553698342445859E-01  0.1533820267659037E-01  0.1514009842613483E-01  0.1494269592022060E-01
  0.1474602081727541E-01  0.1455009915748914E-01  0.1435495733210745E-01  0.1416062205160981E-01  0.1396712031282753E-01
  0.1377447936506519E-01  0.1358272667529112E-01  0.1339188989246820E-01  0.1320199681110096E-01  0.1301307533407767E-01
  0.1282515343489046E-01  0.1263825911932104E-01  0.1245242038668076E-01  0.1226766519069804E-01  0.1208402140014866E-01
  0.1190151675932508E-01  0.1172017884844490E-01  0.1154003504409723E-01  0.1136111247982960E-01  0.1118343800697501E-01
  0.1100703815582237E-01  0.1083193909722972E-01  0.1065816660478167E-01  0.1048574601758854E-01  0.1031470220382541E-01
  0.1014505952510462E-01  0.9976841801774659E-02  0.9810072279234274E-02  0.9644773595347026E-02  0.9480967749038970E-02
  0.9318676070155978E-02  0.9157919190654991E-02  0.8998717017196560E-02  0.8841088705202874E-02  0.8685052634438379E-02
  0.8530626386166307E-02  0.8377826721927059E-02  0.8226669563979780E-02  0.8077169977441918E-02  0.7929342154155529E-02
  0.7783199398302861E-02  0.7638754113788364E-02  0.7496017793396469E-02  0.7355001009730786E-02  0.7215713407932135E-02
  0.7078163700168549E-02  0.6942359661883176E-02  0.6808308129782455E-02  0.6676015001539253E-02  0.6545485237182358E-02
  0.6416722862137598E-02  0.6289730971882138E-02  0.6164511738167950E-02  0.6041066416767709E-02  0.5919395356691816E-02
  0.5799498010821231E-02  0.5681372947899244E-02  0.5565017865820785E-02  0.5450429606156788E-02  0.5337604169847203E-02
  0.5226536733997446E-02  0.5117221669707442E-02  0.5009652560865334E-02  0.4903822223834170E-02  0.4799722727961117E-02
  0.4697345416837062E-02  0.4596680930236131E-02  0.4497719226663779E-02  0.4400449606442779E-02  0.4304860735268101E-02
  0.4210940668162423E-02  0.4118676873764197E-02  0.4028056258883820E-02  0.3939065193263478E-02  0.3851689534478425E-02
  0.3765914652920339E-02  0.3681725456804353E-02  0.3599106417144647E-02  0.3518041592644885E-02  0.3438514654453444E-02
  0.3360508910734779E-02  0.3284007331011562E-02  0.3208992570234525E-02  0.3135446992539996E-02  0.3063352694656958E-02
  0.2992691528929337E-02  0.2923445125920875E-02  0.2855594916572767E-02  0.2789122153887501E-02  0.2724007934113975E-02
  0.2660233217412114E-02  0.2597778847977398E-02  0.2536625573608281E-02  0.2476754064701282E-02  0.2418144932661729E-02
  0.2360778747719179E-02  0.2304636056139537E-02  0.2249697396827055E-02  0.2195943317312122E-02  0.2143354389121911E-02
  0.2091911222532627E-02  0.2041594480704597E-02  0.1992384893201429E-02  0.1944263268897424E-02  0.1897210508277693E-02
  0.1851207615137160E-02  0.1806235707685419E-02  0.1762276029065907E-02  0.1719309957298399E-02  0.1677319014654758E-02
  0.1636284876478846E-02  0.1596189379462273E-02  0.1557014529387564E-02  0.1518742508352028E-02  0.1481355681485120E-02
  0.1444836603172844E-02  0.1409168022803291E-02  0.1374332890047307E-02  0.1340314359688838E-02  0.1307095796019309E-02
  0.1274660776810995E-02  0.1242993096883940E-02  0.1212076771281260E-02  0.1181896038067606E-02  0.1152435360765503E-02
  0.1123679430444052E-02  0.1095613167474639E-02  0.1068221722967909E-02  0.1041490479906031E-02  0.1015405053984365E-02
  0.9899512941761138E-03  0.9651152830333985E-03  0.9408833367379732E-03  0.9172420049144778E-03  0.8941780702187035E-03
  0.8716785477133018E-03  0.8497306840427791E-03  0.8283219564194901E-03  0.8074400714317909E-03  0.7870729636854599E-03
  0.7672087942889288E-03  0.7478359491924759E-03  0.7289430373915404E-03  0.7105188890035126E-03  0.6925525532272569E-03
  0.6750332961943693E-03  0.6579505987205832E-03  0.6412941539655359E-03  0.6250538650088278E-03  0.6092198423498578E-03
  0.5937824013386822E-03  0.5787320595447036E-03  0.5640595340699767E-03  0.5497557388131643E-03  0.5358117816903177E-03
  0.5222189618180954E-03  0.5089687666648653E-03  0.4960528691747695E-03  0.4834631248697159E-03  0.4711915689338591E-03
  0.4592304132848963E-03  0.4475720436363831E-03  0.4362090165548983E-03  0.4251340565157249E-03  0.4143400529604961E-03
  0.4038200573600524E-03  0.3935672802854780E-03  0.3835750884902300E-03  0.3738370020059619E-03  0.3643466912544805E-03
  0.3550979741781987E-03  0.3460848133911566E-03  0.3373013133526067E-03  0.3287417175649681E-03  0.3204004057978618E-03
  0.3122718913396965E-03  0.3043508182782967E-03  0.2966319588117872E-03  0.2891102105909498E-03  0.2817805940940470E-03
  0.2746382500351134E-03  0.2676784368065387E-03  0.2608965279566444E-03  0.2542880097029930E-03  0.2478484784819355E-03
  0.2415736385348840E-03  0.2354592995317637E-03  0.2295013742319536E-03  0.2236958761829713E-03  0.2180389174571453E-03
  0.2125267064263898E-03  0.2071555455751974E-03  0.2019218293518354E-03  0.1968220420578219E-03  0.1918527557755165E-03
  0.1870106283338080E-03  0.1822924013117092E-03  0.1776948980797060E-03  0.1732150218786168E-03  0.1688497539357481E-03
  0.1645961516180570E-03  0.1604513466220032E-03  0.1564125431997924E-03  0.1524770164216374E-03  0.1486421104736748E-03
  0.1449052369911445E-03  0.1412638734264337E-03  0.1377155614515397E-03  0.1342579053945448E-03  0.1308885707096310E-03
  0.1276052824801916E-03  0.1244058239545495E-03  0.1212880351138278E-03  0.1182498112714734E-03  0.1152891017039462E-03
  0.1124039083120775E-03  0.1095922843126044E-03  0.1068523329593620E-03  0.1041822062936462E-03  0.1015801039232347E-03
  0.9904427182954758E-04  0.9657300120246209E-04  0.9416462730225646E-04  0.9181752834819081E-04  0.8953012443321272E-04
  0.8730087646429891E-04  0.8512828512791756E-04  0.8301088988013733E-04  0.8094726796088232E-04  0.7893603343184027E-04
  0.7697583623755766E-04  0.7506536128923293E-04  0.7320332757074235E-04  0.7138848726642280E-04  0.6961962491016390E-04
  0.6789555655534237E-04  0.6621512896515590E-04  0.6457721882290838E-04  0.6298073196181657E-04  0.6142460261389646E-04
  0.5990779267751654E-04  0.5842929100319526E-04  0.5698811269722689E-04  0.5558329844274113E-04  0.5421391383779166E-04
  0.5287904875008530E-04  0.5157781668796680E-04  0.5030935418728543E-04  0.4907282021376502E-04  0.4786739558052462E-04
  0.4669228238038373E-04  0.4554670343260917E-04  0.4442990174375269E-04  0.4334113998225066E-04  0.4227969996645115E-04
  0.4124488216574618E-04  0.4023600521449233E-04  0.3925240543841145E-04  0.3829343639316215E-04  0.3735846841479237E-04
  0.3644688818177668E-04  0.3555809828835244E-04  0.3469151682888109E-04  0.3384657699295742E-04  0.3302272667100206E-04
  0.3221942807007477E-04  0.3143615733965696E-04  0.3067240420714785E-04  0.2992767162283768E-04  0.2920147541411451E-04
  0.2849334394867529E-04  0.2780281780650959E-04  0.2712944946043921E-04  0.2647280296499325E-04  0.2583245365340629E-04
  0.2520798784253420E-04  0.2459900254548827E-04  0.2400510519178253E-04  0.2342591335481010E-04  0.2286105448645706E-04
  0.2231016565866834E-04  0.2177289331179114E-04  0.2124889300951819E-04  0.2073782920026184E-04  0.2023937498479072E-04
  0.1975321188997046E-04  0.1927902964844688E-04  0.1881652598411909E-04  0.1836540640325263E-04  0.1792538399108347E-04
  0.1749617921377308E-04  0.1707751972557282E-04  0.1666914018106323E-04  0.1627078205233352E-04  0.1588219345097494E-04
  0.1550312895476010E-04  0.1513334943888586E-04  0.1477262191166063E-04  0.1442071935451977E-04  0.1407742056625359E-04
  0.1374251001133993E-04  0.1341577767227214E-04  0.1309701890577621E-04  0.1278603430281708E-04  0.1248262955229247E-04
  0.1218661530831833E-04  0.1189780706100892E-04  0.1161602501066375E-04  0.1134109394526583E-04  0.1107284312120858E-04
  0.1081110614716334E-04  0.1055572087100601E-04  0.1030652926972033E-04  0.1006337734220081E-04  0.9826115004878007E-05
  0.9594595990090382E-05  0.9368677747131445E-05  0.9148221345901617E-05  0.8933091383093611E-05  0.8723155890846619E-05
  0.8518286247803080E-05  0.8318357092503442E-05  0.8123246239058481E-05  0.7932834595037787E-05  0.7747006081516129E-05
  0.7565647555219865E-05  0.7388648732718661E-05  0.7215902116607573E-05  0.7047302923626849E-05  0.6882749014668213E-05
  0.6722140826617627E-05  0.6565381305985297E-05  0.6412375844276341E-05  0.6263032215055594E-05  0.6117260512661029E-05
  0.5974973092523205E-05  0.5836084513047280E-05  0.5700511479016489E-05  0.5568172786476644E-05  0.5438989269062720E-05
  0.5312883745728499E-05  0.5189780969843128E-05  0.5069607579617561E-05  0.4952292049826151E-05  0.4837764644788530E-05
  0.4725957372578987E-05  0.4616803940430715E-05  0.4510239711302440E-05  0.4406201661578463E-05  0.4304628339869901E-05
  0.4205459826889853E-05  0.4108637696372946E-05  0.4014104977012279E-05  0.3921806115386237E-05  0.3831686939849692E-05
  0.3743694625363552E-05  0.3657777659238364E-05  0.3573885807766927E-05  0.3491970083723945E-05  0.3411982714708085E-05
  0.3333877112305505E-05  0.3257607842052753E-05  0.3183130594177593E-05  0.3110402155097905E-05  0.3039380379658151E-05
  0.2970024164084329E-05  0.2902293419638085E-05  0.2836149046952019E-05  0.2771552911027968E-05  0.2708467816880897E-05
  0.2646857485811377E-05  0.2586686532290297E-05  0.2527920441439353E-05  0.2470525547092052E-05  0.2414469010419863E-05
  0.2359718799108387E-05  0.2306243667069625E-05  0.2254013134675845E-05  0.2202997469501601E-05  0.2153167667560462E-05
  0.2104495435023704E-05  0.2056953170407892E-05  0.2010513947219670E-05  0.1965151497045283E-05  0.1920840193073600E-05
  0.1877555034040878E-05  0.1835271628586660E-05  0.1793966180009906E-05  0.1753615471414667E-05  0.1714196851235634E-05
  0.1675688219133263E-05  0.1638068012248846E-05  0.1601315191810428E-05  0.1565409230080207E-05  0.1530330097634495E-05
   40     91.224         4.5255    fcc     
  0.0000000000000000E+00 -0.4522646755960258E-01 -0.9014477440612234E-01 -0.1347559913336958E+00 -0.1790611891364597E+00
 -0.2230614386085530E+00 -0.2667578105441137E+00 -0.3101513757372785E+00 -0.3532432049821850E+00 -0.3960343690729706E+00
 -0.4385259388037723E+00 -0.4807189849687292E+00 -0.5226145783619778E+00 -0.5642137897776558E+00 -0.6055176900099015E+00
 -0.6465273498528505E+00 -0.6872438401006411E+00 -0.7276682315474119E+00 -0.7678015949873003E+00 -0.8076450012144427E+00
 -0.8471995210229775E+00 -0.8864662252070419E+00 -0.9254461845607724E+00 -0.9641404698783083E+00 -0.1002550151953788E+01
 -0.1040676301581346E+01 -0.1078519989555122E+01 -0.1116082286669252E+01 -0.1153364263717876E+01 -0.1190366991495128E+01
 -0.1227091540795148E+01 -0.1263538982412073E+01 -0.1299710387140042E+01 -0.1335606825773191E+01 -0.1371229369105655E+01
 -0.1406579087931576E+01 -0.1441657053045089E+01 -0.1476464335240334E+01 -0.1511002005311445E+01 -0.1545271134052562E+01
 -0.1579272792257822E+01 -0.1613008050721362E+01 -0.1646477980237319E+01 -0.1679683651599832E+01 -0.1712626135603038E+01
 -0.1745306503041076E+01 -0.1777725824708080E+01 -0.1809885171398190E+01 -0.1841785613905544E+01 -0.1873428223024278E+01
 -0.1904814069548530E+01 -0.1935944224272439E+01 -0.1966819757990139E+01 -0.1997441741495773E+01 -0.2027811245583472E+01
 -0.2057929341047378E+01 -0.2087797098681628E+01 -0.2117415589280359E+01 -0.2146785883637708E+01 -0.2175909052547813E+01
 -0.2204786166804810E+01 -0.2233418297202840E+01 -0.2261806514536039E+01 -0.2289951889598544E+01 -0.2317855493184491E+01
 -0.2345518396088021E+01 -0.2372941669103270E+01 -0.2400126383024373E+01 -0.2427073608645471E+01 -0.2453784416760700E+01
 -0.2480259878164199E+01 -0.2506501063650103E+01 -0.2532509044012552E+01 -0.2558284890045682E+01 -0.2583829672543631E+01
 -0.2609144462300537E+01 -0.2634230330110537E+01 -0.2659088346767768E+01 -0.2683719583066369E+01 -0.2708125109800476E+01
 -0.2732305997764228E+01 -0.2756263317751760E+01 -0.2779998140557213E+01 -0.2803511536974721E+01 -0.2826804577798425E+01
 -0.2849878333822461E+01 -0.2872733875840966E+01 -0.2895372274648078E+01 -0.2917794601037935E+01 -0.2940001925804673E+01
 -0.2961995319742432E+01 -0.2983775853645347E+01 -0.3005344598307557E+01 -0.3026702624523198E+01 -0.3047851003086411E+01
 -0.3068790804791329E+01 -0.3089523100432094E+01 -0.3110048960802839E+01 -0.3130369456697705E+01 -0.3150485658910829E+01
 -0.3170398638236348E+01 -0.3190109465468399E+01 -0.3209619211401120E+01 -0.3228928946828648E+01 -0.3248039742545121E+01
 -0.3266952669344677E+01 -0.3285668798021453E+01 -0.3304189199369587E+01 -0.3322514944183216E+01 -0.3340647103256478E+01
