  DATE: 2018-03-30 CONTRIBUTOR: Xiaowang Zhou xzhou@sandia.gov and Lucas Hale lucas.hale@nist.gov CITATION: X. W. Zhou, R. A. Johnson, H. N. G. Wadley, Phys. Rev. B, 69, 144113(2004)
  Generated from Zhou04_create_v2.f
  Fixes precision issues with older version
    5 V Nb Mo Fe Ni           
 2000  0.1002575835559828E+00 2000  0.3296990925890780E-02  0.6590684860855670E+01
   23     50.941         4.1683    fcc     
  0.0000000000000000E+00  0.1703217727046140E+00  0.1276260339791899E+00  0.8529263892789007E-01  0.4332002020156667E-01
  0.1706610451073676E-02 -0.3954915767273848E-01 -0.8044885151901493E-01 -0.1209940384369044E+00 -0.1611862857755528E+00
 -0.2010271608841099E+00 -0.2405182311117202E+00 -0.2796610638075330E+00 -0.3184572263206946E+00 -0.3569082860003530E+00
 -0.3950158101956549E+00 -0.4327813662557483E+00 -0.4702065215297806E+00 -0.5072928433668975E+00 -0.5440418991162481E+00
 -0.5804552561269796E+00 -0.6165344817482385E+00 -0.6522811433291729E+00 -0.6876968082189292E+00 -0.7227830437666558E+00
 -0.7575414173214989E+00 -0.7919734962326068E+00 -0.8260808478491268E+00 -0.8598650395202054E+00 -0.8933276385949913E+00
 -0.9264702124226301E+00 -0.9592943283522699E+00 -0.9918015537330591E+00 -0.1023993455914144E+01 -0.1055871602244670E+01
 -0.1087437560073789E+01 -0.1118692896750644E+01 -0.1149639179624385E+01 -0.1180277976044158E+01 -0.1210610853359111E+01
 -0.1240639378918391E+01 -0.1270365120071145E+01 -0.1299789644166522E+01 -0.1328914518553666E+01 -0.1357741310581728E+01
 -0.1386271587599853E+01 -0.1414506916957190E+01 -0.1442448866002885E+01 -0.1470099002086085E+01 -0.1497458892555939E+01
 -0.1524530104761593E+01 -0.1551314206052194E+01 -0.1577812763776891E+01 -0.1604027345284830E+01 -0.1629959517925159E+01
 -0.1655610849047024E+01 -0.1680982905999575E+01 -0.1706077256131956E+01 -0.1730895466793317E+01 -0.1755439105332804E+01
 -0.1779709739099565E+01 -0.1803708935442746E+01 -0.1827438261711497E+01 -0.1850899285254962E+01 -0.1874093573422292E+01
 -0.1897022693562630E+01 -0.1919688213025128E+01 -0.1942091699158929E+01 -0.1964234719313183E+01 -0.1986118840837037E+01
 -0.2007745631079638E+01 -0.2029116657390134E+01 -0.2050233487117670E+01 -0.2071097687611395E+01 -0.2091710826220457E+01
 -0.2112074470294003E+01 -0.2132190187181179E+01 -0.2152059544231134E+01 -0.2171684108793014E+01 -0.2191065448215968E+01
 -0.2210205129849141E+01 -0.2229104721041682E+01 -0.2247765789142739E+01 -0.2266189901501457E+01 -0.2284378625466985E+01
 -0.2302333528388470E+01 -0.2320056177615060E+01 -0.2337548140495900E+01 -0.2354810984380140E+01 -0.2371846276616925E+01
 -0.2388655584555405E+01 -0.2405240475544726E+01 -0.2421602516934034E+01 -0.2437743276072479E+01 -0.2453664320309206E+01
 -0.2469367216993363E+01 -0.2484853533474098E+01 -0.2500124837100558E+01 -0.2515182695221891E+01 -0.2530028675187241E+01
 -0.2544664344345760E+01 -0.2559091270046593E+01 -0.2573311019638887E+01 -0.2587325160471790E+01 -0.2601135259894450E+01
 -0.2614742885256012E+01 -0.2628149603905626E+01 -0.2641356983192438E+01 -0.2654366590465596E+01 -0.2667179993074245E+01
 -0.2679798758367536E+01 -0.2692224453694613E+01 -0.2704458646404627E+01 -0.2716502903846721E+01 -0.2728358793370046E+01
 -0.2740027882323747E+01 -0.2751511738056972E+01 -0.2762811927918869E+01 -0.2773930019258585E+01 -0.2784867579425267E+01
 -0.2795626175768062E+01 -0.2806207375636118E+01 -0.2816612746378582E+01 -0.2826843855344602E+01 -0.2836902269883324E+01
 -0.2846789557343897E+01 -0.2856507285075467E+01 -0.2866057020427182E+01 -0.2875440330748189E+01 -0.2884658783387636E+01
 -0.2893713945694669E+01 -0.2902607385018436E+01 -0.2911340668708085E+01 -0.2919915364112763E+01 -0.2928333038581616E+01
 -0.2936595259463793E+01 -0.2944703594108441E+01 -0.2952659609864707E+01 -0.2960464874081739E+01 -0.2968120954108682E+01
 -0.2975629417294686E+01 -0.2982991830988898E+01 -0.2990209762540464E+01 -0.2997284779298533E+01 -0.3004218448612250E+01
 -0.3011012337830765E+01 -0.3017668014303224E+01 -0.3024187045378774E+01 -0.3030570998406562E+01 -0.3036821440735737E+01
 -0.3042939939715445E+01 -0.3048928062694834E+01 -0.3054787377023051E+01 -0.3060519450049243E+01 -0.3066125849122558E+01
 -0.3071608141592142E+01 -0.3076967894807145E+01 -0.3082206676116712E+01 -0.3087326052869991E+01 -0.3092327592416129E+01
 -0.3097212862104274E+01 -0.3101983429283573E+01 -0.3106640861303174E+01 -0.3111186725512223E+01 -0.3115622589259868E+01
 -0.3119950019895256E+01 -0.3124170584767535E+01 -0.3128285851225852E+01 -0.3132297386619355E+01 -0.3136206758297189E+01
 -0.3140015533608504E+01 -0.3143725279902446E+01 -0.3147337564528163E+01 -0.3150853954834802E+01 -0.3154276018171510E+01
 -0.3157605321887436E+01 -0.3160843433331724E+01 -0.3163991919853524E+01 -0.3167052348801982E+01 -0.3170026287526247E+01
 -0.3172915303375465E+01 -0.3175720963698784E+01 -0.3178444835845350E+01 -0.3181088487164312E+01 -0.3183653485004816E+01
 -0.3186141396716010E+01 -0.3188553789647042E+01 -0.3190892231147057E+01 -0.3193158288565205E+01 -0.3195353529250633E+01
 -0.3197479520552486E+01 -0.3199537829819914E+01 -0.3201530024402063E+01 -0.3203457671648080E+01 -0.3205322338907114E+01
 -0.3207125593528311E+01 -0.3208869002860818E+01 -0.3210554134253783E+01 -0.3212182555056353E+01 -0.3213755832617676E+01
 -0.3215275534286899E+01 -0.3216743227413169E+01 -0.3218160479345633E+01 -0.3219528857433440E+01 -0.3220849929025735E+01
 -0.3222125261471668E+01 -0.3223356422120383E+01 -0.3224544978321030E+01 -0.3225692497422756E+01 -0.3226800546774708E+01
 -0.3227870693726032E+01 -0.3228904505625877E+01 -0.3229903549823391E+01 -0.3230440132964024E+01 -0.3231500530324487E+01
 -0.3232529115329128E+01 -0.3233526191967131E+01 -0.3234492064227680E+01 -0.3235427036099960E+01 -0.3236331411573158E+01
 -0.3237205494636458E+01 -0.3238049589279044E+01 -0.3238863999490102E+01 -0.3239649029258817E+01 -0.3240404982574374E+01
 -0.3241132163425958E+01 -0.3241830875802755E+01 -0.3242501423693948E+01 -0.3243144111088723E+01 -0.3243759241976266E+01
 -0.3244347120345761E+01 -0.3244908050186393E+01 -0.3245442335487348E+01 -0.3245950280237810E+01 -0.3246432188426964E+01
 -0.3246888364043996E+01 -0.3247319111078090E+01 -0.3247724733518432E+01 -0.3248105535354207E+01 -0.3248461820574599E+01
 -0.3248793893168794E+01 -0.3249102057125976E+01 -0.3249386616435332E+01 -0.3249647875086044E+01 -0.3249886137067301E+01
 -0.3250101706368284E+01 -0.3250294886978181E+01 -0.3250465982886176E+01 -0.3250615298081454E+01 -0.3250743136553200E+01
 -0.3250849802290600E+01 -0.3250935599282837E+01 -0.3251000831519097E+01 -0.3251045802988566E+01 -0.3251070817680428E+01
 -0.3251076179548451E+01 -0.3251062184991713E+01 -0.3251029113531081E+01 -0.3250977242400161E+01 -0.3250906848832560E+01
 -0.3250818210061889E+01 -0.3250711603321752E+01 -0.3250587305845760E+01 -0.3250445594867519E+01 -0.3250286747620637E+01
 -0.3250111041338722E+01 -0.3249918753255382E+01 -0.3249710160604225E+01 -0.3249485540618858E+01 -0.3249245170532889E+01
 -0.3248989327579926E+01 -0.3248718288993576E+01 -0.3248432332007449E+01 -0.3248131733855150E+01 -0.3247816771770289E+01
 -0.3247487722986473E+01 -0.3247144864737309E+01 -0.3246788474256407E+01 -0.3246418828777372E+01 -0.3246036205533814E+01
 -0.3245640881759339E+01 -0.3245233134687556E+01 -0.3244813241552072E+01 -0.3244381479586496E+01 -0.3243938126024435E+01
 -0.3243483458099496E+01 -0.3243017753045289E+01 -0.3242541288095420E+01 -0.3242054340483496E+01 -0.3241557187443127E+01
 -0.3241050106207921E+01 -0.3240533374011483E+01 -0.3240007268087423E+01 -0.3239472065669348E+01 -0.3239103855752121E+01
 -0.3238391693194408E+01 -0.3237665996708968E+01 -0.3236926850505745E+01 -0.3236174338018510E+01 -0.3235408541914484E+01
 -0.3234629544103817E+01 -0.3233837425748919E+01 -0.3233032267273639E+01 -0.3232214148372310E+01 -0.3231383148018650E+01
 -0.3230539344474531E+01 -0.3229682815298605E+01 -0.3228813637354807E+01 -0.3227931886820724E+01 -0.3227037639195839E+01
 -0.3226130969309645E+01 -0.3225211951329651E+01 -0.3224280658769244E+01 -0.3223337164495458E+01 -0.3222381540736609E+01
 -0.3221413859089828E+01 -0.3220434190528472E+01 -0.3219442605409434E+01 -0.3218439173480342E+01 -0.3217423963886649E+01
 -0.3216397045178625E+01 -0.3215358485318240E+01 -0.3214308351685955E+01 -0.3213246711087404E+01 -0.3212173629759992E+01
 -0.3211089173379384E+01 -0.3209993407065910E+01 -0.3208886395390876E+01 -0.3207768202382783E+01 -0.3206638891533459E+01
 -0.3205498525804101E+01 -0.3204347167631236E+01 -0.3203184878932595E+01 -0.3202011721112901E+01 -0.3200827755069582E+01
 -0.3199633041198401E+01 -0.3198427639399005E+01 -0.3197211609080400E+01 -0.3195985009166351E+01 -0.3194747898100700E+01
 -0.3193500333852620E+01 -0.3192242373921790E+01 -0.3190974075343502E+01 -0.3189695494693698E+01 -0.3188406688093934E+01
 -0.3187107711216285E+01 -0.3185798619288174E+01 -0.3184479467097141E+01 -0.3183150308995547E+01 -0.3181811198905219E+01
 -0.3180462190322014E+01 -0.3179103336320354E+01 -0.3177734689557667E+01 -0.3176356302278792E+01 -0.3174968226320317E+01
 -0.3173570513114858E+01 -0.3172163213695284E+01 -0.3170746378698889E+01 -0.3169320058371504E+01 -0.3167884302571555E+01
 -0.3166439160774079E+01 -0.3164984682074667E+01 -0.3163520915193381E+01 -0.3162047908478598E+01 -0.3160565709910818E+01
 -0.3159074367106417E+01 -0.3157573927321353E+01 -0.3156064437454829E+01 -0.3154545944052899E+01 -0.3153018493312040E+01
 -0.3151482131082669E+01 -0.3149936902872621E+01 -0.3148382853850581E+01 -0.3146820028849473E+01 -0.3145248472369806E+01
 -0.3143668228582978E+01 -0.3142079341334542E+01 -0.3140481854147427E+01 -0.3138875810225115E+01 -0.3137261252454794E+01
 -0.3135638223410454E+01 -0.3134006765355954E+01 -0.3132366920248054E+01 -0.3130718729739399E+01 -0.3129062235181478E+01
 -0.3127397477627542E+01 -0.3125724497835481E+01 -0.3124043336270682E+01 -0.3122354033108826E+01 -0.3120656628238682E+01
 -0.3118951161264844E+01 -0.3117237671510444E+01 -0.3115516198019833E+01 -0.3113786779561229E+01 -0.3112049454629333E+01
 -0.3110304261447909E+01 -0.3108551237972343E+01 -0.3106790421892170E+01 -0.3105021850633555E+01 -0.3103245561361773E+01
 -0.3101461590983633E+01 -0.3099669976149890E+01 -0.3097870753257623E+01 -0.3096063958452585E+01 -0.3094249627631529E+01
 -0.3092427796444497E+01 -0.3090598500297099E+01 -0.3088761774352755E+01 -0.3086917653534905E+01 -0.3085066172529209E+01
 -0.3083207365785713E+01 -0.3081341267520986E+01 -0.3079467911720242E+01 -0.3077587332139434E+01 -0.3075699562307322E+01
 -0.3073804635527517E+01 -0.3071902584880509E+01 -0.3069993443225662E+01 -0.3068077243203195E+01 -0.3066154017236137E+01
 -0.3064223797532258E+01 -0.3062286616085982E+01 -0.3060342504680280E+01 -0.3058391494888535E+01 -0.3056433618076395E+01
 -0.3054468905403596E+01 -0.3052497387825774E+01 -0.3050519096096252E+01 -0.3048534060767806E+01 -0.3046542312194415E+01
 -0.3044543880532996E+01 -0.3042538795745104E+01 -0.3040527087598633E+01 -0.3038508785669484E+01 -0.3036483919343223E+01
 -0.3034452517816722E+01 -0.3032414610099771E+01 -0.3030370225016685E+01 -0.3028319391207889E+01 -0.3026262137131485E+01
 -0.3024198491064804E+01 -0.3022128481105940E+01 -0.3020052135175268E+01 -0.3017969481016948E+01 -0.3015880546200405E+01
 -0.3013785358121812E+01 -0.3011683944005529E+01 -0.3009576330905554E+01 -0.3007462545706943E+01 -0.3005342615127221E+01
 -0.3003216565717775E+01 -0.3001084423865231E+01 -0.2998946215792830E+01 -0.2996801967561766E+01 -0.2994651705072536E+01
 -0.2992495454066249E+01 -0.2990333240125952E+01 -0.2988165088677915E+01 -0.2985991024992914E+01 -0.2983811074187510E+01
 -0.2981625261225294E+01 -0.2979433610918141E+01 -0.2977236147927432E+01 -0.2975032896765278E+01 -0.2972823881795727E+01
 -0.2970609127235954E+01 -0.2968388657157445E+01 -0.2966162495487166E+01 -0.2963930666008722E+01 -0.2961693192363505E+01
 -0.2959450098051823E+01 -0.2957201406434030E+01 -0.2954947140731637E+01 -0.2952687324028406E+01 -0.2950421979271451E+01
 -0.2948151129272312E+01 -0.2945874796708022E+01 -0.2943593004122168E+01 -0.2941305773925938E+01 -0.2939013128399155E+01
 -0.2936715089691313E+01 -0.2934411679822582E+01 -0.2932102920684824E+01 -0.2929788834042586E+01 -0.2927469441534089E+01
 -0.2925144764672205E+01 -0.2922814824845426E+01 -0.2920479643318824E+01 -0.2918139241234997E+01 -0.2915793639615011E+01
 -0.2913442859359337E+01 -0.2911086921248763E+01 -0.2908725845945315E+01 -0.2906359653993162E+01 -0.2903988365819507E+01
 -0.2901612001735479E+01 -0.2899230581937010E+01 -0.2896844126505710E+01 -0.2894452655409720E+01 -0.2892056188504580E+01
 -0.2889654745534058E+01 -0.2887248346131010E+01 -0.2884837009818187E+01 -0.2882420756009076E+01 -0.2879999604008705E+01
 -0.2877573573014454E+01 -0.2875142682116854E+01 -0.2872706950300379E+01 -0.2870266396444229E+01 -0.2867821039323111E+01
 -0.2865370897608010E+01 -0.2862915989866945E+01 -0.2860456334565735E+01 -0.2857991950068740E+01 -0.2855522854639609E+01
 -0.2853049066442011E+01 -0.2850570603540370E+01 -0.2848087483900579E+01 -0.2845599725390721E+01 -0.2843107345781778E+01
 -0.2840610362748329E+01 -0.2838108793869253E+01 -0.2835602656628413E+01 -0.2833091968415340E+01 -0.2830576746525916E+01
 -0.2828057008163039E+01 -0.2825532770437290E+01 -0.2823004050367597E+01 -0.2820470864881880E+01 -0.2817933230817705E+01
 -0.2815391164922922E+01 -0.2812844683856306E+01 -0.2810293804188182E+01 -0.2807738542401053E+01 -0.2805178914890215E+01
 -0.2802614937964380E+01 -0.2800046627846273E+01 -0.2797474000673243E+01 -0.2794897072497859E+01 -0.2792315859288497E+01
 -0.2789730376929938E+01 -0.2787140641223938E+01 -0.2784546667889814E+01 -0.2781948472565014E+01 -0.2779346070805680E+01
 -0.2776739478087213E+01 -0.2774128709804835E+01 -0.2771513781274129E+01 -0.2768894707731600E+01 -0.2766271504335211E+01
 -0.2763644186164919E+01 -0.2761012768223217E+01 -0.2758377265435654E+01 -0.2755737692651364E+01 -0.2753094064643586E+01
 -0.2750446396110178E+01 -0.2747794701674132E+01 -0.2745138995884073E+01 -0.2742479293214771E+01 -0.2739815608067632E+01
 -0.2737147954771196E+01 -0.2734476347581623E+01 -0.2731800800683184E+01 -0.2729121328188740E+01 -0.2726437944140217E+01
 -0.2723750662509083E+01 -0.2721059497196820E+01 -0.2718364462035383E+01 -0.2715665570787664E+01 -0.2712962837147955E+01
 -0.2710256274742395E+01 -0.2707545897129428E+01 -0.2704831717800241E+01 -0.2702113750179213E+01 -0.2699392007624352E+01
 -0.2696666503427736E+01 -0.2693937250815932E+01 -0.2691204262950442E+01 -0.2688467552928111E+01 -0.2685727133781565E+01
 -0.2682983018479612E+01 -0.2680235219927672E+01 -0.2677483750968177E+01 -0.2674728624380989E+01 -0.2671969852883795E+01
 -0.2669207449132514E+01 -0.2666441425721694E+01 -0.2663671795184908E+01 -0.2660898569995141E+01 -0.2658121762565186E+01
 -0.2655341385248024E+01 -0.2652557450337207E+01 -0.2649769970067239E+01 -0.2646978956613952E+01 -0.2644184422094877E+01
 -0.2641386378569618E+01 -0.2638584838040215E+01 -0.2635779812451512E+01 -0.2632971313691519E+01 -0.2630159353591764E+01
 -0.2627343943927659E+01 -0.2624525096418845E+01 -0.2621702822729543E+01 -0.2618877134468907E+01 -0.2616048043191365E+01
 -0.2613215560396958E+01 -0.2610379697531685E+01 -0.2607540465987835E+01 -0.2604697877104327E+01 -0.2601851942167034E+01
 -0.2599002672409117E+01 -0.2596150079011351E+01 -0.2593294173102445E+01 -0.2590434965759370E+01 -0.2587572468007671E+01
 -0.2584706690821786E+01 -0.2581837645125362E+01 -0.2578965341791564E+01 -0.2576089791643383E+01 -0.2573211005453946E+01
 -0.2570328993946820E+01 -0.2567443767796313E+01 -0.2564555337627768E+01 -0.2561663714017874E+01 -0.2558768907494948E+01
 -0.2555870928539235E+01 -0.2552969787583197E+01 -0.2550065495011803E+01 -0.2547158061162810E+01 -0.2544247496327055E+01
 -0.2541333810748731E+01 -0.2538417014625670E+01 -0.2535497118109619E+01 -0.2532574131306517E+01 -0.2529648064276768E+01
 -0.2526718927035513E+01 -0.2523786729552901E+01 -0.2520851481754353E+01 -0.2517913193520828E+01 -0.2514971874689092E+01
 -0.2512027535051975E+01 -0.2509080184358630E+01 -0.2506129832314793E+01 -0.2503176488583039E+01 -0.2500220162783034E+01
 -0.2497260864491790E+01 -0.2494298603243913E+01 -0.2491333388531849E+01 -0.2488365229806139E+01 -0.2485394136475656E+01
 -0.2482420117907850E+01 -0.2479443183428988E+01 -0.2476463342324401E+01 -0.2473480603838710E+01 -0.2470494977176071E+01
 -0.2467506471500405E+01 -0.2464515095935633E+01 -0.2461520859565904E+01 -0.2458523771435829E+01 -0.2455523840550701E+01
 -0.2452521075876730E+01 -0.2449515486341261E+01 -0.2446507080832997E+01 -0.2443495868202224E+01 -0.2440481857261028E+01
 -0.2437465056783512E+01 -0.2434445475506013E+01 -0.2431423122127320E+01 -0.2428398005308884E+01 -0.2425370133675028E+01
 -0.2422339515813162E+01 -0.2419306160273991E+01 -0.2416270075571717E+01 -0.2413231270184252E+01 -0.2410189752553419E+01
 -0.2407145531085157E+01 -0.2404098614149714E+01 -0.2401049010081862E+01 -0.2397996727181084E+01 -0.2394941773711775E+01
 -0.2391884157903439E+01 -0.2388823887950881E+01 -0.2385760972014403E+01 -0.2382695418219996E+01 -0.2379627234659527E+01
 -0.2376556429390930E+01 -0.2373483010438397E+01 -0.2370406985792560E+01 -0.2367328363410678E+01 -0.2364247151216824E+01
 -0.2361163357102063E+01 -0.2358076988924634E+01 -0.2354988054510135E+01 -0.2351896561651697E+01 -0.2348802518110165E+01
 -0.2345705931614273E+01 -0.2342606809860816E+01 -0.2339505160514835E+01 -0.2336400991209776E+01 -0.2333294309547671E+01
 -0.2330185123099307E+01 -0.2327073439404395E+01 -0.2323959265971735E+01 -0.2320842610279388E+01 -0.2317723479774842E+01
 -0.2314601881875173E+01 -0.2311477823967210E+01 -0.2308351313407702E+01 -0.2305222357523471E+01 -0.2302090963611584E+01
 -0.2298957138939502E+01 -0.2295820890745243E+01 -0.2292682226237543E+01 -0.2289541152596004E+01 -0.2286397676971252E+01
 -0.2283251806485098E+01 -0.2280103548230683E+01 -0.2276952909272632E+01 -0.2273799896647209E+01 -0.2270644517362460E+01
 -0.2267486778398371E+01 -0.2264326686707010E+01 -0.2261164249212674E+01 -0.2257999472812037E+01 -0.2254832364374300E+01
 -0.2251662930741325E+01 -0.2248491178727787E+01 -0.2245317115121311E+01 -0.2242140746682618E+01 -0.2238962080145661E+01
 -0.2235781122217771E+01 -0.2232597879579787E+01 -0.2229412358886200E+01 -0.2226224566765291E+01 -0.2223034509819260E+01
 -0.2219842194624369E+01 -0.2216647627731072E+01 -0.2213450815664149E+01 -0.2210251764922838E+01 -0.2207050481980968E+01
 -0.2203846973287093E+01 -0.2200641245264609E+01 -0.2197433304311904E+01 -0.2194223156802468E+01 -0.2191010809085027E+01
 -0.2187796267483674E+01 -0.2184579538297986E+01 -0.2181360627803159E+01 -0.2178139542250124E+01 -0.2174916287865674E+01
 -0.2171690870852588E+01 -0.2168463297389751E+01 -0.2165233573632274E+01 -0.2162001705711618E+01 -0.2158767699735709E+01
 -0.2155531561789064E+01 -0.2152293297932897E+01 -0.2149052914205253E+01 -0.2145810416621109E+01 -0.2142565811172499E+01
 -0.2139319103828625E+01 -0.2136070300535974E+01 -0.2132819407218433E+01 -0.2129566429777395E+01 -0.2126311374091880E+01
 -0.2123054246018642E+01 -0.2119795051392280E+01 -0.2116533796025348E+01 -0.2113270485708468E+01 -0.2110005126210433E+01
 -0.2106737723278323E+01 -0.2103468282637602E+01 -0.2100196809992236E+01 -0.2096923311024793E+01 -0.2093647791396547E+01
 -0.2090370256747588E+01 -0.2087090712696921E+01 -0.2083809164842578E+01 -0.2080525618761707E+01 -0.2077240080010690E+01
 -0.2073952554125233E+01 -0.2070663046620473E+01 -0.2067371562991076E+01 -0.2064078108711340E+01 -0.2060782689235289E+01
 -0.2057485309996776E+01 -0.2054185976409579E+01 -0.2050884693867500E+01 -0.2047581467744461E+01 -0.2044276303394599E+01
 -0.2040969206152365E+01 -0.2037660181332614E+01 -0.2034349234230705E+01 -0.2031036370122590E+01 -0.2027721594264916E+01
 -0.2024404911895104E+01 -0.2021086328231454E+01 -0.2017765848473229E+01 -0.2014443477800751E+01 -0.2011119221375488E+01
 -0.2007793084340149E+01 -0.2004465071818764E+01 -0.2001135188916787E+01 -0.1997803440721171E+01 -0.1994469832300462E+01
 -0.1991134368704891E+01 -0.1987797054966450E+01 -0.1984457896098988E+01 -0.1981116897098294E+01 -0.1977774062942179E+01
 -0.1974429398590566E+01 -0.1971082908985570E+01 -0.1967734599051587E+01 -0.1964384473695372E+01 -0.1961032537806124E+01
 -0.1957678796255571E+01 -0.1954323253898047E+01 -0.1950965915570578E+01 -0.1947606786092960E+01 -0.1944245870267839E+01
 -0.1940883172880798E+01 -0.1937518698700425E+01 -0.1934152452478402E+01 -0.1930784438949580E+01 -0.1927414662832055E+01
 -0.1924043128827247E+01 -0.1920669841619983E+01 -0.1917294805878565E+01 -0.1913918026254851E+01 -0.1910539507384331E+01
 -0.1907159253886203E+01 -0.1903777270363446E+01 -0.1900393561402893E+01 -0.1897008131575312E+01 -0.1893620985435474E+01
 -0.1890232127522228E+01 -0.1886841562358571E+01 -0.1883449294451732E+01 -0.1880055328293226E+01 -0.1876659668358940E+01
 -0.1873262319109199E+01 -0.1869863284988840E+01 -0.1866462570427275E+01 -0.1863060179838571E+01 -0.1859656117621511E+01
 -0.1856250388159671E+01 -0.1852842995821482E+01 -0.1849433944960302E+01 -0.1846023239914486E+01 -0.1842610885007448E+01
 -0.1839196884547735E+01 -0.1835781242829089E+01 -0.1832363964130516E+01 -0.1828945052716354E+01 -0.1825524512836331E+01
 -0.1822102348725640E+01 -0.1818678564605002E+01 -0.1815253164680724E+01 -0.1811826153144771E+01 -0.1808397534174829E+01
 -0.1804967311934365E+01 -0.1801535490572692E+01 -0.1798102074225034E+01 -0.1794667067012588E+01 -0.1791230473042581E+01
 -0.1787792296408341E+01 -0.1784352541189351E+01 -0.1780911211451316E+01 -0.1777468311246218E+01 -0.1774023844612380E+01
 -0.1770577815574530E+01 -0.1767130228143851E+01 -0.1763681086318050E+01 -0.1760230394081415E+01 -0.1756778155404868E+01
 -0.1753324374246033E+01 -0.1749869054549287E+01 -0.1746412200245820E+01 -0.1742953815253697E+01 -0.1739493903477907E+01
 -0.1736032468810426E+01 -0.1732569515130275E+01 -0.1729105046303570E+01 -0.1725639066183585E+01 -0.1722171578610801E+01
 -0.1718702587412968E+01 -0.1715232096405159E+01 -0.1711760109389819E+01 -0.1708286630156826E+01 -0.1704811662483545E+01
 -0.1701335210134876E+01 -0.1697857276863316E+01 -0.1694377866409005E+01 -0.1690896982499786E+01 -0.1687414628851254E+01
 -0.1683930809166804E+01 -0.1680445527137697E+01 -0.1676958786443094E+01 -0.1673470590750123E+01 -0.1669980943713926E+01
 -0.1666489848977704E+01 -0.1662997310172774E+01 -0.1659503330918620E+01 -0.1656007914822940E+01 -0.1652511065481700E+01
 -0.1649012786479181E+01 -0.1645513081388026E+01 -0.1642011953769299E+01 -0.1638509407172523E+01 -0.1635005445135733E+01
 -0.1631500071185527E+01 -0.1627993288837115E+01 -0.1624485101594358E+01 -0.1620975512949828E+01 -0.1617464526384848E+01
 -0.1613952145369540E+01 -0.1610438373362870E+01 -0.1606923213812706E+01 -0.1603406670155851E+01 -0.1599888745818094E+01
 -0.1596369444214259E+01 -0.1592848768748250E+01 -0.1589326722813090E+01 -0.1585803309790977E+01 -0.1582278533053319E+01
 -0.1578752395960789E+01 -0.1575224901863358E+01 -0.1571696054100351E+01 -0.1568165856000482E+01 -0.1564634310881906E+01
 -0.1561101422052252E+01 -0.1557567192808678E+01 -0.1554031626437909E+01 -0.1550494726216280E+01 -0.1546956495409775E+01
 -0.1543416937274081E+01 -0.1539876055054617E+01 -0.1536333851986587E+01 -0.1532790331295013E+01 -0.1529245496194785E+01
 -0.1525699349890695E+01 -0.1522151895577486E+01 -0.1518603136439885E+01 -0.1515053075652650E+01 -0.1511501716380610E+01
 -0.1507949061778701E+01 -0.1504395114992013E+01 -0.1500839879155823E+01 -0.1497283357395640E+01 -0.1493725552827246E+01
 -0.1490166468556725E+01 -0.1486606107680518E+01 -0.1483044473285450E+01 -0.1479481568448771E+01 -0.1475917396238202E+01
 -0.1472351959711963E+01 -0.1468785261918816E+01 -0.1465217305898108E+01 -0.1461648094679802E+01 -0.1458077631284516E+01
 -0.1454505918723560E+01 -0.1450932959998981E+01 -0.1447358758103586E+01 -0.1443783316020994E+01 -0.1440206636725661E+01
 -0.1436628723182926E+01 -0.1433049578349037E+01 -0.1429469205171199E+01 -0.1425887606587600E+01 -0.1422304785527454E+01
 -0.1418720744911031E+01 -0.1415135487649696E+01 -0.1411549016645946E+01 -0.1407961334793441E+01 -0.1404372444977039E+01
 -0.1400782350072835E+01 -0.1397191052948196E+01 -0.1393598556461786E+01 -0.1390004863463612E+01 -0.1386409976795054E+01
 -0.1382813899288894E+01 -0.1379216633769357E+01 -0.1375618183052142E+01 -0.1372018549944455E+01 -0.1368417737245042E+01
 -0.1364815747744221E+01 -0.1361212584223921E+01 -0.1357608249457707E+01 -0.1354002746210819E+01 -0.1350396077240199E+01
 -0.1346788245294527E+01 -0.1343179253114252E+01 -0.1339569103431629E+01 -0.1335957798970739E+01 -0.1332345342447533E+01
 -0.1328731736569855E+01 -0.1325116984037482E+01 -0.1321501087542148E+01 -0.1317884049767574E+01 -0.1314265873389509E+01
 -0.1310646561075748E+01 -0.1307026115486174E+01 -0.1303404539272780E+01 -0.1299781835079704E+01 -0.1296158005543260E+01
 -0.1292533053291966E+01 -0.1288906980946567E+01 -0.1285279791120084E+01 -0.1281651486417823E+01 -0.1278022069437417E+01
 -0.1274391542768850E+01 -0.1270759908994488E+01 -0.1267127170689110E+01 -0.1263493330419932E+01 -0.1259858390746640E+01
 -0.1256222354221418E+01 -0.1252585223388976E+01 -0.1248947000786578E+01 -0.1245307688944070E+01 -0.1241667290383913E+01
 -0.1238025807621201E+01 -0.1234383243163698E+01 -0.1230739599511862E+01 -0.1227094879158876E+01 -0.1223449084590668E+01
 -0.1219802218285946E+01 -0.1216154282716222E+01 -0.1212505280345839E+01 -0.1208855213631997E+01 -0.1205204085024786E+01
 -0.1201551896967205E+01 -0.1197898651895189E+01 -0.1194244352237643E+01 -0.1190589000416460E+01 -0.1186932598846556E+01
 -0.1183275149935883E+01 -0.1179616656085467E+01 -0.1175957119689432E+01 -0.1172296543135022E+01 -0.1168634928802623E+01
 -0.1164972279065802E+01 -0.1161308596291320E+01 -0.1157643882839159E+01 -0.1153978141062556E+01 -0.1150311373308014E+01
 -0.1146643581915339E+01 -0.1142974769217661E+01 -0.1139304937541455E+01 -0.1135634089206572E+01 -0.1131962226526255E+01
 -0.1128289351807176E+01 -0.1124615467349446E+01 -0.1120940575446648E+01 -0.1117264678385860E+01 -0.1113587778447676E+01
 -0.1109909877906236E+01 -0.1106230979029239E+01 -0.1102551084077976E+01 -0.1098870195307352E+01 -0.1095188314965907E+01
 -0.1091505445295836E+01 -0.1087821588533022E+01 -0.1084136746907053E+01 -0.1080450922641239E+01 -0.1076764117952647E+01
 -0.1073076335052120E+01 -0.1069387576144288E+01 -0.1065697843427609E+01 -0.1062007139094381E+01 -0.1058315465330762E+01
 -0.1054622824316800E+01 -0.1050929218226449E+01 -0.1047234649227595E+01 -0.1043539119482075E+01 -0.1039842631145701E+01
 -0.1036145186368279E+01 -0.1032446787293635E+01 -0.1028747436059635E+01 -0.1025047134798201E+01 -0.1021345885635341E+01
 -0.1017643690691164E+01 -0.1013940552079904E+01 -0.1010236471909940E+01 -0.1006531452283820E+01 -0.1002825495298274E+01
 -0.9991186030442455E+00 -0.9954107776069039E+00 -0.9917020210656680E+00 -0.9879923354942280E+00 -0.9842817229605627E+00
 -0.9805701855269623E+00 -0.9768577252500493E+00 -0.9731443441807940E+00 -0.9694300443645433E+00 -0.9657148278410291E+00
 -0.9619986966443995E+00 -0.9582816528032289E+00 -0.9545636983405444E+00 -0.9508448352738460E+00 -0.9471250656151183E+00
 -0.9434043913708592E+00 -0.9396828145420931E+00 -0.9359603371243934E+00 -0.9322369611079003E+00 -0.9285126884773385E+00
 -0.9247875212120406E+00 -0.9210614612859619E+00 -0.9173345106677014E+00 -0.9136066713205222E+00 -0.9098779452023608E+00
 -0.9061483342658619E+00 -0.9024178404583820E+00 -0.8986864657220147E+00 -0.8949542119936105E+00 -0.8912210812047907E+00
 -0.8874870752819676E+00 -0.8837521961463661E+00 -0.8800164457140343E+00 -0.8762798258958679E+00 -0.8725423385976243E+00
 -0.8688039857199461E+00 -0.8650647691583678E+00 -0.8613246908033466E+00 -0.8575837525402736E+00 -0.8538419562494850E+00
 -0.8500993038062938E+00 -0.8463557970809973E+00 -0.8426114379388945E+00 -0.8388662282403074E+00 -0.8351201698405943E+00
 -0.8313732645901719E+00 -0.8276255143345274E+00 -0.8238769209142371E+00 -0.8201274861649842E+00 -0.8163772119175731E+00
 -0.8126260999979518E+00 -0.8088741522272196E+00 -0.8051213704216515E+00 -0.8013677563927125E+00 -0.7976133119470717E+00
 -0.7938580388866208E+00 -0.7901019390084937E+00 -0.7863450141050716E+00 -0.7825872659640115E+00 -0.7788286963682592E+00
 -0.7750693070960591E+00 -0.7713090999209774E+00 -0.7675480766119145E+00 -0.7637862389331204E+00 -0.7600235886442149E+00
 -0.7562601275001960E+00 -0.7524958572514613E+00 -0.7487307796438210E+00 -0.7449648964185178E+00 -0.7411982093122356E+00
 -0.7374307200571151E+00 -0.7336624303807768E+00 -0.7298933420063319E+00 -0.7261234566523922E+00 -0.7223527760330947E+00
 -0.7185813018581083E+00 -0.7148090358326540E+00 -0.7110359796575201E+00 -0.7072621350290728E+00 -0.7034875036392734E+00
 -0.6997120871756944E+00 -0.6959358873215343E+00 -0.6921589057556281E+00 -0.6883811441524618E+00 -0.6846026041821968E+00
 -0.6808232875106727E+00 -0.6770431957994272E+00 -0.6732623307057091E+00 -0.6694806938824895E+00 -0.6656982869784889E+00
 -0.6619151116381716E+00 -0.6581311695017734E+00 -0.6543464622053135E+00 -0.6505609913806077E+00 -0.6467747586552777E+00
 -0.6429877656527743E+00 -0.6392000139923815E+00 -0.6354115052892395E+00 -0.6316222411543450E+00 -0.6278322231945827E+00
 -0.6240414530127242E+00 -0.6202499322074513E+00 -0.6164576623733580E+00 -0.6126646451009748E+00 -0.6088708819767821E+00
 -0.6050763745832125E+00 -0.6012811244986752E+00 -0.5974851332975644E+00 -0.5936884025502733E+00 -0.5898909338232059E+00
 -0.5860927286787918E+00 -0.5822937886755005E+00 -0.5784941153678489E+00 -0.5746937103064186E+00 -0.5708925750378692E+00
 -0.5670907111049494E+00 -0.5632881200465093E+00 -0.5594848033975131E+00 -0.5556807626890528E+00 -0.5518759994483604E+00
 -0.5480705151988224E+00 -0.5442643114599842E+00 -0.5404573897475768E+00 -0.5366497515735120E+00 -0.5328413984459098E+00
 -0.5290323318691033E+00 -0.5252225533436525E+00 -0.5214120643663519E+00 -0.5176008664302494E+00 -0.5137889610246593E+00
 -0.5099763496351646E+00 -0.5061630337436369E+00 -0.5023490148282503E+00 -0.4985342943634853E+00 -0.4947188738201452E+00
 -0.4909027546653702E+00 -0.4870859383626424E+00 -0.4832684263718064E+00 -0.4794502201490712E+00 -0.4756313211470291E+00
 -0.4718117308146679E+00 -0.4679914505973708E+00 -0.4641704819369465E+00 -0.4603488262716232E+00 -0.4565264850360705E+00
 -0.4527034596614073E+00 -0.4488797515752123E+00 -0.4450553622015382E+00 -0.4412302929609176E+00 -0.4374045452703796E+00
 -0.4335781205434614E+00 -0.4297510201902108E+00 -0.4259232456172060E+00 -0.4220947982275684E+00 -0.4182656794209595E+00
 -0.4144358905936106E+00 -0.4106054331383163E+00 -0.4067743084444596E+00 -0.4029425178980133E+00 -0.3991100628815521E+00
 -0.3952769447742677E+00 -0.3914431649519755E+00 -0.3876087247871269E+00 -0.3837736256488198E+00 -0.3799378689028037E+00
 -0.3761014559115048E+00 -0.3722643880340172E+00 -0.3684266666261262E+00 -0.3645882930403184E+00 -0.3607492686257840E+00
 -0.3569095947284336E+00 -0.3530692726909079E+00 -0.3492283038525869E+00 -0.3453866895495982E+00 -0.3415444311148295E+00
 -0.3377015298779387E+00 -0.3338579871653602E+00 -0.3300138043003250E+00 -0.3261689826028567E+00 -0.3223235233897892E+00
 -0.3184774279747790E+00 -0.3146306976683101E+00 -0.3107833337777041E+00 -0.3069353376071324E+00 -0.3030867104576276E+00
 -0.2992374536270852E+00 -0.2953875684102802E+00 -0.2915370560988798E+00 -0.2876859179814424E+00 -0.2838341553434331E+00
 -0.2799817694672386E+00 -0.2761287616321660E+00 -0.2722751331144570E+00 -0.2684208851873029E+00 -0.2645660191208455E+00
 -0.2607105361821865E+00 -0.2568544376354064E+00 -0.2529977247415618E+00 -0.2491403987587055E+00 -0.2452824609418864E+00
 -0.2414239125431649E+00 -0.2375647548116141E+00 -0.2337049889933437E+00 -0.2298446163314958E+00 -0.2259836380662544E+00
 -0.2221220554348639E+00 -0.2182598696716274E+00 -0.2143970820079258E+00 -0.2105336936722144E+00 -0.2066697058900441E+00
 -0.2028051198840624E+00 -0.1989399368740257E+00 -0.1950741580768063E+00 -0.1912077847064003E+00 -0.1873408179739429E+00
 -0.1834732590877040E+00 -0.1796051092531079E+00 -0.1757363696727430E+00 -0.1718670415463626E+00 -0.1679971260708950E+00
 -0.1641266244404557E+00 -0.1602555378463545E+00 -0.1563838674771043E+00 -0.1525116145184250E+00 -0.1486387801532595E+00
 -0.1447653655617740E+00 -0.1408913719213770E+00 -0.1370168004067115E+00 -0.1331416521896824E+00 -0.1292659284394500E+00
 -0.1253896303224412E+00 -0.1215127590023635E+00 -0.1176353156402073E+00 -0.1137573013942581E+00 -0.1098787174200988E+00
 -0.1059995648706258E+00 -0.1021198448960504E+00 -0.9823955864390682E-01 -0.9435870725906403E-01 -0.9047729188373528E-01
 -0.8659531365747608E-01 -0.8271277371720413E-01 -0.7882967319720004E-01 -0.7494601322911611E-01 -0.7106179494198168E-01
 -0.6717701946222050E-01 -0.6329168791364684E-01 -0.5940580141748077E-01 -0.5551936109235167E-01 -0.5163236805430756E-01
 -0.4774482341682593E-01 -0.4385672829081311E-01 -0.3996808378461690E-01 -0.3607889100403811E-01 -0.3218915105233135E-01
 -0.2829886503021344E-01 -0.2440803403587448E-01 -0.2051665916498414E-01 -0.1662474151069565E-01 -0.1273228216365666E-01
 -0.8839282212012937E-02 -0.4945742741425844E-02 -0.1051664835061105E-02  0.2842950426383250E-02  0.6738101964684431E-02
  0.1063378870408194E-01  0.1453000957127262E-01  0.1842676349539892E-01  0.2232404940804524E-01  0.2622186624323228E-01
  0.3012021293740981E-01  0.3401908842944329E-01  0.3791849166061285E-01  0.4181842157460812E-01  0.4571887711751552E-01
  0.4961985723781538E-01  0.5352136088637142E-01  0.5742338701642621E-01  0.6132593458359473E-01  0.6522900254586023E-01
  0.6913258986355611E-01  0.7303669549937777E-01  0.7694131841835299E-01  0.8084645758785793E-01  0.8475211197759162E-01
  0.8865828055958254E-01  0.9256496230817701E-01  0.9647215620002617E-01  0.1003798612140947E+00  0.1042880763316378E+00
  0.1081968005362043E+00  0.1121060328136259E+00  0.1160157721520167E+00  0.1199260175417561E+00  0.1238367679754969E+00
  0.1277480224481409E+00  0.1316597799568505E+00  0.1355720395010248E+00  0.1394848000823114E+00  0.1433980607045849E+00
  0.1473118203739490E+00  0.1512260780987246E+00  0.1551408328894529E+00  0.1590560837588715E+00  0.1629718297219352E+00
  0.1668880697957811E+00  0.1708048029997351E+00  0.1747220283553133E+00  0.1786397448862052E+00  0.1825579516182687E+00
  0.1864766475795276E+00  0.1903958318001653E+00  0.1943155033125118E+00  0.1982356611510482E+00  0.2021563043523960E+00
  0.2060774319553031E+00  0.2099990430006540E+00  0.2139211365314518E+00  0.2178437115928122E+00  0.2217667672319646E+00
  0.2256903024982437E+00  0.2296143164430764E+00  0.2335388081199867E+00  0.2374637765845821E+00  0.2413892208945548E+00
  0.2453151401096661E+00  0.2492415332917504E+00  0.2531683995047013E+00  0.2570957378144758E+00  0.2610235472890730E+00
  0.2649518269985462E+00  0.2688805760149878E+00  0.2728097934125177E+00  0.2767394782672943E+00  0.2806696296574912E+00
  0.2846002466633044E+00  0.2885313283669388E+00  0.2924628738526067E+00  0.2963948822065189E+00  0.3003273525168889E+00
  0.3042602838739091E+00  0.3081936753697656E+00  0.3121275260986131E+00  0.3160618351565909E+00  0.3199966016417968E+00
  0.3239318246542927E+00  0.3278675032961031E+00  0.3318036366711991E+00  0.3357402238854942E+00  0.3396772640468512E+00
  0.3436147562650603E+00  0.3475526996518453E+00  0.3514910933208553E+00  0.3554299363876579E+00  0.3593692279697372E+00
  0.3633089671864795E+00  0.3672491531591798E+00  0.3711897850110351E+00  0.3751308618671250E+00  0.3790723828544255E+00
  0.3830143471017945E+00  0.3869567537399622E+00  0.3908996019015415E+00  0.3948428907210034E+00  0.3987866193346821E+00
  0.4027307868807736E+00  0.4066753924993249E+00  0.4106204353322263E+00  0.4145659145232150E+00  0.4185118292178620E+00
  0.4224581785635747E+00  0.4264049617095814E+00  0.4303521778069353E+00  0.4342998260085091E+00  0.4382479054689813E+00
  0.4421964153448494E+00  0.4461453547944041E+00  0.4500947229777336E+00  0.4540445190567213E+00  0.4579947421950404E+00
  0.4619453915581433E+00  0.4658964663132593E+00  0.4698479656294001E+00  0.4737998886773366E+00  0.4777522346296103E+00
  0.4817050026605125E+00  0.4856581919460987E+00  0.4896118016641693E+00  0.4935658309942692E+00  0.4975202791176885E+00
  0.5014751452174490E+00  0.5054304284782991E+00  0.5093861280867212E+00  0.5133422432309185E+00  0.5172987731008036E+00
  0.5212557168880086E+00  0.5252130737858741E+00  0.5291708429894399E+00  0.5331290236954473E+00  0.5370876151023324E+00
  0.5410466164102148E+00  0.5450060268209067E+00  0.5489658455378956E+00  0.5529260717663506E+00  0.5568867047131097E+00
  0.5608477435866767E+00  0.5648091875972199E+00  0.5687710359565659E+00  0.5727332878781961E+00  0.5766959425772378E+00
  0.5806589992704687E+00  0.5846224571763069E+00  0.5885863155148012E+00  0.5925505735076401E+00  0.5965152303781340E+00
  0.6004802853512226E+00  0.6044457376534581E+00  0.6084115865130140E+00  0.6123778311596726E+00  0.6163444708248160E+00
  0.6203115047414446E+00  0.6242789321441399E+00  0.6282467522690873E+00  0.6322149643540550E+00  0.6361835676384030E+00
  0.6401525613630730E+00  0.6441219447705770E+00  0.6480917171050036E+00  0.6520618776120152E+00  0.6560324255388277E+00
  0.6600033601342303E+00  0.6639746806485591E+00  0.6679463863337072E+00  0.6719184764431182E+00  0.6758909502317724E+00
  0.6798638069561993E+00  0.6838370458744587E+00  0.6878106662461477E+00  0.6917846673323848E+00  0.6957590483958174E+00
  0.6997338087006157E+00  0.7037089475124639E+00  0.7076844640985526E+00  0.7116603577275924E+00  0.7156366276697897E+00
  0.7196132731968532E+00  0.7235902935819937E+00  0.7275676880999054E+00  0.7315454560267849E+00  0.7355235966402992E+00
  0.7395021092196098E+00  0.7434809930453452E+00  0.7474602473996115E+00  0.7514398715659872E+00  0.7554198648295165E+00
  0.7594002264767046E+00  0.7633809557955100E+00  0.7673620520753561E+00  0.7713435146071109E+00  0.7753253426830892E+00
  0.7793075355970538E+00  0.7832900926442038E+00  0.7872730131211760E+00  0.7912562963260382E+00  0.7952399415582878E+00
  0.7992239481188496E+00  0.8032083153100669E+00  0.8071930424357003E+00  0.8111781288009239E+00  0.8151635737123334E+00
  0.8191493764779126E+00  0.8231355364070648E+00  0.8271220528105838E+00  0.8311089250006627E+00  0.8350961522908890E+00
  0.8390837339962353E+00  0.8430716694330669E+00  0.8470599579191220E+00  0.8510485987735209E+00  0.8550375913167610E+00
  0.8590269348707101E+00  0.8630166287586054E+00  0.8670066723050396E+00  0.8709970648359815E+00  0.8749878056787488E+00
  0.8789788941620101E+00  0.8829703296157925E+00  0.8869621113714660E+00  0.8909542387617446E+00  0.8949467111206844E+00
  0.8989395277836771E+00  0.9029326880874502E+00  0.9069261913700595E+00  0.9109200369708880E+00  0.9149142242306432E+00
  0.9189087524913546E+00  0.9229036210963633E+00  0.9268988293903290E+00  0.9308943767192192E+00  0.9348902624303119E+00
  0.9388864858721873E+00  0.9428830463947216E+00  0.9468799433490939E+00  0.9508771760877769E+00  0.9548747439645296E+00
  0.9588726463344037E+00  0.9628708825537328E+00  0.9668694519801305E+00  0.9708683539724922E+00  0.9748675878909830E+00
  0.9788671530970421E+00  0.9828670489533737E+00  0.9868672748239570E+00  0.9908678300740220E+00  0.9948687140700629E+00
  0.9988699261798293E+00  0.1002871465772319E+01  0.1006873332217787E+01  0.1010875524887729E+01  0.1014878043154885E+01
  0.1018880886393235E+01  0.1022884053978000E+01  0.1026887545285629E+01  0.1030891359693806E+01  0.1034895496581440E+01
  0.1038899955328668E+01  0.1042904735316845E+01  0.1046909835928551E+01  0.1050915256547574E+01  0.1054920996558920E+01
  0.1058927055348804E+01  0.1062933432304648E+01  0.1066940126815072E+01  0.1070947138269906E+01  0.1074954466060174E+01
  0.1078962109578093E+01  0.1082970068217073E+01  0.1086978341371716E+01  0.1090986928437806E+01  0.1094995828812310E+01
  0.1099005041893379E+01  0.1103014567080342E+01  0.1107024403773699E+01  0.1111034551375119E+01  0.1115045009287448E+01
  0.1119055776914694E+01  0.1123066853662019E+01  0.1127078238935764E+01  0.1131089932143411E+01  0.1135101932693605E+01
  0.1139114239996138E+01  0.1143126853461956E+01  0.1147139772503143E+01  0.1151152996532940E+01  0.1155166524965713E+01
  0.1159180357216970E+01  0.1163194492703367E+01  0.1167208930842672E+01  0.1171223671053799E+01  0.1175238712756776E+01
  0.1179254055372764E+01  0.1183269698324043E+01  0.1187285641034008E+01  0.1191301882927177E+01  0.1195318423429171E+01
  0.1199335261966728E+01  0.1203352397967696E+01  0.1207369830861020E+01  0.1211387560076753E+01  0.1215405585046049E+01
  0.1219423905201152E+01  0.1223442519975412E+01  0.1227461428803257E+01  0.1231480631120214E+01  0.1235500126362890E+01
  0.1239519913968984E+01  0.1243539993377265E+01  0.1247560364027592E+01  0.1251581025360893E+01  0.1255601976819172E+01
  0.1259623217845503E+01  0.1263644747884029E+01  0.1267666566379956E+01  0.1271688672779558E+01  0.1275711066530163E+01
  0.1279733747080169E+01  0.1283756713879012E+01  0.1287779966377199E+01  0.1291803504026275E+01  0.1295827326278840E+01
  0.1299851432588531E+01  0.1303875822410037E+01  0.1307900495199087E+01  0.1311925450412440E+01  0.1315950687507902E+01
  0.1319976205944299E+01  0.1324002005181500E+01  0.1328028084680392E+01  0.1332054443902893E+01  0.1336081082311945E+01
  0.1340107999371513E+01  0.1344135194546569E+01  0.1348162667303114E+01  0.1352190417108159E+01  0.1356218443429717E+01
  0.1360246745736821E+01  0.1364275323499511E+01  0.1368304176188823E+01  0.1372333303276795E+01  0.1376362704236475E+01
  0.1380392378541894E+01  0.1384422325668088E+01  0.1388452545091078E+01  0.1392483036287878E+01  0.1396513798736494E+01
  0.1400544831915909E+01  0.1404576135306091E+01  0.1408607708387995E+01  0.1412639550643547E+01  0.1416671661555650E+01
  0.1420704040608182E+01  0.1424736687285994E+01  0.1428769601074905E+01  0.1432802781461699E+01  0.1436836227934125E+01
  0.1440869939980894E+01  0.1444903917091682E+01  0.1448938158757113E+01  0.1452972664468775E+01  0.1457007433719210E+01
  0.1461042466001903E+01  0.1465077760811291E+01  0.1469113317642766E+01  0.1473149135992649E+01  0.1477185215358217E+01
  0.1481221555237681E+01  0.1485258155130186E+01  0.1489295014535823E+01  0.1493332132955607E+01  0.1497369509891487E+01
  0.1501407144846346E+01  0.1505445037323982E+01  0.1509483186829133E+01  0.1513521592867449E+01  0.1517560254945504E+01
  0.1521599172570789E+01  0.1525638345251715E+01  0.1529677772497599E+01  0.1533717453818681E+01  0.1537757388726098E+01
  0.1541797576731907E+01  0.1545838017349066E+01  0.1549878710091435E+01  0.1553919654473776E+01  0.1557960850011752E+01
  0.1562002296221918E+01  0.1566043992621732E+01  0.1570085938729543E+01  0.1574128134064586E+01  0.1578170578146993E+01
  0.1582213270497777E+01  0.1586256210638839E+01  0.1590299398092959E+01  0.1594342832383801E+01  0.1598386513035909E+01
  0.1602430439574704E+01  0.1606474611526477E+01  0.1610519028418399E+01  0.1614563689778503E+01  0.1618608595135700E+01
  0.1622653744019762E+01  0.1626699135961328E+01  0.1630744770491899E+01  0.1634790647143838E+01  0.1638836765450369E+01
  0.1642883124945565E+01  0.1646929725164363E+01  0.1650976565642548E+01  0.1655023645916758E+01  0.1659070965524480E+01
  0.1663118524004050E+01  0.1667166320894645E+01  0.1671214355736290E+01  0.1675262628069845E+01  0.1679311137437018E+01
  0.1683359883380347E+01  0.1687408865443216E+01  0.1691458083169828E+01  0.1695507536105231E+01  0.1699557223795298E+01
  0.1703607145786729E+01  0.1707657301627052E+01  0.1711707690864618E+01  0.1715758313048605E+01  0.1719809167729009E+01
  0.1723860254456641E+01  0.1727911572783132E+01  0.1731963122260932E+01  0.1736014902443295E+01  0.1740066912884301E+01
  0.1744119153138825E+01  0.1748171622762558E+01  0.1752224321311995E+01  0.1756277248344434E+01  0.1760330403417977E+01
  0.1764383786091523E+01  0.1768437395924779E+01  0.1772491232478238E+01  0.1776545295313196E+01  0.1780599583991740E+01
  0.1784654098076744E+01  0.1788708837131879E+01  0.1792763800721599E+01  0.1796818988411150E+01  0.1800874399766555E+01
  0.1804930034354625E+01  0.1808985891742953E+01  0.1813041971499906E+01  0.1817098273194632E+01  0.1821154796397056E+01
  0.1825211540677875E+01  0.1829268505608554E+01  0.1833325690761344E+01  0.1837383095709246E+01  0.1841440720026039E+01
  0.1845498563286265E+01  0.1849556625065229E+01  0.1853614904939002E+01  0.1857673402484408E+01  0.1861732117279039E+01
  0.1865791048901235E+01  0.1869850196930098E+01  0.1873909560945479E+01  0.1877969140527986E+01  0.1882028935258972E+01
  0.1886088944720542E+01  0.1890149168495544E+01  0.1894209606167580E+01  0.1898270257320989E+01  0.1902331121540849E+01
  0.1906392198412985E+01  0.1910453487523960E+01  0.1914514988461071E+01  0.1918576700812346E+01  0.1922638624166565E+01
  0.1926700758113219E+01  0.1930763102242542E+01  0.1934825656145495E+01  0.1938888419413763E+01  0.1942951391639759E+01
  0.1947014572416620E+01  0.1951077961338207E+01  0.1955141557999104E+01  0.1959205361994609E+01  0.1963269372920738E+01
  0.1967333590374226E+01  0.1971398013952528E+01  0.1975462643253801E+01  0.1979527477876921E+01  0.1983592517421473E+01
  0.1987657761487748E+01  0.1991723209676750E+01  0.1995788861590180E+01  0.1999854716830450E+01  0.2003920775000664E+01
  0.2007987035704647E+01  0.2012053498546897E+01  0.2016120163132634E+01  0.2020187029067759E+01  0.2024254095958872E+01
  0.2028321363413264E+01  0.2032388831038922E+01  0.2036456498444524E+01  0.2040524365239427E+01  0.2044592431033689E+01
  0.2048660695438043E+01  0.2052729158063911E+01  0.2056797818523391E+01  0.2060866676429278E+01  0.2064935731395028E+01
  0.2069004983034787E+01  0.2073074430963374E+01  0.2077144074796284E+01  0.2081213914149686E+01  0.2085283948640418E+01
  0.2089354177885996E+01  0.2093424601504600E+01  0.2097495219115078E+01  0.2101566030336952E+01  0.2105637034790396E+01
  0.2109708232096258E+01  0.2113779621876047E+01  0.2117851203751929E+01  0.2121922977346731E+01  0.2125994942283943E+01
  0.2130067098187704E+01  0.2134139444682812E+01  0.2138211981394718E+01  0.2142284707949528E+01  0.2146357623973993E+01
  0.2150430729095524E+01  0.2154504022942163E+01  0.2158577505142620E+01  0.2162651175326233E+01  0.2166725033122992E+01
  0.2170799078163531E+01  0.2174873310079118E+01  0.2178947728501673E+01  0.2183022333063740E+01  0.2187097123398507E+01
  0.2191172099139805E+01  0.2195247259922088E+01  0.2199322605380446E+01  0.2203398135150608E+01  0.2207473848868923E+01
  0.2211549746172371E+01  0.2215625826698569E+01  0.2219702090085753E+01  0.2223778535972782E+01  0.2227855163999145E+01
  0.2231931973804945E+01  0.2236008965030915E+01  0.2240086137318403E+01  0.2244163490309376E+01  0.2248241023646420E+01
  0.2252318736972732E+01  0.2256396629932128E+01  0.2260474702169036E+01  0.2264552953328497E+01  0.2268631383056158E+01
  0.2272709990998280E+01  0.2276788776801732E+01  0.2280867740113986E+01  0.2284946880583126E+01  0.2289026197857832E+01
  0.2293105691587388E+01  0.2297185361421688E+01  0.2301265207011219E+01  0.2305345228007068E+01  0.2309425424060920E+01
  0.2313505794825061E+01  0.2317586339952364E+01  0.2321667059096303E+01  0.2325747951910940E+01  0.2329829018050930E+01
  0.2333910257171524E+01  0.2337991668928554E+01  0.2342073252978444E+01  0.2346155008978204E+01  0.2350236936585425E+01
  0.2354319035458289E+01  0.2358401305255559E+01  0.2362483745636576E+01  0.2366566356261268E+01  0.2370649136790134E+01
  0.2374732086884258E+01  0.2378815206205298E+01  0.2382898494415485E+01  0.2386981951177632E+01  0.2391065576155114E+01
  0.2395149369011892E+01  0.2399233329412485E+01  0.2403317457021989E+01  0.2407401751506064E+01  0.2411486212530944E+01
  0.2415570839763419E+01  0.2419655632870855E+01  0.2423740591521173E+01  0.2427825715382861E+01  0.2431911004124965E+01
  0.2435996457417098E+01  0.2440082074929426E+01  0.2444167856332671E+01  0.2448253801298115E+01  0.2452339909497602E+01
  0.2456426180603520E+01  0.2460512614288812E+01  0.2464599210226982E+01  0.2468685968092072E+01  0.2472772887558682E+01
  0.2476859968301960E+01  0.2480947209997603E+01  0.2485034612321845E+01  0.2489122174951480E+01  0.2493209897563834E+01
  0.2497297779836783E+01  0.2501385821448744E+01  0.2505474022078668E+01  0.2509562381406050E+01  0.2513650899110935E+01
  0.2517739574873887E+01  0.2521828408376012E+01  0.2525917399298964E+01  0.2530006547324910E+01  0.2534095852136568E+01
  0.2538185313417178E+01  0.2542274930850517E+01  0.2546364704120885E+01  0.2550454632913116E+01  0.2554544716912568E+01
  0.2558634955805134E+01  0.2562725349277217E+01  0.2566815897015758E+01  0.2570906598708217E+01  0.2574997454042576E+01
  0.2579088462707335E+01  0.2583179624391525E+01  0.2587270938784681E+01  0.2591362405576859E+01  0.2595454024458652E+01
  0.2599545795121136E+01  0.2603637717255928E+01  0.2607729790555150E+01  0.2611822014711434E+01  0.2615914389417926E+01
  0.5752844223294105E+02  0.5752844223294105E+02  0.5752844223294105E+02  0.5752844223294105E+02  0.5752844223294105E+02
  0.5752844223294105E+02  0.5752844223294105E+02  0.5752844223294105E+02  0.5752844223294105E+02  0.5752844223294105E+02
  0.5752844223294105E+02  0.5752844223294105E+02  0.5752844223294105E+02  0.5752844223294105E+02  0.5752844223294105E+02
  0.5752844223294105E+02  0.5752844223294105E+02  0.5752844223294105E+02  0.5752844223294105E+02  0.5752844223294105E+02
  0.5752844223294105E+02  0.5752844223294105E+02  0.5752844223294105E+02  0.5752844223294105E+02  0.5752844223294105E+02
  0.5752844223294105E+02  0.5752844223294105E+02  0.5752844223294105E+02  0.5752844223294105E+02  0.5752844223294105E+02
  0.5752844223294105E+02  0.5752844223294105E+02  0.5752844223294105E+02  0.5752844223294105E+02  0.5752844223294105E+02
  0.5752844223294105E+02  0.5752844223294105E+02  0.5752844223294105E+02  0.5752844223294105E+02  0.5752844223294105E+02
  0.5752844223294105E+02  0.5752844223294105E+02  0.5752844223294105E+02  0.5752844223294105E+02  0.5752844223294105E+02
  0.5752844223294105E+02  0.5752844223294105E+02  0.5752844223294105E+02  0.5752844223294105E+02  0.5752844223294105E+02
  0.5752844223294105E+02  0.5752844223294105E+02  0.5752844223294105E+02  0.5752844223294105E+02  0.5752844223294105E+02
  0.5752844223294105E+02  0.5752844223294105E+02  0.5752844223294105E+02  0.5752844223294105E+02  0.5752844223294105E+02
  0.5752844223294105E+02  0.5752844223294105E+02  0.5752844223294105E+02  0.5752844223294105E+02  0.5752844223294105E+02
  0.5752844223294105E+02  0.5752844223294105E+02  0.5752844223294105E+02  0.5752844223294105E+02  0.5752844223294105E+02
  0.5752844223294105E+02  0.5752844223294105E+02  0.5752844223294105E+02  0.5752844223294105E+02  0.5752844223294105E+02
  0.5752844223294105E+02  0.5752844223294105E+02  0.5752844223294105E+02  0.5752844223294105E+02  0.5752844223294105E+02
  0.5752844223294105E+02  0.5752844223294105E+02  0.5752844223294105E+02  0.5752844223294105E+02  0.5752844223294105E+02
  0.5752844223294105E+02  0.5752844223294105E+02  0.5752844223294105E+02  0.5752844223294105E+02  0.5752844223294105E+02
  0.5752844223294105E+02  0.5752844223294105E+02  0.5752844223294105E+02  0.5752844223294105E+02  0.5752844223294105E+02
  0.5752844223294105E+02  0.5752844223294105E+02  0.5752844223294105E+02  0.5752844223294105E+02  0.5752844223294105E+02
  0.5752844223294105E+02  0.5752844223294105E+02  0.5752844223294105E+02  0.5752844223294105E+02  0.5752844223294105E+02
  0.5752844223294105E+02  0.5752844223294105E+02  0.5752844223294105E+02  0.5752844223294105E+02  0.5752844223294105E+02
  0.5752844223294105E+02  0.5752844223294105E+02  0.5752844223294105E+02  0.5752844223294105E+02  0.5752844223294105E+02
  0.5752844223294105E+02  0.5752844223294105E+02  0.5752844223294105E+02  0.5752844223294105E+02  0.5752844223294105E+02
  0.5752844223294105E+02  0.5752844223294105E+02  0.5752844223294105E+02  0.5752844223294105E+02  0.5752844223294105E+02
  0.5752844223294105E+02  0.5752844223294105E+02  0.5752844223294105E+02  0.5752844223294105E+02  0.5752844223294105E+02
  0.5752844223294105E+02  0.5752844223294105E+02  0.5752844223294105E+02  0.5752844223294105E+02  0.5752844223294105E+02
  0.5752844223294105E+02  0.5752844223294105E+02  0.5752844223294105E+02  0.5752844223294105E+02  0.5752844223294105E+02
  0.5752844223294105E+02  0.5752844223294105E+02  0.5752844223294105E+02  0.5752844223294105E+02  0.5752844223294105E+02
  0.5752844223294105E+02  0.5752844223294105E+02  0.5752844223294105E+02  0.5752844223294105E+02  0.5752844223294105E+02
  0.5752844223294105E+02  0.5752844223294105E+02  0.5744604689782854E+02  0.5720848766807158E+02  0.5697122635136510E+02
  0.5673428337545862E+02  0.5649767853695314E+02  0.5626143101493227E+02  0.5602555938443361E+02  0.5579008162975550E+02
  0.5555501515759475E+02  0.5532037681001160E+02  0.5508618287721765E+02  0.5485244911018426E+02  0.5461919073306800E+02
  0.5438642245545143E+02  0.5415415848439645E+02  0.5392241253630926E+02  0.5369119784861451E+02  0.5346052719123889E+02
  0.5323041287790195E+02  0.5300086677721468E+02  0.5277190032358484E+02  0.5254352452792958E+02  0.5231574998819497E+02
  0.5208858689968319E+02  0.5186204506518757E+02  0.5163613390493703E+02  0.5141086246634968E+02  0.5118623943359769E+02
  0.5096227313698395E+02  0.5073897156213260E+02  0.5051634235899397E+02  0.5029439285066670E+02  0.5007313004203746E+02
  0.4985256062824142E+02  0.4963269100294440E+02  0.4941352726644892E+02  0.4919507523362665E+02  0.4897734044167886E+02
  0.4876032815772716E+02  0.4854404338623729E+02  0.4832849087627744E+02  0.4811367512861399E+02  0.4789960040264715E+02
  0.4768627072318831E+02  0.4747368988708223E+02  0.4726186146967596E+02  0.4705078883113735E+02  0.4684047512262547E+02
  0.4663092329231556E+02  0.4642213609128056E+02  0.4621411607923271E+02  0.4600686563012655E+02  0.4580038693762670E+02
  0.4559468202044252E+02  0.4538975272753219E+02  0.4518560074317893E+02  0.4498222759194132E+02  0.4477963464348068E+02
  0.4457782311726780E+02  0.4437679408717121E+02  0.4417654848592966E+02  0.4397708710951100E+02  0.4377841062135998E+02
  0.4358051955653723E+02  0.4338341432575155E+02  0.4318709521928789E+02  0.4299156241083357E+02  0.4279681596120447E+02
  0.4260285582197352E+02  0.4240968183900394E+02  0.4221729375588890E+02  0.4202569121730013E+02  0.4183487377224711E+02
  0.4164484087724932E+02  0.4145559189942310E+02  0.4126712611948555E+02  0.4107944273467694E+02  0.4089254086160386E+02
  0.4070641953900492E+02  0.4052107773044060E+02  0.4033651432690949E+02  0.4015272814939223E+02  0.3996971795132511E+02
  0.3978748242100522E+02  0.3960602018392834E+02  0.3942532980506163E+02  0.3924540979105262E+02  0.3906625859237598E+02
  0.3888787460541958E+02  0.3871025617451171E+02  0.3853340159389028E+02  0.3835730910961629E+02  0.3818197692143224E+02
  0.3800740318456725E+02  0.3783358601149010E+02  0.3766052347361190E+02  0.3748821360293906E+02  0.3731665439367823E+02
  0.3714584380379451E+02  0.3697577975652390E+02  0.3680646014184151E+02  0.3663788281788619E+02  0.3647004561234321E+02
  0.3630294632378587E+02  0.3613658272297726E+02  0.3597095255413295E+02  0.3580605353614599E+02  0.3564188336377494E+02
  0.3547843970879619E+02  0.3531572022112133E+02  0.3515372252988049E+02  0.3499244424447289E+02  0.3483188295558493E+02
  0.3467203623617734E+02  0.3451290164244170E+02  0.3435447671472757E+02  0.3419675897844068E+02  0.3403974594491335E+02
  0.3388343511224749E+02  0.3372782396613138E+02  0.3357290998063066E+02  0.3341869061895419E+02  0.3326516333419590E+02
  0.3311232557005270E+02  0.3296017476151974E+02  0.3280870833556322E+02  0.3265792371177143E+02  0.3250781830298486E+02
  0.3235838951590589E+02  0.3220963475168843E+02  0.3206155140650841E+02  0.3191413687211522E+02  0.3176738853636535E+02
  0.3162130378373798E+02  0.3147587999583350E+02  0.3133111455185524E+02  0.3118700482907514E+02  0.3104354820328352E+02
  0.3090074204922371E+02  0.3075858374101160E+02  0.3061707065254100E+02  0.3047620015787492E+02  0.3033596963162326E+02
  0.3019637644930738E+02  0.3005741798771168E+02  0.2991909162522314E+02  0.2978139474215834E+02  0.2964432472107916E+02
  0.2950787894709708E+02  0.2937205480816618E+02  0.2923684969536589E+02  0.2910226100317309E+02  0.2896828612972419E+02
  0.2883492247706767E+02  0.2870216745140690E+02  0.2857001846333398E+02  0.2843847292805463E+02  0.2830752826560444E+02
  0.2817718190105685E+02  0.2804743126472295E+02  0.2791827379234338E+02  0.2778970692527285E+02  0.2766172811065702E+02
  0.2753433480160235E+02  0.2740752445733899E+02  0.2728129454337711E+02  0.2715564253165640E+02  0.2703056590068968E+02
  0.2690606213569995E+02  0.2678212872875195E+02  0.2665876317887777E+02  0.2653596299219689E+02  0.2641372568203094E+02
  0.2629204876901323E+02  0.2617092978119321E+02  0.2605036625413615E+02  0.2593035573101790E+02  0.2581089576271535E+02
  0.2569198390789220E+02  0.2557361773308063E+02  0.2545579481275879E+02  0.2533851272942421E+02  0.2522176907366341E+02
  0.2510556144421770E+02  0.2498988744804538E+02  0.2487474470038048E+02  0.2476013082478801E+02  0.2464604345321596E+02
  0.2453248022604410E+02  0.2441943879212986E+02  0.2430691680885102E+02  0.2419491194214568E+02  0.2408342186654944E+02
  0.2397244426522978E+02  0.2386197683001812E+02  0.2375201726143906E+02  0.2364256326873746E+02  0.2353361256990300E+02
  0.2342516289169265E+02  0.2331721196965087E+02  0.2320975754812772E+02  0.2310279738029492E+02  0.2299632922816008E+02
  0.2289035086257886E+02  0.2278486006326550E+02  0.2267985461880138E+02  0.2257533232664209E+02  0.2247129099312276E+02
  0.2236772843346182E+02  0.2226464247176330E+02  0.2216203094101754E+02  0.2205989168310068E+02  0.2195822254877260E+02
  0.2185702139767371E+02  0.2175628609832036E+02  0.2165601452809912E+02  0.2155620457325985E+02  0.2145685412890763E+02
  0.2135796109899372E+02  0.2125952339630532E+02  0.2116153894245445E+02  0.2106400566786576E+02  0.2096692151176365E+02
  0.2087028442215818E+02  0.2077409235583035E+02  0.2067834327831647E+02  0.2058303516389187E+02  0.2048816599555364E+02
  0.2039373376500288E+02  0.2029973647262607E+02  0.2020617212747585E+02  0.2011303874725130E+02  0.2002033435827730E+02
  0.1992805699548362E+02  0.1983620470238326E+02  0.1974477553105032E+02  0.1965376754209741E+02  0.1956317880465246E+02
  0.1947300739633515E+02  0.1938325140323288E+02  0.1929390891987632E+02  0.1920497804921451E+02  0.1911645690258966E+02
  0.1902834359971151E+02  0.1894063626863138E+02  0.1885333304571590E+02  0.1876643207562037E+02  0.1867993151126192E+02
  0.1859382951379229E+02  0.1850812425257039E+02  0.1842281390513463E+02  0.1833789665717496E+02  0.1825337070250475E+02
  0.1816923424303239E+02  0.1808548548873274E+02  0.1800212265761838E+02  0.1791914397571071E+02  0.1783654767701083E+02
  0.1775433200347031E+02  0.1767249520496183E+02  0.1759103553924969E+02  0.1750995127196014E+02  0.1742924067655165E+02
  0.1734890203428511E+02  0.1726893363419383E+02  0.1718933377305359E+02  0.1711010075535252E+02  0.1703123289326089E+02
  0.1695272850660097E+02  0.1687458592281669E+02  0.1679680347694336E+02  0.1671937951157728E+02  0.1664231237684532E+02
  0.1656560043037457E+02  0.1648924203726184E+02  0.1641323557004321E+02  0.1633757940866359E+02  0.1626227194044620E+02
  0.1618731156006216E+02  0.1611269666949999E+02  0.1603842567803515E+02  0.1596449700219965E+02  0.1589090906575159E+02
  0.1581766029964475E+02  0.1574474914199833E+02  0.1567217403806652E+02  0.1559993344020825E+02  0.1552802580785688E+02
  0.1545644960749010E+02  0.1538520331259967E+02  0.1531428540366136E+02  0.1524369436810484E+02  0.1517342870028370E+02
  0.1510348690144558E+02  0.1503386747970215E+02  0.1496456894999936E+02  0.1489558983408768E+02  0.1482692866049245E+02
  0.1475858396448420E+02  0.1469055428804912E+02  0.1462283817985968E+02  0.1455543419524509E+02  0.1448834089616212E+02
  0.1442155685116585E+02  0.1435508063538042E+02  0.1428891083047010E+02  0.1422304602461024E+02  0.1415748481245839E+02
  0.1409222579512550E+02  0.1402726758014720E+02  0.1396260878145520E+02  0.1389824801934873E+02  0.1383418392046614E+02
  0.1377041511775650E+02  0.1370694025045142E+02  0.1364375796403684E+02  0.1358086691022502E+02  0.1351826574692653E+02
  0.1345595313822247E+02  0.1339392775433662E+02  0.1333218827160786E+02  0.1327073337246254E+02  0.1320956174538709E+02
  0.1314867208490062E+02  0.1308806309152768E+02  0.1302773347177110E+02  0.1296768193808496E+02  0.1290790720884763E+02
  0.1284840800833494E+02  0.1278918306669342E+02  0.1273023111991372E+02  0.1267155090980400E+02  0.1261314118396361E+02
  0.1255500069575669E+02  0.1249712820428597E+02  0.1243952247436673E+02  0.1238218227650072E+02  0.1232510638685030E+02
  0.1226829358721267E+02  0.1221174266499412E+02  0.1215545241318454E+02  0.1209942163033191E+02  0.1204364912051689E+02
  0.1198813369332766E+02  0.1193287416383466E+02  0.1187786935256562E+02  0.1182311808548059E+02  0.1176861919394710E+02
  0.1171437151471545E+02  0.1166037388989406E+02  0.1160662516692494E+02  0.1155312419855934E+02  0.1149986984283336E+02
  0.1144686096304381E+02  0.1139409642772408E+02  0.1134157511062013E+02  0.1128929589066664E+02  0.1123725765196320E+02
  0.1118545928375059E+02  0.1113389968038730E+02  0.1108257774132593E+02  0.1103149237108993E+02  0.1098064247925025E+02
  0.1093002698040222E+02  0.1087964479414244E+02  0.1082949484504586E+02  0.1077957606264291E+02  0.1072988738139672E+02
  0.1068042774068048E+02  0.1063119608475486E+02  0.1058219136274558E+02  0.1053341252862105E+02  0.1048485854117008E+02
  0.1043652836397977E+02  0.1038842096541340E+02  0.1034053531858853E+02  0.1029287040135506E+02  0.1024542519627357E+02
  0.1019819869059357E+02  0.1015118987623196E+02  0.1010439774975158E+02  0.1005782131233978E+02  0.1001145956978723E+02
  0.9965311532466673E+01  0.9919376215311862E+01  0.9873652637796559E+01  0.9828139823913666E+01  0.9782836802154398E+01
  0.9737742605487608E+01  0.9692856271339135E+01  0.9648176841571329E+01  0.9603703362462607E+01  0.9559434884687111E+01
  0.9515370463294497E+01  0.9471509157689766E+01  0.9427850031613211E+01  0.9384392153120475E+01  0.9341134594562641E+01
  0.9298076432566500E+01  0.9255216748014803E+01  0.9212554626026703E+01  0.9170089155938230E+01  0.9127819431282870E+01
  0.9085744549772215E+01  0.9043863613276734E+01  0.9002175727806625E+01  0.8960680003492710E+01  0.8919375554567495E+01
  0.8878261499346241E+01  0.8837336960208166E+01  0.8796601063577736E+01  0.8756052939905995E+01  0.8715691723652064E+01
  0.8675516553264611E+01  0.8635526571163526E+01  0.8595720923721581E+01  0.8556098761246249E+01  0.8516659237961553E+01
  0.8477401511990029E+01  0.8438324745334754E+01  0.8399428103861467E+01  0.8360710757280783E+01  0.8322171879130444E+01
  0.8283810646757724E+01  0.8245626241301839E+01  0.8207617847676485E+01  0.8169784654552453E+01  0.8132125854340293E+01
  0.8094640643173108E+01  0.8057328220889369E+01  0.8020187791015854E+01  0.7983218560750657E+01  0.7946419740946244E+01
  0.7909790546092645E+01  0.7873330194300650E+01  0.7837037907285154E+01  0.7800912910348528E+01  0.7764954432364103E+01
  0.7729161705759681E+01  0.7693533966501191E+01  0.7658070454076334E+01  0.7622770411478410E+01  0.7587633085190116E+01
  0.7552657725167478E+01  0.7517843584823835E+01  0.7483189921013920E+01  0.7448695994017979E+01  0.7414361067526007E+01
  0.7380184408621997E+01  0.7346165287768332E+01  0.7312302978790187E+01  0.7278596758860041E+01  0.7245045908482250E+01
  0.7211649711477697E+01  0.7178407454968470E+01  0.7145318429362688E+01  0.7112381928339332E+01  0.7079597248833180E+01
  0.7046963691019790E+01  0.7014480558300565E+01  0.6982147157287885E+01  0.6949962797790305E+01  0.6917926792797830E+01
  0.6886038458467246E+01  0.6854297114107517E+01  0.6822702082165259E+01  0.6791252688210283E+01  0.6759948260921193E+01
  0.6728788132071062E+01  0.6697771636513157E+01  0.6666898112166763E+01  0.6636166900003011E+01  0.6605577344030859E+01
  0.6575128791283058E+01  0.6544820591802219E+01  0.6514652098626953E+01  0.6484622667778030E+01  0.6454731658244671E+01
  0.6424978431970848E+01  0.6395362353841649E+01  0.6365882791669750E+01  0.6336539116181903E+01  0.6307330701005498E+01
  0.6278256922655205E+01  0.6249317160519674E+01  0.6220510796848254E+01  0.6191837216737847E+01  0.6163295808119742E+01
  0.6134885961746591E+01  0.6106607071179375E+01  0.6078458532774462E+01  0.6050439745670741E+01  0.6022550111776765E+01
  0.5994789035758016E+01  0.5967155925024178E+01  0.5939650189716486E+01  0.5912271242695160E+01  0.5885018499526822E+01
  0.5857891378472076E+01  0.5830889300473065E+01  0.5804011689141096E+01  0.5777257970744367E+01  0.5750627574195699E+01
  0.5724119931040345E+01  0.5697734475443873E+01  0.5671470644180069E+01  0.5645327876618925E+01  0.5619305614714676E+01
  0.5593403302993861E+01  0.5567620388543509E+01  0.5541956320999295E+01  0.5516410552533821E+01  0.5490982537844909E+01
  0.5465671734143961E+01  0.5440477601144373E+01  0.5415399601050007E+01  0.5390437198543706E+01  0.5365589860775874E+01
  0.5340857057353090E+01  0.5316238260326795E+01  0.5291732944182018E+01  0.5267340585826166E+01  0.5243060664577851E+01
  0.5218892662155779E+01  0.5194836062667672E+01  0.5170890352599288E+01  0.5147055020803424E+01  0.5123329558489031E+01
  0.5099713459210342E+01  0.5076206218856054E+01  0.5052807335638589E+01  0.5029516310083359E+01  0.5006332645018121E+01
  0.4983255845562359E+01  0.4960285419116715E+01  0.4937420875352478E+01  0.4914661726201125E+01  0.4892007485843886E+01
  0.4869457670701392E+01  0.4847011799423338E+01  0.4824669392878216E+01  0.4802429974143081E+01  0.4780293068493384E+01
  0.4758258203392820E+01  0.4736324908483252E+01  0.4714492715574677E+01  0.4692761158635210E+01  0.4671129773781159E+01
  0.4649598099267118E+01  0.4628165675476097E+01  0.4606832044909732E+01  0.4585596752178488E+01  0.4564459343991977E+01
  0.4543419369149261E+01  0.4522476378529210E+01  0.4501629925080946E+01  0.4480879563814256E+01  0.4460224851790146E+01
  0.4439665348111343E+01  0.4419200613912910E+01  0.4398830212352854E+01  0.4378553708602826E+01  0.4358370669838822E+01
  0.4338280665231953E+01  0.4318283265939244E+01  0.4298378045094479E+01  0.4278564577799096E+01  0.4258842441113105E+01
  0.4239211214046073E+01  0.4219670477548132E+01  0.4200219814501027E+01  0.4180858809709230E+01  0.4161587049891049E+01
  0.4142404123669840E+01  0.4123309621565198E+01  0.4104303135984232E+01  0.4085384261212855E+01  0.4066552593407138E+01
  0.4047807730584661E+01  0.4029149272615968E+01  0.4010576821216000E+01  0.3992089979935606E+01  0.3973688354153074E+01
  0.3955371551065704E+01  0.3937139179681438E+01  0.3918990850810498E+01  0.3900926177057087E+01  0.3882944772811123E+01
  0.3865046254239988E+01  0.3847230239280361E+01  0.3829496347630045E+01  0.3811844200739857E+01  0.3794273421805545E+01
  0.3776783635759737E+01  0.3759374469263952E+01  0.3742045550700618E+01  0.3724796510165137E+01  0.3707626979458002E+01
  0.3690536592076928E+01  0.3673524983209021E+01  0.3656591789723014E+01  0.3639736650161490E+01  0.3622959204733185E+01
  0.3606259095305303E+01  0.3589635965395855E+01  0.3573089460166080E+01  0.3556619226412842E+01  0.3540224912561110E+01
  0.3523906168656444E+01  0.3507662646357525E+01  0.3491493998928719E+01  0.3475399881232683E+01  0.3459379949722986E+01
  0.3443433862436790E+01  0.3427561278987534E+01  0.3411761860557680E+01  0.3396035269891474E+01  0.3380381171287755E+01
  0.3364799230592779E+01  0.3349289115193095E+01  0.3333850494008436E+01  0.3318483037484660E+01  0.3303186417586712E+01
  0.3287960307791622E+01  0.3272804383081532E+01  0.3257718319936764E+01  0.3242701796328909E+01  0.3227754491713955E+01
  0.3212876087025448E+01  0.3198066264667675E+01  0.3183324708508886E+01  0.3168651103874549E+01  0.3154045137540629E+01
  0.3139506497726908E+01  0.3125034874090325E+01  0.3110629957718348E+01  0.3096291441122388E+01  0.3082019018231229E+01
  0.3067812384384498E+01  0.3053671236326163E+01  0.3039595272198051E+01  0.3025584191533421E+01  0.3011637695250526E+01
  0.2997755485646255E+01  0.2983937266389762E+01  0.2970182742516141E+01  0.2956491620420141E+01  0.2942863607849881E+01
  0.2929298413900628E+01  0.2915795749008581E+01  0.2902355324944685E+01  0.2888976854808490E+01  0.2875660053022012E+01
  0.2862404635323648E+01  0.2849210318762109E+01  0.2836076821690372E+01  0.2823003863759674E+01  0.2809991165913521E+01
  0.2797038450381741E+01  0.2784145440674552E+01  0.2771311861576651E+01  0.2758537439141348E+01  0.2745821900684722E+01
  0.2733164974779784E+01  0.2720566391250703E+01  0.2708025881167023E+01  0.2695543176837934E+01  0.2683118011806552E+01
  0.2670750120844224E+01  0.2658439239944884E+01  0.2646185106319404E+01  0.2633987458389987E+01  0.2621846035784587E+01
  0.2609760579331347E+01  0.2597730831053068E+01  0.2585756534161704E+01  0.2573837433052876E+01  0.2561973273300424E+01
  0.2550163801650969E+01  0.2538408766018504E+01  0.2526707915479026E+01  0.2515061000265165E+01  0.2503467771760862E+01
  0.2491927982496063E+01  0.2480441386141424E+01  0.2469007737503068E+01  0.2457626792517342E+01  0.2446298308245610E+01
  0.2435022042869071E+01  0.2423797755683585E+01  0.2412625207094548E+01  0.2401504158611773E+01  0.2390434372844397E+01
  0.2379415613495817E+01  0.2368447645358642E+01  0.2357530234309677E+01  0.2346663147304920E+01  0.2335846152374593E+01
  0.2325079018618188E+01  0.2314361516199538E+01  0.2303693416341906E+01  0.2293074491323112E+01  0.2282504514470665E+01
  0.2271983260156925E+01  0.2261510503794288E+01  0.2251086021830392E+01  0.2240709591743342E+01  0.2230380992036963E+01
  0.2220100002236076E+01  0.2209866402881782E+01  0.2199679975526785E+01  0.2189540502730726E+01  0.2179447768055541E+01
  0.2169401556060844E+01  0.2159401652299326E+01  0.2149447843312175E+01  0.2139539916624525E+01  0.2129677660740914E+01
  0.2119860865140778E+01  0.2110089320273949E+01  0.2100362817556185E+01  0.2090681149364718E+01  0.2081044109033821E+01
  0.2071451490850398E+01  0.2061903090049594E+01  0.2052398702810417E+01  0.2042938126251399E+01  0.2033521158426249E+01
  0.2024147598319563E+01  0.2014817245842515E+01  0.2005529901828593E+01  0.1996285368029352E+01  0.1987083447110169E+01
  0.1977923942646049E+01  0.1968806659117416E+01  0.1959731401905947E+01  0.1950697977290418E+01  0.1941706192442568E+01
  0.1932755855422976E+01  0.1923846775176976E+01  0.1914978761530572E+01  0.1906151625186377E+01  0.1897365177719577E+01
  0.1888619231573901E+01  0.1879913600057628E+01  0.1871248097339597E+01  0.1862622538445237E+01  0.1854036739252620E+01
  0.1845490516488537E+01  0.1836983687724574E+01  0.1828516071373233E+01  0.1820087486684042E+01  0.1811697753739703E+01
  0.1803346693452251E+01  0.1795034127559230E+01  0.1786759878619893E+01  0.1778523770011402E+01  0.1770325625925076E+01
  0.1762165271362620E+01  0.1754042532132400E+01  0.1745957234845722E+01  0.1737909206913129E+01  0.1729898276540726E+01
  0.1721924272726497E+01  0.1713987025256667E+01  0.1706086364702067E+01  0.1698222122414512E+01  0.1690394130523208E+01
  0.1682602221931162E+01  0.1674846230311620E+01  0.1667125990104515E+01  0.1659441336512929E+01  0.1651792105499586E+01
  0.1644178133783338E+01  0.1636599258835687E+01  0.1629055318877311E+01  0.1621546152874616E+01  0.1614071600536298E+01
  0.1606631502309914E+01  0.1599225699378484E+01  0.1591854033657100E+01  0.1584516347789545E+01  0.1577212485144946E+01
  0.1569942289814418E+01  0.1562705606607742E+01  0.1555502281050053E+01  0.1548332159378540E+01  0.1541195088539168E+01
  0.1534090916183406E+01  0.1527019490664973E+01  0.1519980661036614E+01  0.1512974277046857E+01  0.1506000189136828E+01
  0.1499058248437043E+01  0.1492148306764233E+01  0.1485270216618190E+01  0.1478423831178602E+01  0.1471609004301937E+01
  0.1464825590518311E+01  0.1458073445028385E+01  0.1451352423700280E+01  0.1444662383066492E+01  0.1438003180320836E+01
  0.1431374673315394E+01  0.1424776720557482E+01  0.1418209181206631E+01  0.1411671915071578E+01  0.1405164782607274E+01
  0.1398687644911908E+01  0.1392240363723937E+01  0.1385822801419141E+01  0.1379434821007681E+01  0.1373076286131172E+01
  0.1366747061059782E+01  0.1360447010689321E+01  0.1354176000538374E+01  0.1347933896745413E+01  0.1341720566065953E+01
  0.1335535875869698E+01  0.1329379694137716E+01  0.1323251889459622E+01  0.1317152331030766E+01  0.1311080888649447E+01
  0.1305037432714131E+01  0.1299021834220683E+01  0.1293033964759621E+01  0.1287073696513364E+01  0.1281140902253510E+01
  0.1275235455338121E+01  0.1269357229709015E+01  0.1263506099889081E+01  0.1257681940979595E+01  0.1251884628657559E+01
  0.1246114039173042E+01  0.1240370049346542E+01  0.1234652536566355E+01  0.1228961378785958E+01  0.1223296454521408E+01
  0.1217657642848739E+01  0.1212044823401391E+01  0.1206457876367635E+01  0.1200896682488015E+01  0.1195361123052807E+01
  0.1189851079899481E+01  0.1184366435410178E+01  0.1178907072509204E+01  0.1173472874660525E+01  0.1168063725865285E+01
  0.1162679510659326E+01  0.1157320114110725E+01  0.1151985421817339E+01  0.1146675319904365E+01  0.1141389695021910E+01
  0.1136128434342567E+01  0.1130891425559011E+01  0.1125678556881601E+01  0.1120489717035987E+01  0.1115324795260751E+01
  0.1110183681305023E+01  0.1105066265426140E+01  0.1099972438387301E+01  0.1094902091455233E+01  0.1089855116397872E+01
  0.1084831405482054E+01  0.1079830851471208E+01  0.1074853347623079E+01  0.1069898787687438E+01  0.1064967065903820E+01
  0.1060058076999266E+01  0.1055171716186073E+01  0.1050307879159564E+01  0.1045466462095849E+01  0.1040647361649625E+01
  0.1035850474951954E+01  0.1031075699608078E+01  0.1026322933695233E+01  0.1021592075760463E+01  0.1016883024818467E+01
  0.1012195680349438E+01  0.1007529942296912E+01  0.1002885711065646E+01  0.9982628875194739E+00  0.9936613729792076E+00
  0.9890810692205190E+00  0.9845218784718472E+00  0.9799837034123141E+00  0.9754664471696413E+00  0.9709700133180869E+00
  0.9664943058763850E+00  0.9620392293056965E+00  0.9576046885075740E+00  0.9531905888219250E+00  0.9487968360249959E+00
  0.9444233363273599E+00  0.9400699963719130E+00  0.9357367232318864E+00  0.9314234244088558E+00  0.9271300078307718E+00
  0.9228563818499927E+00  0.9186024552413282E+00  0.9143681372000947E+00  0.9101533373401715E+00  0.9059579656920790E+00
  0.9017819327010477E+00  0.8976251492251190E+00  0.8934875265332326E+00  0.8893689763033360E+00  0.8852694106205022E+00
  0.8811887419750445E+00  0.8771268832606597E+00  0.8730837477725597E+00  0.8690592492056236E+00  0.8650533016525600E+00
  0.8610658196020624E+00  0.8570967179369969E+00  0.8531459119325754E+00  0.8492133172545504E+00  0.8452988499574176E+00
  0.8414024264826185E+00  0.8375239636567610E+00  0.8336633786898423E+00  0.8298205891734809E+00  0.8259955130791613E+00
  0.8221880687564775E+00  0.8183981749313939E+00  0.8146257507045092E+00  0.8108707155493288E+00  0.8071329893105492E+00
  0.8034124922023422E+00  0.7997091448066549E+00  0.7960228680715131E+00  0.7923535833093345E+00  0.7887012121952509E+00
  0.7850656767654315E+00  0.7814468994154229E+00  0.7778448028984907E+00  0.7742593103239707E+00  0.7706903451556295E+00
  0.7671378312100273E+00  0.7636016926548942E+00  0.7600818540075107E+00  0.7565782401330960E+00  0.7530907762432069E+00
  0.7496193878941364E+00  0.7461640009853288E+00  0.7427245417577963E+00  0.7393009367925441E+00  0.7358931130090053E+00
  0.7325009976634786E+00  0.7291245183475752E+00  0.7257636029866777E+00  0.7224181798383935E+00  0.7190881774910322E+00
  0.7157735248620750E+00  0.7124741511966595E+00  0.7091899860660716E+00  0.7059209593662360E+00  0.7026670013162273E+00
  0.6994280424567746E+00  0.6962040136487810E+00  0.6929948460718501E+00  0.6898004712228121E+00  0.6866208209142642E+00
  0.6834558272731163E+00  0.6803054227391387E+00  0.6771695400635248E+00  0.6740481123074505E+00  0.6709410728406485E+00
  0.6678483553399848E+00  0.6647698937880431E+00  0.6617056224717167E+00  0.6586554759808042E+00  0.6556193892066138E+00
  0.6525972973405731E+00  0.6495891358728478E+00  0.6465948405909615E+00  0.6436143475784269E+00  0.6406475932133814E+00
  0.6376945141672274E+00  0.6347550474032843E+00  0.6318291301754374E+00  0.6289167000268033E+00  0.6260176947883958E+00
  0.6231320525777938E+00  0.6202597117978293E+00  0.6174006111352649E+00  0.6145546895594872E+00  0.6117218863212079E+00
  0.6089021409511589E+00  0.6060953932588109E+00  0.6033015833310813E+00  0.6005206515310579E+00  0.5977525384967282E+00
  0.5949971851397075E+00  0.5922545326439811E+00  0.5895245224646478E+00  0.5868070963266692E+00  0.5841021962236286E+00
  0.5814097644164893E+00  0.5787297434323636E+00  0.5760620760632870E+00  0.5734067053649943E+00  0.5707635746557086E+00
  0.5681326275149257E+00  0.5655138077822139E+00  0.5629070595560135E+00  0.5603123271924431E+00  0.5577295553041144E+00
  0.5551586887589463E+00  0.5525996726789897E+00  0.5500524524392573E+00  0.5475169736665542E+00  0.5449931822383218E+00
  0.5424810242814784E+00  0.5399804461712709E+00  0.5374913945301302E+00  0.5350138162265305E+00  0.5325476583738584E+00
  0.5300928683292796E+00  0.5276493936926175E+00  0.5252171823052353E+00  0.5227961822489198E+00  0.5203863418447771E+00
  0.5179876096521255E+00  0.5155999344673994E+00  0.5132232653230575E+00  0.5108575514864899E+00  0.5085027424589421E+00
  0.5061587879744308E+00  0.5038256379986741E+00  0.5015032427280237E+00  0.4991915525883980E+00  0.4968905182342299E+00
  0.4946000905474074E+00  0.4923202206362283E+00  0.4900508598343574E+00  0.4877919596997824E+00  0.4855434720137872E+00
  0.4833053487799162E+00  0.4810775422229527E+00  0.4788600047878998E+00  0.4766526891389606E+00  0.4744555481585342E+00
  0.4722685349462045E+00  0.4700916028177412E+00  0.4679247053041037E+00  0.4657677961504470E+00  0.4636208293151360E+00
  0.4614837589687612E+00  0.4593565394931624E+00  0.4572391254804520E+00  0.4551314717320477E+00  0.4530335332577058E+00
  0.4509452652745625E+00  0.4488666232061770E+00  0.4467975626815788E+00  0.4447380395343213E+00  0.4426880098015402E+00
  0.4406474297230105E+00  0.4386162557402177E+00  0.4365944444954240E+00  0.4345819528307429E+00  0.4325787377872206E+00
  0.4305847566039133E+00  0.4285999667169806E+00  0.4266243257587715E+00  0.4246577915569217E+00  0.4227003221334548E+00
  0.4207518757038811E+00  0.4188124106763114E+00  0.4168818856505642E+00  0.4149602594172827E+00  0.4130474909570576E+00
  0.4111435394395457E+00  0.4092483642226036E+00  0.4073619248514158E+00  0.4054841810576319E+00  0.4036150927585084E+00
  0.4017546200560483E+00  0.3999027232361542E+00  0.3980593627677759E+00  0.3962244993020675E+00  0.3943980936715491E+00
  0.3925801068892645E+00  0.3907705001479556E+00  0.3889692348192270E+00  0.3871762724527260E+00  0.3853915747753169E+00
  0.3836151036902656E+00  0.3818468212764261E+00  0.3800866897874285E+00  0.3783346716508747E+00  0.3765907294675337E+00
  0.3748548260105423E+00  0.3731269242246125E+00  0.3714069872252357E+00  0.3696949782978982E+00  0.3679908608972938E+00
  0.3662945986465429E+00  0.3646061553364174E+00  0.3629254949245642E+00  0.3612525815347365E+00  0.3595873794560257E+00
  0.3579298531420971E+00  0.3562799672104336E+00  0.3546376864415747E+00  0.3530029757783674E+00  0.3513758003252138E+00
  0.3497561253473244E+00  0.3481439162699794E+00  0.3465391386777841E+00  0.3449417583139368E+00  0.3433517410794927E+00
  0.3417690530326380E+00  0.3401936603879595E+00  0.3386255295157251E+00  0.3370646269411636E+00  0.3355109193437464E+00
  0.3339643735564771E+00  0.3324249565651795E+00  0.3308926355077904E+00  0.3293673776736592E+00  0.3278491505028439E+00
  0.3263379215854166E+00  0.3248336586607676E+00  0.3233363296169142E+00  0.3218459024898151E+00  0.3203623454626832E+00
  0.3188856268653050E+00  0.3174157151733617E+00  0.3159525790077523E+00  0.3144961871339237E+00  0.3130465084611979E+00
  0.3116035120421080E+00  0.3101671670717323E+00  0.3087374428870337E+00  0.3073143089662042E+00  0.3058977349280067E+00
  0.3044876905311258E+00  0.3030841456735165E+00  0.3016870703917577E+00  0.3002964348604114E+00  0.2989122093913790E+00
  0.2975343644332654E+00  0.2961628705707431E+00  0.2947976985239189E+00  0.2934388191477073E+00  0.2920862034312003E+00
  0.2907398224970463E+00  0.2893996476008258E+00  0.2880656501304361E+00  0.2867378016054712E+00  0.2854160736766124E+00
  0.2841004381250155E+00  0.2827908668617025E+00  0.2814873319269578E+00  0.2801898054897227E+00  0.2788982598469971E+00
  0.2776126674232419E+00  0.2763330007697817E+00  0.2750592325642146E+00  0.2737913356098191E+00  0.2725292828349689E+00
  0.2712730472925466E+00  0.2700226021593604E+00  0.2687779207355645E+00  0.2675389764440796E+00  0.2663057428300191E+00
  0.2650781935601152E+00  0.2638563024221467E+00  0.2626400433243729E+00  0.2614293902949644E+00  0.2602243174814412E+00
  0.2590247991501108E+00  0.2578308096855076E+00  0.2566423235898377E+00  0.2554593154824207E+00  0.2542817600991408E+00
  0.2531096322918931E+00  0.2519429070280365E+00  0.2507815593898484E+00  0.2496255645739775E+00  0.2484748978909055E+00
  0.2473295347644043E+00  0.2461894507309988E+00  0.2450546214394327E+00  0.2439250226501316E+00  0.2428006302346742E+00
  0.2416814201752604E+00  0.2405673685641841E+00  0.2394584516033086E+00  0.2383546456035387E+00  0.2372559269843043E+00
  0.2361622722730347E+00  0.2350736581046435E+00  0.2339900612210111E+00  0.2329114584704700E+00  0.2318378268072922E+00
  0.2307691432911769E+00  0.2297053850867424E+00  0.2286465294630184E+00  0.2275925537929389E+00  0.2265434355528393E+00
  0.2254991523219520E+00  0.2244596817819069E+00  0.2234250017162320E+00  0.2223950900098544E+00  0.2213699246486056E+00
  0.2203494837187248E+00  0.2193337454063674E+00  0.2183226879971134E+00  0.2173162898754754E+00  0.2163145295244118E+00
  0.2153173855248377E+00  0.2143248365551403E+00  0.2133368613906937E+00  0.2123534389033747E+00  0.2113745480610830E+00
  0.2104001679272575E+00  0.2094302776604000E+00  0.2084648565135946E+00  0.2075038838340313E+00  0.2065473390625313E+00
  0.2055952017330700E+00  0.2046474514723057E+00  0.2037040679991056E+00  0.2027650311240748E+00  0.2018303207490866E+00
  0.2008999168668106E+00  0.1999737995602477E+00  0.1990519490022599E+00  0.1981343454551047E+00  0.1972209692699693E+00
  0.1963118008865052E+00  0.1954068208323648E+00  0.1945060097227377E+00  0.1936093482598874E+00  0.1927168172326915E+00
  0.1918283975161773E+00  0.1909440700710647E+00  0.1900638159433031E+00  0.1891876162636147E+00  0.1883154522470338E+00
  0.1874473051924488E+00  0.1865831564821450E+00  0.1857229875813465E+00  0.1848667800377598E+00  0.1840145154811161E+00
  0.1831661756227151E+00  0.1823217422549702E+00  0.1814811972509507E+00  0.1806445225639277E+00  0.1798117002269177E+00
  0.1789827123522267E+00  0.1781575411309964E+00  0.1773361688327477E+00  0.1765185778049259E+00  0.1757047504724450E+00
  0.1748946693372320E+00  0.1740883169777726E+00  0.1732856760486536E+00  0.1724867292801087E+00  0.1716914594775608E+00
  0.1708998495211655E+00  0.1701118823653561E+00  0.1693275410383830E+00  0.1685468086418589E+00  0.1677696683502983E+00
  0.1669961034106599E+00  0.1662260971418866E+00  0.1654596329344450E+00  0.1646966942498654E+00  0.1639372646202795E+00
  0.1631813276479578E+00  0.1624288670048473E+00  0.1616798664321056E+00  0.1609343097396377E+00  0.1601921808056277E+00
  0.1594534635760735E+00  0.1587181420643169E+00  0.1579862003505740E+00  0.1572576225814651E+00  0.1565323929695420E+00
  0.1558104957928145E+00  0.1550919153942753E+00  0.1543766361814228E+00  0.1536646426257847E+00  0.1529559192624366E+00
  0.1522504506895217E+00  0.1515482215677672E+00  0.1508492166199987E+00  0.1501534206306551E+00  0.1494608184452984E+00
  0.1487713949701237E+00  0.1480851351714658E+00  0.1474020240753042E+00  0.1467220467667670E+00  0.1460451883896301E+00
  0.1453714341458162E+00  0.1447007692948902E+00  0.1440331791535524E+00  0.1433686490951299E+00  0.1427071645490633E+00
  0.1420487110003938E+00  0.1413932739892440E+00  0.1407408391102992E+00  0.1400913920122823E+00  0.1394449183974292E+00
  0.1388014040209589E+00  0.1381608346905403E+00  0.1375231962657572E+00  0.1368884746575685E+00  0.1362566558277658E+00
  0.1356277257884280E+00  0.1350016706013701E+00  0.1343784763775915E+00  0.1337581292767176E+00  0.1331406155064394E+00
  0.1325259213219490E+00  0.1319140330253696E+00  0.1313049369651838E+00  0.1306986195356553E+00  0.1300950671762478E+00
  0.1294942663710399E+00  0.1288962036481333E+00  0.1283008655790597E+00  0.1277082387781796E+00  0.1271183099020791E+00
  0.1265310656489612E+00  0.1259464927580308E+00  0.1253645780088765E+00  0.1247853082208460E+00  0.1242086702524173E+00
  0.1236346510005642E+00  0.1230632374001158E+00  0.1224944164231119E+00  0.1219281750781510E+00  0.1213645004097347E+00
  0.1208033794976049E+00  0.1202447994560749E+00  0.1196887474333564E+00  0.1191352106108781E+00  0.1185841762026003E+00
  0.1180356314543209E+00  0.1174895636429779E+00  0.1169459600759433E+00  0.1164048080903108E+00  0.1158660950521784E+00
  0.1153298083559217E+00  0.1147959354234628E+00  0.1142644637035316E+00  0.1137353806709189E+00  0.1132086738257245E+00
  0.1126843306925961E+00  0.1121623388199626E+00  0.1116426857792593E+00  0.1111253591641455E+00  0.1106103465897153E+00
  0.1100976356917000E+00  0.1095872141256631E+00  0.1090790695661889E+00  0.1085731897060606E+00  0.1080695622554334E+00
  0.1075681749409967E+00  0.1070690155051314E+00  0.1065720717050574E+00  0.1060773313119719E+00  0.1055847821101826E+00
  0.1050944118962290E+00  0.1046062084779987E+00  0.1041201596738331E+00  0.1036362533116255E+00  0.1031544772279112E+00
  0.1026748192669479E+00  0.1021972672797895E+00  0.1017218091233497E+00  0.1012484326594571E+00  0.1007771257539040E+00
  0.1003078762754831E+00  0.9984067209501928E-01  0.9937550108438994E-01  0.9891235111553881E-01  0.9845121005948064E-01
  0.9799206578529647E-01  0.9753490615912268E-01  0.9707971904312944E-01  0.9662649229449229E-01  0.9617521376435544E-01
  0.9572587129678543E-01  0.9527845272771961E-01  0.9483294588390370E-01  0.9438933858182350E-01  0.9394761862662837E-01
  0.9350777381104654E-01  0.9306979191429469E-01  0.9263366070097842E-01  0.9219936791998684E-01  0.9176690130338079E-01
  0.9133624856527267E-01  0.9090739740070250E-01  0.9048033548450551E-01  0.9005505047017547E-01  0.8963152998872234E-01
  0.8920976164752367E-01  0.8878973302917297E-01  0.8837143169032197E-01  0.8795484516052006E-01  0.8753996094104924E-01
  0.8712676650375566E-01  0.8671524928988054E-01  0.8630539670888528E-01  0.8589719613727836E-01  0.8549063491743875E-01
  0.8508570035643961E-01  0.8468237972487248E-01  0.8428066025567074E-01  0.8388052914293657E-01  0.8348197354076770E-01
  0.8308498056208873E-01  0.8268953727748581E-01  0.8229563071404478E-01  0.8190324785419649E-01  0.8151237563456679E-01
  0.8112300094483489E-01  0.8073511062659991E-01  0.8034869147225579E-01  0.7996373022387880E-01  0.7958021357212461E-01
  0.7919812815513955E-01  0.7881746055748583E-01  0.7843819730908175E-01  0.7806032488416002E-01  0.7768382970024322E-01
  0.7730869811713996E-01  0.7693491643596230E-01  0.7656247089816615E-01  0.7619134768461734E-01  0.7582153291468295E-01
  0.7545301264535292E-01  0.7508577287039050E-01  0.7471979951951604E-01  0.7435507845762561E-01  0.7399159548404557E-01
  0.7362933633182689E-01  0.7326828666708031E-01  0.7290843208835507E-01  0.7254975812606530E-01  0.7219225024196334E-01
  0.7183589382866620E-01  0.7148067420923561E-01  0.7112657663681514E-01  0.7077358629432892E-01  0.7042168829424177E-01
  0.7007086767838742E-01  0.6972110941786556E-01  0.6937239841301236E-01  0.6902471949344835E-01  0.6867805741820522E-01
  0.6833239687593791E-01  0.6798772248522375E-01  0.6764401879495345E-01  0.6730127028481847E-01  0.6695946136589727E-01
  0.6661857638134693E-01  0.6627859960720221E-01  0.6593951525328842E-01  0.6560130746425184E-01  0.6526396032071199E-01
  0.6492745784054189E-01  0.6459178398027933E-01  0.6425692263667634E-01  0.6392285764838986E-01  0.6358957279782074E-01
  0.6325705181310527E-01  0.6292527837026424E-01  0.6259423609551697E-01  0.6226390856776344E-01  0.6193427932124233E-01
  0.6160533184836966E-01  0.6127704960276355E-01  0.6094941600246240E-01  0.6062241443334055E-01  0.6029602825272937E-01
  0.5997024079324865E-01  0.5964503536685414E-01  0.5932039526910891E-01  0.5899630378368254E-01  0.5867274418708582E-01
  0.5834969975364743E-01  0.5802715376073627E-01  0.5770508949423870E-01  0.5738349025429402E-01  0.5706233936129577E-01
  0.5674162016216458E-01  0.5642131603689687E-01  0.5610141040539720E-01  0.5578188673459783E-01  0.5546272854587245E-01
  0.5514391942274746E-01  0.5482544301891756E-01  0.5450728306656943E-01  0.5418942338501714E-01  0.5387184788965566E-01
  0.5355454060123337E-01  0.5323748565545031E-01  0.5292066731288270E-01  0.5260406996923727E-01  0.5228767816593859E-01
  0.5197147660104948E-01  0.5165545014052771E-01  0.5133958382981839E-01  0.5102386290578231E-01  0.5070827280896110E-01
  0.5039279919617592E-01  0.5007742795346059E-01  0.4976214520932431E-01  0.4944693734834185E-01  0.4913179102506737E-01
  0.4881669317826561E-01  0.4850163104545645E-01  0.4818659217776494E-01  0.4787156445506847E-01  0.4755653610143446E-01
  0.4724149570083587E-01  0.4692643221313668E-01  0.4661133499033300E-01  0.4629619379303714E-01  0.4598099880719149E-01
  0.4566574066099412E-01  0.4535041044202207E-01  0.4503499971453175E-01  0.4471950053691766E-01  0.4440390547930925E-01
  0.4408820764128188E-01  0.4377240066966061E-01  0.4345647877638893E-01  0.4314043675643800E-01  0.4282427000572776E-01
  0.4250797453902947E-01  0.4219154700782109E-01  0.4187498471806036E-01  0.4155828564784441E-01  0.4124144846491949E-01
  0.4092447254400381E-01  0.4060735798388786E-01  0.4029010562427033E-01  0.3997271706229143E-01  0.3965519466872124E-01
  0.3933754160375949E-01  0.3901976183240558E-01  0.3870186013935063E-01  0.3838384214334883E-01  0.3806571431102031E-01
  0.3774748397003769E-01  0.3742915932165101E-01  0.3711074945249892E-01  0.3679226434566157E-01  0.3647371489090383E-01
  0.3615511289406018E-01  0.3583647108551392E-01  0.3551780312771968E-01  0.3519912362172441E-01  0.3488044811263545E-01
  0.3456179309399207E-01  0.3424317601099307E-01  0.3392461526253519E-01  0.3360613020202137E-01  0.3328774113689378E-01
  0.3296946932685413E-01  0.3265133698073216E-01  0.3233336725196553E-01  0.3201558423265970E-01  0.3169801294619396E-01
  0.3138067933834757E-01  0.3106361026692006E-01  0.3074683348982242E-01  0.3043037765162302E-01  0.3011427226852992E-01
  0.2979854771180076E-01  0.2948323518957142E-01  0.2916836672709936E-01  0.2885397514542444E-01  0.2854009403844960E-01
  0.2822675774845282E-01  0.2791400134004393E-01  0.2760186057258360E-01  0.2729037187109074E-01  0.2697957229566290E-01
  0.2666949950944547E-01  0.2636019174518600E-01  0.2605168777041581E-01  0.2574402685130773E-01  0.2543724871525960E-01
  0.2513139351226208E-01  0.2482650177511092E-01  0.2452261437852833E-01  0.2421977249726544E-01  0.2391801756325649E-01
  0.2361739122190532E-01  0.2331793528758301E-01  0.2301969169842293E-01  0.2272270247050108E-01  0.2242700965149082E-01
  0.2213265527388790E-01  0.2183968130789924E-01  0.2154812961409443E-01  0.2125804189591963E-01  0.2096945965217265E-01
  0.2068242412954331E-01  0.2039697627531901E-01  0.2011315669035925E-01  0.1983100558244159E-01  0.1955056272007875E-01
  0.1927186738691034E-01  0.1899495833676631E-01  0.1871987374950117E-01  0.1844665118769513E-01  0.1817532755431372E-01
  0.1790593905141885E-01  0.1763852114001691E-01  0.1737310850112925E-01  0.1710973499816580E-01  0.1684843364067688E-01
  0.1658923654955738E-01  0.1633217492376952E-01  0.1607727900864899E-01  0.1582457806585056E-01  0.1557410034498897E-01
  0.1532587305702067E-01  0.1507992234941012E-01  0.1483627328311820E-01  0.1459494981144298E-01  0.1435597476074020E-01
  0.1411936981304371E-01  0.1388515549059953E-01  0.1365335114232469E-01  0.1342397493219294E-01  0.1319704382954669E-01
  0.1297257360132845E-01  0.1275057880621779E-01  0.1253107279065933E-01  0.1231406768675699E-01  0.1209957441200891E-01
  0.1188760267085216E-01  0.1167816095797944E-01  0.1147125656339059E-01  0.1126689557913303E-01  0.1106508290768453E-01
  0.1086582227192881E-01  0.1066911622666775E-01  0.1047496617161653E-01  0.1028337236582013E-01  0.1009433394343101E-01
  0.9907848930785038E-02  0.9723914264708981E-02  0.9542525811994849E-02  0.9363678389972015E-02  0.9187365788108756E-02
  0.9013580790575083E-02  0.8842315199694998E-02  0.8673559860220850E-02  0.8507304684357925E-02  0.8343538677471236E-02
  0.8182249964404741E-02  0.8023425816345554E-02  0.7867052678165887E-02  0.7713116196174998E-02  0.7561601246219276E-02
  0.7412491962063980E-02  0.7265771763997163E-02  0.7121423387594209E-02  0.6979428912585075E-02  0.6839769791768729E-02
  0.6702426879918833E-02  0.6567380462630313E-02  0.6434610285055356E-02  0.6304095580481598E-02  0.6175815098707662E-02
  0.6049747134171406E-02  0.5925869553791789E-02  0.5804159824484525E-02  0.5684595040315964E-02  0.5567151949262071E-02
  0.5451806979539758E-02  0.5338536265483052E-02  0.5227315672936252E-02  0.5118120824139901E-02  0.5010927122087938E-02
  0.4905709774334729E-02  0.4802443816235436E-02  0.4701104133602674E-02  0.4601665484766150E-02  0.4504102522023598E-02
  0.4408389812472154E-02  0.4314501858212880E-02  0.4222413115921201E-02  0.4132098015778614E-02  0.4043530979762831E-02
  0.3956686439293695E-02  0.3871538852235663E-02  0.3788062719256836E-02  0.3706232599547417E-02  0.3626023125901244E-02
  0.3547409019164350E-02  0.3470365102057079E-02  0.3394866312375686E-02  0.3320887715581357E-02  0.3248404516785198E-02
  0.3177392072137760E-02  0.3107825899633777E-02  0.3039681689341887E-02  0.2972935313070716E-02  0.2907562833483216E-02
  0.2843540512670511E-02  0.2780844820198629E-02  0.2719452440640106E-02  0.2659340280603920E-02  0.2600485475277217E-02
  0.2542865394491812E-02  0.2486457648329795E-02  0.2431240092281559E-02  0.2377190831970142E-02  0.2324288227456253E-02
  0.2272510897137139E-02  0.2221837721253950E-02  0.2172247845020809E-02  0.2123720681389709E-02  0.2076235913464618E-02
  0.2029773496578554E-02  0.1984313660046750E-02  0.1939836908609131E-02  0.1896324023575145E-02  0.1853756063683572E-02
  0.1812114365690071E-02  0.1771380544694616E-02  0.1731536494220828E-02  0.1692564386059178E-02  0.1654446669885415E-02
  0.1617166072665651E-02  0.1580705597858996E-02  0.1545048524428353E-02  0.1510178405669968E-02  0.1476079067871652E-02
  0.1442734608809675E-02  0.1410129396093778E-02  0.1378248065369452E-02  0.1347075518386563E-02  0.1316596920942838E-02
  0.1286797700710674E-02  0.1257663544955273E-02  0.1229180398151815E-02  0.1201334459509253E-02  0.1174112180407847E-02
  0.1147500261757521E-02  0.1121485651283431E-02  0.1096055540745456E-02  0.1071197363097470E-02  0.1046898789592383E-02
  0.1023147726838662E-02  0.9999323138134592E-03  0.9772409188377764E-03  0.9550621365183331E-03  0.9333847846608970E-03
  0.9121979011596320E-03  0.8914907408664547E-03  0.8712527724447237E-03  0.8514736752108409E-03  0.8321433359674898E-03
  0.8132518458320365E-03  0.7947894970631286E-03  0.7767467798888260E-03  0.7591143793389422E-03  0.7418831720844455E-03
  0.7250442232865442E-03  0.7085887834576954E-03  0.6925082853370465E-03  0.6767943407822349E-03  0.6614387376796386E-03
  0.6464334368749797E-03  0.6317705691258606E-03  0.6174424320780382E-03  0.6034414872667744E-03  0.5897603571447059E-03
  0.5763918221375714E-03  0.5633288177288265E-03  0.5505644315743890E-03  0.5380919006483688E-03  0.5259046084207223E-03
  0.5139960820677052E-03  0.5023599897157075E-03  0.4909901377192983E-03  0.4798804679739154E-03  0.4690250552637692E-03
  0.4584181046454523E-03  0.4480539488675223E-03  0.4379270458265015E-03  0.4280319760594790E-03  0.4183634402735420E-03
  0.4089162569122590E-03  0.3996853597592311E-03  0.3906657955788819E-03  0.3818527217944479E-03  0.3732414042031788E-03
  0.3648272147287336E-03  0.3566056292106228E-03  0.3485722252306653E-03  0.3407226799762373E-03  0.3330527681401857E-03
  0.3255583598572125E-03  0.3182354186764512E-03  0.3110799995700809E-03  0.3040882469775827E-03  0.2972563928854782E-03
  0.2905807549421666E-03  0.2840577346075434E-03  0.2776838153370959E-03  0.2714555608000712E-03  0.2653696131314212E-03
  0.2594226912170637E-03  0.2536115890121469E-03  0.2479331738918733E-03  0.2423843850344830E-03  0.2369622318360184E-03
  0.2316637923563901E-03  0.2264862117963837E-03  0.2214267010051264E-03  0.2164825350175983E-03  0.2116510516217671E-03
  0.2069296499548675E-03  0.2023157891284244E-03  0.1978069868815440E-03  0.1934008182620358E-03  0.1890949143349453E-03
  0.1848869609180012E-03  0.1807746973435903E-03  0.1767559152467712E-03  0.1728284573789023E-03  0.1689902164464583E-03
  0.1652391339745601E-03  0.1615731991948269E-03  0.1579904479570785E-03  0.1544889616644780E-03  0.1510668662316969E-03
  0.1477223310656468E-03  0.1444535680684032E-03  0.1412588306618651E-03  0.1381364128337617E-03  0.1350846482046050E-03
   41     92.906         4.0485    fcc     
  0.0000000000000000E+00  0.2047267806561548E-01 -0.2658745962380049E-01 -0.7335887960564413E-01 -0.1198424897343688E+00
 -0.1660391978644244E+00 -0.2119499118502661E+00 -0.2575755395463437E+00 -0.3029169888071093E+00 -0.3479751674870140E+00
 -0.3927509834405116E+00 -0.4372453445220530E+00 -0.4814591585860892E+00 -0.5253933334870728E+00 -0.5690487770794577E+00
 -0.6124263972176927E+00 -0.6555271017562339E+00 -0.6983517985495276E+00 -0.7409013954520294E+00 -0.7831768003181900E+00
 -0.8251789210024607E+00 -0.8669086653592957E+00 -0.9083669412431448E+00 -0.9495546565084614E+00 -0.9904727190096958E+00
 -0.1031122036601301E+01 -0.1071503517137729E+01 -0.1111618068473432E+01 -0.1151466598462861E+01 -0.1191050014960468E+01
 -0.1230369225820706E+01 -0.1269425138898024E+01 -0.1308218662046877E+01 -0.1346750703121717E+01 -0.1385022169976993E+01
 -0.1423033970467160E+01 -0.1460787012446668E+01 -0.1498282203769969E+01 -0.1535520452291518E+01 -0.1572502665865760E+01
 -0.1609229752347156E+01 -0.1645702619590150E+01 -0.1681922175449199E+01 -0.1717889327778751E+01 -0.1753604984433260E+01
 -0.1789070053267179E+01 -0.1824285442134958E+01 -0.1859252058891050E+01 -0.1893970811389906E+01 -0.1928442607485981E+01
 -0.1962668355033721E+01 -0.1996648961887582E+01 -0.2030385335902017E+01 -0.2063878384931474E+01 -0.2097129016830408E+01
 -0.2130138139453269E+01 -0.2162906660654511E+01 -0.2195435488288584E+01 -0.2227725530209942E+01 -0.2259777694273033E+01
 -0.2291592888332314E+01 -0.2323172020242231E+01 -0.2354515997857243E+01 -0.2385625729031797E+01 -0.2416502121620346E+01
 -0.2447146083477341E+01 -0.2477558522457236E+01 -0.2507740346414481E+01 -0.2537692463203530E+01 -0.2567415780678833E+01
 -0.2596911206694842E+01 -0.2626179649106011E+01 -0.2655222015766789E+01 -0.2684039214531630E+01 -0.2712632153254985E+01
 -0.2741001739791305E+01 -0.2769148881995045E+01 -0.2797074487720653E+01 -0.2824779464822584E+01 -0.2852264721155288E+01
 -0.2879531164573220E+01 -0.2906579702930827E+01 -0.2933411244082565E+01 -0.2960026695882883E+01 -0.2986426966186236E+01
 -0.3012612962847073E+01 -0.3038585593719847E+01 -0.3064345766659012E+01 -0.3089894389519015E+01 -0.3115232370154311E+01
 -0.3140360616419355E+01 -0.3165280036168594E+01 -0.3189991537256480E+01 -0.3214496027537469E+01 -0.3238794414866009E+01
 -0.3262887607096553E+01 -0.3286776512083554E+01 -0.3310462037681463E+01 -0.3333945091744732E+01 -0.3357226582127813E+01
 -0.3380307416685159E+01 -0.3403188503271218E+01 -0.3425870749740446E+01 -0.3448355063947294E+01 -0.3470642353746214E+01
 -0.3492733526991657E+01 -0.3514629491538075E+01 -0.3536331155239920E+01 -0.3557839425951645E+01 -0.3579155211527701E+01
