<GAP_2020_2_11_0_18_44_47_601>
<Potential label="GAP_2020_2_11_0_18_44_47_601" init_args="IP GAP label=GAP_2020_2_11_0_18_44_47_601"/>
<GAP_params label="GAP_2020_2_11_0_18_44_47_601" gap_version="1548461341">
  <GAP_data do_core="F">
    <e0 Z="1" value=".00000000000000000E+000"/>
    <e0 Z="2" value=".00000000000000000E+000"/>
    <e0 Z="3" value=".00000000000000000E+000"/>
    <e0 Z="4" value=".00000000000000000E+000"/>
    <e0 Z="5" value=".00000000000000000E+000"/>
    <e0 Z="6" value=".00000000000000000E+000"/>
    <e0 Z="7" value=".00000000000000000E+000"/>
    <e0 Z="8" value="-.12773420000000001E-001"/>
    <e0 Z="9" value=".00000000000000000E+000"/>
    <e0 Z="10" value=".00000000000000000E+000"/>
    <e0 Z="11" value=".00000000000000000E+000"/>
    <e0 Z="12" value=".00000000000000000E+000"/>
    <e0 Z="13" value=".00000000000000000E+000"/>
    <e0 Z="14" value=".00000000000000000E+000"/>
    <e0 Z="15" value=".00000000000000000E+000"/>
    <e0 Z="16" value=".00000000000000000E+000"/>
    <e0 Z="17" value=".00000000000000000E+000"/>
    <e0 Z="18" value=".00000000000000000E+000"/>
    <e0 Z="19" value=".00000000000000000E+000"/>
    <e0 Z="20" value=".00000000000000000E+000"/>
    <e0 Z="21" value=".00000000000000000E+000"/>
    <e0 Z="22" value=".00000000000000000E+000"/>
    <e0 Z="23" value=".00000000000000000E+000"/>
    <e0 Z="24" value=".00000000000000000E+000"/>
    <e0 Z="25" value=".00000000000000000E+000"/>
    <e0 Z="26" value=".00000000000000000E+000"/>
    <e0 Z="27" value=".00000000000000000E+000"/>
    <e0 Z="28" value=".00000000000000000E+000"/>
    <e0 Z="29" value=".00000000000000000E+000"/>
    <e0 Z="30" value=".00000000000000000E+000"/>
    <e0 Z="31" value=".00000000000000000E+000"/>
    <e0 Z="32" value=".00000000000000000E+000"/>
    <e0 Z="33" value=".00000000000000000E+000"/>
    <e0 Z="34" value=".00000000000000000E+000"/>
    <e0 Z="35" value=".00000000000000000E+000"/>
    <e0 Z="36" value=".00000000000000000E+000"/>
    <e0 Z="37" value=".00000000000000000E+000"/>
    <e0 Z="38" value=".00000000000000000E+000"/>
    <e0 Z="39" value=".00000000000000000E+000"/>
    <e0 Z="40" value=".00000000000000000E+000"/>
    <e0 Z="41" value=".00000000000000000E+000"/>
    <e0 Z="42" value=".00000000000000000E+000"/>
    <e0 Z="43" value=".00000000000000000E+000"/>
    <e0 Z="44" value=".00000000000000000E+000"/>
    <e0 Z="45" value=".00000000000000000E+000"/>
    <e0 Z="46" value=".00000000000000000E+000"/>
    <e0 Z="47" value=".00000000000000000E+000"/>
    <e0 Z="48" value=".00000000000000000E+000"/>
    <e0 Z="49" value=".00000000000000000E+000"/>
    <e0 Z="50" value=".00000000000000000E+000"/>
    <e0 Z="51" value=".00000000000000000E+000"/>
    <e0 Z="52" value=".00000000000000000E+000"/>
    <e0 Z="53" value=".00000000000000000E+000"/>
    <e0 Z="54" value=".00000000000000000E+000"/>
    <e0 Z="55" value=".00000000000000000E+000"/>
    <e0 Z="56" value=".00000000000000000E+000"/>
    <e0 Z="57" value=".00000000000000000E+000"/>
    <e0 Z="58" value=".00000000000000000E+000"/>
    <e0 Z="59" value=".00000000000000000E+000"/>
    <e0 Z="60" value=".00000000000000000E+000"/>
    <e0 Z="61" value=".00000000000000000E+000"/>
    <e0 Z="62" value=".00000000000000000E+000"/>
    <e0 Z="63" value=".00000000000000000E+000"/>
    <e0 Z="64" value=".00000000000000000E+000"/>
    <e0 Z="65" value=".00000000000000000E+000"/>
    <e0 Z="66" value=".00000000000000000E+000"/>
    <e0 Z="67" value=".00000000000000000E+000"/>
    <e0 Z="68" value=".00000000000000000E+000"/>
    <e0 Z="69" value=".00000000000000000E+000"/>
    <e0 Z="70" value=".00000000000000000E+000"/>
    <e0 Z="71" value=".00000000000000000E+000"/>
    <e0 Z="72" value="-2.7051684599999999"/>
    <e0 Z="73" value=".00000000000000000E+000"/>
    <e0 Z="74" value=".00000000000000000E+000"/>
    <e0 Z="75" value=".00000000000000000E+000"/>
    <e0 Z="76" value=".00000000000000000E+000"/>
    <e0 Z="77" value=".00000000000000000E+000"/>
    <e0 Z="78" value=".00000000000000000E+000"/>
    <e0 Z="79" value=".00000000000000000E+000"/>
    <e0 Z="80" value=".00000000000000000E+000"/>
    <e0 Z="81" value=".00000000000000000E+000"/>
    <e0 Z="82" value=".00000000000000000E+000"/>
    <e0 Z="83" value=".00000000000000000E+000"/>
    <e0 Z="84" value=".00000000000000000E+000"/>
    <e0 Z="85" value=".00000000000000000E+000"/>
    <e0 Z="86" value=".00000000000000000E+000"/>
    <e0 Z="87" value=".00000000000000000E+000"/>
    <e0 Z="88" value=".00000000000000000E+000"/>
    <e0 Z="89" value=".00000000000000000E+000"/>
    <e0 Z="90" value=".00000000000000000E+000"/>
    <e0 Z="91" value=".00000000000000000E+000"/>
    <e0 Z="92" value=".00000000000000000E+000"/>
    <e0 Z="93" value=".00000000000000000E+000"/>
    <e0 Z="94" value=".00000000000000000E+000"/>
    <e0 Z="95" value=".00000000000000000E+000"/>
    <e0 Z="96" value=".00000000000000000E+000"/>
    <e0 Z="97" value=".00000000000000000E+000"/>
    <e0 Z="98" value=".00000000000000000E+000"/>
    <e0 Z="99" value=".00000000000000000E+000"/>
    <e0 Z="100" value=".00000000000000000E+000"/>
    <e0 Z="101" value=".00000000000000000E+000"/>
    <e0 Z="102" value=".00000000000000000E+000"/>
    <e0 Z="103" value=".00000000000000000E+000"/>
    <e0 Z="104" value=".00000000000000000E+000"/>
    <e0 Z="105" value=".00000000000000000E+000"/>
    <e0 Z="106" value=".00000000000000000E+000"/>
    <e0 Z="107" value=".00000000000000000E+000"/>
    <e0 Z="108" value=".00000000000000000E+000"/>
    <e0 Z="109" value=".00000000000000000E+000"/>
    <e0 Z="110" value=".00000000000000000E+000"/>
    <e0 Z="111" value=".00000000000000000E+000"/>
    <e0 Z="112" value=".00000000000000000E+000"/>
    <e0 Z="113" value=".00000000000000000E+000"/>
    <e0 Z="114" value=".00000000000000000E+000"/>
    <e0 Z="115" value=".00000000000000000E+000"/>
    <e0 Z="116" value=".00000000000000000E+000"/>
    <e0 Z="117" value=".00000000000000000E+000"/>
    <e0 Z="118" value=".00000000000000000E+000"/>
  </GAP_data>
  <gpSparse label="GAP_2020_2_11_0_18_44_47_601" n_coordinate="5">
    <gpCoordinates label="GAP_2020_2_11_0_18_44_47_6011" dimensions="1" signal_variance=".66000000000000003E-001" signal_mean=".00000000000000000E+000" sparsified="T" n_permutations="1" covariance_type="1" n_sparseX="40" sparseX_filename="gap.xml.sparseX.GAP_2020_2_11_0_18_44_47_6011" sparseX_md5sum="">
      <theta>  0.10000000000000000E+001 </theta>
      <descriptor>distance_2b compact_clusters=T cutoff=4.0 config_type_n_sparse=crystal:25:amorph:15 cutoff_transition_width=1.0 sparse_method=uniform delta=0.066 covariance_type=ard_se theta_uniform=1             Z1=72 Z2=72</descriptor>
      <permutation i="1">1  </permutation>
      <sparseX i="1" alpha="2611.5698287674168" sparseCutoff=".22023518629083205"/>
      <sparseX i="2" alpha="-6133.0704854561818" sparseCutoff=".47489580803757631"/>
      <sparseX i="3" alpha="-3282.3787354066508" sparseCutoff=".34716142016217821"/>
      <sparseX i="4" alpha="5098.2168159879266" sparseCutoff=".27799152642421721E-001"/>
      <sparseX i="5" alpha="527.88147246344886" sparseCutoff=".16558156696894200E-002"/>
      <sparseX i="6" alpha="7200.2817329114259" sparseCutoff=".60057609303019399E-001"/>
      <sparseX i="7" alpha="5737.9373324636881" sparseCutoff=".15591745506383875"/>
      <sparseX i="8" alpha="7378.4958541975102" sparseCutoff=".10471748229152578"/>
      <sparseX i="9" alpha="-4582.7984344725628" sparseCutoff=".38711008922724738"/>
      <sparseX i="10" alpha="5621.7311532760486" sparseCutoff=".90904191437392734"/>
      <sparseX i="11" alpha="-5919.2764778796854" sparseCutoff=".55450996517144580"/>
      <sparseX i="12" alpha="-4444.1896194472311" sparseCutoff=".62852379880932741"/>
      <sparseX i="13" alpha="3352.2754871683046" sparseCutoff=".83270843014687923"/>
      <sparseX i="14" alpha="312.86458304789249" sparseCutoff=".75931906614835187"/>
      <sparseX i="15" alpha="615.68909459117447" sparseCutoff=".19584810739156078E-002"/>
      <sparseX i="16" alpha="4331.5034413561471" sparseCutoff=".85958925873827863"/>
      <sparseX i="17" alpha="3755.7724255101230" sparseCutoff=".98760705328825338"/>
      <sparseX i="18" alpha="4847.5331992090296" sparseCutoff=".97459072626881160"/>
      <sparseX i="19" alpha="512.67088561564935" sparseCutoff=".99997914788114795"/>
      <sparseX i="20" alpha="-1754.7162939207003" sparseCutoff="1.0000000000000000"/>
      <sparseX i="21" alpha="-4682.7223050859766" sparseCutoff="1.0000000000000000"/>
      <sparseX i="22" alpha="-5546.0223832748352" sparseCutoff="1.0000000000000000"/>
      <sparseX i="23" alpha="5584.2365874163379" sparseCutoff=".15947487563591406"/>
      <sparseX i="24" alpha="-5437.1379944898854" sparseCutoff="1.0000000000000000"/>
      <sparseX i="25" alpha="-69.427895216332999" sparseCutoff="1.0000000000000000"/>
      <sparseX i="26" alpha="-6150.3445246522006" sparseCutoff=".52924976080333519"/>
      <sparseX i="27" alpha="4677.4868842797614" sparseCutoff=".87024943036275015"/>
      <sparseX i="28" alpha="-5838.4960433694305" sparseCutoff=".44662922830999718"/>
      <sparseX i="29" alpha="4286.9792614697117" sparseCutoff=".21055093123495960E-001"/>
      <sparseX i="30" alpha="5829.1058714935189" sparseCutoff=".93046400712783384"/>
      <sparseX i="31" alpha="806.71173354961581" sparseCutoff=".25544395900862421"/>
      <sparseX i="32" alpha="1823.1706404168319" sparseCutoff=".67695686130226362E-002"/>
      <sparseX i="33" alpha="-177.82840353913974" sparseCutoff=".74762505560892589"/>
      <sparseX i="34" alpha="7384.4736840043006" sparseCutoff=".66968843363238828E-001"/>
      <sparseX i="35" alpha="1399.8834413381430" sparseCutoff=".99898742735560386"/>
      <sparseX i="36" alpha="-4368.7882961939476" sparseCutoff="1.0000000000000000"/>
      <sparseX i="37" alpha="-5571.7410181382065" sparseCutoff="1.0000000000000000"/>
      <sparseX i="38" alpha="-2630.0966655929587" sparseCutoff="1.0000000000000000"/>
      <sparseX i="39" alpha="1869.7335894155724" sparseCutoff="1.0000000000000000"/>
      <sparseX i="40" alpha="10331.764873689981" sparseCutoff="1.0000000000000000"/>
    </gpCoordinates>
    <gpCoordinates label="GAP_2020_2_11_0_18_44_47_6012" dimensions="1" signal_variance=".66000000000000003E-001" signal_mean=".00000000000000000E+000" sparsified="T" n_permutations="1" covariance_type="1" n_sparseX="40" sparseX_filename="gap.xml.sparseX.GAP_2020_2_11_0_18_44_47_6012" sparseX_md5sum="">
      <theta>  0.10000000000000000E+001 </theta>
      <descriptor>distance_2b compact_clusters=T cutoff=4.0 config_type_n_sparse=crystal:25:amorph:15 cutoff_transition_width=1.0 sparse_method=uniform delta=0.066 covariance_type=ard_se theta_uniform=1             Z1=72 Z2=8</descriptor>
      <permutation i="1">1  </permutation>
      <sparseX i="1" alpha="-8609.3390969311586" sparseCutoff=".51694926922239115"/>
      <sparseX i="2" alpha="11097.475763706780" sparseCutoff="1.0000000000000000"/>
      <sparseX i="3" alpha="26475.274340921122" sparseCutoff="1.0000000000000000"/>
      <sparseX i="4" alpha="-222.42717921147121" sparseCutoff="1.0000000000000000"/>
      <sparseX i="5" alpha="5516.0240538052494" sparseCutoff=".37573959373962573E-001"/>
      <sparseX i="6" alpha="29374.803844755199" sparseCutoff="1.0000000000000000"/>
      <sparseX i="7" alpha="-19056.167303944509" sparseCutoff="1.0000000000000000"/>
      <sparseX i="8" alpha="33403.397569112218" sparseCutoff="1.0000000000000000"/>
      <sparseX i="9" alpha="-54297.072723189791" sparseCutoff="1.0000000000000000"/>
      <sparseX i="10" alpha="-3401.9538641204335" sparseCutoff="1.0000000000000000"/>
      <sparseX i="11" alpha="14590.490571687906" sparseCutoff=".17899685999552400"/>
      <sparseX i="12" alpha="-30332.057812115119" sparseCutoff="1.0000000000000000"/>
      <sparseX i="13" alpha="14415.622659100100" sparseCutoff=".97753560990548594"/>
      <sparseX i="14" alpha=".61905834822568306" sparseCutoff=".59432041467077923E-005"/>
      <sparseX i="15" alpha="-20117.750834057351" sparseCutoff="1.0000000000000000"/>
      <sparseX i="16" alpha="-43815.300822037178" sparseCutoff="1.0000000000000000"/>
      <sparseX i="17" alpha="10712.909851958764" sparseCutoff="1.0000000000000000"/>
      <sparseX i="18" alpha="4827.2309028483323" sparseCutoff=".92874295429009768"/>
      <sparseX i="19" alpha="-15747.334684052348" sparseCutoff=".65954564753315248"/>
      <sparseX i="20" alpha="6156.0058929565639" sparseCutoff=".34543770271185481"/>
      <sparseX i="21" alpha="7708.5880035890741" sparseCutoff=".54494936549360162E-001"/>
      <sparseX i="22" alpha="-9652.4973235822235" sparseCutoff=".82475807104378640"/>
      <sparseX i="23" alpha="18318.892571507291" sparseCutoff="1.0000000000000000"/>
      <sparseX i="24" alpha="-24764.733809804580" sparseCutoff="1.0000000000000000"/>
      <sparseX i="25" alpha="94710.947954411327" sparseCutoff="1.0000000000000000"/>
      <sparseX i="26" alpha="31478.471724823579" sparseCutoff="1.0000000000000000"/>
      <sparseX i="27" alpha="20563.799706303602" sparseCutoff="1.0000000000000000"/>
      <sparseX i="28" alpha="19401.804073773186" sparseCutoff="1.0000000000000000"/>
      <sparseX i="29" alpha="-19749.442481992079" sparseCutoff="1.0000000000000000"/>
      <sparseX i="30" alpha="-57863.655837176455" sparseCutoff="1.0000000000000000"/>
      <sparseX i="31" alpha="-7307.6176612955715" sparseCutoff=".84687555911941548"/>
      <sparseX i="32" alpha="-3512.0510365669466" sparseCutoff="1.0000000000000000"/>
      <sparseX i="33" alpha="11058.054494828844" sparseCutoff=".87178335968510934E-001"/>
      <sparseX i="34" alpha="5144.3711048573878" sparseCutoff=".35749373003538776"/>
      <sparseX i="35" alpha="18480.631080258161" sparseCutoff=".99986598591845710"/>
      <sparseX i="36" alpha=".54428556214621712E-001" sparseCutoff=".52777981940366203E-006"/>
      <sparseX i="37" alpha="-14628.267631166982" sparseCutoff=".61906489882907789"/>
      <sparseX i="38" alpha="8199.9585633171519" sparseCutoff=".94673973595377947"/>
      <sparseX i="39" alpha="-24723.265195605291" sparseCutoff="1.0000000000000000"/>
      <sparseX i="40" alpha="-8264.3557717058975" sparseCutoff="1.0000000000000000"/>
    </gpCoordinates>
    <gpCoordinates label="GAP_2020_2_11_0_18_44_47_6013" dimensions="1" signal_variance=".66000000000000003E-001" signal_mean=".00000000000000000E+000" sparsified="T" n_permutations="1" covariance_type="1" n_sparseX="40" sparseX_filename="gap.xml.sparseX.GAP_2020_2_11_0_18_44_47_6013" sparseX_md5sum="">
      <theta>  0.10000000000000000E+001 </theta>
      <descriptor>distance_2b compact_clusters=T cutoff=4.0 config_type_n_sparse=crystal:25:amorph:15 cutoff_transition_width=1.0 sparse_method=uniform delta=0.066 covariance_type=ard_se theta_uniform=1             Z1=8 Z2=8</descriptor>
      <permutation i="1">1  </permutation>
      <sparseX i="1" alpha="2.3302945444625012" sparseCutoff=".16321980379952472E-002"/>
      <sparseX i="2" alpha="-8673.4814435283952" sparseCutoff=".78934836676748810"/>
      <sparseX i="3" alpha="6862.9715971555352" sparseCutoff="1.0000000000000000"/>
      <sparseX i="4" alpha="-9138.9600239289266" sparseCutoff="1.0000000000000000"/>
      <sparseX i="5" alpha="-7901.6020578861080" sparseCutoff=".83354127619049112"/>
      <sparseX i="6" alpha="7818.3122326007224" sparseCutoff="1.0000000000000000"/>
      <sparseX i="7" alpha="3443.1039266923985" sparseCutoff=".39532445047737402"/>
      <sparseX i="8" alpha="6834.7770458965651" sparseCutoff=".15935807474292285"/>
      <sparseX i="9" alpha="183.35567019469673" sparseCutoff="1.0000000000000000"/>
      <sparseX i="10" alpha="485.47392605228532" sparseCutoff=".15466546255783198E-001"/>
      <sparseX i="11" alpha="8550.2990072738303" sparseCutoff="1.0000000000000000"/>
      <sparseX i="12" alpha="7155.3477179002648" sparseCutoff=".26209981167652141"/>
      <sparseX i="13" alpha="-3896.4490896646194" sparseCutoff=".56568937647575868"/>
      <sparseX i="14" alpha="3097.2317307405301" sparseCutoff=".98449203405050778"/>
      <sparseX i="15" alpha="-7208.8356356667891" sparseCutoff="1.0000000000000000"/>
      <sparseX i="16" alpha="2064.1134639734323" sparseCutoff="1.0000000000000000"/>
      <sparseX i="17" alpha="-7900.7840017229328" sparseCutoff="1.0000000000000000"/>
      <sparseX i="18" alpha="-1975.3514662375942" sparseCutoff="1.0000000000000000"/>
      <sparseX i="19" alpha="11661.392522580549" sparseCutoff="1.0000000000000000"/>
      <sparseX i="20" alpha="8584.5395354737611" sparseCutoff="1.0000000000000000"/>
      <sparseX i="21" alpha="-3576.3506691584125" sparseCutoff="1.0000000000000000"/>
      <sparseX i="22" alpha="3511.1310012090935" sparseCutoff=".70437496659129462E-001"/>
      <sparseX i="23" alpha="-7120.9870271306618" sparseCutoff="1.0000000000000000"/>
      <sparseX i="24" alpha="-34909.699316884136" sparseCutoff="1.0000000000000000"/>
      <sparseX i="25" alpha="34035.061155430216" sparseCutoff="1.0000000000000000"/>
      <sparseX i="26" alpha="981.08870962326466" sparseCutoff="1.0000000000000000"/>
      <sparseX i="27" alpha="7588.0853286398278" sparseCutoff="1.0000000000000000"/>
      <sparseX i="28" alpha="-7382.4024309831111" sparseCutoff="1.0000000000000000"/>
      <sparseX i="29" alpha="3157.3280522052823" sparseCutoff=".63814955625580372E-001"/>
      <sparseX i="30" alpha="10361.324263478211" sparseCutoff="1.0000000000000000"/>
      <sparseX i="31" alpha="-1062.6017417035569" sparseCutoff=".95053243574394908"/>
      <sparseX i="32" alpha="4502.9101459830608" sparseCutoff="1.0000000000000000"/>
      <sparseX i="33" alpha="-5129.7574972935190" sparseCutoff=".59678608089037388"/>
      <sparseX i="34" alpha="-2278.9880526521670" sparseCutoff=".52775488217099908"/>
      <sparseX i="35" alpha="-7428.2851252449273" sparseCutoff="1.0000000000000000"/>
      <sparseX i="36" alpha="7415.5197745927981" sparseCutoff=".20600149103230558"/>
      <sparseX i="37" alpha="9.5042265909528361" sparseCutoff=".21922944176021031E-002"/>
      <sparseX i="38" alpha="424.15444342973086" sparseCutoff="1.0000000000000000"/>
      <sparseX i="39" alpha="9718.6761563414766" sparseCutoff="1.0000000000000000"/>
      <sparseX i="40" alpha="-14488.420842160285" sparseCutoff="1.0000000000000000"/>
    </gpCoordinates>
    <gpCoordinates label="GAP_2020_2_11_0_18_44_47_6014" dimensions="547" signal_variance=".54000000000000004" signal_mean=".00000000000000000E+000" sparsified="T" n_permutations="1" covariance_type="2" zeta="4.0000000000000000" n_sparseX="2600" sparseX_filename="gap.xml.sparseX.GAP_2020_2_11_0_18_44_47_6014" sparseX_md5sum="">
      <descriptor> soap cutoff=4.0 covariance_type=dot_product config_type_n_sparse=crystal:1900:amorph:700 sparse_method=cur_points delta=0.54 zeta=4 l_max=6 n_max=6 atom_sigma=0.5 cutoff_transition_width=1.0             n_species=2 Z=72 species_Z={72 8 }</descriptor>
      <permutation i="1">1  </permutation>
      <sparseX i="1" alpha="8269.3005690884802" sparseCutoff="1.0000000000000000"/>
      <sparseX i="2" alpha="-3394.4403796758565" sparseCutoff="1.0000000000000000"/>
      <sparseX i="3" alpha="-4463.9342952314355" sparseCutoff="1.0000000000000000"/>
      <sparseX i="4" alpha="19079.001098654575" sparseCutoff="1.0000000000000000"/>
      <sparseX i="5" alpha="721.50651866329486" sparseCutoff="1.0000000000000000"/>
      <sparseX i="6" alpha="5745.0636380431888" sparseCutoff="1.0000000000000000"/>
      <sparseX i="7" alpha="81.352495025891443" sparseCutoff="1.0000000000000000"/>
      <sparseX i="8" alpha="2102.8059755001518" sparseCutoff="1.0000000000000000"/>
      <sparseX i="9" alpha="5310.0242369146654" sparseCutoff="1.0000000000000000"/>
      <sparseX i="10" alpha="5124.3778102544238" sparseCutoff="1.0000000000000000"/>
      <sparseX i="11" alpha="-6572.8845309622566" sparseCutoff="1.0000000000000000"/>
      <sparseX i="12" alpha="1055.0683338181843" sparseCutoff="1.0000000000000000"/>
      <sparseX i="13" alpha="-2335.6382512164269" sparseCutoff="1.0000000000000000"/>
      <sparseX i="14" alpha="4414.6846961378687" sparseCutoff="1.0000000000000000"/>
      <sparseX i="15" alpha="22378.946015924255" sparseCutoff="1.0000000000000000"/>
      <sparseX i="16" alpha="-1996.3284830868520" sparseCutoff="1.0000000000000000"/>
      <sparseX i="17" alpha="10470.247694428863" sparseCutoff="1.0000000000000000"/>
      <sparseX i="18" alpha="-14213.282573437909" sparseCutoff="1.0000000000000000"/>
      <sparseX i="19" alpha="-25337.145584652604" sparseCutoff="1.0000000000000000"/>
      <sparseX i="20" alpha="879.71045312523802" sparseCutoff="1.0000000000000000"/>
      <sparseX i="21" alpha="-28.723557168903206" sparseCutoff="1.0000000000000000"/>
      <sparseX i="22" alpha="-5915.8525981209423" sparseCutoff="1.0000000000000000"/>
      <sparseX i="23" alpha="8335.8379769613766" sparseCutoff="1.0000000000000000"/>
      <sparseX i="24" alpha="9687.7454366152015" sparseCutoff="1.0000000000000000"/>
      <sparseX i="25" alpha="17280.812020082078" sparseCutoff="1.0000000000000000"/>
      <sparseX i="26" alpha="-1396.2573056222147" sparseCutoff="1.0000000000000000"/>
      <sparseX i="27" alpha="-9466.9616934529349" sparseCutoff="1.0000000000000000"/>
      <sparseX i="28" alpha="-1692.5933823030500" sparseCutoff="1.0000000000000000"/>
      <sparseX i="29" alpha="9725.7869138209699" sparseCutoff="1.0000000000000000"/>
      <sparseX i="30" alpha="4019.2493680789089" sparseCutoff="1.0000000000000000"/>
      <sparseX i="31" alpha="6368.1134056383171" sparseCutoff="1.0000000000000000"/>
      <sparseX i="32" alpha="8040.0978606058698" sparseCutoff="1.0000000000000000"/>
      <sparseX i="33" alpha="-3992.0704892640879" sparseCutoff="1.0000000000000000"/>
      <sparseX i="34" alpha="49.478090287812570" sparseCutoff="1.0000000000000000"/>
      <sparseX i="35" alpha="13762.582861327079" sparseCutoff="1.0000000000000000"/>
      <sparseX i="36" alpha="-14213.618980310937" sparseCutoff="1.0000000000000000"/>
      <sparseX i="37" alpha="10055.633861202723" sparseCutoff="1.0000000000000000"/>
      <sparseX i="38" alpha="3526.9554138389858" sparseCutoff="1.0000000000000000"/>
      <sparseX i="39" alpha="-4007.0061815913150" sparseCutoff="1.0000000000000000"/>
      <sparseX i="40" alpha="-2190.1110570326910" sparseCutoff="1.0000000000000000"/>
      <sparseX i="41" alpha="-14659.933963482685" sparseCutoff="1.0000000000000000"/>
      <sparseX i="42" alpha="-2537.9212363089464" sparseCutoff="1.0000000000000000"/>
      <sparseX i="43" alpha="-5299.0226157692096" sparseCutoff="1.0000000000000000"/>
      <sparseX i="44" alpha="6332.8882260437040" sparseCutoff="1.0000000000000000"/>
      <sparseX i="45" alpha="5798.1246257772591" sparseCutoff="1.0000000000000000"/>
      <sparseX i="46" alpha="-7254.6206842331039" sparseCutoff="1.0000000000000000"/>
      <sparseX i="47" alpha="2349.5211904745020" sparseCutoff="1.0000000000000000"/>
      <sparseX i="48" alpha="16062.179659656289" sparseCutoff="1.0000000000000000"/>
      <sparseX i="49" alpha="-654.52380944179072" sparseCutoff="1.0000000000000000"/>
      <sparseX i="50" alpha="3885.8868609965489" sparseCutoff="1.0000000000000000"/>
      <sparseX i="51" alpha="-1427.1221052844976" sparseCutoff="1.0000000000000000"/>
      <sparseX i="52" alpha="6951.5090505332746" sparseCutoff="1.0000000000000000"/>
      <sparseX i="53" alpha="-31041.893883670255" sparseCutoff="1.0000000000000000"/>
      <sparseX i="54" alpha="2728.9801099682477" sparseCutoff="1.0000000000000000"/>
      <sparseX i="55" alpha="-16709.812448202694" sparseCutoff="1.0000000000000000"/>
      <sparseX i="56" alpha="-5910.1555803225847" sparseCutoff="1.0000000000000000"/>
      <sparseX i="57" alpha="-395.05595121409823" sparseCutoff="1.0000000000000000"/>
      <sparseX i="58" alpha="2523.3594212483545" sparseCutoff="1.0000000000000000"/>
      <sparseX i="59" alpha="-1070.3175787776015" sparseCutoff="1.0000000000000000"/>
      <sparseX i="60" alpha="3062.5412024570801" sparseCutoff="1.0000000000000000"/>
      <sparseX i="61" alpha="4193.0015445233466" sparseCutoff="1.0000000000000000"/>
      <sparseX i="62" alpha="-7922.0827110463770" sparseCutoff="1.0000000000000000"/>
      <sparseX i="63" alpha="-1708.5963189577822" sparseCutoff="1.0000000000000000"/>
      <sparseX i="64" alpha="8109.3519988494081" sparseCutoff="1.0000000000000000"/>
      <sparseX i="65" alpha="-1785.0919549013142" sparseCutoff="1.0000000000000000"/>
      <sparseX i="66" alpha="-512.89984595627436" sparseCutoff="1.0000000000000000"/>
      <sparseX i="67" alpha="8991.3103946711344" sparseCutoff="1.0000000000000000"/>
      <sparseX i="68" alpha="-1430.4237397733455" sparseCutoff="1.0000000000000000"/>
      <sparseX i="69" alpha="-1054.3587208838978" sparseCutoff="1.0000000000000000"/>
      <sparseX i="70" alpha="3542.4132906525301" sparseCutoff="1.0000000000000000"/>
      <sparseX i="71" alpha="-4047.9853051319215" sparseCutoff="1.0000000000000000"/>
      <sparseX i="72" alpha="11004.588354790678" sparseCutoff="1.0000000000000000"/>
      <sparseX i="73" alpha="8910.1444034383057" sparseCutoff="1.0000000000000000"/>
      <sparseX i="74" alpha="1521.2092440668871" sparseCutoff="1.0000000000000000"/>
      <sparseX i="75" alpha="-11390.892986044149" sparseCutoff="1.0000000000000000"/>
      <sparseX i="76" alpha="-5341.8616211719091" sparseCutoff="1.0000000000000000"/>
      <sparseX i="77" alpha="-6948.4832485500165" sparseCutoff="1.0000000000000000"/>
      <sparseX i="78" alpha="14138.597376625034" sparseCutoff="1.0000000000000000"/>
      <sparseX i="79" alpha="-9668.0635421561765" sparseCutoff="1.0000000000000000"/>
      <sparseX i="80" alpha="-11786.129330130147" sparseCutoff="1.0000000000000000"/>
      <sparseX i="81" alpha="-23172.772597976546" sparseCutoff="1.0000000000000000"/>
      <sparseX i="82" alpha="2190.9011791138305" sparseCutoff="1.0000000000000000"/>
      <sparseX i="83" alpha="18130.917503079978" sparseCutoff="1.0000000000000000"/>
      <sparseX i="84" alpha="3033.2545823336263" sparseCutoff="1.0000000000000000"/>
      <sparseX i="85" alpha="-3691.7563921691089" sparseCutoff="1.0000000000000000"/>
      <sparseX i="86" alpha="4658.4474543935812" sparseCutoff="1.0000000000000000"/>
      <sparseX i="87" alpha="-5674.2064062591853" sparseCutoff="1.0000000000000000"/>
      <sparseX i="88" alpha="-15085.666357979844" sparseCutoff="1.0000000000000000"/>
      <sparseX i="89" alpha="-12055.053762910640" sparseCutoff="1.0000000000000000"/>
      <sparseX i="90" alpha="-1330.1067960348184" sparseCutoff="1.0000000000000000"/>
      <sparseX i="91" alpha="-4423.6979518084163" sparseCutoff="1.0000000000000000"/>
      <sparseX i="92" alpha="4209.2236919820971" sparseCutoff="1.0000000000000000"/>
      <sparseX i="93" alpha="4972.0743498285829" sparseCutoff="1.0000000000000000"/>
      <sparseX i="94" alpha="3427.1074920757064" sparseCutoff="1.0000000000000000"/>
      <sparseX i="95" alpha="-12087.492600502153" sparseCutoff="1.0000000000000000"/>
      <sparseX i="96" alpha="5085.6480179181526" sparseCutoff="1.0000000000000000"/>
      <sparseX i="97" alpha="5755.3458730936472" sparseCutoff="1.0000000000000000"/>
      <sparseX i="98" alpha="-20640.241659966647" sparseCutoff="1.0000000000000000"/>
      <sparseX i="99" alpha="-18965.019582386296" sparseCutoff="1.0000000000000000"/>
      <sparseX i="100" alpha="2330.0199838042508" sparseCutoff="1.0000000000000000"/>
      <sparseX i="101" alpha="-1470.6729415000575" sparseCutoff="1.0000000000000000"/>
      <sparseX i="102" alpha="1539.1616540975967" sparseCutoff="1.0000000000000000"/>
      <sparseX i="103" alpha="13621.111661525907" sparseCutoff="1.0000000000000000"/>
      <sparseX i="104" alpha="3897.1023454636047" sparseCutoff="1.0000000000000000"/>
      <sparseX i="105" alpha="2143.3638987733016" sparseCutoff="1.0000000000000000"/>
      <sparseX i="106" alpha="-268.15004841455271" sparseCutoff="1.0000000000000000"/>
      <sparseX i="107" alpha="4600.1307433036645" sparseCutoff="1.0000000000000000"/>
      <sparseX i="108" alpha="-243.16947000415723" sparseCutoff="1.0000000000000000"/>
      <sparseX i="109" alpha="2133.7443284917645" sparseCutoff="1.0000000000000000"/>
      <sparseX i="110" alpha="189.87663339042692" sparseCutoff="1.0000000000000000"/>
      <sparseX i="111" alpha="4047.8158132233716" sparseCutoff="1.0000000000000000"/>
      <sparseX i="112" alpha="-1904.3563605176532" sparseCutoff="1.0000000000000000"/>
      <sparseX i="113" alpha="13085.976979070356" sparseCutoff="1.0000000000000000"/>
      <sparseX i="114" alpha="-2194.8964502662111" sparseCutoff="1.0000000000000000"/>
      <sparseX i="115" alpha="-6581.7777646971472" sparseCutoff="1.0000000000000000"/>
      <sparseX i="116" alpha="-6686.6328393331632" sparseCutoff="1.0000000000000000"/>
      <sparseX i="117" alpha="5452.0418640449607" sparseCutoff="1.0000000000000000"/>
      <sparseX i="118" alpha="4151.9343618852527" sparseCutoff="1.0000000000000000"/>
      <sparseX i="119" alpha="-4411.6825414289669" sparseCutoff="1.0000000000000000"/>
      <sparseX i="120" alpha="8220.7078184000493" sparseCutoff="1.0000000000000000"/>
      <sparseX i="121" alpha="977.53307566011597" sparseCutoff="1.0000000000000000"/>
      <sparseX i="122" alpha="-4007.5437069784466" sparseCutoff="1.0000000000000000"/>
      <sparseX i="123" alpha="-14234.506912888783" sparseCutoff="1.0000000000000000"/>
      <sparseX i="124" alpha="-1462.5636482403702" sparseCutoff="1.0000000000000000"/>
      <sparseX i="125" alpha="-6471.5777070168488" sparseCutoff="1.0000000000000000"/>
      <sparseX i="126" alpha="-1363.9976567606602" sparseCutoff="1.0000000000000000"/>
      <sparseX i="127" alpha="-19441.620084838363" sparseCutoff="1.0000000000000000"/>
      <sparseX i="128" alpha="260.58221216376239" sparseCutoff="1.0000000000000000"/>
      <sparseX i="129" alpha="-8948.9905834344063" sparseCutoff="1.0000000000000000"/>
      <sparseX i="130" alpha="-117.18991618522651" sparseCutoff="1.0000000000000000"/>
      <sparseX i="131" alpha="-1896.7671982149136" sparseCutoff="1.0000000000000000"/>
      <sparseX i="132" alpha="-325.30048093518371" sparseCutoff="1.0000000000000000"/>
      <sparseX i="133" alpha="-3044.1835427212582" sparseCutoff="1.0000000000000000"/>
      <sparseX i="134" alpha="1230.5448896803746" sparseCutoff="1.0000000000000000"/>
      <sparseX i="135" alpha="9527.7691265335798" sparseCutoff="1.0000000000000000"/>
      <sparseX i="136" alpha="10481.278752898064" sparseCutoff="1.0000000000000000"/>
      <sparseX i="137" alpha="11683.214101020929" sparseCutoff="1.0000000000000000"/>
      <sparseX i="138" alpha="14784.595215611331" sparseCutoff="1.0000000000000000"/>
      <sparseX i="139" alpha="6787.5730554264055" sparseCutoff="1.0000000000000000"/>
      <sparseX i="140" alpha="13873.251257575019" sparseCutoff="1.0000000000000000"/>
      <sparseX i="141" alpha="15632.957537948929" sparseCutoff="1.0000000000000000"/>
      <sparseX i="142" alpha="-37123.957231128144" sparseCutoff="1.0000000000000000"/>
      <sparseX i="143" alpha="6726.4321953798135" sparseCutoff="1.0000000000000000"/>
      <sparseX i="144" alpha="3506.5760053975532" sparseCutoff="1.0000000000000000"/>
      <sparseX i="145" alpha="11658.745825089742" sparseCutoff="1.0000000000000000"/>
      <sparseX i="146" alpha="-6140.0114039720847" sparseCutoff="1.0000000000000000"/>
      <sparseX i="147" alpha="3717.4997921985205" sparseCutoff="1.0000000000000000"/>
      <sparseX i="148" alpha="11850.149507454926" sparseCutoff="1.0000000000000000"/>
      <sparseX i="149" alpha="1870.7431370790655" sparseCutoff="1.0000000000000000"/>
      <sparseX i="150" alpha="-8082.1884359381820" sparseCutoff="1.0000000000000000"/>
      <sparseX i="151" alpha="-11139.905531859677" sparseCutoff="1.0000000000000000"/>
      <sparseX i="152" alpha="-7151.7150362083603" sparseCutoff="1.0000000000000000"/>
      <sparseX i="153" alpha="-22614.522494745976" sparseCutoff="1.0000000000000000"/>
      <sparseX i="154" alpha="-1606.5610999832084" sparseCutoff="1.0000000000000000"/>
      <sparseX i="155" alpha="-1842.3526829188727" sparseCutoff="1.0000000000000000"/>
      <sparseX i="156" alpha="22461.605281210141" sparseCutoff="1.0000000000000000"/>
      <sparseX i="157" alpha="-9935.0955565929744" sparseCutoff="1.0000000000000000"/>
      <sparseX i="158" alpha="-13761.565757541735" sparseCutoff="1.0000000000000000"/>
      <sparseX i="159" alpha="17975.358313064444" sparseCutoff="1.0000000000000000"/>
      <sparseX i="160" alpha="4520.6130109468722" sparseCutoff="1.0000000000000000"/>
      <sparseX i="161" alpha="-1356.4860583437921" sparseCutoff="1.0000000000000000"/>
      <sparseX i="162" alpha="-1054.9232263471372" sparseCutoff="1.0000000000000000"/>
      <sparseX i="163" alpha="-589.65588924394945" sparseCutoff="1.0000000000000000"/>
      <sparseX i="164" alpha="-8850.3349333537863" sparseCutoff="1.0000000000000000"/>
      <sparseX i="165" alpha="-10416.708281453795" sparseCutoff="1.0000000000000000"/>
      <sparseX i="166" alpha="4280.8263741950232" sparseCutoff="1.0000000000000000"/>
      <sparseX i="167" alpha="-3561.6002922118428" sparseCutoff="1.0000000000000000"/>
      <sparseX i="168" alpha="6284.3547440933880" sparseCutoff="1.0000000000000000"/>
      <sparseX i="169" alpha="-7050.7495904371208" sparseCutoff="1.0000000000000000"/>
      <sparseX i="170" alpha="-1766.8343816783711" sparseCutoff="1.0000000000000000"/>
      <sparseX i="171" alpha="-1704.2388891621881" sparseCutoff="1.0000000000000000"/>
      <sparseX i="172" alpha="889.60797138114344" sparseCutoff="1.0000000000000000"/>
      <sparseX i="173" alpha="323.55461631573860" sparseCutoff="1.0000000000000000"/>
      <sparseX i="174" alpha="18317.923166605520" sparseCutoff="1.0000000000000000"/>
      <sparseX i="175" alpha="-6263.1629184071871" sparseCutoff="1.0000000000000000"/>
      <sparseX i="176" alpha="-9677.8272990530186" sparseCutoff="1.0000000000000000"/>
      <sparseX i="177" alpha="-700.62969949160606" sparseCutoff="1.0000000000000000"/>
      <sparseX i="178" alpha="136.97886705532636" sparseCutoff="1.0000000000000000"/>
      <sparseX i="179" alpha="-2136.4403019127435" sparseCutoff="1.0000000000000000"/>
      <sparseX i="180" alpha="1281.0735246656322" sparseCutoff="1.0000000000000000"/>
      <sparseX i="181" alpha="6513.9793163882568" sparseCutoff="1.0000000000000000"/>
      <sparseX i="182" alpha="-51209.572793253210" sparseCutoff="1.0000000000000000"/>
      <sparseX i="183" alpha="-7388.4863220178258" sparseCutoff="1.0000000000000000"/>
      <sparseX i="184" alpha="9243.5580817749087" sparseCutoff="1.0000000000000000"/>
      <sparseX i="185" alpha="2273.2299303371701" sparseCutoff="1.0000000000000000"/>
      <sparseX i="186" alpha="-12534.862978364310" sparseCutoff="1.0000000000000000"/>
      <sparseX i="187" alpha="-18670.175068154826" sparseCutoff="1.0000000000000000"/>
      <sparseX i="188" alpha="-14247.171009725222" sparseCutoff="1.0000000000000000"/>
      <sparseX i="189" alpha="18486.124429047311" sparseCutoff="1.0000000000000000"/>
      <sparseX i="190" alpha="620.62322053440823" sparseCutoff="1.0000000000000000"/>
      <sparseX i="191" alpha="-3817.2641418531948" sparseCutoff="1.0000000000000000"/>
      <sparseX i="192" alpha="-3411.9594099032820" sparseCutoff="1.0000000000000000"/>
      <sparseX i="193" alpha="-517.53483973767311" sparseCutoff="1.0000000000000000"/>
      <sparseX i="194" alpha="3121.1947683809071" sparseCutoff="1.0000000000000000"/>
      <sparseX i="195" alpha="769.05205697703366" sparseCutoff="1.0000000000000000"/>
      <sparseX i="196" alpha="-2593.6284339931726" sparseCutoff="1.0000000000000000"/>
      <sparseX i="197" alpha="-1655.2837733835777" sparseCutoff="1.0000000000000000"/>
      <sparseX i="198" alpha="1909.5659481371874" sparseCutoff="1.0000000000000000"/>
      <sparseX i="199" alpha="-8087.4481452896589" sparseCutoff="1.0000000000000000"/>
      <sparseX i="200" alpha="-869.43074050962264" sparseCutoff="1.0000000000000000"/>
      <sparseX i="201" alpha="-1268.5797355110387" sparseCutoff="1.0000000000000000"/>
      <sparseX i="202" alpha="-1877.5252813231959" sparseCutoff="1.0000000000000000"/>
      <sparseX i="203" alpha="-5405.7882661557778" sparseCutoff="1.0000000000000000"/>
      <sparseX i="204" alpha="2073.1028027063994" sparseCutoff="1.0000000000000000"/>
      <sparseX i="205" alpha="-275.72901157327118" sparseCutoff="1.0000000000000000"/>
      <sparseX i="206" alpha="25183.828480320237" sparseCutoff="1.0000000000000000"/>
      <sparseX i="207" alpha="1833.1167463737047" sparseCutoff="1.0000000000000000"/>
      <sparseX i="208" alpha="-1152.9210728290182" sparseCutoff="1.0000000000000000"/>
      <sparseX i="209" alpha="-9492.8638542631961" sparseCutoff="1.0000000000000000"/>
      <sparseX i="210" alpha="5564.6277266389507" sparseCutoff="1.0000000000000000"/>
      <sparseX i="211" alpha="-1620.5057616895961" sparseCutoff="1.0000000000000000"/>
      <sparseX i="212" alpha="775.03982102742089" sparseCutoff="1.0000000000000000"/>
      <sparseX i="213" alpha="-3086.5238542955931" sparseCutoff="1.0000000000000000"/>
      <sparseX i="214" alpha="-326.78132385020467" sparseCutoff="1.0000000000000000"/>
      <sparseX i="215" alpha="-3093.0286272122721" sparseCutoff="1.0000000000000000"/>
      <sparseX i="216" alpha="-3245.9437599282742" sparseCutoff="1.0000000000000000"/>
      <sparseX i="217" alpha="-7880.9218809108470" sparseCutoff="1.0000000000000000"/>
      <sparseX i="218" alpha="-6882.8035010939466" sparseCutoff="1.0000000000000000"/>
      <sparseX i="219" alpha="631.80545917653910" sparseCutoff="1.0000000000000000"/>
      <sparseX i="220" alpha="-4459.8173440057271" sparseCutoff="1.0000000000000000"/>
      <sparseX i="221" alpha="1700.1128351453001" sparseCutoff="1.0000000000000000"/>
      <sparseX i="222" alpha="7125.4325672439381" sparseCutoff="1.0000000000000000"/>
      <sparseX i="223" alpha="-14086.734692564291" sparseCutoff="1.0000000000000000"/>
      <sparseX i="224" alpha="271.69579823012856" sparseCutoff="1.0000000000000000"/>
      <sparseX i="225" alpha="1486.8167206932717" sparseCutoff="1.0000000000000000"/>
      <sparseX i="226" alpha="-2744.4412092283455" sparseCutoff="1.0000000000000000"/>
      <sparseX i="227" alpha="473.51580651290476" sparseCutoff="1.0000000000000000"/>
      <sparseX i="228" alpha="6084.5366585592983" sparseCutoff="1.0000000000000000"/>
      <sparseX i="229" alpha="-3453.6387982068650" sparseCutoff="1.0000000000000000"/>
      <sparseX i="230" alpha="1697.0058312459212" sparseCutoff="1.0000000000000000"/>
      <sparseX i="231" alpha="-7695.2744257078884" sparseCutoff="1.0000000000000000"/>
      <sparseX i="232" alpha="1600.7818257427614" sparseCutoff="1.0000000000000000"/>
      <sparseX i="233" alpha="64.957588766288353" sparseCutoff="1.0000000000000000"/>
      <sparseX i="234" alpha="-2158.9610784976289" sparseCutoff="1.0000000000000000"/>
      <sparseX i="235" alpha="2052.5373067640353" sparseCutoff="1.0000000000000000"/>
      <sparseX i="236" alpha="-4496.5987600047174" sparseCutoff="1.0000000000000000"/>
      <sparseX i="237" alpha="-3848.6620187916405" sparseCutoff="1.0000000000000000"/>
      <sparseX i="238" alpha="-2969.1220485351578" sparseCutoff="1.0000000000000000"/>
      <sparseX i="239" alpha="-16.223267717612515" sparseCutoff="1.0000000000000000"/>
      <sparseX i="240" alpha="-15403.026641548910" sparseCutoff="1.0000000000000000"/>
      <sparseX i="241" alpha="-9392.2461625872766" sparseCutoff="1.0000000000000000"/>
      <sparseX i="242" alpha="-5925.3388031557679" sparseCutoff="1.0000000000000000"/>
      <sparseX i="243" alpha="17197.738234685028" sparseCutoff="1.0000000000000000"/>
      <sparseX i="244" alpha="13175.678052982094" sparseCutoff="1.0000000000000000"/>
      <sparseX i="245" alpha="5280.1025571345299" sparseCutoff="1.0000000000000000"/>
      <sparseX i="246" alpha="-3534.4367120329903" sparseCutoff="1.0000000000000000"/>
      <sparseX i="247" alpha="-7819.0485996616781" sparseCutoff="1.0000000000000000"/>
      <sparseX i="248" alpha="-3701.9166451972415" sparseCutoff="1.0000000000000000"/>
      <sparseX i="249" alpha="2120.6745058084784" sparseCutoff="1.0000000000000000"/>
      <sparseX i="250" alpha="11746.251495989478" sparseCutoff="1.0000000000000000"/>
      <sparseX i="251" alpha="7159.1440612417719" sparseCutoff="1.0000000000000000"/>
      <sparseX i="252" alpha="-6440.1205122085976" sparseCutoff="1.0000000000000000"/>
      <sparseX i="253" alpha="-1561.2924390261792" sparseCutoff="1.0000000000000000"/>
      <sparseX i="254" alpha="-19244.813089286079" sparseCutoff="1.0000000000000000"/>
      <sparseX i="255" alpha="6368.7274351016313" sparseCutoff="1.0000000000000000"/>
      <sparseX i="256" alpha="4921.6089741782080" sparseCutoff="1.0000000000000000"/>
      <sparseX i="257" alpha="-3578.5125564602454" sparseCutoff="1.0000000000000000"/>
      <sparseX i="258" alpha="-5514.0373819164852" sparseCutoff="1.0000000000000000"/>
      <sparseX i="259" alpha="-5695.4460169398799" sparseCutoff="1.0000000000000000"/>
      <sparseX i="260" alpha="-14883.119500648607" sparseCutoff="1.0000000000000000"/>
      <sparseX i="261" alpha="-14088.377398961542" sparseCutoff="1.0000000000000000"/>
      <sparseX i="262" alpha="-15236.972438105668" sparseCutoff="1.0000000000000000"/>
      <sparseX i="263" alpha="11287.372046868570" sparseCutoff="1.0000000000000000"/>
      <sparseX i="264" alpha="-1234.5747812005668" sparseCutoff="1.0000000000000000"/>
      <sparseX i="265" alpha="-22266.111054159057" sparseCutoff="1.0000000000000000"/>
      <sparseX i="266" alpha="3622.6915563623566" sparseCutoff="1.0000000000000000"/>
      <sparseX i="267" alpha="4923.2016517660895" sparseCutoff="1.0000000000000000"/>
      <sparseX i="268" alpha="-8694.6939033657509" sparseCutoff="1.0000000000000000"/>
      <sparseX i="269" alpha="-14814.243805838047" sparseCutoff="1.0000000000000000"/>
      <sparseX i="270" alpha="-3220.1622514479777" sparseCutoff="1.0000000000000000"/>
      <sparseX i="271" alpha="3609.6292792635836" sparseCutoff="1.0000000000000000"/>
      <sparseX i="272" alpha="-19020.976936336523" sparseCutoff="1.0000000000000000"/>
      <sparseX i="273" alpha="6128.9146298781397" sparseCutoff="1.0000000000000000"/>
      <sparseX i="274" alpha="-142.36845097019633" sparseCutoff="1.0000000000000000"/>
      <sparseX i="275" alpha="-5439.8174808849562" sparseCutoff="1.0000000000000000"/>
      <sparseX i="276" alpha="16359.424020386119" sparseCutoff="1.0000000000000000"/>
      <sparseX i="277" alpha="-270.03727818781840" sparseCutoff="1.0000000000000000"/>
      <sparseX i="278" alpha="10285.226435108274" sparseCutoff="1.0000000000000000"/>
      <sparseX i="279" alpha="7254.5051396295858" sparseCutoff="1.0000000000000000"/>
      <sparseX i="280" alpha="13494.581575656015" sparseCutoff="1.0000000000000000"/>
      <sparseX i="281" alpha="-1491.7196221507616" sparseCutoff="1.0000000000000000"/>
      <sparseX i="282" alpha="-5965.9052316521247" sparseCutoff="1.0000000000000000"/>
      <sparseX i="283" alpha="17396.678254186914" sparseCutoff="1.0000000000000000"/>
      <sparseX i="284" alpha="8142.9685039438791" sparseCutoff="1.0000000000000000"/>
      <sparseX i="285" alpha="1873.8031560741867" sparseCutoff="1.0000000000000000"/>
      <sparseX i="286" alpha="-44313.361683349474" sparseCutoff="1.0000000000000000"/>
      <sparseX i="287" alpha="-3029.5443441326047" sparseCutoff="1.0000000000000000"/>
      <sparseX i="288" alpha="-31953.092195556546" sparseCutoff="1.0000000000000000"/>
      <sparseX i="289" alpha="3896.0443947608956" sparseCutoff="1.0000000000000000"/>
      <sparseX i="290" alpha="2094.3278354626887" sparseCutoff="1.0000000000000000"/>
      <sparseX i="291" alpha="-7311.8371003365182" sparseCutoff="1.0000000000000000"/>
      <sparseX i="292" alpha="-2271.1631790366168" sparseCutoff="1.0000000000000000"/>
      <sparseX i="293" alpha="422.05369385634600" sparseCutoff="1.0000000000000000"/>
      <sparseX i="294" alpha="-3349.6348952364465" sparseCutoff="1.0000000000000000"/>
      <sparseX i="295" alpha="4051.2643698495390" sparseCutoff="1.0000000000000000"/>
      <sparseX i="296" alpha="-1080.0528008570159" sparseCutoff="1.0000000000000000"/>
      <sparseX i="297" alpha="7952.1313459878156" sparseCutoff="1.0000000000000000"/>
      <sparseX i="298" alpha="34089.075043503610" sparseCutoff="1.0000000000000000"/>
      <sparseX i="299" alpha="560.21131933150332" sparseCutoff="1.0000000000000000"/>
      <sparseX i="300" alpha="-3270.0490746846976" sparseCutoff="1.0000000000000000"/>
      <sparseX i="301" alpha="-14480.623361538799" sparseCutoff="1.0000000000000000"/>
      <sparseX i="302" alpha="6136.3300279492341" sparseCutoff="1.0000000000000000"/>
      <sparseX i="303" alpha="11804.053853821688" sparseCutoff="1.0000000000000000"/>
      <sparseX i="304" alpha="29271.872947230557" sparseCutoff="1.0000000000000000"/>
      <sparseX i="305" alpha="12070.695368493212" sparseCutoff="1.0000000000000000"/>
      <sparseX i="306" alpha="2974.2343880628478" sparseCutoff="1.0000000000000000"/>
      <sparseX i="307" alpha="-6012.5453382820351" sparseCutoff="1.0000000000000000"/>
      <sparseX i="308" alpha="-4262.3457212876865" sparseCutoff="1.0000000000000000"/>
      <sparseX i="309" alpha="5371.7795897583383" sparseCutoff="1.0000000000000000"/>
      <sparseX i="310" alpha="-27046.631933324876" sparseCutoff="1.0000000000000000"/>
      <sparseX i="311" alpha="-8870.1963995425340" sparseCutoff="1.0000000000000000"/>
      <sparseX i="312" alpha="-3540.8934315191505" sparseCutoff="1.0000000000000000"/>
      <sparseX i="313" alpha="1059.1722112199493" sparseCutoff="1.0000000000000000"/>
      <sparseX i="314" alpha="-5203.7576313210911" sparseCutoff="1.0000000000000000"/>
      <sparseX i="315" alpha="14054.690004904813" sparseCutoff="1.0000000000000000"/>
      <sparseX i="316" alpha="401.06436847374584" sparseCutoff="1.0000000000000000"/>
      <sparseX i="317" alpha="1697.0303729091743" sparseCutoff="1.0000000000000000"/>
      <sparseX i="318" alpha="-9144.8809348739123" sparseCutoff="1.0000000000000000"/>
      <sparseX i="319" alpha="242.27338973366830" sparseCutoff="1.0000000000000000"/>
      <sparseX i="320" alpha="-4317.0311208049770" sparseCutoff="1.0000000000000000"/>
      <sparseX i="321" alpha="-14844.316180011139" sparseCutoff="1.0000000000000000"/>
      <sparseX i="322" alpha="-2876.3621126798257" sparseCutoff="1.0000000000000000"/>
      <sparseX i="323" alpha="-42167.385403146349" sparseCutoff="1.0000000000000000"/>
      <sparseX i="324" alpha="24146.071974232756" sparseCutoff="1.0000000000000000"/>
      <sparseX i="325" alpha="-3332.1385959231538" sparseCutoff="1.0000000000000000"/>
      <sparseX i="326" alpha="935.12747892511914" sparseCutoff="1.0000000000000000"/>
      <sparseX i="327" alpha="6537.1839865747015" sparseCutoff="1.0000000000000000"/>
      <sparseX i="328" alpha="-2293.3177335480250" sparseCutoff="1.0000000000000000"/>
      <sparseX i="329" alpha="17942.415927043596" sparseCutoff="1.0000000000000000"/>
      <sparseX i="330" alpha="-2528.3556785533960" sparseCutoff="1.0000000000000000"/>
      <sparseX i="331" alpha="19947.326588036522" sparseCutoff="1.0000000000000000"/>
      <sparseX i="332" alpha="-5275.7651679078281" sparseCutoff="1.0000000000000000"/>
      <sparseX i="333" alpha="-9257.6807259982797" sparseCutoff="1.0000000000000000"/>
      <sparseX i="334" alpha="11824.900552994386" sparseCutoff="1.0000000000000000"/>
      <sparseX i="335" alpha="-9398.8263743337575" sparseCutoff="1.0000000000000000"/>
      <sparseX i="336" alpha="-5865.9142598897379" sparseCutoff="1.0000000000000000"/>
      <sparseX i="337" alpha="521.42516845774310" sparseCutoff="1.0000000000000000"/>
      <sparseX i="338" alpha="-4992.4891315842324" sparseCutoff="1.0000000000000000"/>
      <sparseX i="339" alpha="-4288.1777956854294" sparseCutoff="1.0000000000000000"/>
      <sparseX i="340" alpha="3873.2151480396260" sparseCutoff="1.0000000000000000"/>
      <sparseX i="341" alpha="6620.0991782990168" sparseCutoff="1.0000000000000000"/>
      <sparseX i="342" alpha="-9085.5845002223050" sparseCutoff="1.0000000000000000"/>
      <sparseX i="343" alpha="-2914.7833427461069" sparseCutoff="1.0000000000000000"/>
      <sparseX i="344" alpha="-4709.1645142350208" sparseCutoff="1.0000000000000000"/>
      <sparseX i="345" alpha="-16180.244041042351" sparseCutoff="1.0000000000000000"/>
      <sparseX i="346" alpha="-30913.375736257141" sparseCutoff="1.0000000000000000"/>
      <sparseX i="347" alpha="-8868.1329665992798" sparseCutoff="1.0000000000000000"/>
      <sparseX i="348" alpha="-867.14936194834456" sparseCutoff="1.0000000000000000"/>
      <sparseX i="349" alpha="-29877.339216282933" sparseCutoff="1.0000000000000000"/>
      <sparseX i="350" alpha="-9264.3798218632455" sparseCutoff="1.0000000000000000"/>
      <sparseX i="351" alpha="-580.50815635975721" sparseCutoff="1.0000000000000000"/>
      <sparseX i="352" alpha="-33.809029645477139" sparseCutoff="1.0000000000000000"/>
      <sparseX i="353" alpha="-4355.9440344474588" sparseCutoff="1.0000000000000000"/>
      <sparseX i="354" alpha="-3448.6579739189556" sparseCutoff="1.0000000000000000"/>
      <sparseX i="355" alpha="11774.798708849625" sparseCutoff="1.0000000000000000"/>
      <sparseX i="356" alpha="3092.1030357595660" sparseCutoff="1.0000000000000000"/>
      <sparseX i="357" alpha="16786.502616345308" sparseCutoff="1.0000000000000000"/>
      <sparseX i="358" alpha="7983.7967663728832" sparseCutoff="1.0000000000000000"/>
      <sparseX i="359" alpha="1821.0602931950502" sparseCutoff="1.0000000000000000"/>
      <sparseX i="360" alpha="-937.29700755807380" sparseCutoff="1.0000000000000000"/>
      <sparseX i="361" alpha="-5160.2802958679031" sparseCutoff="1.0000000000000000"/>
      <sparseX i="362" alpha="942.64578757054232" sparseCutoff="1.0000000000000000"/>
      <sparseX i="363" alpha="8381.7361616439339" sparseCutoff="1.0000000000000000"/>
      <sparseX i="364" alpha="3088.4550043404724" sparseCutoff="1.0000000000000000"/>
      <sparseX i="365" alpha="229.80017630076370" sparseCutoff="1.0000000000000000"/>
      <sparseX i="366" alpha="-8011.8040547087630" sparseCutoff="1.0000000000000000"/>
      <sparseX i="367" alpha="35333.412675280131" sparseCutoff="1.0000000000000000"/>
      <sparseX i="368" alpha="-3659.0193385172338" sparseCutoff="1.0000000000000000"/>
      <sparseX i="369" alpha="-8995.9587208106605" sparseCutoff="1.0000000000000000"/>
      <sparseX i="370" alpha="5345.2618430550710" sparseCutoff="1.0000000000000000"/>
      <sparseX i="371" alpha="2486.9406118921092" sparseCutoff="1.0000000000000000"/>
      <sparseX i="372" alpha="1198.2230456787454" sparseCutoff="1.0000000000000000"/>
      <sparseX i="373" alpha="-6253.8636158721038" sparseCutoff="1.0000000000000000"/>
      <sparseX i="374" alpha="-4080.9761224706199" sparseCutoff="1.0000000000000000"/>
      <sparseX i="375" alpha="1878.7272082046934" sparseCutoff="1.0000000000000000"/>
      <sparseX i="376" alpha="5921.9978854623469" sparseCutoff="1.0000000000000000"/>
      <sparseX i="377" alpha="-8491.9799960636246" sparseCutoff="1.0000000000000000"/>
      <sparseX i="378" alpha="-129.20926090726567" sparseCutoff="1.0000000000000000"/>
      <sparseX i="379" alpha="1800.8626336389032" sparseCutoff="1.0000000000000000"/>
      <sparseX i="380" alpha="2675.5397479244784" sparseCutoff="1.0000000000000000"/>
      <sparseX i="381" alpha="-388.44823075096429" sparseCutoff="1.0000000000000000"/>
      <sparseX i="382" alpha="-22601.479842864657" sparseCutoff="1.0000000000000000"/>
      <sparseX i="383" alpha="7157.8333955913859" sparseCutoff="1.0000000000000000"/>
      <sparseX i="384" alpha="-3505.7702269169381" sparseCutoff="1.0000000000000000"/>
      <sparseX i="385" alpha="-10250.034056152877" sparseCutoff="1.0000000000000000"/>
      <sparseX i="386" alpha="-807.81031677113674" sparseCutoff="1.0000000000000000"/>
      <sparseX i="387" alpha="-7860.2116151952096" sparseCutoff="1.0000000000000000"/>
      <sparseX i="388" alpha="-3074.5371006667619" sparseCutoff="1.0000000000000000"/>
      <sparseX i="389" alpha="-3370.9194889173509" sparseCutoff="1.0000000000000000"/>
      <sparseX i="390" alpha="-1443.4569302474617" sparseCutoff="1.0000000000000000"/>
      <sparseX i="391" alpha="-598.06929553244527" sparseCutoff="1.0000000000000000"/>
      <sparseX i="392" alpha="6291.1464912401034" sparseCutoff="1.0000000000000000"/>
      <sparseX i="393" alpha="-3025.1099229264273" sparseCutoff="1.0000000000000000"/>
      <sparseX i="394" alpha="1127.4785989611109" sparseCutoff="1.0000000000000000"/>
      <sparseX i="395" alpha="577.28533806729695" sparseCutoff="1.0000000000000000"/>
      <sparseX i="396" alpha="5996.4638137219754" sparseCutoff="1.0000000000000000"/>
      <sparseX i="397" alpha="-1785.8156197890933" sparseCutoff="1.0000000000000000"/>
      <sparseX i="398" alpha="12126.312931827835" sparseCutoff="1.0000000000000000"/>
      <sparseX i="399" alpha="-3260.9593376624507" sparseCutoff="1.0000000000000000"/>
      <sparseX i="400" alpha="2023.3686715298777" sparseCutoff="1.0000000000000000"/>
      <sparseX i="401" alpha="-9238.9726820957931" sparseCutoff="1.0000000000000000"/>
      <sparseX i="402" alpha="-37890.573320646443" sparseCutoff="1.0000000000000000"/>
      <sparseX i="403" alpha="-17298.354751521110" sparseCutoff="1.0000000000000000"/>
      <sparseX i="404" alpha="9107.6046698899827" sparseCutoff="1.0000000000000000"/>
      <sparseX i="405" alpha="-3027.2080966133353" sparseCutoff="1.0000000000000000"/>
      <sparseX i="406" alpha="-4029.4813217734190" sparseCutoff="1.0000000000000000"/>
      <sparseX i="407" alpha="1474.2242325328066" sparseCutoff="1.0000000000000000"/>
      <sparseX i="408" alpha="-915.21125727258311" sparseCutoff="1.0000000000000000"/>
      <sparseX i="409" alpha="1055.9528054617078" sparseCutoff="1.0000000000000000"/>
      <sparseX i="410" alpha="-2950.3254862889912" sparseCutoff="1.0000000000000000"/>
      <sparseX i="411" alpha="6644.4773502014832" sparseCutoff="1.0000000000000000"/>
      <sparseX i="412" alpha="-13098.335774374336" sparseCutoff="1.0000000000000000"/>
      <sparseX i="413" alpha="1345.3717881252951" sparseCutoff="1.0000000000000000"/>
      <sparseX i="414" alpha="-11227.483708370732" sparseCutoff="1.0000000000000000"/>
      <sparseX i="415" alpha="-3215.2307461799469" sparseCutoff="1.0000000000000000"/>
      <sparseX i="416" alpha="-1583.3318681394269" sparseCutoff="1.0000000000000000"/>
      <sparseX i="417" alpha="-7902.8023663561225" sparseCutoff="1.0000000000000000"/>
      <sparseX i="418" alpha="-5202.3896840416310" sparseCutoff="1.0000000000000000"/>
      <sparseX i="419" alpha="11572.247192259674" sparseCutoff="1.0000000000000000"/>
      <sparseX i="420" alpha="-7230.0130051507613" sparseCutoff="1.0000000000000000"/>
      <sparseX i="421" alpha="17842.565068373289" sparseCutoff="1.0000000000000000"/>
      <sparseX i="422" alpha="2814.9063056894338" sparseCutoff="1.0000000000000000"/>
      <sparseX i="423" alpha="-7758.1333925163099" sparseCutoff="1.0000000000000000"/>
      <sparseX i="424" alpha="1552.2443673499968" sparseCutoff="1.0000000000000000"/>
      <sparseX i="425" alpha="1978.2888047615515" sparseCutoff="1.0000000000000000"/>
      <sparseX i="426" alpha="-6028.4391866660562" sparseCutoff="1.0000000000000000"/>
      <sparseX i="427" alpha="19077.524557714551" sparseCutoff="1.0000000000000000"/>
      <sparseX i="428" alpha="20944.677177961847" sparseCutoff="1.0000000000000000"/>
      <sparseX i="429" alpha="-8702.0289431579095" sparseCutoff="1.0000000000000000"/>
      <sparseX i="430" alpha="-8807.2349371274886" sparseCutoff="1.0000000000000000"/>
      <sparseX i="431" alpha="-1083.0209984328967" sparseCutoff="1.0000000000000000"/>
      <sparseX i="432" alpha="15644.317819695794" sparseCutoff="1.0000000000000000"/>
      <sparseX i="433" alpha="2629.4083941312138" sparseCutoff="1.0000000000000000"/>
      <sparseX i="434" alpha="-3658.3107449069184" sparseCutoff="1.0000000000000000"/>
      <sparseX i="435" alpha="-6607.3406242050214" sparseCutoff="1.0000000000000000"/>
      <sparseX i="436" alpha="-5140.6783007639124" sparseCutoff="1.0000000000000000"/>
      <sparseX i="437" alpha="-9947.5039606354585" sparseCutoff="1.0000000000000000"/>
      <sparseX i="438" alpha="-36981.754022900102" sparseCutoff="1.0000000000000000"/>
      <sparseX i="439" alpha="-1001.5600431315114" sparseCutoff="1.0000000000000000"/>
      <sparseX i="440" alpha="-4767.9057958826643" sparseCutoff="1.0000000000000000"/>
      <sparseX i="441" alpha="1532.7257533635300" sparseCutoff="1.0000000000000000"/>
      <sparseX i="442" alpha="-13759.018756161124" sparseCutoff="1.0000000000000000"/>
      <sparseX i="443" alpha="7860.5231771155159" sparseCutoff="1.0000000000000000"/>
      <sparseX i="444" alpha="-1747.4131740771893" sparseCutoff="1.0000000000000000"/>
      <sparseX i="445" alpha="2654.6347956608834" sparseCutoff="1.0000000000000000"/>
      <sparseX i="446" alpha="22798.258676526708" sparseCutoff="1.0000000000000000"/>
      <sparseX i="447" alpha="-2458.3430902617811" sparseCutoff="1.0000000000000000"/>
      <sparseX i="448" alpha="-12827.980581722413" sparseCutoff="1.0000000000000000"/>
      <sparseX i="449" alpha="-18931.397532789051" sparseCutoff="1.0000000000000000"/>
      <sparseX i="450" alpha="13184.166481292286" sparseCutoff="1.0000000000000000"/>
      <sparseX i="451" alpha="-1813.6160061313287" sparseCutoff="1.0000000000000000"/>
      <sparseX i="452" alpha="-15147.903868534606" sparseCutoff="1.0000000000000000"/>
      <sparseX i="453" alpha="-12614.180814425918" sparseCutoff="1.0000000000000000"/>
      <sparseX i="454" alpha="34060.415835974665" sparseCutoff="1.0000000000000000"/>
      <sparseX i="455" alpha="-5144.6090599890649" sparseCutoff="1.0000000000000000"/>
      <sparseX i="456" alpha="7069.5181546832182" sparseCutoff="1.0000000000000000"/>
      <sparseX i="457" alpha="47411.270890302520" sparseCutoff="1.0000000000000000"/>
      <sparseX i="458" alpha="-5661.9302672273907" sparseCutoff="1.0000000000000000"/>
      <sparseX i="459" alpha="-31541.785703207217" sparseCutoff="1.0000000000000000"/>
      <sparseX i="460" alpha="-18076.611168463536" sparseCutoff="1.0000000000000000"/>
      <sparseX i="461" alpha="-8964.4858489858016" sparseCutoff="1.0000000000000000"/>
      <sparseX i="462" alpha="-44660.862728290020" sparseCutoff="1.0000000000000000"/>
      <sparseX i="463" alpha="-4960.3672935452705" sparseCutoff="1.0000000000000000"/>
      <sparseX i="464" alpha="6613.6796855680741" sparseCutoff="1.0000000000000000"/>
      <sparseX i="465" alpha="8136.8682433969470" sparseCutoff="1.0000000000000000"/>
      <sparseX i="466" alpha="3212.9492749733040" sparseCutoff="1.0000000000000000"/>
      <sparseX i="467" alpha="58.990692931449253" sparseCutoff="1.0000000000000000"/>
      <sparseX i="468" alpha="-3047.4888638204898" sparseCutoff="1.0000000000000000"/>
      <sparseX i="469" alpha="1568.3860502772795" sparseCutoff="1.0000000000000000"/>
      <sparseX i="470" alpha="15364.415295700634" sparseCutoff="1.0000000000000000"/>
      <sparseX i="471" alpha="-10886.971099655362" sparseCutoff="1.0000000000000000"/>
      <sparseX i="472" alpha="1421.6554636329229" sparseCutoff="1.0000000000000000"/>
      <sparseX i="473" alpha="6762.0743392401428" sparseCutoff="1.0000000000000000"/>
      <sparseX i="474" alpha="629.46988840378719" sparseCutoff="1.0000000000000000"/>
      <sparseX i="475" alpha="-21380.216808874884" sparseCutoff="1.0000000000000000"/>
      <sparseX i="476" alpha="-23206.235629442439" sparseCutoff="1.0000000000000000"/>
      <sparseX i="477" alpha="8531.5812896736570" sparseCutoff="1.0000000000000000"/>
      <sparseX i="478" alpha="-4437.3569814232233" sparseCutoff="1.0000000000000000"/>
      <sparseX i="479" alpha="6419.7304818209586" sparseCutoff="1.0000000000000000"/>
      <sparseX i="480" alpha="-595.37221999487247" sparseCutoff="1.0000000000000000"/>
      <sparseX i="481" alpha="-4739.8169476216672" sparseCutoff="1.0000000000000000"/>
      <sparseX i="482" alpha="50.490805423942028" sparseCutoff="1.0000000000000000"/>
      <sparseX i="483" alpha="-12669.970563958241" sparseCutoff="1.0000000000000000"/>
      <sparseX i="484" alpha="5559.5495428142622" sparseCutoff="1.0000000000000000"/>
      <sparseX i="485" alpha="-24456.936505668353" sparseCutoff="1.0000000000000000"/>
      <sparseX i="486" alpha="-5716.7979855669064" sparseCutoff="1.0000000000000000"/>
      <sparseX i="487" alpha="133.80204243716625" sparseCutoff="1.0000000000000000"/>
      <sparseX i="488" alpha="-9117.5398559167843" sparseCutoff="1.0000000000000000"/>
      <sparseX i="489" alpha="-11103.385111897320" sparseCutoff="1.0000000000000000"/>
      <sparseX i="490" alpha="-7562.8905270411706" sparseCutoff="1.0000000000000000"/>
      <sparseX i="491" alpha="-8435.3292044310529" sparseCutoff="1.0000000000000000"/>
      <sparseX i="492" alpha="7824.6098065595843" sparseCutoff="1.0000000000000000"/>
      <sparseX i="493" alpha="172.90386749464562" sparseCutoff="1.0000000000000000"/>
      <sparseX i="494" alpha="5058.4824656928458" sparseCutoff="1.0000000000000000"/>
      <sparseX i="495" alpha="815.26348274014902" sparseCutoff="1.0000000000000000"/>
      <sparseX i="496" alpha="-20216.281731644343" sparseCutoff="1.0000000000000000"/>
      <sparseX i="497" alpha="-9674.8540074880093" sparseCutoff="1.0000000000000000"/>
      <sparseX i="498" alpha="-5456.6607098482345" sparseCutoff="1.0000000000000000"/>
      <sparseX i="499" alpha="1814.0310332203940" sparseCutoff="1.0000000000000000"/>
      <sparseX i="500" alpha="-15553.219380644929" sparseCutoff="1.0000000000000000"/>
      <sparseX i="501" alpha="-7248.7294180506215" sparseCutoff="1.0000000000000000"/>
      <sparseX i="502" alpha="1188.4491426739644" sparseCutoff="1.0000000000000000"/>
      <sparseX i="503" alpha="3896.8694949837336" sparseCutoff="1.0000000000000000"/>
      <sparseX i="504" alpha="-2804.2670709969971" sparseCutoff="1.0000000000000000"/>
      <sparseX i="505" alpha="16931.459951602475" sparseCutoff="1.0000000000000000"/>
      <sparseX i="506" alpha="-11964.082099980689" sparseCutoff="1.0000000000000000"/>
      <sparseX i="507" alpha="-6108.1262550991605" sparseCutoff="1.0000000000000000"/>
      <sparseX i="508" alpha="-6680.2264981495146" sparseCutoff="1.0000000000000000"/>
      <sparseX i="509" alpha="-380.07966893904131" sparseCutoff="1.0000000000000000"/>
      <sparseX i="510" alpha="11710.557085065922" sparseCutoff="1.0000000000000000"/>
      <sparseX i="511" alpha="-10343.949180864702" sparseCutoff="1.0000000000000000"/>
      <sparseX i="512" alpha="-80.442517487048960" sparseCutoff="1.0000000000000000"/>
      <sparseX i="513" alpha="20642.515819330918" sparseCutoff="1.0000000000000000"/>
      <sparseX i="514" alpha="-1077.9481904843585" sparseCutoff="1.0000000000000000"/>
      <sparseX i="515" alpha="-8277.6863295229414" sparseCutoff="1.0000000000000000"/>
      <sparseX i="516" alpha="-1488.5877426471147" sparseCutoff="1.0000000000000000"/>
      <sparseX i="517" alpha="1838.1884224370381" sparseCutoff="1.0000000000000000"/>
      <sparseX i="518" alpha="3131.3502311382013" sparseCutoff="1.0000000000000000"/>
      <sparseX i="519" alpha="1767.7207276197234" sparseCutoff="1.0000000000000000"/>
      <sparseX i="520" alpha="-186.36468175634468" sparseCutoff="1.0000000000000000"/>
      <sparseX i="521" alpha="-25975.913386283606" sparseCutoff="1.0000000000000000"/>
      <sparseX i="522" alpha="-3951.8873818453771" sparseCutoff="1.0000000000000000"/>
      <sparseX i="523" alpha="-2073.5716871435188" sparseCutoff="1.0000000000000000"/>
      <sparseX i="524" alpha="4763.3804383935076" sparseCutoff="1.0000000000000000"/>
      <sparseX i="525" alpha="-666.24891828577233" sparseCutoff="1.0000000000000000"/>
      <sparseX i="526" alpha="5942.6393354472957" sparseCutoff="1.0000000000000000"/>
      <sparseX i="527" alpha="-2082.1568743337061" sparseCutoff="1.0000000000000000"/>
      <sparseX i="528" alpha="426.53230652518312" sparseCutoff="1.0000000000000000"/>
      <sparseX i="529" alpha="-1086.1482771209999" sparseCutoff="1.0000000000000000"/>
      <sparseX i="530" alpha="-19042.712613179414" sparseCutoff="1.0000000000000000"/>
      <sparseX i="531" alpha="5649.9673791113764" sparseCutoff="1.0000000000000000"/>
      <sparseX i="532" alpha="-15433.381107860376" sparseCutoff="1.0000000000000000"/>
      <sparseX i="533" alpha="-9995.8326495117599" sparseCutoff="1.0000000000000000"/>
      <sparseX i="534" alpha="337.30068556322965" sparseCutoff="1.0000000000000000"/>
      <sparseX i="535" alpha="35536.832052236226" sparseCutoff="1.0000000000000000"/>
      <sparseX i="536" alpha="2823.1206471866039" sparseCutoff="1.0000000000000000"/>
      <sparseX i="537" alpha="18651.761553484816" sparseCutoff="1.0000000000000000"/>
      <sparseX i="538" alpha="5874.9802326283525" sparseCutoff="1.0000000000000000"/>
      <sparseX i="539" alpha="-7247.0869528038756" sparseCutoff="1.0000000000000000"/>
      <sparseX i="540" alpha="9263.0204033460013" sparseCutoff="1.0000000000000000"/>
      <sparseX i="541" alpha="7556.7535174209197" sparseCutoff="1.0000000000000000"/>
      <sparseX i="542" alpha="6449.8686564850268" sparseCutoff="1.0000000000000000"/>
      <sparseX i="543" alpha="-464.76614706651765" sparseCutoff="1.0000000000000000"/>
      <sparseX i="544" alpha="-3838.4761366175944" sparseCutoff="1.0000000000000000"/>
      <sparseX i="545" alpha="-17704.588066060973" sparseCutoff="1.0000000000000000"/>
      <sparseX i="546" alpha="-37501.445626698980" sparseCutoff="1.0000000000000000"/>
      <sparseX i="547" alpha="12531.833172317698" sparseCutoff="1.0000000000000000"/>
      <sparseX i="548" alpha="-5954.5738467172187" sparseCutoff="1.0000000000000000"/>
      <sparseX i="549" alpha="1891.8592748997121" sparseCutoff="1.0000000000000000"/>
      <sparseX i="550" alpha="-8437.8322912185977" sparseCutoff="1.0000000000000000"/>
      <sparseX i="551" alpha="10551.212504709443" sparseCutoff="1.0000000000000000"/>
      <sparseX i="552" alpha="6676.8773814928309" sparseCutoff="1.0000000000000000"/>
      <sparseX i="553" alpha="-13868.204995441232" sparseCutoff="1.0000000000000000"/>
      <sparseX i="554" alpha="5234.9242027396640" sparseCutoff="1.0000000000000000"/>
      <sparseX i="555" alpha="-891.27774264838945" sparseCutoff="1.0000000000000000"/>
      <sparseX i="556" alpha="-6546.6131087999820" sparseCutoff="1.0000000000000000"/>
      <sparseX i="557" alpha="8618.4831243159606" sparseCutoff="1.0000000000000000"/>
      <sparseX i="558" alpha="-3009.0381625694595" sparseCutoff="1.0000000000000000"/>
      <sparseX i="559" alpha="2425.3699525859074" sparseCutoff="1.0000000000000000"/>
      <sparseX i="560" alpha="9718.6184044248112" sparseCutoff="1.0000000000000000"/>
      <sparseX i="561" alpha="40458.784670003020" sparseCutoff="1.0000000000000000"/>
      <sparseX i="562" alpha="-1937.4894570229037" sparseCutoff="1.0000000000000000"/>
      <sparseX i="563" alpha="-3925.1570362890225" sparseCutoff="1.0000000000000000"/>
      <sparseX i="564" alpha="-6263.9045449738760" sparseCutoff="1.0000000000000000"/>
      <sparseX i="565" alpha="-3938.6333219727535" sparseCutoff="1.0000000000000000"/>
      <sparseX i="566" alpha="248.27700412037137" sparseCutoff="1.0000000000000000"/>
      <sparseX i="567" alpha="-828.60717856941130" sparseCutoff="1.0000000000000000"/>
      <sparseX i="568" alpha="-15019.651853749829" sparseCutoff="1.0000000000000000"/>
      <sparseX i="569" alpha="-8711.7166042703338" sparseCutoff="1.0000000000000000"/>
      <sparseX i="570" alpha="-640.42874654897093" sparseCutoff="1.0000000000000000"/>
      <sparseX i="571" alpha="113.24466564473499" sparseCutoff="1.0000000000000000"/>
      <sparseX i="572" alpha="2174.0973393180652" sparseCutoff="1.0000000000000000"/>
      <sparseX i="573" alpha="-2621.8694741498489" sparseCutoff="1.0000000000000000"/>
      <sparseX i="574" alpha="-1461.1467886535263" sparseCutoff="1.0000000000000000"/>
      <sparseX i="575" alpha="-7530.7191883615506" sparseCutoff="1.0000000000000000"/>
      <sparseX i="576" alpha="-220.79635701032959" sparseCutoff="1.0000000000000000"/>
      <sparseX i="577" alpha="2278.8038125456474" sparseCutoff="1.0000000000000000"/>
      <sparseX i="578" alpha="-12169.685443516904" sparseCutoff="1.0000000000000000"/>
      <sparseX i="579" alpha="-5944.8871612238081" sparseCutoff="1.0000000000000000"/>
      <sparseX i="580" alpha="18857.804832879552" sparseCutoff="1.0000000000000000"/>
      <sparseX i="581" alpha="-11570.242250064699" sparseCutoff="1.0000000000000000"/>
      <sparseX i="582" alpha="-14959.214610785410" sparseCutoff="1.0000000000000000"/>
      <sparseX i="583" alpha="-924.64295507545012" sparseCutoff="1.0000000000000000"/>
      <sparseX i="584" alpha="6514.7329125180067" sparseCutoff="1.0000000000000000"/>
      <sparseX i="585" alpha="-4003.9990550894458" sparseCutoff="1.0000000000000000"/>
      <sparseX i="586" alpha="5769.6444709684165" sparseCutoff="1.0000000000000000"/>
      <sparseX i="587" alpha="3305.4650917897197" sparseCutoff="1.0000000000000000"/>
      <sparseX i="588" alpha="8141.4923046053573" sparseCutoff="1.0000000000000000"/>
      <sparseX i="589" alpha="20271.020895051421" sparseCutoff="1.0000000000000000"/>
      <sparseX i="590" alpha="-6066.6437563841300" sparseCutoff="1.0000000000000000"/>
      <sparseX i="591" alpha="7202.9311044669430" sparseCutoff="1.0000000000000000"/>
      <sparseX i="592" alpha="-1404.1641546087212" sparseCutoff="1.0000000000000000"/>
      <sparseX i="593" alpha="633.55317709901499" sparseCutoff="1.0000000000000000"/>
      <sparseX i="594" alpha="46439.482314192319" sparseCutoff="1.0000000000000000"/>
      <sparseX i="595" alpha="-999.60228238924026" sparseCutoff="1.0000000000000000"/>
      <sparseX i="596" alpha="6679.9072011033895" sparseCutoff="1.0000000000000000"/>
      <sparseX i="597" alpha="-448.49321376238782" sparseCutoff="1.0000000000000000"/>
      <sparseX i="598" alpha="-6911.5265595162637" sparseCutoff="1.0000000000000000"/>
      <sparseX i="599" alpha="336.40847738580845" sparseCutoff="1.0000000000000000"/>
      <sparseX i="600" alpha="-3594.0919013277935" sparseCutoff="1.0000000000000000"/>
      <sparseX i="601" alpha="-5286.6397720305804" sparseCutoff="1.0000000000000000"/>
      <sparseX i="602" alpha="13201.870264899644" sparseCutoff="1.0000000000000000"/>
      <sparseX i="603" alpha="-5.5968626693333654" sparseCutoff="1.0000000000000000"/>
      <sparseX i="604" alpha="23550.387729805367" sparseCutoff="1.0000000000000000"/>
      <sparseX i="605" alpha="-14300.513002318681" sparseCutoff="1.0000000000000000"/>
      <sparseX i="606" alpha="-1002.7448410229642" sparseCutoff="1.0000000000000000"/>
      <sparseX i="607" alpha="-180.52728157355045" sparseCutoff="1.0000000000000000"/>
      <sparseX i="608" alpha="-8067.2635250325120" sparseCutoff="1.0000000000000000"/>
      <sparseX i="609" alpha="-10878.735553686616" sparseCutoff="1.0000000000000000"/>
      <sparseX i="610" alpha="8008.3234418784550" sparseCutoff="1.0000000000000000"/>
      <sparseX i="611" alpha="-4089.2281247207497" sparseCutoff="1.0000000000000000"/>
      <sparseX i="612" alpha="-8576.5259498650721" sparseCutoff="1.0000000000000000"/>
      <sparseX i="613" alpha="-15901.190044912428" sparseCutoff="1.0000000000000000"/>
      <sparseX i="614" alpha="10.820605531359726" sparseCutoff="1.0000000000000000"/>
      <sparseX i="615" alpha="-5404.2908522952839" sparseCutoff="1.0000000000000000"/>
      <sparseX i="616" alpha="19473.391502724666" sparseCutoff="1.0000000000000000"/>
      <sparseX i="617" alpha="15136.207227834482" sparseCutoff="1.0000000000000000"/>
      <sparseX i="618" alpha="-16678.691192643997" sparseCutoff="1.0000000000000000"/>
      <sparseX i="619" alpha="16273.853779263616" sparseCutoff="1.0000000000000000"/>
      <sparseX i="620" alpha="-4147.5387277558639" sparseCutoff="1.0000000000000000"/>
      <sparseX i="621" alpha="9689.9135892715749" sparseCutoff="1.0000000000000000"/>
      <sparseX i="622" alpha="9459.9555460274405" sparseCutoff="1.0000000000000000"/>
      <sparseX i="623" alpha="-348.02281250394435" sparseCutoff="1.0000000000000000"/>
      <sparseX i="624" alpha="12640.468956101842" sparseCutoff="1.0000000000000000"/>
      <sparseX i="625" alpha="-7831.5003664437809" sparseCutoff="1.0000000000000000"/>
      <sparseX i="626" alpha="5218.4044779468222" sparseCutoff="1.0000000000000000"/>
      <sparseX i="627" alpha="-7588.3788119530564" sparseCutoff="1.0000000000000000"/>
      <sparseX i="628" alpha="-38502.328323189962" sparseCutoff="1.0000000000000000"/>
      <sparseX i="629" alpha="-4726.3901630847786" sparseCutoff="1.0000000000000000"/>
      <sparseX i="630" alpha="-1923.2904988445828" sparseCutoff="1.0000000000000000"/>
      <sparseX i="631" alpha="-3418.0862948420881" sparseCutoff="1.0000000000000000"/>
      <sparseX i="632" alpha="37391.331649580650" sparseCutoff="1.0000000000000000"/>
      <sparseX i="633" alpha="-28888.321101440011" sparseCutoff="1.0000000000000000"/>
      <sparseX i="634" alpha="9806.3519823559982" sparseCutoff="1.0000000000000000"/>
      <sparseX i="635" alpha="-6684.3309447823722" sparseCutoff="1.0000000000000000"/>
      <sparseX i="636" alpha="-3619.8757084960007" sparseCutoff="1.0000000000000000"/>
      <sparseX i="637" alpha="-7314.8887440892795" sparseCutoff="1.0000000000000000"/>
      <sparseX i="638" alpha="-6557.6297165077249" sparseCutoff="1.0000000000000000"/>
      <sparseX i="639" alpha="-9832.3963517558768" sparseCutoff="1.0000000000000000"/>
      <sparseX i="640" alpha="6958.6099503613113" sparseCutoff="1.0000000000000000"/>
      <sparseX i="641" alpha="3153.2671404426746" sparseCutoff="1.0000000000000000"/>
      <sparseX i="642" alpha="-5837.6142500889246" sparseCutoff="1.0000000000000000"/>
      <sparseX i="643" alpha="689.55425619340701" sparseCutoff="1.0000000000000000"/>
      <sparseX i="644" alpha="6421.3347883052011" sparseCutoff="1.0000000000000000"/>
      <sparseX i="645" alpha="-1619.2293840757291" sparseCutoff="1.0000000000000000"/>
      <sparseX i="646" alpha="961.11695614029054" sparseCutoff="1.0000000000000000"/>
      <sparseX i="647" alpha="-6720.7991694352768" sparseCutoff="1.0000000000000000"/>
      <sparseX i="648" alpha="-14495.809850278003" sparseCutoff="1.0000000000000000"/>
      <sparseX i="649" alpha="-11979.526366569426" sparseCutoff="1.0000000000000000"/>
      <sparseX i="650" alpha="-1628.4524506637717" sparseCutoff="1.0000000000000000"/>
      <sparseX i="651" alpha="-6090.1693773291363" sparseCutoff="1.0000000000000000"/>
      <sparseX i="652" alpha="4897.3517348122632" sparseCutoff="1.0000000000000000"/>
      <sparseX i="653" alpha="2648.7146503046756" sparseCutoff="1.0000000000000000"/>
      <sparseX i="654" alpha="-1162.9933173733366" sparseCutoff="1.0000000000000000"/>
      <sparseX i="655" alpha="-3861.6415424986390" sparseCutoff="1.0000000000000000"/>
      <sparseX i="656" alpha="-11788.995282276956" sparseCutoff="1.0000000000000000"/>
      <sparseX i="657" alpha="-5100.9836612923900" sparseCutoff="1.0000000000000000"/>
      <sparseX i="658" alpha="-1446.3741631920161" sparseCutoff="1.0000000000000000"/>
      <sparseX i="659" alpha="11955.595893337288" sparseCutoff="1.0000000000000000"/>
      <sparseX i="660" alpha="-517.48982449228095" sparseCutoff="1.0000000000000000"/>
      <sparseX i="661" alpha="-11243.773397458672" sparseCutoff="1.0000000000000000"/>
      <sparseX i="662" alpha="16938.738846064596" sparseCutoff="1.0000000000000000"/>
      <sparseX i="663" alpha="4778.1255913338491" sparseCutoff="1.0000000000000000"/>
      <sparseX i="664" alpha="-4531.7776083853596" sparseCutoff="1.0000000000000000"/>
      <sparseX i="665" alpha="-4712.2888866139683" sparseCutoff="1.0000000000000000"/>
      <sparseX i="666" alpha="-16631.084474009785" sparseCutoff="1.0000000000000000"/>
      <sparseX i="667" alpha="-1296.8083435607209" sparseCutoff="1.0000000000000000"/>
      <sparseX i="668" alpha="1522.4647781709309" sparseCutoff="1.0000000000000000"/>
      <sparseX i="669" alpha="5182.1974179285371" sparseCutoff="1.0000000000000000"/>
      <sparseX i="670" alpha="-1818.6045460601099" sparseCutoff="1.0000000000000000"/>
      <sparseX i="671" alpha="11631.432003312098" sparseCutoff="1.0000000000000000"/>
      <sparseX i="672" alpha="17635.407988689902" sparseCutoff="1.0000000000000000"/>
      <sparseX i="673" alpha="-2904.0363978297692" sparseCutoff="1.0000000000000000"/>
      <sparseX i="674" alpha="4719.0953585381721" sparseCutoff="1.0000000000000000"/>
      <sparseX i="675" alpha="-8223.4736366138950" sparseCutoff="1.0000000000000000"/>
      <sparseX i="676" alpha="9597.6732833515434" sparseCutoff="1.0000000000000000"/>
      <sparseX i="677" alpha="-15475.150094585368" sparseCutoff="1.0000000000000000"/>
      <sparseX i="678" alpha="-4382.7279722843923" sparseCutoff="1.0000000000000000"/>
      <sparseX i="679" alpha="-268.96393201184804" sparseCutoff="1.0000000000000000"/>
      <sparseX i="680" alpha="13854.502419075639" sparseCutoff="1.0000000000000000"/>
      <sparseX i="681" alpha="3290.8424060994971" sparseCutoff="1.0000000000000000"/>
      <sparseX i="682" alpha="16571.185933086334" sparseCutoff="1.0000000000000000"/>
      <sparseX i="683" alpha="2229.6809227743961" sparseCutoff="1.0000000000000000"/>
      <sparseX i="684" alpha="-12490.151485102117" sparseCutoff="1.0000000000000000"/>
      <sparseX i="685" alpha="8238.0741518963878" sparseCutoff="1.0000000000000000"/>
      <sparseX i="686" alpha="-2425.1934490336484" sparseCutoff="1.0000000000000000"/>
      <sparseX i="687" alpha="2270.9322563219653" sparseCutoff="1.0000000000000000"/>
      <sparseX i="688" alpha="2717.0352342223755" sparseCutoff="1.0000000000000000"/>
      <sparseX i="689" alpha="35495.883871315855" sparseCutoff="1.0000000000000000"/>
      <sparseX i="690" alpha="13259.747423539216" sparseCutoff="1.0000000000000000"/>
      <sparseX i="691" alpha="7219.4543917613928" sparseCutoff="1.0000000000000000"/>
      <sparseX i="692" alpha="-4239.2979330519529" sparseCutoff="1.0000000000000000"/>
      <sparseX i="693" alpha="1432.0296953155564" sparseCutoff="1.0000000000000000"/>
      <sparseX i="694" alpha="9871.1960262101547" sparseCutoff="1.0000000000000000"/>
      <sparseX i="695" alpha="6880.1114775359074" sparseCutoff="1.0000000000000000"/>
      <sparseX i="696" alpha="14541.601573442591" sparseCutoff="1.0000000000000000"/>
      <sparseX i="697" alpha="-10884.682288339292" sparseCutoff="1.0000000000000000"/>
      <sparseX i="698" alpha="6364.8904442451003" sparseCutoff="1.0000000000000000"/>
      <sparseX i="699" alpha="17631.502677570363" sparseCutoff="1.0000000000000000"/>
      <sparseX i="700" alpha="-3415.2451013847067" sparseCutoff="1.0000000000000000"/>
      <sparseX i="701" alpha="5442.8085886483250" sparseCutoff="1.0000000000000000"/>
      <sparseX i="702" alpha="-18703.701484510904" sparseCutoff="1.0000000000000000"/>
      <sparseX i="703" alpha="4610.1561573051040" sparseCutoff="1.0000000000000000"/>
      <sparseX i="704" alpha="2086.6815053994706" sparseCutoff="1.0000000000000000"/>
      <sparseX i="705" alpha="12139.321970416901" sparseCutoff="1.0000000000000000"/>
      <sparseX i="706" alpha="13477.553098991433" sparseCutoff="1.0000000000000000"/>
      <sparseX i="707" alpha="-6042.7972209087666" sparseCutoff="1.0000000000000000"/>
      <sparseX i="708" alpha="12270.068619115485" sparseCutoff="1.0000000000000000"/>
      <sparseX i="709" alpha="10683.239963730419" sparseCutoff="1.0000000000000000"/>
      <sparseX i="710" alpha="-438.35872810418419" sparseCutoff="1.0000000000000000"/>
      <sparseX i="711" alpha="-1659.0991688045315" sparseCutoff="1.0000000000000000"/>
      <sparseX i="712" alpha="-2208.1387239539745" sparseCutoff="1.0000000000000000"/>
      <sparseX i="713" alpha="2110.6260383131307" sparseCutoff="1.0000000000000000"/>
      <sparseX i="714" alpha="9753.5673774214956" sparseCutoff="1.0000000000000000"/>
      <sparseX i="715" alpha="7388.5002201389179" sparseCutoff="1.0000000000000000"/>
      <sparseX i="716" alpha="8743.6555063416890" sparseCutoff="1.0000000000000000"/>
      <sparseX i="717" alpha="6467.1295503372849" sparseCutoff="1.0000000000000000"/>
      <sparseX i="718" alpha="2215.5544217078004" sparseCutoff="1.0000000000000000"/>
      <sparseX i="719" alpha="5121.1455824454206" sparseCutoff="1.0000000000000000"/>
      <sparseX i="720" alpha="-424.12102456243258" sparseCutoff="1.0000000000000000"/>
      <sparseX i="721" alpha="18322.899783172601" sparseCutoff="1.0000000000000000"/>
      <sparseX i="722" alpha="2560.2419042676229" sparseCutoff="1.0000000000000000"/>
      <sparseX i="723" alpha="22476.116303964292" sparseCutoff="1.0000000000000000"/>
      <sparseX i="724" alpha="16098.733943227535" sparseCutoff="1.0000000000000000"/>
      <sparseX i="725" alpha="3078.1270682257259" sparseCutoff="1.0000000000000000"/>
      <sparseX i="726" alpha="-8287.0156316301563" sparseCutoff="1.0000000000000000"/>
      <sparseX i="727" alpha="-4835.2384699010772" sparseCutoff="1.0000000000000000"/>
      <sparseX i="728" alpha="27552.680818246496" sparseCutoff="1.0000000000000000"/>
      <sparseX i="729" alpha="-2547.5076251137157" sparseCutoff="1.0000000000000000"/>
      <sparseX i="730" alpha="3020.4411357992271" sparseCutoff="1.0000000000000000"/>
      <sparseX i="731" alpha="-5499.9114543934675" sparseCutoff="1.0000000000000000"/>
      <sparseX i="732" alpha="729.47729825056467" sparseCutoff="1.0000000000000000"/>
      <sparseX i="733" alpha="2301.9882612524761" sparseCutoff="1.0000000000000000"/>
      <sparseX i="734" alpha="-23134.673582987562" sparseCutoff="1.0000000000000000"/>
      <sparseX i="735" alpha="10145.231602868171" sparseCutoff="1.0000000000000000"/>
      <sparseX i="736" alpha="1081.4939985903623" sparseCutoff="1.0000000000000000"/>
      <sparseX i="737" alpha="-3534.0082540624599" sparseCutoff="1.0000000000000000"/>
      <sparseX i="738" alpha="-1779.9200599227454" sparseCutoff="1.0000000000000000"/>
      <sparseX i="739" alpha="-.66532578515222729" sparseCutoff="1.0000000000000000"/>
      <sparseX i="740" alpha="-7670.5776618073187" sparseCutoff="1.0000000000000000"/>
      <sparseX i="741" alpha="-11435.340844069951" sparseCutoff="1.0000000000000000"/>
      <sparseX i="742" alpha="-2336.3736942057967" sparseCutoff="1.0000000000000000"/>
      <sparseX i="743" alpha="11649.526179983592" sparseCutoff="1.0000000000000000"/>
      <sparseX i="744" alpha="2278.4526654502829" sparseCutoff="1.0000000000000000"/>
      <sparseX i="745" alpha="-21511.987495571590" sparseCutoff="1.0000000000000000"/>
      <sparseX i="746" alpha="-7428.0327009256744" sparseCutoff="1.0000000000000000"/>
      <sparseX i="747" alpha="78.084290537804648" sparseCutoff="1.0000000000000000"/>
      <sparseX i="748" alpha="9180.9858024742698" sparseCutoff="1.0000000000000000"/>
      <sparseX i="749" alpha="-8071.1069805050520" sparseCutoff="1.0000000000000000"/>
      <sparseX i="750" alpha="-11989.533668554905" sparseCutoff="1.0000000000000000"/>
      <sparseX i="751" alpha="-13832.767809203739" sparseCutoff="1.0000000000000000"/>
      <sparseX i="752" alpha="-2713.2557921869948" sparseCutoff="1.0000000000000000"/>
      <sparseX i="753" alpha="-21785.970941804480" sparseCutoff="1.0000000000000000"/>
      <sparseX i="754" alpha="27471.480319461563" sparseCutoff="1.0000000000000000"/>
      <sparseX i="755" alpha="5835.4974959453175" sparseCutoff="1.0000000000000000"/>
      <sparseX i="756" alpha="-4018.7400018680869" sparseCutoff="1.0000000000000000"/>
      <sparseX i="757" alpha="-22445.455261642099" sparseCutoff="1.0000000000000000"/>
      <sparseX i="758" alpha="-4708.1879997572951" sparseCutoff="1.0000000000000000"/>
      <sparseX i="759" alpha="5183.6433569102928" sparseCutoff="1.0000000000000000"/>
      <sparseX i="760" alpha="8871.5986278666805" sparseCutoff="1.0000000000000000"/>
      <sparseX i="761" alpha="-360.92099071994869" sparseCutoff="1.0000000000000000"/>
      <sparseX i="762" alpha="7642.1431076786248" sparseCutoff="1.0000000000000000"/>
      <sparseX i="763" alpha="-3208.5305280682460" sparseCutoff="1.0000000000000000"/>
      <sparseX i="764" alpha="-5050.5385220754697" sparseCutoff="1.0000000000000000"/>
      <sparseX i="765" alpha="3570.7496855904778" sparseCutoff="1.0000000000000000"/>
      <sparseX i="766" alpha="3447.1946546149902" sparseCutoff="1.0000000000000000"/>
      <sparseX i="767" alpha="14281.366339697859" sparseCutoff="1.0000000000000000"/>
      <sparseX i="768" alpha="398.23198843221985" sparseCutoff="1.0000000000000000"/>
      <sparseX i="769" alpha="-2605.9344475656012" sparseCutoff="1.0000000000000000"/>
      <sparseX i="770" alpha="8366.0778717950288" sparseCutoff="1.0000000000000000"/>
      <sparseX i="771" alpha="-2528.3677698053007" sparseCutoff="1.0000000000000000"/>
      <sparseX i="772" alpha="2170.5528477948451" sparseCutoff="1.0000000000000000"/>
      <sparseX i="773" alpha="3347.6859357328676" sparseCutoff="1.0000000000000000"/>
      <sparseX i="774" alpha="1701.8947623733977" sparseCutoff="1.0000000000000000"/>
      <sparseX i="775" alpha="1560.4534090229126" sparseCutoff="1.0000000000000000"/>
      <sparseX i="776" alpha="-10003.614292928291" sparseCutoff="1.0000000000000000"/>
      <sparseX i="777" alpha="-26268.978810048517" sparseCutoff="1.0000000000000000"/>
      <sparseX i="778" alpha="-4049.1736161060971" sparseCutoff="1.0000000000000000"/>
      <sparseX i="779" alpha="1073.1444001910072" sparseCutoff="1.0000000000000000"/>
      <sparseX i="780" alpha="7140.7119505859691" sparseCutoff="1.0000000000000000"/>
      <sparseX i="781" alpha="31787.975415351379" sparseCutoff="1.0000000000000000"/>
      <sparseX i="782" alpha="11818.772337590888" sparseCutoff="1.0000000000000000"/>
      <sparseX i="783" alpha="-1838.5699816989720" sparseCutoff="1.0000000000000000"/>
      <sparseX i="784" alpha="-518.77880720745577" sparseCutoff="1.0000000000000000"/>
      <sparseX i="785" alpha="9485.7500505743683" sparseCutoff="1.0000000000000000"/>
      <sparseX i="786" alpha="569.28859695196843" sparseCutoff="1.0000000000000000"/>
      <sparseX i="787" alpha="4528.9435408683566" sparseCutoff="1.0000000000000000"/>
      <sparseX i="788" alpha="6818.6551843574807" sparseCutoff="1.0000000000000000"/>
      <sparseX i="789" alpha="-19139.417257590310" sparseCutoff="1.0000000000000000"/>
      <sparseX i="790" alpha="15675.252098293844" sparseCutoff="1.0000000000000000"/>
      <sparseX i="791" alpha="11773.471816753463" sparseCutoff="1.0000000000000000"/>
      <sparseX i="792" alpha="-9086.5136541385509" sparseCutoff="1.0000000000000000"/>
      <sparseX i="793" alpha="923.50958343902266" sparseCutoff="1.0000000000000000"/>
      <sparseX i="794" alpha="-4910.7178786596269" sparseCutoff="1.0000000000000000"/>
      <sparseX i="795" alpha="243.13789039201180" sparseCutoff="1.0000000000000000"/>
      <sparseX i="796" alpha="-5495.5322024854731" sparseCutoff="1.0000000000000000"/>
      <sparseX i="797" alpha="-3850.4901937199470" sparseCutoff="1.0000000000000000"/>
      <sparseX i="798" alpha="1786.2132649753664" sparseCutoff="1.0000000000000000"/>
      <sparseX i="799" alpha="58.165101542741738" sparseCutoff="1.0000000000000000"/>
      <sparseX i="800" alpha="6681.6373540212844" sparseCutoff="1.0000000000000000"/>
      <sparseX i="801" alpha="8147.8864921164250" sparseCutoff="1.0000000000000000"/>
      <sparseX i="802" alpha="-15087.909184910193" sparseCutoff="1.0000000000000000"/>
      <sparseX i="803" alpha="8983.4557370793846" sparseCutoff="1.0000000000000000"/>
      <sparseX i="804" alpha="6008.7021836644917" sparseCutoff="1.0000000000000000"/>
      <sparseX i="805" alpha="3164.6909135496016" sparseCutoff="1.0000000000000000"/>
      <sparseX i="806" alpha="-8097.1879496041047" sparseCutoff="1.0000000000000000"/>
      <sparseX i="807" alpha="9238.4896319041163" sparseCutoff="1.0000000000000000"/>
      <sparseX i="808" alpha="-9402.0102655303126" sparseCutoff="1.0000000000000000"/>
      <sparseX i="809" alpha="-732.02491093853791" sparseCutoff="1.0000000000000000"/>
      <sparseX i="810" alpha="-752.55770977962106" sparseCutoff="1.0000000000000000"/>
      <sparseX i="811" alpha="-4894.6141222406104" sparseCutoff="1.0000000000000000"/>
      <sparseX i="812" alpha="-1126.6198917296106" sparseCutoff="1.0000000000000000"/>
      <sparseX i="813" alpha="-3446.7059414297983" sparseCutoff="1.0000000000000000"/>
      <sparseX i="814" alpha="4231.8812190273975" sparseCutoff="1.0000000000000000"/>
      <sparseX i="815" alpha="15789.214692388545" sparseCutoff="1.0000000000000000"/>
      <sparseX i="816" alpha="14091.845124099793" sparseCutoff="1.0000000000000000"/>
      <sparseX i="817" alpha="16987.621563665631" sparseCutoff="1.0000000000000000"/>
      <sparseX i="818" alpha="-791.01869258838008" sparseCutoff="1.0000000000000000"/>
      <sparseX i="819" alpha="133.96351646397554" sparseCutoff="1.0000000000000000"/>
      <sparseX i="820" alpha="16888.440021236340" sparseCutoff="1.0000000000000000"/>
      <sparseX i="821" alpha="2948.1639747869212" sparseCutoff="1.0000000000000000"/>
      <sparseX i="822" alpha="-5623.7287870179416" sparseCutoff="1.0000000000000000"/>
      <sparseX i="823" alpha="1321.1976964391997" sparseCutoff="1.0000000000000000"/>
      <sparseX i="824" alpha="-10600.957385622438" sparseCutoff="1.0000000000000000"/>
      <sparseX i="825" alpha="766.61486604377808" sparseCutoff="1.0000000000000000"/>
      <sparseX i="826" alpha="-24456.967178319028" sparseCutoff="1.0000000000000000"/>
      <sparseX i="827" alpha="-896.66814645841464" sparseCutoff="1.0000000000000000"/>
      <sparseX i="828" alpha="4516.3977836244749" sparseCutoff="1.0000000000000000"/>
      <sparseX i="829" alpha="16688.881992623927" sparseCutoff="1.0000000000000000"/>
      <sparseX i="830" alpha="-2926.6429589614413" sparseCutoff="1.0000000000000000"/>
      <sparseX i="831" alpha="-19648.842392132705" sparseCutoff="1.0000000000000000"/>
      <sparseX i="832" alpha="8825.8218654691318" sparseCutoff="1.0000000000000000"/>
      <sparseX i="833" alpha="9986.6693026379435" sparseCutoff="1.0000000000000000"/>
      <sparseX i="834" alpha="1458.2337175399421" sparseCutoff="1.0000000000000000"/>
      <sparseX i="835" alpha="-14939.967640829571" sparseCutoff="1.0000000000000000"/>
      <sparseX i="836" alpha="-4910.5090058423721" sparseCutoff="1.0000000000000000"/>
      <sparseX i="837" alpha="-3037.2574222501598" sparseCutoff="1.0000000000000000"/>
      <sparseX i="838" alpha="-15098.198650812103" sparseCutoff="1.0000000000000000"/>
      <sparseX i="839" alpha="1243.6237834014914" sparseCutoff="1.0000000000000000"/>
      <sparseX i="840" alpha="31708.569471619252" sparseCutoff="1.0000000000000000"/>
      <sparseX i="841" alpha="7866.3704756012457" sparseCutoff="1.0000000000000000"/>
      <sparseX i="842" alpha="5545.8458124683493" sparseCutoff="1.0000000000000000"/>
      <sparseX i="843" alpha="-9414.1540783825731" sparseCutoff="1.0000000000000000"/>
      <sparseX i="844" alpha="-17513.544645682414" sparseCutoff="1.0000000000000000"/>
      <sparseX i="845" alpha="-7755.2983551251373" sparseCutoff="1.0000000000000000"/>
      <sparseX i="846" alpha="-12510.852652433772" sparseCutoff="1.0000000000000000"/>
      <sparseX i="847" alpha="3458.7231691637721" sparseCutoff="1.0000000000000000"/>
      <sparseX i="848" alpha="-23690.686518310049" sparseCutoff="1.0000000000000000"/>
      <sparseX i="849" alpha="2333.1029844051827" sparseCutoff="1.0000000000000000"/>
      <sparseX i="850" alpha="11140.113216591146" sparseCutoff="1.0000000000000000"/>
      <sparseX i="851" alpha="2551.7599718147994" sparseCutoff="1.0000000000000000"/>
      <sparseX i="852" alpha="-2616.9041041885102" sparseCutoff="1.0000000000000000"/>
      <sparseX i="853" alpha="-16359.901492440393" sparseCutoff="1.0000000000000000"/>
      <sparseX i="854" alpha="-1842.8301358115757" sparseCutoff="1.0000000000000000"/>
      <sparseX i="855" alpha="-9465.5578619912703" sparseCutoff="1.0000000000000000"/>
      <sparseX i="856" alpha="-4219.2278024566485" sparseCutoff="1.0000000000000000"/>
      <sparseX i="857" alpha="4111.9377613573424" sparseCutoff="1.0000000000000000"/>
      <sparseX i="858" alpha="-1919.4147240296550" sparseCutoff="1.0000000000000000"/>
      <sparseX i="859" alpha="-4634.7548511015266" sparseCutoff="1.0000000000000000"/>
      <sparseX i="860" alpha="-4955.6088851679433" sparseCutoff="1.0000000000000000"/>
      <sparseX i="861" alpha="10396.306907922595" sparseCutoff="1.0000000000000000"/>
      <sparseX i="862" alpha="-11648.887817697572" sparseCutoff="1.0000000000000000"/>
      <sparseX i="863" alpha="11554.626215351422" sparseCutoff="1.0000000000000000"/>
      <sparseX i="864" alpha="3473.9237247467454" sparseCutoff="1.0000000000000000"/>
      <sparseX i="865" alpha="1950.2005819088736" sparseCutoff="1.0000000000000000"/>
      <sparseX i="866" alpha="-4218.2358455462054" sparseCutoff="1.0000000000000000"/>
      <sparseX i="867" alpha="-6041.8273997576971" sparseCutoff="1.0000000000000000"/>
      <sparseX i="868" alpha="-3965.9865966388465" sparseCutoff="1.0000000000000000"/>
      <sparseX i="869" alpha="4665.1412154070658" sparseCutoff="1.0000000000000000"/>
      <sparseX i="870" alpha="-6748.8445122398889" sparseCutoff="1.0000000000000000"/>
      <sparseX i="871" alpha="7208.0730074868425" sparseCutoff="1.0000000000000000"/>
      <sparseX i="872" alpha="3989.3206954324837" sparseCutoff="1.0000000000000000"/>
      <sparseX i="873" alpha="-8137.0420645960994" sparseCutoff="1.0000000000000000"/>
      <sparseX i="874" alpha="12845.068876757292" sparseCutoff="1.0000000000000000"/>
      <sparseX i="875" alpha="4530.6768877338209" sparseCutoff="1.0000000000000000"/>
      <sparseX i="876" alpha="-292.01996029512321" sparseCutoff="1.0000000000000000"/>
      <sparseX i="877" alpha="890.93045380890942" sparseCutoff="1.0000000000000000"/>
      <sparseX i="878" alpha="-7632.0349145403579" sparseCutoff="1.0000000000000000"/>
      <sparseX i="879" alpha="-18482.232826078409" sparseCutoff="1.0000000000000000"/>
      <sparseX i="880" alpha="10042.968633885377" sparseCutoff="1.0000000000000000"/>
      <sparseX i="881" alpha="2204.4719785933330" sparseCutoff="1.0000000000000000"/>
      <sparseX i="882" alpha="7223.6136497219904" sparseCutoff="1.0000000000000000"/>
      <sparseX i="883" alpha="-4581.8470685336779" sparseCutoff="1.0000000000000000"/>
      <sparseX i="884" alpha="3038.7771315927280" sparseCutoff="1.0000000000000000"/>
      <sparseX i="885" alpha="2196.7950647374655" sparseCutoff="1.0000000000000000"/>
      <sparseX i="886" alpha="7137.1713306113834" sparseCutoff="1.0000000000000000"/>
      <sparseX i="887" alpha="-105.40527330214915" sparseCutoff="1.0000000000000000"/>
      <sparseX i="888" alpha="-3608.3394223784303" sparseCutoff="1.0000000000000000"/>
      <sparseX i="889" alpha="15223.611632929331" sparseCutoff="1.0000000000000000"/>
      <sparseX i="890" alpha="-4730.5991830327575" sparseCutoff="1.0000000000000000"/>
      <sparseX i="891" alpha="1255.3878189306333" sparseCutoff="1.0000000000000000"/>
      <sparseX i="892" alpha="-2221.5526778556082" sparseCutoff="1.0000000000000000"/>
      <sparseX i="893" alpha="-3292.8293096840107" sparseCutoff="1.0000000000000000"/>
      <sparseX i="894" alpha="4444.4813501649505" sparseCutoff="1.0000000000000000"/>
      <sparseX i="895" alpha="10832.085459285840" sparseCutoff="1.0000000000000000"/>
      <sparseX i="896" alpha="-981.20981929153129" sparseCutoff="1.0000000000000000"/>
      <sparseX i="897" alpha="9795.7427058574158" sparseCutoff="1.0000000000000000"/>
      <sparseX i="898" alpha="20927.717617913688" sparseCutoff="1.0000000000000000"/>
      <sparseX i="899" alpha="14453.862894562990" sparseCutoff="1.0000000000000000"/>
      <sparseX i="900" alpha="22270.187123099666" sparseCutoff="1.0000000000000000"/>
      <sparseX i="901" alpha="3618.8904388266128" sparseCutoff="1.0000000000000000"/>
      <sparseX i="902" alpha="8628.9400049707128" sparseCutoff="1.0000000000000000"/>
      <sparseX i="903" alpha="-5494.7626898463595" sparseCutoff="1.0000000000000000"/>
      <sparseX i="904" alpha="-14176.911996035136" sparseCutoff="1.0000000000000000"/>
      <sparseX i="905" alpha="2544.8303365899192" sparseCutoff="1.0000000000000000"/>
      <sparseX i="906" alpha="-5231.9864977226416" sparseCutoff="1.0000000000000000"/>
      <sparseX i="907" alpha="3046.1275949895130" sparseCutoff="1.0000000000000000"/>
      <sparseX i="908" alpha="-1812.3212541688317" sparseCutoff="1.0000000000000000"/>
      <sparseX i="909" alpha="-2624.7199771558539" sparseCutoff="1.0000000000000000"/>
      <sparseX i="910" alpha="182.34645302345132" sparseCutoff="1.0000000000000000"/>
      <sparseX i="911" alpha="-5133.2849857830288" sparseCutoff="1.0000000000000000"/>
      <sparseX i="912" alpha="4649.5073765704474" sparseCutoff="1.0000000000000000"/>
      <sparseX i="913" alpha="-5344.8865431465156" sparseCutoff="1.0000000000000000"/>
      <sparseX i="914" alpha="14484.285987174851" sparseCutoff="1.0000000000000000"/>
      <sparseX i="915" alpha="21443.268300299325" sparseCutoff="1.0000000000000000"/>
      <sparseX i="916" alpha="-10075.610949010039" sparseCutoff="1.0000000000000000"/>
      <sparseX i="917" alpha="-9300.2205595279938" sparseCutoff="1.0000000000000000"/>
      <sparseX i="918" alpha="4062.2028368043407" sparseCutoff="1.0000000000000000"/>
      <sparseX i="919" alpha="-4434.2641506995851" sparseCutoff="1.0000000000000000"/>
      <sparseX i="920" alpha="2541.9057610612795" sparseCutoff="1.0000000000000000"/>
      <sparseX i="921" alpha="-17583.622108991858" sparseCutoff="1.0000000000000000"/>
      <sparseX i="922" alpha="-7020.2547986287700" sparseCutoff="1.0000000000000000"/>
      <sparseX i="923" alpha="-22499.411129554512" sparseCutoff="1.0000000000000000"/>
      <sparseX i="924" alpha="7048.4202885505238" sparseCutoff="1.0000000000000000"/>
      <sparseX i="925" alpha="4918.1829725007028" sparseCutoff="1.0000000000000000"/>
      <sparseX i="926" alpha="-4442.5236014125276" sparseCutoff="1.0000000000000000"/>
      <sparseX i="927" alpha="30652.068664634062" sparseCutoff="1.0000000000000000"/>
      <sparseX i="928" alpha="85.388052111422752" sparseCutoff="1.0000000000000000"/>
      <sparseX i="929" alpha="-20809.766050930477" sparseCutoff="1.0000000000000000"/>
      <sparseX i="930" alpha="14956.752208275069" sparseCutoff="1.0000000000000000"/>
      <sparseX i="931" alpha="-5573.8715362943167" sparseCutoff="1.0000000000000000"/>
      <sparseX i="932" alpha="-21402.756987350593" sparseCutoff="1.0000000000000000"/>
      <sparseX i="933" alpha="12993.258446561393" sparseCutoff="1.0000000000000000"/>
      <sparseX i="934" alpha="7393.1247915309668" sparseCutoff="1.0000000000000000"/>
      <sparseX i="935" alpha="-26970.057151122310" sparseCutoff="1.0000000000000000"/>
      <sparseX i="936" alpha="25024.837463457628" sparseCutoff="1.0000000000000000"/>
