<GAP_2021_10_25_0_6_16_1_68>
<Potential label="GAP_2021_10_25_0_6_16_1_68" init_args="IP GAP label=GAP_2021_10_25_0_6_16_1_68"/>
<GAP_params label="GAP_2021_10_25_0_6_16_1_68" gap_version="1548461341">
  <GAP_data do_core="F">
    <e0 Z="1" value=".00000000000000000E+000"/>
    <e0 Z="2" value=".00000000000000000E+000"/>
    <e0 Z="3" value=".00000000000000000E+000"/>
    <e0 Z="4" value=".00000000000000000E+000"/>
    <e0 Z="5" value=".00000000000000000E+000"/>
    <e0 Z="6" value=".00000000000000000E+000"/>
    <e0 Z="7" value=".00000000000000000E+000"/>
    <e0 Z="8" value="-.62148455999999996"/>
    <e0 Z="9" value=".00000000000000000E+000"/>
    <e0 Z="10" value=".00000000000000000E+000"/>
    <e0 Z="11" value=".00000000000000000E+000"/>
    <e0 Z="12" value=".00000000000000000E+000"/>
    <e0 Z="13" value=".00000000000000000E+000"/>
    <e0 Z="14" value=".00000000000000000E+000"/>
    <e0 Z="15" value=".00000000000000000E+000"/>
    <e0 Z="16" value=".00000000000000000E+000"/>
    <e0 Z="17" value=".00000000000000000E+000"/>
    <e0 Z="18" value=".00000000000000000E+000"/>
    <e0 Z="19" value=".00000000000000000E+000"/>
    <e0 Z="20" value=".00000000000000000E+000"/>
    <e0 Z="21" value=".00000000000000000E+000"/>
    <e0 Z="22" value=".00000000000000000E+000"/>
    <e0 Z="23" value=".00000000000000000E+000"/>
    <e0 Z="24" value=".00000000000000000E+000"/>
    <e0 Z="25" value=".00000000000000000E+000"/>
    <e0 Z="26" value=".00000000000000000E+000"/>
    <e0 Z="27" value=".00000000000000000E+000"/>
    <e0 Z="28" value=".00000000000000000E+000"/>
    <e0 Z="29" value=".00000000000000000E+000"/>
    <e0 Z="30" value=".00000000000000000E+000"/>
    <e0 Z="31" value=".00000000000000000E+000"/>
    <e0 Z="32" value=".00000000000000000E+000"/>
    <e0 Z="33" value=".00000000000000000E+000"/>
    <e0 Z="34" value=".00000000000000000E+000"/>
    <e0 Z="35" value=".00000000000000000E+000"/>
    <e0 Z="36" value=".00000000000000000E+000"/>
    <e0 Z="37" value=".00000000000000000E+000"/>
    <e0 Z="38" value=".00000000000000000E+000"/>
    <e0 Z="39" value=".00000000000000000E+000"/>
    <e0 Z="40" value=".00000000000000000E+000"/>
    <e0 Z="41" value=".00000000000000000E+000"/>
    <e0 Z="42" value=".00000000000000000E+000"/>
    <e0 Z="43" value=".00000000000000000E+000"/>
    <e0 Z="44" value=".00000000000000000E+000"/>
    <e0 Z="45" value=".00000000000000000E+000"/>
    <e0 Z="46" value=".00000000000000000E+000"/>
    <e0 Z="47" value=".00000000000000000E+000"/>
    <e0 Z="48" value=".00000000000000000E+000"/>
    <e0 Z="49" value=".00000000000000000E+000"/>
    <e0 Z="50" value=".00000000000000000E+000"/>
    <e0 Z="51" value=".00000000000000000E+000"/>
    <e0 Z="52" value=".00000000000000000E+000"/>
    <e0 Z="53" value=".00000000000000000E+000"/>
    <e0 Z="54" value=".00000000000000000E+000"/>
    <e0 Z="55" value=".00000000000000000E+000"/>
    <e0 Z="56" value=".00000000000000000E+000"/>
    <e0 Z="57" value=".00000000000000000E+000"/>
    <e0 Z="58" value=".00000000000000000E+000"/>
    <e0 Z="59" value=".00000000000000000E+000"/>
    <e0 Z="60" value=".00000000000000000E+000"/>
    <e0 Z="61" value=".00000000000000000E+000"/>
    <e0 Z="62" value=".00000000000000000E+000"/>
    <e0 Z="63" value=".00000000000000000E+000"/>
    <e0 Z="64" value=".00000000000000000E+000"/>
    <e0 Z="65" value=".00000000000000000E+000"/>
    <e0 Z="66" value=".00000000000000000E+000"/>
    <e0 Z="67" value=".00000000000000000E+000"/>
    <e0 Z="68" value=".00000000000000000E+000"/>
    <e0 Z="69" value=".00000000000000000E+000"/>
    <e0 Z="70" value=".00000000000000000E+000"/>
    <e0 Z="71" value=".00000000000000000E+000"/>
    <e0 Z="72" value="-55.002928840000003"/>
    <e0 Z="73" value=".00000000000000000E+000"/>
    <e0 Z="74" value=".00000000000000000E+000"/>
    <e0 Z="75" value=".00000000000000000E+000"/>
    <e0 Z="76" value=".00000000000000000E+000"/>
    <e0 Z="77" value=".00000000000000000E+000"/>
    <e0 Z="78" value=".00000000000000000E+000"/>
    <e0 Z="79" value=".00000000000000000E+000"/>
    <e0 Z="80" value=".00000000000000000E+000"/>
    <e0 Z="81" value=".00000000000000000E+000"/>
    <e0 Z="82" value=".00000000000000000E+000"/>
    <e0 Z="83" value=".00000000000000000E+000"/>
    <e0 Z="84" value=".00000000000000000E+000"/>
    <e0 Z="85" value=".00000000000000000E+000"/>
    <e0 Z="86" value=".00000000000000000E+000"/>
    <e0 Z="87" value=".00000000000000000E+000"/>
    <e0 Z="88" value=".00000000000000000E+000"/>
    <e0 Z="89" value=".00000000000000000E+000"/>
    <e0 Z="90" value=".00000000000000000E+000"/>
    <e0 Z="91" value=".00000000000000000E+000"/>
    <e0 Z="92" value=".00000000000000000E+000"/>
    <e0 Z="93" value=".00000000000000000E+000"/>
    <e0 Z="94" value=".00000000000000000E+000"/>
    <e0 Z="95" value=".00000000000000000E+000"/>
    <e0 Z="96" value=".00000000000000000E+000"/>
    <e0 Z="97" value=".00000000000000000E+000"/>
    <e0 Z="98" value=".00000000000000000E+000"/>
    <e0 Z="99" value=".00000000000000000E+000"/>
    <e0 Z="100" value=".00000000000000000E+000"/>
    <e0 Z="101" value=".00000000000000000E+000"/>
    <e0 Z="102" value=".00000000000000000E+000"/>
    <e0 Z="103" value=".00000000000000000E+000"/>
    <e0 Z="104" value=".00000000000000000E+000"/>
    <e0 Z="105" value=".00000000000000000E+000"/>
    <e0 Z="106" value=".00000000000000000E+000"/>
    <e0 Z="107" value=".00000000000000000E+000"/>
    <e0 Z="108" value=".00000000000000000E+000"/>
    <e0 Z="109" value=".00000000000000000E+000"/>
    <e0 Z="110" value=".00000000000000000E+000"/>
    <e0 Z="111" value=".00000000000000000E+000"/>
    <e0 Z="112" value=".00000000000000000E+000"/>
    <e0 Z="113" value=".00000000000000000E+000"/>
    <e0 Z="114" value=".00000000000000000E+000"/>
    <e0 Z="115" value=".00000000000000000E+000"/>
    <e0 Z="116" value=".00000000000000000E+000"/>
    <e0 Z="117" value=".00000000000000000E+000"/>
    <e0 Z="118" value=".00000000000000000E+000"/>
  </GAP_data>
  <gpSparse label="GAP_2021_10_25_0_6_16_1_68" n_coordinate="5">
    <gpCoordinates label="GAP_2021_10_25_0_6_16_1_681" dimensions="1" signal_variance="2.0000000000000000" signal_mean=".00000000000000000E+000" sparsified="T" n_permutations="2" covariance_type="1" n_sparseX="32" sparseX_filename="gap_HfO2.xml.sparseX.GAP_2021_10_25_0_6_16_1_681" sparseX_md5sum="">
      <theta>  0.10000000000000000E+001 </theta>
      <descriptor>distance_Nb order=2 compact_clusters=T cutoff=5.0 n_sparse=32 cutoff_transition_width=1.0 sparse_method=uniform delta=2.0 covariance_type=ard_se theta_uniform=1.0             Z={72 72 }</descriptor>
      <permutation i="1">1  </permutation>
      <permutation i="2">1  </permutation>
      <sparseX i="1" alpha="-14824.589325532243" sparseCutoff=".99890680708609791"/>
      <sparseX i="2" alpha="-5933.0748463702057" sparseCutoff=".87892231710883539"/>
      <sparseX i="3" alpha="7208.3376999126785" sparseCutoff="1.0000000000000000"/>
      <sparseX i="4" alpha="-16540.388380096032" sparseCutoff="1.0000000000000000"/>
      <sparseX i="5" alpha="15542.350305449829" sparseCutoff=".66937371899517306"/>
      <sparseX i="6" alpha="-14972.977593402324" sparseCutoff="1.0000000000000000"/>
      <sparseX i="7" alpha="-18949.258197068331" sparseCutoff=".95586306688341760"/>
      <sparseX i="8" alpha="-12035.058241993151" sparseCutoff="1.0000000000000000"/>
      <sparseX i="9" alpha="-19576.812502077202" sparseCutoff=".31924666565923554"/>
      <sparseX i="10" alpha="-11493.561936007494" sparseCutoff="1.0000000000000000"/>
      <sparseX i="11" alpha="-1106.3631740858941" sparseCutoff="1.0000000000000000"/>
      <sparseX i="12" alpha="11093.171924897577" sparseCutoff="1.0000000000000000"/>
      <sparseX i="13" alpha="4657.2982243451188" sparseCutoff=".81758295336601194"/>
      <sparseX i="14" alpha="-13344.128528850644" sparseCutoff="1.0000000000000000"/>
      <sparseX i="15" alpha="14864.259530197969" sparseCutoff="1.0000000000000000"/>
      <sparseX i="16" alpha="3213.7418528696235" sparseCutoff=".51600411885019981"/>
      <sparseX i="17" alpha="27928.751408304339" sparseCutoff=".50064295051301555E-001"/>
      <sparseX i="18" alpha="2244.7650573817186" sparseCutoff=".85027079698596353E-003"/>
      <sparseX i="19" alpha="16673.638601206905" sparseCutoff="1.0000000000000000"/>
      <sparseX i="20" alpha="9873.9711334568583" sparseCutoff=".48836987672926102E-002"/>
      <sparseX i="21" alpha="-18822.911180585554" sparseCutoff=".25439106185939730"/>
      <sparseX i="22" alpha="18492.808722136939" sparseCutoff="1.0000000000000000"/>
      <sparseX i="23" alpha="10217.663523598392" sparseCutoff="1.0000000000000000"/>
      <sparseX i="24" alpha="11533.100466157024" sparseCutoff="1.0000000000000000"/>
      <sparseX i="25" alpha="8930.1520883565809" sparseCutoff=".11988982667166725"/>
      <sparseX i="26" alpha="15094.128599893504" sparseCutoff=".64824522942522311"/>
      <sparseX i="27" alpha="-20606.919688894668" sparseCutoff="1.0000000000000000"/>
      <sparseX i="28" alpha="14245.296446736575" sparseCutoff="1.0000000000000000"/>
      <sparseX i="29" alpha="-12197.234247507666" sparseCutoff="1.0000000000000000"/>
      <sparseX i="30" alpha="6111.9845669303240" sparseCutoff="1.0000000000000000"/>
      <sparseX i="31" alpha="26172.741727012090" sparseCutoff="1.0000000000000000"/>
      <sparseX i="32" alpha="-13310.574080425942" sparseCutoff="1.0000000000000000"/>
    </gpCoordinates>
    <gpCoordinates label="GAP_2021_10_25_0_6_16_1_682" dimensions="1" signal_variance="2.0000000000000000" signal_mean=".00000000000000000E+000" sparsified="T" n_permutations="1" covariance_type="1" n_sparseX="32" sparseX_filename="gap_HfO2.xml.sparseX.GAP_2021_10_25_0_6_16_1_682" sparseX_md5sum="">
      <theta>  0.10000000000000000E+001 </theta>
      <descriptor>distance_Nb order=2 compact_clusters=T cutoff=5.0 n_sparse=32 cutoff_transition_width=1.0 sparse_method=uniform delta=2.0 covariance_type=ard_se theta_uniform=1.0             Z={8 72 }</descriptor>
      <permutation i="1">1  </permutation>
      <sparseX i="1" alpha="-24258.180361870323" sparseCutoff=".85725597248810259"/>
      <sparseX i="2" alpha="-150430.88427933477" sparseCutoff=".84057502632108316E-002"/>
      <sparseX i="3" alpha="-96123.644117522301" sparseCutoff=".79146428707519068"/>
      <sparseX i="4" alpha="224063.86044936418" sparseCutoff="1.0000000000000000"/>
      <sparseX i="5" alpha="2290.2728524387567" sparseCutoff="1.0000000000000000"/>
      <sparseX i="6" alpha="-116429.53283496520" sparseCutoff="1.0000000000000000"/>
      <sparseX i="7" alpha="83478.261995208246" sparseCutoff=".45238194774445017"/>
      <sparseX i="8" alpha="-32.906211673872967" sparseCutoff=".10386018426955523E-005"/>
      <sparseX i="9" alpha="-62741.060897123003" sparseCutoff="1.0000000000000000"/>
      <sparseX i="10" alpha="104649.08917113321" sparseCutoff="1.0000000000000000"/>
      <sparseX i="11" alpha="166095.99331465684" sparseCutoff="1.0000000000000000"/>
      <sparseX i="12" alpha="138419.57374181660" sparseCutoff=".97258584337167586"/>
      <sparseX i="13" alpha="144620.65122078857" sparseCutoff=".24979149201823830"/>
      <sparseX i="14" alpha="136924.25828826733" sparseCutoff=".99470180281393183"/>
      <sparseX i="15" alpha="-76628.963800787111" sparseCutoff="1.0000000000000000"/>
      <sparseX i="16" alpha="-117196.93246454830" sparseCutoff=".65371258085962569"/>
      <sparseX i="17" alpha="-140065.89283353748" sparseCutoff=".12071570054886921"/>
      <sparseX i="18" alpha="124400.40843986734" sparseCutoff="1.0000000000000000"/>
      <sparseX i="19" alpha="-127382.83855615620" sparseCutoff="1.0000000000000000"/>
      <sparseX i="20" alpha="30971.698446711107" sparseCutoff="1.0000000000000000"/>
      <sparseX i="21" alpha="-91037.729697124174" sparseCutoff="1.0000000000000000"/>
      <sparseX i="22" alpha="-186671.54667741447" sparseCutoff="1.0000000000000000"/>
      <sparseX i="23" alpha="106676.69875677738" sparseCutoff="1.0000000000000000"/>
      <sparseX i="24" alpha="-130461.85118881227" sparseCutoff="1.0000000000000000"/>
      <sparseX i="25" alpha="95850.927616400266" sparseCutoff="1.0000000000000000"/>
      <sparseX i="26" alpha="-143199.31134216679" sparseCutoff="1.0000000000000000"/>
      <sparseX i="27" alpha="171051.87880160904" sparseCutoff="1.0000000000000000"/>
      <sparseX i="28" alpha="-66017.136956229660" sparseCutoff="1.0000000000000000"/>
      <sparseX i="29" alpha="-45329.482976026455" sparseCutoff="1.0000000000000000"/>
      <sparseX i="30" alpha="91337.674264847519" sparseCutoff="1.0000000000000000"/>
      <sparseX i="31" alpha="-366375.77293917065" sparseCutoff="1.0000000000000000"/>
      <sparseX i="32" alpha="141846.77025015742" sparseCutoff="1.0000000000000000"/>
    </gpCoordinates>
    <gpCoordinates label="GAP_2021_10_25_0_6_16_1_683" dimensions="1" signal_variance="2.0000000000000000" signal_mean=".00000000000000000E+000" sparsified="T" n_permutations="2" covariance_type="1" n_sparseX="32" sparseX_filename="gap_HfO2.xml.sparseX.GAP_2021_10_25_0_6_16_1_683" sparseX_md5sum="">
      <theta>  0.10000000000000000E+001 </theta>
      <descriptor>distance_Nb order=2 compact_clusters=T cutoff=5.0 n_sparse=32 cutoff_transition_width=1.0 sparse_method=uniform delta=2.0 covariance_type=ard_se theta_uniform=1.0             Z={8 8 }</descriptor>
      <permutation i="1">1  </permutation>
      <permutation i="2">1  </permutation>
      <sparseX i="1" alpha="-12880.452367174297" sparseCutoff=".78069369451325699"/>
      <sparseX i="2" alpha="13068.520089150605" sparseCutoff=".24630590704505156"/>
      <sparseX i="3" alpha="9099.7841334493405" sparseCutoff="1.0000000000000000"/>
      <sparseX i="4" alpha="-18624.208524288835" sparseCutoff=".26219040033562124E-001"/>
      <sparseX i="5" alpha="-12108.951915181164" sparseCutoff=".10873390951981532"/>
      <sparseX i="6" alpha="-5861.6634727672363" sparseCutoff="1.0000000000000000"/>
      <sparseX i="7" alpha="3687.4649207751318" sparseCutoff=".91411445621961773"/>
      <sparseX i="8" alpha="10312.466957044642" sparseCutoff="1.0000000000000000"/>
      <sparseX i="9" alpha="7976.3731223489503" sparseCutoff="1.0000000000000000"/>
      <sparseX i="10" alpha="11129.625104864352" sparseCutoff=".43214146933866748"/>
      <sparseX i="11" alpha="-9942.7982903984848" sparseCutoff=".82025091378764947"/>
      <sparseX i="12" alpha="-6192.4072916939995" sparseCutoff="1.0000000000000000"/>
      <sparseX i="13" alpha="-2389.9295033914077" sparseCutoff="1.0000000000000000"/>
      <sparseX i="14" alpha="7313.0156873789138" sparseCutoff="1.0000000000000000"/>
      <sparseX i="15" alpha="13062.418153610632" sparseCutoff="1.0000000000000000"/>
      <sparseX i="16" alpha="-7130.8044946510754" sparseCutoff=".55412870850930496E-002"/>
      <sparseX i="17" alpha="-12202.814683118821" sparseCutoff="1.0000000000000000"/>
      <sparseX i="18" alpha="-8245.6529317513778" sparseCutoff="1.0000000000000000"/>
      <sparseX i="19" alpha="-2950.1094414941199" sparseCutoff=".55951198637016308"/>
      <sparseX i="20" alpha="18231.395199791772" sparseCutoff=".99691811277589304"/>
      <sparseX i="21" alpha="7295.0019012727807" sparseCutoff="1.0000000000000000"/>
      <sparseX i="22" alpha="-15162.409540806113" sparseCutoff="1.0000000000000000"/>
      <sparseX i="23" alpha="1089.5673470429817" sparseCutoff="1.0000000000000000"/>
      <sparseX i="24" alpha="-11479.443245571394" sparseCutoff="1.0000000000000000"/>
      <sparseX i="25" alpha="9972.2013174282947" sparseCutoff="1.0000000000000000"/>
      <sparseX i="26" alpha="-8995.4525316852141" sparseCutoff="1.0000000000000000"/>
      <sparseX i="27" alpha="-3541.6106824047283" sparseCutoff="1.0000000000000000"/>
      <sparseX i="28" alpha="-8035.8276838642541" sparseCutoff="1.0000000000000000"/>
      <sparseX i="29" alpha="2920.7052073258092" sparseCutoff="1.0000000000000000"/>
      <sparseX i="30" alpha="9953.2777355649869" sparseCutoff="1.0000000000000000"/>
      <sparseX i="31" alpha="-5444.7361519184115" sparseCutoff="1.0000000000000000"/>
      <sparseX i="32" alpha="689.87570572219943" sparseCutoff="1.0000000000000000"/>
    </gpCoordinates>
    <gpCoordinates label="GAP_2021_10_25_0_6_16_1_684" dimensions="953" signal_variance=".54000000000000004" signal_mean=".00000000000000000E+000" sparsified="T" n_permutations="1" covariance_type="2" zeta="4.0000000000000000" n_sparseX="1500" sparseX_filename="gap_HfO2.xml.sparseX.GAP_2021_10_25_0_6_16_1_684" sparseX_md5sum="">
      <descriptor> soap cutoff=5.0 n_sparse=1500 covariance_type=dot_product sparse_method=cur_points delta=0.54 zeta=4 l_max=6 n_max=8 atom_sigma=0.5 cutoff_transition_width=1.0             n_species=2 Z=72 species_Z={72 8 }</descriptor>
      <permutation i="1">1  </permutation>
      <sparseX i="1" alpha="657.70668016824482" sparseCutoff="1.0000000000000000"/>
      <sparseX i="2" alpha="-43.830234482718843" sparseCutoff="1.0000000000000000"/>
      <sparseX i="3" alpha="18.774137032812202" sparseCutoff="1.0000000000000000"/>
      <sparseX i="4" alpha="-360.27678882534951" sparseCutoff="1.0000000000000000"/>
      <sparseX i="5" alpha="568.74833730698913" sparseCutoff="1.0000000000000000"/>
      <sparseX i="6" alpha="-353.08492545697533" sparseCutoff="1.0000000000000000"/>
      <sparseX i="7" alpha="-19.380187440845720" sparseCutoff="1.0000000000000000"/>
      <sparseX i="8" alpha="1117.3778795225910" sparseCutoff="1.0000000000000000"/>
      <sparseX i="9" alpha="1110.1667636823786" sparseCutoff="1.0000000000000000"/>
      <sparseX i="10" alpha="375.65977168073999" sparseCutoff="1.0000000000000000"/>
      <sparseX i="11" alpha="64.192064728688237" sparseCutoff="1.0000000000000000"/>
      <sparseX i="12" alpha="417.52127443590217" sparseCutoff="1.0000000000000000"/>
      <sparseX i="13" alpha="239.82195006906073" sparseCutoff="1.0000000000000000"/>
      <sparseX i="14" alpha="931.71011160589705" sparseCutoff="1.0000000000000000"/>
      <sparseX i="15" alpha="507.23625043228083" sparseCutoff="1.0000000000000000"/>
      <sparseX i="16" alpha="-117.22386323849980" sparseCutoff="1.0000000000000000"/>
      <sparseX i="17" alpha="434.14797891922370" sparseCutoff="1.0000000000000000"/>
      <sparseX i="18" alpha="-589.63948075391318" sparseCutoff="1.0000000000000000"/>
      <sparseX i="19" alpha="-238.10382261778594" sparseCutoff="1.0000000000000000"/>
      <sparseX i="20" alpha="18.492207765782190" sparseCutoff="1.0000000000000000"/>
      <sparseX i="21" alpha="550.72436853523209" sparseCutoff="1.0000000000000000"/>
      <sparseX i="22" alpha="100.23542634508823" sparseCutoff="1.0000000000000000"/>
      <sparseX i="23" alpha="-670.42921489486514" sparseCutoff="1.0000000000000000"/>
      <sparseX i="24" alpha="840.31566541160964" sparseCutoff="1.0000000000000000"/>
      <sparseX i="25" alpha="82.539240495729985" sparseCutoff="1.0000000000000000"/>
      <sparseX i="26" alpha="-557.58615297799395" sparseCutoff="1.0000000000000000"/>
      <sparseX i="27" alpha="-559.01373577563209" sparseCutoff="1.0000000000000000"/>
      <sparseX i="28" alpha="359.31031790909839" sparseCutoff="1.0000000000000000"/>
      <sparseX i="29" alpha="-9.0508455721046808" sparseCutoff="1.0000000000000000"/>
      <sparseX i="30" alpha="354.98125560029445" sparseCutoff="1.0000000000000000"/>
      <sparseX i="31" alpha="1329.9484727418649" sparseCutoff="1.0000000000000000"/>
      <sparseX i="32" alpha="-1043.4620580936112" sparseCutoff="1.0000000000000000"/>
      <sparseX i="33" alpha="127.02270798355599" sparseCutoff="1.0000000000000000"/>
      <sparseX i="34" alpha="-75.541045886118383" sparseCutoff="1.0000000000000000"/>
      <sparseX i="35" alpha="385.56469119559029" sparseCutoff="1.0000000000000000"/>
      <sparseX i="36" alpha="1642.9564461803768" sparseCutoff="1.0000000000000000"/>
      <sparseX i="37" alpha="-177.97144608773621" sparseCutoff="1.0000000000000000"/>
      <sparseX i="38" alpha="-776.66576157078850" sparseCutoff="1.0000000000000000"/>
      <sparseX i="39" alpha="2592.3178025505658" sparseCutoff="1.0000000000000000"/>
      <sparseX i="40" alpha="-862.67084638087294" sparseCutoff="1.0000000000000000"/>
      <sparseX i="41" alpha="449.25717841724747" sparseCutoff="1.0000000000000000"/>
      <sparseX i="42" alpha="-1034.4557770137662" sparseCutoff="1.0000000000000000"/>
      <sparseX i="43" alpha="-591.28585272512521" sparseCutoff="1.0000000000000000"/>
      <sparseX i="44" alpha="-545.97142402689849" sparseCutoff="1.0000000000000000"/>
      <sparseX i="45" alpha="-527.29927467456389" sparseCutoff="1.0000000000000000"/>
      <sparseX i="46" alpha="-487.30873249503219" sparseCutoff="1.0000000000000000"/>
      <sparseX i="47" alpha="-226.29528627463779" sparseCutoff="1.0000000000000000"/>
      <sparseX i="48" alpha="75.803507057804850" sparseCutoff="1.0000000000000000"/>
      <sparseX i="49" alpha="-627.66590140659605" sparseCutoff="1.0000000000000000"/>
      <sparseX i="50" alpha="-190.83268102239603" sparseCutoff="1.0000000000000000"/>
      <sparseX i="51" alpha="1208.2130043582724" sparseCutoff="1.0000000000000000"/>
      <sparseX i="52" alpha="749.52042987927905" sparseCutoff="1.0000000000000000"/>
      <sparseX i="53" alpha="139.16519677307571" sparseCutoff="1.0000000000000000"/>
      <sparseX i="54" alpha="-1274.0165955860484" sparseCutoff="1.0000000000000000"/>
      <sparseX i="55" alpha="597.86506367320555" sparseCutoff="1.0000000000000000"/>
      <sparseX i="56" alpha="-1637.5163895469577" sparseCutoff="1.0000000000000000"/>
      <sparseX i="57" alpha="-838.79624381724147" sparseCutoff="1.0000000000000000"/>
      <sparseX i="58" alpha="-747.48989380685396" sparseCutoff="1.0000000000000000"/>
      <sparseX i="59" alpha="-382.50750171340457" sparseCutoff="1.0000000000000000"/>
      <sparseX i="60" alpha="601.39081516050476" sparseCutoff="1.0000000000000000"/>
      <sparseX i="61" alpha="-110.07460709747875" sparseCutoff="1.0000000000000000"/>
      <sparseX i="62" alpha="11.870108889447645" sparseCutoff="1.0000000000000000"/>
      <sparseX i="63" alpha="-347.74204699848980" sparseCutoff="1.0000000000000000"/>
      <sparseX i="64" alpha="106.22975195246522" sparseCutoff="1.0000000000000000"/>
      <sparseX i="65" alpha="-1720.6613635052383" sparseCutoff="1.0000000000000000"/>
      <sparseX i="66" alpha="234.54681731487469" sparseCutoff="1.0000000000000000"/>
      <sparseX i="67" alpha="-756.59845465262504" sparseCutoff="1.0000000000000000"/>
      <sparseX i="68" alpha="-1296.4766002927277" sparseCutoff="1.0000000000000000"/>
      <sparseX i="69" alpha="5.4937078564177835" sparseCutoff="1.0000000000000000"/>
      <sparseX i="70" alpha="744.88358172697406" sparseCutoff="1.0000000000000000"/>
      <sparseX i="71" alpha="1428.8305020388925" sparseCutoff="1.0000000000000000"/>
      <sparseX i="72" alpha="697.26294906494832" sparseCutoff="1.0000000000000000"/>
      <sparseX i="73" alpha="-146.41408023817274" sparseCutoff="1.0000000000000000"/>
      <sparseX i="74" alpha="-465.59511338716953" sparseCutoff="1.0000000000000000"/>
      <sparseX i="75" alpha="67.456850152220483" sparseCutoff="1.0000000000000000"/>
      <sparseX i="76" alpha="-1046.8775592949839" sparseCutoff="1.0000000000000000"/>
      <sparseX i="77" alpha="-154.91911803595966" sparseCutoff="1.0000000000000000"/>
      <sparseX i="78" alpha="-804.96468188632093" sparseCutoff="1.0000000000000000"/>
      <sparseX i="79" alpha="-145.27576516016953" sparseCutoff="1.0000000000000000"/>
      <sparseX i="80" alpha="104.08290252307783" sparseCutoff="1.0000000000000000"/>
      <sparseX i="81" alpha="501.31867552820995" sparseCutoff="1.0000000000000000"/>
      <sparseX i="82" alpha="-655.97207986393892" sparseCutoff="1.0000000000000000"/>
      <sparseX i="83" alpha="-334.01283959834120" sparseCutoff="1.0000000000000000"/>
      <sparseX i="84" alpha="1067.5198265812780" sparseCutoff="1.0000000000000000"/>
      <sparseX i="85" alpha="-157.08122036376247" sparseCutoff="1.0000000000000000"/>
      <sparseX i="86" alpha="1632.6029037105493" sparseCutoff="1.0000000000000000"/>
      <sparseX i="87" alpha="1028.5872900073102" sparseCutoff="1.0000000000000000"/>
      <sparseX i="88" alpha="-182.06706362905763" sparseCutoff="1.0000000000000000"/>
      <sparseX i="89" alpha="-73.092360315501210" sparseCutoff="1.0000000000000000"/>
      <sparseX i="90" alpha="-386.70160900276852" sparseCutoff="1.0000000000000000"/>
      <sparseX i="91" alpha="-45.950831209191300" sparseCutoff="1.0000000000000000"/>
      <sparseX i="92" alpha="-172.62610930222831" sparseCutoff="1.0000000000000000"/>
      <sparseX i="93" alpha="344.05092545762739" sparseCutoff="1.0000000000000000"/>
      <sparseX i="94" alpha="-462.72385553615379" sparseCutoff="1.0000000000000000"/>
      <sparseX i="95" alpha="782.81066563031413" sparseCutoff="1.0000000000000000"/>
      <sparseX i="96" alpha="-472.85288116944747" sparseCutoff="1.0000000000000000"/>
      <sparseX i="97" alpha="-1395.8996276301830" sparseCutoff="1.0000000000000000"/>
      <sparseX i="98" alpha="-285.33605414348625" sparseCutoff="1.0000000000000000"/>
      <sparseX i="99" alpha="-2373.7208175834808" sparseCutoff="1.0000000000000000"/>
      <sparseX i="100" alpha="-967.19262985839805" sparseCutoff="1.0000000000000000"/>
      <sparseX i="101" alpha="-674.56771364271572" sparseCutoff="1.0000000000000000"/>
      <sparseX i="102" alpha="-232.24842138444299" sparseCutoff="1.0000000000000000"/>
      <sparseX i="103" alpha="1222.4447836844736" sparseCutoff="1.0000000000000000"/>
      <sparseX i="104" alpha="-1628.6432328469073" sparseCutoff="1.0000000000000000"/>
      <sparseX i="105" alpha="-28.588563553674753" sparseCutoff="1.0000000000000000"/>
      <sparseX i="106" alpha="4.8436563543367868" sparseCutoff="1.0000000000000000"/>
      <sparseX i="107" alpha="-434.26320671586831" sparseCutoff="1.0000000000000000"/>
      <sparseX i="108" alpha="-313.96666027162627" sparseCutoff="1.0000000000000000"/>
      <sparseX i="109" alpha="-161.65425864081064" sparseCutoff="1.0000000000000000"/>
      <sparseX i="110" alpha="111.36717207484214" sparseCutoff="1.0000000000000000"/>
      <sparseX i="111" alpha="359.04954677278670" sparseCutoff="1.0000000000000000"/>
      <sparseX i="112" alpha="-646.51066571572039" sparseCutoff="1.0000000000000000"/>
      <sparseX i="113" alpha="603.39306177387346" sparseCutoff="1.0000000000000000"/>
      <sparseX i="114" alpha="-1772.1721448645835" sparseCutoff="1.0000000000000000"/>
      <sparseX i="115" alpha="884.30701563267974" sparseCutoff="1.0000000000000000"/>
      <sparseX i="116" alpha="1073.9728060043185" sparseCutoff="1.0000000000000000"/>
      <sparseX i="117" alpha="-215.08475460463532" sparseCutoff="1.0000000000000000"/>
      <sparseX i="118" alpha="-590.29197790680871" sparseCutoff="1.0000000000000000"/>
      <sparseX i="119" alpha="1164.0090823476251" sparseCutoff="1.0000000000000000"/>
      <sparseX i="120" alpha="1802.9634437574691" sparseCutoff="1.0000000000000000"/>
      <sparseX i="121" alpha="-132.83745630936835" sparseCutoff="1.0000000000000000"/>
      <sparseX i="122" alpha="-216.29013645373468" sparseCutoff="1.0000000000000000"/>
      <sparseX i="123" alpha="-1373.1319899165285" sparseCutoff="1.0000000000000000"/>
      <sparseX i="124" alpha="554.77165633878883" sparseCutoff="1.0000000000000000"/>
      <sparseX i="125" alpha="-444.27533880528932" sparseCutoff="1.0000000000000000"/>
      <sparseX i="126" alpha="-119.07728996677019" sparseCutoff="1.0000000000000000"/>
      <sparseX i="127" alpha="595.25145869450841" sparseCutoff="1.0000000000000000"/>
      <sparseX i="128" alpha="380.90579086310669" sparseCutoff="1.0000000000000000"/>
      <sparseX i="129" alpha="532.40761937443767" sparseCutoff="1.0000000000000000"/>
      <sparseX i="130" alpha="569.65643270625344" sparseCutoff="1.0000000000000000"/>
      <sparseX i="131" alpha="1607.6969134067754" sparseCutoff="1.0000000000000000"/>
      <sparseX i="132" alpha="-104.41994107507523" sparseCutoff="1.0000000000000000"/>
      <sparseX i="133" alpha="-509.22205717814393" sparseCutoff="1.0000000000000000"/>
      <sparseX i="134" alpha="690.74315039287399" sparseCutoff="1.0000000000000000"/>
      <sparseX i="135" alpha="625.56732193415201" sparseCutoff="1.0000000000000000"/>
      <sparseX i="136" alpha="-449.73542364707032" sparseCutoff="1.0000000000000000"/>
      <sparseX i="137" alpha="603.24394545240489" sparseCutoff="1.0000000000000000"/>
      <sparseX i="138" alpha="-1034.7480888929954" sparseCutoff="1.0000000000000000"/>
      <sparseX i="139" alpha="845.24513735929759" sparseCutoff="1.0000000000000000"/>
      <sparseX i="140" alpha="219.72220242827598" sparseCutoff="1.0000000000000000"/>
      <sparseX i="141" alpha="-728.66917534515756" sparseCutoff="1.0000000000000000"/>
      <sparseX i="142" alpha="130.44691028387038" sparseCutoff="1.0000000000000000"/>
      <sparseX i="143" alpha="1245.5045117976001" sparseCutoff="1.0000000000000000"/>
      <sparseX i="144" alpha="855.60965723699815" sparseCutoff="1.0000000000000000"/>
      <sparseX i="145" alpha="445.29940452921733" sparseCutoff="1.0000000000000000"/>
      <sparseX i="146" alpha="1075.5191014119939" sparseCutoff="1.0000000000000000"/>
      <sparseX i="147" alpha="897.63716707247249" sparseCutoff="1.0000000000000000"/>
      <sparseX i="148" alpha="903.65088911498071" sparseCutoff="1.0000000000000000"/>
      <sparseX i="149" alpha="448.95436727405922" sparseCutoff="1.0000000000000000"/>
      <sparseX i="150" alpha="120.96212726260515" sparseCutoff="1.0000000000000000"/>
      <sparseX i="151" alpha="1145.2817715840617" sparseCutoff="1.0000000000000000"/>
      <sparseX i="152" alpha="290.63722498426472" sparseCutoff="1.0000000000000000"/>
      <sparseX i="153" alpha="-59.254059117755652" sparseCutoff="1.0000000000000000"/>
      <sparseX i="154" alpha="1471.0623595262912" sparseCutoff="1.0000000000000000"/>
      <sparseX i="155" alpha="841.85164669764845" sparseCutoff="1.0000000000000000"/>
      <sparseX i="156" alpha="-336.06023903493156" sparseCutoff="1.0000000000000000"/>
      <sparseX i="157" alpha="-967.05208323416412" sparseCutoff="1.0000000000000000"/>
      <sparseX i="158" alpha="-647.70514941898057" sparseCutoff="1.0000000000000000"/>
      <sparseX i="159" alpha="147.37767317429365" sparseCutoff="1.0000000000000000"/>
      <sparseX i="160" alpha="-694.38469414098313" sparseCutoff="1.0000000000000000"/>
      <sparseX i="161" alpha="-541.60236967801757" sparseCutoff="1.0000000000000000"/>
      <sparseX i="162" alpha="-1386.1102479203321" sparseCutoff="1.0000000000000000"/>
      <sparseX i="163" alpha="881.43183254239079" sparseCutoff="1.0000000000000000"/>
      <sparseX i="164" alpha="1470.9997342566762" sparseCutoff="1.0000000000000000"/>
      <sparseX i="165" alpha="260.69806553725368" sparseCutoff="1.0000000000000000"/>
      <sparseX i="166" alpha="30.721168961090658" sparseCutoff="1.0000000000000000"/>
      <sparseX i="167" alpha="13.755414477227944" sparseCutoff="1.0000000000000000"/>
      <sparseX i="168" alpha="983.59947551294397" sparseCutoff="1.0000000000000000"/>
      <sparseX i="169" alpha="-210.17404571631866" sparseCutoff="1.0000000000000000"/>
      <sparseX i="170" alpha="-438.69277985855422" sparseCutoff="1.0000000000000000"/>
      <sparseX i="171" alpha="525.76949814771899" sparseCutoff="1.0000000000000000"/>
      <sparseX i="172" alpha="-789.53413872107296" sparseCutoff="1.0000000000000000"/>
      <sparseX i="173" alpha="45.603474821452963" sparseCutoff="1.0000000000000000"/>
      <sparseX i="174" alpha="-227.59127288603034" sparseCutoff="1.0000000000000000"/>
      <sparseX i="175" alpha="624.02692045654680" sparseCutoff="1.0000000000000000"/>
      <sparseX i="176" alpha="-77.197004824472529" sparseCutoff="1.0000000000000000"/>
      <sparseX i="177" alpha="58.870246526496551" sparseCutoff="1.0000000000000000"/>
      <sparseX i="178" alpha="317.16081857921210" sparseCutoff="1.0000000000000000"/>
      <sparseX i="179" alpha="2505.2426163353557" sparseCutoff="1.0000000000000000"/>
      <sparseX i="180" alpha="120.14059467121126" sparseCutoff="1.0000000000000000"/>
      <sparseX i="181" alpha="-3312.5816063655338" sparseCutoff="1.0000000000000000"/>
      <sparseX i="182" alpha="-157.49372208880308" sparseCutoff="1.0000000000000000"/>
      <sparseX i="183" alpha="2400.0703514119950" sparseCutoff="1.0000000000000000"/>
      <sparseX i="184" alpha="-507.67816536430712" sparseCutoff="1.0000000000000000"/>
      <sparseX i="185" alpha="513.72348013077658" sparseCutoff="1.0000000000000000"/>
      <sparseX i="186" alpha="1380.3100875836078" sparseCutoff="1.0000000000000000"/>
      <sparseX i="187" alpha="18.183030775092785" sparseCutoff="1.0000000000000000"/>
      <sparseX i="188" alpha="581.56155214565194" sparseCutoff="1.0000000000000000"/>
      <sparseX i="189" alpha="-725.92553606475701" sparseCutoff="1.0000000000000000"/>
      <sparseX i="190" alpha="774.90919562311819" sparseCutoff="1.0000000000000000"/>
      <sparseX i="191" alpha="-141.20927277569547" sparseCutoff="1.0000000000000000"/>
      <sparseX i="192" alpha="198.89017606505408" sparseCutoff="1.0000000000000000"/>
      <sparseX i="193" alpha="594.44624280520657" sparseCutoff="1.0000000000000000"/>
      <sparseX i="194" alpha="-182.32691622853216" sparseCutoff="1.0000000000000000"/>
      <sparseX i="195" alpha="-171.88647904114785" sparseCutoff="1.0000000000000000"/>
      <sparseX i="196" alpha="1354.6204976912875" sparseCutoff="1.0000000000000000"/>
      <sparseX i="197" alpha="-567.46926975419797" sparseCutoff="1.0000000000000000"/>
      <sparseX i="198" alpha="551.17065158030528" sparseCutoff="1.0000000000000000"/>
      <sparseX i="199" alpha="11.047074684187667" sparseCutoff="1.0000000000000000"/>
      <sparseX i="200" alpha="454.98055285391678" sparseCutoff="1.0000000000000000"/>
      <sparseX i="201" alpha="84.908679721978189" sparseCutoff="1.0000000000000000"/>
      <sparseX i="202" alpha="-1599.9964173279134" sparseCutoff="1.0000000000000000"/>
      <sparseX i="203" alpha="-607.96181695888151" sparseCutoff="1.0000000000000000"/>
      <sparseX i="204" alpha="513.21184297307673" sparseCutoff="1.0000000000000000"/>
      <sparseX i="205" alpha="-1067.2499254652380" sparseCutoff="1.0000000000000000"/>
      <sparseX i="206" alpha="-853.18847495609350" sparseCutoff="1.0000000000000000"/>
      <sparseX i="207" alpha="-164.18007002249735" sparseCutoff="1.0000000000000000"/>
      <sparseX i="208" alpha="616.12457228141352" sparseCutoff="1.0000000000000000"/>
      <sparseX i="209" alpha="-259.55547838637727" sparseCutoff="1.0000000000000000"/>
      <sparseX i="210" alpha="-190.81187776135567" sparseCutoff="1.0000000000000000"/>
      <sparseX i="211" alpha="-665.97164372588736" sparseCutoff="1.0000000000000000"/>
      <sparseX i="212" alpha="298.83118688956023" sparseCutoff="1.0000000000000000"/>
      <sparseX i="213" alpha="-599.99921806510849" sparseCutoff="1.0000000000000000"/>
      <sparseX i="214" alpha="-11.551027084954963" sparseCutoff="1.0000000000000000"/>
      <sparseX i="215" alpha="-342.25121875752649" sparseCutoff="1.0000000000000000"/>
      <sparseX i="216" alpha="519.24124354571666" sparseCutoff="1.0000000000000000"/>
      <sparseX i="217" alpha="51.991514167384210" sparseCutoff="1.0000000000000000"/>
      <sparseX i="218" alpha="757.73214281283845" sparseCutoff="1.0000000000000000"/>
      <sparseX i="219" alpha="768.94744560482513" sparseCutoff="1.0000000000000000"/>
      <sparseX i="220" alpha="360.10947930155055" sparseCutoff="1.0000000000000000"/>
      <sparseX i="221" alpha="1301.9702104553214" sparseCutoff="1.0000000000000000"/>
      <sparseX i="222" alpha="195.23607522317778" sparseCutoff="1.0000000000000000"/>
      <sparseX i="223" alpha="49.627333195009669" sparseCutoff="1.0000000000000000"/>
      <sparseX i="224" alpha="305.75798336539623" sparseCutoff="1.0000000000000000"/>
      <sparseX i="225" alpha="-201.91184583734403" sparseCutoff="1.0000000000000000"/>
      <sparseX i="226" alpha="80.174842348684052" sparseCutoff="1.0000000000000000"/>
      <sparseX i="227" alpha="204.95246823783239" sparseCutoff="1.0000000000000000"/>
      <sparseX i="228" alpha="302.82576093333012" sparseCutoff="1.0000000000000000"/>
      <sparseX i="229" alpha="-295.31293535993314" sparseCutoff="1.0000000000000000"/>
      <sparseX i="230" alpha="679.05086268285595" sparseCutoff="1.0000000000000000"/>
      <sparseX i="231" alpha="-1402.5468530425655" sparseCutoff="1.0000000000000000"/>
      <sparseX i="232" alpha="-517.73859403241374" sparseCutoff="1.0000000000000000"/>
      <sparseX i="233" alpha="403.93980958648615" sparseCutoff="1.0000000000000000"/>
      <sparseX i="234" alpha="-1297.5503184141696" sparseCutoff="1.0000000000000000"/>
      <sparseX i="235" alpha="1733.9090084509060" sparseCutoff="1.0000000000000000"/>
      <sparseX i="236" alpha="-82.781494515927193" sparseCutoff="1.0000000000000000"/>
      <sparseX i="237" alpha="48.791229920444678" sparseCutoff="1.0000000000000000"/>
      <sparseX i="238" alpha="-1444.6856670087395" sparseCutoff="1.0000000000000000"/>
      <sparseX i="239" alpha="-1200.3774994527344" sparseCutoff="1.0000000000000000"/>
      <sparseX i="240" alpha="-496.03417789901380" sparseCutoff="1.0000000000000000"/>
      <sparseX i="241" alpha="-1834.1171777251309" sparseCutoff="1.0000000000000000"/>
      <sparseX i="242" alpha="-530.04327536001483" sparseCutoff="1.0000000000000000"/>
      <sparseX i="243" alpha="388.50068469674108" sparseCutoff="1.0000000000000000"/>
      <sparseX i="244" alpha="-720.52918236491655" sparseCutoff="1.0000000000000000"/>
      <sparseX i="245" alpha="304.65181797661103" sparseCutoff="1.0000000000000000"/>
      <sparseX i="246" alpha="447.22732531141133" sparseCutoff="1.0000000000000000"/>
      <sparseX i="247" alpha="498.81174310053632" sparseCutoff="1.0000000000000000"/>
      <sparseX i="248" alpha="-584.85144683979775" sparseCutoff="1.0000000000000000"/>
      <sparseX i="249" alpha="167.51848340867207" sparseCutoff="1.0000000000000000"/>
      <sparseX i="250" alpha="491.52588818200655" sparseCutoff="1.0000000000000000"/>
      <sparseX i="251" alpha="-77.613808177186698" sparseCutoff="1.0000000000000000"/>
      <sparseX i="252" alpha="569.16773455056955" sparseCutoff="1.0000000000000000"/>
      <sparseX i="253" alpha="100.45038688435864" sparseCutoff="1.0000000000000000"/>
      <sparseX i="254" alpha="135.30375330796070" sparseCutoff="1.0000000000000000"/>
      <sparseX i="255" alpha="-503.70823083389411" sparseCutoff="1.0000000000000000"/>
      <sparseX i="256" alpha="-768.63014221409890" sparseCutoff="1.0000000000000000"/>
      <sparseX i="257" alpha="-169.09804927988435" sparseCutoff="1.0000000000000000"/>
      <sparseX i="258" alpha="-124.45639807590072" sparseCutoff="1.0000000000000000"/>
      <sparseX i="259" alpha="155.68277932322636" sparseCutoff="1.0000000000000000"/>
      <sparseX i="260" alpha="549.70625104755845" sparseCutoff="1.0000000000000000"/>
      <sparseX i="261" alpha="111.73438730418717" sparseCutoff="1.0000000000000000"/>
      <sparseX i="262" alpha="705.13603629461329" sparseCutoff="1.0000000000000000"/>
      <sparseX i="263" alpha="-1687.7782598337394" sparseCutoff="1.0000000000000000"/>
      <sparseX i="264" alpha="-287.30744965970587" sparseCutoff="1.0000000000000000"/>
      <sparseX i="265" alpha="1412.0575379120016" sparseCutoff="1.0000000000000000"/>
      <sparseX i="266" alpha="103.59028888325346" sparseCutoff="1.0000000000000000"/>
      <sparseX i="267" alpha="-1238.8752539888339" sparseCutoff="1.0000000000000000"/>
      <sparseX i="268" alpha="549.24121387425680" sparseCutoff="1.0000000000000000"/>
      <sparseX i="269" alpha="-464.21013440685289" sparseCutoff="1.0000000000000000"/>
      <sparseX i="270" alpha="247.89554619440295" sparseCutoff="1.0000000000000000"/>
      <sparseX i="271" alpha="-310.81638287274330" sparseCutoff="1.0000000000000000"/>
      <sparseX i="272" alpha="469.01456722289424" sparseCutoff="1.0000000000000000"/>
      <sparseX i="273" alpha="-213.78453162054493" sparseCutoff="1.0000000000000000"/>
      <sparseX i="274" alpha="-206.39332067027092" sparseCutoff="1.0000000000000000"/>
      <sparseX i="275" alpha="-359.73611534037269" sparseCutoff="1.0000000000000000"/>
      <sparseX i="276" alpha="-297.82538175711937" sparseCutoff="1.0000000000000000"/>
      <sparseX i="277" alpha="61.116740569570503" sparseCutoff="1.0000000000000000"/>
      <sparseX i="278" alpha="818.28212357950281" sparseCutoff="1.0000000000000000"/>
      <sparseX i="279" alpha="-122.66033612958084" sparseCutoff="1.0000000000000000"/>
      <sparseX i="280" alpha="935.81880857559111" sparseCutoff="1.0000000000000000"/>
      <sparseX i="281" alpha="52.836907330634070" sparseCutoff="1.0000000000000000"/>
      <sparseX i="282" alpha="191.47028283567548" sparseCutoff="1.0000000000000000"/>
      <sparseX i="283" alpha="-221.93362461905693" sparseCutoff="1.0000000000000000"/>
      <sparseX i="284" alpha="1078.8224952890960" sparseCutoff="1.0000000000000000"/>
      <sparseX i="285" alpha="-588.12778901963793" sparseCutoff="1.0000000000000000"/>
      <sparseX i="286" alpha="-8.5789610998637080" sparseCutoff="1.0000000000000000"/>
      <sparseX i="287" alpha="176.32615131194240" sparseCutoff="1.0000000000000000"/>
      <sparseX i="288" alpha="954.87523978650722" sparseCutoff="1.0000000000000000"/>
      <sparseX i="289" alpha="61.714313175190107" sparseCutoff="1.0000000000000000"/>
      <sparseX i="290" alpha="-516.72627706440005" sparseCutoff="1.0000000000000000"/>
      <sparseX i="291" alpha="-9.0954367256014681" sparseCutoff="1.0000000000000000"/>
      <sparseX i="292" alpha="-427.85637195089163" sparseCutoff="1.0000000000000000"/>
      <sparseX i="293" alpha="443.30407889329001" sparseCutoff="1.0000000000000000"/>
      <sparseX i="294" alpha="105.24107354504268" sparseCutoff="1.0000000000000000"/>
      <sparseX i="295" alpha="353.42201856623950" sparseCutoff="1.0000000000000000"/>
      <sparseX i="296" alpha="-1324.8854781301491" sparseCutoff="1.0000000000000000"/>
      <sparseX i="297" alpha="830.02426693080804" sparseCutoff="1.0000000000000000"/>
      <sparseX i="298" alpha="833.47116272027120" sparseCutoff="1.0000000000000000"/>
      <sparseX i="299" alpha="-64.752593892441865" sparseCutoff="1.0000000000000000"/>
      <sparseX i="300" alpha="939.19057345131489" sparseCutoff="1.0000000000000000"/>
      <sparseX i="301" alpha="187.19817059552392" sparseCutoff="1.0000000000000000"/>
      <sparseX i="302" alpha="-186.60228025994533" sparseCutoff="1.0000000000000000"/>
      <sparseX i="303" alpha="890.32821789622426" sparseCutoff="1.0000000000000000"/>
      <sparseX i="304" alpha="-425.11156460590854" sparseCutoff="1.0000000000000000"/>
      <sparseX i="305" alpha="347.56279666567866" sparseCutoff="1.0000000000000000"/>
      <sparseX i="306" alpha="216.30534894051232" sparseCutoff="1.0000000000000000"/>
      <sparseX i="307" alpha="310.66563525503608" sparseCutoff="1.0000000000000000"/>
      <sparseX i="308" alpha="-15.458585262996655" sparseCutoff="1.0000000000000000"/>
      <sparseX i="309" alpha="-358.98148242185187" sparseCutoff="1.0000000000000000"/>
      <sparseX i="310" alpha="610.56884870720171" sparseCutoff="1.0000000000000000"/>
      <sparseX i="311" alpha="813.49991277526965" sparseCutoff="1.0000000000000000"/>
      <sparseX i="312" alpha="-274.76187531649987" sparseCutoff="1.0000000000000000"/>
      <sparseX i="313" alpha="-328.22878619302543" sparseCutoff="1.0000000000000000"/>
      <sparseX i="314" alpha="802.90549201120984" sparseCutoff="1.0000000000000000"/>
      <sparseX i="315" alpha="-477.15640370270847" sparseCutoff="1.0000000000000000"/>
      <sparseX i="316" alpha="4.9019646919436459" sparseCutoff="1.0000000000000000"/>
      <sparseX i="317" alpha="-25.439090150642436" sparseCutoff="1.0000000000000000"/>
      <sparseX i="318" alpha="-943.61676450468144" sparseCutoff="1.0000000000000000"/>
      <sparseX i="319" alpha="586.16799033433063" sparseCutoff="1.0000000000000000"/>
      <sparseX i="320" alpha="2056.5168815454626" sparseCutoff="1.0000000000000000"/>
      <sparseX i="321" alpha="-989.65537410895297" sparseCutoff="1.0000000000000000"/>
      <sparseX i="322" alpha="-295.10004954837490" sparseCutoff="1.0000000000000000"/>
      <sparseX i="323" alpha="-992.49755460525762" sparseCutoff="1.0000000000000000"/>
      <sparseX i="324" alpha="-568.63795906876680" sparseCutoff="1.0000000000000000"/>
      <sparseX i="325" alpha="-960.68360419925102" sparseCutoff="1.0000000000000000"/>
      <sparseX i="326" alpha="-422.10360084108680" sparseCutoff="1.0000000000000000"/>
      <sparseX i="327" alpha="167.55554649828713" sparseCutoff="1.0000000000000000"/>
      <sparseX i="328" alpha="-677.15469766667695" sparseCutoff="1.0000000000000000"/>
      <sparseX i="329" alpha="1150.2714666475449" sparseCutoff="1.0000000000000000"/>
      <sparseX i="330" alpha="124.52862704079403" sparseCutoff="1.0000000000000000"/>
      <sparseX i="331" alpha="-742.66409993900163" sparseCutoff="1.0000000000000000"/>
      <sparseX i="332" alpha="114.14480448536715" sparseCutoff="1.0000000000000000"/>
      <sparseX i="333" alpha="52.094336031817463" sparseCutoff="1.0000000000000000"/>
      <sparseX i="334" alpha="-387.43335193551331" sparseCutoff="1.0000000000000000"/>
      <sparseX i="335" alpha="-97.581346624675035" sparseCutoff="1.0000000000000000"/>
      <sparseX i="336" alpha="-617.41102866652398" sparseCutoff="1.0000000000000000"/>
      <sparseX i="337" alpha="-266.56963901887769" sparseCutoff="1.0000000000000000"/>
      <sparseX i="338" alpha="-936.79636600754213" sparseCutoff="1.0000000000000000"/>
      <sparseX i="339" alpha="-492.62143313895689" sparseCutoff="1.0000000000000000"/>
      <sparseX i="340" alpha="279.35386044836645" sparseCutoff="1.0000000000000000"/>
      <sparseX i="341" alpha="-166.72573640510956" sparseCutoff="1.0000000000000000"/>
      <sparseX i="342" alpha="-1.1627604368965441" sparseCutoff="1.0000000000000000"/>
      <sparseX i="343" alpha="460.46377968147340" sparseCutoff="1.0000000000000000"/>
      <sparseX i="344" alpha="-626.75354776888128" sparseCutoff="1.0000000000000000"/>
      <sparseX i="345" alpha="-620.47220554047215" sparseCutoff="1.0000000000000000"/>
      <sparseX i="346" alpha="-238.32440266987876" sparseCutoff="1.0000000000000000"/>
      <sparseX i="347" alpha="255.93834353373691" sparseCutoff="1.0000000000000000"/>
      <sparseX i="348" alpha="-901.48601390122303" sparseCutoff="1.0000000000000000"/>
      <sparseX i="349" alpha="1031.0639952673632" sparseCutoff="1.0000000000000000"/>
      <sparseX i="350" alpha="655.44346695481113" sparseCutoff="1.0000000000000000"/>
      <sparseX i="351" alpha="-252.85103268117635" sparseCutoff="1.0000000000000000"/>
      <sparseX i="352" alpha="-641.76361005475769" sparseCutoff="1.0000000000000000"/>
      <sparseX i="353" alpha="503.65358570347360" sparseCutoff="1.0000000000000000"/>
      <sparseX i="354" alpha="-74.858869789927567" sparseCutoff="1.0000000000000000"/>
      <sparseX i="355" alpha="-698.16770378930130" sparseCutoff="1.0000000000000000"/>
      <sparseX i="356" alpha="518.73943937177694" sparseCutoff="1.0000000000000000"/>
      <sparseX i="357" alpha="-67.138903699003436" sparseCutoff="1.0000000000000000"/>
      <sparseX i="358" alpha="511.55114993974212" sparseCutoff="1.0000000000000000"/>
      <sparseX i="359" alpha="-482.35636811843023" sparseCutoff="1.0000000000000000"/>
      <sparseX i="360" alpha="-669.98065563368937" sparseCutoff="1.0000000000000000"/>
      <sparseX i="361" alpha="-987.82229427138770" sparseCutoff="1.0000000000000000"/>
      <sparseX i="362" alpha="-280.93095098504017" sparseCutoff="1.0000000000000000"/>
      <sparseX i="363" alpha="-353.76688885752731" sparseCutoff="1.0000000000000000"/>
      <sparseX i="364" alpha="-237.28416802807058" sparseCutoff="1.0000000000000000"/>
      <sparseX i="365" alpha="-1169.4638563944786" sparseCutoff="1.0000000000000000"/>
      <sparseX i="366" alpha="-89.838948324829119" sparseCutoff="1.0000000000000000"/>
      <sparseX i="367" alpha="407.63725362467130" sparseCutoff="1.0000000000000000"/>
      <sparseX i="368" alpha="1432.4586778734961" sparseCutoff="1.0000000000000000"/>
      <sparseX i="369" alpha="488.66439785751027" sparseCutoff="1.0000000000000000"/>
      <sparseX i="370" alpha="-699.01145449346620" sparseCutoff="1.0000000000000000"/>
      <sparseX i="371" alpha="-11.399942392144979" sparseCutoff="1.0000000000000000"/>
      <sparseX i="372" alpha="-1013.6373522142048" sparseCutoff="1.0000000000000000"/>
      <sparseX i="373" alpha="1185.6992305263627" sparseCutoff="1.0000000000000000"/>
      <sparseX i="374" alpha="-242.32947704578351" sparseCutoff="1.0000000000000000"/>
      <sparseX i="375" alpha="-898.16625809149139" sparseCutoff="1.0000000000000000"/>
      <sparseX i="376" alpha="162.15763872096974" sparseCutoff="1.0000000000000000"/>
      <sparseX i="377" alpha="371.67398840896556" sparseCutoff="1.0000000000000000"/>
      <sparseX i="378" alpha="318.31973133391460" sparseCutoff="1.0000000000000000"/>
      <sparseX i="379" alpha="53.733422398696256" sparseCutoff="1.0000000000000000"/>
      <sparseX i="380" alpha="240.42722357109372" sparseCutoff="1.0000000000000000"/>
      <sparseX i="381" alpha="-42.323674106447520" sparseCutoff="1.0000000000000000"/>
      <sparseX i="382" alpha="1120.6734815259044" sparseCutoff="1.0000000000000000"/>
      <sparseX i="383" alpha="-2031.2298469231262" sparseCutoff="1.0000000000000000"/>
      <sparseX i="384" alpha="101.39455504360940" sparseCutoff="1.0000000000000000"/>
      <sparseX i="385" alpha="-12.349367451820614" sparseCutoff="1.0000000000000000"/>
      <sparseX i="386" alpha="1258.7049438945082" sparseCutoff="1.0000000000000000"/>
      <sparseX i="387" alpha="-382.31665155108988" sparseCutoff="1.0000000000000000"/>
      <sparseX i="388" alpha="340.25765970357605" sparseCutoff="1.0000000000000000"/>
      <sparseX i="389" alpha="231.55464705951826" sparseCutoff="1.0000000000000000"/>
      <sparseX i="390" alpha="-2119.5976960793619" sparseCutoff="1.0000000000000000"/>
      <sparseX i="391" alpha="-1016.3202202880216" sparseCutoff="1.0000000000000000"/>
      <sparseX i="392" alpha="-42.420957959075182" sparseCutoff="1.0000000000000000"/>
      <sparseX i="393" alpha="832.17420180060458" sparseCutoff="1.0000000000000000"/>
      <sparseX i="394" alpha="-217.85949462707751" sparseCutoff="1.0000000000000000"/>
      <sparseX i="395" alpha="-1014.4171387548689" sparseCutoff="1.0000000000000000"/>
      <sparseX i="396" alpha="-2112.0298880437372" sparseCutoff="1.0000000000000000"/>
      <sparseX i="397" alpha="-1765.0603132653589" sparseCutoff="1.0000000000000000"/>
      <sparseX i="398" alpha="-91.971935991556492" sparseCutoff="1.0000000000000000"/>
      <sparseX i="399" alpha="142.65893128237747" sparseCutoff="1.0000000000000000"/>
      <sparseX i="400" alpha="1491.0781733158565" sparseCutoff="1.0000000000000000"/>
      <sparseX i="401" alpha="54.545680948385900" sparseCutoff="1.0000000000000000"/>
      <sparseX i="402" alpha="374.01151226735686" sparseCutoff="1.0000000000000000"/>
      <sparseX i="403" alpha="778.87420943559857" sparseCutoff="1.0000000000000000"/>
      <sparseX i="404" alpha="719.74987946934891" sparseCutoff="1.0000000000000000"/>
      <sparseX i="405" alpha="57.299679960055748" sparseCutoff="1.0000000000000000"/>
      <sparseX i="406" alpha="-140.39460641157913" sparseCutoff="1.0000000000000000"/>
      <sparseX i="407" alpha="244.55808157936809" sparseCutoff="1.0000000000000000"/>
      <sparseX i="408" alpha="-1184.4296068766837" sparseCutoff="1.0000000000000000"/>
      <sparseX i="409" alpha="1002.2198316270147" sparseCutoff="1.0000000000000000"/>
      <sparseX i="410" alpha="-988.99342433316872" sparseCutoff="1.0000000000000000"/>
      <sparseX i="411" alpha="729.93033606942197" sparseCutoff="1.0000000000000000"/>
      <sparseX i="412" alpha="-669.53427474581144" sparseCutoff="1.0000000000000000"/>
      <sparseX i="413" alpha="-842.09404295947240" sparseCutoff="1.0000000000000000"/>
      <sparseX i="414" alpha="-567.08575840323397" sparseCutoff="1.0000000000000000"/>
      <sparseX i="415" alpha="19.761164973979042" sparseCutoff="1.0000000000000000"/>
      <sparseX i="416" alpha="-765.45690569140049" sparseCutoff="1.0000000000000000"/>
      <sparseX i="417" alpha="-630.69576284328275" sparseCutoff="1.0000000000000000"/>
      <sparseX i="418" alpha="362.18210704932312" sparseCutoff="1.0000000000000000"/>
      <sparseX i="419" alpha="-1282.8989819102260" sparseCutoff="1.0000000000000000"/>
      <sparseX i="420" alpha="130.34196686636815" sparseCutoff="1.0000000000000000"/>
      <sparseX i="421" alpha="1267.0801201742174" sparseCutoff="1.0000000000000000"/>
      <sparseX i="422" alpha="-1430.9276201398839" sparseCutoff="1.0000000000000000"/>
      <sparseX i="423" alpha="-636.65572542151165" sparseCutoff="1.0000000000000000"/>
      <sparseX i="424" alpha="-238.24193430320406" sparseCutoff="1.0000000000000000"/>
      <sparseX i="425" alpha="-841.96233824453714" sparseCutoff="1.0000000000000000"/>
      <sparseX i="426" alpha="436.77489966241740" sparseCutoff="1.0000000000000000"/>
      <sparseX i="427" alpha="-908.37718978236035" sparseCutoff="1.0000000000000000"/>
      <sparseX i="428" alpha="-498.27801003225187" sparseCutoff="1.0000000000000000"/>
      <sparseX i="429" alpha="-218.03407192250037" sparseCutoff="1.0000000000000000"/>
      <sparseX i="430" alpha="-958.07681246797824" sparseCutoff="1.0000000000000000"/>
      <sparseX i="431" alpha="-627.48843378282493" sparseCutoff="1.0000000000000000"/>
      <sparseX i="432" alpha="-548.66303009160424" sparseCutoff="1.0000000000000000"/>
      <sparseX i="433" alpha="-259.08514901918517" sparseCutoff="1.0000000000000000"/>
      <sparseX i="434" alpha="-475.59355907129344" sparseCutoff="1.0000000000000000"/>
      <sparseX i="435" alpha="-224.80951790634978" sparseCutoff="1.0000000000000000"/>
      <sparseX i="436" alpha="7.3032365066272131" sparseCutoff="1.0000000000000000"/>
      <sparseX i="437" alpha="370.54617794178159" sparseCutoff="1.0000000000000000"/>
      <sparseX i="438" alpha="700.92606482625376" sparseCutoff="1.0000000000000000"/>
      <sparseX i="439" alpha="1468.6573602722924" sparseCutoff="1.0000000000000000"/>
      <sparseX i="440" alpha="-64.813514733312203" sparseCutoff="1.0000000000000000"/>
      <sparseX i="441" alpha="327.28676593167398" sparseCutoff="1.0000000000000000"/>
      <sparseX i="442" alpha="-428.05970094791292" sparseCutoff="1.0000000000000000"/>
      <sparseX i="443" alpha="-90.640130652641304" sparseCutoff="1.0000000000000000"/>
      <sparseX i="444" alpha="640.16798425350657" sparseCutoff="1.0000000000000000"/>
      <sparseX i="445" alpha="-377.07067700569939" sparseCutoff="1.0000000000000000"/>
      <sparseX i="446" alpha="2021.3061192735813" sparseCutoff="1.0000000000000000"/>
      <sparseX i="447" alpha="-626.83856745683477" sparseCutoff="1.0000000000000000"/>
      <sparseX i="448" alpha="-10.621706367546055" sparseCutoff="1.0000000000000000"/>
      <sparseX i="449" alpha="330.64444143957616" sparseCutoff="1.0000000000000000"/>
      <sparseX i="450" alpha="-1314.0873282215775" sparseCutoff="1.0000000000000000"/>
      <sparseX i="451" alpha="80.074629582512699" sparseCutoff="1.0000000000000000"/>
      <sparseX i="452" alpha="746.47410775291905" sparseCutoff="1.0000000000000000"/>
      <sparseX i="453" alpha="-971.21263278571314" sparseCutoff="1.0000000000000000"/>
      <sparseX i="454" alpha="-238.01792498787063" sparseCutoff="1.0000000000000000"/>
      <sparseX i="455" alpha="220.45727175648835" sparseCutoff="1.0000000000000000"/>
      <sparseX i="456" alpha="787.25522563290417" sparseCutoff="1.0000000000000000"/>
      <sparseX i="457" alpha="590.94466008263191" sparseCutoff="1.0000000000000000"/>
      <sparseX i="458" alpha="1359.4432291265989" sparseCutoff="1.0000000000000000"/>
      <sparseX i="459" alpha="1056.5556638132296" sparseCutoff="1.0000000000000000"/>
      <sparseX i="460" alpha="537.52170313423835" sparseCutoff="1.0000000000000000"/>
      <sparseX i="461" alpha="698.66047806098447" sparseCutoff="1.0000000000000000"/>
      <sparseX i="462" alpha="732.93137396965164" sparseCutoff="1.0000000000000000"/>
      <sparseX i="463" alpha="-543.57704480857228" sparseCutoff="1.0000000000000000"/>
      <sparseX i="464" alpha="703.98762581483300" sparseCutoff="1.0000000000000000"/>
      <sparseX i="465" alpha="-192.41841020688545" sparseCutoff="1.0000000000000000"/>
      <sparseX i="466" alpha="1744.8191293021778" sparseCutoff="1.0000000000000000"/>
      <sparseX i="467" alpha="-700.26822735596397" sparseCutoff="1.0000000000000000"/>
      <sparseX i="468" alpha="-980.68419372860319" sparseCutoff="1.0000000000000000"/>
      <sparseX i="469" alpha="456.90890201724687" sparseCutoff="1.0000000000000000"/>
      <sparseX i="470" alpha="867.83272620407888" sparseCutoff="1.0000000000000000"/>
      <sparseX i="471" alpha="-1957.1329889163583" sparseCutoff="1.0000000000000000"/>
      <sparseX i="472" alpha="456.33458052420605" sparseCutoff="1.0000000000000000"/>
      <sparseX i="473" alpha="996.16057437398808" sparseCutoff="1.0000000000000000"/>
      <sparseX i="474" alpha="31.469524356120672" sparseCutoff="1.0000000000000000"/>
      <sparseX i="475" alpha="509.95114091200298" sparseCutoff="1.0000000000000000"/>
      <sparseX i="476" alpha="-278.50837170797058" sparseCutoff="1.0000000000000000"/>
      <sparseX i="477" alpha="27.451851436066804" sparseCutoff="1.0000000000000000"/>
      <sparseX i="478" alpha="-1415.5979415513275" sparseCutoff="1.0000000000000000"/>
      <sparseX i="479" alpha="-1492.6757743481260" sparseCutoff="1.0000000000000000"/>
      <sparseX i="480" alpha="129.90171674170452" sparseCutoff="1.0000000000000000"/>
      <sparseX i="481" alpha="40.578551507380681" sparseCutoff="1.0000000000000000"/>
      <sparseX i="482" alpha="526.76229075017204" sparseCutoff="1.0000000000000000"/>
      <sparseX i="483" alpha="84.291576846962926" sparseCutoff="1.0000000000000000"/>
      <sparseX i="484" alpha="749.50456229314580" sparseCutoff="1.0000000000000000"/>
      <sparseX i="485" alpha="-222.91291898485724" sparseCutoff="1.0000000000000000"/>
      <sparseX i="486" alpha="-124.55824628535356" sparseCutoff="1.0000000000000000"/>
      <sparseX i="487" alpha="-566.94712405043538" sparseCutoff="1.0000000000000000"/>
      <sparseX i="488" alpha="1089.6157385773333" sparseCutoff="1.0000000000000000"/>
      <sparseX i="489" alpha="197.64833890014174" sparseCutoff="1.0000000000000000"/>
      <sparseX i="490" alpha="125.24270935335659" sparseCutoff="1.0000000000000000"/>
      <sparseX i="491" alpha="-190.65279475017064" sparseCutoff="1.0000000000000000"/>
      <sparseX i="492" alpha="-625.30735022348472" sparseCutoff="1.0000000000000000"/>
      <sparseX i="493" alpha="1120.5414678117409" sparseCutoff="1.0000000000000000"/>
      <sparseX i="494" alpha="-28.554256595789820" sparseCutoff="1.0000000000000000"/>
      <sparseX i="495" alpha="429.35278548700478" sparseCutoff="1.0000000000000000"/>
      <sparseX i="496" alpha="-742.17256497526205" sparseCutoff="1.0000000000000000"/>
      <sparseX i="497" alpha="393.51741436635058" sparseCutoff="1.0000000000000000"/>
      <sparseX i="498" alpha="529.36313402424923" sparseCutoff="1.0000000000000000"/>
      <sparseX i="499" alpha="362.81769661235808" sparseCutoff="1.0000000000000000"/>
      <sparseX i="500" alpha="-368.44712603643808" sparseCutoff="1.0000000000000000"/>
      <sparseX i="501" alpha="548.64587629564267" sparseCutoff="1.0000000000000000"/>
      <sparseX i="502" alpha="-562.20407706556853" sparseCutoff="1.0000000000000000"/>
      <sparseX i="503" alpha="340.54519690474888" sparseCutoff="1.0000000000000000"/>
      <sparseX i="504" alpha="167.49185741675694" sparseCutoff="1.0000000000000000"/>
      <sparseX i="505" alpha="-478.69074939555696" sparseCutoff="1.0000000000000000"/>
      <sparseX i="506" alpha="401.21582513634917" sparseCutoff="1.0000000000000000"/>
      <sparseX i="507" alpha="-631.98137378170964" sparseCutoff="1.0000000000000000"/>
      <sparseX i="508" alpha="576.69213359527862" sparseCutoff="1.0000000000000000"/>
      <sparseX i="509" alpha="445.76417059139811" sparseCutoff="1.0000000000000000"/>
      <sparseX i="510" alpha="-225.83598646038786" sparseCutoff="1.0000000000000000"/>
      <sparseX i="511" alpha="279.87980817764668" sparseCutoff="1.0000000000000000"/>
      <sparseX i="512" alpha="-149.57037945986616" sparseCutoff="1.0000000000000000"/>
      <sparseX i="513" alpha="418.59146214797477" sparseCutoff="1.0000000000000000"/>
      <sparseX i="514" alpha="270.45771006806740" sparseCutoff="1.0000000000000000"/>
      <sparseX i="515" alpha="673.30343891981238" sparseCutoff="1.0000000000000000"/>
      <sparseX i="516" alpha="192.83220088540872" sparseCutoff="1.0000000000000000"/>
      <sparseX i="517" alpha="-84.670879467566351" sparseCutoff="1.0000000000000000"/>
      <sparseX i="518" alpha="-180.23636829617513" sparseCutoff="1.0000000000000000"/>
      <sparseX i="519" alpha="692.14608124841959" sparseCutoff="1.0000000000000000"/>
      <sparseX i="520" alpha="255.41365201491806" sparseCutoff="1.0000000000000000"/>
      <sparseX i="521" alpha="195.85556553905454" sparseCutoff="1.0000000000000000"/>
      <sparseX i="522" alpha="-208.59521052230042" sparseCutoff="1.0000000000000000"/>
      <sparseX i="523" alpha="830.97768851753904" sparseCutoff="1.0000000000000000"/>
      <sparseX i="524" alpha="116.81105748866101" sparseCutoff="1.0000000000000000"/>
      <sparseX i="525" alpha="-95.093680105236459" sparseCutoff="1.0000000000000000"/>
      <sparseX i="526" alpha="-339.72007656963842" sparseCutoff="1.0000000000000000"/>
      <sparseX i="527" alpha="-25.702192225804811" sparseCutoff="1.0000000000000000"/>
      <sparseX i="528" alpha="91.822254541381483" sparseCutoff="1.0000000000000000"/>
      <sparseX i="529" alpha="230.89510504159821" sparseCutoff="1.0000000000000000"/>
      <sparseX i="530" alpha="95.516169176330422" sparseCutoff="1.0000000000000000"/>
      <sparseX i="531" alpha="-824.89414176568744" sparseCutoff="1.0000000000000000"/>
      <sparseX i="532" alpha="-195.15979103263805" sparseCutoff="1.0000000000000000"/>
      <sparseX i="533" alpha="-156.91846779517965" sparseCutoff="1.0000000000000000"/>
      <sparseX i="534" alpha="-238.47646787802475" sparseCutoff="1.0000000000000000"/>
      <sparseX i="535" alpha="-34.347507651222088" sparseCutoff="1.0000000000000000"/>
      <sparseX i="536" alpha="499.50852201426471" sparseCutoff="1.0000000000000000"/>
      <sparseX i="537" alpha="-73.589077060986710" sparseCutoff="1.0000000000000000"/>
      <sparseX i="538" alpha="137.40843176468897" sparseCutoff="1.0000000000000000"/>
      <sparseX i="539" alpha="-11.657241628844650" sparseCutoff="1.0000000000000000"/>
      <sparseX i="540" alpha="-15.781141571366442" sparseCutoff="1.0000000000000000"/>
      <sparseX i="541" alpha="-593.83060792665754" sparseCutoff="1.0000000000000000"/>
      <sparseX i="542" alpha="-519.97368119424914" sparseCutoff="1.0000000000000000"/>
      <sparseX i="543" alpha="1688.5925407769346" sparseCutoff="1.0000000000000000"/>
      <sparseX i="544" alpha="188.72967219047896" sparseCutoff="1.0000000000000000"/>
      <sparseX i="545" alpha="-128.67324232814477" sparseCutoff="1.0000000000000000"/>
      <sparseX i="546" alpha="-80.483475287319919" sparseCutoff="1.0000000000000000"/>
      <sparseX i="547" alpha="561.86795246398356" sparseCutoff="1.0000000000000000"/>
      <sparseX i="548" alpha="-362.17581254426727" sparseCutoff="1.0000000000000000"/>
      <sparseX i="549" alpha="29.661512985841902" sparseCutoff="1.0000000000000000"/>
      <sparseX i="550" alpha="-294.73099833707874" sparseCutoff="1.0000000000000000"/>
      <sparseX i="551" alpha="-278.78628147414850" sparseCutoff="1.0000000000000000"/>
      <sparseX i="552" alpha="-186.03432077736559" sparseCutoff="1.0000000000000000"/>
      <sparseX i="553" alpha="-179.82017490182400" sparseCutoff="1.0000000000000000"/>
      <sparseX i="554" alpha="-462.18004380862675" sparseCutoff="1.0000000000000000"/>
      <sparseX i="555" alpha="-763.13744379601985" sparseCutoff="1.0000000000000000"/>
      <sparseX i="556" alpha="-842.02252544120813" sparseCutoff="1.0000000000000000"/>
      <sparseX i="557" alpha="-906.73789365317816" sparseCutoff="1.0000000000000000"/>
      <sparseX i="558" alpha="-79.725381999289539" sparseCutoff="1.0000000000000000"/>
      <sparseX i="559" alpha="-480.34804147274343" sparseCutoff="1.0000000000000000"/>
      <sparseX i="560" alpha="-959.44775735686221" sparseCutoff="1.0000000000000000"/>
      <sparseX i="561" alpha="185.97310472542287" sparseCutoff="1.0000000000000000"/>
      <sparseX i="562" alpha="155.27507155881167" sparseCutoff="1.0000000000000000"/>
      <sparseX i="563" alpha="148.64374145229880" sparseCutoff="1.0000000000000000"/>
      <sparseX i="564" alpha="-24.224565307786236" sparseCutoff="1.0000000000000000"/>
      <sparseX i="565" alpha="258.68093559098429" sparseCutoff="1.0000000000000000"/>
      <sparseX i="566" alpha="-202.99627192650556" sparseCutoff="1.0000000000000000"/>
      <sparseX i="567" alpha="-368.33252704635476" sparseCutoff="1.0000000000000000"/>
      <sparseX i="568" alpha="-108.69938903741783" sparseCutoff="1.0000000000000000"/>
      <sparseX i="569" alpha="-317.17986372937884" sparseCutoff="1.0000000000000000"/>
      <sparseX i="570" alpha="313.68136647014353" sparseCutoff="1.0000000000000000"/>
      <sparseX i="571" alpha="-22.149901175178812" sparseCutoff="1.0000000000000000"/>
      <sparseX i="572" alpha="242.88004067940682" sparseCutoff="1.0000000000000000"/>
      <sparseX i="573" alpha="231.75356707076065" sparseCutoff="1.0000000000000000"/>
      <sparseX i="574" alpha="-191.11620077871444" sparseCutoff="1.0000000000000000"/>
      <sparseX i="575" alpha="-385.03390311368594" sparseCutoff="1.0000000000000000"/>
      <sparseX i="576" alpha="-282.66578020453079" sparseCutoff="1.0000000000000000"/>
      <sparseX i="577" alpha="-435.75871445089484" sparseCutoff="1.0000000000000000"/>
      <sparseX i="578" alpha="839.43915745097001" sparseCutoff="1.0000000000000000"/>
      <sparseX i="579" alpha="75.492011635954768" sparseCutoff="1.0000000000000000"/>
      <sparseX i="580" alpha="165.86848764197578" sparseCutoff="1.0000000000000000"/>
      <sparseX i="581" alpha="365.99528287744181" sparseCutoff="1.0000000000000000"/>
      <sparseX i="582" alpha="-349.83473765896412" sparseCutoff="1.0000000000000000"/>
      <sparseX i="583" alpha="582.36921510986747" sparseCutoff="1.0000000000000000"/>
      <sparseX i="584" alpha="-770.64137810528530" sparseCutoff="1.0000000000000000"/>
      <sparseX i="585" alpha="-19.174129145886500" sparseCutoff="1.0000000000000000"/>
      <sparseX i="586" alpha="23.009218817346426" sparseCutoff="1.0000000000000000"/>
      <sparseX i="587" alpha="-19.361126957837172" sparseCutoff="1.0000000000000000"/>
      <sparseX i="588" alpha="541.76401414775489" sparseCutoff="1.0000000000000000"/>
      <sparseX i="589" alpha="-728.01178195577529" sparseCutoff="1.0000000000000000"/>
      <sparseX i="590" alpha="-257.73560871033169" sparseCutoff="1.0000000000000000"/>
      <sparseX i="591" alpha="-197.56595863107276" sparseCutoff="1.0000000000000000"/>
      <sparseX i="592" alpha="270.55259179947257" sparseCutoff="1.0000000000000000"/>
      <sparseX i="593" alpha="-899.50672135823424" sparseCutoff="1.0000000000000000"/>
      <sparseX i="594" alpha="1350.9307821883312" sparseCutoff="1.0000000000000000"/>
      <sparseX i="595" alpha="-147.35456927472572" sparseCutoff="1.0000000000000000"/>
      <sparseX i="596" alpha="338.84761852885492" sparseCutoff="1.0000000000000000"/>
      <sparseX i="597" alpha="-189.78803552953818" sparseCutoff="1.0000000000000000"/>
      <sparseX i="598" alpha="-54.544746104530368" sparseCutoff="1.0000000000000000"/>
      <sparseX i="599" alpha="403.54331725494262" sparseCutoff="1.0000000000000000"/>
      <sparseX i="600" alpha="523.21572008900046" sparseCutoff="1.0000000000000000"/>
      <sparseX i="601" alpha="-348.87065088505608" sparseCutoff="1.0000000000000000"/>
      <sparseX i="602" alpha="106.32760377878839" sparseCutoff="1.0000000000000000"/>
      <sparseX i="603" alpha="-18.274797812805655" sparseCutoff="1.0000000000000000"/>
      <sparseX i="604" alpha="-439.73609394914547" sparseCutoff="1.0000000000000000"/>
      <sparseX i="605" alpha="-351.65070883452017" sparseCutoff="1.0000000000000000"/>
      <sparseX i="606" alpha="168.46089503762786" sparseCutoff="1.0000000000000000"/>
      <sparseX i="607" alpha="213.66854280928487" sparseCutoff="1.0000000000000000"/>
      <sparseX i="608" alpha="-360.58862550458537" sparseCutoff="1.0000000000000000"/>
      <sparseX i="609" alpha="189.42863730894379" sparseCutoff="1.0000000000000000"/>
      <sparseX i="610" alpha="-248.51639041993332" sparseCutoff="1.0000000000000000"/>
      <sparseX i="611" alpha="86.603736290458698" sparseCutoff="1.0000000000000000"/>
      <sparseX i="612" alpha="492.13062095637088" sparseCutoff="1.0000000000000000"/>
      <sparseX i="613" alpha="-128.93818972719325" sparseCutoff="1.0000000000000000"/>
      <sparseX i="614" alpha="303.41365876273954" sparseCutoff="1.0000000000000000"/>
      <sparseX i="615" alpha="-24.727494362692507" sparseCutoff="1.0000000000000000"/>
      <sparseX i="616" alpha="-324.25199884939667" sparseCutoff="1.0000000000000000"/>
      <sparseX i="617" alpha="913.41357979700024" sparseCutoff="1.0000000000000000"/>
      <sparseX i="618" alpha="-302.66509561848983" sparseCutoff="1.0000000000000000"/>
      <sparseX i="619" alpha="-110.20556841520542" sparseCutoff="1.0000000000000000"/>
      <sparseX i="620" alpha="-323.49841620192592" sparseCutoff="1.0000000000000000"/>
      <sparseX i="621" alpha="176.90305677050588" sparseCutoff="1.0000000000000000"/>
      <sparseX i="622" alpha="192.53269576131072" sparseCutoff="1.0000000000000000"/>
      <sparseX i="623" alpha="-522.48679701938431" sparseCutoff="1.0000000000000000"/>
      <sparseX i="624" alpha="-246.85688758794487" sparseCutoff="1.0000000000000000"/>
      <sparseX i="625" alpha="-322.97327521701436" sparseCutoff="1.0000000000000000"/>
      <sparseX i="626" alpha="709.59918363664985" sparseCutoff="1.0000000000000000"/>
      <sparseX i="627" alpha="-737.16325411007426" sparseCutoff="1.0000000000000000"/>
      <sparseX i="628" alpha="-852.83276087425452" sparseCutoff="1.0000000000000000"/>
      <sparseX i="629" alpha="-433.19832265303717" sparseCutoff="1.0000000000000000"/>
      <sparseX i="630" alpha="394.11276575566171" sparseCutoff="1.0000000000000000"/>
      <sparseX i="631" alpha="246.05374098717081" sparseCutoff="1.0000000000000000"/>
      <sparseX i="632" alpha="774.38354353652437" sparseCutoff="1.0000000000000000"/>
      <sparseX i="633" alpha="-547.47573548174307" sparseCutoff="1.0000000000000000"/>
      <sparseX i="634" alpha="-611.84672279671622" sparseCutoff="1.0000000000000000"/>
      <sparseX i="635" alpha="147.97921785527214" sparseCutoff="1.0000000000000000"/>
      <sparseX i="636" alpha="1360.1353584319661" sparseCutoff="1.0000000000000000"/>
      <sparseX i="637" alpha="570.34189270227000" sparseCutoff="1.0000000000000000"/>
      <sparseX i="638" alpha="-352.39792728533939" sparseCutoff="1.0000000000000000"/>
      <sparseX i="639" alpha="237.45958342305497" sparseCutoff="1.0000000000000000"/>
      <sparseX i="640" alpha="-267.23365174040811" sparseCutoff="1.0000000000000000"/>
      <sparseX i="641" alpha="-131.50776141243199" sparseCutoff="1.0000000000000000"/>
      <sparseX i="642" alpha="-343.08057390124634" sparseCutoff="1.0000000000000000"/>
      <sparseX i="643" alpha="35.485658812000487" sparseCutoff="1.0000000000000000"/>
      <sparseX i="644" alpha="-469.27367710692647" sparseCutoff="1.0000000000000000"/>
      <sparseX i="645" alpha="-39.797608524101918" sparseCutoff="1.0000000000000000"/>
      <sparseX i="646" alpha="188.98989152108277" sparseCutoff="1.0000000000000000"/>
      <sparseX i="647" alpha="-792.44826702149430" sparseCutoff="1.0000000000000000"/>
      <sparseX i="648" alpha="-315.28077810942636" sparseCutoff="1.0000000000000000"/>
      <sparseX i="649" alpha="-303.44549815989916" sparseCutoff="1.0000000000000000"/>
      <sparseX i="650" alpha="-213.11065149485975" sparseCutoff="1.0000000000000000"/>
      <sparseX i="651" alpha="-390.47388379167052" sparseCutoff="1.0000000000000000"/>
      <sparseX i="652" alpha="335.89396574736952" sparseCutoff="1.0000000000000000"/>
      <sparseX i="653" alpha="-115.35105196111212" sparseCutoff="1.0000000000000000"/>
      <sparseX i="654" alpha="628.58105492190373" sparseCutoff="1.0000000000000000"/>
      <sparseX i="655" alpha="14.316920128331434" sparseCutoff="1.0000000000000000"/>
      <sparseX i="656" alpha="126.31842462975145" sparseCutoff="1.0000000000000000"/>
      <sparseX i="657" alpha="-408.34042705878636" sparseCutoff="1.0000000000000000"/>
      <sparseX i="658" alpha="-571.18071390375803" sparseCutoff="1.0000000000000000"/>
      <sparseX i="659" alpha="275.65072417000096" sparseCutoff="1.0000000000000000"/>
      <sparseX i="660" alpha="714.43215358685632" sparseCutoff="1.0000000000000000"/>
      <sparseX i="661" alpha="243.81844989923823" sparseCutoff="1.0000000000000000"/>
      <sparseX i="662" alpha="902.99960724899290" sparseCutoff="1.0000000000000000"/>
      <sparseX i="663" alpha="424.70216292791486" sparseCutoff="1.0000000000000000"/>
      <sparseX i="664" alpha="782.44964433981499" sparseCutoff="1.0000000000000000"/>
      <sparseX i="665" alpha="-151.36873817841152" sparseCutoff="1.0000000000000000"/>
      <sparseX i="666" alpha="-228.55795698324752" sparseCutoff="1.0000000000000000"/>
      <sparseX i="667" alpha="274.53928451655230" sparseCutoff="1.0000000000000000"/>
      <sparseX i="668" alpha="398.93249984984948" sparseCutoff="1.0000000000000000"/>
      <sparseX i="669" alpha="-493.71527617852757" sparseCutoff="1.0000000000000000"/>
      <sparseX i="670" alpha="-175.01237740394015" sparseCutoff="1.0000000000000000"/>
      <sparseX i="671" alpha="543.75152005127711" sparseCutoff="1.0000000000000000"/>
      <sparseX i="672" alpha="-157.93461462246654" sparseCutoff="1.0000000000000000"/>
      <sparseX i="673" alpha="196.30174431854340" sparseCutoff="1.0000000000000000"/>
      <sparseX i="674" alpha="-932.30148722943397" sparseCutoff="1.0000000000000000"/>
      <sparseX i="675" alpha="-522.15788679147227" sparseCutoff="1.0000000000000000"/>
      <sparseX i="676" alpha="203.73874723229230" sparseCutoff="1.0000000000000000"/>
      <sparseX i="677" alpha="72.532036974445703" sparseCutoff="1.0000000000000000"/>
      <sparseX i="678" alpha="108.09784196151021" sparseCutoff="1.0000000000000000"/>
      <sparseX i="679" alpha="-350.51939655347104" sparseCutoff="1.0000000000000000"/>
      <sparseX i="680" alpha="333.71493310196490" sparseCutoff="1.0000000000000000"/>
      <sparseX i="681" alpha="-531.67885273164904" sparseCutoff="1.0000000000000000"/>
      <sparseX i="682" alpha="-276.76087678624685" sparseCutoff="1.0000000000000000"/>
      <sparseX i="683" alpha="152.37619348128180" sparseCutoff="1.0000000000000000"/>
      <sparseX i="684" alpha="-193.98006567576004" sparseCutoff="1.0000000000000000"/>
      <sparseX i="685" alpha="303.14017598946748" sparseCutoff="1.0000000000000000"/>
      <sparseX i="686" alpha="-288.22621933944248" sparseCutoff="1.0000000000000000"/>
      <sparseX i="687" alpha="-890.80352568620583" sparseCutoff="1.0000000000000000"/>
      <sparseX i="688" alpha="91.657211990302372" sparseCutoff="1.0000000000000000"/>
      <sparseX i="689" alpha="-95.273168321989075" sparseCutoff="1.0000000000000000"/>
      <sparseX i="690" alpha="-247.20458309533785" sparseCutoff="1.0000000000000000"/>
      <sparseX i="691" alpha="395.02303130268592" sparseCutoff="1.0000000000000000"/>
      <sparseX i="692" alpha="151.06691058933129" sparseCutoff="1.0000000000000000"/>
      <sparseX i="693" alpha="112.24679429347424" sparseCutoff="1.0000000000000000"/>
      <sparseX i="694" alpha="-88.448566279005419" sparseCutoff="1.0000000000000000"/>
      <sparseX i="695" alpha="8.9495807554120166" sparseCutoff="1.0000000000000000"/>
      <sparseX i="696" alpha="-397.10709901031993" sparseCutoff="1.0000000000000000"/>
      <sparseX i="697" alpha="-376.28538044150247" sparseCutoff="1.0000000000000000"/>
      <sparseX i="698" alpha="457.55787205855984" sparseCutoff="1.0000000000000000"/>
      <sparseX i="699" alpha="-344.72289997950884" sparseCutoff="1.0000000000000000"/>
      <sparseX i="700" alpha="667.79672339502724" sparseCutoff="1.0000000000000000"/>
      <sparseX i="701" alpha="700.81445152628385" sparseCutoff="1.0000000000000000"/>
      <sparseX i="702" alpha="594.72326333468459" sparseCutoff="1.0000000000000000"/>
      <sparseX i="703" alpha="-1441.7862633330442" sparseCutoff="1.0000000000000000"/>
      <sparseX i="704" alpha="-1032.4751191843079" sparseCutoff="1.0000000000000000"/>
      <sparseX i="705" alpha="226.15184055111663" sparseCutoff="1.0000000000000000"/>
      <sparseX i="706" alpha="147.25970374423088" sparseCutoff="1.0000000000000000"/>
      <sparseX i="707" alpha="-338.06217928013029" sparseCutoff="1.0000000000000000"/>
      <sparseX i="708" alpha="73.738451176296223" sparseCutoff="1.0000000000000000"/>
      <sparseX i="709" alpha="1170.2549309007247" sparseCutoff="1.0000000000000000"/>
      <sparseX i="710" alpha="172.71508333872666" sparseCutoff="1.0000000000000000"/>
      <sparseX i="711" alpha="-74.045083822993689" sparseCutoff="1.0000000000000000"/>
      <sparseX i="712" alpha="-21.318879060854357" sparseCutoff="1.0000000000000000"/>
      <sparseX i="713" alpha="161.49422261574389" sparseCutoff="1.0000000000000000"/>
      <sparseX i="714" alpha="-630.20349028190128" sparseCutoff="1.0000000000000000"/>
      <sparseX i="715" alpha="17.972187801813902" sparseCutoff="1.0000000000000000"/>
      <sparseX i="716" alpha="-265.56385590531971" sparseCutoff="1.0000000000000000"/>
      <sparseX i="717" alpha="150.21079999385660" sparseCutoff="1.0000000000000000"/>
      <sparseX i="718" alpha="685.34475683926803" sparseCutoff="1.0000000000000000"/>
      <sparseX i="719" alpha="522.51090902198064" sparseCutoff="1.0000000000000000"/>
      <sparseX i="720" alpha="222.46432688259981" sparseCutoff="1.0000000000000000"/>
      <sparseX i="721" alpha="327.52661811996825" sparseCutoff="1.0000000000000000"/>
      <sparseX i="722" alpha="218.06941723451305" sparseCutoff="1.0000000000000000"/>
      <sparseX i="723" alpha="86.724549312150785" sparseCutoff="1.0000000000000000"/>
      <sparseX i="724" alpha="-285.38082181926058" sparseCutoff="1.0000000000000000"/>
      <sparseX i="725" alpha="268.08165895566430" sparseCutoff="1.0000000000000000"/>
      <sparseX i="726" alpha="639.61868538375097" sparseCutoff="1.0000000000000000"/>
      <sparseX i="727" alpha="2466.0881738299568" sparseCutoff="1.0000000000000000"/>
      <sparseX i="728" alpha="37.673730283262309" sparseCutoff="1.0000000000000000"/>
      <sparseX i="729" alpha="552.87751940491967" sparseCutoff="1.0000000000000000"/>
      <sparseX i="730" alpha="155.82293051725057" sparseCutoff="1.0000000000000000"/>
      <sparseX i="731" alpha="218.12520892325449" sparseCutoff="1.0000000000000000"/>
      <sparseX i="732" alpha="393.89396136614562" sparseCutoff="1.0000000000000000"/>
      <sparseX i="733" alpha="-514.59052509531307" sparseCutoff="1.0000000000000000"/>
      <sparseX i="734" alpha="349.39212447022521" sparseCutoff="1.0000000000000000"/>
      <sparseX i="735" alpha="-182.40368014590860" sparseCutoff="1.0000000000000000"/>
      <sparseX i="736" alpha="-403.95957319066844" sparseCutoff="1.0000000000000000"/>
      <sparseX i="737" alpha="-49.637100208192287" sparseCutoff="1.0000000000000000"/>
      <sparseX i="738" alpha="601.67018675132488" sparseCutoff="1.0000000000000000"/>
      <sparseX i="739" alpha="100.94511813327637" sparseCutoff="1.0000000000000000"/>
      <sparseX i="740" alpha="255.88260587972189" sparseCutoff="1.0000000000000000"/>
      <sparseX i="741" alpha="-657.30036545120515" sparseCutoff="1.0000000000000000"/>
      <sparseX i="742" alpha="-94.072019702110367" sparseCutoff="1.0000000000000000"/>
      <sparseX i="743" alpha="-59.224597748917311" sparseCutoff="1.0000000000000000"/>
      <sparseX i="744" alpha="-732.76038123162584" sparseCutoff="1.0000000000000000"/>
      <sparseX i="745" alpha="-302.33983772480610" sparseCutoff="1.0000000000000000"/>
      <sparseX i="746" alpha="242.24008697191377" sparseCutoff="1.0000000000000000"/>
      <sparseX i="747" alpha="-59.945767779252002" sparseCutoff="1.0000000000000000"/>
      <sparseX i="748" alpha="254.42815843185204" sparseCutoff="1.0000000000000000"/>
      <sparseX i="749" alpha="-471.95987138169301" sparseCutoff="1.0000000000000000"/>
      <sparseX i="750" alpha="990.78068994121725" sparseCutoff="1.0000000000000000"/>
      <sparseX i="751" alpha="-64.028476388618486" sparseCutoff="1.0000000000000000"/>
      <sparseX i="752" alpha="-205.04772615462468" sparseCutoff="1.0000000000000000"/>
      <sparseX i="753" alpha="-253.34470386019592" sparseCutoff="1.0000000000000000"/>
      <sparseX i="754" alpha=".60990186605711072" sparseCutoff="1.0000000000000000"/>
      <sparseX i="755" alpha="1739.6463912116981" sparseCutoff="1.0000000000000000"/>
      <sparseX i="756" alpha="793.94727940923406" sparseCutoff="1.0000000000000000"/>
      <sparseX i="757" alpha="136.20126024253176" sparseCutoff="1.0000000000000000"/>
      <sparseX i="758" alpha="729.83302575390894" sparseCutoff="1.0000000000000000"/>
      <sparseX i="759" alpha="209.68911924949862" sparseCutoff="1.0000000000000000"/>
      <sparseX i="760" alpha="-162.26614559094645" sparseCutoff="1.0000000000000000"/>
      <sparseX i="761" alpha="-66.491605534516424" sparseCutoff="1.0000000000000000"/>
      <sparseX i="762" alpha="126.84366634661480" sparseCutoff="1.0000000000000000"/>
      <sparseX i="763" alpha="-89.978960263742408" sparseCutoff="1.0000000000000000"/>
      <sparseX i="764" alpha="79.116013337868466" sparseCutoff="1.0000000000000000"/>
      <sparseX i="765" alpha="-360.36074408605856" sparseCutoff="1.0000000000000000"/>
      <sparseX i="766" alpha="909.37984371341622" sparseCutoff="1.0000000000000000"/>
      <sparseX i="767" alpha="264.68001994697880" sparseCutoff="1.0000000000000000"/>
      <sparseX i="768" alpha="-231.55195314734095" sparseCutoff="1.0000000000000000"/>
      <sparseX i="769" alpha="376.10408508700289" sparseCutoff="1.0000000000000000"/>
      <sparseX i="770" alpha="356.40223601206890" sparseCutoff="1.0000000000000000"/>
      <sparseX i="771" alpha="142.67427898017218" sparseCutoff="1.0000000000000000"/>
      <sparseX i="772" alpha="-493.19245971473612" sparseCutoff="1.0000000000000000"/>
      <sparseX i="773" alpha="745.11696560335531" sparseCutoff="1.0000000000000000"/>
      <sparseX i="774" alpha="-396.26752236572031" sparseCutoff="1.0000000000000000"/>
      <sparseX i="775" alpha="-526.45339719307754" sparseCutoff="1.0000000000000000"/>
      <sparseX i="776" alpha="-286.22116045460814" sparseCutoff="1.0000000000000000"/>
      <sparseX i="777" alpha="-1367.4698686739982" sparseCutoff="1.0000000000000000"/>
      <sparseX i="778" alpha="235.00337908430959" sparseCutoff="1.0000000000000000"/>
      <sparseX i="779" alpha="-200.64049238620612" sparseCutoff="1.0000000000000000"/>
      <sparseX i="780" alpha="450.99391911489892" sparseCutoff="1.0000000000000000"/>
      <sparseX i="781" alpha="-93.855172265698613" sparseCutoff="1.0000000000000000"/>
      <sparseX i="782" alpha="-536.34273779639534" sparseCutoff="1.0000000000000000"/>
      <sparseX i="783" alpha="-140.66524843138762" sparseCutoff="1.0000000000000000"/>
      <sparseX i="784" alpha="-100.67967821259687" sparseCutoff="1.0000000000000000"/>
      <sparseX i="785" alpha="-8.9465141498347514" sparseCutoff="1.0000000000000000"/>
      <sparseX i="786" alpha="-519.88957204417579" sparseCutoff="1.0000000000000000"/>
      <sparseX i="787" alpha="124.55758558673095" sparseCutoff="1.0000000000000000"/>
      <sparseX i="788" alpha="-413.72742666081189" sparseCutoff="1.0000000000000000"/>
      <sparseX i="789" alpha="-404.51173238853380" sparseCutoff="1.0000000000000000"/>
      <sparseX i="790" alpha="256.37841428129701" sparseCutoff="1.0000000000000000"/>
      <sparseX i="791" alpha="-775.54489866876872" sparseCutoff="1.0000000000000000"/>
      <sparseX i="792" alpha="159.14142316614581" sparseCutoff="1.0000000000000000"/>
      <sparseX i="793" alpha="-91.523674444834725" sparseCutoff="1.0000000000000000"/>
      <sparseX i="794" alpha="-191.35809703843850" sparseCutoff="1.0000000000000000"/>
      <sparseX i="795" alpha="206.01347739694219" sparseCutoff="1.0000000000000000"/>
      <sparseX i="796" alpha="-26.987882895852909" sparseCutoff="1.0000000000000000"/>
      <sparseX i="797" alpha="-68.022137581488721" sparseCutoff="1.0000000000000000"/>
      <sparseX i="798" alpha="-875.64259671314448" sparseCutoff="1.0000000000000000"/>
      <sparseX i="799" alpha="104.14608932441401" sparseCutoff="1.0000000000000000"/>
      <sparseX i="800" alpha="180.23182856269227" sparseCutoff="1.0000000000000000"/>
      <sparseX i="801" alpha="-79.028506269134766" sparseCutoff="1.0000000000000000"/>
      <sparseX i="802" alpha="-390.58991339735093" sparseCutoff="1.0000000000000000"/>
      <sparseX i="803" alpha="-143.59787244175828" sparseCutoff="1.0000000000000000"/>
      <sparseX i="804" alpha="-258.24199071424084" sparseCutoff="1.0000000000000000"/>
      <sparseX i="805" alpha="264.90284346079540" sparseCutoff="1.0000000000000000"/>
      <sparseX i="806" alpha="550.39805215736021" sparseCutoff="1.0000000000000000"/>
      <sparseX i="807" alpha="487.80252359745128" sparseCutoff="1.0000000000000000"/>
      <sparseX i="808" alpha="346.18994172921157" sparseCutoff="1.0000000000000000"/>
      <sparseX i="809" alpha="234.32589724505470" sparseCutoff="1.0000000000000000"/>
      <sparseX i="810" alpha="73.176677354064296" sparseCutoff="1.0000000000000000"/>
      <sparseX i="811" alpha="-276.73896784291441" sparseCutoff="1.0000000000000000"/>
      <sparseX i="812" alpha="-595.17704644847959" sparseCutoff="1.0000000000000000"/>
      <sparseX i="813" alpha="-305.32656782891735" sparseCutoff="1.0000000000000000"/>
      <sparseX i="814" alpha="160.67845643367195" sparseCutoff="1.0000000000000000"/>
      <sparseX i="815" alpha="473.11567052167271" sparseCutoff="1.0000000000000000"/>
      <sparseX i="816" alpha="-468.10795477068871" sparseCutoff="1.0000000000000000"/>
      <sparseX i="817" alpha="115.91133716994666" sparseCutoff="1.0000000000000000"/>
      <sparseX i="818" alpha="-116.62397682837444" sparseCutoff="1.0000000000000000"/>
      <sparseX i="819" alpha="-496.10376462743614" sparseCutoff="1.0000000000000000"/>
      <sparseX i="820" alpha="450.24022448568451" sparseCutoff="1.0000000000000000"/>
      <sparseX i="821" alpha="-448.45137672418002" sparseCutoff="1.0000000000000000"/>
      <sparseX i="822" alpha="-464.72720018417317" sparseCutoff="1.0000000000000000"/>
      <sparseX i="823" alpha="-139.47918596312681" sparseCutoff="1.0000000000000000"/>
      <sparseX i="824" alpha="-1185.4970923985368" sparseCutoff="1.0000000000000000"/>
      <sparseX i="825" alpha="159.98632438265804" sparseCutoff="1.0000000000000000"/>
      <sparseX i="826" alpha="-686.34685296746522" sparseCutoff="1.0000000000000000"/>
      <sparseX i="827" alpha="-442.56274680785867" sparseCutoff="1.0000000000000000"/>
      <sparseX i="828" alpha="10.363608324499713" sparseCutoff="1.0000000000000000"/>
      <sparseX i="829" alpha="-284.86737508747188" sparseCutoff="1.0000000000000000"/>
      <sparseX i="830" alpha="1025.3991547229389" sparseCutoff="1.0000000000000000"/>
      <sparseX i="831" alpha="-909.42710421526226" sparseCutoff="1.0000000000000000"/>
      <sparseX i="832" alpha="1001.1522144142251" sparseCutoff="1.0000000000000000"/>
      <sparseX i="833" alpha="1099.8230212597805" sparseCutoff="1.0000000000000000"/>
      <sparseX i="834" alpha="501.83518644455251" sparseCutoff="1.0000000000000000"/>
      <sparseX i="835" alpha="-75.941210280655483" sparseCutoff="1.0000000000000000"/>
      <sparseX i="836" alpha="-989.88841727712929" sparseCutoff="1.0000000000000000"/>
      <sparseX i="837" alpha="-692.89556082079446" sparseCutoff="1.0000000000000000"/>
      <sparseX i="838" alpha="-178.15136777787572" sparseCutoff="1.0000000000000000"/>
      <sparseX i="839" alpha="11.141216451172015" sparseCutoff="1.0000000000000000"/>
      <sparseX i="840" alpha="195.43965553200641" sparseCutoff="1.0000000000000000"/>
      <sparseX i="841" alpha="1.0171726006284783" sparseCutoff="1.0000000000000000"/>
      <sparseX i="842" alpha="-190.40375585684018" sparseCutoff="1.0000000000000000"/>
      <sparseX i="843" alpha="-1049.4590359379870" sparseCutoff="1.0000000000000000"/>
      <sparseX i="844" alpha="1274.1529938163821" sparseCutoff="1.0000000000000000"/>
      <sparseX i="845" alpha="-175.25919414875719" sparseCutoff="1.0000000000000000"/>
      <sparseX i="846" alpha="460.52804610738849" sparseCutoff="1.0000000000000000"/>
      <sparseX i="847" alpha="1833.9690105805071" sparseCutoff="1.0000000000000000"/>
      <sparseX i="848" alpha="-122.54451493346735" sparseCutoff="1.0000000000000000"/>
      <sparseX i="849" alpha="360.25213464020402" sparseCutoff="1.0000000000000000"/>
      <sparseX i="850" alpha="-735.75347721199284" sparseCutoff="1.0000000000000000"/>
      <sparseX i="851" alpha="-172.88128868861588" sparseCutoff="1.0000000000000000"/>
      <sparseX i="852" alpha="-1430.1995183664358" sparseCutoff="1.0000000000000000"/>
      <sparseX i="853" alpha="1084.6986259013827" sparseCutoff="1.0000000000000000"/>
      <sparseX i="854" alpha="-421.90552117136446" sparseCutoff="1.0000000000000000"/>
      <sparseX i="855" alpha="104.35673535089200" sparseCutoff="1.0000000000000000"/>
      <sparseX i="856" alpha="-696.98641739480502" sparseCutoff="1.0000000000000000"/>
      <sparseX i="857" alpha="-872.63667536726336" sparseCutoff="1.0000000000000000"/>
      <sparseX i="858" alpha="774.52295571850698" sparseCutoff="1.0000000000000000"/>
      <sparseX i="859" alpha="282.24947842235895" sparseCutoff="1.0000000000000000"/>
      <sparseX i="860" alpha="-385.06400922245973" sparseCutoff="1.0000000000000000"/>
      <sparseX i="861" alpha="-124.57528398897074" sparseCutoff="1.0000000000000000"/>
      <sparseX i="862" alpha="-125.58951709172527" sparseCutoff="1.0000000000000000"/>
      <sparseX i="863" alpha="-21.747738153112813" sparseCutoff="1.0000000000000000"/>
      <sparseX i="864" alpha="-277.97573621914233" sparseCutoff="1.0000000000000000"/>
      <sparseX i="865" alpha="-312.54041065761714" sparseCutoff="1.0000000000000000"/>
      <sparseX i="866" alpha="-37.653308368037933" sparseCutoff="1.0000000000000000"/>
      <sparseX i="867" alpha="241.21478055490570" sparseCutoff="1.0000000000000000"/>
      <sparseX i="868" alpha="-1030.2852701631020" sparseCutoff="1.0000000000000000"/>
      <sparseX i="869" alpha="-1210.8440623518268" sparseCutoff="1.0000000000000000"/>
      <sparseX i="870" alpha="54.276379554400343" sparseCutoff="1.0000000000000000"/>
      <sparseX i="871" alpha="-430.36019288729500" sparseCutoff="1.0000000000000000"/>
      <sparseX i="872" alpha="1731.6727635270615" sparseCutoff="1.0000000000000000"/>
      <sparseX i="873" alpha="-894.94831884171424" sparseCutoff="1.0000000000000000"/>
      <sparseX i="874" alpha="-1049.2792160180397" sparseCutoff="1.0000000000000000"/>
      <sparseX i="875" alpha="117.79288943043042" sparseCutoff="1.0000000000000000"/>
      <sparseX i="876" alpha="-333.43908921878568" sparseCutoff="1.0000000000000000"/>
      <sparseX i="877" alpha="471.04143977863623" sparseCutoff="1.0000000000000000"/>
      <sparseX i="878" alpha="165.97133795551628" sparseCutoff="1.0000000000000000"/>
      <sparseX i="879" alpha="-285.37442227702337" sparseCutoff="1.0000000000000000"/>
      <sparseX i="880" alpha="839.67098046984313" sparseCutoff="1.0000000000000000"/>
      <sparseX i="881" alpha="982.87379609553352" sparseCutoff="1.0000000000000000"/>
      <sparseX i="882" alpha="-451.61886778273271" sparseCutoff="1.0000000000000000"/>
      <sparseX i="883" alpha="117.65990110503733" sparseCutoff="1.0000000000000000"/>
      <sparseX i="884" alpha="-459.29044359602659" sparseCutoff="1.0000000000000000"/>
      <sparseX i="885" alpha="-245.13570028870191" sparseCutoff="1.0000000000000000"/>
      <sparseX i="886" alpha="-565.31716288719679" sparseCutoff="1.0000000000000000"/>
      <sparseX i="887" alpha="1124.7117142369580" sparseCutoff="1.0000000000000000"/>
      <sparseX i="888" alpha="985.03454220189815" sparseCutoff="1.0000000000000000"/>
      <sparseX i="889" alpha="-660.48388648521882" sparseCutoff="1.0000000000000000"/>
      <sparseX i="890" alpha="540.81464697222657" sparseCutoff="1.0000000000000000"/>
      <sparseX i="891" alpha="204.05843806204612" sparseCutoff="1.0000000000000000"/>
      <sparseX i="892" alpha="824.69496053911200" sparseCutoff="1.0000000000000000"/>
      <sparseX i="893" alpha="923.76664029020401" sparseCutoff="1.0000000000000000"/>
      <sparseX i="894" alpha="926.20565667497078" sparseCutoff="1.0000000000000000"/>
      <sparseX i="895" alpha="-1011.9658906421259" sparseCutoff="1.0000000000000000"/>
      <sparseX i="896" alpha="-989.28002728663057" sparseCutoff="1.0000000000000000"/>
      <sparseX i="897" alpha="-315.04840525300500" sparseCutoff="1.0000000000000000"/>
      <sparseX i="898" alpha="-346.68561354447030" sparseCutoff="1.0000000000000000"/>
      <sparseX i="899" alpha="975.53699097148308" sparseCutoff="1.0000000000000000"/>
      <sparseX i="900" alpha="-1198.1421985137847" sparseCutoff="1.0000000000000000"/>
      <sparseX i="901" alpha="-131.15353729958125" sparseCutoff="1.0000000000000000"/>
      <sparseX i="902" alpha="-731.21010953414896" sparseCutoff="1.0000000000000000"/>
      <sparseX i="903" alpha="392.16145413626526" sparseCutoff="1.0000000000000000"/>
      <sparseX i="904" alpha="81.337646965354551" sparseCutoff="1.0000000000000000"/>
      <sparseX i="905" alpha="-199.22237920864208" sparseCutoff="1.0000000000000000"/>
      <sparseX i="906" alpha="-346.25407886598344" sparseCutoff="1.0000000000000000"/>
      <sparseX i="907" alpha="696.71672361261903" sparseCutoff="1.0000000000000000"/>
      <sparseX i="908" alpha="-319.98492575746383" sparseCutoff="1.0000000000000000"/>
      <sparseX i="909" alpha="236.35892140411025" sparseCutoff="1.0000000000000000"/>
      <sparseX i="910" alpha="1804.1821399130745" sparseCutoff="1.0000000000000000"/>
      <sparseX i="911" alpha="-154.10396410070501" sparseCutoff="1.0000000000000000"/>
      <sparseX i="912" alpha="175.04151144071139" sparseCutoff="1.0000000000000000"/>
      <sparseX i="913" alpha="412.16081639473009" sparseCutoff="1.0000000000000000"/>
      <sparseX i="914" alpha="-230.21528955860316" sparseCutoff="1.0000000000000000"/>
      <sparseX i="915" alpha="-80.330331837593462" sparseCutoff="1.0000000000000000"/>
      <sparseX i="916" alpha="-46.354765124936954" sparseCutoff="1.0000000000000000"/>
      <sparseX i="917" alpha="412.89053968534068" sparseCutoff="1.0000000000000000"/>
      <sparseX i="918" alpha="-259.33085704389754" sparseCutoff="1.0000000000000000"/>
      <sparseX i="919" alpha="1016.1158741355366" sparseCutoff="1.0000000000000000"/>
      <sparseX i="920" alpha="697.00382397364308" sparseCutoff="1.0000000000000000"/>
      <sparseX i="921" alpha="801.02929553567412" sparseCutoff="1.0000000000000000"/>
      <sparseX i="922" alpha="-141.65595529771218" sparseCutoff="1.0000000000000000"/>
      <sparseX i="923" alpha="-14.378839493401427" sparseCutoff="1.0000000000000000"/>
      <sparseX i="924" alpha="3606.6417702262643" sparseCutoff="1.0000000000000000"/>
      <sparseX i="925" alpha="-259.28823393837359" sparseCutoff="1.0000000000000000"/>
      <sparseX i="926" alpha="384.07079496263930" sparseCutoff="1.0000000000000000"/>
      <sparseX i="927" alpha="779.96204796739471" sparseCutoff="1.0000000000000000"/>
      <sparseX i="928" alpha="572.62556722258921" sparseCutoff="1.0000000000000000"/>
      <sparseX i="929" alpha="-959.23945823527856" sparseCutoff="1.0000000000000000"/>
      <sparseX i="930" alpha="-1611.0239707317141" sparseCutoff="1.0000000000000000"/>
      <sparseX i="931" alpha="-648.78099688297993" sparseCutoff="1.0000000000000000"/>
      <sparseX i="932" alpha="275.71702742630140" sparseCutoff="1.0000000000000000"/>
      <sparseX i="933" alpha="2583.2501165269196" sparseCutoff="1.0000000000000000"/>
      <sparseX i="934" alpha="-498.26990139843105" sparseCutoff="1.0000000000000000"/>
      <sparseX i="935" alpha="1576.3475790957045" sparseCutoff="1.0000000000000000"/>
      <sparseX i="936" alpha="-593.87998512466470" sparseCutoff="1.0000000000000000"/>
      <sparseX i="937" alpha="-515.49700072410519" sparseCutoff="1.0000000000000000"/>
      <sparseX i="938" alpha="510.73588262003977" sparseCutoff="1.0000000000000000"/>
      <sparseX i="939" alpha="8.0856448225871080" sparseCutoff="1.0000000000000000"/>
      <sparseX i="940" alpha="220.55594181313089" sparseCutoff="1.0000000000000000"/>
      <sparseX i="941" alpha="-3.9323216462045973" sparseCutoff="1.0000000000000000"/>
      <sparseX i="942" alpha="791.00198912919700" sparseCutoff="1.0000000000000000"/>
      <sparseX i="943" alpha="-350.22739842587049" sparseCutoff="1.0000000000000000"/>
      <sparseX i="944" alpha="-832.11038396668755" sparseCutoff="1.0000000000000000"/>
      <sparseX i="945" alpha="12.801318732240807" sparseCutoff="1.0000000000000000"/>
      <sparseX i="946" alpha="-969.10948496193498" sparseCutoff="1.0000000000000000"/>
      <sparseX i="947" alpha="825.07361281268891" sparseCutoff="1.0000000000000000"/>
      <sparseX i="948" alpha="-11.646447690105438" sparseCutoff="1.0000000000000000"/>
      <sparseX i="949" alpha="-363.53011589995930" sparseCutoff="1.0000000000000000"/>
      <sparseX i="950" alpha="392.99228826567389" sparseCutoff="1.0000000000000000"/>
      <sparseX i="951" alpha="-165.73516394187413" sparseCutoff="1.0000000000000000"/>
      <sparseX i="952" alpha="-334.21064455720534" sparseCutoff="1.0000000000000000"/>
      <sparseX i="953" alpha="66.107981453730758" sparseCutoff="1.0000000000000000"/>
      <sparseX i="954" alpha="-1617.2169370279250" sparseCutoff="1.0000000000000000"/>
      <sparseX i="955" alpha="580.07884148445339" sparseCutoff="1.0000000000000000"/>
      <sparseX i="956" alpha="-96.102454683836541" sparseCutoff="1.0000000000000000"/>
      <sparseX i="957" alpha="-1177.5270569806132" sparseCutoff="1.0000000000000000"/>
      <sparseX i="958" alpha="-535.50973345602983" sparseCutoff="1.0000000000000000"/>
      <sparseX i="959" alpha="-1314.1092907998109" sparseCutoff="1.0000000000000000"/>
      <sparseX i="960" alpha="425.72326475204557" sparseCutoff="1.0000000000000000"/>
      <sparseX i="961" alpha="-670.62112911495626" sparseCutoff="1.0000000000000000"/>
