  DATE: 2018-03-30 CONTRIBUTOR: Xiaowang Zhou xzhou@sandia.gov and Lucas Hale lucas.hale@nist.gov CITATION: X. W. Zhou, R. A. Johnson, H. N. G. Wadley, Phys. Rev. B, 69, 144113(2004)
  Generated from Zhou04_create_v2.f
  Fixes precision issues with older version
    3 Pd Ni P                 
 2000  0.5002501250625312E-01 2000  0.3220643388731296E-02  0.6438066134073861E+01
   46     106.42         3.8904    fcc     
  0.0000000000000000E+00 -0.1211796410340749E-01 -0.2420179682408738E-01 -0.3625052733990758E-01 -0.4826418482873557E-01
 -0.6024279846843769E-01 -0.7218639743688263E-01 -0.8409501091193700E-01 -0.9596866807146787E-01 -0.1078073980933439E+00
 -0.1196112301554311E+00 -0.1313801934355970E+00 -0.1431143171117101E+00 -0.1548136303616368E+00 -0.1664781623632442E+00
 -0.1781079422944001E+00 -0.1897029993329722E+00 -0.2012633626568276E+00 -0.2127890614438330E+00 -0.2242801248718568E+00
 -0.2357365821187661E+00 -0.2471584623624273E+00 -0.2585457947807093E+00 -0.2698986085514784E+00 -0.2812169328526022E+00
 -0.2925007968619481E+00 -0.3037502297573840E+00 -0.3149652607167758E+00 -0.3261459189179926E+00 -0.3372922335389009E+00
 -0.3484042337573677E+00 -0.3594819487512611E+00 -0.3705254076984485E+00 -0.3815346397767962E+00 -0.3925096741641727E+00
 -0.4034505400384453E+00 -0.4143572665774803E+00 -0.4252298829591464E+00 -0.4360684183613102E+00 -0.4468729019618389E+00
 -0.4576433629386006E+00 -0.4683798304694623E+00 -0.4790823337322906E+00 -0.4897509019049542E+00 -0.5003855641653197E+00
 -0.5109863496912542E+00 -0.5215532876606259E+00 -0.5320864072513022E+00 -0.5425857376411489E+00 -0.5530513080080350E+00
 -0.5634831475298274E+00 -0.5738812853843938E+00 -0.5842457507496002E+00 -0.5945765728033154E+00 -0.6048737807234064E+00
 -0.6151374036877402E+00 -0.6253674708741842E+00 -0.6355640114606060E+00 -0.6457270546248733E+00 -0.6558566295448527E+00
 -0.6659527653984123E+00 -0.6760154913634191E+00 -0.6860448366177401E+00 -0.6960408303392432E+00 -0.7060035017057958E+00
 -0.7159328798952647E+00 -0.7258289940855178E+00 -0.7356918734544226E+00 -0.7455215471798455E+00 -0.7553180444396549E+00
 -0.7650813944117181E+00 -0.7748116262739015E+00 -0.7845087692040734E+00 -0.7941728523801013E+00 -0.8038039049798513E+00
 -0.8134019561811923E+00 -0.8229670351619907E+00 -0.8324991711001140E+00 -0.8419983931734297E+00 -0.8514647305598056E+00
 -0.8608982124371080E+00 -0.8702988679832053E+00 -0.8796667263759644E+00 -0.8890018167932523E+00 -0.8983041684129373E+00
 -0.9075738104128862E+00 -0.9168107719709659E+00 -0.9260150822650447E+00 -0.9351867704729896E+00 -0.9443258657726679E+00
 -0.9534323973419465E+00 -0.9625063943586933E+00 -0.9715478860007758E+00 -0.9805569014460618E+00 -0.9895334698724166E+00
 -0.9984776204577096E+00 -0.1007389382379807E+01 -0.1016268784816578E+01 -0.1025115856945888E+01 -0.1033930627945605E+01
 -0.1042713126993596E+01 -0.1051463383267730E+01 -0.1060181425945872E+01 -0.1068867284205890E+01 -0.1077520987225653E+01
 -0.1086142564183027E+01 -0.1094732044255879E+01 -0.1103289456622077E+01 -0.1111814830459489E+01 -0.1120308194945981E+01
 -0.1128769579259421E+01 -0.1137199012577677E+01 -0.1145596524078615E+01 -0.1153962142940103E+01 -0.1162295898340009E+01
 -0.1170597819456200E+01 -0.1178867935466543E+01 -0.1187106275548906E+01 -0.1195312868881155E+01 -0.1203487744641159E+01
 -0.1211630932006785E+01 -0.1219742460155898E+01 -0.1227822358266369E+01 -0.1235870655516064E+01 -0.1243887381082850E+01
 -0.1251872564144594E+01 -0.1259826233879164E+01 -0.1267748419464427E+01 -0.1275639150078250E+01 -0.1283498454898502E+01
 -0.1291326363103049E+01 -0.1299122903869759E+01 -0.1306888106376499E+01 -0.1314621999801135E+01 -0.1322324613321537E+01
 -0.1329995976115571E+01 -0.1337636117361104E+01 -0.1345245066236004E+01 -0.1352822851918139E+01 -0.1360369503585374E+01
 -0.1367885050415580E+01 -0.1375369521586621E+01 -0.1382822946276365E+01 -0.1390245353662681E+01 -0.1397636772923435E+01
 -0.1404997233236495E+01 -0.1412326763779728E+01 -0.1419625393731001E+01 -0.1426893152268183E+01 -0.1434130068569139E+01
 -0.1441336171811739E+01 -0.1448511491173847E+01 -0.1455656055833334E+01 -0.1462769894968065E+01 -0.1469853037755908E+01
 -0.1476905513374730E+01 -0.1483927351002399E+01 -0.1490918579816782E+01 -0.1497879228995747E+01 -0.1504809327717160E+01
 -0.1511708905158889E+01 -0.1518577990498803E+01 -0.1525416612914767E+01 -0.1532224801584649E+01 -0.1539002585686317E+01
 -0.1545749994397639E+01 -0.1552467056896480E+01 -0.1559153802360709E+01 -0.1565810259968193E+01 -0.1572436458896800E+01
 -0.1579032428324397E+01 -0.1585598197428850E+01 -0.1592133795388028E+01 -0.1598639251379799E+01 -0.1605114594582028E+01
 -0.1611559854172585E+01 -0.1617975059329335E+01 -0.1624360239230146E+01 -0.1630715423052887E+01 -0.1637040639975423E+01
 -0.1643335919175623E+01 -0.1649601289831353E+01 -0.1655836781120482E+01 -0.1662042422220877E+01 -0.1668218242310404E+01
 -0.1674364270566931E+01 -0.1680480536168327E+01 -0.1686567068292457E+01 -0.1692623896117190E+01 -0.1698651048820392E+01
 -0.1704648555579931E+01 -0.1710616445573675E+01 -0.1716554747979491E+01 -0.1722463491975246E+01 -0.1728342706738807E+01
 -0.1734192421448043E+01 -0.1740012665280819E+01 -0.1745803467415004E+01 -0.1751564857028466E+01 -0.1757296863299071E+01
 -0.1762999515404686E+01 -0.1768672842523179E+01 -0.1774316873832418E+01 -0.1779931638510270E+01 -0.1785517165734602E+01
 -0.1791073484683282E+01 -0.1796600624534176E+01 -0.1802098614465153E+01 -0.1807567483654079E+01 -0.1813007261278822E+01
 -0.1818417976517250E+01 -0.1823799658547229E+01 -0.1829152336546628E+01 -0.1834476039693313E+01 -0.1839770797165152E+01
 -0.1845036638140012E+01 -0.1850273591795760E+01 -0.1855481687310265E+01 -0.1860660953861393E+01 -0.1865811420627011E+01
 -0.1870933116784987E+01 -0.1876026071513189E+01 -0.1881090313989483E+01 -0.1886125873391737E+01 -0.1891132778897819E+01
 -0.1896111059685597E+01 -0.1901060744932936E+01 -0.1905981863817704E+01 -0.1910874445517770E+01 -0.1915738519210999E+01
 -0.1920574114075261E+01 -0.1925381259288421E+01 -0.1930159984028347E+01 -0.1934910317472908E+01 -0.1939632288799970E+01
 -0.1944325927187399E+01 -0.1948991261813065E+01 -0.1953628321854834E+01 -0.1958237136490574E+01 -0.1962817734898151E+01
 -0.1967370146255434E+01 -0.1971894399740289E+01 -0.1976390524530585E+01 -0.1980858549804187E+01 -0.1985298504738965E+01
 -0.1989710418512784E+01 -0.1994094320303513E+01 -0.1998450239289019E+01 -0.2002778204647169E+01 -0.2007078245555830E+01
 -0.2011350391192870E+01 -0.2015594670736157E+01 -0.2019811113363557E+01 -0.2023999748252939E+01 -0.2028160604582169E+01
 -0.2032293711529114E+01 -0.2036399098271642E+01 -0.2040476793987621E+01 -0.2044526827854918E+01 -0.2048549229051400E+01
 -0.2052544026754934E+01 -0.2056511250143388E+01 -0.2060450928394630E+01 -0.2064363090686526E+01 -0.2068247766196945E+01
 -0.2072104984103752E+01 -0.2075934773584816E+01 -0.2079737163818004E+01 -0.2083512183981184E+01 -0.2087259863252223E+01
 -0.2090980230808988E+01 -0.2094673315829346E+01 -0.2098339147491165E+01 -0.2101977754972313E+01 -0.2105589167450656E+01
 -0.2109173414104062E+01 -0.2112730524110399E+01 -0.2116260526647532E+01 -0.2119763450893332E+01 -0.2123239326025664E+01
 -0.2126688181222395E+01 -0.2130110045661394E+01 -0.2133504948520527E+01 -0.2136872918977662E+01 -0.2140213986210667E+01
 -0.2143528179397407E+01 -0.2146815527715753E+01 -0.2150076060343569E+01 -0.2153309806458723E+01 -0.2156516795239085E+01
 -0.2159697055862519E+01 -0.2162850617506895E+01 -0.2165977509350078E+01 -0.2169077760569937E+01 -0.2172151400344339E+01
 -0.2175198457851152E+01 -0.2178218962268242E+01 -0.2181212942773477E+01 -0.2184180428544724E+01 -0.2187121448759851E+01
 -0.2190036032596724E+01 -0.2192924209233213E+01 -0.2195786007847183E+01 -0.2198621457616503E+01 -0.2201430587719039E+01
 -0.2204213427332658E+01 -0.2206970005635230E+01 -0.2209700351804619E+01 -0.2212404495018695E+01 -0.2215082464455324E+01
 -0.2217734289292374E+01 -0.2220359998707711E+01 -0.2222959621879204E+01 -0.2225533187984721E+01 -0.2228080726202127E+01
 -0.2230602265709291E+01 -0.2233097835684079E+01 -0.2235567465304360E+01 -0.2238011183748001E+01 -0.2240429020192868E+01
 -0.2242821003816831E+01 -0.2245187163797754E+01 -0.2247527529313507E+01 -0.2249842129541955E+01 -0.2252130993660969E+01
 -0.2254394150848413E+01 -0.2256631630282155E+01 -0.2258843461140063E+01 -0.2261029672600005E+01 -0.2263190293839848E+01
 -0.2265325354037457E+01 -0.2267434882370703E+01 -0.2269518908017452E+01 -0.2271577460155570E+01 -0.2273610567962926E+01
 -0.2275618260617387E+01 -0.2277600567296819E+01 -0.2279557517179092E+01 -0.2281489139442071E+01 -0.2283395463263625E+01
 -0.2285276517821620E+01 -0.2287132332293924E+01 -0.2288962935858404E+01 -0.2290768357692929E+01 -0.2292548626975364E+01
 -0.2294303772883577E+01 -0.2296033824595436E+01 -0.2297738811288809E+01 -0.2299418762141562E+01 -0.2301073706331564E+01
 -0.2302703673036679E+01 -0.2304308691434779E+01 -0.2305888790703728E+01 -0.2307444000021393E+01 -0.2308974348565644E+01
 -0.2310479865514347E+01 -0.2311960580045370E+01 -0.2313416521336579E+01 -0.2314847718565842E+01 -0.2316254200911027E+01
 -0.2317635997550000E+01 -0.2318993137660631E+01 -0.2320325650420784E+01 -0.2321633170754988E+01 -0.2322916567921281E+01
 -0.2324175574109516E+01 -0.2325410318916453E+01 -0.2326620931938853E+01 -0.2327807542773474E+01 -0.2328970281017078E+01
 -0.2330109276266422E+01 -0.2331224658118268E+01 -0.2332316556169375E+01 -0.2333385100016502E+01 -0.2334430419256410E+01
 -0.2335452643485859E+01 -0.2336451902301607E+01 -0.2337428325300416E+01 -0.2338382042079044E+01 -0.2339313182234252E+01
 -0.2340221875362799E+01 -0.2341108251061445E+01 -0.2341972438926950E+01 -0.2342814568556074E+01 -0.2343634769545576E+01
 -0.2344433171492216E+01 -0.2345209903992754E+01 -0.2345965096643950E+01 -0.2346698879042563E+01 -0.2347411380785354E+01
 -0.2348102731469082E+01 -0.2348773060690506E+01 -0.2349422498046387E+01 -0.2350051173133485E+01 -0.2350659215548560E+01
 -0.2351246754888370E+01 -0.2351813920749676E+01 -0.2352360842729237E+01 -0.2352887650423814E+01 -0.2353394473430166E+01
 -0.2353881441345053E+01 -0.2354348683765235E+01 -0.2354796330287471E+01 -0.2355224510508522E+01 -0.2355633354025147E+01
 -0.2356022990434106E+01 -0.2356393549332157E+01 -0.2356745160316063E+01 -0.2357077952982582E+01 -0.2357392056928473E+01
 -0.2357687601750498E+01 -0.2357964717045415E+01 -0.2358223532409985E+01 -0.2358464177440967E+01 -0.2358686781735120E+01
 -0.2358891474889206E+01 -0.2359078386499982E+01 -0.2359247646164211E+01 -0.2359399383478650E+01 -0.2359533728040060E+01
 -0.2359650809445200E+01 -0.2359750757290831E+01 -0.2359833701173712E+01 -0.2359899770690604E+01 -0.2359949095438264E+01
 -0.2359981805013455E+01 -0.2359998029012935E+01 -0.2359997897033464E+01 -0.2359981538671801E+01 -0.2359949083524708E+01
 -0.2359900661188943E+01 -0.2359836401261266E+01 -0.2359756433338437E+01 -0.2359660887017216E+01 -0.2359549891894363E+01
 -0.2359423577566637E+01 -0.2359282073630798E+01 -0.2359125509683606E+01 -0.2358954015321821E+01 -0.2358767720142203E+01
 -0.2358566753741510E+01 -0.2358351245716503E+01 -0.2358121325663943E+01 -0.2357877123180589E+01 -0.2357618767863199E+01
 -0.2357346389308535E+01 -0.2357060117113356E+01 -0.2356760080874422E+01 -0.2356446410188492E+01 -0.2356119234652327E+01
 -0.2355778683862685E+01 -0.2355424887416328E+01 -0.2355057974910014E+01 -0.2354678075940504E+01 -0.2354285320104557E+01
 -0.2353879836998933E+01 -0.2353461756220392E+01 -0.2353031207365694E+01 -0.2352588320031598E+01 -0.2352133223814865E+01
 -0.2351666048312253E+01 -0.2351186923120522E+01 -0.2350695977836434E+01 -0.2350193342056747E+01 -0.2349679145378221E+01
 -0.2349153517397616E+01 -0.2348616587711691E+01 -0.2348068485917207E+01 -0.2347509341610924E+01 -0.2346939284389600E+01
 -0.2346358443849996E+01 -0.2345766949588872E+01 -0.2345164931202987E+01 -0.2344552518289101E+01 -0.2343929840443975E+01
 -0.2343297027264367E+01 -0.2342654208347037E+01 -0.2342001513288746E+01 -0.2341339071686252E+01 -0.2340667013136317E+01
 -0.2339985467235699E+01 -0.2339294563581159E+01 -0.2338594431769456E+01 -0.2337885201397350E+01 -0.2337167002061601E+01
 -0.2336439963358968E+01 -0.2335704214886212E+01 -0.2334959886240092E+01 -0.2334207107017367E+01 -0.2333446006814799E+01
 -0.2332676715229146E+01 -0.2331898433262550E+01 -0.2331106489650838E+01 -0.2330300202802834E+01 -0.2329479594309783E+01
 -0.2328644685687737E+01 -0.2327795498377968E+01 -0.2326932053747381E+01 -0.2326054373088910E+01 -0.2325162477621928E+01
 -0.2324256388492642E+01 -0.2323336126774493E+01 -0.2322401713468542E+01 -0.2321453169503870E+01 -0.2320490515737959E+01
 -0.2319513772957077E+01 -0.2318522961876663E+01 -0.2317518103141706E+01 -0.2316499217327115E+01 -0.2315466324938104E+01
 -0.2314419446410549E+01 -0.2313358602111369E+01 -0.2312283812338883E+01 -0.2311195097323177E+01 -0.2310092477226463E+01
 -0.2308975972143436E+01 -0.2307845602101631E+01 -0.2306701387061772E+01 -0.2305543346918128E+01 -0.2304371501498854E+01
 -0.2303185870566339E+01 -0.2301986473817551E+01 -0.2300773330884373E+01 -0.2299546461333941E+01 -0.2298305884668984E+01
 -0.2297051620328152E+01 -0.2295783687686349E+01 -0.2294502106055060E+01 -0.2293206894682679E+01 -0.2291898072754830E+01
 -0.2290575659394692E+01 -0.2289239673663315E+01 -0.2287890134559939E+01 -0.2286527061022306E+01 -0.2285150471926977E+01
 -0.2283760386089639E+01 -0.2282356822265416E+01 -0.2280939799149171E+01 -0.2279509335375813E+01 -0.2278065449520602E+01
 -0.2276608160099440E+01 -0.2275137485569179E+01 -0.2273653444327910E+01 -0.2272156054715259E+01 -0.2270645335012679E+01
 -0.2269121303443739E+01 -0.2267583978174413E+01 -0.2266033377313366E+01 -0.2264469518912234E+01 -0.2262892420965913E+01
 -0.2261302101412831E+01 -0.2259698578135235E+01 -0.2258081868959461E+01 -0.2256451991656209E+01 -0.2254808963940818E+01
 -0.2253152803473538E+01 -0.2251483527859794E+01 -0.2249801154650457E+01 -0.2248105701342110E+01 -0.2246397185377308E+01
 -0.2244675624144846E+01 -0.2242941034980013E+01 -0.2241193435164854E+01 -0.2239432841928425E+01 -0.2237659272447051E+01
 -0.2235872743844576E+01 -0.2234073273192619E+01 -0.2232260877510816E+01 -0.2230435573767080E+01 -0.2228597378877841E+01
 -0.2226746309708289E+01 -0.2224882383072623E+01 -0.2223005615734293E+01 -0.2221116024406235E+01 -0.2219213625751117E+01
 -0.2217298436381570E+01 -0.2215370472860430E+01 -0.2213429751700966E+01 -0.2211476289367122E+01 -0.2209510102273737E+01
 -0.2207531206786784E+01 -0.2205539619223593E+01 -0.2203535355853083E+01 -0.2201518432895983E+01 -0.2199488866525057E+01
 -0.2197446672865331E+01 -0.2195391867994307E+01 -0.2193324467942189E+01 -0.2191244488692100E+01 -0.2189151946180297E+01
 -0.2187046856296389E+01 -0.2184929234883550E+01 -0.2182799097738734E+01 -0.2180656460612886E+01 -0.2178501339211148E+01
 -0.2176333749193079E+01 -0.2174153706172849E+01 -0.2171961225719456E+01 -0.2169756323356928E+01 -0.2167539014564526E+01
 -0.2165309314776946E+01 -0.2163067239384524E+01 -0.2160812803733431E+01 -0.2158546023125880E+01 -0.2156266912820313E+01
 -0.2153975488031607E+01 -0.2151671763931266E+01 -0.2149355755647612E+01 -0.2147027478265984E+01 -0.2144686946828922E+01
 -0.2142334176336369E+01 -0.2139969181745847E+01 -0.2137591977972656E+01 -0.2135202579890056E+01 -0.2132801002329454E+01
 -0.2130387260080590E+01 -0.2127961367891719E+01 -0.2125523340469795E+01 -0.2123073192480652E+01 -0.2120610938549187E+01
 -0.2118136593259534E+01 -0.2115650171155247E+01 -0.2113151686739475E+01 -0.2110641154475143E+01 -0.2108118588785118E+01
 -0.2105584004052393E+01 -0.2103037414620252E+01 -0.2100478834792448E+01 -0.2097908278833374E+01 -0.2095325760968224E+01
 -0.2092731295383177E+01 -0.2090124896225552E+01 -0.2087506577603981E+01 -0.2084876353588576E+01 -0.2082234238211092E+01
 -0.2079580245465090E+01 -0.2076914389306104E+01 -0.2074236683651798E+01 -0.2071547142382136E+01 -0.2068845779339530E+01
 -0.2066132608329012E+01 -0.2063407643118383E+01 -0.2060670897438377E+01 -0.2057922384982815E+01 -0.2055162119408759E+01
 -0.2052390114336669E+01 -0.2049606383350561E+01 -0.2046810939998150E+01 -0.2044003797791013E+01 -0.2041184970204735E+01
 -0.2038354470679057E+01 -0.2035512312618033E+01 -0.2032658509390171E+01 -0.2029793074328589E+01 -0.2026916020731155E+01
 -0.2024027361860635E+01 -0.2021127110944841E+01 -0.2018215281176776E+01 -0.2015291885714773E+01 -0.2012356937682643E+01
 -0.2009410450169814E+01 -0.2006452436231476E+01 -0.2003482908888717E+01 -0.2000501881128665E+01 -0.1997509365904630E+01
 -0.1994505376136236E+01 -0.1991489924709564E+01 -0.1988463024477289E+01 -0.1985424688258807E+01 -0.1982374928840383E+01
 -0.1979313758975280E+01 -0.1976241191383886E+01 -0.1973157238753858E+01 -0.1970061913740250E+01 -0.1966955228965642E+01
 -0.1963837197020273E+01 -0.1960707830462171E+01 -0.1957567141817283E+01 -0.1954415143579601E+01 -0.1951251848211296E+01
 -0.1948077268142836E+01 -0.1944891415773121E+01 -0.1941694303469605E+01 -0.1938485943568422E+01 -0.1935266348374511E+01
 -0.1932035530161738E+01 -0.1928793501173020E+01 -0.1925540273620449E+01 -0.1922275859685413E+01 -0.1919000271518716E+01
 -0.1915713521240701E+01 -0.1912415620941367E+01 -0.1909106582680489E+01 -0.1905786418487741E+01 -0.1902455140362805E+01
 -0.1899112760275498E+01 -0.1895759290165882E+01 -0.1892394741944384E+01 -0.1889019127491908E+01 -0.1885632458659953E+01
 -0.1882234747270725E+01 -0.1878826005117254E+01 -0.1875406243963503E+01 -0.1871975475544482E+01 -0.1868533711566360E+01
 -0.1865080963706579E+01 -0.1861617243613958E+01 -0.1858142562908810E+01 -0.1854656933183047E+01 -0.1851160366000293E+01
 -0.1847652872895989E+01 -0.1844134465377499E+01 -0.1840605154924225E+01 -0.1837064952987705E+01 -0.1833513870991724E+01
 -0.1829951920332420E+01 -0.1826379112378386E+01 -0.1822795458470777E+01 -0.1819200969923412E+01 -0.1815595658022879E+01
 -0.1811979534028639E+01 -0.1808352609173124E+01 -0.1804714894661843E+01 -0.1801066401673483E+01 -0.1797407141360008E+01
 -0.1793737124846757E+01 -0.1790056363232551E+01 -0.1786364867589786E+01 -0.1782662648964535E+01 -0.1778949718376642E+01
 -0.1775226086819826E+01 -0.1771491765261774E+01 -0.1767746764644238E+01 -0.1763991095883134E+01 -0.1760224769868632E+01
 -0.1756447797465258E+01 -0.1752660189511986E+01 -0.1748861956822331E+01 -0.1745053110184445E+01 -0.1741233660361209E+01
 -0.1737403618090326E+01 -0.1733562994084415E+01 -0.1729711799031101E+01 -0.1725850043593106E+01 -0.1721977738408346E+01
 -0.1718094894090013E+01 -0.1714201521226669E+01 -0.1710297630382339E+01 -0.1706383232096595E+01 -0.1702458336884647E+01
 -0.1698522955237433E+01 -0.1694577097621705E+01 -0.1690620774480115E+01 -0.1686653996231307E+01 -0.1682676773269999E+01
 -0.1678689115967070E+01 -0.1674691034669650E+01 -0.1670682539701198E+01 -0.1666663641361595E+01 -0.1662634349927223E+01
 -0.1658594675651049E+01 -0.1654544628762713E+01 -0.1650484219468610E+01 -0.1646413457951967E+01 -0.1642332354372935E+01
 -0.1638240918868664E+01 -0.1634139161553389E+01 -0.1630027092518507E+01 -0.1625904721832661E+01 -0.1621772059541822E+01
 -0.1617629115669365E+01 -0.1613475900216152E+01 -0.1609312423160609E+01 -0.1605138694458808E+01 -0.1600954724044541E+01
 -0.1596760521829404E+01 -0.1592556097702870E+01 -0.1588341461532369E+01 -0.1584116623163365E+01 -0.1579881592419432E+01
 -0.1575636379102332E+01 -0.1571380992992085E+01 -0.1567115443847055E+01 -0.1562839741404017E+01 -0.1558553895378235E+01
 -0.1554257915463537E+01 -0.1549951811332386E+01 -0.1545635592635959E+01 -0.1541309269004218E+01 -0.1536972850045981E+01
 -0.1532626345348999E+01 -0.1528269764480024E+01 -0.1523903116984887E+01 -0.1519526412388564E+01 -0.1515139660195251E+01
 -0.1510742869888433E+01 -0.1506336050930958E+01 -0.1501919212765103E+01 -0.1497492364812647E+01 -0.1493055516474944E+01
 -0.1488608677132984E+01 -0.1484151856147471E+01 -0.1479685062858886E+01 -0.1475208306587559E+01 -0.1470721596633733E+01
 -0.1466224942277641E+01 -0.1461718352779559E+01 -0.1457201837379889E+01 -0.1452675405299214E+01 -0.1448139065738373E+01
 -0.1443592827878520E+01 -0.1439036700881198E+01 -0.1434470693888398E+01 -0.1429894816022625E+01 -0.1425309076386972E+01
 -0.1420713484065171E+01 -0.1416108048121668E+01 -0.1411492777601685E+01 -0.1406867681531282E+01 -0.1402232768917421E+01
 -0.1397588048748030E+01 -0.1392933529992068E+01 -0.1388269221599585E+01 -0.1383595132501784E+01 -0.1378911271611091E+01
 -0.1374217647821202E+01 -0.1369514270007161E+01 -0.1364801147025410E+01 -0.1360078287713858E+01 -0.1355345700891932E+01
 -0.1350603395360651E+01 -0.1345851379902675E+01 -0.1341089663282369E+01 -0.1336318254245866E+01 -0.1331537161521120E+01
 -0.1326746393817971E+01 -0.1321945959828202E+01 -0.1317135868225596E+01 -0.1312316127665997E+01 -0.1307486746787367E+01
 -0.1302647734209846E+01 -0.1297799098535807E+01 -0.1292940848349913E+01 -0.1288072992219177E+01 -0.1283195538693019E+01
 -0.1278308496303317E+01 -0.1273411873564474E+01 -0.1268505678973464E+01 -0.1263589921009892E+01 -0.1258664608136052E+01
 -0.1253729748796977E+01 -0.1248785351420501E+01 -0.1243831424417307E+01 -0.1238867976180989E+01 -0.1233895015088100E+01
 -0.1228912549498208E+01 -0.1223920587753957E+01 -0.1218919138181104E+01 -0.1213908209088596E+01 -0.1208887808768602E+01
 -0.1203857945496576E+01 -0.1198818627531313E+01 -0.1193769863114994E+01 -0.1188711660473243E+01 -0.1183644027815175E+01
 -0.1178566973333457E+01 -0.1173480505204350E+01 -0.1168384631587763E+01 -0.1163279360627308E+01 -0.1158164700450350E+01
 -0.1153040659168051E+01 -0.1147907244875434E+01 -0.1142764465651419E+01 -0.1137612329558884E+01 -0.1132450844644709E+01
 -0.1127280018939829E+01 -0.1122099860459280E+01 -0.1116910377202253E+01 -0.1111711577152143E+01 -0.1106503468276588E+01
 -0.1101286058527535E+01 -0.1096059355841272E+01 -0.1090823368138489E+01 -0.1085578103324316E+01 -0.1080323569288378E+01
 -0.1075059773904842E+01 -0.1069786725032457E+01 -0.1064504430514614E+01 -0.1059212898179383E+01 -0.1053912135839561E+01
 -0.1048602151292728E+01 -0.1043282952321279E+01 -0.1037954546692483E+01 -0.1032616942158520E+01 -0.1027270146456536E+01
 -0.1021914167308680E+01 -0.1016549012422154E+01 -0.1011174689489260E+01 -0.1005791206187441E+01 -0.1000398570179329E+01
 -0.9949967891127890E+00 -0.9895858706209625E+00 -0.9841658223223151E+00 -0.9787366518206756E+00 -0.9732983667052882E+00
 -0.9678509745508476E+00 -0.9623944829175455E+00 -0.9569288993511190E+00 -0.9514542313828899E+00 -0.9459704865298064E+00
 -0.9404776722944870E+00 -0.9349757961652699E+00 -0.9294648656162428E+00 -0.9239448881072991E+00 -0.9184158710841721E+00
 -0.9128778219784751E+00 -0.9073307482077545E+00 -0.9017746571755170E+00 -0.8962095562712855E+00 -0.8906354528706285E+00
 -0.8850523543352083E+00 -0.8794602680128232E+00 -0.8738592012374415E+00 -0.8682491613292495E+00 -0.8626301555946884E+00
 -0.8570021913264960E+00 -0.8513652758037471E+00 -0.8457194162918913E+00 -0.8400646200427997E+00 -0.8344008942947925E+00
 -0.8287282462726947E+00 -0.8230466831878614E+00 -0.8173562122382241E+00 -0.8116568406083298E+00 -0.8059485754693788E+00
 -0.8002314239792646E+00 -0.7945053932826097E+00 -0.7887704905108078E+00 -0.7830267227820620E+00 -0.7772740972014174E+00
 -0.7715126208608093E+00 -0.7657423008390922E+00 -0.7599631442020827E+00 -0.7541751580025946E+00 -0.7483783492804782E+00
 -0.7425727250626565E+00 -0.7367582923631608E+00 -0.7309350581831746E+00 -0.7251030295110616E+00 -0.7192622133224084E+00
 -0.7134126165800604E+00 -0.7075542462341525E+00 -0.7016871092221584E+00 -0.6958112124689126E+00 -0.6899265628866551E+00
 -0.6840331673750625E+00 -0.6781310328212903E+00 -0.6722201661000023E+00 -0.6663005740734071E+00 -0.6603722635912982E+00
 -0.6544352414910816E+00 -0.6484895145978203E+00 -0.6425350897242594E+00 -0.6365719736708667E+00 -0.6306001732258697E+00
 -0.6246196951652825E+00 -0.6186305462529488E+00 -0.6126327332405694E+00 -0.6066262628677390E+00 -0.6006111418619825E+00
 -0.5945873769387835E+00 -0.5885549748016258E+00 -0.5825139421420170E+00 -0.5764642856395332E+00 -0.5704060119618451E+00
 -0.5643391277647491E+00 -0.5582636396922117E+00 -0.5521795543763881E+00 -0.5460868784376686E+00 -0.5399856184846997E+00
 -0.5338757811144255E+00 -0.5277573729121161E+00 -0.5216304004513987E+00 -0.5154948702942964E+00 -0.5093507889912509E+00
 -0.5031981630811623E+00 -0.4970369990914184E+00 -0.4908673035379243E+00 -0.4846890829251397E+00 -0.4785023437461019E+00
 -0.4723070924824679E+00 -0.4661033356045377E+00 -0.4598910795712834E+00 -0.4536703308303929E+00 -0.4474410958182870E+00
 -0.4412033809601583E+00 -0.4349571926699996E+00 -0.4287025373506326E+00 -0.4224394213937429E+00 -0.4161678511799064E+00
 -0.4098878330786227E+00 -0.4035993734483417E+00 -0.3973024786364974E+00 -0.3909971549795321E+00 -0.3846834088029369E+00
 -0.3783612464212707E+00 -0.3720306741381919E+00 -0.3656916982464952E+00 -0.3593443250281303E+00 -0.3529885607542415E+00
 -0.3466244116851893E+00 -0.3402518840705799E+00 -0.3338709841493022E+00 -0.3274817181495448E+00 -0.3210840922888366E+00
 -0.3146781127740652E+00 -0.3082637858015113E+00 -0.3018411175568782E+00 -0.2954101142153124E+00 -0.2889707819414429E+00
 -0.2825231268893988E+00 -0.2760671552028477E+00 -0.2696028730150131E+00 -0.2631302864487073E+00 -0.2566494016163639E+00
 -0.2501602246200549E+00 -0.2436627615515286E+00 -0.2371570184922284E+00 -0.2306430015133245E+00 -0.2241207166757449E+00
 -0.2175901700301923E+00 -0.2110513676171829E+00 -0.2045043154670634E+00 -0.1979490196000438E+00 -0.1913854860262210E+00
 -0.1848137207456072E+00 -0.1782337297481585E+00 -0.1716455190137950E+00 -0.1650490945124342E+00 -0.1584444622040145E+00
 -0.1518316280385143E+00 -0.1452105979559958E+00 -0.1385813778866102E+00 -0.1319439737506395E+00 -0.1252983914585128E+00
 -0.1186446369108350E+00 -0.1119827159984167E+00 -0.1053126346022902E+00 -0.9863439859374906E-01 -0.9194801383435391E-01
 -0.8525348617597617E-01 -0.7855082146081266E-01 -0.7184002552141822E-01 -0.6512110418071952E-01 -0.5839406325205181E-01
 -0.5165890853917684E-01 -0.4491564583630783E-01 -0.3816428092814053E-01 -0.3140481958986770E-01 -0.2463726758720880E-01
 -0.1786163067643982E-01 -0.1107791460440553E-01 -0.4286125108554875E-02  0.2513732083041125E-02  0.9321651251665904E-02
  0.1613762668792884E-01  0.2296165269174456E-01  0.2979372357230576E-01  0.3663383364806818E-01  0.4348197724671193E-01
  0.5033814870513786E-01  0.5720234236942446E-01  0.6407455259481694E-01  0.7095477374569989E-01  0.7784300019557469E-01
  0.8473922632703360E-01  0.9164344653174414E-01  0.9855565521041573E-01  0.1054758467727858E+00  0.1124040156375900E+00
  0.1193401562325473E+00  0.1262842629943311E+00  0.1332363303685457E+00  0.1401963528097102E+00  0.1471643247812300E+00
  0.1541402407553802E+00  0.1611240952132741E+00  0.1681158826448531E+00  0.1751155975488564E+00  0.1821232344327954E+00
  0.1891387878129474E+00  0.1961622522143145E+00  0.2031936221706160E+00  0.2102328922242590E+00  0.2172800569263223E+00
  0.2243351108365259E+00  0.2313980485232221E+00  0.2384688645633647E+00  0.2455475535424863E+00  0.2526341100546859E+00
  0.2597285287026013E+00  0.2668308040973851E+00  0.2739409308586963E+00  0.2810589036146625E+00  0.2881847170018728E+00
  0.2953183656653458E+00  0.3024598442585201E+00  0.3096091474432242E+00  0.3167662698896586E+00  0.3239312062763819E+00
  0.3311039512902749E+00  0.3382844996265378E+00  0.3454728459886576E+00  0.3526689850883925E+00  0.3598729116457547E+00
  0.3670846203889765E+00  0.3743041060545129E+00  0.3815313633869958E+00  0.3887663871392379E+00  0.3960091720721980E+00
  0.4032597129549594E+00  0.4105180045647259E+00  0.4177840416867831E+00  0.4250578191144937E+00  0.4323393316492675E+00
  0.4396285741005453E+00  0.4469255412857876E+00  0.4542302280304357E+00  0.4615426291679188E+00  0.4688627395396084E+00
  0.4761905539948168E+00  0.4835260673907707E+00  0.4908692745925951E+00  0.4982201704732921E+00  0.5055787499137201E+00
  0.5129450078025833E+00  0.5203189390364005E+00  0.5277005385194963E+00  0.5350898011639820E+00  0.5424867218897252E+00
  0.5498912956243486E+00  0.5573035173031983E+00  0.5647233818693329E+00  0.5721508842734954E+00  0.5795860194741125E+00
  0.5870287824372551E+00  0.5944791681366348E+00  0.6019371715535814E+00  0.6094027876770204E+00  0.6168760115034663E+00
  0.6243568380369946E+00  0.6318452622892201E+00  0.6393412792792960E+00  0.6468448840338780E+00  0.6543560715871201E+00
  0.6618748369806448E+00  0.6694011752635366E+00  0.6769350814923184E+00  0.6844765507309322E+00  0.6920255780507306E+00
  0.6995821585304458E+00  0.7071462872561852E+00  0.7147179593214069E+00  0.7222971698269020E+00  0.7298839138807867E+00
  0.7374781865984655E+00  0.7450799831026372E+00  0.7526892985232659E+00  0.7603061279975611E+00  0.7679304666699688E+00
  0.7755623096921475E+00  0.7832016522229569E+00  0.7908484894284430E+00  0.7985028164818058E+00  0.8061646285634085E+00
  0.8138339208607340E+00  0.8215106885683928E+00  0.8291949268880822E+00  0.8368866310285943E+00  0.8445857962057759E+00
  0.8522924176425347E+00  0.8600064905688084E+00  0.8677280102215447E+00  0.8754569718447056E+00  0.8831933706892258E+00
  0.8909372020130198E+00  0.8986884610809495E+00  0.9064471431648141E+00  0.9142132435433339E+00  0.9219867575021350E+00
  0.9297676803337329E+00  0.9375560073375191E+00  0.9453517338197375E+00  0.9531548550934822E+00  0.9609653664786620E+00
  0.9687832633020099E+00  0.9766085408970454E+00  0.9844411946040679E+00  0.9922812197701479E+00  0.1000128611749098E+01
  0.1007983365901471E+01  0.1015845477594527E+01  0.1023714942202243E+01  0.1031591755105278E+01  0.1039475911690958E+01
  0.1047367407353277E+01  0.1055266237492861E+01  0.1063172397516976E+01  0.1071085882839485E+01  0.1079006688880862E+01
  0.1086934811068160E+01  0.1094870244834997E+01  0.1102812985621545E+01  0.1110763028874514E+01  0.1118720370047139E+01
  0.1126685004599169E+01  0.1134656927996835E+01  0.1142636135712859E+01  0.1150622623226424E+01  0.1158616386023161E+01
  0.1166617419595142E+01  0.1174625719440860E+01  0.1182641281065213E+01  0.1190664099979494E+01  0.1198694171701380E+01
  0.1206731491754902E+01  0.1214776055670449E+01  0.1222827858984747E+01  0.1230886897240843E+01  0.1238953165988089E+01
  0.1247026660782136E+01  0.1255107377184916E+01  0.1263195310764623E+01  0.1271290457095703E+01  0.1279392811758849E+01
  0.1287502370340971E+01  0.1295619128435192E+01  0.1303743081640835E+01  0.1311874225563408E+01  0.1320012555814580E+01
  0.1328158068012188E+01  0.1336310757780208E+01  0.1344470620748741E+01  0.1352637652554011E+01  0.1360811848838341E+01
  0.1368993205250141E+01  0.1377181717443905E+01  0.1385377381080184E+01  0.1393580191825576E+01  0.1401790145352721E+01
  0.1410007237340277E+01  0.1418231463472916E+01  0.1426462819441304E+01  0.1434701300942090E+01  0.1442946903677900E+01
  0.1451199623357309E+01  0.1459459455694838E+01  0.1467726396410947E+01  0.1476000441232010E+01  0.1484281585890303E+01
  0.1492569826124006E+01  0.1500865157677165E+01  0.1509167576299710E+01  0.1517477077747411E+01  0.1525793657781893E+01
  0.1534117312170601E+01  0.1542448036686801E+01  0.1550785827109567E+01  0.1559130679223760E+01  0.1567482588820025E+01
  0.1575841551694773E+01  0.1584207563650163E+01  0.1592580620494110E+01  0.1600960718040251E+01  0.1609347852107941E+01
  0.1617742018522237E+01  0.1626143213113900E+01  0.1634551431719368E+01  0.1642966670180741E+01  0.1651388924345787E+01
  0.1659818190067906E+01  0.1668254463206151E+01  0.1676697739625173E+01  0.1685148015195249E+01  0.1693605285792245E+01
  0.1702069547297611E+01  0.1710540795598378E+01  0.1719019026587133E+01  0.1727504236162011E+01  0.1735996420226690E+01
  0.1744495574690370E+01  0.1753001695467771E+01  0.1761514778479105E+01  0.1770034819650087E+01  0.1778561814911909E+01
  0.1787095760201226E+01  0.1795636651460153E+01  0.1804184484636248E+01  0.1812739255682505E+01  0.1821300960557345E+01
  0.1829869595224589E+01  0.1838445155653463E+01  0.1847027637818581E+01  0.1855617037699934E+01  0.1864213351282882E+01
  0.1872816574558128E+01  0.1881426703521732E+01  0.1890043734175078E+01  0.1898667662524868E+01  0.1907298484583125E+01
  0.1915936196367164E+01  0.1924580793899581E+01  0.1933232273208263E+01  0.1941890630326345E+01  0.1950555861292233E+01
  0.1959227962149574E+01  0.1967906928947235E+01  0.1976592757739319E+01  0.1985285444585134E+01  0.1993984985549188E+01
  0.2002691376701188E+01  0.2011404614116002E+01  0.2020124693873681E+01  0.2028851612059430E+01  0.2037585364763598E+01
  0.2046325948081676E+01  0.2055073358114270E+01  0.2063827590967114E+01  0.2072588642751036E+01  0.2081356509581969E+01
  0.2090131187580921E+01  0.2098912672873970E+01  0.2107700961592273E+01  0.2116496049872018E+01  0.2125297933854453E+01
  0.2134106609685852E+01  0.2142922073517504E+01  0.2151744321505718E+01  0.2160573349811802E+01  0.2169409154602051E+01
  0.2178251732047741E+01  0.2187101078325130E+01  0.2195957189615418E+01  0.2204820062104766E+01  0.2213689691984279E+01
  0.2222566075449982E+01  0.2231449208702824E+01  0.2240339087948667E+01  0.2249235709398272E+01  0.2258139069267290E+01
  0.2267049163776247E+01  0.2275965989150555E+01  0.2284889541620467E+01  0.2293819817421098E+01  0.2302756812792409E+01
  0.2311700523979177E+01  0.2320650947231015E+01  0.2329608078802338E+01  0.2338571914952373E+01  0.2347542451945133E+01
  0.2356519686049411E+01  0.2365503613538781E+01  0.2374494230691575E+01  0.2383491533790881E+01  0.2392495519124537E+01
  0.2401506182985108E+01  0.2410523521669887E+01  0.2419547531480883E+01  0.2428578208724816E+01  0.2437615549713105E+01
  0.2446659550761844E+01  0.2455710208191817E+01  0.2464767518328477E+01  0.2473831477501936E+01  0.2482902082046955E+01
  0.2491979328302937E+01  0.2501063212613915E+01  0.2510153731328555E+01  0.2519250880800127E+01  0.2528354657386506E+01
  0.2537465057450173E+01  0.2546582077358182E+01  0.2555705713482175E+01  0.2564835962198357E+01  0.2573972819887493E+01
  0.2583116282934909E+01  0.2592266347730455E+01  0.2601423010668524E+01  0.2610586268148032E+01  0.2619756116572410E+01
  0.2628932552349593E+01  0.2638115571892014E+01  0.2647305171616595E+01  0.2656501347944735E+01  0.2665704097302307E+01
  0.2674913416119645E+01  0.2684129300831534E+01  0.2693351747877208E+01  0.2702580753700329E+01  0.2711816314748994E+01
  0.2721058427475718E+01  0.2730307088337417E+01  0.2739562293795425E+01  0.2748824040315445E+01  0.2758092324367587E+01
  0.2767367142426328E+01  0.2776648490970507E+01  0.2785936366483325E+01  0.2795230765452342E+01  0.2804531684369443E+01
  0.2813839119730859E+01  0.2823153068037144E+01  0.2832473525793164E+01  0.2841800489508099E+01  0.2851133955695422E+01
  0.2860473920872905E+01  0.2869820381562600E+01  0.2879173334290828E+01  0.2888532775588192E+01  0.2897898701989538E+01
  0.2907271110033969E+01  0.2916649996264832E+01  0.2926035357229705E+01  0.2935427189480394E+01  0.2944825489572921E+01
  0.2954230254067517E+01  0.2963641479528617E+01  0.2973059162524851E+01  0.2982483299629033E+01  0.2991913887418149E+01
  0.3001350922473360E+01  0.3010794401379994E+01  0.3020244320727524E+01  0.3029700677109569E+01  0.3039163467123891E+01
  0.3048632687372379E+01  0.3058108334461045E+01  0.3067590405000018E+01  0.3077078895603525E+01  0.3086573802889905E+01
  0.3096075123481568E+01  0.3105582854005029E+01  0.3115096991090868E+01  0.3124617531373727E+01  0.3134144471492322E+01
  0.3143677808089405E+01  0.3153217537811788E+01  0.3162763657310313E+01  0.3172316163239848E+01  0.3181875052259288E+01
  0.3191440321031538E+01  0.3201011966223519E+01  0.3210589984506138E+01  0.3220174372554302E+01  0.3229765127046902E+01
  0.3239362244666799E+01  0.3248965722100828E+01  0.3258575556039788E+01  0.3268191743178431E+01  0.3277814280215452E+01
  0.3287443163853484E+01  0.3297078390799101E+01  0.3306719957762797E+01  0.3316367861458979E+01  0.3326022098605973E+01
  0.3335682665925999E+01  0.3345349560145175E+01  0.3355022777993512E+01  0.3364702316204900E+01  0.3374388171517097E+01
  0.3384080340671734E+01  0.3393778820414299E+01  0.3403483607494136E+01  0.3413194698664427E+01  0.3422912090682195E+01
  0.3432635780308294E+01  0.3442365764307408E+01  0.3452102039448024E+01  0.3461844602502453E+01  0.3471593450246798E+01
  0.3481348579460962E+01  0.3491109986928638E+01  0.3500877669437297E+01  0.3510651623778188E+01  0.3520431846746323E+01
  0.3530218335140480E+01  0.3540011085763187E+01  0.3549810095420721E+01  0.3559615360923099E+01  0.3569426879084068E+01
  0.3579244646721103E+01  0.3589068660655405E+01  0.3598898917711872E+01  0.3608735414719126E+01  0.3618578148509474E+01
  0.3628427115918922E+01  0.3638282313787163E+01  0.3648143738957561E+01  0.3658011388277163E+01  0.3667885258596671E+01
  0.3677765346770454E+01  0.3687651649656525E+01  0.3697544164116552E+01  0.3707442887015831E+01  0.3717347815223298E+01
  0.3727258945611512E+01  0.3737176275056652E+01  0.3747099800438506E+01  0.3757029518640473E+01  0.3766965426549551E+01
  0.3776907521056322E+01  0.3786855799054962E+01  0.3796810257443229E+01  0.3806770893122452E+01  0.3816737702997525E+01
  0.3826710683976895E+01  0.3836689832972585E+01  0.3846675146900142E+01  0.3856666622678668E+01  0.3866664257230797E+01
  0.3876668047482688E+01  0.3886677990364029E+01  0.3896694082808013E+01  0.3906716321751355E+01  0.3916744704134268E+01
  0.3926779226900454E+01  0.3936819886997122E+01  0.3946866681374952E+01  0.3956919606988104E+01  0.3966978660794220E+01
  0.3977043839754394E+01  0.3987115140833189E+01  0.3997192560998620E+01  0.4007276097222145E+01  0.4017365746478664E+01
  0.4027461505746521E+01  0.4037563372007473E+01  0.4047671342246716E+01  0.4057785413452851E+01  0.4067905582617894E+01
  0.4078031846737270E+01  0.4088164202809792E+01  0.4098302647837669E+01  0.4108447178826507E+01  0.4118597792785279E+01
  0.4128754486726342E+01  0.4138917257665411E+01  0.4149086102621573E+01  0.4159261018617270E+01  0.4169442002678293E+01
  0.4179629051833778E+01  0.4189822163116196E+01  0.4200021333561362E+01  0.4210226560208405E+01  0.4220437840099785E+01
  0.4230655170281269E+01  0.4240878547801945E+01  0.4251107969714191E+01  0.4261343433073701E+01  0.4271584934939440E+01
  0.4281832472373672E+01  0.4292086042441944E+01  0.4302345642213074E+01  0.4312611268759144E+01  0.4322882919155507E+01
  0.4333160590480772E+01  0.4343444279816798E+01  0.4353733984248693E+01  0.4364029700864803E+01  0.4374331426756712E+01
  0.4384639159019230E+01  0.4394952894750396E+01  0.4405272631051464E+01  0.4415598365026899E+01  0.4425930093784380E+01
  0.4436267814434776E+01  0.4446611524092160E+01  0.4456961219873801E+01  0.4467316898900136E+01  0.4477678558294798E+01
  0.4488046195184586E+01  0.4498419806699468E+01  0.4508799389972577E+01  0.4519184942140200E+01  0.4529576460341779E+01
  0.4539973941719899E+01  0.4550377383420293E+01  0.4560786782591824E+01  0.4571202136386484E+01  0.4581623441959399E+01
  0.4592050696468800E+01  0.4602483897076046E+01  0.4612923040945594E+01  0.4623368125245019E+01  0.4633819147144979E+01
  0.4644276103819231E+01  0.4654738992444618E+01  0.4665207810201067E+01  0.4675682554271588E+01  0.4686163221842251E+01
  0.4696649810102199E+01  0.4707142316243632E+01  0.4717640737461812E+01  0.4728145070955051E+01  0.4738655313924705E+01
  0.4749171463575164E+01  0.4759693517113862E+01  0.4770221471751265E+01  0.4780755324700856E+01  0.4791295073179142E+01
  0.4801840714405642E+01  0.4812392245602886E+01  0.4822949663996407E+01  0.4833512966814747E+01  0.4844082151289430E+01
  0.4854657214654971E+01  0.4865238154148872E+01  0.4875824967011616E+01  0.4886417650486659E+01  0.4897016201820420E+01
  0.4907620618262295E+01  0.4918230897064618E+01  0.4928847035482701E+01  0.4939469030774787E+01  0.4950096880202077E+01
  0.4960730581028697E+01  0.4971370130521720E+01  0.4982015525951137E+01  0.4992666764589871E+01  0.5003323843713765E+01
  0.5013986760601567E+01  0.5024655512534951E+01  0.5035330096798472E+01  0.5046010510679611E+01  0.5056696751468729E+01
  0.5067388816459075E+01  0.5078086702946798E+01  0.5088790408230905E+01  0.5099499929613303E+01  0.5110215264398756E+01
  0.5120936409894888E+01  0.5131663363412207E+01  0.5142396122264049E+01  0.5153134683766627E+01  0.5163879045238990E+01
  0.5174629204003022E+01  0.5185385157383462E+01  0.5196146902707863E+01  0.5206914437306621E+01  0.5217687758512952E+01
  0.5228466863662885E+01  0.5239251750095270E+01  0.5250042415151757E+01  0.5260838856176817E+01  0.5271641070517704E+01
  0.5282449055524477E+01  0.5293262808549986E+01  0.5304082326949863E+01  0.5314907608082529E+01  0.5325738649309174E+01
  0.5336575447993765E+01  0.5347418001503034E+01  0.5358266307206478E+01  0.5369120362476361E+01  0.5379980164687684E+01
  0.5390845711218215E+01  0.5401716999448456E+01  0.5412594026761654E+01  0.5423476790543796E+01  0.5434365288183596E+01
  0.5445259517072492E+01  0.5456159474604654E+01  0.5467065158176962E+01  0.5477976565189022E+01  0.5488893693043135E+01
  0.5499816539144317E+01  0.5510745100900274E+01  0.5521679375721425E+01  0.5532619361020870E+01  0.5543565054214392E+01
  0.5554516452720476E+01  0.5565473553960257E+01  0.5576436355357574E+01  0.5587404854338919E+01  0.5598379048333452E+01
  0.5609358934772998E+01  0.5620344511092035E+01  0.5631335774727697E+01  0.5642332723119768E+01  0.5653335353710675E+01
  0.5664343663945476E+01  0.5675357651271882E+01  0.5686377313140219E+01  0.5697402647003448E+01  0.5708433650317159E+01
  0.5719470320539545E+01  0.5730512655131429E+01  0.5741560651556230E+01  0.5752614307279985E+01  0.5763673619771327E+01
  0.5774738586501488E+01  0.5785809204944298E+01  0.5796885472576164E+01  0.5807967386876092E+01  0.5819054945325662E+01
  0.5830148145409026E+01  0.5841246984612923E+01  0.5852351460426641E+01  0.5863461570342055E+01  0.5874577311853588E+01
  0.5885698682458214E+01  0.5896825679655465E+01  0.5907958300947428E+01  0.5919096543838720E+01  0.5930240405836517E+01
  0.5941389884450506E+01  0.5952544977192928E+01  0.5963705681578540E+01  0.5974871995124628E+01  0.5986043915350992E+01
  0.5997221439779961E+01  0.6008404565936353E+01  0.6019593291347520E+01  0.6030787613543297E+01  0.6041987530056032E+01
  0.6053193038420562E+01  0.6064404136174217E+01  0.6075620820856817E+01  0.6086843090010662E+01  0.6098070941180535E+01
  0.6109304371913704E+01  0.6120543379759890E+01  0.6131787962271298E+01  0.6143038117002589E+01  0.6154293841510895E+01
  0.6165555133355789E+01  0.6176821990099305E+01  0.6188094409305939E+01  0.6199372388542609E+01  0.6210655925378680E+01
  0.6221945017385976E+01  0.6233239662138724E+01  0.6244539857213599E+01  0.6255845600189696E+01  0.6267156888648534E+01
  0.6278473720174053E+01  0.6289796092352599E+01  0.6301124002772945E+01  0.6312457449026248E+01  0.6323796428706086E+01
  0.6335140939408430E+01  0.6346490978731652E+01  0.6357846544276510E+01  0.6369207633646154E+01  0.6380574244446109E+01
  0.6391946374284296E+01  0.6403324020770995E+01  0.6414707181518887E+01  0.6426095854142997E+01  0.6437490036260719E+01
  0.6448889725491823E+01  0.6460294919458432E+01  0.6471705615785013E+01  0.6483121812098394E+01  0.6494543506027754E+01
  0.6505970695204612E+01  0.6517403377262825E+01  0.6528841549838592E+01  0.6540285210570441E+01  0.6551734357099226E+01
  0.6563188987068144E+01  0.6574649098122691E+01  0.6586114687910692E+01  0.6597585754082295E+01  0.6609062294289950E+01
  0.6620544306188424E+01  0.6632031787434770E+01  0.6643524735688363E+01  0.6655023148610871E+01  0.6666527023866238E+01
  0.6678036359120727E+01  0.6689551152042862E+01  0.6701071400303472E+01  0.6712597101575647E+01  0.6724128253534757E+01
  0.6735664853858465E+01  0.6747206900226679E+01  0.6758754390321576E+01  0.6770307321827611E+01  0.6781865692431485E+01
  0.6793429499822150E+01  0.6804998741690832E+01  0.6816573415730981E+01  0.6828153519638302E+01  0.6839739051110745E+01
  0.6851330007848501E+01  0.6862926387553984E+01  0.6874528187931842E+01  0.6886135406688964E+01  0.6897748041534456E+01
  0.6909366090179631E+01  0.6920989550338045E+01  0.6932618419725457E+01  0.6944252696059835E+01  0.6955892377061348E+01
  0.6967537460452395E+01  0.6979187943957551E+01  0.6990843825303588E+01  0.7002505102219503E+01  0.7014171772436451E+01
  0.7025843833687786E+01  0.7037521283709055E+01  0.7049204120237968E+01  0.7060892341014442E+01  0.7072585943780538E+01
  0.7084284926280502E+01  0.7095989286260753E+01  0.7107699021469869E+01  0.7119414129658581E+01  0.7131134608579800E+01
  0.7142860455988573E+01  0.7154591669642105E+01  0.7166328247299758E+01  0.7178070186723026E+01  0.7189817485675550E+01
  0.7201570141923111E+01  0.7213328153233632E+01  0.7225091517377158E+01  0.7236860232125863E+01  0.7248634295254063E+01
  0.7260413704538186E+01  0.7272198457756763E+01  0.7283988552690479E+01  0.7295783987122104E+01  0.7307584758836529E+01
  0.7319390865620742E+01  0.7331202305263856E+01  0.7343019075557067E+01  0.7354841174293666E+01  0.7366668599269060E+01
  0.7378501348280727E+01  0.7390339419128237E+01  0.7402182809613261E+01  0.7414031517539535E+01  0.7425885540712872E+01
  0.7437744876941175E+01  0.7449609524034418E+01  0.7461479479804639E+01  0.7473354742065945E+01  0.7485235308634500E+01
  0.7497121177328543E+01  0.7509012345968363E+01  0.7520908812376296E+01  0.7532810574376748E+01  0.7544717629796158E+01
  0.7556629976463011E+01  0.7568547612207849E+01  0.7580470534863242E+01  0.7592398742263794E+01  0.7604332232246144E+01
  0.7616271002648977E+01  0.7628215051312981E+01  0.7640164376080888E+01  0.7652118974797447E+01  0.7664078845309416E+01
  0.7676043985465578E+01  0.7688014393116729E+01  0.7699990066115679E+01  0.7711971002317223E+01  0.7723957199578183E+01
  0.7735948655757379E+01  0.7747945368715620E+01  0.7759947336315709E+01  0.7771954556422457E+01  0.7783967026902651E+01
  0.7795984745625062E+01  0.7808007710460456E+01  0.7820035919281570E+01  0.7832069369963129E+01  0.7844108060381817E+01
  0.7856151988416304E+01  0.7868201151947226E+01  0.7880255548857181E+01  0.7892315177030728E+01  0.7904380034354406E+01
  0.7916450118716679E+01  0.7928525428007992E+01  0.7940605960120738E+01  0.7952691712949254E+01  0.7964782684389816E+01
  0.7976878872340659E+01  0.7988980274701952E+01  0.8001086889375802E+01  0.8013198714266244E+01  0.8025315747279258E+01
  0.8037437986322747E+01  0.8049565429306535E+01  0.8061698074142386E+01  0.8073835918743972E+01  0.8085978961026886E+01
  0.8098127198908630E+01  0.8110280630308637E+01  0.8122439253148240E+01  0.8134603065350664E+01  0.8146772064841070E+01
  0.8158946249546496E+01  0.8171125617395885E+01  0.8183310166320085E+01  0.8195499894251832E+01  0.8207694799125749E+01
  0.8219894878878353E+01  0.8232100131448036E+01  0.8244310554775090E+01  0.8256526146801683E+01  0.8268746905471847E+01
  0.8280972828731500E+01  0.8293203914528430E+01  0.8305440160812298E+01  0.8317681565534619E+01  0.8329928126648793E+01
  0.8342179842110065E+01  0.8354436709875539E+01  0.8366698727904184E+01  0.8378965894156819E+01  0.8391238206596109E+01
  0.8403515663186580E+01  0.8415798261894585E+01  0.8428086000688333E+01  0.8440378877537878E+01  0.8452676890415100E+01
  0.8464980037293712E+01  0.8477288316149266E+01  0.8489601724959156E+01  0.8501920261702583E+01  0.8514243924360578E+01
  0.8526572710916003E+01  0.8538906619353536E+01  0.8551245647659659E+01  0.8563589793822688E+01  0.8575939055832748E+01
  0.8588293431681761E+01  0.8600652919363457E+01  0.8613017516873382E+01  0.8625387222208881E+01  0.8637762033369091E+01
  0.8650141948354944E+01  0.8662526965169183E+01  0.8674917081816323E+01  0.8687312296302679E+01  0.8699712606636350E+01
  0.8712118010827220E+01  0.8724528506886946E+01  0.8736944092828985E+01  0.8749364766668544E+01  0.8761790526422624E+01
  0.8774221370109990E+01  0.8786657295751176E+01  0.8799098301368486E+01  0.8811544384985980E+01  0.8823995544629495E+01
  0.8836451778326611E+01  0.8848913084106666E+01  0.8861379460000768E+01  0.8873850904041769E+01  0.8886327414264255E+01
  0.8898808988704577E+01  0.8911295625400832E+01  0.8923787322392851E+01  0.8936284077722199E+01  0.8948785889432191E+01
  0.8961292755567872E+01  0.8973804674176023E+01  0.8986321643305143E+01  0.8998843661005473E+01  0.9011370725328975E+01
  0.9023902834329327E+01  0.9036439986061927E+01  0.9048982178583909E+01  0.9061529409954108E+01  0.9074081678233066E+01
  0.9086638981483054E+01  0.9099201317768042E+01  0.9111768685153697E+01  0.9124341081707414E+01  0.9136918505498265E+01
  0.9149500954597032E+01  0.9162088427076190E+01  0.9174680921009921E+01  0.9187278434474088E+01  0.9199880965546237E+01
  0.9212488512305621E+01  0.9225101072833166E+01  0.9237718645211469E+01  0.9250341227524837E+01  0.9262968817859234E+01
  0.9275601414302303E+01  0.9288239014943359E+01  0.9300881617873406E+01  0.9313529221185094E+01  0.9326181822972744E+01
  0.7099600252013704E+02  0.7099600252013704E+02  0.7099600252013704E+02  0.7099600252013704E+02  0.7099600252013704E+02
  0.7099600252013704E+02  0.7099600252013704E+02  0.7099600252013704E+02  0.7099600252013704E+02  0.7099600252013704E+02
  0.7099600252013704E+02  0.7099600252013704E+02  0.7099600252013704E+02  0.7099600252013704E+02  0.7099600252013704E+02
  0.7099600252013704E+02  0.7099600252013704E+02  0.7099600252013704E+02  0.7099600252013704E+02  0.7099600252013704E+02
  0.7099600252013704E+02  0.7099600252013704E+02  0.7099600252013704E+02  0.7099600252013704E+02  0.7099600252013704E+02
  0.7099600252013704E+02  0.7099600252013704E+02  0.7099600252013704E+02  0.7099600252013704E+02  0.7099600252013704E+02
  0.7099600252013704E+02  0.7099600252013704E+02  0.7099600252013704E+02  0.7099600252013704E+02  0.7099600252013704E+02
  0.7099600252013704E+02  0.7099600252013704E+02  0.7099600252013704E+02  0.7099600252013704E+02  0.7099600252013704E+02
  0.7099600252013704E+02  0.7099600252013704E+02  0.7099600252013704E+02  0.7099600252013704E+02  0.7099600252013704E+02
  0.7099600252013704E+02  0.7099600252013704E+02  0.7099600252013704E+02  0.7099600252013704E+02  0.7099600252013704E+02
  0.7099600252013704E+02  0.7099600252013704E+02  0.7099600252013704E+02  0.7099600252013704E+02  0.7099600252013704E+02
  0.7099600252013704E+02  0.7099600252013704E+02  0.7099600252013704E+02  0.7099600252013704E+02  0.7099600252013704E+02
  0.7099600252013704E+02  0.7099600252013704E+02  0.7099600252013704E+02  0.7099600252013704E+02  0.7099600252013704E+02
  0.7099600252013704E+02  0.7099600252013704E+02  0.7099600252013704E+02  0.7099600252013704E+02  0.7099600252013704E+02
  0.7099600252013704E+02  0.7099600252013704E+02  0.7099600252013704E+02  0.7099600252013704E+02  0.7099600252013704E+02
  0.7099600252013704E+02  0.7099600252013704E+02  0.7099600252013704E+02  0.7099600252013704E+02  0.7099600252013704E+02
  0.7099600252013704E+02  0.7099600252013704E+02  0.7099600252013704E+02  0.7099600252013704E+02  0.7099600252013704E+02
  0.7099600252013704E+02  0.7099600252013704E+02  0.7099600252013704E+02  0.7099600252013704E+02  0.7099600252013704E+02
  0.7099600252013704E+02  0.7099600252013704E+02  0.7099600252013704E+02  0.7099600252013704E+02  0.7099600252013704E+02
  0.7099600252013704E+02  0.7099600252013704E+02  0.7099600252013704E+02  0.7099600252013704E+02  0.7099600252013704E+02
  0.7099600252013704E+02  0.7099600252013704E+02  0.7099600252013704E+02  0.7099600252013704E+02  0.7099600252013704E+02
  0.7099600252013704E+02  0.7099600252013704E+02  0.7099600252013704E+02  0.7099600252013704E+02  0.7099600252013704E+02
  0.7099600252013704E+02  0.7099600252013704E+02  0.7099600252013704E+02  0.7099600252013704E+02  0.7099600252013704E+02
  0.7099600252013704E+02  0.7099600252013704E+02  0.7099600252013704E+02  0.7099600252013704E+02  0.7099600252013704E+02
  0.7099600252013704E+02  0.7099600252013704E+02  0.7099600252013704E+02  0.7099600252013704E+02  0.7099600252013704E+02
  0.7099600252013704E+02  0.7099600252013704E+02  0.7099600252013704E+02  0.7099600252013704E+02  0.7099600252013704E+02
  0.7099600252013704E+02  0.7099600252013704E+02  0.7099600252013704E+02  0.7099600252013704E+02  0.7099600252013704E+02
  0.7099600252013704E+02  0.7099600252013704E+02  0.7099600252013704E+02  0.7099600252013704E+02  0.7099600252013704E+02
  0.7099600252013704E+02  0.7099600252013704E+02  0.7099600252013704E+02  0.7099600252013704E+02  0.7099600252013704E+02
  0.7099600252013704E+02  0.7099600252013704E+02  0.7099600252013704E+02  0.7099600252013704E+02  0.7099600252013704E+02
  0.7099600252013704E+02  0.7099600252013704E+02  0.7099600252013704E+02  0.7099600252013704E+02  0.7099600252013704E+02
  0.7099600252013704E+02  0.7070687039919072E+02  0.7032396279910184E+02  0.6994312728919925E+02  0.6956435271936252E+02
  0.6918762799696448E+02  0.6881294208667107E+02  0.6844028401023816E+02  0.6806964284630529E+02  0.6770100773018724E+02
  0.6733436785366261E+02  0.6696971246476001E+02  0.6660703086754225E+02  0.6624631242188840E+02  0.6588754654327342E+02
  0.6553072270254660E+02  0.6517583042570767E+02  0.6482285929368142E+02  0.6447179894209107E+02  0.6412263906102982E+02
  0.6377536939483142E+02  0.6342997974183928E+02  0.6308645995417442E+02  0.6274479993750290E+02  0.6240498965080148E+02
  0.6206701910612309E+02  0.6173087836836125E+02  0.6139655755501384E+02  0.6106404683594623E+02  0.6073333643315384E+02
  0.6040441662052434E+02  0.6007727772359917E+02  0.5975191011933500E+02  0.5942830423586489E+02  0.5910645055225881E+02
  0.5878633959828464E+02  0.5846796195416846E+02  0.5815130825035510E+02  0.5783636916726870E+02  0.5752313543507312E+02
  0.5721159783343245E+02  0.5690174719127192E+02  0.5659357438653855E+02  0.5628707034596250E+02  0.5598222604481821E+02
  0.5567903250668602E+02  0.5537748080321440E+02  0.5507756205388185E+02  0.5477926742575999E+02  0.5448258813327649E+02
  0.5418751543797867E+02  0.5389404064829768E+02  0.5360215511931287E+02  0.5331185025251723E+02  0.5302311749558266E+02
  0.5273594834212661E+02  0.5245033433147884E+02  0.5216626704844870E+02  0.5188373812309359E+02  0.5160273923048780E+02
  0.5132326209049165E+02  0.5104529846752218E+02  0.5076884017032383E+02  0.5049387905174018E+02  0.5022040700848657E+02
  0.4994841598092297E+02  0.4967789795282838E+02  0.4940884495117546E+02  0.4914124904590603E+02  0.4887510234970781E+02
  0.4861039701779136E+02  0.4834712524766847E+02  0.4808527927893099E+02  0.4782485139303069E+02  0.4756583391306001E+02
  0.4730821920353348E+02  0.4705199967017055E+02  0.4679716775967848E+02  0.4654371595953697E+02  0.4629163679778325E+02
  0.4604092284279795E+02  0.4579156670309245E+02  0.4554356102709649E+02  0.4529689850294716E+02  0.4505157185827876E+02
  0.4480757386001325E+02  0.4456489731415216E+02  0.4432353506556907E+02  0.4408347999780305E+02  0.4384472503285331E+02
  0.4360726313097449E+02  0.4337108729047304E+02  0.4313619054750460E+02  0.4290256597587226E+02  0.4267020668682564E+02
  0.4243910582886124E+02  0.4220925658752351E+02  0.4198065218520686E+02  0.4175328588095879E+02  0.4152715097028378E+02
  0.4130224078494827E+02  0.4107854869278656E+02  0.4085606809750766E+02  0.4063479243850298E+02  0.4041471519065518E+02
  0.4019582986414785E+02  0.3997813000427596E+02  0.3976160919125775E+02  0.3954626104004695E+02  0.3933207920014640E+02
  0.3911905735542246E+02  0.3890718922392017E+02  0.3869646855767981E+02  0.3848688914255382E+02  0.3827844479802509E+02
  0.3807112937702605E+02  0.3786493676575844E+02  0.3765986088351455E+02  0.3745589568249876E+02  0.3725303514765044E+02
  0.3705127329646757E+02  0.3685060417883134E+02  0.3665102187683153E+02  0.3645252050459307E+02  0.3625509420810315E+02
  0.3605873716503950E+02  0.3586344358459951E+02  0.3566920770733009E+02  0.3547602380495869E+02  0.3528388618022480E+02
  0.3509278916671292E+02  0.3490272712868576E+02  0.3471369446091877E+02  0.3452568558853550E+02  0.3433869496684339E+02
  0.3415271708117119E+02  0.3396774644670647E+02  0.3378377760833444E+02  0.3360080514047764E+02  0.3341882364693607E+02
  0.3323782776072874E+02  0.3305781214393559E+02  0.3287877148754041E+02  0.3270070051127480E+02  0.3252359396346253E+02
  0.3234744662086514E+02  0.3217225328852810E+02  0.3199800879962799E+02  0.3182470801532025E+02  0.3165234582458794E+02
  0.3148091714409132E+02  0.3131041691801805E+02  0.3114084011793433E+02  0.3097218174263688E+02  0.3080443681800553E+02
  0.3063760039685680E+02  0.3047166755879818E+02  0.3030663341008303E+02  0.3014249308346664E+02  0.2997924173806271E+02
  0.2981687455920067E+02  0.2965538675828401E+02  0.2949477357264894E+02  0.2933503026542429E+02  0.2917615212539178E+02
  0.2901813446684718E+02  0.2886097262946231E+02  0.2870466197814768E+02  0.2854919790291575E+02  0.2839457581874531E+02
  0.2824079116544608E+02  0.2808783940752448E+02  0.2793571603404986E+02  0.2778441655852161E+02  0.2763393651873674E+02
  0.2748427147665861E+02  0.2733541701828586E+02  0.2718736875352240E+02  0.2704012231604799E+02  0.2689367336318954E+02
  0.2674801757579294E+02  0.2660315065809595E+02  0.2645906833760137E+02  0.2631576636495114E+02  0.2617324051380107E+02
  0.2603148658069625E+02  0.2589050038494698E+02  0.2575027776850574E+02  0.2561081459584432E+02  0.2547210675383214E+02
  0.2533415015161478E+02  0.2519694072049344E+02  0.2506047441380498E+02  0.2492474720680255E+02  0.2478975509653695E+02
  0.2465549410173857E+02  0.2452196026270001E+02  0.2438914964115932E+02  0.2425705832018387E+02  0.2412568240405478E+02
  0.2399501801815217E+02  0.2386506130884076E+02  0.2373580844335639E+02  0.2360725560969277E+02  0.2347939901648935E+02
  0.2335223489291926E+02  0.2322575948857826E+02  0.2309996907337412E+02  0.2297485993741653E+02  0.2285042839090782E+02
  0.2272667076403411E+02  0.2260358340685697E+02  0.2248116268920598E+02  0.2235940500057151E+02  0.2223830674999832E+02
  0.2211786436597966E+02  0.2199807429635192E+02  0.2187893300818986E+02  0.2176043698770248E+02  0.2164258274012933E+02
  0.2152536678963749E+02  0.2140878567921899E+02  0.2129283597058901E+02  0.2117751424408426E+02  0.2106281709856238E+02
  0.2094874115130139E+02  0.2083528303790011E+02  0.2072243941217888E+02  0.2061020694608082E+02  0.2049858232957374E+02
  0.2038756227055255E+02  0.2027714349474207E+02  0.2016732274560054E+02  0.2005809678422360E+02  0.1994946238924864E+02
  0.1984141635675999E+02  0.1973395550019425E+02  0.1962707665024640E+02  0.1952077665477633E+02  0.1941505237871586E+02
  0.1930990070397627E+02  0.1920531852935635E+02  0.1910130277045097E+02  0.1899785035956006E+02  0.1889495824559814E+02
  0.1879262339400442E+02  0.1869084278665317E+02  0.1858961342176484E+02  0.1848893231381741E+02  0.1838879649345846E+02
  0.1828920300741752E+02  0.1819014891841894E+02  0.1809163130509535E+02  0.1799364726190151E+02  0.1789619389902845E+02
  0.1779926834231846E+02  0.1770286773318021E+02  0.1760698922850441E+02  0.1751163000058005E+02  0.1741678723701098E+02
  0.1732245814063290E+02  0.1722863992943095E+02  0.1713532983645758E+02  0.1704252510975105E+02  0.1695022301225417E+02
  0.1685842082173358E+02  0.1676711583069958E+02  0.1667630534632614E+02  0.1658598669037153E+02  0.1649615719909939E+02
  0.1640681422320008E+02  0.1631795512771260E+02  0.1622957729194686E+02  0.1614167810940641E+02  0.1605425498771152E+02
  0.1596730534852276E+02  0.1588082662746497E+02  0.1579481627405161E+02  0.1570927175160952E+02  0.1562419053720414E+02
  0.1553957012156512E+02  0.1545540800901221E+02  0.1537170171738183E+02  0.1528844877795368E+02  0.1520564673537807E+02
  0.1512329314760342E+02  0.1504138558580428E+02  0.1495992163430972E+02  0.1487889889053199E+02  0.1479831496489576E+02
  0.1471816748076763E+02  0.1463845407438596E+02  0.1455917239479126E+02  0.1448032010375680E+02  0.1440189487571962E+02
  0.1432389439771202E+02  0.1424631636929329E+02  0.1416915850248186E+02  0.1409241852168786E+02  0.1401609416364600E+02
  0.1394018317734875E+02  0.1386468332398006E+02  0.1378959237684926E+02  0.1371490812132542E+02  0.1364062835477198E+02
  0.1356675088648190E+02  0.1349327353761292E+02  0.1342019414112340E+02  0.1334751054170833E+02  0.1327522059573586E+02
  0.1320332217118399E+02  0.1313181314757771E+02  0.1306069141592648E+02  0.1298995487866208E+02  0.1291960144957661E+02
  0.1284962905376111E+02  0.1278003562754426E+02  0.1271081911843158E+02  0.1264197748504485E+02  0.1257350869706197E+02
  0.1250541073515701E+02  0.1243768159094067E+02  0.1237031926690108E+02  0.1230332177634487E+02  0.1223668714333858E+02
  0.1217041340265035E+02  0.1210449859969204E+02  0.1203894079046149E+02  0.1197373804148525E+02  0.1190888842976153E+02
  0.1184439004270351E+02  0.1178024097808288E+02  0.1171643934397383E+02  0.1165298325869714E+02  0.1158987085076478E+02
  0.1152710025882464E+02  0.1146466963160570E+02  0.1140257712786339E+02  0.1134082091632530E+02  0.1127939917563714E+02
  0.1121831009430911E+02  0.1115755187066235E+02  0.1109712271277592E+02  0.1103702083843386E+02  0.1097724447507271E+02
  0.1091779185972916E+02  0.1085866123898811E+02  0.1079985086893090E+02  0.1074135901508395E+02  0.1068318395236753E+02
  0.1062532396504496E+02  0.1056777734667194E+02  0.1051054240004624E+02  0.1045361743715770E+02  0.1039700077913835E+02
  0.1034069075621299E+02  0.1028468570764986E+02  0.1022898398171175E+02  0.1017358393560719E+02  0.1011848393544208E+02
  0.1006368235617145E+02  0.1000917758155158E+02  0.9954968004092262E+01  0.9901052025009479E+01  0.9847428054178179E+01
  0.9794094510085419E+01  0.9741049819783695E+01  0.9688292418844600E+01  0.9635820751312608E+01  0.9583633269659259E+01
  0.9531728434737479E+01  0.9480104715736191E+01  0.9428760590135166E+01  0.9377694543660148E+01  0.9326905070238148E+01
  0.9276390671953056E+01  0.9226149859001451E+01  0.9176181149648691E+01  0.9126483070185158E+01  0.9077054154882845E+01
  0.9027892945952113E+01  0.8978997993498677E+01  0.8930367855480867E+01  0.8882001097667107E+01  0.8833896293593581E+01
  0.8786052024522190E+01  0.8738466879398700E+01  0.8691139454811143E+01  0.8644068354948384E+01  0.8597252191559015E+01
  0.8550689583910353E+01  0.8504379158747760E+01  0.8458319550254132E+01  0.8412509400009595E+01  0.8366947356951478E+01
  0.8321632077334430E+01  0.8276562224690831E+01  0.8231736469791333E+01  0.8187153490605683E+01  0.8142811972263724E+01
  0.8098710607016629E+01  0.8054848094198315E+01  0.8011223140187084E+01  0.7967834458367481E+01  0.7924680769092358E+01
  0.7881760799645092E+01  0.7839073284202100E+01  0.7796616963795474E+01  0.7754390586275862E+01  0.7712392906275528E+01
  0.7670622685171650E+01  0.7629078691049759E+01  0.7587759698667416E+01  0.7546664489418083E+01  0.7505791851295193E+01
  0.7465140578856363E+01  0.7424709473187895E+01  0.7384497341869383E+01  0.7344502998938554E+01  0.7304725264856287E+01
  0.7265162966471847E+01  0.7225814936988247E+01  0.7186680015927866E+01  0.7147757049098225E+01  0.7109044888557923E+01
  0.7070542392582798E+01  0.7032248425632251E+01  0.6994161858315768E+01  0.6956281567359577E+01  0.6918606435573564E+01
  0.6881135351818292E+01  0.6843867210972242E+01  0.6806800913899213E+01  0.6769935367415931E+01  0.6733269484259766E+01
  0.6696802183056704E+01  0.6660532388289424E+01  0.6624459030265612E+01  0.6588581045086380E+01  0.6552897374614904E+01
  0.6517406966445222E+01  0.6482108773871182E+01  0.6447001755855581E+01  0.6412084876999468E+01  0.6377357107511588E+01
  0.6342817423178029E+01  0.6308464805332001E+01  0.6274298240823814E+01  0.6240316721990972E+01  0.6206519246628468E+01
  0.6172904817959227E+01  0.6139472444604711E+01  0.6106221140555657E+01  0.6073149925143038E+01  0.6040257823009109E+01
  0.6007543864078640E+01  0.5975007083530333E+01  0.5942646521768339E+01  0.5910461224393970E+01  0.5878450242177546E+01
  0.5846612631030415E+01  0.5814947451977083E+01  0.5783453771127541E+01  0.5752130659649714E+01  0.5720977193742079E+01
  0.5689992454606392E+01  0.5659175528420624E+01  0.5628525506311998E+01  0.5598041484330161E+01  0.5567722563420554E+01
  0.5537567849397896E+01  0.5507576452919786E+01  0.5477747489460498E+01  0.5448080079284880E+01  0.5418573347422427E+01
  0.5389226423641453E+01  0.5360038442423430E+01  0.5331008542937482E+01  0.5302135869014973E+01  0.5273419569124270E+01
  0.5244858796345613E+01  0.5216452708346167E+01  0.5188200467355142E+01  0.5160101240139124E+01  0.5132154197977457E+01
  0.5104358516637847E+01  0.5076713376352014E+01  0.5049217961791549E+01  0.5021871462043841E+01  0.4994673070588167E+01
  0.4967621985271922E+01  0.4940717408286944E+01  0.4913958546145989E+01  0.4887344609659324E+01  0.4860874813911469E+01
  0.4834548378238027E+01  0.4808364526202681E+01  0.4782322485574263E+01  0.4756421488304022E+01  0.4730660770502928E+01
  0.4705039572419186E+01  0.4679557138415788E+01  0.4654212716948253E+01  0.4629005560542460E+01  0.4603934925772595E+01
  0.4579000073239227E+01  0.4554200267547499E+01  0.4529534777285455E+01  0.4505002875002449E+01  0.4480603837187692E+01
  0.4456336944248934E+01  0.4432201480491222E+01  0.4408196734095794E+01  0.4384321997099089E+01  0.4360576565371873E+01
  0.4336959738598463E+01  0.4313470820256083E+01  0.4290109117594302E+01  0.4266873941614632E+01  0.4243764607050179E+01
  0.4220780432345457E+01  0.4197920739636268E+01  0.4175184854729720E+01  0.4152572107084338E+01  0.4130081829790300E+01
  0.4107713359549753E+01  0.4085466036657250E+01  0.4063339204980311E+01  0.4041332211940062E+01  0.4019444408491979E+01
  0.3997675149106755E+01  0.3976023791751273E+01  0.3954489697869644E+01  0.3933072232364405E+01  0.3911770763577757E+01
  0.3890584663272963E+01  0.3869513306615804E+01  0.3848556072156158E+01  0.3827712341809663E+01  0.3806981500839495E+01
  0.3786362937838243E+01  0.3765856044709870E+01  0.3745460216651770E+01  0.3725174852136946E+01  0.3704999352896269E+01
  0.3684933123900823E+01  0.3664975573344353E+01  0.3645126112625832E+01  0.3625384156332084E+01  0.3605749122220521E+01
  0.3586220431201979E+01  0.3566797507323625E+01  0.3547479777751983E+01  0.3528266672756039E+01  0.3509157625690434E+01
  0.3490152072978749E+01  0.3471249454096888E+01  0.3452449211556553E+01  0.3433750790888789E+01  0.3415153640627638E+01
  0.3396657212293876E+01  0.3378260960378837E+01  0.3359964342328324E+01  0.3341766818526598E+01  0.3323667852280483E+01
  0.3305666909803519E+01  0.3287763460200232E+01  0.3269956975450463E+01  0.3252246930393812E+01  0.3234632802714135E+01
  0.3217114072924153E+01  0.3199690224350113E+01  0.3182360743116569E+01  0.3165125118131212E+01  0.3147982841069810E+01
  0.3130933406361199E+01  0.3113976311172387E+01  0.3097111055393719E+01  0.3080337141624131E+01  0.3063654075156469E+01
  0.3047061363962908E+01  0.3030558518680447E+01  0.3014145052596460E+01  0.2997820481634359E+01  0.2981584324339297E+01
  0.2965436101863991E+01  0.2949375337954582E+01  0.2933401558936603E+01  0.2917514293700993E+01  0.2901713073690214E+01
  0.2885997432884436E+01  0.2870366907787782E+01  0.2854821037414659E+01  0.2839359363276171E+01  0.2823981429366592E+01
  0.2808686782149915E+01  0.2793474970546479E+01  0.2778345545919663E+01  0.2763298062062661E+01  0.2748332075185314E+01
  0.2733447143901021E+01  0.2718642829213734E+01  0.2703918694504992E+01  0.2689274305521066E+01  0.2674709230360127E+01
  0.2660223039459529E+01  0.2645815305583127E+01  0.2631485603808689E+01  0.2617233511515345E+01  0.2603058608371145E+01
  0.2588960476320644E+01  0.2574938699572585E+01  0.2560992864587627E+01  0.2547122560066154E+01  0.2533327376936146E+01
  0.2519606908341110E+01  0.2505960749628084E+01  0.2492388498335695E+01  0.2478889754182303E+01  0.2465464119054185E+01
  0.2452111196993801E+01  0.2438830594188102E+01  0.2425621918956936E+01  0.2412484781741480E+01  0.2399418795092761E+01
  0.2386423573660218E+01  0.2373498734180347E+01  0.2360643895465397E+01  0.2347858678392125E+01  0.2335142705890608E+01
  0.2322495602933133E+01  0.2309916996523135E+01  0.2297406515684191E+01  0.2284963791449078E+01  0.2272588456848900E+01
  0.2260280146902262E+01  0.2248038498604497E+01  0.2235863150916966E+01  0.2223753744756419E+01  0.2211709922984388E+01
  0.2199731330396668E+01  0.2187817613712831E+01  0.2175968421565814E+01  0.2164183404491553E+01  0.2152462214918678E+01
  0.2140804507158257E+01  0.2129209937393609E+01  0.2117678163670158E+01  0.2106208845885352E+01  0.2094801645778627E+01
  0.2083456226921432E+01  0.2072172254707314E+01  0.2060949396342043E+01  0.2049787320833798E+01  0.2038685698983398E+01
  0.2027644203374614E+01  0.2016662508364489E+01  0.2005740290073750E+01  0.1994877226377243E+01  0.1984072996894448E+01
  0.1973327282980015E+01  0.1962639767714380E+01  0.1952010135894402E+01  0.1941438074024084E+01  0.1930923270305316E+01
  0.1920465414628686E+01  0.1910064198564324E+01  0.1899719315352818E+01  0.1889430459896158E+01  0.1879197328748745E+01
  0.1869019620108430E+01  0.1858897033807627E+01  0.1848829271304453E+01  0.1838816035673924E+01  0.1828857031599192E+01
  0.1818951965362849E+01  0.1809100544838253E+01  0.1799302479480920E+01  0.1789557480319942E+01  0.1779865259949485E+01
  0.1770225532520292E+01  0.1760638013731270E+01  0.1751102420821091E+01  0.1741618472559861E+01  0.1732185889240822E+01
  0.1722804392672108E+01  0.1713473706168532E+01  0.1704193554543432E+01  0.1694963664100555E+01  0.1685783762625982E+01
  0.1676653579380102E+01  0.1667572845089623E+01  0.1658541291939639E+01  0.1649558653565721E+01  0.1640624665046072E+01
  0.1631739062893700E+01  0.1622901585048663E+01  0.1614111970870326E+01  0.1605369961129688E+01  0.1596675298001720E+01
  0.1588027725057776E+01  0.1579426987258020E+01  0.1570872830943915E+01  0.1562365003830728E+01  0.1553903255000099E+01
  0.1545487334892643E+01  0.1537116995300581E+01  0.1528791989360422E+01  0.1520512071545693E+01  0.1512276997659677E+01
  0.1504086524828233E+01  0.1495940411492621E+01  0.1487838417402377E+01  0.1479780303608232E+01  0.1471765832455065E+01
  0.1463794767574890E+01  0.1455866873879884E+01  0.1447981917555462E+01  0.1440139666053372E+01  0.1432339888084844E+01
  0.1424582353613759E+01  0.1416866833849876E+01  0.1409193101242074E+01  0.1401560929471651E+01  0.1393970093445638E+01
  0.1386420369290173E+01  0.1378911534343886E+01  0.1371443367151343E+01  0.1364015647456505E+01  0.1356628156196236E+01
  0.1349280675493847E+01  0.1341972988652667E+01  0.1334704880149644E+01  0.1327476135629000E+01  0.1320286541895909E+01
  0.1313135886910197E+01  0.1306023959780100E+01  0.1298950550756042E+01  0.1291915451224445E+01  0.1284918453701583E+01
  0.1277959351827451E+01  0.1271037940359696E+01  0.1264154015167546E+01  0.1257307373225803E+01  0.1250497812608850E+01
  0.1243725132484691E+01  0.1236989133109039E+01  0.1230289615819417E+01  0.1223626383029298E+01  0.1216999238222279E+01
  0.1210407985946292E+01  0.1203852431807829E+01  0.1197332382466218E+01  0.1190847645627909E+01  0.1184398030040820E+01
  0.1177983345488677E+01  0.1171603402785422E+01  0.1165258013769617E+01  0.1158946991298907E+01  0.1152670149244496E+01
  0.1146427302485657E+01  0.1140218266904271E+01  0.1134042859379398E+01  0.1127900897781881E+01  0.1121792200968966E+01
  0.1115716588778964E+01  0.1109673882025939E+01  0.1103663902494420E+01  0.1097686472934146E+01  0.1091741417054837E+01
  0.1085828559521000E+01  0.1079947725946749E+01  0.1074098742890671E+01  0.1068281437850702E+01  0.1062495639259046E+01
  0.1056741176477110E+01  0.1051017879790477E+01  0.1045325580403894E+01  0.1039664110436297E+01  0.1034033302915859E+01
  0.1028432991775069E+01  0.1022863011845824E+01  0.1017323198854570E+01  0.1011813389417446E+01  0.1006333421035475E+01
  0.1000883132089763E+01  0.9954623618367354E+00  0.9900709504033980E+00  0.9847087387826169E+00  0.9793755688284350E+00
  0.9740712832513991E+00  0.9687957256139303E+00  0.9635487403257023E+00  0.9583301726390570E+00  0.9531398686444352E+00
  0.9479776752658441E+00  0.9428434402563336E+00  0.9377370121935154E+00  0.9326582404750869E+00  0.9276069753143976E+00
  0.9225830677360251E+00  0.9175863695713850E+00  0.9126167334543562E+00  0.9076740128169372E+00  0.9027580618849226E+00
  0.8978687356736034E+00  0.8930058899834900E+00  0.8881693813960555E+00  0.8833590672695124E+00  0.8785748057345971E+00
  0.8738164556903920E+00  0.8690838768001578E+00  0.8643769294871974E+00  0.8596954749307371E+00  0.8550393750618330E+00
  0.8504084925592946E+00  0.8458026908456368E+00  0.8412218340830514E+00  0.8366657871693997E+00  0.8321344157342226E+00
  0.8276275861347835E+00  0.8231451654521214E+00  0.8186870214871298E+00  0.8142530227566565E+00  0.8098430384896274E+00
  0.8054569386231853E+00  0.8010945937988553E+00  0.7967558753587228E+00  0.7924406553416464E+00  0.7881488064794734E+00
  0.7838802021932925E+00  0.7796347165896923E+00  0.7754122244570518E+00  0.7712126012618440E+00  0.7670357231449615E+00
  0.7628814669180594E+00  0.7587497100599231E+00  0.7546403307128529E+00  0.7505532076790662E+00  0.7464882204171230E+00
  0.7424452490383645E+00  0.7384241743033808E+00  0.7344248776184862E+00  0.7304472410322241E+00  0.7264911472318805E+00
  0.7225564795400264E+00  0.7186431219110709E+00  0.7147509589278375E+00  0.7108798757981547E+00  0.7070297583514693E+00
  0.7032004930354772E+00  0.6993919669127693E+00  0.6956040676574961E+00  0.6918366835520544E+00  0.6880897034837883E+00
  0.6843630169417056E+00  0.6806565140132167E+00  0.6769700853808900E+00  0.6733036223192221E+00  0.6696570166914282E+00
  0.6660301609462442E+00  0.6624229481147581E+00  0.6588352718072414E+00  0.6552670262100142E+00  0.6517181060823133E+00
  0.6481884067531879E+00  0.6446778241184046E+00  0.6411862546373721E+00  0.6377135953300800E+00  0.6342597437740600E+00
  0.6308245981013536E+00  0.6274080569955058E+00  0.6240100196885694E+00  0.6206303859581225E+00  0.6172690561243123E+00
  0.6139259310469017E+00  0.6106009121223430E+00  0.6072939012808578E+00  0.6040048009835400E+00  0.6007335142194695E+00
  0.5974799445028436E+00  0.5942439958701190E+00  0.5910255728771791E+00  0.5878245805965026E+00  0.5846409246143610E+00
  0.5814745110280181E+00  0.5783252464429554E+00  0.5751930379701042E+00  0.5720777932230967E+00  0.5689794203155284E+00
  0.5658978278582379E+00  0.5628329249566000E+00  0.5597846212078331E+00  0.5567528266983180E+00  0.5537374520009360E+00
  0.5507384081724173E+00  0.5477556067507023E+00  0.5447889597523207E+00  0.5418383796697811E+00  0.5389037794689762E+00
  0.5359850725865988E+00  0.5330821729275730E+00  0.5301949948625017E+00  0.5273234532251191E+00  0.5244674633097663E+00
  0.5216269408688742E+00  0.5188018021104569E+00  0.5159919636956267E+00  0.5131973427361143E+00  0.5104178567918032E+00
  0.5076534238682784E+00  0.5049039624143892E+00  0.5021693913198196E+00  0.4994496299126754E+00  0.4967445979570793E+00
  0.4940542156507850E+00  0.4913784036227955E+00  0.4887170829309997E+00  0.4860701750598168E+00  0.4834376019178555E+00
  0.4808192858355831E+00  0.4782151495630073E+00  0.4756251162673680E+00  0.4730491095308426E+00  0.4704870533482627E+00
  0.4679388721248414E+00  0.4654044906739088E+00  0.4628838342146659E+00  0.4603768283699437E+00  0.4578833991639731E+00
  0.4554034730201699E+00  0.4529369767589286E+00  0.4504838375954245E+00  0.4480439831374308E+00  0.4456173413831411E+00
  0.4432038407190096E+00  0.4408034099175921E+00  0.4384159781354075E+00  0.4360414749108021E+00  0.4336798301618250E+00
  0.4313309741841186E+00  0.4289948376488132E+00  0.4266713516004326E+00  0.4243604474548137E+00  0.4220620569970290E+00
  0.4197761123793251E+00  0.4175025461190669E+00  0.4152412910966905E+00  0.4129922805536699E+00  0.4107554480904871E+00
  0.4085307276646170E+00  0.4063180535885160E+00  0.4041173605276237E+00  0.4019285834983719E+00  0.3997516578662013E+00
  0.3975865193435874E+00  0.3954331039880778E+00  0.3932913482003323E+00  0.3911611887221776E+00  0.3890425626346644E+00
  0.3869354073561382E+00  0.3848396606403138E+00  0.3827552605743606E+00  0.3806821455769928E+00  0.3786202543965710E+00
  0.3765695261092094E+00  0.3745299001168911E+00  0.3725013161455902E+00  0.3704837142434009E+00  0.3684770347786779E+00
  0.3664812184381765E+00  0.3644962062252086E+00  0.3625219394577974E+00  0.3605583597668457E+00  0.3586054090943065E+00
  0.3566630296913629E+00  0.3547311641166120E+00  0.3528097552342576E+00  0.3508987462123096E+00  0.3489980805207870E+00
  0.3471077019299283E+00  0.3452275545084095E+00  0.3433575826215663E+00  0.3414977309296210E+00  0.3396479443859183E+00
  0.3378081682351644E+00  0.3359783480116723E+00  0.3341584295376119E+00  0.3323483589212655E+00  0.3305480825552901E+00
  0.3287575471149810E+00  0.3269766995565453E+00  0.3252054871153744E+00  0.3234438573043276E+00  0.3216917579120139E+00
  0.3199491370010834E+00  0.3182159429065188E+00  0.3164921242339342E+00  0.3147776298578775E+00  0.3130724089201347E+00
  0.3113764108280404E+00  0.3096895852527892E+00  0.3080118821277553E+00  0.3063432516468095E+00  0.3046836442626452E+00
  0.3030330106851024E+00  0.3013913018795001E+00  0.2997584690649666E+00  0.2981344637127759E+00  0.2965192375446846E+00
  0.2949127425312730E+00  0.2933149308902879E+00  0.2917257550849877E+00  0.2901451678224879E+00  0.2885731220521119E+00
  0.2870095709637413E+00  0.2854544679861670E+00  0.2839077667854446E+00  0.2823694212632490E+00  0.2808393855552312E+00
  0.2793176140293757E+00  0.2778040612843580E+00  0.2762986821479055E+00  0.2748014316751558E+00  0.2733122651470183E+00
  0.2718311380685332E+00  0.2703580061672338E+00  0.2688928253915062E+00  0.2674355519089507E+00  0.2659861421047404E+00
  0.2645445525799830E+00  0.2631107401500782E+00  0.2616846618430774E+00  0.2602662748980397E+00  0.2588555367633884E+00
  0.2574524050952670E+00  0.2560568377558905E+00  0.2546687928118991E+00  0.2532882285327064E+00  0.2519151033888489E+00
  0.2505493760503306E+00  0.2491910053849669E+00  0.2478399504567250E+00  0.2464961705240631E+00  0.2451596250382643E+00
  0.2438302736417707E+00  0.2425080761665104E+00  0.2411929926322251E+00  0.2398849832447908E+00  0.2385840083945372E+00
  0.2372900286545608E+00  0.2360030047790356E+00  0.2347228977015201E+00  0.2334496685332574E+00  0.2321832785614716E+00
  0.2309236892476612E+00  0.2296708622258845E+00  0.2284247593010413E+00  0.2271853424471489E+00  0.2259525738056134E+00
  0.2247264156834930E+00  0.2235068305517574E+00  0.2222937810435398E+00  0.2210872299523826E+00  0.2198871402304772E+00
  0.2186934749868965E+00  0.2175061974858207E+00  0.2163252711447547E+00  0.2151506595327408E+00  0.2139823263685617E+00
  0.2128202355189352E+00  0.2116643509967034E+00  0.2105146369590129E+00  0.2093710577054854E+00  0.2082335776763815E+00
  0.2071021614507541E+00  0.2059767737445960E+00  0.2048573794089744E+00  0.2037439434281604E+00  0.2026364309177454E+00
  0.2015348071227513E+00  0.2004390374157284E+00  0.1993490872948452E+00  0.1982649223819664E+00  0.1971865084207232E+00
  0.1961138112745714E+00  0.1950467969248396E+00  0.1939854314687657E+00  0.1929296811175266E+00  0.1918795121942499E+00
  0.1908348911320229E+00  0.1897957844718833E+00  0.1887621588608037E+00  0.1877339810496618E+00  0.1867112178912005E+00
  0.1856938363379755E+00  0.1846818034402922E+00  0.1836750863441308E+00  0.1826736522890583E+00  0.1816774686061304E+00
  0.1806865027157807E+00  0.1797007221256981E+00  0.1787200944286917E+00  0.1777445873005443E+00  0.1767741684978544E+00
  0.1758088058558654E+00  0.1748484672862821E+00  0.1738931207750784E+00  0.1729427343802900E+00  0.1719972762297963E+00
  0.1710567145190916E+00  0.1701210175090438E+00  0.1691901535236418E+00  0.1682640909477326E+00  0.1673427982247449E+00
  0.1664262438544055E+00  0.1655143963904424E+00  0.1646072244382777E+00  0.1637046966527109E+00  0.1628067817355933E+00
  0.1619134484334912E+00  0.1610246655353412E+00  0.1601404018700953E+00  0.1592606263043605E+00  0.1583853077400275E+00
  0.1575144151118936E+00  0.1566479173852790E+00  0.1557857835536358E+00  0.1549279826361529E+00  0.1540744836753535E+00
  0.1532252557346918E+00  0.1523802678961429E+00  0.1515394892577915E+00  0.1507028889314195E+00  0.1498704360400910E+00
  0.1490420997157381E+00  0.1482178490967480E+00  0.1473976533255516E+00  0.1465814815462158E+00  0.1457693029020396E+00
  0.1449610865331569E+00  0.1441568015741458E+00  0.1433564171516457E+00  0.1425599023819856E+00  0.1417672263688227E+00
  0.1409783582007951E+00  0.1401932669491894E+00  0.1394119216656229E+00  0.1386342913797484E+00  0.1378603450969755E+00
  0.1370900517962175E+00  0.1363233804276610E+00  0.1355602999105647E+00  0.1348007791310868E+00  0.1340447869401444E+00
  0.1332922921513072E+00  0.1325432635387307E+00  0.1317976698351282E+00  0.1310554797297852E+00  0.1303166618666236E+00
  0.1295811848423123E+00  0.1288490172044326E+00  0.1281201274497009E+00  0.1273944840222498E+00  0.1266720553119759E+00
  0.1259528096529539E+00  0.1252367153219242E+00  0.1245237405368571E+00  0.1238138534555977E+00  0.1231070221745971E+00
  0.1224032147277337E+00  0.1217023990852321E+00  0.1210045431526788E+00  0.1203096147701499E+00  0.1196175817114453E+00
  0.1189284116834431E+00  0.1182420723255779E+00  0.1175585312094466E+00  0.1168777558385526E+00  0.1161997136481917E+00
  0.1155243720054860E+00  0.1148516982095769E+00  0.1141816594919794E+00  0.1135142230171087E+00  0.1128493558829838E+00
  0.1121870251221203E+00  0.1115271977026150E+00  0.1108698405294350E+00  0.1102149204459169E+00  0.1095624042354884E+00
  0.1089122586236161E+00  0.1082644502799941E+00  0.1076189458209775E+00  0.1069757118122763E+00  0.1063347147719141E+00
  0.1056959211734649E+00  0.1050592974495761E+00  0.1044248099957905E+00  0.1037924251746767E+00  0.1031621093202768E+00
  0.1025338287428859E+00  0.1019075497341721E+00  0.1012832385726486E+00  0.1006608615295096E+00  0.1000403848748419E+00
  0.9942177488422252E-01  0.9880499784571541E-01  0.9819002006727838E-01  0.9757680788459142E-01  0.9696532766931948E-01
  0.9635554583782065E-01  0.9574742886031135E-01  0.9514094327050195E-01  0.9453605567571083E-01  0.9393273276747369E-01
  0.9333094133265428E-01  0.9273064826507076E-01  0.9213182057764820E-01  0.9153442541510669E-01  0.9093843006719793E-01
  0.9034380198249733E-01  0.8975050878276271E-01  0.8915851827787051E-01  0.8856779848133416E-01  0.8797831762641667E-01
  0.8739004418284205E-01  0.8680294687411461E-01  0.8621699469545052E-01  0.8563215693232762E-01  0.8504840317965806E-01
  0.8446570336158564E-01  0.8388402775191398E-01  0.8330334699516130E-01  0.8272363212824745E-01  0.8214485460280804E-01
  0.8156698630813514E-01  0.8098999959474064E-01  0.8041386729853567E-01  0.7983856276562058E-01  0.7926405987767589E-01
  0.7869033307794404E-01  0.7811735739778962E-01  0.7754510848382384E-01  0.7697356262557722E-01  0.7640269678370135E-01
  0.7583248861868115E-01  0.7526291652003121E-01  0.7469395963595568E-01  0.7412559790343939E-01  0.7355781207874314E-01
  0.7299058376826928E-01  0.7242389545976168E-01  0.7185773055380303E-01  0.7129207339556733E-01  0.7072690930678455E-01
  0.7016222461786932E-01  0.6959800670016712E-01  0.6903424399826148E-01  0.6847092606228847E-01  0.6790804358020130E-01
  0.6734558840992054E-01  0.6678355361130736E-01  0.6622193347789238E-01  0.6566072356828781E-01  0.6509992073721342E-01
  0.6453952316605546E-01  0.6397953039288408E-01  0.6341994334184543E-01  0.6286076435184562E-01  0.6230199720444025E-01
  0.6174364715084059E-01  0.6118572093794755E-01  0.6062822683331952E-01  0.6007117464898087E-01  0.5951457576397687E-01
  0.5895844314557656E-01  0.5840279136902887E-01  0.5784763663577133E-01  0.5729299678999637E-01  0.5673889133347401E-01
  0.5618534143853529E-01  0.5563236995911920E-01  0.5508000143978607E-01  0.5452826212260440E-01  0.5397717995181750E-01
  0.5342678457620170E-01  0.5287710734902636E-01  0.5232818132553331E-01  0.5178004125785407E-01  0.5123272358729056E-01
  0.5068626643388444E-01  0.5014070958321079E-01  0.4959609447033336E-01  0.4905246416086768E-01  0.4850986332910104E-01
  0.4796833823312882E-01  0.4742793668697072E-01  0.4688870802964253E-01  0.4635070309116048E-01  0.4581397415546977E-01
  0.4527857492029550E-01  0.4474456045392132E-01  0.4421198714891384E-01  0.4368091267281776E-01  0.4315139591585810E-01
  0.4262349693569587E-01  0.4209727689929101E-01  0.4157279802194182E-01  0.4105012350357447E-01  0.4052931746237095E-01
  0.4001044486583156E-01  0.3949357145937881E-01  0.3897876369261980E-01  0.3846608864339313E-01  0.3795561393973671E-01
  0.3744740767992039E-01  0.3694153835069811E-01  0.3643807474394102E-01  0.3593708587182056E-01  0.3543864088072034E-01
  0.3494280896405823E-01  0.3444965927420878E-01  0.3395926083372364E-01  0.3347168244604544E-01  0.3298699260592240E-01
  0.3250525940972844E-01  0.3202655046590007E-01  0.3155093280569862E-01  0.3107847279451158E-01  0.3060923604390245E-01
  0.3014328732462280E-01  0.2968069048079170E-01  0.2922150834545068E-01  0.2876580265769735E-01  0.2831363398159410E-01
  0.2786506162704642E-01  0.2742014357283763E-01  0.2697893639199972E-01  0.2654149517969573E-01  0.2610787348377494E-01
  0.2567812323816072E-01  0.2525229469921530E-01  0.2483043638521971E-01  0.2441259501909496E-01  0.2399881547447995E-01
  0.2358914072527114E-01  0.2318361179871654E-01  0.2278226773214424E-01  0.2238514553339632E-01  0.2199228014502299E-01
  0.2160370441228318E-01  0.2121944905498251E-01  0.2083954264317019E-01  0.2046401157670156E-01  0.2009288006866248E-01
  0.1972617013264136E-01  0.1936390157381919E-01  0.1900609198384116E-01  0.1865275673941970E-01  0.1830390900461031E-01
  0.1795955973668987E-01  0.1761971769555922E-01  0.1728438945658156E-01  0.1695357942676221E-01  0.1662728986416363E-01
  0.1630552090044644E-01  0.1598827056641770E-01  0.1567553482046410E-01  0.1536730757974012E-01  0.1506358075397822E-01
  0.1476434428178313E-01  0.1446958616927088E-01  0.1417929253090643E-01  0.1389344763239611E-01  0.1361203393548738E-01
  0.1333503214452672E-01  0.1306242125462831E-01  0.1279417860130412E-01  0.1253027991140884E-01  0.1227069935525274E-01
  0.1201540959973730E-01  0.1176438186237272E-01  0.1151758596603560E-01  0.1127499039433123E-01  0.1103656234742647E-01
  0.1080226779822306E-01  0.1057207154874651E-01  0.1034593728662721E-01  0.1012382764155876E-01  0.9905704241618874E-02
  0.9691527769346913E-02  0.9481258017474408E-02  0.9274853944211500E-02  0.9072273727997179E-02  0.8873474821625919E-02
  0.8678414005668846E-02  0.8487047441114370E-02  0.8299330721155377E-02  0.8115218922058656E-02  0.7934666653055467E-02
  0.7757628105198192E-02  0.7584057099132482E-02  0.7413907131740170E-02  0.7247131421611785E-02  0.7083682953314401E-02
  0.6923514520422204E-02  0.6766578767284326E-02  0.6612828229507616E-02  0.6462215373135680E-02  0.6314692632510700E-02
  0.6170212446807427E-02  0.6028727295232458E-02  0.5890189730886249E-02  0.5754552413286825E-02  0.5621768139559251E-02
  0.5491789874296051E-02  0.5364570778097822E-02  0.5240064234804847E-02  0.5118223877433387E-02  0.4999003612832620E-02
  0.4882357645079240E-02  0.4768240497630368E-02  0.4656607034254880E-02  0.4547412478766642E-02  0.4440612433583518E-02
  0.4336162897137406E-02  0.4234020280161949E-02  0.4134141420884950E-02  0.4036483599153729E-02  0.3941004549522563E-02
  0.3847662473331023E-02  0.3756416049803550E-02  0.3667224446200106E-02  0.3580047327048724E-02  0.3494844862490108E-02
  0.3411577735765272E-02  0.3330207149876622E-02  0.3250694833453399E-02  0.3173003045851371E-02  0.3097094581517310E-02
  0.3022932773647959E-02  0.2950481497173195E-02  0.2879705171092252E-02  0.2810568760191971E-02  0.2743037776175068E-02
  0.2677078278226450E-02  0.2612656873044380E-02  0.2549740714363258E-02  0.2488297501994085E-02  0.2428295480407771E-02
  0.2369703436886186E-02  0.2312490699264860E-02  0.2256627133290987E-02  0.2202083139619075E-02  0.2148829650466690E-02
  0.2096838125951363E-02  0.2046080550129426E-02  0.1996529426756740E-02  0.1948157774790625E-02  0.1900939123651509E-02
  0.1854847508262362E-02  0.1809857463882891E-02  0.1765944020755503E-02  0.1723082698578474E-02  0.1681249500821930E-02
  0.1640420908901172E-02  0.1600573876221325E-02  0.1561685822106793E-02  0.1523734625628256E-02  0.1486698619339369E-02
  0.1450556582935049E-02  0.1415287736842105E-02  0.1380871735753019E-02  0.1347288662112730E-02  0.1314519019568081E-02
  0.1282543726388773E-02  0.1251344108868484E-02  0.1220901894714107E-02  0.1191199206430875E-02  0.1162218554710354E-02
  0.1133942831828187E-02  0.1106355305057946E-02  0.1079439610106960E-02  0.1053179744579805E-02  0.1027560061474619E-02
  0.1002565262717123E-02  0.9781803927369390E-03  0.9543908320903825E-03  0.9311822911336691E-03  0.9085408037501537E-03
  0.8864527211349657E-03  0.8649047056401090E-03  0.8438837246828319E-03  0.8233770447199231E-03  0.8033722252901464E-03
  0.7838571131271191E-03  0.7648198363443795E-03  0.7462487986944737E-03  0.7281326739035595E-03  0.7104604000828353E-03
  0.6932211742180627E-03  0.6764044467380924E-03  0.6599999161633108E-03  0.6439975238347644E-03  0.6283874487244508E-03
  0.6131601023273030E-03  0.5983061236351625E-03  0.5838163741929994E-03  0.5696819332374359E-03  0.5558940929176404E-03
  0.5424443535984443E-03  0.5293244192456064E-03  0.5165261928928738E-03  0.5040417721905487E-03  0.4918634450352027E-03
  0.4799836852799942E-03  0.4683951485251173E-03  0.4570906679877751E-03  0.4460632504510394E-03  0.4353060722909202E-03
  0.4248124755809115E-03  0.4145759642732219E-03  0.4045902004559235E-03  0.3948490006851312E-03  0.3853463323913753E-03
  0.3760763103592383E-03  0.3670331932793699E-03  0.3582113803718835E-03  0.3496054080802120E-03  0.3412099468344211E-03
  0.3330197978829783E-03  0.3250298901919811E-03  0.3172352774108107E-03  0.3096311349032022E-03  0.3022127568426710E-03
  0.2949755533712659E-03  0.2879150478206257E-03  0.2810268739942544E-03  0.2743067735099961E-03  0.2677505932016596E-03
  0.2613542825787390E-03  0.2551138913432071E-03  0.2490255669623244E-03  0.2430855522964471E-03  0.2372901832807978E-03
  0.2316358866601991E-03  0.2261191777757302E-03  0.2207366584023206E-03  0.2154850146362923E-03  0.2103610148318497E-03
  0.2053615075855504E-03  0.2004834197677920E-03  0.1957237546003612E-03  0.1910795897791064E-03  0.1865480756407855E-03
  0.1821264333732078E-03  0.1778119532677069E-03  0.1736019930131180E-03  0.1694939760303169E-03  0.1654853898464961E-03
  0.1615737845082908E-03  0.1577567710329468E-03  0.1540320198966670E-03  0.1503972595593420E-03  0.1468502750248595E-03
  0.1433889064362008E-03  0.1400110477045495E-03  0.1367146451716565E-03  0.1334976963047011E-03  0.1303582484229335E-03
  0.1272943974553564E-03  0.1243042867287466E-03  0.1213861057853322E-03  0.1185380892294244E-03  0.1157585156023509E-03
  0.1130457062850281E-03  0.1103980244275346E-03  0.1078138739050474E-03  0.1052916982995398E-03  0.1028299799066175E-03
  0.1004272387669133E-03  0.9808203172145648E-04  0.9579295149044907E-04  0.9355862577488865E-04  0.9137771638050787E-04
  0.8924891836347271E-04  0.8717095919734641E-04  0.8514259796078515E-04  0.8316262454548206E-04  0.8122985888386192E-04
  0.7934315019605549E-04  0.7750137625568129E-04  0.7570344267398218E-04  0.7394828220186554E-04  0.7223485404941901E-04
  0.7056214322246478E-04  0.6892915987574328E-04  0.6733493868231321E-04  0.6577853821877835E-04  0.6425904036594088E-04
  0.6277554972450963E-04  0.6132719304548733E-04  0.5991311867488055E-04  0.5853249601236857E-04  0.5718451498359427E-04
  0.5586838552573417E-04  0.5458333708601974E-04  0.5332861813288827E-04  0.5210349567944820E-04  0.5090725481895017E-04
  0.4973919827197176E-04  0.4859864594501105E-04  0.4748493450021757E-04  0.4639741693597089E-04  0.4533546217804137E-04
  0.4429845468106597E-04  0.4328579404008058E-04  0.4229689461185614E-04  0.4133118514579147E-04  0.4038810842412650E-04
  0.3946712091123466E-04  0.3856769241177161E-04  0.3768930573745468E-04  0.3683145638225450E-04  0.3599365220579084E-04
  0.3517541312471957E-04  0.3437627081191246E-04  0.3359576840323464E-04  0.3283346021172280E-04  0.3208891144898064E-04
  0.3136169795360787E-04  0.3065140592648440E-04  0.2995763167273673E-04  0.2927998135021686E-04  0.2861807072432751E-04
  0.2797152492903681E-04  0.2733997823391994E-04  0.2672307381707811E-04  0.2612046354378692E-04  0.2553180775072495E-04
  0.2495677503564398E-04  0.2439504205234146E-04  0.2384629331080113E-04  0.2331022098236895E-04  0.2278652470983988E-04
  0.2227491142232628E-04  0.2177509515479002E-04  0.2128679687211795E-04  0.2080974429762595E-04  0.2034367174587813E-04
  0.1988831995971380E-04  0.1944343595137183E-04  0.1900877284761057E-04  0.1858408973872233E-04  0.1816915153134069E-04
  0.1776372880494701E-04  0.1736759767198037E-04  0.1698053964146025E-04  0.1660234148603244E-04  0.1623279511235024E-04
  0.1587169743470872E-04  0.1551885025184606E-04  0.1517406012683397E-04  0.1483713826997779E-04  0.1450790042464943E-04
  0.1418616675598029E-04  0.1387176174233916E-04  0.1356451406952584E-04  0.1326425652761213E-04  0.1297082591036119E-04
  0.1268406291716125E-04  0.1240381205740934E-04  0.1212992155728295E-04  0.1186224326883913E-04  0.1160063258138194E-04
  0.1134494833504043E-04  0.1109505273650221E-04  0.1085081127684651E-04  0.1061209265142418E-04  0.1037876868173370E-04
  0.1015071423924092E-04  0.9927807171094637E-05  0.9709928227689509E-05  0.9496960992029875E-05  0.9288791810848125E-05
  0.9085309727434820E-05  0.8886406416135522E-05  0.8691976118473314E-05  0.8501915580855703E-05  0.8316123993825835E-05
  0.8134502932818783E-05  0.7956956300385842E-05  0.7783390269848258E-05  0.7613713230346113E-05  0.7447835733245663E-05
  0.7285670439871862E-05  0.7127132070532264E-05  0.6972137354799943E-05  0.6820604983023633E-05  0.6672455559034374E-05
  0.6527611554018102E-05  0.6385997261525849E-05  0.6247538753591706E-05  0.6112163837931630E-05  0.5979802016195534E-05
  0.5850384443246605E-05  0.5723843887441478E-05  0.5600114691886672E-05  0.5479132736646667E-05  0.5360835401879392E-05
  0.5245161531876947E-05  0.5132051399987389E-05  0.5021446674396828E-05  0.4913290384749597E-05  0.4807526889585811E-05
  0.4704101844575783E-05  0.4602962171531335E-05  0.4504056028174949E-05  0.4407332778647292E-05  0.4312742964734968E-05
  0.4220238277800871E-05  0.4129771531398907E-05  0.4041296634556646E-05  0.3954768565708922E-05  0.3870143347266426E-05
  0.3787378020803132E-05  0.3706430622847731E-05  0.3627260161263426E-05  0.3549826592201894E-05  0.3474090797617029E-05
  0.3400014563324459E-05  0.3327560557593656E-05  0.3256692310258917E-05  0.3187374192336701E-05  0.3119571396136853E-05
  0.3053249915855097E-05  0.2988376528635260E-05  0.2924918776089462E-05  0.2862844946264906E-05  0.2802124056046339E-05
  0.2742725833983305E-05  0.2684620703531869E-05  0.2627779766700285E-05  0.2572174788089127E-05  0.2517778179315658E-05
  0.2464562983813194E-05  0.2412502861996402E-05  0.2361572076783178E-05  0.2311745479464563E-05  0.2262998495914124E-05
  0.2215307113128306E-05  0.2168647866089933E-05  0.2122997824946528E-05  0.2078334582496082E-05  0.2034636241972493E-05
  0.1991881405123479E-05  0.1950049160573748E-05  0.1909119072466366E-05  0.1869071169375731E-05  0.1829885933485198E-05
  0.1791544290023230E-05  0.1754027596951465E-05  0.1717317634898726E-05  0.1681396597334920E-05  0.1646247080978944E-05
  0.1611852076434989E-05  0.1578194959051546E-05  0.1545259479997764E-05  0.1513029757551960E-05  0.1481490268596908E-05
  0.1450625840317078E-05  0.1420421642092761E-05  0.1390863177586520E-05  0.1361936277017005E-05  0.1333627089615844E-05
  0.1305922076262988E-05  0.1278808002296376E-05  0.1252271930491479E-05  0.1226301214206792E-05  0.1200883490691169E-05
  0.1176006674549105E-05  0.1151658951360168E-05  0.1127828771448839E-05  0.1104504843801111E-05  0.1081676130124405E-05
  0.1059331839047173E-05  0.1037461420455013E-05  0.1016054559959877E-05  0.9951011734991967E-06  0.9745914020618678E-06
  0.9545156065379496E-06  0.9348643626891452E-06  0.9156284562372231E-06  0.8967988780674287E-06  0.8783668195442159E-06
  0.8603236679366036E-06  0.8426610019504769E-06  0.8253705873653052E-06  0.8084443727728213E-06  0.7918744854151282E-06
  0.7756532271199101E-06  0.7597730703304745E-06  0.7442266542282595E-06  0.7290067809456659E-06  0.7141064118670530E-06
  0.6995186640157854E-06  0.6852368065252762E-06  0.6712542571920514E-06  0.6575645791088267E-06  0.6441614773757969E-06
  0.6310387958881545E-06  0.6181905141981215E-06  0.6056107444496619E-06  0.5932937283842213E-06  0.5812338344157268E-06
  0.5694255547732652E-06  0.5578635027097940E-06  0.5465424097753885E-06  0.5354571231533998E-06  0.5246026030581270E-06
  0.5139739201924928E-06  0.5035662532643290E-06  0.4933748865598883E-06  0.4833952075732067E-06  0.4736227046900557E-06
  0.4640529649251275E-06  0.4546816717112370E-06  0.4455046027393361E-06  0.4365176278480925E-06  0.4277167069619106E-06
  0.4190978880762360E-06  0.4106573052890372E-06  0.4023911768773858E-06  0.3942958034180547E-06  0.3863675659511504E-06
  0.3786029241857106E-06  0.3709984147463248E-06  0.3635506494598105E-06  0.3562563136809844E-06  0.3491121646566669E-06
  0.3421150299269586E-06  0.3352618057629632E-06  0.3285494556401116E-06  0.3219750087462158E-06  0.3155355585234808E-06
   28     58.693         3.5196    fcc     
  0.0000000000000000E+00 -0.1637872539659657E-01 -0.3269039825551090E-01 -0.4893515734855791E-01 -0.6511314144755032E-01
 -0.8122448932430437E-01 -0.9726933975063368E-01 -0.1132478314983527E+00 -0.1291601033392755E+00 -0.1450062940452166E+00
 -0.1607865423879904E+00 -0.1765009871394101E+00 -0.1921497670712919E+00 -0.2077330209554500E+00 -0.2232508875636978E+00
 -0.2387035056678499E+00 -0.2540910140397208E+00 -0.2694135514511249E+00 -0.2846712566738745E+00 -0.2998642684797881E+00
 -0.3149927256406770E+00 -0.3300567669283563E+00 -0.3450565311146407E+00 -0.3599921569713445E+00 -0.3748637832702815E+00
 -0.3896715487832654E+00 -0.4044155922821124E+00 -0.4190960525386360E+00 -0.4337130683246502E+00 -0.4482667784119700E+00
 -0.4627573215724090E+00 -0.4771848365777820E+00 -0.4915494621999037E+00 -0.5058513372105873E+00 -0.5200906003816481E+00
 -0.5342673904849002E+00 -0.5483818462921584E+00 -0.5624341065752365E+00 -0.5764243101059485E+00 -0.5903525956561098E+00
 -0.6042191019975331E+00 -0.6180239679020345E+00 -0.6317673321414277E+00 -0.6454493334875273E+00 -0.6590701107121471E+00
 -0.6726298025871014E+00 -0.6861285478842054E+00 -0.6995664853752721E+00 -0.7129437538321166E+00 -0.7262604920265543E+00
 -0.7395168387303979E+00 -0.7527129327154625E+00 -0.7658489127535624E+00 -0.7789249176165121E+00 -0.7919410860761247E+00
 -0.8048975569042163E+00 -0.8177944688726007E+00 -0.8306319607530916E+00 -0.8434101713175040E+00 -0.8561292393376521E+00
 -0.8687893035853507E+00 -0.8813905028324125E+00 -0.8939329758506536E+00 -0.9064168614118886E+00 -0.9188422982879301E+00
 -0.9312094252505936E+00 -0.9435183810716927E+00 -0.9557693045230431E+00 -0.9679623343764570E+00 -0.9800976094037510E+00
 -0.9921752683767382E+00 -0.1004195450067233E+01 -0.1016158293247051E+01 -0.1028063936688005E+01 -0.1039912519161910E+01
 -0.1051704179440579E+01 -0.1063439056295829E+01 -0.1075117288499472E+01 -0.1086739014823324E+01 -0.1098304374039198E+01
 -0.1109813504918909E+01 -0.1121266546234273E+01 -0.1132663636757101E+01 -0.1144004915259209E+01 -0.1155290520512412E+01
 -0.1166520591288523E+01 -0.1177695266359358E+01 -0.1188814684496730E+01 -0.1199878984472453E+01 -0.1210888305058342E+01
 -0.1221842785026212E+01 -0.1232742563147877E+01 -0.1243587778195152E+01 -0.1254378568939849E+01 -0.1265115074153785E+01
 -0.1275797432608772E+01 -0.1286425783076625E+01 -0.1297000264329161E+01 -0.1307521015138190E+01 -0.1317988174275530E+01
 -0.1328401880512994E+01 -0.1338762272622396E+01 -0.1349069489375551E+01 -0.1359323669544272E+01 -0.1369524951900375E+01
 -0.1379673475215673E+01 -0.1389769378261981E+01 -0.1399812799811115E+01 -0.1409803878634886E+01 -0.1419742753505110E+01
