  DATE: 2018-03-30 CONTRIBUTOR: Xiaowang Zhou xzhou@sandia.gov and Lucas Hale lucas.hale@nist.gov CITATION: X. W. Zhou, R. A. Johnson, H. N. G. Wadley, Phys. Rev. B, 69, 144113(2004)
  Generated from Zhou04_create_v2.f
  Fixes precision issues with older version
    5 Al Ti Fe Co Ni          
 2000  0.6176374161372077E-01 2000  0.3281809519401333E-02  0.6560337229283264E+01
   13     26.982         4.0502    fcc     
  0.0000000000000000E+00 -0.2328797467436750E-01 -0.4644860512536098E-01 -0.6948322873298918E-01 -0.9239218287726092E-01
 -0.1151758049381837E+00 -0.1378344322957659E+00 -0.1603684023300167E+00 -0.1827780524209435E+00 -0.2050637199485541E+00
 -0.2272257422928579E+00 -0.2492644568338627E+00 -0.2711802009515769E+00 -0.2929733120260078E+00 -0.3146441274371654E+00
 -0.3361929845650573E+00 -0.3576202207896906E+00 -0.3789261734910754E+00 -0.4001111800492192E+00 -0.4211755778441295E+00
 -0.4421197042558163E+00 -0.4629438966642867E+00 -0.4836484924495484E+00 -0.5042338289916107E+00 -0.5247002436704822E+00
 -0.5450480738661700E+00 -0.5652776569586829E+00 -0.5853893303280295E+00 -0.6053834313542180E+00 -0.6252602974172560E+00
 -0.6450202658971528E+00 -0.6646636741739159E+00 -0.6841908596275541E+00 -0.7036021596380757E+00 -0.7228979115854876E+00
 -0.7420784528498003E+00 -0.7611441208110202E+00 -0.7800952528491568E+00 -0.7989321863442181E+00 -0.8176552586762116E+00
 -0.8362648072251463E+00 -0.8547611693710304E+00 -0.8731446824938719E+00 -0.8914156839736798E+00 -0.9095745111904620E+00
 -0.9276215015242256E+00 -0.9455569923549809E+00 -0.9633813210627347E+00 -0.9810948250274961E+00 -0.9986978416292733E+00
 -0.1016190708248074E+01 -0.1033573762263907E+01 -0.1050847341056780E+01 -0.1068011782006702E+01 -0.1085067422493681E+01
 -0.1102014599897724E+01 -0.1118853651598842E+01 -0.1135584914977042E+01 -0.1152208727412331E+01 -0.1168725426284719E+01
 -0.1185135348974213E+01 -0.1201438832860823E+01 -0.1217636215324555E+01 -0.1233727833745420E+01 -0.1249714025503423E+01
 -0.1265595127978575E+01 -0.1281371478550883E+01 -0.1297043414600356E+01 -0.1312611273507001E+01 -0.1328075392650827E+01
 -0.1343436109411844E+01 -0.1358693761170056E+01 -0.1373848685305477E+01 -0.1388901219198110E+01 -0.1403851700227966E+01
 -0.1418700465775053E+01 -0.1433447853219380E+01 -0.1448094199940953E+01 -0.1462639843319782E+01 -0.1477085120735875E+01
 -0.1491430369569241E+01 -0.1505675927199886E+01 -0.1519822131007821E+01 -0.1533869318373053E+01 -0.1547817826675588E+01
 -0.1561667993295439E+01 -0.1575420155612611E+01 -0.1589074651007113E+01 -0.1602631816858954E+01 -0.1616091990548141E+01
 -0.1629455509454684E+01 -0.1642722710958589E+01 -0.1655893932439866E+01 -0.1668969511278523E+01 -0.1681949784854568E+01
 -0.1694835090548009E+01 -0.1707625765738855E+01 -0.1720322147807113E+01 -0.1732924574132794E+01 -0.1745433382095903E+01
 -0.1757848909076450E+01 -0.1770171492454443E+01 -0.1782401469609891E+01 -0.1794539177922801E+01 -0.1806584954773181E+01
 -0.1818539137541042E+01 -0.1830402063606389E+01 -0.1842174070349232E+01 -0.1853855495149579E+01 -0.1865446675387439E+01
 -0.1876947948442818E+01 -0.1888359651695727E+01 -0.1899682122526172E+01 -0.1910915698314164E+01 -0.1922060716439708E+01
 -0.1933117514282815E+01 -0.1944086429223491E+01 -0.1954967798641746E+01 -0.1965761959917588E+01 -0.1976469250431025E+01
 -0.1987090007562065E+01 -0.1997624568690717E+01 -0.2008073271196989E+01 -0.2018436452460888E+01 -0.2028714449862425E+01
 -0.2038907600781605E+01 -0.2049016242598439E+01 -0.2059040712692934E+01 -0.2068981348445099E+01 -0.2078838487234941E+01
 -0.2088612466442469E+01 -0.2098303623447692E+01 -0.2107912295630618E+01 -0.2117438820371254E+01 -0.2126883535049609E+01
 -0.2136246777045693E+01 -0.2145528883739511E+01 -0.2154730192511074E+01 -0.2163851040740389E+01 -0.2172891765807464E+01
 -0.2181852705092309E+01 -0.2190734195974930E+01 -0.2199536575835337E+01 -0.2208260182053537E+01 -0.2216905352009540E+01
 -0.2225472423083353E+01 -0.2233961732654984E+01 -0.2242373618104442E+01 -0.2250708416811736E+01 -0.2258966466156872E+01
 -0.2267148103519860E+01 -0.2275253666280708E+01 -0.2283283491819424E+01 -0.2291237917516017E+01 -0.2299117280750495E+01
 -0.2306921918902865E+01 -0.2314652169353137E+01 -0.2322308369481318E+01 -0.2329890856667418E+01 -0.2337399968291443E+01
 -0.2344836041733403E+01 -0.2352199414373305E+01 -0.2359490423591159E+01 -0.2366709406766971E+01 -0.2373856701280751E+01
 -0.2380932644512507E+01 -0.2387937573842247E+01 -0.2394871826649980E+01 -0.2401735740315712E+01 -0.2408529652219454E+01
 -0.2415253899741213E+01 -0.2421908820260998E+01 -0.2428494751158816E+01 -0.2435012029814676E+01 -0.2441460993608587E+01
 -0.2447841979920556E+01 -0.2454155326130592E+01 -0.2460401369618704E+01 -0.2466580447764898E+01 -0.2472692897949184E+01
 -0.2478739057551571E+01 -0.2484719263952065E+01 -0.2490633854530676E+01 -0.2496483166667412E+01 -0.2502267537742281E+01
 -0.2507987305135290E+01 -0.2513642806226450E+01 -0.2519234378395768E+01 -0.2524762359023252E+01 -0.2530227085488911E+01
 -0.2535628895172751E+01 -0.2540968125454783E+01 -0.2546245113715015E+01 -0.2551460197333455E+01 -0.2556613713690109E+01
 -0.2561706000164988E+01 -0.2566737394138099E+01 -0.2571708232989452E+01 -0.2576618854099053E+01 -0.2581469594846911E+01
 -0.2586260792613035E+01 -0.2590992784777432E+01 -0.2595665908720111E+01 -0.2600280501821082E+01 -0.2604836901460351E+01
 -0.2609335445017926E+01 -0.2613776469873817E+01 -0.2618160313408032E+01 -0.2622487313000577E+01 -0.2626757806031463E+01
 -0.2630972129880698E+01 -0.2635130621928289E+01 -0.2639233619554244E+01 -0.2643281460138573E+01 -0.2647274481061283E+01
 -0.2651213019702384E+01 -0.2655097413441881E+01 -0.2658927999659785E+01 -0.2662705115736104E+01 -0.2666429099050846E+01
 -0.2670100286984018E+01 -0.2673719016915630E+01 -0.2677285626225690E+01 -0.2680800452294205E+01 -0.2684263832501184E+01
 -0.2687676104226637E+01 -0.2691037604850570E+01 -0.2694348671752991E+01 -0.2697609642313910E+01 -0.2700820853913336E+01
 -0.2703982643931274E+01 -0.2707095349747735E+01 -0.2710159308742726E+01 -0.2713174858296256E+01 -0.2716142335788333E+01
 -0.2719062078598965E+01 -0.2721934424108161E+01 -0.2724759709695928E+01 -0.2727538272742275E+01 -0.2730270450627211E+01
 -0.2732956580730744E+01 -0.2735597000432881E+01 -0.2738192047113631E+01 -0.2740742058153003E+01 -0.2743247370931005E+01
 -0.2745708322827645E+01 -0.2748125251222931E+01 -0.2750498493496872E+01 -0.2752828387029475E+01 -0.2755115269200750E+01
 -0.2757359477390704E+01 -0.2759561348979346E+01 -0.2761721221346684E+01 -0.2763839431872726E+01 -0.2765916317937480E+01
 -0.2767952216920956E+01 -0.2769947466203160E+01 -0.2771902403164102E+01 -0.2773817365183789E+01 -0.2775692689642231E+01
 -0.2777528713919434E+01 -0.2779325775395408E+01 -0.2781084211450160E+01 -0.2782804359463700E+01 -0.2784486556816035E+01
 -0.2786131140887174E+01 -0.2787738449057124E+01 -0.2789308818705895E+01 -0.2790842587213494E+01 -0.2792340091959929E+01
 -0.2793801670325210E+01 -0.2795227659689344E+01 -0.2796618397432340E+01 -0.2797974220934205E+01 -0.2799295467574948E+01
 -0.2800582474734578E+01 -0.2801835579793102E+01 -0.2803055120130529E+01 -0.2804241433126868E+01 -0.2805394856162126E+01
 -0.2806515726616311E+01 -0.2807604045873183E+01 -0.2808660837715652E+01 -0.2809686165127260E+01 -0.2810680441338472E+01
 -0.2811644079579748E+01 -0.2812577493081551E+01 -0.2813481095074341E+01 -0.2814355298788582E+01 -0.2815200517454734E+01
 -0.2816017164303261E+01 -0.2816805652564624E+01 -0.2817566395469284E+01 -0.2818299806247704E+01 -0.2819006298130345E+01
 -0.2819686284347671E+01 -0.2820340178130141E+01 -0.2820968392708219E+01 -0.2821571341312366E+01 -0.2822149437173044E+01
 -0.2822703093520715E+01 -0.2823232723585841E+01 -0.2823738740598885E+01 -0.2824221557790306E+01 -0.2824681588390569E+01
 -0.2825119245630134E+01 -0.2825534942739464E+01 -0.2825929092949020E+01 -0.2826302109489264E+01 -0.2826654405590659E+01
 -0.2826986394483666E+01 -0.2827298489398747E+01 -0.2827591103566364E+01 -0.2827864650216978E+01 -0.2828119542581053E+01
 -0.2828356193889049E+01 -0.2828575017371429E+01 -0.2828776426258655E+01 -0.2828960833781188E+01 -0.2829128653169490E+01
 -0.2829280297654024E+01 -0.2829416180465250E+01 -0.2829536714833632E+01 -0.2829642313989631E+01 -0.2829733391163709E+01
 -0.2829810359586327E+01 -0.2829873632487948E+01 -0.2829923623099034E+01 -0.2829960744650047E+01 -0.2829985410371448E+01
 -0.2829998033493699E+01 -0.2829999027247262E+01 -0.2829988804862600E+01 -0.2829967779570174E+01 -0.2829936364600446E+01
 -0.2829894973183878E+01 -0.2829844018550931E+01 -0.2829783913932069E+01 -0.2829715072557752E+01 -0.2829637907658442E+01
 -0.2829552832464603E+01 -0.2829460260206694E+01 -0.2829360604115179E+01 -0.2829254277420519E+01 -0.2829141693353176E+01
 -0.2829023265143612E+01 -0.2828899406022289E+01 -0.2828770529219669E+01 -0.2828637047966214E+01 -0.2828499375492385E+01
 -0.2828357925028645E+01 -0.2828213109805455E+01 -0.2828065343053278E+01 -0.2827915038002575E+01 -0.2827762607883809E+01
 -0.2827608465927440E+01 -0.2827453025363932E+01 -0.2827296699423745E+01 -0.2827139901337343E+01 -0.2826983044335186E+01
 -0.2826826541647737E+01 -0.2826670806505457E+01 -0.2826516252138809E+01 -0.2826363291778255E+01 -0.2826212338654255E+01
 -0.2826063805997273E+01 -0.2825918107037770E+01 -0.2825775655006208E+01 -0.2825636863133049E+01 -0.2825502144648756E+01
 -0.2825371912783788E+01 -0.2825246580768610E+01 -0.2825126561833682E+01 -0.2825012269209467E+01 -0.2824904116126426E+01
 -0.2824802515815021E+01 -0.2824707881505715E+01 -0.2824620626428969E+01 -0.2824541163815245E+01 -0.2824469906895005E+01
 -0.2824407268898711E+01 -0.2824345959595684E+01 -0.2824273260197766E+01 -0.2824188488811373E+01 -0.2824091690454054E+01
 -0.2823982909862526E+01 -0.2823862191495136E+01 -0.2823729579534301E+01 -0.2823585117888919E+01 -0.2823428850196754E+01
 -0.2823260819826789E+01 -0.2823081069881561E+01 -0.2822889643199462E+01 -0.2822686582357021E+01 -0.2822471929671155E+01
 -0.2822245727201397E+01 -0.2822008016752101E+01 -0.2821758839874624E+01 -0.2821498237869474E+01 -0.2821226251788449E+01
 -0.2820942922436741E+01 -0.2820648290375024E+01 -0.2820342395921514E+01 -0.2820025279154012E+01 -0.2819696979911916E+01
 -0.2819357537798228E+01 -0.2819006992181517E+01 -0.2818645382197878E+01 -0.2818272746752865E+01 -0.2817889124523399E+01
 -0.2817494553959663E+01 -0.2817089073286968E+01 -0.2816672720507611E+01 -0.2816245533402700E+01 -0.2815807549533969E+01
 -0.2815358806245571E+01 -0.2814899340665848E+01 -0.2814429189709096E+01 -0.2813948390077289E+01 -0.2813456978261805E+01
 -0.2812954990545130E+01 -0.2812442463002534E+01 -0.2811919431503738E+01 -0.2811385931714566E+01 -0.2810841999098574E+01
 -0.2810287668918661E+01 -0.2809722976238675E+01 -0.2809147955924986E+01 -0.2808562642648054E+01 -0.2807967070883983E+01
 -0.2807361274916045E+01 -0.2806745288836208E+01 -0.2806119146546628E+01 -0.2805482881761146E+01 -0.2804836528006753E+01
 -0.2804180118625050E+01 -0.2803513686773691E+01 -0.2802837265427809E+01 -0.2802150887381436E+01 -0.2801454585248891E+01
 -0.2800748391466179E+01 -0.2800032338292352E+01 -0.2799306457810877E+01 -0.2798570781930972E+01 -0.2797825342388943E+01
 -0.2797070170749502E+01 -0.2796305298407071E+01 -0.2795530756587075E+01 -0.2794746576347222E+01 -0.2793952788578774E+01
 -0.2793149424007796E+01 -0.2792336513196402E+01 -0.2791514086543991E+01 -0.2790682174288454E+01 -0.2789840806507395E+01
 -0.2788990013119315E+01 -0.2788129823884803E+01 -0.2787260268407709E+01 -0.2786381376136299E+01 -0.2785493176364415E+01
 -0.2784595698232604E+01 -0.2783688970729252E+01 -0.2782773022691706E+01 -0.2781847882807373E+01 -0.2780913579614822E+01
 -0.2779970141504870E+01 -0.2779017596721655E+01 -0.2778055973363705E+01 -0.2777085299384995E+01 -0.2776105602595990E+01
 -0.2775116910664686E+01 -0.2774119251117630E+01 -0.2773112651340945E+01 -0.2772097138581334E+01 -0.2771072739947074E+01
 -0.2770039482409017E+01 -0.2768997392801559E+01 -0.2767946497823614E+01 -0.2766886824039581E+01 -0.2765818397880293E+01
 -0.2764741245643962E+01 -0.2763655393497118E+01 -0.2762560867475527E+01 -0.2761457693485128E+01 -0.2760345897302928E+01
 -0.2759225504577909E+01 -0.2758096540831922E+01 -0.2756959031460583E+01 -0.2755813001734132E+01 -0.2754658476798323E+01
 -0.2753495481675274E+01 -0.2752324041264327E+01 -0.2751144180342897E+01 -0.2749955923567306E+01 -0.2748759295473621E+01
 -0.2747554320478478E+01 -0.2746341022879895E+01 -0.2745119426858088E+01 -0.2743889556476276E+01 -0.2742651435681467E+01
 -0.2741405088305259E+01 -0.2740150538064614E+01 -0.2738887808562640E+01 -0.2737616923289355E+01 -0.2736337905622450E+01
 -0.2735050778828047E+01 -0.2733755566061444E+01 -0.2732452290367861E+01 -0.2731140974683174E+01 -0.2729821641834644E+01
 -0.2728494314541644E+01 -0.2727159015416371E+01 -0.2725815766964562E+01 -0.2724464591586193E+01 -0.2723105511576186E+01
 -0.2721738549125094E+01 -0.2720363726319793E+01 -0.2718981065144161E+01 -0.2717590587479754E+01 -0.2716192315106478E+01
 -0.2714786269703248E+01 -0.2713372472848651E+01 -0.2711950946021598E+01 -0.2710521710601969E+01 -0.2709084787871260E+01
 -0.2707640199013212E+01 -0.2706187965114452E+01 -0.2704728107165111E+01 -0.2703260646059448E+01 -0.2701785602596468E+01
 -0.2700302997480528E+01 -0.2698812851321946E+01 -0.2697315184637601E+01 -0.2695810017851528E+01 -0.2694297371295508E+01
 -0.2692777265209657E+01 -0.2691249719743003E+01 -0.2689714754954067E+01 -0.2688172390811428E+01 -0.2686622647194298E+01
 -0.2685065543893080E+01 -0.2683501100609923E+01 -0.2681929336959283E+01 -0.2680350272468466E+01 -0.2678763926578171E+01
 -0.2677170318643037E+01 -0.2675569467932172E+01 -0.2673961393629690E+01 -0.2672346114835231E+01 -0.2670723650564491E+01
 -0.2669094019749736E+01 -0.2667457241240321E+01 -0.2665813333803194E+01 -0.2664162316123410E+01 -0.2662504206804627E+01
 -0.2660839024369609E+01 -0.2659166787260717E+01 -0.2657487513840405E+01 -0.2655801222391699E+01 -0.2654107931118686E+01
 -0.2652407658146991E+01 -0.2650700421524254E+01 -0.2648986239220598E+01 -0.2647265129129100E+01 -0.2645537109066257E+01
 -0.2643802196772442E+01 -0.2642060409912364E+01 -0.2640311766075524E+01 -0.2638556282776658E+01 -0.2636793977456193E+01
 -0.2635024867480682E+01 -0.2633248970143248E+01 -0.2631466302664019E+01 -0.2629676882190565E+01 -0.2627880725798321E+01
 -0.2626077850491018E+01 -0.2624268273201107E+01 -0.2622452010790175E+01 -0.2620629080049364E+01 -0.2618799497699787E+01
 -0.2616963280392935E+01 -0.2615120444711086E+01 -0.2613271007167709E+01 -0.2611414984207866E+01 -0.2609552392208608E+01
 -0.2607683247479377E+01 -0.2605807566262385E+01 -0.2603925364733020E+01 -0.2602036659000221E+01 -0.2600141465106864E+01
 -0.2598239799030145E+01 -0.2596331676681956E+01 -0.2594417113909262E+01 -0.2592496126494471E+01 -0.2590568730155804E+01
 -0.2588634940547665E+01 -0.2586694773261002E+01 -0.2584748243823666E+01 -0.2582795367700777E+01 -0.2580836160295076E+01
 -0.2578870636947276E+01 -0.2576898812936419E+01 -0.2574920703480220E+01 -0.2572936323735413E+01 -0.2570945688798099E+01
 -0.2568948813704078E+01 -0.2566945713429199E+01 -0.2564936402889687E+01 -0.2562920896942478E+01 -0.2560899210385555E+01
 -0.2558871357958271E+01 -0.2556837354341678E+01 -0.2554797214158851E+01 -0.2552750951975211E+01 -0.2550698582298841E+01
 -0.2548640119580806E+01 -0.2546575578215467E+01 -0.2544504972540793E+01 -0.2542428316838673E+01 -0.2540345625335223E+01
 -0.2538256912201091E+01 -0.2536162191551766E+01 -0.2534061477447870E+01 -0.2531954783895469E+01 -0.2529842124846363E+01
 -0.2527723514198381E+01 -0.2525598965795681E+01 -0.2523468493429033E+01 -0.2521332110836116E+01 -0.2519189831701798E+01
 -0.2517041669658425E+01 -0.2514887638286108E+01 -0.2512727751112994E+01 -0.2510562021615555E+01 -0.2508390463218861E+01
 -0.2506213089296856E+01 -0.2504029913172633E+01 -0.2501840948118701E+01 -0.2499646207357260E+01 -0.2497445704060470E+01
 -0.2495239451350710E+01 -0.2493027462300847E+01 -0.2490809749934500E+01 -0.2488586327226296E+01 -0.2486357207102132E+01
 -0.2484122402439435E+01 -0.2481881926067409E+01 -0.2479635790767294E+01 -0.2477384009272621E+01 -0.2475126594269456E+01
 -0.2472863558396651E+01 -0.2470594914246093E+01 -0.2468320674362944E+01 -0.2466040851245890E+01 -0.2463755457347380E+01
 -0.2461464505073867E+01 -0.2459168006786046E+01 -0.2456865974799092E+01 -0.2454558421382894E+01 -0.2452245358762292E+01
 -0.2449926799117306E+01 -0.2447602754583368E+01 -0.2445273237251550E+01 -0.2442938259168796E+01 -0.2440597832338143E+01
 -0.2438251968718948E+01 -0.2435900680227115E+01 -0.2433543978735309E+01 -0.2431181876073181E+01 -0.2428814384027588E+01
 -0.2426441514342808E+01 -0.2424063278720757E+01 -0.2421679688821203E+01 -0.2419290756261980E+01 -0.2416896492619200E+01
 -0.2414496909427461E+01 -0.2412092018180061E+01 -0.2409681830329199E+01 -0.2407266357286189E+01 -0.2404845610421658E+01
 -0.2402419601065755E+01 -0.2399988340508349E+01 -0.2397551839999235E+01 -0.2395110110748328E+01 -0.2392663163925867E+01
 -0.2390211010662609E+01 -0.2387753662050027E+01 -0.2385291129140500E+01 -0.2382823422947515E+01 -0.2380350554445849E+01
 -0.2377872534571770E+01 -0.2375389374223217E+01 -0.2372901084260000E+01 -0.2370407675503975E+01 -0.2367909158739241E+01
 -0.2365405544712316E+01 -0.2362896844132328E+01 -0.2360383067671195E+01 -0.2357864225963803E+01 -0.2355340329608195E+01
 -0.2352811389165741E+01 -0.2350277415161322E+01 -0.2347738418083505E+01 -0.2345194408384718E+01 -0.2342645396481430E+01
 -0.2340091392754314E+01 -0.2337532407548432E+01 -0.2334968451173401E+01 -0.2332399533903561E+01 -0.2329825665978146E+01
 -0.2327246857601457E+01 -0.2324663118943025E+01 -0.2322074460137776E+01 -0.2319480891286200E+01 -0.2316882422454513E+01
 -0.2314279063674823E+01 -0.2311670824945288E+01 -0.2309057716230280E+01 -0.2306439747460545E+01 -0.2303816928533363E+01
 -0.2301189269312706E+01 -0.2298556779629392E+01 -0.2295919469281247E+01 -0.2293277348033258E+01 -0.2290630425617726E+01
 -0.2287978711734421E+01 -0.2285322216050735E+01 -0.2282660948201833E+01 -0.2279994917790806E+01 -0.2277324134388816E+01
 -0.2274648607535250E+01 -0.2271968346737864E+01 -0.2269283361472938E+01 -0.2266593661185409E+01 -0.2263899255289030E+01
 -0.2261200153166506E+01 -0.2258496364169641E+01 -0.2255787897619481E+01 -0.2253074762806454E+01 -0.2250356968990514E+01
 -0.2247634525401281E+01 -0.2244907441238174E+01 -0.2242175725670562E+01 -0.2239439387837889E+01 -0.2236698436849822E+01
 -0.2233952881786378E+01 -0.2231202731698065E+01 -0.2228447995606016E+01 -0.2225688682502122E+01 -0.2222924801349163E+01
 -0.2220156361080944E+01 -0.2217383370602427E+01 -0.2214605838789854E+01 -0.2211823774490889E+01 -0.2209037186524733E+01
 -0.2206246083682268E+01 -0.2203450474726175E+01 -0.2200650368391056E+01 -0.2197845773383578E+01 -0.2195036698382577E+01
 -0.2192223152039203E+01 -0.2189405142977026E+01 -0.2186582679792173E+01 -0.2183755771053443E+01 -0.2180924425302433E+01
 -0.2178088651053656E+01 -0.2175248456794661E+01 -0.2172403850986158E+01 -0.2169554842062135E+01 -0.2166701438429971E+01
 -0.2163843648470562E+01 -0.2160981480538431E+01 -0.2158114942961850E+01 -0.2155244044042954E+01 -0.2152368792057852E+01
 -0.2149489195256749E+01 -0.2146605261864054E+01 -0.2143717000078495E+01 -0.2140824418073232E+01 -0.2137927523995970E+01
 -0.2135026325969063E+01 -0.2132120832089639E+01 -0.2129211050429692E+01 -0.2126296989036209E+01 -0.2123378655931267E+01
 -0.2120456059112144E+01 -0.2117529206551428E+01 -0.2114598106197124E+01 -0.2111662765972760E+01 -0.2108723193777488E+01
 -0.2105779397486201E+01 -0.2102831384949625E+01 -0.2099879163994428E+01 -0.2096922742423328E+01 -0.2093962128015186E+01
 -0.2090997328525119E+01 -0.2088028351684593E+01 -0.2085055205201528E+01 -0.2082077896760401E+01 -0.2079096434022342E+01
 -0.2076110824625233E+01 -0.2073121076183813E+01 -0.2070127196289767E+01 -0.2067129192511834E+01 -0.2064127072395898E+01
 -0.2061120843465085E+01 -0.2058110513219864E+01 -0.2055096089138134E+01 -0.2052077578675331E+01 -0.2049054989264512E+01
 -0.2046028328316454E+01 -0.2042997603219750E+01 -0.2039962821340897E+01 -0.2036923990024392E+01 -0.2033881116592823E+01
 -0.2030834208346962E+01 -0.2027783272565854E+01 -0.2024728316506909E+01 -0.2021669347405993E+01 -0.2018606372477517E+01
 -0.2015539398914526E+01 -0.2012468433888786E+01 -0.2009393484550877E+01 -0.2006314558030275E+01 -0.2003231661435447E+01
 -0.2000144801853927E+01 -0.1997053986352413E+01 -0.1993959221976849E+01 -0.1990860515752508E+01 -0.1987757874684078E+01
 -0.1984651305755752E+01 -0.1981540815931305E+01 -0.1978426412154179E+01 -0.1975308101347572E+01 -0.1972185890414515E+01
 -0.1969059786237956E+01 -0.1965929795680841E+01 -0.1962795925586198E+01 -0.1959658182777215E+01 -0.1956516574057325E+01
 -0.1953371106210282E+01 -0.1950221786000243E+01 -0.1947068620171844E+01 -0.1943911615450288E+01 -0.1940750778541410E+01
 -0.1937586116131771E+01 -0.1934417634888717E+01 -0.1931245341460476E+01 -0.1928069242476222E+01 -0.1924889344546153E+01
 -0.1921705654261573E+01 -0.1918518178194963E+01 -0.1915326922900058E+01 -0.1912131894911921E+01 -0.1908933100747016E+01
 -0.1905730546903290E+01 -0.1902524239860234E+01 -0.1899314186078971E+01 -0.1896100392002315E+01 -0.1892882864054857E+01
 -0.1889661608643024E+01 -0.1886436632155164E+01 -0.1883207940961607E+01 -0.1879975541414743E+01 -0.1876739439849090E+01
 -0.1873499642581365E+01 -0.1870256155910552E+01 -0.1867008986117978E+01 -0.1863758139467374E+01 -0.1860503622204952E+01
 -0.1857245440559468E+01 -0.1853983600742296E+01 -0.1850718108947487E+01 -0.1847448971351847E+01 -0.1844176194114997E+01
 -0.1840899783379446E+01 -0.1837619745270650E+01 -0.1834336085897086E+01 -0.1831048811350314E+01 -0.1827757927705043E+01
 -0.1824463441019198E+01 -0.1821165357333982E+01 -0.1817863682673945E+01 -0.1814558423047044E+01 -0.1811249584444708E+01
 -0.1807937172841906E+01 -0.1804621194197207E+01 -0.1801301654452841E+01 -0.1797978559534764E+01 -0.1794651915352723E+01
 -0.1791321727800313E+01 -0.1787988002755045E+01 -0.1784650746078402E+01 -0.1781309963615903E+01 -0.1777965661197164E+01
 -0.1774617844635956E+01 -0.1771266519730270E+01 -0.1767911692262374E+01 -0.1764553367998873E+01 -0.1761191552690768E+01
 -0.1757826252073519E+01 -0.1754457471867097E+01 -0.1751085217776049E+01 -0.1747709495489552E+01 -0.1744330310681476E+01
 -0.1740947669010437E+01 -0.1737561576119853E+01 -0.1734172037638011E+01 -0.1730779059178112E+01 -0.1727382646338333E+01
 -0.1723982804701888E+01 -0.1720579539837074E+01 -0.1717172857297334E+01 -0.1713762762621314E+01 -0.1710349261332910E+01
 -0.1706932358941331E+01 -0.1703512060941151E+01 -0.1700088372812362E+01 -0.1696661300020430E+01 -0.1693230848016351E+01
 -0.1689797022236698E+01 -0.1686359828103682E+01 -0.1682919271025201E+01 -0.1679475356394894E+01 -0.1676028089592193E+01
 -0.1672577475982378E+01 -0.1669123520916624E+01 -0.1665666229732061E+01 -0.1662205607751817E+01 -0.1658741660285074E+01
 -0.1655274392627120E+01 -0.1651803810059397E+01 -0.1648329917849555E+01 -0.1644852721251501E+01 -0.1641372225505446E+01
 -0.1637888435837963E+01 -0.1634401357462026E+01 -0.1630910995577071E+01 -0.1627417355369037E+01 -0.1623920442010418E+01
 -0.1620420260660312E+01 -0.1616916816464469E+01 -0.1613410114555340E+01 -0.1609900160052127E+01 -0.1606386958060824E+01
 -0.1602870513674275E+01 -0.1599350831972211E+01 -0.1595827918021307E+01 -0.1592301776875222E+01 -0.1588772413574647E+01
 -0.1585239833147356E+01 -0.1581704040608248E+01 -0.1578165040959395E+01 -0.1574622839190085E+01 -0.1571077440276874E+01
 -0.1567528849183625E+01 -0.1563977070861557E+01 -0.1560422110249290E+01 -0.1556863972272890E+01 -0.1553302661845909E+01
 -0.1549738183869439E+01 -0.1546170543232147E+01 -0.1542599744810324E+01 -0.1539025793467927E+01 -0.1535448694056626E+01
 -0.1531868451415842E+01 -0.1528285070372797E+01 -0.1524698555742550E+01 -0.1521108912328045E+01 -0.1517516144920152E+01
 -0.1513920258297710E+01 -0.1510321257227568E+01 -0.1506719146464630E+01 -0.1503113930751893E+01 -0.1499505614820493E+01
 -0.1495894203389742E+01 -0.1492279701167175E+01 -0.1488662112848585E+01 -0.1485041443118067E+01 -0.1481417696648063E+01
 -0.1477790878099394E+01 -0.1474160992121308E+01 -0.1470528043351514E+01 -0.1466892036416230E+01 -0.1463252975930214E+01
 -0.1459610866496812E+01 -0.1455965712707989E+01 -0.1452317519144378E+01 -0.1448666290375310E+01 -0.1445012030958861E+01
 -0.1441354745441884E+01 -0.1437694438360053E+01 -0.1434031114237897E+01 -0.1430364777588843E+01 -0.1426695432915253E+01
 -0.1423023084708457E+01 -0.1419347737448797E+01 -0.1415669395605665E+01 -0.1411988063637531E+01 -0.1408303745991994E+01
 -0.1404616447105811E+01 -0.1400926171404933E+01 -0.1397232923304547E+01 -0.1393536707209108E+01 -0.1389837527512378E+01
 -0.1386135388597464E+01 -0.1382430294836850E+01 -0.1378722250592435E+01 -0.1375011260215572E+01 -0.1371297328047098E+01
 -0.1367580458417371E+01 -0.1363860655646312E+01 -0.1360137924043431E+01 -0.1356412267907868E+01 -0.1352683691528424E+01
 -0.1348952199183603E+01 -0.1345217795141635E+01 -0.1341480483660523E+01 -0.1337740268988066E+01 -0.1333997155361906E+01
 -0.1330251147009548E+01 -0.1326502248148404E+01 -0.1322750462985824E+01 -0.1318995795719127E+01 -0.1315238250535640E+01
 -0.1311477831612726E+01 -0.1307714543117816E+01 -0.1303948389208451E+01 -0.1300179374032306E+01 -0.1296407501727227E+01
 -0.1292632776421262E+01 -0.1288855202232694E+01 -0.1285074783270074E+01 -0.1281291523632250E+01 -0.1277505427408409E+01
 -0.1273716498678091E+01 -0.1269924741511239E+01 -0.1266130159968223E+01 -0.1262332758099869E+01 -0.1258532539947493E+01
 -0.1254729509542934E+01 -0.1250923670908582E+01 -0.1247115028057412E+01 -0.1243303584993013E+01 -0.1239489345709618E+01
 -0.1235672314192137E+01 -0.1231852494416182E+01 -0.1228029890348112E+01 -0.1224204505945041E+01 -0.1220376345154885E+01
 -0.1216545411916388E+01 -0.1212711710159149E+01 -0.1208875243803654E+01 -0.1205036016761304E+01 -0.1201194032934446E+01
 -0.1197349296216405E+01 -0.1193501810491502E+01 -0.1189651579635102E+01 -0.1185798607513623E+01 -0.1181942897984579E+01
 -0.1178084454896603E+01 -0.1174223282089474E+01 -0.1170359383394153E+01 -0.1166492762632802E+01 -0.1162623423618814E+01
 -0.1158751370156852E+01 -0.1154876606042863E+01 -0.1150999135064113E+01 -0.1147118960999213E+01 -0.1143236087618147E+01
 -0.1139350518682302E+01 -0.1135462257944492E+01 -0.1131571309148985E+01 -0.1127677676031533E+01 -0.1123781362319401E+01
 -0.1119882371731385E+01 -0.1115980707977849E+01 -0.1112076374760747E+01 -0.1108169375773651E+01 -0.1104259714701775E+01
 -0.1100347395222004E+01 -0.1096432421002921E+01 -0.1092514795704833E+01 -0.1088594522979791E+01 -0.1084671606471628E+01
 -0.1080746049815972E+01 -0.1076817856640284E+01 -0.1072887030563873E+01 -0.1068953575197928E+01 -0.1065017494145542E+01
 -0.1061078791001736E+01 -0.1057137469353489E+01 -0.1053193532779754E+01 -0.1049246984851496E+01 -0.1045297829131703E+01
 -0.1041346069175424E+01 -0.1037391708529783E+01 -0.1033434750734007E+01 -0.1029475199319460E+01 -0.1025513057809651E+01
 -0.1021548329720271E+01 -0.1017581018559212E+01 -0.1013611127826593E+01 -0.1009638661014783E+01 -0.1005663621608422E+01
 -0.1001686013084458E+01 -0.9977058389121518E+00 -0.9937231025531111E+00 -0.9897378074613192E+00 -0.9857499570831475E+00
 -0.9817595548573860E+00 -0.9777666042152640E+00 -0.9737711085804732E+00 -0.9697730713691936E+00 -0.9657724959901122E+00
 -0.9617693858444518E+00 -0.9577637443259878E+00 -0.9537555748210763E+00 -0.9497448807086717E+00 -0.9457316653603514E+00
 -0.9417159321403409E+00 -0.9376976844055375E+00 -0.9336769255055206E+00 -0.9296536587825905E+00 -0.9256278875717796E+00
 -0.9215996152008800E+00 -0.9175688449904600E+00 -0.9135355802538905E+00 -0.9094998242973664E+00 -0.9054615804199279E+00
 -0.9014208519134806E+00 -0.8973776420628209E+00 -0.8933319541456494E+00 -0.8892837914326048E+00 -0.8852331571872746E+00
 -0.8811800546662193E+00 -0.8771244871189970E+00 -0.8730664577881792E+00 -0.8690059699093773E+00 -0.8649430267112570E+00
 -0.8608776314155674E+00 -0.8568097872371530E+00 -0.8527394973839799E+00 -0.8486667650571558E+00 -0.8445915934509506E+00
 -0.8405139857528143E+00 -0.8364339451433995E+00 -0.8323514747965810E+00 -0.8282665778794779E+00 -0.8241792575524702E+00
 -0.8200895169692219E+00 -0.8159973592766995E+00 -0.8119027876151916E+00 -0.8078058051183334E+00 -0.8037064149131169E+00
 -0.7996046201199167E+00 -0.7955004238525152E+00 -0.7913938292181082E+00 -0.7872848393173371E+00 -0.7831734572443013E+00
 -0.7790596860865800E+00 -0.7749435289252521E+00 -0.7708249888349117E+00 -0.7667040688836900E+00 -0.7625807721332774E+00
 -0.7584551016389343E+00 -0.7543270604495176E+00 -0.7501966516074955E+00 -0.7460638781489707E+00 -0.7419287431036896E+00
 -0.7377912494950697E+00 -0.7336514003402171E+00 -0.7295091986499427E+00 -0.7253646474287792E+00 -0.7212177496750005E+00
 -0.7170685083806458E+00 -0.7129169265315288E+00 -0.7087630071072588E+00 -0.7046067530812613E+00 -0.7004481674207965E+00
 -0.6962872530869707E+00 -0.6921240130347623E+00 -0.6879584502130299E+00 -0.6837905675645453E+00 -0.6796203680259923E+00
 -0.6754478545279984E+00 -0.6712730299951469E+00 -0.6670958973459933E+00 -0.6629164594930889E+00 -0.6587347193429878E+00
 -0.6545506797962700E+00 -0.6503643437475654E+00 -0.6461757140855570E+00 -0.6419847936930068E+00 -0.6377915854467719E+00
 -0.6335960922178215E+00 -0.6293983168712495E+00 -0.6251982622662957E+00 -0.6209959312563617E+00 -0.6167913266890290E+00
 -0.6125844514060704E+00 -0.6083753082434730E+00 -0.6041639000314494E+00 -0.5999502295944580E+00 -0.5957342997512182E+00
 -0.5915161133147229E+00 -0.5872956730922632E+00 -0.5830729818854350E+00 -0.5788480424901633E+00 -0.5746208576967117E+00
 -0.5703914302897048E+00 -0.5661597630481378E+00 -0.5619258587453968E+00 -0.5576897201492704E+00 -0.5534513500219752E+00
 -0.5492107511201556E+00 -0.5449679261949170E+00 -0.5407228779918253E+00 -0.5364756092509371E+00 -0.5322261227068040E+00
 -0.5279744210884909E+00 -0.5237205071195966E+00 -0.5194643835182650E+00 -0.5152060529971966E+00 -0.5109455182636731E+00
 -0.5066827820195606E+00 -0.5024178469613393E+00 -0.4981507157801063E+00 -0.4938813911615929E+00 -0.4896098757861842E+00
 -0.4853361723289326E+00 -0.4810602834595705E+00 -0.4767822118425230E+00 -0.4725019601369284E+00 -0.4682195309966534E+00
 -0.4639349270702965E+00 -0.4596481510012170E+00 -0.4553592054275403E+00 -0.4510680929821775E+00 -0.4467748162928336E+00
 -0.4424793779820321E+00 -0.4381817806671118E+00 -0.4338820269602677E+00 -0.4295801194685374E+00 -0.4252760607938311E+00
 -0.4209698535329441E+00 -0.4166615002775689E+00 -0.4123510036143088E+00 -0.4080383661246890E+00 -0.4037235903851809E+00
 -0.3994066789672027E+00 -0.3950876344371436E+00 -0.3907664593563698E+00 -0.3864431562812480E+00 -0.3821177277631477E+00
 -0.3777901763484611E+00 -0.3734605045786157E+00 -0.3691287149900919E+00 -0.3647948101144269E+00 -0.3604587924782384E+00
 -0.3561206646032261E+00 -0.3517804290062041E+00 -0.3474380881990926E+00 -0.3430936446889435E+00 -0.3387471009779501E+00
 -0.3343984595634658E+00 -0.3300477229380095E+00 -0.3256948935892793E+00 -0.3213399740001705E+00 -0.3169829666487894E+00
 -0.3126238740084566E+00 -0.3082626985477296E+00 -0.3038994427304131E+00 -0.2995341090155687E+00 -0.2951666998575339E+00
 -0.2907972177059238E+00 -0.2864256650056573E+00 -0.2820520441969600E+00 -0.2776763577153828E+00 -0.2732986079918073E+00
 -0.2689187974524659E+00 -0.2645369285189497E+00 -0.2601530036082259E+00 -0.2557670251326393E+00 -0.2513789954999371E+00
 -0.2469889171132760E+00 -0.2425967923712304E+00 -0.2382026236678114E+00 -0.2338064133924760E+00 -0.2294081639301420E+00
 -0.2250078776611890E+00 -0.2206055569614846E+00 -0.2162012042023918E+00 -0.2117948217507781E+00 -0.2073864119690261E+00
 -0.2029759772150536E+00 -0.1985635198423154E+00 -0.1941490421998238E+00 -0.1897325466321516E+00 -0.1853140354794506E+00
 -0.1808935110774657E+00 -0.1764709757575356E+00 -0.1720464318466143E+00 -0.1676198816672756E+00 -0.1631913275377332E+00
 -0.1587607717718447E+00 -0.1543282166791249E+00 -0.1498936645647559E+00 -0.1454571177296060E+00 -0.1410185784702317E+00
 -0.1365780490788910E+00 -0.1321355318435576E+00 -0.1276910290479357E+00 -0.1232445429714563E+00 -0.1187960758893081E+00
 -0.1143456300724306E+00 -0.1098932077875412E+00 -0.1054388112971297E+00 -0.1009824428594853E+00 -0.9652410472869517E-01
 -0.9206379915466462E-01 -0.8760152838311908E-01 -0.8313729465562041E-01 -0.7867110020958300E-01 -0.7420294727826703E-01
 -0.6973283809081096E-01 -0.6526077487222459E-01 -0.6078675984341186E-01 -0.5631079522117365E-01 -0.5183288321822280E-01
 -0.4735302604318892E-01 -0.4287122590063740E-01 -0.3838748499107651E-01 -0.3390180551096241E-01 -0.2941418965271610E-01
 -0.2492463960473153E-01 -0.2043315755138712E-01 -0.1593974567305191E-01 -0.1144440614610256E-01 -0.6947141142927584E-02
 -0.2447952831942361E-02  0.2053156622405352E-02  0.6556185059626646E-02  0.1106113032316580E-01  0.1556799026041909E-01
  0.2007676272268904E-01  0.2458744556521287E-01  0.2910003664711620E-01  0.3361453383142819E-01  0.3813093498506116E-01
  0.4264923797880558E-01  0.4716944068731496E-01  0.5169154098909794E-01  0.5621553676650850E-01  0.6074142590574006E-01
  0.6526920629681092E-01  0.6979887583355512E-01  0.7433043241361693E-01  0.7886387393843326E-01  0.8339919831323367E-01
  0.8793640344702137E-01  0.9247548725257694E-01  0.9701644764642932E-01  0.1015592825488650E+00  0.1061039898839095E+00
  0.1106505675793199E+00  0.1151990135665681E+00  0.1197493257808508E+00  0.1243015021610563E+00  0.1288555406497759E+00
  0.1334114391932762E+00  0.1379691957415079E+00  0.1425288082480814E+00  0.1470902746702689E+00  0.1516535929689875E+00
  0.1562187611087909E+00  0.1607857770578685E+00  0.1653546387880254E+00  0.1699253442746813E+00  0.1744978914968550E+00
  0.1790722784371630E+00  0.1836485030818024E+00  0.1882265634205521E+00  0.1928064574467519E+00  0.1973881831573030E+00
  0.2019717385526535E+00  0.2065571216367923E+00  0.2111443304172461E+00  0.2157333629050553E+00  0.2203242171147821E+00
  0.2249168910644885E+00  0.2295113827757370E+00  0.2341076902735805E+00  0.2387058115865449E+00  0.2433057447466331E+00
  0.2479074877893108E+00  0.2525110387534937E+00  0.2571163956815463E+00  0.2617235566192694E+00  0.2663325196158904E+00
  0.2709432827240639E+00  0.2755558439998486E+00  0.2801702015027123E+00  0.2847863532955133E+00  0.2894042974445015E+00
  0.2940240320193033E+00  0.2986455550929181E+00  0.3032688647417016E+00  0.3078939590453695E+00  0.3125208360869827E+00
  0.3171494939529341E+00  0.3217799307329566E+00  0.3264121445200959E+00  0.3310461334107117E+00  0.3356818955044760E+00
  0.3403194289043495E+00  0.3449587317165901E+00  0.3495998020507307E+00  0.3542426380195834E+00  0.3588872377392199E+00
  0.3635335993289777E+00  0.3681817209114330E+00  0.3728316006124132E+00  0.3774832365609788E+00  0.3821366268894145E+00
  0.3867917697332219E+00  0.3914486632311148E+00  0.3961073055250141E+00  0.4007676947600316E+00  0.4054298290844663E+00
  0.4100937066498007E+00  0.4147593256106871E+00  0.4194266841249459E+00  0.4240957803535519E+00  0.4287666124606274E+00
  0.4334391786134450E+00  0.4381134769824029E+00  0.4427895057410338E+00  0.4474672630659833E+00  0.4521467471370154E+00
  0.4568279561369938E+00  0.4615108882518846E+00  0.4661955416707407E+00  0.4708819145856994E+00  0.4755700051919710E+00
  0.4802598116878373E+00  0.4849513322746363E+00  0.4896445651567666E+00  0.4943395085416669E+00  0.4990361606398162E+00
  0.5037345196647274E+00  0.5084345838329382E+00  0.5131363513639985E+00  0.5178398204804778E+00  0.5225449894079407E+00
  0.5272518563749528E+00  0.5319604196130674E+00  0.5366706773568176E+00  0.5413826278437172E+00  0.5460962693142435E+00
  0.5508116000118359E+00  0.5555286181828855E+00  0.5602473220767391E+00  0.5649677099456768E+00  0.5696897800449088E+00
  0.5744135306325817E+00  0.5791389599697553E+00  0.5838660663204033E+00  0.5885948479514060E+00  0.5933253031325412E+00
  0.5980574301364820E+00  0.6027912272387846E+00  0.6075266927178857E+00  0.6122638248550986E+00  0.6170026219345902E+00
  0.6217430822433969E+00  0.6264852040714073E+00  0.6312289857113470E+00  0.6359744254587889E+00  0.6407215216121371E+00
  0.6454702724726162E+00  0.6502206763442782E+00  0.6549727315339804E+00  0.6597264363513912E+00  0.6644817891089732E+00
  0.6692387881219893E+00  0.6739974317084885E+00  0.6787577181892926E+00  0.6835196458880070E+00  0.6882832131309958E+00
  0.6930484182473922E+00  0.6978152595690801E+00  0.7025837354306896E+00  0.7073538441695987E+00  0.7121255841259181E+00
  0.7168989536424866E+00  0.7216739510648696E+00  0.7264505747413476E+00  0.7312288230229141E+00  0.7360086942632622E+00
  0.7407901868187878E+00  0.7455732990485778E+00  0.7503580293144059E+00  0.7551443759807251E+00  0.7599323374146628E+00
  0.7647219119860134E+00  0.7695130980672322E+00  0.7743058940334312E+00  0.7791002982623699E+00  0.7838963091344573E+00
  0.7886939250327336E+00  0.7934931443428708E+00  0.7982939654531714E+00  0.8030963867545525E+00  0.8079004066405439E+00
  0.8127060235072906E+00  0.8175132357535312E+00  0.8223220417806066E+00  0.8271324399924386E+00  0.8319444287955465E+00
  0.8367580065990156E+00  0.8415731718145067E+00  0.8463899228562559E+00  0.8512082581410447E+00  0.8560281760882243E+00
  0.8608496751196894E+00  0.8656727536598740E+00  0.8704974101357585E+00  0.8753236429768467E+00  0.8801514506151779E+00
  0.8849808314853039E+00  0.8898117840242968E+00  0.8946443066717369E+00  0.8994783978697107E+00  0.9043140560627939E+00
  0.9091512796980665E+00  0.9139900672250902E+00  0.9188304170959066E+00  0.9236723277650373E+00  0.9285157976894709E+00
  0.9333608253286664E+00  0.9382074091445307E+00  0.9430555476014379E+00  0.9479052391662048E+00  0.9527564823080920E+00
  0.9576092754987934E+00  0.9624636172124394E+00  0.9673195059255913E+00  0.9721769401172266E+00  0.9770359182687341E+00
  0.9818964388639264E+00  0.9867585003890063E+00  0.9916221013325877E+00  0.9964872401856757E+00  0.1001353915441664E+01
  0.1006222125596331E+01  0.1011091869147837E+01  0.1015963144596710E+01  0.1020835950445850E+01  0.1025710285200518E+01
  0.1030586147368341E+01  0.1035463535459284E+01  0.1040342447985674E+01  0.1045222883462174E+01  0.1050104840405780E+01
  0.1054988317335828E+01  0.1059873312773979E+01  0.1064759825244214E+01  0.1069647853272830E+01  0.1074537395388438E+01
  0.1079428450121957E+01  0.1084321016006603E+01  0.1089215091577896E+01  0.1094110675373637E+01  0.1099007765933923E+01
  0.1103906361801130E+01  0.1108806461519904E+01  0.1113708063637176E+01  0.1118611166702135E+01  0.1123515769266227E+01
  0.1128421869883166E+01  0.1133329467108911E+01  0.1138238559501672E+01  0.1143149145621896E+01  0.1148061224032272E+01
  0.1152974793297721E+01  0.1157889851985389E+01  0.1162806398664646E+01  0.1167724431907078E+01  0.1172643950286491E+01
  0.1177564952378893E+01  0.1182487436762500E+01  0.1187411402017718E+01  0.1192336846727160E+01  0.1197263769475619E+01
  0.1202192168850075E+01  0.1207122043439688E+01  0.1212053391835796E+01  0.1216986212631906E+01  0.1221920504423686E+01
  0.1226856265808973E+01  0.1231793495387758E+01  0.1236732191762182E+01  0.1241672353536535E+01  0.1246613979317249E+01
  0.1251557067712894E+01  0.1256501617334177E+01  0.1261447626793929E+01  0.1266395094707107E+01  0.1271344019690792E+01
  0.1276294400364175E+01  0.1281246235348560E+01  0.1286199523267356E+01  0.1291154262746081E+01  0.1296110452412340E+01
  0.1301068090895838E+01  0.1306027176828366E+01  0.1310987708843798E+01  0.1315949685578096E+01  0.1320913105669280E+01
  0.1325877967757458E+01  0.1330844270484798E+01  0.1335812012495526E+01  0.1340781192435937E+01  0.1345751808954362E+01
  0.1350723860701195E+01  0.1355697346328874E+01  0.1360672264491870E+01  0.1365648613846695E+01  0.1370626393051888E+01
  0.1375605600768028E+01  0.1380586235657701E+01  0.1385568296385520E+01  0.1390551781618113E+01  0.1395536690024120E+01
  0.1400523020274177E+01  0.1405510771040936E+01  0.1410499940999038E+01  0.1415490528825121E+01  0.1420482533197804E+01
  0.1425475952797709E+01  0.1430470786307421E+01  0.1435467032411513E+01  0.1440464689796524E+01  0.1445463757150967E+01
  0.1450464233165316E+01  0.1455466116532009E+01  0.1460469405945433E+01  0.1465474100101935E+01  0.1470480197699809E+01
  0.1475487697439288E+01  0.1480496598022553E+01  0.1485506898153711E+01  0.1490518596538812E+01  0.1495531691885823E+01
  0.1500546182904642E+01  0.1505562068307088E+01  0.1510579346806890E+01  0.1515598017119696E+01  0.1520618077963054E+01
  0.1525639528056424E+01  0.1530662366121163E+01  0.1535686590880519E+01  0.1540712201059641E+01  0.1545739195385565E+01
  0.1550767572587205E+01  0.1555797331395358E+01  0.1560828470542704E+01  0.1565860988763788E+01  0.1570894884795027E+01
  0.1575930157374705E+01  0.1580966805242963E+01  0.1586004827141805E+01  0.1591044221815084E+01  0.1596084988008502E+01
  0.1601127124469613E+01  0.1606170629947806E+01  0.1611215503194320E+01  0.1616261742962210E+01  0.1621309348006382E+01
  0.1626358317083552E+01  0.1631408648952273E+01  0.1636460342372910E+01  0.1641513396107643E+01  0.1646567808920475E+01
  0.1651623579577203E+01  0.1656680706845437E+01  0.1661739189494589E+01  0.1666799026295865E+01  0.1671860216022267E+01
  0.1676922757448587E+01  0.1681986649351400E+01  0.1687051890509072E+01  0.1692118479701740E+01  0.1697186415711323E+01
  0.1702255697321506E+01  0.1707326323317746E+01  0.1712398292487268E+01  0.1717471603619051E+01  0.1722546255503838E+01
  0.1727622246934123E+01  0.1732699576704151E+01  0.1737778243609918E+01  0.1742858246449158E+01  0.1747939584021347E+01
  0.1753022255127700E+01  0.1758106258571160E+01  0.1763191593156406E+01  0.1768278257689839E+01  0.1773366250979582E+01
  0.1778455571835480E+01  0.1783546219069088E+01  0.1788638191493686E+01  0.1793731487924244E+01  0.1798826107177456E+01
  0.1803922048071705E+01  0.1809019309427077E+01  0.1814117890065357E+01  0.1819217788810012E+01  0.1824319004486212E+01
  0.1829421535920794E+01  0.1834525381942291E+01  0.1839630541380907E+01  0.1844737013068525E+01  0.1849844795838694E+01
  0.1854953888526639E+01  0.1860064289969240E+01  0.1865175999005052E+01  0.1870289014474272E+01  0.1875403335218765E+01
  0.1880518960082044E+01  0.1885635887909267E+01  0.1890754117547240E+01  0.1895873647844409E+01  0.1900994477650860E+01
  0.1906116605818319E+01  0.1911240031200131E+01  0.1916364752651287E+01  0.1921490769028386E+01  0.1926618079189665E+01
  0.1931746681994969E+01  0.1936876576305766E+01  0.1942007760985133E+01  0.1947140234897758E+01  0.1952273996909932E+01
  0.1957409045889555E+01  0.1962545380706125E+01  0.1967683000230738E+01  0.1972821903336079E+01  0.1977962088896427E+01
  0.1983103555787651E+01  0.1988246302887198E+01  0.1993390329074106E+01  0.1998535633228979E+01  0.2003682214234005E+01
  0.2008830070972943E+01  0.2013979202331116E+01  0.2019129607195419E+01  0.2024281284454307E+01  0.2029434232997794E+01
  0.2034588451717451E+01  0.2039743939506402E+01  0.2044900695259326E+01  0.2050058717872442E+01  0.2055218006243523E+01
  0.2060378559271875E+01  0.2065540375858347E+01  0.2070703454905319E+01  0.2075867795316714E+01  0.2081033395997968E+01
  0.2086200255856062E+01  0.2091368373799487E+01  0.2096537748738261E+01  0.2101708379583915E+01  0.2106880265249503E+01
  0.2112053404649584E+01  0.2117227796700223E+01  0.2122403440319001E+01  0.2127580334424995E+01  0.2132758477938784E+01
  0.2137937869782443E+01  0.2143118508879540E+01  0.2148300394155141E+01  0.2153483524535795E+01  0.2158667898949537E+01
  0.2163853516325889E+01  0.2169040375595846E+01  0.2174228475691886E+01  0.2179417815547954E+01  0.2184608394099481E+01
  0.2189800210283352E+01  0.2194993263037926E+01  0.2200187551303015E+01  0.2205383074019907E+01  0.2210579830131334E+01
  0.2215777818581484E+01  0.2220977038316008E+01  0.2226177488281994E+01  0.2231379167427979E+01  0.2236582074703944E+01
  0.2241786209061315E+01  0.2246991569452948E+01  0.2252198154833141E+01  0.2257405964157621E+01  0.2262614996383545E+01
  0.2267825250469499E+01  0.2273036725375492E+01  0.2278249420062951E+01  0.2283463333494729E+01  0.2288678464635090E+01
  0.2293894812449712E+01  0.2299112375905687E+01  0.2304331153971508E+01  0.2309551145617084E+01  0.2314772349813714E+01
  0.2319994765534108E+01  0.2325218391752367E+01  0.2330443227443992E+01  0.2335669271585872E+01  0.2340896523156283E+01
  0.2346124981134894E+01  0.2351354644502759E+01  0.2356585512242307E+01  0.2361817583337346E+01  0.2367050856773067E+01
  0.2372285331536033E+01  0.2377521006614177E+01  0.2382757880996791E+01  0.2387995953674555E+01  0.2393235223639493E+01
  0.2398475689884995E+01  0.2403717351405816E+01  0.2408960207198062E+01  0.2414204256259184E+01  0.2419449497588002E+01
  0.2424695930184667E+01  0.2429943553050687E+01  0.2435192365188905E+01  0.2440442365603509E+01  0.2445693553300027E+01
  0.2450945927285316E+01  0.2456199486567574E+01  0.2461454230156321E+01  0.2466710157062415E+01  0.2471967266298028E+01
  0.2477225556876668E+01  0.2482485027813152E+01  0.2487745678123622E+01  0.2493007506825538E+01  0.2498270512937663E+01
  0.2503534695480078E+01  0.2508800053474177E+01  0.2514066585942651E+01  0.2519334291909495E+01  0.2524603170400018E+01
  0.2529873220440806E+01  0.2535144441059762E+01  0.2540416831286068E+01  0.2545690390150209E+01  0.2550965116683953E+01
  0.2556241009920352E+01  0.2561518068893749E+01  0.2566796292639763E+01  0.2572075680195298E+01  0.2577356230598535E+01
  0.2582637942888919E+01  0.2587920816107182E+01  0.2593204849295324E+01  0.2598490041496601E+01  0.2603776391755547E+01
  0.2609063899117952E+01  0.2614352562630871E+01  0.2619642381342617E+01  0.2624933354302753E+01  0.2630225480562106E+01
  0.2635518759172752E+01  0.2640813189188004E+01  0.2646108769662441E+01  0.2651405499651872E+01  0.2656703378213358E+01
  0.2662002404405193E+01  0.2667302577286909E+01  0.2672603895919285E+01  0.2677906359364318E+01  0.2683209966685247E+01
  0.2688514716946530E+01  0.2693820609213859E+01  0.2699127642554155E+01  0.2704435816035546E+01  0.2709745128727390E+01
  0.2715055579700268E+01  0.2720367168025962E+01  0.2725679892777479E+01  0.2730993753029030E+01  0.2736308747856040E+01
  0.2741624876335137E+01  0.2746942137544155E+01  0.2752260530562131E+01  0.2757580054469299E+01  0.2762900708347094E+01
  0.2768222491278142E+01  0.2773545402346270E+01  0.2778869440636491E+01  0.2784194605235007E+01  0.2789520895229210E+01
  0.2794848309707678E+01  0.2800176847760166E+01  0.2805506508477612E+01  0.2810837290952134E+01  0.2816169194277026E+01
  0.2821502217546759E+01  0.2826836359856967E+01  0.2832171620304466E+01  0.2837507997987231E+01  0.2842845492004404E+01
  0.2848184101456292E+01  0.2853523825444368E+01  0.2858864663071257E+01  0.2864206613440746E+01  0.2869549675657781E+01
  0.2874893848828448E+01  0.2880239132059997E+01  0.2885585524460825E+01  0.2890933025140469E+01  0.2896281633209619E+01
  0.2901631347780107E+01  0.2906982167964898E+01  0.2912334092878107E+01  0.2917687121634979E+01  0.2923041253351892E+01
  0.2928396487146366E+01  0.2933752822137041E+01  0.2939110257443694E+01  0.2944468792187223E+01  0.2949828425489656E+01
  0.2955189156474140E+01  0.2960550984264941E+01  0.2965913907987450E+01  0.2971277926768170E+01  0.2976643039734717E+01
  0.2982009246015827E+01  0.2987376544741338E+01  0.2992744935042205E+01  0.2998114416050483E+01  0.3003484986899338E+01
  0.3008856646723036E+01  0.3014229394656938E+01  0.3019603229837516E+01  0.3024978151402332E+01  0.3030354158490045E+01
  0.3035731250240403E+01  0.3041109425794249E+01  0.3046488684293519E+01  0.3051869024881229E+01  0.3057250446701484E+01
  0.3062632948899476E+01  0.3068016530621471E+01  0.3073401191014820E+01  0.3078786929227952E+01  0.3084173744410368E+01
  0.3089561635712649E+01  0.3094950602286447E+01  0.3100340643284477E+01  0.3105731757860529E+01  0.3111123945169462E+01
  0.3116517204367194E+01  0.3121911534610707E+01  0.3127306935058043E+01  0.3132703404868312E+01  0.3138100943201667E+01
  0.3143499549219330E+01  0.3148899222083562E+01  0.3154299960957690E+01  0.3159701765006083E+01  0.3165104633394158E+01
  0.3170508565288384E+01  0.3175913559856265E+01  0.3181319616266356E+01  0.3186726733688249E+01  0.3192134911292575E+01
  0.3197544148251002E+01  0.3202954443736236E+01  0.3208365796922013E+01  0.3213778206983105E+01  0.3219191673095303E+01
  0.3224606194435445E+01  0.3230021770181372E+01  0.3235438399511974E+01  0.3240856081607145E+01  0.3246274815647808E+01
  0.3251694600815900E+01  0.3257115436294387E+01  0.3262537321267241E+01  0.3267960254919446E+01  0.3273384236437006E+01
  0.3278809265006931E+01  0.3284235339817242E+01  0.3289662460056957E+01  0.3295090624916121E+01  0.3300519833585761E+01
  0.2578844276293752E+02  0.2578844276293752E+02  0.2578844276293752E+02  0.2578844276293752E+02  0.2578844276293752E+02
  0.2578844276293752E+02  0.2578844276293752E+02  0.2578844276293752E+02  0.2578844276293752E+02  0.2578844276293752E+02
  0.2578844276293752E+02  0.2578844276293752E+02  0.2578844276293752E+02  0.2578844276293752E+02  0.2578844276293752E+02
  0.2578844276293752E+02  0.2578844276293752E+02  0.2578844276293752E+02  0.2578844276293752E+02  0.2578844276293752E+02
  0.2578844276293752E+02  0.2578844276293752E+02  0.2578844276293752E+02  0.2578844276293752E+02  0.2578844276293752E+02
  0.2578844276293752E+02  0.2578844276293752E+02  0.2578844276293752E+02  0.2578844276293752E+02  0.2578844276293752E+02
  0.2578844276293752E+02  0.2578844276293752E+02  0.2578844276293752E+02  0.2578844276293752E+02  0.2578844276293752E+02
  0.2578844276293752E+02  0.2578844276293752E+02  0.2578844276293752E+02  0.2578844276293752E+02  0.2578844276293752E+02
  0.2578844276293752E+02  0.2578844276293752E+02  0.2578844276293752E+02  0.2578844276293752E+02  0.2578844276293752E+02
  0.2578844276293752E+02  0.2578844276293752E+02  0.2578844276293752E+02  0.2578844276293752E+02  0.2578844276293752E+02
  0.2578844276293752E+02  0.2578844276293752E+02  0.2578844276293752E+02  0.2578844276293752E+02  0.2578844276293752E+02
  0.2578844276293752E+02  0.2578844276293752E+02  0.2578844276293752E+02  0.2578844276293752E+02  0.2578844276293752E+02
  0.2578844276293752E+02  0.2578844276293752E+02  0.2578844276293752E+02  0.2578844276293752E+02  0.2578844276293752E+02
  0.2578844276293752E+02  0.2578844276293752E+02  0.2578844276293752E+02  0.2578844276293752E+02  0.2578844276293752E+02
  0.2578844276293752E+02  0.2578844276293752E+02  0.2578844276293752E+02  0.2578844276293752E+02  0.2578844276293752E+02
  0.2578844276293752E+02  0.2578844276293752E+02  0.2578844276293752E+02  0.2578844276293752E+02  0.2578844276293752E+02
  0.2578844276293752E+02  0.2578844276293752E+02  0.2578844276293752E+02  0.2578844276293752E+02  0.2578844276293752E+02
  0.2578844276293752E+02  0.2578844276293752E+02  0.2578844276293752E+02  0.2578844276293752E+02  0.2578844276293752E+02
  0.2578844276293752E+02  0.2578844276293752E+02  0.2578844276293752E+02  0.2578844276293752E+02  0.2578844276293752E+02
  0.2578844276293752E+02  0.2578844276293752E+02  0.2578844276293752E+02  0.2578844276293752E+02  0.2578844276293752E+02
  0.2578844276293752E+02  0.2578844276293752E+02  0.2578844276293752E+02  0.2578844276293752E+02  0.2578844276293752E+02
  0.2578844276293752E+02  0.2578844276293752E+02  0.2578844276293752E+02  0.2578844276293752E+02  0.2578844276293752E+02
  0.2578844276293752E+02  0.2578844276293752E+02  0.2578844276293752E+02  0.2578844276293752E+02  0.2578844276293752E+02
  0.2578844276293752E+02  0.2578844276293752E+02  0.2578844276293752E+02  0.2578844276293752E+02  0.2578844276293752E+02
  0.2578844276293752E+02  0.2578844276293752E+02  0.2578844276293752E+02  0.2578844276293752E+02  0.2578844276293752E+02
  0.2578844276293752E+02  0.2578844276293752E+02  0.2578844276293752E+02  0.2578844276293752E+02  0.2578844276293752E+02
  0.2578844276293752E+02  0.2578844276293752E+02  0.2578844276293752E+02  0.2578844276293752E+02  0.2578844276293752E+02
  0.2578844276293752E+02  0.2578844276293752E+02  0.2578844276293752E+02  0.2578844276293752E+02  0.2578844276293752E+02
  0.2578844276293752E+02  0.2578844276293752E+02  0.2578844276293752E+02  0.2578844276293752E+02  0.2578844276293752E+02
  0.2578844276293752E+02  0.2578844276293752E+02  0.2578844276293752E+02  0.2578844276293752E+02  0.2578844276293752E+02
  0.2578844276293752E+02  0.2578844276293752E+02  0.2578844276293752E+02  0.2572131452474801E+02  0.2561758874231896E+02
  0.2551428047652287E+02  0.2541138807679134E+02  0.2530890989796801E+02  0.2520684430033102E+02  0.2510518964961384E+02
  0.2500394431702461E+02  0.2490310667926395E+02  0.2480267511854132E+02  0.2470264802259008E+02  0.2460302378468120E+02
  0.2450380080363556E+02  0.2440497748383519E+02  0.2430655223523315E+02  0.2420852347336244E+02  0.2411088961934355E+02
  0.2401364909989118E+02  0.2391680034731974E+02  0.2382034179954802E+02  0.2372427190010273E+02  0.2362858909812119E+02
  0.2353329184835318E+02  0.2343837861116187E+02  0.2334384785252387E+02  0.2324969804402863E+02  0.2315592766287691E+02
  0.2306253519187862E+02  0.2296951911944995E+02  0.2287687793960969E+02  0.2278461015197508E+02  0.2269271426175685E+02
  0.2260118877975387E+02  0.2251003222234687E+02  0.2241924311149197E+02  0.2232881997471349E+02  0.2223876134509618E+02
  0.2214906576127710E+02  0.2205973176743695E+02  0.2197075791329092E+02  0.2188214275407915E+02  0.2179388485055674E+02
  0.2170598276898333E+02  0.2161843508111238E+02  0.2153124036418004E+02  0.2144439720089354E+02  0.2135790417941945E+02
  0.2127175989337150E+02  0.2118596294179807E+02  0.2110051192916944E+02  0.2101540546536478E+02  0.2093064216565866E+02
  0.2084622065070771E+02  0.2076213954653660E+02  0.2067839748452401E+02  0.2059499310138839E+02  0.2051192503917343E+02
  0.2042919194523336E+02  0.2034679247221798E+02  0.2026472527805772E+02  0.2018298902594828E+02  0.2010158238433522E+02
  0.2002050402689841E+02  0.1993975263253627E+02  0.1985932688535002E+02  0.1977922547462750E+02  0.1969944709482721E+02
  0.1961999044556202E+02  0.1954085423158281E+02  0.1946203716276205E+02  0.1938353795407721E+02  0.1930535532559421E+02
  0.1922748800245066E+02  0.1914993471483898E+02  0.1907269419798969E+02  0.1899576519215436E+02  0.1891914644258864E+02
  0.1884283669953523E+02  0.1876683471820675E+02  0.1869113925876856E+02  0.1861574908632162E+02  0.1854066297088525E+02
  0.1846587968737975E+02  0.1839139801560928E+02  0.1831721674024437E+02  0.1824333465080465E+02  0.1816975054164149E+02
  0.1809646321192054E+02  0.1802347146560441E+02  0.1795077411143521E+02  0.1787836996291717E+02  0.1780625783829918E+02
  0.1773443656055742E+02  0.1766290495737789E+02  0.1759166186113902E+02  0.1752070610889429E+02  0.1745003654235478E+02
  0.1737965200787181E+02  0.1730955135641959E+02  0.1723973344357782E+02  0.1717019712951436E+02  0.1710094127896796E+02
  0.1703196476123089E+02  0.1696326645013171E+02  0.1689484522401804E+02  0.1682669996573929E+02  0.1675882956262947E+02
  0.1669123290649005E+02  0.1662390889357287E+02  0.1655685642456293E+02  0.1649007440456140E+02  0.1642356174306859E+02
  0.1635731735396693E+02  0.1629134015550401E+02  0.1622562907027569E+02  0.1616018302520918E+02  0.1609500095154624E+02
  0.1603008178482638E+02  0.1596542446487006E+02  0.1590102793576202E+02  0.1583689114583462E+02  0.1577301304765116E+02
  0.1570939259798938E+02  0.1564602875782487E+02  0.1558292049231459E+02  0.1552006677078046E+02  0.1545746656669298E+02
  0.1539511885765480E+02  0.1533302262538457E+02  0.1527117685570057E+02  0.1520958053850459E+02  0.1514823266776575E+02
  0.1508713224150446E+02  0.1502627826177629E+02  0.1496566973465610E+02  0.1490530567022200E+02  0.1484518508253951E+02
  0.1478530698964576E+02  0.1472567041353364E+02  0.1466627438013611E+02  0.1460711791931056E+02  0.1454820006482314E+02
  0.1448951985433322E+02  0.1443107632937786E+02  0.1437286853535639E+02  0.1431489552151496E+02  0.1425715634093123E+02
  0.1419965005049905E+02  0.1414237571091322E+02  0.1408533238665434E+02  0.1402851914597364E+02  0.1397193506087789E+02
  0.1391557920711445E+02  0.1385945066415624E+02  0.1380354851518683E+02  0.1374787184708561E+02  0.1369241975041300E+02
  0.1363719131939566E+02  0.1358218565191182E+02  0.1352740184947664E+02  0.1347283901722764E+02  0.1341849626391015E+02
  0.1336437270186286E+02  0.1331046744700338E+02  0.1325677961881388E+02  0.1320330834032681E+02  0.1315005273811059E+02
  0.1309701194225547E+02  0.1304418508635935E+02  0.1299157130751368E+02  0.1293916974628944E+02  0.1288697954672318E+02
  0.1283499985630303E+02  0.1278322982595487E+02  0.1273166861002849E+02  0.1268031536628385E+02  0.1262916925587731E+02
  0.1257822944334805E+02  0.1252749509660436E+02  0.1247696538691014E+02  0.1242663948887146E+02  0.1237651658042298E+02
  0.1232659584281465E+02  0.1227687646059831E+02  0.1222735762161448E+02  0.1217803851697901E+02  0.1212891834106999E+02
  0.1207999629151453E+02  0.1203127156917576E+02  0.1198274337813975E+02  0.1193441092570252E+02  0.1188627342235715E+02
  0.1183833008178087E+02  0.1179058012082227E+02  0.1174302275948847E+02  0.1169565722093244E+02  0.1164848273144032E+02
  0.1160149852041877E+02  0.1155470382038243E+02  0.1150809786694137E+02  0.1146167989878864E+02  0.1141544915768782E+02
  0.1136940488846066E+02  0.1132354633897475E+02  0.1127787276013127E+02  0.1123238340585270E+02  0.1118707753307072E+02
  0.1114195440171401E+02  0.1109701327469625E+02  0.1105225341790397E+02  0.1100767410018471E+02  0.1096327459333494E+02
  0.1091905417208829E+02  0.1087501211410363E+02  0.1083114769995333E+02  0.1078746021311144E+02  0.1074394893994210E+02
  0.1070061316968779E+02  0.1065745219445776E+02  0.1061446530921652E+02  0.1057165181177220E+02  0.1052901100276523E+02
  0.1048654218565682E+02  0.1044424466671764E+02  0.1040211775501646E+02  0.1036016076240886E+02  0.1031837300352604E+02
  0.1027675379576357E+02  0.1023530245927029E+02  0.1019401831693718E+02  0.1015290069438629E+02  0.1011194891995977E+02
  0.1007116232470885E+02  0.1003054024238295E+02  0.9990082009418796E+01  0.9949786964929563E+01  0.9909654450694092E+01
  0.9869683811146142E+01  0.9829874393363689E+01  0.9790225547058231E+01  0.9750736624564215E+01  0.9711406980828416E+01
  0.9672235973399420E+01  0.9633222962417133E+01  0.9594367310602323E+01  0.9555668383246211E+01  0.9517125548200108E+01
  0.9478738175865093E+01  0.9440505639181717E+01  0.9402427313619762E+01  0.9364502577168068E+01  0.9326730810324328E+01
  0.9289111396085001E+01  0.9251643719935227E+01  0.9214327169838784E+01  0.9177161136228088E+01  0.9140145011994264E+01
  0.9103278192477175E+01  0.9066560075455605E+01  0.9029990061137385E+01  0.8993567552149603E+01  0.8957291953528848E+01
  0.8921162672711507E+01  0.8885179119524050E+01  0.8849340706173418E+01  0.8813646847237429E+01  0.8778096959655182E+01
  0.8742690462717558E+01  0.8707426778057734E+01  0.8672305329641722E+01  0.8637325543758969E+01  0.8602486849012994E+01
  0.8567788676312029E+01  0.8533230458859743E+01  0.8498811632145991E+01  0.8464531633937558E+01  0.8430389904269019E+01
  0.8396385885433560E+01  0.8362519021973885E+01  0.8328788760673120E+01  0.8295194550545823E+01  0.8261735842828925E+01
  0.8228412090972803E+01  0.8195222750632349E+01  0.8162167279658071E+01  0.8129245138087233E+01  0.8096455788135053E+01
  0.8063798694185886E+01  0.8031273322784516E+01  0.7998879142627404E+01  0.7966615624554037E+01  0.7934482241538269E+01
  0.7902478468679710E+01  0.7870603783195166E+01  0.7838857664410091E+01  0.7807239593750080E+01  0.7775749054732400E+01
  0.7744385532957543E+01  0.7713148516100856E+01  0.7682037493904127E+01  0.7651051958167296E+01  0.7620191402740101E+01
  0.7589455323513866E+01  0.7558843218413230E+01  0.7528354587387946E+01  0.7497988932404739E+01  0.7467745757439140E+01
  0.7437624568467399E+01  0.7407624873458420E+01  0.7377746182365708E+01  0.7347988007119389E+01  0.7318349861618197E+01
  0.7288831261721572E+01  0.7259431725241735E+01  0.7230150771935825E+01  0.7200987923498013E+01  0.7171942703551752E+01
  0.7143014637641941E+01  0.7114203253227209E+01  0.7085508079672169E+01  0.7056928648239760E+01  0.7028464492083553E+01
  0.7000115146240170E+01  0.6971880147621649E+01  0.6943759035007908E+01  0.6915751349039180E+01  0.6887856632208551E+01
  0.6860074428854436E+01  0.6832404285153190E+01  0.6804845749111655E+01  0.6777398370559788E+01  0.6750061701143309E+01
  0.6722835294316387E+01  0.6695718705334328E+01  0.6668711491246313E+01  0.6641813210888179E+01  0.6615023424875192E+01
  0.6588341695594880E+01  0.6561767587199888E+01  0.6535300665600845E+01  0.6508940498459288E+01  0.6482686655180593E+01
  0.6456538706906943E+01  0.6430496226510314E+01  0.6404558788585509E+01  0.6378725969443203E+01  0.6352997347103029E+01
  0.6327372501286679E+01  0.6301851013411039E+01  0.6276432466581342E+01  0.6251116445584385E+01  0.6225902536881715E+01
  0.6200790328602901E+01  0.6175779410538778E+01  0.6150869374134778E+01  0.6126059812484229E+01  0.6101350320321724E+01
  0.6076740494016494E+01  0.6052229931565820E+01  0.6027818232588452E+01  0.6003504998318096E+01  0.5979289831596870E+01
  0.5955172336868841E+01  0.5931152120173541E+01  0.5907228789139558E+01  0.5883401952978098E+01  0.5859671222476623E+01
  0.5836036209992486E+01  0.5812496529446594E+01  0.5789051796317108E+01  0.5765701627633164E+01  0.5742445641968610E+01
  0.5719283459435773E+01  0.5696214701679267E+01  0.5673238991869797E+01  0.5650355954698015E+01  0.5627565216368390E+01
  0.5604866404593083E+01  0.5582259148585894E+01  0.5559743079056184E+01  0.5537317828202852E+01  0.5514983029708319E+01
  0.5492738318732562E+01  0.5470583331907126E+01  0.5448517707329217E+01  0.5426541084555773E+01  0.5404653104597581E+01
  0.5382853409913411E+01  0.5361141644404184E+01  0.5339517453407137E+01  0.5317980483690054E+01  0.5296530383445470E+01
  0.5275166802284948E+01  0.5253889391233338E+01  0.5232697802723087E+01  0.5211591690588556E+01  0.5190570710060363E+01
  0.5169634517759760E+01  0.5148782771693017E+01  0.5128015131245837E+01  0.5107331257177794E+01  0.5086730811616786E+01
  0.5066213458053526E+01  0.5045778861336033E+01  0.5025426687664169E+01  0.5005156604584172E+01  0.4984968280983242E+01
  0.4964861387084119E+01  0.4944835594439707E+01  0.4924890575927696E+01  0.4905026005745230E+01  0.4885241559403577E+01
  0.4865536913722837E+01  0.4845911746826651E+01  0.4826365738136959E+01  0.4806898568368741E+01  0.4787509919524827E+01
  0.4768199474890686E+01  0.4748966919029253E+01  0.4729811937775789E+01  0.4710734218232728E+01  0.4691733448764584E+01
  0.4672809318992857E+01  0.4653961519790958E+01  0.4635189743279157E+01  0.4616493682819565E+01  0.4597873033011114E+01
  0.4579327489684578E+01  0.4560856749897592E+01  0.4542460511929717E+01  0.4524138475277498E+01  0.4505890340649569E+01
  0.4487715809961752E+01  0.4469614586332199E+01  0.4451586374076529E+01  0.4433630878703012E+01  0.4415747806907744E+01
  0.4397936866569873E+01  0.4380197766746813E+01  0.4362530217669494E+01  0.4344933930737636E+01  0.4327408618515026E+01
  0.4309953994724830E+01  0.4292569774244908E+01  0.4275255673103167E+01  0.4258011408472912E+01  0.4240836698668232E+01
  0.4223731263139404E+01  0.4206694822468291E+01  0.4189727098363802E+01  0.4172827813657327E+01  0.4155996692298225E+01
  0.4139233459349297E+01  0.4122537840982310E+01  0.4105909564473518E+01  0.4089348358199207E+01  0.4072853951631259E+01
  0.4056426075332736E+01  0.4040064460953463E+01  0.4023768841225674E+01  0.4007538949959613E+01  0.3991374522039213E+01
  0.3975275293417747E+01  0.3959241001113528E+01  0.3943271383205601E+01  0.3927366178829470E+01  0.3911525128172847E+01
  0.3895747972471385E+01  0.3880034454004474E+01  0.3864384316091016E+01  0.3848797303085238E+01  0.3833273160372520E+01
  0.3817811634365225E+01  0.3802412472498567E+01  0.3787075423226482E+01  0.3771800236017514E+01  0.3756586661350731E+01
  0.3741434450711641E+01  0.3726343356588143E+01  0.3711313132466469E+01  0.3696343532827169E+01  0.3681434313141102E+01
  0.3666585229865428E+01  0.3651796040439644E+01  0.3637066503281613E+01  0.3622396377783620E+01  0.3607785424308448E+01
  0.3593233404185452E+01  0.3578740079706667E+01  0.3564305214122928E+01  0.3549928571639995E+01  0.3535609917414709E+01
  0.3521349017551147E+01  0.3507145639096807E+01  0.3492999550038809E+01  0.3478910519300089E+01  0.3464878316735641E+01
  0.3450902713128747E+01  0.3436983480187231E+01  0.3423120390539743E+01  0.3409313217732029E+01  0.3395561736223247E+01
  0.3381865721382268E+01  0.3368224949484016E+01  0.3354639197705814E+01  0.3341108244123739E+01  0.3327631867708997E+01
  0.3314209848324321E+01  0.3300841966720359E+01  0.3287528004532114E+01  0.3274267744275356E+01  0.3261060969343085E+01
  0.3247907464001981E+01  0.3234807013388888E+01  0.3221759403507304E+01  0.3208764421223876E+01  0.3195821854264935E+01
  0.3182931491213012E+01  0.3170093121503391E+01  0.3157306535420676E+01  0.3144571524095350E+01  0.3131887879500382E+01
  0.3119255394447811E+01  0.3106673862585374E+01  0.3094143078393132E+01  0.3081662837180107E+01  0.3069232935080944E+01
  0.3056853169052587E+01  0.3044523336870944E+01  0.3032243237127604E+01  0.3020012669226531E+01  0.3007831433380802E+01
  0.2995699330609328E+01  0.2983616162733612E+01  0.2971581732374518E+01  0.2959595842949032E+01  0.2947658298667061E+01
  0.2935768904528233E+01  0.2923927466318711E+01  0.2912133790608021E+01  0.2900387684745889E+01  0.2888688956859097E+01
  0.2877037415848354E+01  0.2865432871385164E+01  0.2853875133908722E+01  0.2842364014622818E+01  0.2830899325492753E+01
  0.2819480879242270E+01  0.2808108489350482E+01  0.2796781970048849E+01  0.2785501136318117E+01  0.2774265803885312E+01
  0.2763075789220729E+01  0.2751930909534928E+01  0.2740830982775752E+01  0.2729775827625351E+01  0.2718765263497222E+01
  0.2707799110533262E+01  0.2696877189600820E+01  0.2685999322289783E+01  0.2675165330909653E+01  0.2664375038486649E+01
  0.2653628268760815E+01  0.2642924846183138E+01  0.2632264595912682E+01  0.2621647343813741E+01  0.2611072916452975E+01
  0.2600541141096596E+01  0.2590051845707536E+01  0.2579604858942638E+01  0.2569200010149862E+01  0.2558837129365489E+01
  0.2548516047311356E+01  0.2538236595392077E+01  0.2527998605692300E+01  0.2517801910973963E+01  0.2507646344673554E+01
  0.2497531740899401E+01  0.2487457934428952E+01  0.2477424760706083E+01  0.2467432055838412E+01  0.2457479656594610E+01
  0.2447567400401747E+01  0.2437695125342633E+01  0.2427862670153168E+01  0.2418069874219715E+01  0.2408316577576469E+01
  0.2398602620902853E+01  0.2388927845520905E+01  0.2379292093392694E+01  0.2369695207117737E+01  0.2360137029930423E+01
  0.2350617405697461E+01  0.2341136178915320E+01  0.2331693194707692E+01  0.2322288298822970E+01  0.2312921337631714E+01
  0.2303592158124157E+01  0.2294300607907691E+01  0.2285046535204385E+01  0.2275829788848510E+01  0.2266650218284059E+01
  0.2257507673562295E+01  0.2248402005339304E+01  0.2239333064873545E+01  0.2230300704023433E+01  0.2221304775244907E+01
  0.2212345131589029E+01  0.2203421626699582E+01  0.2194534114810671E+01  0.2185682450744356E+01  0.2176866489908269E+01
  0.2168086088293253E+01  0.2159341102471022E+01  0.2150631389591799E+01  0.2141956807381998E+01  0.2133317214141892E+01
  0.2124712468743298E+01  0.2116142430627282E+01  0.2107606959801845E+01  0.2099105916839657E+01  0.2090639162875761E+01
  0.2082206559605315E+01  0.2073807969281330E+01  0.2065443254712419E+01  0.2057112279260562E+01  0.2048814906838865E+01
  0.2040551001909338E+01  0.2032320429480692E+01  0.2024123055106120E+01  0.2015958744881110E+01  0.2007827365441252E+01
  0.1999728783960063E+01  0.1991662868146820E+01  0.1983629486244388E+01  0.1975628507027079E+01  0.1967659799798508E+01
  0.1959723234389447E+01  0.1951818681155713E+01  0.1943946010976038E+01  0.1936105095249969E+01  0.1928295805895763E+01
  0.1920518015348292E+01  0.1912771596556969E+01  0.1905056422983661E+01  0.1897372368600627E+01  0.1889719307888463E+01
  0.1882097115834045E+01  0.1874505667928492E+01  0.1866944840165130E+01  0.1859414509037464E+01  0.1851914551537167E+01
  0.1844444845152063E+01  0.1837005267864134E+01  0.1829595698147517E+01  0.1822216014966526E+01  0.1814866097773676E+01
  0.1807545826507706E+01  0.1800255081591628E+01  0.1792993743930764E+01  0.1785761694910807E+01  0.1778558816395879E+01
  0.1771384990726608E+01  0.1764240100718199E+01  0.1757124029658521E+01  0.1750036661306204E+01  0.1742977879888739E+01
  0.1735947570100584E+01  0.1728945617101282E+01  0.1721971906513589E+01  0.1715026324421598E+01  0.1708108757368886E+01
  0.1701219092356654E+01  0.1694357216841885E+01  0.1687523018735506E+01  0.1680716386400555E+01  0.1673937208650359E+01
  0.1667185374746716E+01  0.1660460774398087E+01  0.1653763297757796E+01  0.1647092835422230E+01  0.1640449278429063E+01
  0.1633832518255464E+01  0.1627242446816327E+01  0.1620678956462515E+01  0.1614141939979090E+01  0.1607631290583566E+01
  0.1601146901924165E+01  0.1594688668078078E+01  0.1588256483549741E+01  0.1581850243269102E+01  0.1575469842589912E+01
  0.1569115177288011E+01  0.1562786143559630E+01  0.1556482638019691E+01  0.1550204557700122E+01  0.1543951800048174E+01
  0.1537724262924741E+01  0.1531521844602698E+01  0.1525344443765240E+01  0.1519191959504217E+01  0.1513064291318499E+01
  0.1506961339112323E+01  0.1500883003193665E+01  0.1494829184272611E+01  0.1488799783459728E+01  0.1482794702264461E+01
  0.1476813842593512E+01  0.1470857106749244E+01  0.1464924397428084E+01  0.1459015617718934E+01  0.1453130671101585E+01
  0.1447269461445148E+01  0.1441431893006473E+01  0.1435617870428594E+01  0.1429827298739164E+01  0.1424060083348912E+01
  0.1418316130050090E+01  0.1412595345014937E+01  0.1406897634794150E+01  0.1401222906315352E+01  0.1395571066881573E+01
  0.1389942024169739E+01  0.1384335686229159E+01  0.1378751961480029E+01  0.1373190758711928E+01  0.1367651987082335E+01
  0.1362135556115145E+01  0.1356641375699185E+01  0.1351169356086747E+01  0.1345719407892121E+01  0.1340291442090136E+01
  0.1334885370014701E+01  0.1329501103357363E+01  0.1324138554165862E+01  0.1318797634842692E+01  0.1313478258143670E+01
  0.1308180337176518E+01  0.1302903785399433E+01  0.1297648516619684E+01  0.1292414444992193E+01  0.1287201485018143E+01
  0.1282009551543573E+01  0.1276838559757996E+01  0.1271688425193003E+01  0.1266559063720890E+01  0.1261450391553284E+01
  0.1256362325239772E+01  0.1251294781666539E+01  0.1246247678055007E+01  0.1241220931960490E+01  0.1236214461270838E+01
  0.1231228184205106E+01  0.1226262019312207E+01  0.1221315885469589E+01  0.1216389701881913E+01  0.1211483388079719E+01
  0.1206596863918129E+01  0.1201730049575524E+01  0.1196882865552247E+01  0.1192055232669305E+01  0.1187247072067069E+01
  0.1182458305203996E+01  0.1177688853855336E+01  0.1172938640111859E+01  0.1168207586378584E+01  0.1163495615373506E+01
  0.1158802650126341E+01  0.1154128613977261E+01  0.1149473430575644E+01  0.1144837023878833E+01  0.1140219318150884E+01
  0.1135620237961337E+01  0.1131039708183978E+01  0.1126477653995615E+01  0.1121934000874854E+01  0.1117408674600883E+01
  0.1112901601252261E+01  0.1108412707205706E+01  0.1103941919134894E+01  0.1099489164009266E+01  0.1095054369092827E+01
  0.1090637461942962E+01  0.1086238370409256E+01  0.1081857022632307E+01  0.1077493347042560E+01  0.1073147272359133E+01
  0.1068818727588654E+01  0.1064507642024102E+01  0.1060213945243652E+01  0.1055937567109521E+01  0.1051678437766829E+01
  0.1047436487642450E+01  0.1043211647443882E+01  0.1039003848158111E+01  0.1034813021050485E+01  0.1030639097663591E+01
  0.1026482009816136E+01  0.1022341689601835E+01  0.1018218069388298E+01  0.1014111081815930E+01  0.1010020659796825E+01
  0.1005946736513674E+01  0.1001889245418674E+01  0.9978481202324356E+00  0.9938232949429053E+00  0.9898147038042839E+00
  0.9858222813359560E+00  0.9818459623214153E+00  0.9778856818072010E+00  0.9739413751018408E+00  0.9700129777747856E+00
  0.9661004256553632E+00  0.9622036548317290E+00  0.9583226016498185E+00  0.9544572027123114E+00  0.9506073948775915E+00
  0.9467731152587175E+00  0.9429543012223974E+00  0.9391508903879595E+00  0.9353628206263371E+00  0.9315900300590521E+00
  0.9278324570572052E+00  0.9240900402404663E+00  0.9203627184760731E+00  0.9166504308778303E+00  0.9129531168051188E+00
  0.9092707158618981E+00  0.9056031678957260E+00  0.9019504129967704E+00  0.8983123914968310E+00  0.8946890439683680E+00
  0.8910803112235246E+00  0.8874861343131651E+00  0.8839064545259073E+00  0.8803412133871643E+00  0.8767903526581898E+00
  0.8732538143351237E+00  0.8697315406480453E+00  0.8662234740600276E+00  0.8627295572661984E+00  0.8592497331928030E+00
  0.8557839449962684E+00  0.8523321360622775E+00  0.8488942500048408E+00  0.8454702306653739E+00  0.8420600221117823E+00
  0.8386635686375428E+00  0.8352808147607961E+00  0.8319117052234350E+00  0.8285561849902032E+00  0.8252141992477964E+00
  0.8218856934039617E+00  0.8185706130866069E+00  0.8152689041429110E+00  0.8119805126384360E+00  0.8087053848562482E+00
  0.8054434672960350E+00  0.8021947066732297E+00  0.7989590499181436E+00  0.7957364441750915E+00  0.7925268368015307E+00
  0.7893301753671963E+00  0.7861464076532434E+00  0.7829754816513945E+00  0.7798173455630832E+00  0.7766719477986100E+00
  0.7735392369762939E+00  0.7704191619216324E+00  0.7673116716664631E+00  0.7642167154481261E+00  0.7611342427086371E+00
  0.7580642030938527E+00  0.7550065464526475E+00  0.7519612228360942E+00  0.7489281824966392E+00  0.7459073758872919E+00
  0.7428987536608084E+00  0.7399022666688827E+00  0.7369178659613415E+00  0.7339455027853385E+00  0.7309851285845570E+00
  0.7280366949984093E+00  0.7251001538612440E+00  0.7221754572015563E+00  0.7192625572411964E+00  0.7163614063945885E+00
  0.7134719572679445E+00  0.7105941626584873E+00  0.7077279755536744E+00  0.7048733491304234E+00  0.7020302367543414E+00
  0.6991985919789598E+00  0.6963783685449659E+00  0.6935695203794451E+00  0.6907720015951179E+00  0.6879857664895861E+00
  0.6852107695445802E+00  0.6824469654252052E+00  0.6796943089791967E+00  0.6769527552361723E+00  0.6742222594068927E+00
  0.6715027768825187E+00  0.6687942632338751E+00  0.6660966742107185E+00  0.6634099657410020E+00  0.6607340939301474E+00
  0.6580690150603207E+00  0.6554146855897046E+00  0.6527710621517802E+00  0.6501381015546053E+00  0.6475157607800993E+00
  0.6449039969833310E+00  0.6423027674918035E+00  0.6397120298047481E+00  0.6371317415924154E+00  0.6345618606953746E+00
  0.6320023451238074E+00  0.6294531530568113E+00  0.6269142428417023E+00  0.6243855729933181E+00  0.6218671021933275E+00
  0.6193587892895402E+00  0.6168605932952164E+00  0.6143724733883839E+00  0.6118943889111518E+00  0.6094262993690299E+00
  0.6069681644302513E+00  0.6045199439250912E+00  0.6020815978451942E+00  0.5996530863429005E+00  0.5972343697305755E+00
  0.5948254084799389E+00  0.5924261632213990E+00  0.5900365947433854E+00  0.5876566639916896E+00  0.5852863320687987E+00
  0.5829255602332387E+00  0.5805743098989161E+00  0.5782325426344607E+00  0.5759002201625738E+00  0.5735773043593717E+00
  0.5712637572537398E+00  0.5689595410266786E+00  0.5666646180106584E+00  0.5643789506889743E+00  0.5621025016950995E+00
  0.5598352338120434E+00  0.5575771099717102E+00  0.5553280932542584E+00  0.5530881468874637E+00  0.5508572342460797E+00
  0.5486353188512039E+00  0.5464223643696414E+00  0.5442183346132730E+00  0.5420231935384230E+00  0.5398369052452270E+00
  0.5376594339770048E+00  0.5354907441196288E+00  0.5333308002008977E+00  0.5311795668899114E+00  0.5290370089964429E+00
  0.5269030914703152E+00  0.5247777794007771E+00  0.5226610380158805E+00  0.5205528326818589E+00  0.5184531289025047E+00
  0.5163618923185486E+00  0.5142790887070422E+00  0.5122046839807342E+00  0.5101386441874561E+00  0.5080809355095007E+00
  0.5060315242630049E+00  0.5039903768973334E+00  0.5019574599944603E+00  0.4999327402683529E+00  0.4979161845643542E+00
  0.4959077598585677E+00  0.4939074332572396E+00  0.4919151719961435E+00  0.4899309434399644E+00  0.4879547150816815E+00
  0.4859864545419509E+00  0.4840261295684924E+00  0.4820737080354675E+00  0.4801291579428665E+00  0.4781924474158888E+00
  0.4762635447043245E+00  0.4743424181819375E+00  0.4724290363458438E+00  0.4705233678158946E+00  0.4686253813340528E+00
  0.4667350457637732E+00  0.4648523300893798E+00  0.4629772034154422E+00  0.4611096349661524E+00  0.4592495940846973E+00
  0.4573970502326337E+00  0.4555519729892602E+00  0.4537143320509869E+00  0.4518840972307050E+00  0.4500612384571554E+00
  0.4482457257742930E+00  0.4464375293406531E+00  0.4446366194287117E+00  0.4428429664242472E+00  0.4410565408256999E+00
  0.4392773132435264E+00  0.4375052543995551E+00  0.4357403351263379E+00  0.4339825263665007E+00  0.4322317991720889E+00
  0.4304881247039122E+00  0.4287514742308879E+00  0.4270218191293778E+00  0.4252991308825246E+00  0.4235833810795866E+00
  0.4218745414152644E+00  0.4201725836890305E+00  0.4184774798044497E+00  0.4167892017685002E+00  0.4151077216908893E+00
  0.4134330117833650E+00  0.4117650443590245E+00  0.4101037918316181E+00  0.4084492267148501E+00  0.4068013216216732E+00
  0.4051600492635804E+00  0.4035253824498923E+00  0.4018972940870378E+00  0.4002757571778318E+00  0.3986607448207480E+00
  0.3970522302091843E+00  0.3954501866307264E+00  0.3938545874664019E+00  0.3922654061899318E+00  0.3906826163669765E+00
  0.3891061916543719E+00  0.3875361057993645E+00  0.3859723326388365E+00  0.3844148460985271E+00  0.3828636201922438E+00
  0.3813186290210715E+00  0.3797798467725697E+00  0.3782472477199676E+00  0.3767208062213463E+00  0.3752004967188192E+00
  0.3736862937376996E+00  0.3721781718856641E+00  0.3706761058519064E+00  0.3691800704062819E+00  0.3676900403984463E+00
  0.3662059907569826E+00  0.3647278964885206E+00  0.3632557326768491E+00  0.3617894744820143E+00  0.3603290971394124E+00
  0.3588745759588718E+00  0.3574258863237234E+00  0.3559830036898631E+00  0.3545459035848017E+00  0.3531145616067063E+00
  0.3516889534234283E+00  0.3502690547715210E+00  0.3488548414552488E+00  0.3474462893455785E+00  0.3460433743791659E+00
  0.3446460725573224E+00  0.3432543599449774E+00  0.3418682126696216E+00  0.3404876069202394E+00  0.3391125189462290E+00
  0.3377429250563075E+00  0.3363788016174041E+00  0.3350201250535363E+00  0.3336668718446740E+00  0.3323190185255886E+00
  0.3309765416846859E+00  0.3296394179628264E+00  0.3283076240521261E+00  0.3269811366947445E+00  0.3256599326816558E+00
  0.3243439888514027E+00  0.3230332820888346E+00  0.3217277893238282E+00  0.3204274875299891E+00  0.3191323537233384E+00
  0.3178423649609792E+00  0.3165574983397464E+00  0.3152777309948346E+00  0.3140030400984106E+00  0.3127334028582043E+00
  0.3114687965160789E+00  0.3102091983465857E+00  0.3089545856554909E+00  0.3077049357782882E+00  0.3064602260786863E+00
  0.3052204339470774E+00  0.3039855367989813E+00  0.3027555120734695E+00  0.3015303372315637E+00  0.3003099897546150E+00
  0.2990944471426560E+00  0.2978836869127330E+00  0.2966776865972092E+00  0.2954764237420478E+00  0.2942798759050678E+00
  0.2930880206541746E+00  0.2919008355655670E+00  0.2907182982219139E+00  0.2895403862105093E+00  0.2883670771213965E+00
  0.2871983485454681E+00  0.2860341780725375E+00  0.2848745432893798E+00  0.2837194217777484E+00  0.2825687911123604E+00
  0.2814226288588528E+00  0.2802809125717113E+00  0.2791436197921658E+00  0.2780107280460588E+00  0.2768822148416811E+00
  0.2757580576675773E+00  0.2746382339903214E+00  0.2735227212522566E+00  0.2724114968692069E+00  0.2713045382281554E+00
  0.2702018226848883E+00  0.2691033275616073E+00  0.2680090301445094E+00  0.2669189076813294E+00  0.2658329373788522E+00
  0.2647510964003888E+00  0.2636733618632179E+00  0.2625997108359940E+00  0.2615301203361173E+00  0.2604645673270713E+00
  0.2594030287157228E+00  0.2583454813495870E+00  0.2572919020140571E+00  0.2562422674295949E+00  0.2551965542488880E+00
  0.2541547390539696E+00  0.2531167983532999E+00  0.2520827085788148E+00  0.2510524460829320E+00  0.2500259871355248E+00
  0.2490033079208571E+00  0.2479843845344823E+00  0.2469691929801037E+00  0.2459577091664001E+00  0.2449499089038129E+00
  0.2439457679012975E+00  0.2429452617630385E+00  0.2419483659851285E+00  0.2409550559522098E+00  0.2399653069340821E+00
  0.2389790940822739E+00  0.2379963924265790E+00  0.2370171768715604E+00  0.2360414221930161E+00  0.2350691030344154E+00
  0.2341001939033009E+00  0.2331346691676579E+00  0.2321725030522540E+00  0.2312136696349456E+00  0.2302581428429574E+00
  0.2293058964491312E+00  0.2283569040681475E+00  0.2274111391527227E+00  0.2264685749897759E+00  0.2255291846965767E+00
  0.2245929412168678E+00  0.2236598173169661E+00  0.2227297855818468E+00  0.2218028184112053E+00  0.2208788880155063E+00
  0.2199579664120177E+00  0.2190400254208319E+00  0.2181250366608780E+00  0.2172129715459247E+00  0.2163038012805793E+00
  0.2153974968562833E+00  0.2144940290473081E+00  0.2135933684067540E+00  0.2126954852625536E+00  0.2118003497134857E+00
  0.2109079316252008E+00  0.2100182006262629E+00  0.2091311261042119E+00  0.2082466772016460E+00  0.2073648228123362E+00
  0.2064855315773701E+00  0.2056087718813327E+00  0.2047345118485292E+00  0.2038627193392520E+00  0.2029933619461018E+00
  0.2021264069903627E+00  0.2012618215184422E+00  0.2003995722983784E+00  0.1995396258164209E+00  0.1986819482736950E+00
  0.1978265055829521E+00  0.1969732633654154E+00  0.1961221869477278E+00  0.1952732413590110E+00  0.1944263913280390E+00
  0.1935816012805416E+00  0.1927388353366403E+00  0.1918980573084285E+00  0.1910592306977051E+00  0.1902223186938698E+00
  0.1893872841719915E+00  0.1885540896910604E+00  0.1877226974924324E+00  0.1868930694984798E+00  0.1860651673114578E+00
  0.1852389522125995E+00  0.1844143851614518E+00  0.1835914267954643E+00  0.1827700374298470E+00  0.1819501770577044E+00
  0.1811318053504681E+00  0.1803148816586355E+00  0.1794993650128334E+00  0.1786852141252211E+00  0.1778723873912472E+00
  0.1770608428917777E+00  0.1762505383956139E+00  0.1754414313624121E+00  0.1746334789460287E+00  0.1738266379983041E+00
  0.1730208650733061E+00  0.1722161164320517E+00  0.1714123480477249E+00  0.1706095156114139E+00  0.1698075745383812E+00
  0.1690064799748956E+00  0.1682061868056402E+00  0.1674066496617208E+00  0.1666078229292962E+00  0.1658096607588508E+00
  0.1650121170751339E+00  0.1642151455877869E+00  0.1634186998026805E+00  0.1626227330339882E+00  0.1618271984170141E+00
  0.1610320489218041E+00  0.1602372373675593E+00  0.1594427164378782E+00  0.1586484386968508E+00  0.1578543566060250E+00
  0.1570604225422751E+00  0.1562665888165893E+00  0.1554728076938045E+00  0.1546790314133082E+00  0.1538852122107302E+00
  0.1530913023406505E+00  0.1522972541003385E+00  0.1515030198545504E+00  0.1507085520614043E+00  0.1499138032993492E+00
  0.1491187262952523E+00  0.1483232739536195E+00  0.1475273993869669E+00  0.1467310559473606E+00  0.1459341972591363E+00
  0.1451367772528164E+00  0.1443387502002343E+00  0.1435400707508748E+00  0.1427406939694437E+00  0.1419405753746668E+00
  0.1411396709793303E+00  0.1403379373315579E+00  0.1395353315573319E+00  0.1387318114042491E+00  0.1379273352865137E+00
  0.1371218623311518E+00  0.1363153524254448E+00  0.1355077662655618E+00  0.1346990654063775E+00  0.1338892123124560E+00
  0.1330781704101704E+00  0.1322659041409401E+00  0.1314523790155469E+00  0.1306375616694962E+00  0.1298214199193859E+00
  0.1290039228202351E+00  0.1281850407237260E+00  0.1273647453373068E+00  0.1265430097840942E+00  0.1257198086635160E+00
  0.1248951181126229E+00  0.1240689158679977E+00  0.1232411813281848E+00  0.1224118956165521E+00  0.1215810416445026E+00
  0.1207486041749336E+00  0.1199145698858501E+00  0.1190789274340238E+00  0.1182416675185865E+00  0.1174027829444438E+00
  0.1165622686853840E+00  0.1157201219467582E+00  0.1148763422275973E+00  0.1140309313820292E+00  0.1131838936798547E+00
  0.1123352358661310E+00  0.1114849672196166E+00  0.1106330996099169E+00  0.1097796475531719E+00  0.1089246282661236E+00
  0.1080680617183903E+00  0.1072099706827845E+00  0.1063503807834957E+00  0.1054893205419642E+00  0.1046268214202697E+00
  0.1037629178618551E+00  0.1028976473294050E+00  0.1020310503397033E+00  0.1011631704952865E+00  0.1002940545127186E+00
  0.9942375224730712E-01  0.9855231671409116E-01  0.9767980410492719E-01  0.9680627380150734E-01  0.9593178838414816E-01
  0.9505641363618988E-01  0.9418021854386036E-01  0.9330327529145525E-01  0.9242565925170049E-01  0.9154744897116959E-01
  0.9066872615063341E-01  0.8978957562024008E-01  0.8891008530942279E-01  0.8803034621145041E-01  0.8715045234254903E-01
  0.8627050069553034E-01  0.8539059118788352E-01  0.8451082660429521E-01  0.8363131253358107E-01  0.8275215730002777E-01
  0.8187347188915450E-01  0.8099536986793096E-01  0.8011796729949344E-01  0.7924138265242504E-01  0.7836573670468303E-01
  0.7749115244226730E-01  0.7661775495275325E-01  0.7574567131381844E-01  0.7487503047691692E-01  0.7400596314626959E-01
  0.7313860165335902E-01  0.7227307982712849E-01  0.7140953286010933E-01  0.7054809717070906E-01  0.6968891026191276E-01
  0.6883211057666501E-01  0.6797783735020702E-01  0.6712623045966884E-01  0.6627743027121621E-01  0.6543157748507014E-01
  0.6458881297872746E-01  0.6374927764871187E-01  0.6291311225120599E-01  0.6208045724190874E-01  0.6125145261547529E-01
  0.6042623774489801E-01  0.5960495122118899E-01  0.5878773069372951E-01  0.5797471271164611E-01  0.5716603256657589E-01
  0.5636182413718040E-01  0.5556221973575732E-01  0.5476734995730384E-01  0.5397734353136865E-01  0.5319232717702591E-01
  0.5241242546129622E-01  0.5163776066132127E-01  0.5086845263059896E-01  0.5010461866956023E-01  0.4934637340076205E-01
  0.4859382864895478E-01  0.4784709332626200E-01  0.4710627332270021E-01  0.4637147140224340E-01  0.4564278710462024E-01
  0.4492031665301612E-01  0.4420415286782482E-01  0.4349438508658762E-01  0.4279109909022553E-01  0.4209437703565670E-01
  0.4140429739487288E-01  0.4072093490051963E-01  0.4004436049801909E-01  0.3937464130424070E-01  0.3871184057271564E-01
  0.3805601766536677E-01  0.3740722803070948E-01  0.3676552318846087E-01  0.3613095072047690E-01  0.3550355426792134E-01
  0.3488337353455305E-01  0.3427044429600525E-01  0.3366479841491529E-01  0.3306646386174907E-01  0.3247546474115422E-01
  0.3189182132366333E-01  0.3131555008255610E-01  0.3074666373568605E-01  0.3018517129206157E-01  0.2963107810296819E-01
  0.2908438591741228E-01  0.2854509294165763E-01  0.2801319390262727E-01  0.2748868011493354E-01  0.2697153955130236E-01
  0.2646175691615062E-01  0.2595931372207928E-01  0.2546418836904291E-01  0.2497635622595698E-01  0.2449578971450660E-01
  0.2402245839492248E-01  0.2355632905349419E-01  0.2309736579159087E-01  0.2264553011597014E-01  0.2220078103015462E-01
  0.2176307512666452E-01  0.2133236667990051E-01  0.2090860773947500E-01  0.2049174822380036E-01  0.2008173601374660E-01
  0.1967851704618918E-01  0.1928203540727705E-01  0.1889223342525515E-01  0.1850905176268762E-01  0.1813242950793276E-01
  0.1776230426573058E-01  0.1739861224677262E-01  0.1704128835612814E-01  0.1669026628041526E-01  0.1634547857360761E-01
  0.1600685674137864E-01  0.1567433132389280E-01  0.1534783197695979E-01  0.1502728755147726E-01  0.1471262617109386E-01
  0.1440377530803107E-01  0.1410066185701176E-01  0.1380321220724699E-01  0.1351135231244249E-01  0.1322500775879014E-01
  0.1294410383091710E-01  0.1266856557577151E-01  0.1239831786442690E-01  0.1213328545179701E-01  0.1187339303425358E-01
  0.1161856530514679E-01  0.1136872700823238E-01  0.1112380298901286E-01  0.1088371824400525E-01  0.1064839796795118E-01
  0.1041776759898787E-01  0.1019175286180357E-01  0.9970279808801703E-02  0.9753274859303178E-02  0.9540664836816507E-02
  0.9332377004409354E-02  0.9128339098216840E-02  0.8928479359122285E-02  0.8732726562650627E-02  0.8541010047113395E-02
  0.8353259740046963E-02  0.8169406182986382E-02  0.7989380554617906E-02  0.7813114692354774E-02  0.7640541112380176E-02
  0.7471593028203055E-02  0.7306204367772086E-02  0.7144309789193001E-02  0.6985844695095444E-02  0.6830745245694882E-02
  0.6678948370594664E-02  0.6530391779374251E-02  0.6385013971007414E-02  0.6242754242156021E-02  0.6103552694382766E-02
  0.5967350240326390E-02  0.5834088608882357E-02  0.5703710349430920E-02  0.5576158835154318E-02  0.5451378265483285E-02
  0.5329313667713233E-02  0.5209910897828773E-02  0.5093116640574573E-02  0.4978878408810163E-02  0.4867144542184633E-02
  0.4757864205166663E-02  0.4650987384464278E-02  0.4546464885867858E-02  0.4444248330548435E-02  0.4344290150843305E-02
  0.4246543585559064E-02  0.4150962674821647E-02  0.4057502254501965E-02  0.3966117950244626E-02  0.3876766171126325E-02
  0.3789404102969707E-02  0.3703989701337178E-02  0.3620481684228678E-02  0.3538839524505984E-02  0.3459023442065797E-02
  0.3380994395782560E-02  0.3304714075241125E-02  0.3230144892278929E-02  0.3157249972355683E-02  0.3085993145768933E-02
  0.3016338938731930E-02  0.2948252564330199E-02  0.2881699913372200E-02  0.2816647545148586E-02  0.2753062678114240E-02
  0.2690913180506275E-02  0.2630167560910583E-02  0.2570794958788950E-02  0.2512765134977948E-02  0.2456048462170525E-02
  0.2400615915390291E-02  0.2346439062468060E-02  0.2293490054529883E-02  0.2241741616504703E-02  0.2191167037660078E-02
  0.2141740162173117E-02  0.2093435379743866E-02  0.2046227616257758E-02  0.2000092324503016E-02  0.1955005474949175E-02
  0.1910943546591717E-02  0.1867883517867957E-02  0.1825802857648782E-02  0.1784679516310355E-02  0.1744491916889910E-02
  0.1705218946329103E-02  0.1666839946808207E-02  0.1629334707174327E-02  0.1592683454466051E-02  0.1556866845537379E-02
  0.1521865958782887E-02  0.1487662285966173E-02  0.1454237724153453E-02  0.1421574567753607E-02  0.1389655500666283E-02
  0.1358463588539041E-02  0.1327982271134536E-02  0.1298195354808556E-02  0.1269087005099496E-02  0.1240641739429815E-02
  0.1212844419919742E-02  0.1185680246313445E-02  0.1159134749017794E-02  0.1133193782253504E-02  0.1107843517318679E-02
  0.1083070435964375E-02  0.1058861323881822E-02  0.1035203264300899E-02  0.1012083631699193E-02  0.9894900856211558E-03
  0.9674105646065528E-03  0.9458332802274838E-03  0.9247467112330821E-03  0.9041395978010758E-03  0.8840009358951663E-03
  0.8643199717272975E-03  0.8450861963237371E-03  0.8262893401938733E-03  0.8079193681006357E-03  0.7899664739313077E-03
  0.7724210756676250E-03  0.7552738104538898E-03  0.7385155297618509E-03  0.7221372946511307E-03  0.7061303711238304E-03
  0.6904862255721093E-03  0.6751965203173582E-03  0.6602531092396562E-03  0.6456480334961930E-03  0.6313735173272667E-03
  0.6174219639485712E-03  0.6037859515283717E-03  0.5904582292482202E-03  0.5774317134459130E-03  0.5646994838392135E-03
  0.5522547798291349E-03  0.5400909968813355E-03  0.5282016829843158E-03  0.5165805351830956E-03  0.5052213961870156E-03
  0.4941182510503472E-03  0.4832652239244482E-03  0.4726565748800606E-03  0.4622866967986081E-03  0.4521501123310180E-03
  0.4422414709230252E-03  0.4325555459054962E-03  0.4230872316486963E-03  0.4138315407791517E-03  0.4047836014579747E-03
  0.3959386547193881E-03  0.3872920518683491E-03  0.3788392519359888E-03  0.3705758191918395E-03  0.3624974207116045E-03
  0.3545998239994055E-03  0.3468788946634163E-03  0.3393305941437128E-03  0.3319509774913946E-03  0.3247361911977567E-03
  0.3176824710726472E-03  0.3107861401708324E-03  0.3040436067654773E-03  0.2974513623676749E-03  0.2910059797910900E-03
  0.2847041112607318E-03  0.2785424865649623E-03  0.2725179112497396E-03  0.2666272648542689E-03  0.2608674991871028E-03
  0.2552356366418469E-03  0.2497287685516215E-03  0.2443440535813844E-03  0.2390787161573624E-03  0.2339300449326807E-03
  0.2288953912885004E-03  0.2239721678697818E-03  0.2191578471549836E-03  0.2144499600588902E-03  0.2098460945678636E-03
  0.2053438944067717E-03  0.2009410577369164E-03  0.1966353358842203E-03  0.1924245320970425E-03  0.1883065003329135E-03
  0.1842791440735546E-03  0.1803404151675567E-03  0.1764883127000502E-03  0.1727208818888021E-03  0.1690362130060960E-03
  0.1654324403258369E-03  0.1619077410952813E-03  0.1584603345308581E-03  0.1550884808374877E-03  0.1517904802509107E-03
  0.1485646721024356E-03  0.1454094339056555E-03  0.1423231804645683E-03  0.1393043630026515E-03  0.1363514683123747E-03
  0.1334630179246917E-03  0.1306375672980555E-03  0.1278737050264792E-03  0.1251700520662318E-03  0.1225252609807050E-03
  0.1199380152030505E-03  0.1174070283161572E-03  0.1149310433495810E-03  0.1125088320930080E-03  0.1101391944258963E-03
  0.1078209576628744E-03  0.1055529759145777E-03  0.1033341294635155E-03  0.1011633241546506E-03  0.9903949080032140E-04
  0.9696158459918237E-04  0.9492858456883688E-04  0.9293949299182187E-04  0.9099333487465523E-04  0.8908915741961616E-04
  0.8722602950897141E-04  0.8540304120134679E-04  0.8361930323996795E-04  0.8187394657247149E-04  0.8016612188203995E-04
  0.7849499912955909E-04  0.7685976710657469E-04  0.7525963299875951E-04  0.7369382195966776E-04  0.7216157669451619E-04
  0.7066215705376209E-04  0.6919483963624977E-04  0.6775891740168733E-04  0.6635369929224662E-04  0.6497850986305881E-04
  0.6363268892140179E-04  0.6231559117436763E-04  0.6102658588481853E-04  0.5976505653542000E-04  0.5853040050057858E-04
  0.5732202872607410E-04  0.5613936541622730E-04  0.5498184772840450E-04  0.5384892547469955E-04  0.5274006083061249E-04
  0.5165472805056371E-04  0.5059241319008418E-04  0.4955261383451404E-04  0.4853483883406697E-04  0.4753860804509879E-04
  0.4656345207743974E-04  0.4560891204764189E-04  0.4467453933800794E-04  0.4375989536125394E-04  0.4286455133068562E-04
  0.4198808803574106E-04  0.4113009562279048E-04  0.4029017338105198E-04  0.3946792953351516E-04  0.3866298103274247E-04
  0.3787495336144302E-04  0.3710348033769751E-04  0.3634820392472733E-04  0.3560877404510254E-04  0.3488484839927809E-04
  0.3417609228836044E-04  0.3348217844100088E-04  0.3280278684432213E-04  0.3213760457877616E-04  0.3148632565684817E-04
  0.3084865086550837E-04  0.3022428761232736E-04  0.2961294977516610E-04  0.2901435755535901E-04  0.2842823733430206E-04
  0.2785432153337243E-04  0.2729234847709448E-04  0.2674206225947868E-04  0.2620321261345956E-04  0.2567555478335588E-04
  0.2515884940028511E-04  0.2465286236045943E-04  0.2415736470629964E-04  0.2367213251029437E-04  0.2319694676154634E-04
  0.2273159325493712E-04  0.2227586248285198E-04  0.2182954952940215E-04  0.2139245396708883E-04  0.2096437975584710E-04
  0.2054513514441844E-04  0.2013453257399308E-04  0.1973238858407094E-04  0.1933852372048948E-04  0.1895276244556539E-04
  0.1857493305030256E-04  0.1820486756861608E-04  0.1784240169352725E-04  0.1748737469528040E-04  0.1713962934133939E-04
  0.1679901181821724E-04  0.1646537165509782E-04  0.1613856164920591E-04  0.1581843779288727E-04  0.1550485920235492E-04
  0.1519768804806682E-04  0.1489678948669360E-04  0.1460203159464011E-04  0.1431328530308620E-04  0.1403042433450817E-04
  0.1375332514064900E-04  0.1348186684190168E-04  0.1321593116807473E-04  0.1295540240050488E-04  0.1270016731548870E-04
  0.1245011512899977E-04  0.1220513744266311E-04  0.1196512819095660E-04  0.1172998358961233E-04  0.1149960208518762E-04
  0.1127388430578130E-04  0.1105273301286629E-04  0.1083605305421377E-04  0.1062375131788387E-04  0.1041573668725709E-04
  0.1021191999708322E-04  0.1001221399052359E-04  0.9816533277164625E-05  0.9624794291978498E-05  0.9436915255211232E-05
  0.9252816133174280E-05  0.9072418599921596E-05  0.8895645999788273E-05  0.8722423310774672E-05  0.8552677108753082E-05
  0.8386335532480612E-05  0.8223328249397919E-05  0.8063586422196390E-05  0.7907042676136632E-05  0.7753631067099710E-05
  0.7603287050355112E-05  0.7455947450029338E-05  0.7311550429257864E-05  0.7170035461005551E-05  0.7031343299540472E-05
  0.6895415952544936E-05  0.6762196653850962E-05  0.6631629836783420E-05  0.6503661108099731E-05  0.6378237222509904E-05
  0.6255306057765694E-05  0.6134816590304317E-05  0.6016718871434870E-05  0.5900964004055102E-05  0.5787504119885959E-05
  0.5676292357212219E-05  0.5567282839118254E-05  0.5460430652206782E-05  0.5355691825789911E-05  0.5253023311542330E-05
  0.5152382963604912E-05  0.5053729519129992E-05  0.4957022579256500E-05  0.4862222590507118E-05  0.4769290826596121E-05
  0.4678189370640053E-05  0.4588881097760886E-05  0.4501329658073624E-05  0.4415499460049085E-05  0.4331355654244016E-05
  0.4248864117389244E-05  0.4167991436828886E-05  0.4088704895301845E-05  0.4010972456058078E-05  0.3934762748302505E-05
  0.3860045052958373E-05  0.3786789288743830E-05  0.3714965998553452E-05  0.3644546336139309E-05  0.3575502053083322E-05
  0.3507805486055672E-05  0.3441429544351890E-05  0.3376347697702817E-05  0.3312533964351160E-05  0.3249962899388874E-05
  0.3188609583349048E-05  0.3128449611047221E-05  0.3069459080665938E-05  0.3011614583077438E-05  0.2954893191399202E-05
   22     47.880         4.1491    fcc     
  0.0000000000000000E+00 -0.2418577853499970E-01 -0.4824829177969869E-01 -0.7218785959630525E-01 -0.9600480184702453E-01
 -0.1196994383940631E+00 -0.1432720890996269E+00 -0.1667230738259233E+00 -0.1900527124351585E+00 -0.2132613247895372E+00
 -0.2363492307512680E+00 -0.2593167501825575E+00 -0.2821642029456095E+00 -0.3048919089026323E+00 -0.3275001879158328E+00
 -0.3499893598474162E+00 -0.3723597445595890E+00 -0.3946116619145581E+00 -0.4167454317745283E+00 -0.4387613740017096E+00
 -0.4606598084583049E+00 -0.4824410550065217E+00 -0.5041054335085668E+00 -0.5256532638266467E+00 -0.5470848658229666E+00
 -0.5684005593597345E+00 -0.5896006642991558E+00 -0.6106855005034371E+00 -0.6316553878347839E+00 -0.6525106461554053E+00
 -0.6732515953275044E+00 -0.6938785552132889E+00 -0.7143918456749665E+00 -0.7347917865747420E+00 -0.7550786977748214E+00
 -0.7752528991374130E+00 -0.7953147105247222E+00 -0.8152644517989547E+00 -0.8351024428223184E+00 -0.8548290034570185E+00
 -0.8744444535652618E+00 -0.8939491130092538E+00 -0.9133433016512023E+00 -0.9326273393533131E+00 -0.9518015459777929E+00
 -0.9708662413868474E+00 -0.9898217454426841E+00 -0.1008668378007507E+01 -0.1027406458943526E+01 -0.1046036308112945E+01
 -0.1064558245377971E+01 -0.1082972590600811E+01 -0.1101279663643670E+01 -0.1119479784368757E+01 -0.1137573272638274E+01
 -0.1155560448314431E+01 -0.1173441631259434E+01 -0.1191217141335489E+01 -0.1208887298404802E+01 -0.1226452422329580E+01
 -0.1243912832972029E+01 -0.1261268850194355E+01 -0.1278520793858764E+01 -0.1295668983827464E+01 -0.1312713739962661E+01
 -0.1329655382126561E+01 -0.1346494230181369E+01 -0.1363230603989295E+01 -0.1379864823412541E+01 -0.1396397208313317E+01
 -0.1412828078553828E+01 -0.1429157753996280E+01 -0.1445386554502880E+01 -0.1461514799935833E+01 -0.1477542810157348E+01
 -0.1493470905029629E+01 -0.1509299404414884E+01 -0.1525028628175319E+01 -0.1540658896173139E+01 -0.1556190528270553E+01
 -0.1571623844329764E+01 -0.1586959164212982E+01 -0.1602196807782410E+01 -0.1617337094900258E+01 -0.1632380345428730E+01
 -0.1647326879230032E+01 -0.1662177016166372E+01 -0.1676931076099956E+01 -0.1691589378892989E+01 -0.1706152244407679E+01
 -0.1720619992506233E+01 -0.1734992943050855E+01 -0.1749271415903753E+01 -0.1763455730927133E+01 -0.1777546207983201E+01
 -0.1791543166934165E+01 -0.1805446927642229E+01 -0.1819257809969601E+01 -0.1832976133778488E+01 -0.1846602218931094E+01
 -0.1860136385289628E+01 -0.1873578952716294E+01 -0.1886930241073301E+01 -0.1900190570222853E+01 -0.1913360260027158E+01
 -0.1926439630348421E+01 -0.1939429001048850E+01 -0.1952328691990650E+01 -0.1965139023036028E+01 -0.1977860314047191E+01
