  DATE: 2018-03-30 CONTRIBUTOR: Xiaowang Zhou xzhou@sandia.gov and Lucas Hale lucas.hale@nist.gov CITATION: X. W. Zhou, R. A. Johnson, H. N. G. Wadley, Phys. Rev. B, 69, 144113(2004)
  Generated from Zhou04_create_v2.f
  Fixes precision issues with older version
    6 Au Cu Pt Pd Ni Mn       
 2000  0.1082535369667084E+00 2000  0.3227179660529329E-02  0.6451132141398129E+01
   79     196.97         4.0801    fcc     
  0.0000000000000000E+00 -0.3939941658142687E-01 -0.7846665080796478E-01 -0.1172029987782657E+00 -0.1556097565909866E+00
 -0.1936882203447785E+00 -0.2314396861382974E+00 -0.2688654500701974E+00 -0.3059668082391316E+00 -0.3427450567437549E+00
 -0.3792014916827209E+00 -0.4153374091546840E+00 -0.4511541052582978E+00 -0.4866528760922171E+00 -0.5218350177550950E+00
 -0.5567018263455864E+00 -0.5912545979623455E+00 -0.6254946287040253E+00 -0.6594232146692812E+00 -0.6930416519567666E+00
 -0.7263512366651349E+00 -0.7593532648930420E+00 -0.7920490327391404E+00 -0.8244398363020851E+00 -0.8565269716805289E+00
 -0.8883117349731267E+00 -0.9197954222785336E+00 -0.9509793296954021E+00 -0.9818647533223874E+00 -0.1012452989258142E+01
 -0.1042745333601322E+01 -0.1072743082450581E+01 -0.1102447531904572E+01 -0.1131859978061949E+01 -0.1160981717021368E+01
 -0.1189814044881481E+01 -0.1218358257740943E+01 -0.1246615651698409E+01 -0.1274587522852531E+01 -0.1302275167301964E+01
 -0.1329679881145363E+01 -0.1356802960481381E+01 -0.1383645701408672E+01 -0.1410209400025891E+01 -0.1436495352431691E+01
 -0.1462504854724728E+01 -0.1488239203003654E+01 -0.1513699693367124E+01 -0.1538887621913791E+01 -0.1563804284742311E+01
 -0.1588450977951336E+01 -0.1612828997639522E+01 -0.1636939639905522E+01 -0.1660784200847990E+01 -0.1684363976565581E+01
 -0.1707680263156948E+01 -0.1730734356720746E+01 -0.1753527553355628E+01 -0.1776061149160249E+01 -0.1798336440233263E+01
 -0.1820354722673323E+01 -0.1842117292579085E+01 -0.1863625446049201E+01 -0.1884880479182327E+01 -0.1905883688077115E+01
 -0.1926636368832222E+01 -0.1947139817546299E+01 -0.1967395330318001E+01 -0.1987404203245984E+01 -0.2007167732428900E+01
 -0.2026687213965403E+01 -0.2045963943954148E+01 -0.2064999218493789E+01 -0.2083794333682980E+01 -0.2102350585620375E+01
 -0.2120669270404628E+01 -0.2138751684134393E+01 -0.2156599122908324E+01 -0.2174212882825076E+01 -0.2191594259983302E+01
 -0.2208744550481656E+01 -0.2225665050418793E+01 -0.2242357055893367E+01 -0.2258821863004031E+01 -0.2275060767849439E+01
 -0.2291075066528248E+01 -0.2306866055139108E+01 -0.2322435029780676E+01 -0.2337783286551605E+01 -0.2352912121550549E+01
 -0.2367822830876162E+01 -0.2382516710627099E+01 -0.2396995056902013E+01 -0.2411259165799559E+01 -0.2425310333418390E+01
 -0.2439149855857161E+01 -0.2452779029214525E+01 -0.2466199149589138E+01 -0.2479411513079652E+01 -0.2492417415784722E+01
 -0.2505218153803002E+01 -0.2517815023233147E+01 -0.2530209320173809E+01 -0.2542402340723644E+01 -0.2554395380981305E+01
 -0.2566189737045447E+01 -0.2577786705014723E+01 -0.2589187580987788E+01 -0.2600393661063296E+01 -0.2611406241339900E+01
 -0.2622226617916255E+01 -0.2632856086891015E+01 -0.2643295944362834E+01 -0.2653547486430367E+01 -0.2663612009192266E+01
 -0.2673490808747187E+01 -0.2683185181193783E+01 -0.2692696422630708E+01 -0.2702025829156617E+01 -0.2711174696870164E+01
 -0.2720144321870001E+01 -0.2728936000254785E+01 -0.2737551028123169E+01 -0.2745990701573807E+01 -0.2754256316705352E+01
 -0.2762349169616459E+01 -0.2770270556405783E+01 -0.2778021773171977E+01 -0.2785604116013696E+01 -0.2793018881029592E+01
 -0.2800267364318321E+01 -0.2807350861978537E+01 -0.2814270670108893E+01 -0.2821028084808044E+01 -0.2827624402174644E+01
 -0.2834060918307347E+01 -0.2840338929304806E+01 -0.2846459731265676E+01 -0.2852424620288612E+01 -0.2858234892472266E+01
 -0.2863891843915295E+01 -0.2869396770716350E+01 -0.2874750968974086E+01 -0.2879955734787158E+01 -0.2885012364254221E+01
 -0.2889922153473926E+01 -0.2894686398544929E+01 -0.2899306395565884E+01 -0.2903783440635445E+01 -0.2908118829852266E+01
 -0.2912313859315001E+01 -0.2916369825122304E+01 -0.2920288023372829E+01 -0.2924069750165231E+01 -0.2927716301598163E+01
 -0.2931228973770279E+01 -0.2934609062780234E+01 -0.2937857781402617E+01 -0.2940976550851799E+01 -0.2943966404599754E+01
 -0.2946828423691290E+01 -0.2949563689171217E+01 -0.2952173282084347E+01 -0.2954658283475490E+01 -0.2957019774389455E+01
 -0.2959258835871054E+01 -0.2961376548965098E+01 -0.2963373994716396E+01 -0.2965252254169758E+01 -0.2967012408369996E+01
 -0.2968655538361919E+01 -0.2970182725190339E+01 -0.2971595049900065E+01 -0.2972893593535908E+01 -0.2974079437142679E+01
 -0.2975153661765188E+01 -0.2976117348448245E+01 -0.2976971578236660E+01 -0.2977717432175245E+01 -0.2978355991308808E+01
 -0.2978888336682163E+01 -0.2979315549340118E+01 -0.2979638710327483E+01 -0.2979858900689069E+01 -0.2979977201469687E+01
 -0.2979994693714148E+01 -0.2979912458467261E+01 -0.2979731576773837E+01 -0.2979453129678686E+01 -0.2979078198226620E+01
 -0.2978607863462447E+01 -0.2978043206430979E+01 -0.2977385308177027E+01 -0.2976635249745399E+01 -0.2975794112180908E+01
 -0.2974862976528363E+01 -0.2973842923832575E+01 -0.2972735035138354E+01 -0.2971540391490511E+01 -0.2970260073933856E+01
 -0.2968895163513200E+01 -0.2967446741273352E+01 -0.2965915888259123E+01 -0.2964303685515326E+01 -0.2962611214086768E+01
 -0.2960839555018260E+01 -0.2958989789354614E+01 -0.2957062998140639E+01 -0.2955060262421146E+01 -0.2952982663240945E+01
 -0.2950831281644848E+01 -0.2948607198677663E+01 -0.2946311495384202E+01 -0.2943943591870815E+01 -0.2941496691977436E+01
 -0.2938970713559586E+01 -0.2936366008968064E+01 -0.2933682927360276E+01 -0.2930921814743764E+01 -0.2928083014018931E+01
 -0.2925166865021006E+01 -0.2922173704561251E+01 -0.2919103866467425E+01 -0.2915957681623536E+01 -0.2912735478008877E+01
 -0.2909437580736384E+01 -0.2906064312090303E+01 -0.2902615991563219E+01 -0.2899092935892416E+01 -0.2895495459095630E+01
 -0.2891823872506161E+01 -0.2888078484807395E+01 -0.2884259602066739E+01 -0.2880367527768954E+01 -0.2876402562848950E+01
 -0.2872365005724010E+01 -0.2868255152325473E+01 -0.2864073296129886E+01 -0.2859819728189643E+01 -0.2855494737163107E+01
 -0.2851098609344231E+01 -0.2846631628691698E+01 -0.2842094076857581E+01 -0.2837486233215530E+01 -0.2832808374888500E+01
 -0.2828060776776040E+01 -0.2823243711581122E+01 -0.2818357449836560E+01 -0.2813402259930985E+01 -0.2808378408134425E+01
 -0.2803286158623461E+01 -0.2798125773505999E+01 -0.2792897512845641E+01 -0.2787601634685676E+01 -0.2782238395072709E+01
 -0.2776808048079892E+01 -0.2771310845829825E+01 -0.2765747038517087E+01 -0.2760116874430426E+01 -0.2754420599974599E+01
 -0.2748658459691895E+01 -0.2742830696283313E+01 -0.2736937550629429E+01 -0.2730979261810952E+01 -0.2724956067128951E+01
 -0.2718868202124805E+01 -0.2712715900599833E+01 -0.2706499394634648E+01 -0.2700218914608212E+01 -0.2693874689216615E+01
 -0.2687466945491582E+01 -0.2680995908818701E+01 -0.2674461802955385E+01 -0.2667864850048581E+01 -0.2661205270652216E+01
 -0.2654483283744391E+01 -0.2647699106744326E+01 -0.2640852955529071E+01 -0.2633945044449963E+01 -0.2626975586348868E+01
 -0.2619944792574175E+01 -0.2612852872996569E+01 -0.2605700036024594E+01 -0.2598486488619977E+01 -0.2591212436312757E+01
 -0.2583878083216185E+01 -0.2576483632041437E+01 -0.2569029284112104E+01 -0.2561515239378498E+01 -0.2553941696431750E+01
 -0.2546308852517721E+01 -0.2538616903550723E+01 -0.2530866044127050E+01 -0.2523056467538331E+01 -0.2515188365784693E+01
 -0.2507261929587762E+01 -0.2499277348403472E+01 -0.2491234810434718E+01 -0.2483134502643831E+01 -0.2474976610764891E+01
 -0.2466761319315874E+01 -0.2458488811610647E+01 -0.2450159269770790E+01 -0.2441772874737285E+01 -0.2433329806282025E+01
 -0.2424830243019200E+01 -0.2416274362416517E+01 -0.2407662340806283E+01 -0.2398994353396345E+01 -0.2390270574280881E+01
 -0.2381491176451068E+01 -0.2372656331805597E+01 -0.2363766211161071E+01 -0.2354820984262256E+01 -0.2345820819792212E+01
 -0.2336765885382290E+01 -0.2327656347622011E+01 -0.2318492372068816E+01 -0.2309274123257689E+01 -0.2300001764710678E+01
 -0.2290675458946275E+01 -0.2281295367488698E+01 -0.2271861650877049E+01 -0.2262374468674365E+01 -0.2252833979476554E+01
 -0.2243240340921220E+01 -0.2233593709696390E+01 -0.2223894241549124E+01 -0.2214142091294029E+01 -0.2204337412821663E+01
 -0.2194480359106847E+01 -0.2184571082216868E+01 -0.2174609733319590E+01 -0.2164596462691466E+01 -0.2154531419725451E+01
 -0.2144414752938839E+01 -0.2134246609980976E+01 -0.2124027137640912E+01 -0.2113756481854948E+01 -0.2103434787714093E+01
 -0.2093062199471452E+01 -0.2082638860549495E+01 -0.2072164913547283E+01 -0.2061640500247568E+01 -0.2051065761623850E+01
 -0.2040440837847322E+01 -0.2029765868293754E+01 -0.2019040991550291E+01 -0.2008266345422173E+01 -0.1997442066939384E+01
 -0.1986568292363216E+01 -0.1975645157192776E+01 -0.1964672796171391E+01 -0.1953651343292973E+01 -0.1942580931808295E+01
 -0.1931461694231193E+01 -0.1920293762344714E+01 -0.1909077267207181E+01 -0.1897812339158202E+01 -0.1886499107824605E+01
 -0.1875137702126308E+01 -0.1863728250282133E+01 -0.1852270879815545E+01 -0.1840765717560332E+01 -0.1829212889666229E+01
 -0.1817612521604474E+01 -0.1805964738173304E+01 -0.1794269663503398E+01 -0.1782527421063252E+01 -0.1770738133664503E+01
 -0.1758901923467193E+01 -0.1747018911984980E+01 -0.1735089220090289E+01 -0.1723112968019411E+01 -0.1711090275377546E+01
 -0.1699021261143791E+01 -0.1686906043676089E+01 -0.1674744740716098E+01 -0.1662537469394044E+01 -0.1650284346233492E+01
 -0.1637985487156083E+01 -0.1625641007486224E+01 -0.1613251021955719E+01 -0.1600815644708360E+01 -0.1588334989304463E+01
 -0.1575809168725371E+01 -0.1563238295377892E+01 -0.1550622481098707E+01 -0.1537961837158727E+01 -0.1525256474267406E+01
 -0.1512506502577002E+01 -0.1499712031686815E+01 -0.1486873170647361E+01 -0.1473990027964519E+01 -0.1461062711603621E+01
 -0.1448091328993516E+01 -0.1435075987030589E+01 -0.1422016792082732E+01 -0.1408913849993282E+01 -0.1395767266084926E+01
 -0.1382577145163553E+01 -0.1369343591522074E+01 -0.1356066708944218E+01 -0.1342746600708261E+01 -0.1329383369590747E+01
 -0.1315977117870160E+01 -0.1302527947330554E+01 -0.1289035959265168E+01 -0.1275501254479978E+01 -0.1261923933297237E+01
 -0.1248304095558977E+01 -0.1234641840630465E+01 -0.1220937267403634E+01 -0.1207190474300491E+01 -0.1193401559276469E+01
 -0.1179570619823773E+01 -0.1165697752974669E+01 -0.1151783055304765E+01 -0.1137826622936241E+01 -0.1123828551541063E+01
 -0.1109788936344162E+01 -0.1095707872126576E+01 -0.1081585453228572E+01 -0.1067421773552735E+01 -0.1053216926567032E+01
 -0.1038971005307836E+01 -0.1024684102382936E+01 -0.1010356309974511E+01 -0.9959877198420726E+00 -0.9815784233253948E+00
 -0.9671285113474019E+00 -0.9526380744170385E+00 -0.9381072026321090E+00 -0.9235359856820912E+00 -0.9089245128509257E+00
 -0.8942728730197866E+00 -0.8795811546698055E+00 -0.8648494458848025E+00 -0.8500778343539621E+00 -0.8352664073745012E+00
 -0.8204152518543127E+00 -0.8055244543145832E+00 -0.7905941008923815E+00 -0.7756242773432352E+00 -0.7606150690436684E+00
 -0.7455665609937389E+00 -0.7304788378195326E+00 -0.7153519837756414E+00 -0.7001860827476319E+00 -0.6849812182544682E+00
 -0.6697374734509373E+00 -0.6544549311300336E+00 -0.6391336737253430E+00 -0.6237737833133860E+00 -0.6083753416159496E+00
 -0.5929384300024003E+00 -0.5774631294919763E+00 -0.5619495207560560E+00 -0.5463976841204128E+00 -0.5308076995674383E+00
 -0.5151796467383657E+00 -0.4995136049354595E+00 -0.4838096531241834E+00 -0.4680678699353711E+00 -0.4522883336673474E+00
 -0.4364711222880613E+00 -0.4206163134371768E+00 -0.4047239844281647E+00 -0.3887942122503662E+00 -0.3728270735710386E+00
 -0.3568226447373878E+00 -0.3407810017785833E+00 -0.3247022204077541E+00 -0.3085863760239710E+00 -0.2924335437142110E+00
 -0.2762437982553009E+00 -0.2600172141158479E+00 -0.2437538654581627E+00 -0.2274538261401488E+00 -0.2111171697171947E+00
 -0.1947439694440374E+00 -0.1783342982766138E+00 -0.1618882288738986E+00 -0.1454058335997297E+00 -0.1288871845246143E+00
 -0.1123323534275190E+00 -0.9574141179764918E-01 -0.7911443083621329E-01 -0.6245148145816943E-01 -0.4575263429396541E-01
 -0.2901795969125247E-01 -0.1224752771659934E-01  0.4558591842819373E-02  0.2140032947754213E-01  0.3827761595415714E-01
  0.5519038231364044E-01  0.7213855986972613E-01  0.8912208020728044E-01  0.1061408751806754E+00  0.1231948769122081E+00
  0.1402840177904896E+00  0.1574082304688896E+00  0.1745674478639649E+00  0.1917616031539028E+00  0.2089906297769970E+00
  0.2262544614301122E+00  0.2435530320671625E+00  0.2608862758976297E+00  0.2782541273850443E+00  0.2956565212455401E+00
  0.3130933924463522E+00  0.3305646762043880E+00  0.3480703079847624E+00  0.3656102234993761E+00  0.3831843587054874E+00
  0.4007926498043104E+00  0.4184350332395861E+00  0.4361114456962338E+00  0.4538218240989340E+00  0.4715661056107839E+00
  0.4893442276319176E+00  0.5071561277981852E+00  0.5250017439797828E+00  0.5428810142799557E+00  0.5607938770336524E+00
  0.5787402708062376E+00  0.5967201343921884E+00  0.6147334068137955E+00  0.6327800273199031E+00  0.6508599353846193E+00
  0.6689730707060764E+00  0.6871193732051679E+00  0.7052987830243104E+00  0.7235112405262143E+00  0.7417566862926595E+00
  0.7600350611232810E+00  0.7783463060343673E+00  0.7966903622576652E+00  0.8150671712391885E+00  0.8334766746380433E+00
  0.8519188143252602E+00  0.8703935323826307E+00  0.8889007711015543E+00  0.9074404729819018E+00  0.9260125807308641E+00
  0.9446170372618486E+00  0.9632537856933316E+00  0.9819227693477737E+00  0.1000623931750501E+01  0.1019357216628612E+01
  0.1038122567909903E+01  0.1056919929721768E+01  0.1075749246390146E+01  0.1094610462438443E+01  0.1113503522586487E+01
  0.1132428371749476E+01  0.1151384955036925E+01  0.1170373217751658E+01  0.1189393105388757E+01  0.1208444563634551E+01
  0.1227527538365608E+01  0.1246641975647731E+01  0.1265787821734951E+01  0.1284965023068545E+01  0.1304173526276051E+01
  0.1323413278170281E+01  0.1342684225748376E+01  0.1361986316190809E+01  0.1381319496860455E+01  0.1400683715301634E+01
  0.1420078919239163E+01  0.1439505056577420E+01  0.1458962075399422E+01  0.1478449923965892E+01  0.1497968550714351E+01
  0.1517517904258191E+01  0.1537097933385789E+01  0.1556708587059598E+01  0.1576349814415256E+01  0.1596021564760706E+01
  0.1615723787575301E+01  0.1635456432508942E+01  0.1655219449381214E+01  0.1675012788180512E+01  0.1694836399063187E+01
  0.1714690232352704E+01  0.1734574238538782E+01  0.1754488368276570E+01  0.1774432572385812E+01  0.1794406801849999E+01
  0.1814411007815572E+01  0.1834445141591097E+01  0.1854509154646447E+01  0.1874602998612000E+01  0.1894726625277839E+01
  0.1914879986592962E+01  0.1935063034664487E+01  0.1955275721756855E+01  0.1975518000291077E+01  0.1995789822843941E+01
  0.2016091142147240E+01  0.2036421911087027E+01  0.2056782082702830E+01  0.2077171610186927E+01  0.2097590446883572E+01
  0.2118038546288259E+01  0.2138515862046990E+01  0.2159022347955530E+01  0.2179557957958687E+01  0.2200122646149573E+01
  0.2220716366768896E+01  0.2241339074204245E+01  0.2261990722989367E+01  0.2282671267803476E+01  0.2303380663470540E+01
  0.2324118864958577E+01  0.2344885827378991E+01  0.2365681505985850E+01  0.2386505856175227E+01  0.2407358833484499E+01
  0.2428240393591689E+01  0.2449150492314796E+01  0.2470089085611107E+01  0.2491056129576558E+01  0.2512051580445060E+01
  0.2533075394587867E+01  0.2554127528512891E+01  0.2575207938864089E+01  0.2596316582420805E+01  0.2617453416097132E+01
  0.2638618396941283E+01  0.2659811482134971E+01  0.2681032628992753E+01  0.2702281794961445E+01  0.2723558937619478E+01
  0.2744864014676294E+01  0.2766196983971740E+01  0.2787557803475443E+01  0.2808946431286237E+01  0.2830362825631535E+01
  0.2851806944866752E+01  0.2873278747474708E+01  0.2894778192065034E+01  0.2916305237373600E+01  0.2937859842261929E+01
  0.2959441965716613E+01  0.2981051566848744E+01  0.3002688604893352E+01  0.3024353039208831E+01  0.3046044829276370E+01
  0.3067763934699410E+01  0.3089510315203062E+01  0.3111283930633586E+01  0.3133084740957821E+01  0.3154912706262635E+01
  0.3176767786754405E+01  0.3198649942758439E+01  0.3220559134718488E+01  0.3242495323196178E+01  0.3264458468870483E+01
  0.3286448532537221E+01  0.3308465475108498E+01  0.3330509257612224E+01  0.3352579841191557E+01  0.3374677187104412E+01
  0.3396801256722960E+01  0.3418952011533090E+01  0.3441129413133925E+01  0.3463333423237315E+01  0.3485564003667335E+01
  0.3507821116359796E+01  0.3530104723361740E+01  0.3552414786830962E+01  0.3574751269035513E+01  0.3597114132353224E+01
  0.3619503339271220E+01  0.3641918852385429E+01  0.3664360634400136E+01  0.3686828648127477E+01  0.3709322856486987E+01
  0.3731843222505133E+01  0.3754389709314834E+01  0.3776962280155023E+01  0.3799560898370157E+01  0.3822185527409780E+01
  0.3844836130828079E+01  0.3867512672283392E+01  0.3890215115537802E+01  0.3912943424456671E+01  0.3935697563008196E+01
  0.3958477495262965E+01  0.3981283185393527E+01  0.4004114597673951E+01  0.4026971696479387E+01  0.4049854446285648E+01
  0.4072762811668767E+01  0.4095696757304571E+01  0.4118656247968274E+01  0.4141641248534031E+01  0.4164651723974545E+01
  0.4187687639360623E+01  0.4210748959860775E+01  0.4233835650740811E+01  0.4256947677363410E+01  0.4280085005187732E+01
  0.4303247599769001E+01  0.4326435426758099E+01  0.4349648451901187E+01  0.4372886641039276E+01  0.4396149960107849E+01
  0.4419438375136466E+01  0.4442751852248371E+01  0.4466090357660096E+01  0.4489453857681079E+01  0.4512842318713282E+01
  0.4536255707250802E+01  0.4559693989879483E+01  0.4583157133276564E+01  0.4606645104210259E+01  0.4630157869539430E+01
  0.4653695396213174E+01  0.4677257651270477E+01  0.4700844601839834E+01  0.4724456215138885E+01  0.4748092458474057E+01
  0.4771753299240184E+01  0.4795438704920173E+01  0.4819148643084612E+01  0.4842883081391439E+01  0.4866641987585588E+01
  0.4890425329498610E+01  0.4914233075048346E+01  0.4938065192238582E+01  0.4961921649158668E+01  0.4985802413983215E+01
  0.5009707454971721E+01  0.5033636740468251E+01  0.5057590238901072E+01  0.5081567918782334E+01  0.5105569748707738E+01
  0.5129595697356180E+01  0.5153645733489443E+01  0.5177719825951847E+01  0.5201817943669921E+01  0.5225940055652100E+01
  0.5250086130988363E+01  0.5274256138849942E+01  0.5298450048488980E+01  0.5322667829238208E+01  0.5346909450510648E+01
  0.5371174881799273E+01  0.5395464092676711E+01  0.5419777052794904E+01  0.5444113731884830E+01  0.5468474099756172E+01
  0.5492858126297002E+01  0.5517265781473506E+01  0.5541697035329642E+01  0.5566151857986846E+01  0.5590630219643756E+01
  0.5615132090575873E+01  0.5639657441135288E+01  0.5664206241750365E+01  0.5688778462925471E+01  0.5713374075240653E+01
  0.5737993049351360E+01  0.5762635355988165E+01  0.5787300965956429E+01  0.5811989850136073E+01  0.5836701979481243E+01
  0.5861437325020042E+01  0.5886195857854255E+01  0.5910977549159051E+01  0.5935782370182713E+01  0.5960610292246352E+01
  0.5985461286743625E+01  0.6010335325140471E+01  0.6035232378974817E+01  0.6060152419856327E+01  0.6085095419466113E+01
  0.6110061349556463E+01  0.6135050181950573E+01  0.6160061888542302E+01  0.6185096441295857E+01  0.6210153812245569E+01
  0.6235233973495609E+01  0.6260336897219741E+01  0.6285462555661019E+01  0.6310610921131603E+01  0.6335781966012405E+01
  0.6360975662752906E+01  0.6386191983870873E+01  0.6411430901952083E+01  0.6436692389650116E+01  0.6461976419686050E+01
  0.6487282964848252E+01  0.6512611997992104E+01  0.6537963492039755E+01  0.6563337419979891E+01  0.6588733754867463E+01
  0.6614152469823463E+01  0.6639593538034671E+01  0.6665056932753402E+01  0.6690542627297285E+01  0.6716050595049015E+01
  0.6741580809456100E+01  0.6767133244030640E+01  0.6792707872349084E+01  0.6818304668051987E+01  0.6843923604843795E+01
  0.6869564656492587E+01  0.6895227796829855E+01  0.6920912999750271E+01  0.6946620239211471E+01  0.6972349489233799E+01
  0.6998100723900099E+01  0.7023873917355465E+01  0.7049669043807063E+01  0.7075486077523855E+01  0.7101324992836390E+01
  0.7127185764136607E+01  0.7153068365877580E+01  0.7178972772573320E+01  0.7204898958798547E+01  0.7230846899188461E+01
  0.7256816568438547E+01  0.7282807941304353E+01  0.7308820992601252E+01  0.7334855697204267E+01  0.7360912030047818E+01
  0.7386989966125551E+01  0.7413089480490081E+01  0.7439210548252827E+01  0.7465353144583766E+01  0.7491517244711243E+01
  0.7517702823921785E+01  0.7543909857559837E+01  0.7570138321027621E+01  0.7596388189784881E+01  0.7622659439348720E+01
  0.7648952045293369E+01  0.7675265983249998E+01  0.7701601228906518E+01  0.7727957758007379E+01  0.7754335546353358E+01
  0.7780734569801396E+01  0.7807154804264361E+01  0.7833596225710874E+01  0.7860058810165113E+01  0.7886542533706629E+01
  0.7913047372470126E+01  0.7939573302645283E+01  0.7966120300476585E+01  0.7992688342263090E+01  0.8019277404358277E+01
  0.8045887463169841E+01  0.8072518495159487E+01  0.8099170476842794E+01  0.8125843384788975E+01  0.8152537195620742E+01
  0.8179251886014059E+01  0.8205987432698016E+01  0.8232743812454638E+01  0.8259521002118658E+01  0.8286318978577409E+01
  0.8313137718770570E+01  0.8339977199690036E+01  0.8366837398379728E+01  0.8393718291935413E+01  0.8420619857504510E+01
  0.8447542072285950E+01  0.8474484913529977E+01  0.8501448358537981E+01  0.8528432384662304E+01  0.8555436969306115E+01
  0.8582462089923185E+01  0.8609507724017746E+01  0.8636573849144323E+01  0.8663660442907537E+01  0.8690767482961979E+01
  0.8717894947011992E+01  0.8745042812811549E+01  0.8772211058164059E+01  0.8799399660922196E+01  0.8826608598987780E+01
  0.8853837850311542E+01  0.8881087392893026E+01  0.8908357204780383E+01  0.8935647264070219E+01  0.8962957548907466E+01
  0.8990288037485158E+01  0.9017638708044327E+01  0.9045009538873822E+01  0.9072400508310153E+01  0.9099811594737327E+01
  0.9127242776586689E+01  0.9154694032336792E+01  0.9182165340513206E+01  0.9209656679688381E+01  0.9237168028481500E+01
  0.9264699365558295E+01  0.9292250669630940E+01  0.9319821919457855E+01  0.9347413093843569E+01  0.9375024171638596E+01
  0.9402655131739230E+01  0.9430305953087448E+01  0.9457976614670738E+01  0.9485667095521935E+01  0.9513377374719104E+01
  0.9541107431385374E+01  0.9568857244688802E+01  0.9596626793842214E+01  0.9624416058103067E+01  0.9652225016773313E+01
  0.9680053649199230E+01  0.9707901934771316E+01  0.9735769852924106E+01  0.9763657383136069E+01  0.9791564504929434E+01
  0.9819491197870056E+01  0.9847437441567299E+01  0.9875403215673861E+01  0.9903388499885677E+01  0.9931393273941726E+01
  0.9959417517623944E+01  0.9987461210757067E+01  0.1001552433320847E+02  0.1004360686488809E+02  0.1007170878574824E+02
  0.1009983007578347E+02  0.1012797071503048E+02  0.1015613068356793E+02  0.1018430996151635E+02  0.1021250852903801E+02
  0.1024072636633674E+02  0.1026896345365784E+02  0.1029721977128792E+02  0.1032549529955483E+02  0.1035379001882744E+02
  0.1038210390951557E+02  0.1041043695206986E+02  0.1043878912698163E+02  0.1046716041478275E+02  0.1049555079604550E+02
  0.1052396025138249E+02  0.1055238876144646E+02  0.1058083630693023E+02  0.1060930286856653E+02  0.1063778842712789E+02
  0.1066629296342651E+02  0.1069481645831415E+02  0.1072335889268197E+02  0.1075192024746046E+02  0.1078050050361930E+02
  0.1080909964216719E+02  0.1083771764415181E+02  0.1086635449065963E+02  0.1089501016281585E+02  0.1092368464178422E+02
  0.1095237790876696E+02  0.1098108994500465E+02  0.1100982073177605E+02  0.1103857025039809E+02  0.1106733848222564E+02
  0.1109612540865145E+02  0.1112493101110605E+02  0.1115375527105759E+02  0.1118259817001175E+02  0.1121145968951162E+02
  0.1124033981113760E+02  0.1126923851650727E+02  0.1129815578727526E+02  0.1132709160513318E+02  0.1135604595180948E+02
  0.1138501880906933E+02  0.1141401015871455E+02  0.1144301998258344E+02  0.1147204826255072E+02  0.1150109498052739E+02
  0.1153016011846064E+02  0.1155924365833371E+02  0.1158834558216585E+02  0.1161746587201210E+02  0.1164660450996329E+02
  0.1167576147814588E+02  0.1170493675872186E+02  0.1173413033388864E+02  0.1176334218587896E+02  0.1179257229696076E+02
  0.1182182064943710E+02  0.1185108722564604E+02  0.1188037200796053E+02  0.1190967497878834E+02  0.1193899612057188E+02
  0.1196833541578821E+02  0.1199769284694883E+02  0.1202706839659964E+02  0.1205646204732083E+02  0.1208587378172674E+02
  0.1211530358246581E+02  0.1214475143222046E+02  0.1217421731370696E+02  0.1220370120967540E+02  0.1223320310290950E+02
  0.1226272297622658E+02  0.1229226081247745E+02  0.1232181659454629E+02  0.1235139030535054E+02  0.1238098192784086E+02
  0.1241059144500099E+02  0.1244021883984763E+02  0.1246986409543042E+02  0.1249952719483175E+02  0.1252920812116677E+02
  0.1255890685758318E+02  0.1258862338726122E+02  0.1261835769341354E+02  0.1264810975928511E+02  0.1267787956815316E+02
  0.1270766710332700E+02  0.1273747234814801E+02  0.1276729528598955E+02  0.1279713590025677E+02  0.1282699417438664E+02
  0.1285687009184779E+02  0.1288676363614041E+02  0.1291667479079620E+02  0.1294660353937826E+02  0.1297654986548100E+02
  0.1300651375273003E+02  0.1303649518478211E+02  0.1306649414532505E+02  0.1309651061807756E+02  0.1312654458678929E+02
  0.1315659603524059E+02  0.1318666494724256E+02  0.1321675130663684E+02  0.1324685509729562E+02  0.1327697630312151E+02
  0.1330711490804745E+02  0.1333727089603663E+02  0.1336744425108242E+02  0.1339763495720825E+02  0.1342784299846757E+02
  0.1345806835894371E+02  0.1348831102274985E+02  0.1351857097402890E+02  0.1354884819695342E+02  0.1357914267572557E+02
  0.1360945439457696E+02  0.1363978333776865E+02  0.1367012948959099E+02  0.1370049283436358E+02  0.1373087335643520E+02
  0.1376127104018367E+02  0.1379168587001584E+02  0.1382211783036745E+02  0.1385256690570310E+02  0.1388303308051612E+02
  0.1391351633932852E+02  0.1394401666669090E+02  0.1397453404718240E+02  0.1400506846541054E+02  0.1403561990601125E+02
  0.1406618835364870E+02  0.1409677379301527E+02  0.1412737620883146E+02  0.1415799558584581E+02  0.1418863190883483E+02
  0.1421928516260290E+02  0.1424995533198221E+02  0.1428064240183270E+02  0.1431134635704196E+02  0.1434206718252514E+02
  0.1437280486322493E+02  0.1440355938411141E+02  0.1443433073018202E+02  0.1446511888646151E+02  0.1449592383800180E+02
  0.1452674556988193E+02  0.1455758406720803E+02  0.1458843931511317E+02  0.1461931129875737E+02  0.1465020000332744E+02
  0.1468110541403697E+02  0.1471202751612623E+02  0.1474296629486211E+02  0.1477392173553802E+02  0.1480489382347389E+02
  0.1483588254401598E+02  0.1486688788253691E+02  0.1489790982443557E+02  0.1492894835513701E+02  0.1496000346009239E+02
  0.1499107512477891E+02  0.1502216333469977E+02  0.1505326807538402E+02  0.1508438933238661E+02  0.1511552709128817E+02
  0.1514668133769509E+02  0.1517785205723936E+02  0.1520903923557850E+02  0.1524024285839556E+02  0.1527146291139897E+02
  0.1530269938032253E+02  0.1533395225092531E+02  0.1536522150899161E+02  0.1539650714033085E+02  0.1542780913077756E+02
  0.1545912746619125E+02  0.1549046213245639E+02  0.1552181311548235E+02  0.1555318040120329E+02  0.1558456397557811E+02
  0.1561596382459041E+02  0.1564737993424840E+02  0.1567881229058483E+02  0.1571026087965696E+02  0.1574172568754644E+02
  0.1577320670035931E+02  0.1580470390422587E+02  0.1583621728530067E+02  0.1586774682976241E+02  0.1589929252381390E+02
  0.1593085435368199E+02  0.1596243230561748E+02  0.1599402636589512E+02  0.1602563652081347E+02  0.1605726275669489E+02
  0.1608890505988548E+02  0.1612056341675497E+02  0.1615223781369671E+02  0.1618392823712758E+02  0.1621563467348796E+02
  0.1624735710924160E+02  0.1627909553087562E+02  0.1631084992490046E+02  0.1634262027784977E+02  0.1637440657628036E+02
  0.1640620880677218E+02  0.1643802695592822E+02  0.1646986101037444E+02  0.1650171095675978E+02  0.1653357678175601E+02
  0.1656545847205773E+02  0.1659735601438230E+02  0.1662926939546977E+02  0.1666119860208283E+02  0.1669314362100674E+02
  0.1672510443904931E+02  0.1675708104304077E+02  0.1678907341983380E+02  0.1682108155630340E+02  0.1685310543934686E+02
  0.1688514505588372E+02  0.1691720039285569E+02  0.1694927143722660E+02  0.1698135817598234E+02  0.1701346059613081E+02
  0.1704557868470184E+02  0.1707771242874721E+02  0.1710986181534050E+02  0.1714202683157706E+02  0.1717420746457399E+02
  0.1720640370147007E+02  0.1723861552942568E+02  0.1727084293562278E+02  0.1730308590726482E+02  0.1733534443157670E+02
  0.1736761849580476E+02  0.1739990808721664E+02  0.1743221319310131E+02  0.1746453380076893E+02  0.1749686989755090E+02
  0.1752922147079970E+02  0.1756158850788892E+02  0.1759397099621318E+02  0.1762636892318802E+02  0.1765878227624999E+02
  0.1769121104285641E+02  0.1772365521048548E+02  0.1775611476663613E+02  0.1778858969882802E+02  0.1782107999460146E+02
  0.1785358564151735E+02  0.1788610662715719E+02  0.1791864293912294E+02  0.1795119456503704E+02  0.1798376149254229E+02
  0.1801634370930192E+02  0.1804894120299939E+02  0.1808155396133844E+02  0.1811418197204300E+02  0.1814682522285715E+02
  0.1817948370154510E+02  0.1821215739589108E+02  0.1824484629369931E+02  0.1827755038279399E+02  0.1831026965101920E+02
  0.1834300408623891E+02  0.1837575367633684E+02  0.1840851840921652E+02  0.1844129827280113E+02  0.1847409325503355E+02
  0.1850690334387627E+02  0.1853972852731133E+02  0.1857256879334029E+02  0.1860542412998415E+02  0.1863829452528335E+02
  0.1867117996729772E+02  0.1870408044410638E+02  0.1873699594380774E+02  0.1876992645451946E+02  0.1880287196437832E+02
  0.1883583246154031E+02  0.1886880793418047E+02  0.1890179837049290E+02  0.1893480375869066E+02  0.1896782408700581E+02
  0.1900085934368927E+02  0.1903390951701085E+02  0.1906697459525916E+02  0.1910005456674158E+02  0.1913314941978420E+02
  0.1916625914273182E+02  0.1919938372394782E+02  0.1923252315181422E+02  0.1926567741473154E+02  0.1929884650111881E+02
  0.1933203039941353E+02  0.1936522909807159E+02  0.1939844258556725E+02  0.1943167085039308E+02  0.1946491388105993E+02
  0.1949817166609690E+02  0.1953144419405126E+02  0.1956473145348843E+02  0.1959803343299194E+02  0.1963135012116333E+02
  0.1966468150662223E+02  0.1969802757800620E+02  0.1973138832397074E+02  0.1976476373318922E+02  0.1979815379435285E+02
  0.1983155849617070E+02  0.1986497782736953E+02  0.1989841177669384E+02  0.1993186033290582E+02  0.1996532348478528E+02
  0.1999880122112963E+02  0.2003229353075380E+02  0.2006580040249029E+02  0.2009932182518898E+02  0.2013285778771727E+02
  0.2016640827895989E+02  0.2019997328781890E+02  0.2023355280321370E+02  0.2026714681408093E+02  0.2030075530937448E+02
  0.2033437827806539E+02  0.2036801570914184E+02  0.2040166759160913E+02  0.2043533391448961E+02  0.2046901466682266E+02
  0.2050270983766462E+02  0.2053641941608879E+02  0.2057014339118536E+02  0.2060388175206139E+02  0.2063763448784077E+02
  0.2067140158766417E+02  0.2070518304068896E+02  0.2073897883608928E+02  0.2077278896305589E+02  0.2080661341079623E+02
  0.2084045216853427E+02  0.2087430522551056E+02  0.2090817257098216E+02  0.2094205419422259E+02  0.2097595008452185E+02
  0.2100986023118627E+02  0.2104378462353860E+02  0.2107772325091788E+02  0.2111167610267944E+02  0.2114564316819486E+02
  0.2117962443685193E+02  0.2121361989805462E+02  0.2124762954122301E+02  0.2128165335579330E+02  0.2131569133121777E+02
  0.2134974345696466E+02  0.2138380972251826E+02  0.2141789011737878E+02  0.2145198463106234E+02  0.2148609325310098E+02
  0.2152021597304252E+02  0.2155435278045064E+02  0.2158850366490475E+02  0.2162266861600001E+02  0.2165684762334728E+02
  0.2169104067657307E+02  0.2172524776531955E+02  0.2175946887924442E+02  0.2179370400802098E+02  0.2182795314133806E+02
  0.2186221626889993E+02  0.2189649338042634E+02  0.2193078446565244E+02  0.2196508951432878E+02  0.2199940851622125E+02
  0.2203374146111102E+02  0.2206808833879457E+02  0.2210244913908360E+02  0.2213682385180503E+02  0.2217121246680096E+02
  0.2220561497392860E+02  0.2224003136306029E+02  0.2227446162408342E+02  0.2230890574690044E+02  0.2234336372142878E+02
  0.2237783553760088E+02  0.2241232118536403E+02  0.2244682065468051E+02  0.2248133393552744E+02  0.2251586101789676E+02
  0.2255040189179522E+02  0.2258495654724437E+02  0.2261952497428043E+02  0.2265410716295438E+02  0.2268870310333185E+02
  0.2272331278549312E+02  0.2275793619953308E+02  0.2279257333556114E+02  0.2282722418370132E+02  0.2286188873409212E+02
  0.2289656697688649E+02  0.2293125890225189E+02  0.2296596450037011E+02  0.2300068376143739E+02  0.2303541667566428E+02
  0.2307016323327567E+02  0.2310492342451070E+02  0.2313969723962279E+02  0.2317448466887961E+02  0.2320928570256297E+02
  0.2324410033096885E+02  0.2327892854440738E+02  0.2331377033320275E+02  0.2334862568769330E+02  0.2338349459823129E+02
  0.2341837705518309E+02  0.2345327304892896E+02  0.2348818256986315E+02  0.2352310560839382E+02  0.2355804215494301E+02
  0.2359299219994660E+02  0.2362795573385432E+02  0.2366293274712966E+02  0.2369792323024987E+02  0.2373292717370599E+02
  0.2376794456800268E+02  0.2380297540365833E+02  0.2383801967120495E+02  0.2387307736118816E+02  0.2390814846416720E+02
  0.2394323297071480E+02  0.2397833087141726E+02  0.2401344215687437E+02  0.2404856681769938E+02  0.2408370484451900E+02
  0.2411885622797329E+02  0.2415402095871572E+02  0.2418919902741315E+02  0.2422439042474570E+02  0.2425959514140682E+02
  0.2429481316810320E+02  0.2433004449555482E+02  0.2436528911449476E+02  0.2440054701566940E+02  0.2443581818983818E+02
  0.2447110262777371E+02  0.2450640032026169E+02  0.2454171125810086E+02  0.2457703543210302E+02  0.2461237283309297E+02
  0.2464772345190850E+02  0.2468308727940036E+02  0.2471846430643221E+02  0.2475385452388063E+02  0.2478925792263504E+02
  0.2482467449359774E+02  0.2486010422768381E+02  0.2489554711582117E+02  0.2493100314895045E+02  0.2496647231802507E+02
  0.2500195461401109E+02  0.2503745002788731E+02  0.2507295855064517E+02  0.2510848017328873E+02  0.2514401488683464E+02
  0.2517956268231214E+02  0.2521512355076301E+02  0.2525069748324160E+02  0.2528628447081467E+02  0.2532188450456152E+02
  0.2535749757557384E+02  0.2539312367495576E+02  0.2542876279382383E+02  0.2546441492330691E+02  0.2550008005454623E+02
  0.2553575817869531E+02  0.2557144928691999E+02  0.2560715337039837E+02  0.2564287042032073E+02  0.2567860042788961E+02
  0.2571434338431973E+02  0.2575009928083795E+02  0.2578586810868327E+02  0.2582164985910680E+02  0.2585744452337175E+02
  0.2589325209275334E+02  0.2592907255853887E+02  0.2596490591202761E+02  0.2600075214453085E+02  0.2603661124737181E+02
  0.2607248321188566E+02  0.2610836802941944E+02  0.2614426569133213E+02  0.2618017618899452E+02  0.2621609951378926E+02
  0.2625203565711080E+02  0.2628798461036535E+02  0.2632394636497094E+02  0.2635992091235730E+02  0.2639590824396586E+02
  0.2643190835124975E+02  0.2646792122567377E+02  0.2650394685871435E+02  0.2653998524185956E+02  0.2657603636660902E+02
  0.2661210022447394E+02  0.2664817680697708E+02  0.2668426610565272E+02  0.2672036811204662E+02  0.2675648281771603E+02
  0.2679261021422964E+02  0.2682875029316758E+02  0.2686490304612136E+02  0.2690106846469388E+02  0.2693724654049942E+02
  0.2697343726516354E+02  0.2700964063032317E+02  0.2704585662762650E+02  0.2708208524873297E+02  0.2711832648531327E+02
  0.2715458032904930E+02  0.2719084677163421E+02  0.2722712580477224E+02  0.2726341742017884E+02  0.2729972160958058E+02
  0.2733603836471507E+02  0.2737236767733111E+02  0.2740870953918848E+02  0.2744506394205803E+02  0.2748143087772160E+02
  0.2751781033797205E+02  0.2755420231461322E+02  0.2759060679945984E+02  0.2762702378433763E+02  0.2766345326108319E+02
  0.2769989522154399E+02  0.2773634965757838E+02  0.2777281656105554E+02  0.2780929592385545E+02  0.2784578773786896E+02
  0.2788229199499756E+02  0.2791880868715362E+02  0.2795533780626020E+02  0.2799187934425101E+02  0.2802843329307055E+02
  0.2806499964467387E+02  0.2810157839102677E+02  0.2813816952410562E+02  0.2817477303589741E+02  0.2821138891839970E+02
  0.2824801716362059E+02  0.2828465776357879E+02  0.2832131071030345E+02  0.2835797599583424E+02  0.2839465361222134E+02
  0.2843134355152533E+02  0.2846804580581729E+02  0.2850476036717867E+02  0.2854148722770130E+02  0.2857822637948741E+02
  0.2861497781464959E+02  0.2865174152531074E+02  0.2868851750360411E+02  0.2872530574167315E+02  0.2876210623167170E+02
  0.2879891896576374E+02  0.2883574393612359E+02  0.2887258113493569E+02  0.2890943055439470E+02  0.2894629218670543E+02
  0.2898316602408292E+02  0.2902005205875224E+02  0.2905695028294863E+02  0.2909386068891739E+02  0.2913078326891389E+02
  0.2916771801520358E+02  0.2920466492006193E+02  0.2924162397577440E+02  0.2927859517463648E+02  0.2931557850895357E+02
  0.2935257397104109E+02  0.2938958155322433E+02  0.2942660124783860E+02  0.2946363304722895E+02  0.2950067694375043E+02
  0.2953773292976791E+02  0.2957480099765607E+02  0.2961188113979944E+02  0.2964897334859233E+02  0.2968607761643885E+02
  0.2972319393575285E+02  0.2976032229895792E+02  0.2979746269848738E+02  0.2983461512678429E+02  0.2987177957630131E+02
  0.2990895603950085E+02  0.2994614450885494E+02  0.2998334497684521E+02  0.3002055743596295E+02  0.3005778187870898E+02
  0.3009501829759375E+02  0.3013226668513726E+02  0.3016952703386902E+02  0.3020679933632806E+02  0.3024408358506293E+02
  0.3028137977263164E+02  0.3031868789160172E+02  0.3035600793455002E+02  0.3039333989406295E+02  0.3043068376273627E+02
  0.3046803953317515E+02  0.3050540719799408E+02  0.3054278674981699E+02  0.3058017818127708E+02  0.3061758148501689E+02
  0.3065499665368828E+02  0.3069242367995236E+02  0.3072986255647953E+02  0.3076731327594944E+02  0.3080477583105094E+02
  0.3084225021448217E+02  0.3087973641895035E+02  0.3091723443717199E+02  0.3095474426187267E+02  0.3099226588578717E+02
  0.3102979930165941E+02  0.3106734450224236E+02  0.3110490148029812E+02  0.3114247022859787E+02  0.3118005073992180E+02
  0.3121764300705919E+02  0.3125524702280834E+02  0.3129286277997653E+02  0.3133049027138004E+02  0.3136812948984413E+02
  0.3140578042820299E+02  0.3144344307929980E+02  0.3148111743598662E+02  0.3151880349112436E+02  0.3155650123758297E+02
  0.3159421066824114E+02  0.3163193177598645E+02  0.3166966455371534E+02  0.3170740899433304E+02  0.3174516509075360E+02
  0.3178293283589987E+02  0.3182071222270345E+02  0.3185850324410474E+02  0.3189630589305277E+02  0.3193412016250543E+02
  0.3197194604542922E+02  0.3200978353479938E+02  0.3204763262359981E+02  0.3208549330482303E+02  0.3212336557147029E+02
  0.3216124941655136E+02  0.3219914483308471E+02  0.3223705181409733E+02  0.3227497035262486E+02  0.3231290044171143E+02
  0.3235084207440978E+02  0.3238879524378113E+02  0.3242675994289523E+02  0.3246473616483033E+02  0.3250272390267319E+02
  0.3254072314951899E+02  0.3257873389847137E+02  0.3261675614264244E+02  0.3265478987515270E+02  0.3269283508913107E+02
  0.3273089177771484E+02  0.3276895993404968E+02  0.3280703955128964E+02  0.3284513062259708E+02  0.3288323314114270E+02
  0.3292134710010553E+02  0.3295947249267285E+02  0.3299760931204030E+02  0.3303575755141171E+02  0.3307391720399919E+02
  0.3311208826302308E+02  0.3315027072171199E+02  0.3318846457330265E+02  0.3322666981104002E+02  0.3326488642817725E+02
  0.3330311441797566E+02  0.3334135377370468E+02  0.3337960448864190E+02  0.3341786655607298E+02  0.3345613996929175E+02
  0.3349442472160010E+02  0.3353272080630796E+02  0.3357102821673334E+02  0.3360934694620231E+02  0.3364767698804898E+02
  0.3368601833561537E+02  0.3372437098225165E+02  0.3376273492131585E+02  0.3380111014617408E+02  0.3383949665020027E+02
  0.3387789442677643E+02  0.3391630346929240E+02  0.3395472377114598E+02  0.3399315532574285E+02  0.3403159812649658E+02
  0.3407005216682861E+02  0.3410851744016826E+02  0.3414699393995259E+02  0.3418548165962665E+02  0.3422398059264315E+02
  0.3426249073246271E+02  0.3430101207255367E+02  0.3433954460639216E+02  0.3437808832746209E+02  0.3441664322925504E+02
  0.3445520930527042E+02  0.3449378654901529E+02  0.3453237495400440E+02  0.3457097451376028E+02  0.3460958522181303E+02
  0.3464820707170042E+02  0.3468684005696796E+02  0.3472548417116867E+02  0.3476413940786330E+02  0.3480280576062011E+02
  0.3484148322301504E+02  0.3488017178863154E+02  0.3491887145106063E+02  0.3495758220390096E+02  0.3499630404075862E+02
  0.3503503695524726E+02  0.3507378094098808E+02  0.3511253599160969E+02  0.3515130210074830E+02  0.3519007926204750E+02
  0.3522886746915839E+02  0.3526766671573948E+02  0.3530647699545674E+02  0.3534529830198353E+02  0.3538413062900062E+02
  0.3542297397019622E+02  0.3546182831926587E+02  0.3550069366991247E+02  0.3553957001584631E+02  0.3557845735078503E+02
  0.3561735566845352E+02  0.3565626496258410E+02  0.3569518522691624E+02  0.3573411645519689E+02  0.3577305864118010E+02
  0.3581201177862730E+02  0.3585097586130710E+02  0.3588995088299539E+02  0.3592893683747524E+02  0.3596793371853703E+02
  0.3600694151997823E+02  0.3604596023560355E+02  0.3608498985922485E+02  0.3612403038466118E+02  0.3616308180573876E+02
  0.3620214411629085E+02  0.3624121731015794E+02  0.3628030138118761E+02  0.3631939632323449E+02  0.3635850213016033E+02
  0.3639761879583398E+02  0.3643674631413128E+02  0.3647588467893524E+02  0.3651503388413579E+02  0.3655419392362995E+02
  0.3659336479132171E+02  0.3663254648112213E+02  0.3667173898694919E+02  0.3671094230272791E+02  0.3675015642239018E+02
  0.3678938133987497E+02  0.3682861704912808E+02  0.3686786354410233E+02  0.3690712081875737E+02  0.3694638886705983E+02
  0.3698566768298319E+02  0.3702495726050783E+02  0.3706425759362099E+02  0.3710356867631676E+02  0.3714289050259613E+02
  0.3718222306646683E+02  0.3722156636194349E+02  0.3726092038304753E+02  0.3730028512380718E+02  0.3733966057825739E+02
  0.3737904674044000E+02  0.3741844360440349E+02  0.3745785116420322E+02  0.3749726941390118E+02  0.3753669834756619E+02
  0.3757613795927366E+02  0.3761558824310583E+02  0.3765504919315157E+02  0.3769452080350648E+02  0.3773400306827276E+02
  0.3777349598155934E+02  0.3781299953748175E+02  0.3785251373016219E+02  0.3789203855372950E+02  0.3793157400231908E+02
  0.3797112007007298E+02  0.3801067675113984E+02  0.3805024403967486E+02  0.3808982192983982E+02  0.3812941041580309E+02
  0.3816900949173951E+02  0.3820861915183055E+02  0.3824823939026415E+02  0.3828787020123480E+02  0.3832751157894344E+02
  0.3836716351759758E+02  0.3840682601141111E+02  0.3844649905460452E+02  0.3848618264140464E+02  0.3852587676604483E+02
  0.3856558142276482E+02  0.3860529660581086E+02  0.3864502230943553E+02  0.3868475852789786E+02  0.3872450525546327E+02
  0.3876426248640353E+02  0.3880403021499686E+02  0.3884380843552776E+02  0.3888359714228715E+02  0.3892339632957223E+02
  0.3896320599168658E+02  0.3900302612294008E+02  0.3904285671764892E+02  0.3908269777013559E+02  0.3912254927472888E+02
  0.3916241122576382E+02  0.3920228361758180E+02  0.3924216644453033E+02  0.3928205970096329E+02  0.3932196338124074E+02
  0.3936187747972895E+02  0.3940180199080046E+02  0.3944173690883397E+02  0.3948168222821438E+02  0.3952163794333281E+02
  0.3956160404858651E+02  0.3960158053837892E+02  0.3964156740711962E+02  0.3968156464922435E+02  0.3972157225911496E+02
  0.3976159023121945E+02  0.3980161855997193E+02  0.3984165723981258E+02  0.3988170626518774E+02  0.3992176563054972E+02
  0.3996183533035703E+02  0.4000191535907418E+02  0.4004200571117172E+02  0.4008210638112625E+02  0.4012221736342047E+02
  0.4016233865254297E+02  0.4020247024298849E+02  0.4024261212925768E+02  0.4028276430585724E+02  0.4032292676729981E+02
  0.4036309950810404E+02  0.4040328252279449E+02  0.4044347580590177E+02  0.4048367935196233E+02  0.4052389315551862E+02
  0.4056411721111895E+02  0.4060435151331763E+02  0.4064459605667486E+02  0.4068485083575666E+02  0.4072511584513499E+02
  0.4076539107938768E+02  0.4080567653309847E+02  0.4084597220085685E+02  0.4088627807725830E+02  0.4092659415690397E+02
  0.4096692043440102E+02  0.4100725690436226E+02  0.4104760356140644E+02  0.4108796040015802E+02  0.4112832741524733E+02
  0.4116870460131037E+02  0.4120909195298908E+02  0.4124948946493097E+02  0.4128989713178947E+02  0.4133031494822362E+02
  0.4137074290889829E+02  0.4141118100848404E+02  0.4145162924165712E+02  0.4149208760309954E+02  0.4153255608749895E+02
  0.4157303468954876E+02  0.4161352340394796E+02  0.4165402222540132E+02  0.4169453114861918E+02  0.4173505016831758E+02
  0.4177557927921819E+02  0.4181611847604832E+02  0.4185666775354090E+02  0.4189722710643445E+02  0.4193779652947315E+02
  0.4197837601740671E+02  0.4201896556499051E+02  0.4205956516698543E+02  0.4210017481815795E+02  0.4214079451328013E+02
  0.4218142424712958E+02  0.4222206401448940E+02  0.4226271381014829E+02  0.4230337362890047E+02  0.4234404346554560E+02
  0.4238472331488896E+02  0.4242541317174125E+02  0.4246611303091868E+02  0.4250682288724297E+02  0.4254754273554127E+02
  0.4258827257064621E+02  0.4262901238739585E+02  0.4266976218063381E+02  0.4271052194520897E+02  0.4275129167597579E+02
  0.4279207136779408E+02  0.4283286101552908E+02  0.4287366061405138E+02  0.4291447015823709E+02  0.4295528964296757E+02
  0.4299611906312964E+02  0.4303695841361548E+02  0.4307780768932260E+02  0.4311866688515388E+02  0.4315953599601754E+02
  0.4320041501682717E+02  0.4324130394250159E+02  0.4328220276796509E+02  0.4332311148814711E+02  0.4336403009798250E+02
  0.4340495859241135E+02  0.4344589696637910E+02  0.4348684521483636E+02  0.4352780333273913E+02  0.4356877131504853E+02
  0.4360974915673109E+02  0.4365073685275844E+02  0.4369173439810758E+02  0.4373274178776061E+02  0.4377375901670492E+02
  0.4381478607993309E+02  0.4385582297244293E+02  0.4389686968923741E+02  0.4393792622532466E+02  0.4397899257571809E+02
  0.4402006873543620E+02  0.4406115469950262E+02  0.4410225046294624E+02  0.4414335602080099E+02  0.4418447136810604E+02
  0.4422559649990559E+02  0.4426673141124900E+02  0.4430787609719079E+02  0.4434903055279051E+02  0.4439019477311286E+02
  0.4443136875322761E+02  0.4447255248820962E+02  0.4451374597313877E+02  0.4455494920310011E+02  0.4459616217318368E+02
  0.4463738487848460E+02  0.4467861731410296E+02  0.4471985947514400E+02  0.4476111135671785E+02  0.4480237295393983E+02
  0.4484364426193008E+02  0.4488492527581393E+02  0.4492621599072154E+02  0.4496751640178820E+02  0.4500882650415404E+02
  0.4505014629296428E+02  0.4509147576336907E+02  0.4513281491052348E+02  0.4517416372958758E+02  0.4521552221572633E+02
  0.4525689036410969E+02  0.4529826816991250E+02  0.4533965562831452E+02  0.4538105273450039E+02  0.4542245948365977E+02
  0.4546387587098711E+02  0.4550530189168179E+02  0.4554673754094802E+02  0.4558818281399497E+02  0.4562963770603661E+02
  0.4567110221229182E+02  0.4571257632798426E+02  0.4575406004834252E+02  0.4579555336859995E+02  0.4583705628399478E+02
  0.4587856878977001E+02  0.4592009088117355E+02  0.4596162255345799E+02  0.4600316380188084E+02  0.4604471462170433E+02
  0.4608627500819549E+02  0.4612784495662611E+02  0.4616942446227281E+02  0.4621101352041689E+02  0.4625261212634452E+02
  0.4629422027534649E+02  0.4633583796271841E+02  0.4637746518376062E+02  0.4641910193377813E+02  0.4646074820808077E+02
  0.4650240400198299E+02  0.4654406931080398E+02  0.4658574412986768E+02  0.4662742845450261E+02  0.4666912228004205E+02
  0.4671082560182397E+02  0.4675253841519096E+02  0.4679426071549031E+02  0.4683599249807396E+02  0.4687773375829846E+02
  0.4691948449152508E+02  0.4696124469311962E+02  0.4700301435845262E+02  0.4704479348289915E+02  0.4708658206183900E+02
  0.4712838009065639E+02  0.4717018756474035E+02  0.4721200447948434E+02  0.4725383083028650E+02  0.4729566661254950E+02
  0.4733751182168064E+02  0.4737936645309169E+02  0.4742123050219907E+02  0.4746310396442370E+02  0.4750498683519113E+02
  0.4754687910993128E+02  0.4758878078407876E+02  0.4763069185307263E+02  0.4767261231235649E+02  0.4771454215737847E+02
  0.4775648138359117E+02  0.4779842998645169E+02  0.4784038796142161E+02  0.4788235530396706E+02  0.4792433200955856E+02
  0.4796631807367120E+02  0.4800831349178441E+02  0.4805031825938218E+02  0.4809233237195293E+02  0.4813435582498951E+02
  0.4817638861398915E+02  0.4821843073445368E+02  0.4826048218188912E+02  0.4830254295180615E+02  0.4834461303971966E+02
  0.4838669244114908E+02  0.4842878115161815E+02  0.4847087916665507E+02  0.4851298648179237E+02  0.4855510309256702E+02
  0.1015205501769701E+03  0.1015205501769701E+03  0.1015205501769701E+03  0.1015205501769701E+03  0.1015205501769701E+03
  0.1015205501769701E+03  0.1015205501769701E+03  0.1015205501769701E+03  0.1015205501769701E+03  0.1015205501769701E+03
  0.1015205501769701E+03  0.1015205501769701E+03  0.1015205501769701E+03  0.1015205501769701E+03  0.1015205501769701E+03
  0.1015205501769701E+03  0.1015205501769701E+03  0.1015205501769701E+03  0.1015205501769701E+03  0.1015205501769701E+03
  0.1015205501769701E+03  0.1015205501769701E+03  0.1015205501769701E+03  0.1015205501769701E+03  0.1015205501769701E+03
  0.1015205501769701E+03  0.1015205501769701E+03  0.1015205501769701E+03  0.1015205501769701E+03  0.1015205501769701E+03
  0.1015205501769701E+03  0.1015205501769701E+03  0.1015205501769701E+03  0.1015205501769701E+03  0.1015205501769701E+03
  0.1015205501769701E+03  0.1015205501769701E+03  0.1015205501769701E+03  0.1015205501769701E+03  0.1015205501769701E+03
  0.1015205501769701E+03  0.1015205501769701E+03  0.1015205501769701E+03  0.1015205501769701E+03  0.1015205501769701E+03
  0.1015205501769701E+03  0.1015205501769701E+03  0.1015205501769701E+03  0.1015205501769701E+03  0.1015205501769701E+03
  0.1015205501769701E+03  0.1015205501769701E+03  0.1015205501769701E+03  0.1015205501769701E+03  0.1015205501769701E+03
  0.1015205501769701E+03  0.1015205501769701E+03  0.1015205501769701E+03  0.1015205501769701E+03  0.1015205501769701E+03
  0.1015205501769701E+03  0.1015205501769701E+03  0.1015205501769701E+03  0.1015205501769701E+03  0.1015205501769701E+03
  0.1015205501769701E+03  0.1015205501769701E+03  0.1015205501769701E+03  0.1015205501769701E+03  0.1015205501769701E+03
  0.1015205501769701E+03  0.1015205501769701E+03  0.1015205501769701E+03  0.1015205501769701E+03  0.1015205501769701E+03
  0.1015205501769701E+03  0.1015205501769701E+03  0.1015205501769701E+03  0.1015205501769701E+03  0.1015205501769701E+03
  0.1015205501769701E+03  0.1015205501769701E+03  0.1015205501769701E+03  0.1015205501769701E+03  0.1015205501769701E+03
  0.1015205501769701E+03  0.1015205501769701E+03  0.1015205501769701E+03  0.1015205501769701E+03  0.1015205501769701E+03
  0.1015205501769701E+03  0.1015205501769701E+03  0.1015205501769701E+03  0.1015205501769701E+03  0.1015205501769701E+03
  0.1015205501769701E+03  0.1015205501769701E+03  0.1015205501769701E+03  0.1015205501769701E+03  0.1015205501769701E+03
  0.1015205501769701E+03  0.1015205501769701E+03  0.1015205501769701E+03  0.1015205501769701E+03  0.1015205501769701E+03
  0.1015205501769701E+03  0.1015205501769701E+03  0.1015205501769701E+03  0.1015205501769701E+03  0.1015205501769701E+03
  0.1015205501769701E+03  0.1015205501769701E+03  0.1015205501769701E+03  0.1015205501769701E+03  0.1015205501769701E+03
  0.1015205501769701E+03  0.1015205501769701E+03  0.1015205501769701E+03  0.1015205501769701E+03  0.1015205501769701E+03
  0.1015205501769701E+03  0.1015205501769701E+03  0.1015205501769701E+03  0.1015205501769701E+03  0.1015205501769701E+03
  0.1015205501769701E+03  0.1015205501769701E+03  0.1015205501769701E+03  0.1015205501769701E+03  0.1015205501769701E+03
  0.1015205501769701E+03  0.1015205501769701E+03  0.1015205501769701E+03  0.1015205501769701E+03  0.1015205501769701E+03
  0.1015205501769701E+03  0.1015205501769701E+03  0.1015205501769701E+03  0.1015205501769701E+03  0.1015205501769701E+03
  0.1015205501769701E+03  0.1015205501769701E+03  0.1015205501769701E+03  0.1015205501769701E+03  0.1015205501769701E+03
  0.1015205501769701E+03  0.1015205501769701E+03  0.1015205501769701E+03  0.1015205501769701E+03  0.1015205501769701E+03
  0.1015205501769701E+03  0.1015205501769701E+03  0.1015205501769701E+03  0.1015205501769701E+03  0.1015205501769701E+03
  0.1014825488779161E+03  0.1009081139553965E+03  0.1003369283785373E+03  0.9976897385513621E+02  0.9920423219258653E+02
  0.9864268529746057E+02  0.9808431517508944E+02  0.9752910392914031E+02  0.9697703376119145E+02  0.9642808697030453E+02
  0.9588224595259565E+02  0.9533949320080312E+02  0.9479981130385457E+02  0.9426318294643205E+02  0.9372959090853580E+02
  0.9319901806504610E+02  0.9267144738528462E+02  0.9214686193257440E+02  0.9162524486379888E+02  0.9110657942896052E+02
  0.9059084897073750E+02  0.9007803692404157E+02  0.8956812681557442E+02  0.8906110226338348E+02  0.8855694697641803E+02
  0.8805564475408507E+02  0.8755717948580475E+02  0.8706153515056646E+02  0.8656869581648414E+02  0.8607864564035269E+02
  0.8559136886720398E+02  0.8510684982986396E+02  0.8462507294850910E+02  0.8414602273022442E+02  0.8366968376856148E+02
  0.8319604074309716E+02  0.8272507841899321E+02  0.8225678164655641E+02  0.8179113536079959E+02  0.8132812458100365E+02
  0.8086773441028026E+02  0.8040995003513589E+02  0.7995475672503649E+02  0.7950213983197339E+02  0.7905208479003042E+02
  0.7860457711495194E+02  0.7815960240371244E+02  0.7771714633408700E+02  0.7727719466422307E+02  0.7683973323221390E+02
  0.7640474795567286E+02  0.7597222483130949E+02  0.7554214993450670E+02  0.7511450941889943E+02  0.7468928951595504E+02
  0.7426647653455485E+02  0.7384605686057736E+02  0.7342801695648286E+02  0.7301234336089983E+02  0.7259902268821266E+02
  0.7218804162815120E+02  0.7177938694538173E+02  0.7137304547909959E+02  0.7096900414262349E+02  0.7056724992299166E+02
  0.7016776988055933E+02  0.6977055114859813E+02  0.6937558093289699E+02  0.6898284651136520E+02  0.6859233523363665E+02
  0.6820403452067615E+02  0.6781793186438729E+02  0.6743401482722224E+02  0.6705227104179311E+02  0.6667268821048539E+02
  0.6629525410507280E+02  0.6591995656633402E+02  0.6554678350367145E+02  0.6517572289473127E+02  0.6480676278502617E+02
  0.6443989128755862E+02  0.6407509658244702E+02  0.6371236691655308E+02  0.6335169060311145E+02  0.6299305602136054E+02
  0.6263645161617571E+02  0.6228186589770393E+02  0.6192928744100042E+02  0.6157870488566711E+02  0.6123010693549273E+02
  0.6088348235809486E+02  0.6053881998456377E+02  0.6019610870910788E+02  0.5985533748870144E+02  0.5951649534273375E+02
  0.5917957135265972E+02  0.5884455466165321E+02  0.5851143447426142E+02  0.5818020005606127E+02  0.5785084073331758E+02
  0.5752334589264306E+02  0.5719770498066000E+02  0.5687390750366384E+02  0.5655194302728844E+02  0.5623180117617304E+02
  0.5591347163363115E+02  0.5559694414132103E+02  0.5528220849891807E+02  0.5496925456378890E+02  0.5465807225066695E+02
  0.5434865153133011E+02  0.5404098243428011E+02  0.5373505504442328E+02  0.5343085950275333E+02  0.5312838600603573E+02
  0.5282762480649383E+02  0.5252856621149671E+02  0.5223120058324859E+02  0.5193551833848000E+02  0.5164150994814073E+02
  0.5134916593709421E+02  0.5105847688381385E+02  0.5076943342008096E+02  0.5048202623068392E+02  0.5019624605311962E+02
  0.4991208367729612E+02  0.4962952994523728E+02  0.4934857575078843E+02  0.4906921203932432E+02  0.4879142980745821E+02
  0.4851522010275296E+02  0.4824057402343325E+02  0.4796748271809980E+02  0.4769593738544483E+02  0.4742592927396948E+02
  0.4715744968170245E+02  0.4689048995592037E+02  0.4662504149286965E+02  0.4636109573748990E+02  0.4609864418313894E+02
  0.4583767837131926E+02  0.4557818989140610E+02  0.4532017038037679E+02  0.4506361152254199E+02  0.4480850504927812E+02
  0.4455484273876144E+02  0.4430261641570348E+02  0.4405181795108799E+02  0.4380243926190959E+02  0.4355447231091352E+02
  0.4330790910633706E+02  0.4306274170165234E+02  0.4281896219531058E+02  0.4257656273048779E+02  0.4233553549483193E+02
  0.4209587272021140E+02  0.4185756668246497E+02  0.4162060970115309E+02  0.4138499413931075E+02  0.4115071240320149E+02
  0.4091775694207301E+02  0.4068612024791388E+02  0.4045579485521196E+02  0.4022677334071398E+02  0.3999904832318641E+02
  0.3977261246317784E+02  0.3954745846278252E+02  0.3932357906540551E+02  0.3910096705552875E+02  0.3887961525847886E+02
  0.3865951654019592E+02  0.3844066380700375E+02  0.3822305000538133E+02  0.3800666812173587E+02  0.3779151118217655E+02
  0.3757757225228997E+02  0.3736484443691691E+02  0.3715332087993013E+02  0.3694299476401339E+02  0.3673385931044200E+02
  0.3652590777886430E+02  0.3631913346708458E+02  0.3611352971084714E+02  0.3590908988362161E+02  0.3570580739638936E+02
  0.3550367569743126E+02  0.3530268827211669E+02  0.3510283864269338E+02  0.3490412036807907E+02  0.3470652704365357E+02
  0.3451005230105267E+02  0.3431468980796286E+02  0.3412043326791728E+02  0.3392727642009283E+02  0.3373521303910843E+02
  0.3354423693482445E+02  0.3335434195214322E+02  0.3316552197081066E+02  0.3297777090521913E+02  0.3279108270421125E+02
  0.3260545135088500E+02  0.3242087086239971E+02  0.3223733528978339E+02  0.3205483871774086E+02  0.3187337526446328E+02
  0.3169293908143857E+02  0.3151352435326287E+02  0.3133512529745322E+02  0.3115773616426112E+02  0.3098135123648733E+02
  0.3080596482929755E+02  0.3063157129003930E+02  0.3045816499805964E+02  0.3028574036452407E+02  0.3011429183223658E+02
  0.2994381387546024E+02  0.2977430099973944E+02  0.2960574774172261E+02  0.2943814866898620E+02  0.2927149837985967E+02
  0.2910579150325134E+02  0.2894102269847529E+02  0.2877718665507927E+02  0.2861427809267352E+02  0.2845229176076068E+02
  0.2829122243856641E+02  0.2813106493487136E+02  0.2797181408784358E+02  0.2781346476487249E+02  0.2765601186240314E+02
  0.2749945030577201E+02  0.2734377504904327E+02  0.2718898107484620E+02  0.2703506339421357E+02  0.2688201704642071E+02
  0.2672983709882581E+02  0.2657851864671074E+02  0.2642805681312317E+02  0.2627844674871922E+02  0.2612968363160734E+02
  0.2598176266719275E+02  0.2583467908802298E+02  0.2568842815363427E+02  0.2554300515039871E+02  0.2539840539137234E+02
  0.2525462421614416E+02  0.2511165699068579E+02  0.2496949910720229E+02  0.2482814598398352E+02  0.2468759306525653E+02
  0.2454783582103871E+02  0.2440886974699182E+02  0.2427069036427680E+02  0.2413329321940942E+02  0.2399667388411676E+02
  0.2386082795519443E+02  0.2372575105436476E+02  0.2359143882813560E+02  0.2345788694766007E+02  0.2332509110859699E+02
  0.2319304703097219E+02  0.2306175045904056E+02  0.2293119716114888E+02  0.2280138292959948E+02  0.2267230358051452E+02
  0.2254395495370130E+02  0.2241633291251801E+02  0.2228943334374057E+02  0.2216325215742995E+02  0.2203778528680036E+02
  0.2191302868808825E+02  0.2178897834042193E+02  0.2166563024569196E+02  0.2154298042842237E+02  0.2142102493564243E+02
  0.2129975983675933E+02  0.2117918122343143E+02  0.2105928520944240E+02  0.2094006793057583E+02  0.2082152554449077E+02
  0.2070365423059794E+02  0.2058645018993644E+02  0.2046990964505150E+02  0.2035402883987256E+02  0.2023880403959236E+02
  0.2012423153054642E+02  0.2001030762009353E+02  0.1989702863649656E+02  0.1978439092880422E+02  0.1967239086673336E+02
  0.1956102484055200E+02  0.1945028926096296E+02  0.1934018055898817E+02  0.1923069518585366E+02  0.1912182961287518E+02
  0.1901358033134450E+02  0.1890594385241625E+02  0.1879891670699556E+02  0.1869249544562616E+02  0.1858667663837937E+02
  0.1848145687474333E+02  0.1837683276351326E+02  0.1827280093268206E+02  0.1816935802933170E+02  0.1806650071952510E+02
  0.1796422568819873E+02  0.1786252963905573E+02  0.1776140929445963E+02  0.1766086139532883E+02  0.1756088270103147E+02
  0.1746146998928101E+02  0.1736262005603237E+02  0.1726432971537869E+02  0.1716659579944858E+02  0.1706941515830413E+02
  0.1697278465983930E+02  0.1687670118967900E+02  0.1678116165107870E+02  0.1668616296482468E+02  0.1659170206913471E+02
  0.1649777591955943E+02  0.1640438148888416E+02  0.1631151576703146E+02  0.1621917576096394E+02  0.1612735849458797E+02
  0.1603606100865760E+02  0.1594528036067934E+02  0.1585501362481720E+02  0.1576525789179846E+02  0.1567601026881989E+02
  0.1558726787945448E+02  0.1549902786355881E+02  0.1541128737718078E+02  0.1532404359246801E+02  0.1523729369757670E+02
  0.1515103489658094E+02  0.1506526440938269E+02  0.1497997947162212E+02  0.1489517733458851E+02  0.1481085526513170E+02
  0.1472701054557397E+02  0.1464364047362246E+02  0.1456074236228208E+02  0.1447831353976891E+02  0.1439635134942405E+02
  0.1431485314962807E+02  0.1423381631371582E+02  0.1415323822989174E+02  0.1407311630114583E+02  0.1399344794516973E+02
  0.1391423059427368E+02  0.1383546169530367E+02  0.1375713870955918E+02  0.1367925911271137E+02  0.1360182039472165E+02
  0.1352482005976092E+02  0.1344825562612898E+02  0.1337212462617462E+02  0.1329642460621614E+02  0.1322115312646214E+02
  0.1314630776093298E+02  0.1307188609738259E+02  0.1299788573722068E+02  0.1292430429543545E+02  0.1285113940051674E+02
  0.1277838869437957E+02  0.1270604983228816E+02  0.1263412048278038E+02  0.1256259832759254E+02  0.1249148106158473E+02
  0.1242076639266651E+02  0.1235045204172305E+02  0.1228053574254163E+02  0.1221101524173867E+02  0.1214188829868703E+02
  0.1207315268544385E+02  0.1200480618667872E+02  0.1193684659960229E+02  0.1186927173389527E+02  0.1180207941163783E+02
  0.1173526746723942E+02  0.1166883374736895E+02  0.1160277611088543E+02  0.1153709242876893E+02  0.1147178058405196E+02
  0.1140683847175125E+02  0.1134226399879991E+02  0.1127805508397998E+02  0.1121420965785531E+02  0.1115072566270493E+02
  0.1108760105245668E+02  0.1102483379262125E+02  0.1096242186022670E+02  0.1090036324375313E+02  0.1083865594306796E+02
  0.1077729796936142E+02  0.1071628734508243E+02  0.1065562210387494E+02  0.1059530029051443E+02  0.1053531996084505E+02
  0.1047567918171680E+02  0.1041637603092336E+02  0.1035740859714006E+02  0.1029877497986230E+02  0.1024047328934428E+02
  0.1018250164653814E+02  0.1012485818303336E+02  0.1006754104099654E+02  0.1001054837311155E+02  0.9953878342519946E+01
  0.9897529122761840E+01  0.9841498897716960E+01  0.9785785861546154E+01  0.9730388218633182E+01  0.9675304183526857E+01
  0.9620531980883470E+01  0.9566069845409604E+01  0.9511916021805209E+01  0.9458068764707065E+01  0.9404526338632474E+01
  0.9351287017923404E+01  0.9298349086690793E+01  0.9245710838759290E+01  0.9193370577612272E+01  0.9141326616337125E+01
  0.9089577277570926E+01  0.9038120893446331E+01  0.8986955805537873E+01  0.8936080364808456E+01  0.8885492931556263E+01
  0.8835191875361856E+01  0.8785175575035671E+01  0.8735442418565732E+01  0.8685990803065735E+01  0.8636819134723346E+01
  0.8587925828748869E+01  0.8539309309324137E+01  0.8490968009551761E+01  0.8442900371404574E+01  0.8395104845675494E+01
  0.8347579891927511E+01  0.8300323978444089E+01  0.8253335582179803E+01  0.8206613188711213E+01  0.8160155292188101E+01
  0.8113960395284886E+01  0.8068027009152429E+01  0.8022353653369983E+01  0.7976938855897528E+01  0.7931781153028300E+01
  0.7886879089341631E+01  0.7842231217656025E+01  0.7797836098982543E+01  0.7753692302478389E+01  0.7709798405400829E+01
  0.7666152993061314E+01  0.7622754658779891E+01  0.7579602003839867E+01  0.7536693637442735E+01  0.7494028176663326E+01
  0.7451604246405266E+01  0.7409420479356648E+01  0.7367475515945952E+01  0.7325768004298246E+01  0.7284296600191589E+01
  0.7243059967013737E+01  0.7202056775719052E+01  0.7161285704785646E+01  0.7120745440172828E+01  0.7080434675278720E+01
  0.7040352110898170E+01  0.7000496455180865E+01  0.6960866423589681E+01  0.6921460738859319E+01  0.6882278130955113E+01
  0.6843317337032111E+01  0.6804577101394341E+01  0.6766056175454395E+01  0.6727753317693136E+01  0.6689667293619725E+01
  0.6651796875731801E+01  0.6614140843475932E+01  0.6576697983208284E+01  0.6539467088155508E+01  0.6502446958375812E+01
  0.6465636400720329E+01  0.6429034228794650E+01  0.6392639262920570E+01  0.6356450330098092E+01  0.6320466263967587E+01
  0.6284685904772251E+01  0.6249108099320687E+01  0.6213731700949758E+01  0.6178555569487605E+01  0.6143578571216937E+01
  0.6108799578838469E+01  0.6074217471434586E+01  0.6039831134433231E+01  0.6005639459571963E+01  0.5971641344862261E+01
  0.5937835694553999E+01  0.5904221419100109E+01  0.5870797435121499E+01  0.5837562665372116E+01  0.5804516038704234E+01
  0.5771656490033923E+01  0.5738982960306727E+01  0.5706494396463529E+01  0.5674189751406620E+01  0.5642067983965948E+01
  0.5610128058865534E+01  0.5578368946690156E+01  0.5546789623852130E+01  0.5515389072558345E+01  0.5484166280777428E+01
  0.5453120242207171E+01  0.5422249956242058E+01  0.5391554427941045E+01  0.5361032667995470E+01  0.5330683692697184E+01
  0.5300506523906839E+01  0.5270500189022369E+01  0.5240663720947640E+01  0.5210996158061264E+01  0.5181496544185644E+01
  0.5152163928556116E+01  0.5122997365790342E+01  0.5093995915857809E+01  0.5065158644049549E+01  0.5036484620948018E+01
  0.5007972922397135E+01  0.4979622629472479E+01  0.4951432828451706E+01  0.4923402610785082E+01  0.4895531073066193E+01
  0.4867817317002844E+01  0.4840260449388098E+01  0.4812859582071488E+01  0.4785613831930401E+01  0.4758522320841610E+01
  0.4731584175652959E+01  0.4704798528155244E+01  0.4678164515054224E+01  0.4651681277942786E+01  0.4625347963273286E+01
  0.4599163722330052E+01  0.4573127711202001E+01  0.4547239090755475E+01  0.4521497026607162E+01  0.4495900689097232E+01
  0.4470449253262578E+01  0.4445141898810245E+01  0.4419977810090972E+01  0.4394956176072916E+01  0.4370076190315516E+01
  0.4345337050943492E+01  0.4320737960621011E+01  0.4296278126525972E+01  0.4271956760324474E+01  0.4247773078145399E+01
  0.4223726300555152E+01  0.4199815652532520E+01  0.4176040363443726E+01  0.4152399667017567E+01  0.4128892801320731E+01
  0.4105519008733229E+01  0.4082277535923985E+01  0.4059167633826553E+01  0.4036188557614978E+01  0.4013339566679793E+01
  0.3990619924604128E+01  0.3968028899140011E+01  0.3945565762184735E+01  0.3923229789757417E+01  0.3901020261975642E+01
  0.3878936463032280E+01  0.3856977681172402E+01  0.3835143208670355E+01  0.3813432341806928E+01  0.3791844380846701E+01
  0.3770378630015475E+01  0.3749034397477845E+01  0.3727810995314915E+01  0.3706707739502115E+01  0.3685723949887160E+01
  0.3664858950168131E+01  0.3644112067871679E+01  0.3623482634331334E+01  0.3602969984665983E+01  0.3582573457758422E+01
  0.3562292396234047E+01  0.3542126146439676E+01  0.3522074058422480E+01  0.3502135485909030E+01  0.3482309786284479E+01
  0.3462596320571828E+01  0.3442994453411360E+01  0.3423503553040146E+01  0.3404122991271689E+01  0.3384852143475670E+01
  0.3365690388557824E+01  0.3346637108939924E+01  0.3327691690539867E+01  0.3308853522751896E+01  0.3290121998426902E+01
  0.3271496513852874E+01  0.3252976468735433E+01  0.3234561266178487E+01  0.3216250312664982E+01  0.3198043018037793E+01
  0.3179938795480691E+01  0.3161937061499432E+01  0.3144037235902947E+01  0.3126238741784651E+01  0.3108541005503844E+01
  0.3090943456667228E+01  0.3073445528110517E+01  0.3056046655880154E+01  0.3038746279215149E+01  0.3021543840528996E+01
  0.3004438785391702E+01  0.2987430562511920E+01  0.2970518623719179E+01  0.2953702423946223E+01  0.2936981421211440E+01
  0.2920355076601381E+01  0.2903822854253417E+01  0.2887384221338447E+01  0.2871038648043738E+01  0.2854785607555834E+01
  0.2838624576043597E+01  0.2822555032641305E+01  0.2806576459431879E+01  0.2790688341430188E+01  0.2774890166566435E+01
  0.2759181425669680E+01  0.2743561612451409E+01  0.2728030223489226E+01  0.2712586758210621E+01  0.2697230718876847E+01
  0.2681961610566865E+01  0.2666778941161408E+01  0.2651682221327100E+01  0.2636670964500707E+01  0.2621744686873441E+01
  0.2606902907375374E+01  0.2592145147659922E+01  0.2577470932088443E+01  0.2562879787714901E+01  0.2548371244270617E+01
  0.2533944834149124E+01  0.2519600092391084E+01  0.2505336556669313E+01  0.2491153767273873E+01  0.2477051267097263E+01
  0.2463028601619675E+01  0.2449085318894356E+01  0.2435220969533040E+01  0.2421435106691459E+01  0.2407727286054944E+01
  0.2394097065824106E+01  0.2380544006700599E+01  0.2367067671872956E+01  0.2353667627002516E+01  0.2340343440209417E+01
  0.2327094682058688E+01  0.2313920925546406E+01  0.2300821746085921E+01  0.2287796721494190E+01  0.2274845431978155E+01
  0.2261967460121225E+01  0.2249162390869818E+01  0.2236429811519977E+01  0.2223769311704080E+01  0.2211180483377608E+01
  0.2198662920806000E+01  0.2186216220551560E+01  0.2173839981460475E+01  0.2161533804649871E+01  0.2149297293494966E+01
  0.2137130053616286E+01  0.2125031692866941E+01  0.2113001821320008E+01  0.2101040051255947E+01  0.2089145997150115E+01
  0.2077319275660329E+01  0.2065559505614524E+01  0.2053866307998461E+01  0.2042239305943512E+01  0.2030678124714515E+01
  0.2019182391697692E+01  0.2007751736388648E+01  0.1996385790380427E+01  0.1985084187351625E+01  0.1973846563054608E+01
  0.1962672555303754E+01  0.1951561803963784E+01  0.1940513950938160E+01  0.1929528640157534E+01  0.1918605517568281E+01
  0.1907744231121088E+01  0.1896944430759602E+01  0.1886205768409145E+01  0.1875527897965507E+01  0.1864910475283784E+01
  0.1854353158167285E+01  0.1843855606356507E+01  0.1833417481518165E+01  0.1823038447234292E+01  0.1812718168991390E+01
  0.1802456314169660E+01  0.1792252552032263E+01  0.1782106553714679E+01  0.1772017992214102E+01  0.1761986542378895E+01
  0.1752011880898114E+01  0.1742093686291092E+01  0.1732231638897071E+01  0.1722425420864909E+01  0.1712674716142819E+01
  0.1702979210468200E+01  0.1693338591357502E+01  0.1683752548096153E+01  0.1674220771728543E+01  0.1664742955048074E+01
  0.1655318792587250E+01  0.1645947980607839E+01  0.1636630217091083E+01  0.1627365201727954E+01  0.1618152635909490E+01
  0.1608992222717160E+01  0.1599883666913303E+01  0.1590826674931600E+01  0.1581820954867626E+01  0.1572866216469434E+01
  0.1563962171128204E+01  0.1555108531868938E+01  0.1546305013341212E+01  0.1537551331809981E+01  0.1528847205146435E+01
  0.1520192352818898E+01  0.1511586495883797E+01  0.1503029356976670E+01  0.1494520660303216E+01  0.1486060131630425E+01
  0.1477647498277715E+01  0.1469282489108170E+01  0.1460964834519782E+01  0.1452694266436769E+01  0.1444470518300936E+01
  0.1436293325063079E+01  0.1428162423174452E+01  0.1420077550578261E+01  0.1412038446701225E+01  0.1404044852445177E+01
  0.1396096510178714E+01  0.1388193163728890E+01  0.1380334558372963E+01  0.1372520440830186E+01  0.1364750559253638E+01
  0.1357024663222116E+01  0.1349342503732056E+01  0.1341703833189513E+01  0.1334108405402174E+01  0.1326555975571437E+01
  0.1319046300284505E+01  0.1311579137506550E+01  0.1304154246572911E+01  0.1296771388181337E+01  0.1289430324384279E+01
  0.1282130818581204E+01  0.1274872635510996E+01  0.1267655541244347E+01  0.1260479303176243E+01  0.1253343690018438E+01
  0.1246248471792030E+01  0.1239193419820027E+01  0.1232178306719984E+01  0.1225202906396681E+01  0.1218266994034818E+01
  0.1211370346091794E+01  0.1204512740290480E+01  0.1197693955612071E+01  0.1190913772288948E+01  0.1184171971797609E+01
  0.1177468336851618E+01  0.1170802651394603E+01  0.1164174700593293E+01  0.1157584270830594E+01  0.1151031149698707E+01
  0.1144515125992275E+01  0.1138035989701585E+01  0.1131593532005788E+01  0.1125187545266183E+01  0.1118817823019512E+01
  0.1112484159971312E+01  0.1106186351989297E+01  0.1099924196096778E+01  0.1093697490466128E+01  0.1087506034412262E+01
  0.1081349628386186E+01  0.1075228073968550E+01  0.1069141173863268E+01  0.1063088731891149E+01  0.1057070552983572E+01
  0.1051086443176211E+01  0.1045136209602769E+01  0.1039219660488778E+01  0.1033336605145399E+01  0.1027486853963293E+01
  0.1021670218406500E+01  0.1015886511006367E+01  0.1010135545355503E+01  0.1004417136101773E+01  0.9987310989423224E+00
  0.9930772506176366E+00  0.9874554089056402E+00  0.9818653926158147E+00  0.9763070215833647E+00  0.9707801166634082E+00
  0.9652844997252087E+00  0.9598199936464218E+00  0.9543864223074007E+00  0.9489836105855094E+00  0.9436113843494813E+00
  0.9382695704538110E+00  0.9329579967331663E+00  0.9276764919968444E+00  0.9224248860232513E+00  0.9172030095544211E+00
  0.9120106942905495E+00  0.9068477728845824E+00  0.9017140789368122E+00  0.8966094469895195E+00  0.8915337125216369E+00
  0.8864867119434520E+00  0.8814682825913270E+00  0.8764782627224603E+00  0.8715164915096757E+00  0.8665828090362288E+00
  0.8616770562906659E+00  0.8567990751616891E+00  0.8519487084330621E+00  0.8471257997785455E+00  0.8423301937568543E+00
  0.8375617358066518E+00  0.8328202722415637E+00  0.8281056502452265E+00  0.8234177178663606E+00  0.8187563240138754E+00
  0.8141213184519946E+00  0.8095125517954170E+00  0.8049298755045002E+00  0.8003731418804716E+00  0.7958422040606715E+00
  0.7913369160138135E+00  0.7868571325352807E+00  0.7824027092424440E+00  0.7779735025700109E+00  0.7735693697653925E+00
  0.7691901688841059E+00  0.7648357587851968E+00  0.7605059991266903E+00  0.7562007503610685E+00  0.7519198737307687E+00
  0.7476632312637125E+00  0.7434306857688573E+00  0.7392221008317772E+00  0.7350373408102565E+00  0.7308762708299293E+00
  0.7267387567799209E+00  0.7226246653085288E+00  0.7185338638189260E+00  0.7144662204648807E+00  0.7104216041465099E+00
  0.7063998845060506E+00  0.7024009319236613E+00  0.6984246175132343E+00  0.6944708131182509E+00  0.6905393913076421E+00
  0.6866302253716829E+00  0.6827431893179056E+00  0.6788781578670409E+00  0.6750350064489733E+00  0.6712136111987286E+00
  0.6674138489524784E+00  0.6636355972435684E+00  0.6598787342985719E+00  0.6561431390333599E+00  0.6524286910491981E+00
  0.6487352706288640E+00  0.6450627587327892E+00  0.6414110369952147E+00  0.6377799877203792E+00  0.6341694938787207E+00
  0.6305794391031022E+00  0.6270097076850618E+00  0.6234601845710760E+00  0.6199307553588528E+00  0.6164213062936390E+00
  0.6129317242645551E+00  0.6094618968009418E+00  0.6060117120687355E+00  0.6025810588668601E+00  0.5991698266236382E+00
  0.5957779053932282E+00  0.5924051858520721E+00  0.5890515592953719E+00  0.5857169176335816E+00  0.5824011533889208E+00
  0.5791041596919045E+00  0.5758258302778969E+00  0.5725660594836811E+00  0.5693247422440501E+00  0.5661017740884181E+00
  0.5628970511374426E+00  0.5597104700996812E+00  0.5565419282682498E+00  0.5533913235175107E+00  0.5502585542997777E+00
  0.5471435196420346E+00  0.5440461191426773E+00  0.5409662529682731E+00  0.5379038218503375E+00  0.5348587270821249E+00
  0.5318308705154490E+00  0.5288201545575061E+00  0.5258264821677268E+00  0.5228497568546414E+00  0.5198898826727647E+00
  0.5169467642194936E+00  0.5140203066320277E+00  0.5111104155843038E+00  0.5082169972839478E+00  0.5053399584692470E+00
  0.5024792064061314E+00  0.4996346488851810E+00  0.4968061942186429E+00  0.4939937512374702E+00  0.4911972292883720E+00
  0.4884165382308844E+00  0.4856515884344550E+00  0.4829022907755447E+00  0.4801685566347472E+00  0.4774502978939195E+00
  0.4747474269333334E+00  0.4720598566288400E+00  0.4693875003490530E+00  0.4667302719525418E+00  0.4640880857850453E+00
  0.4614608566767000E+00  0.4588484999392815E+00  0.4562509313634638E+00  0.4536680672160914E+00  0.4510998242374667E+00
  0.4485461196386542E+00  0.4460068710987994E+00  0.4434819967624578E+00  0.4409714152369447E+00  0.4384750455896969E+00
  0.4359928073456463E+00  0.4335246204846152E+00  0.4310704054387139E+00  0.4286300830897671E+00  0.4262035747667406E+00
  0.4237908022431933E+00  0.4213916877347331E+00  0.4190061538964949E+00  0.4166341238206275E+00  0.4142755210337950E+00
  0.4119302694946951E+00  0.4095982935915818E+00  0.4072795181398144E+00  0.4049738683794080E+00  0.4026812699726051E+00
  0.4004016490014531E+00  0.3981349319654043E+00  0.3958810457789186E+00  0.3936399177690860E+00  0.3914114756732585E+00
  0.3891956476366961E+00  0.3869923622102259E+00  0.3848015483479094E+00  0.3826231354047298E+00  0.3804570531342810E+00
  0.3783032316864819E+00  0.3761616016052897E+00  0.3740320938264349E+00  0.3719146396751623E+00  0.3698091708639870E+00
  0.3677156194904622E+00  0.3656339180349549E+00  0.3635639993584380E+00  0.3615057967002904E+00  0.3594592436761119E+00
  0.3574242742755439E+00  0.3554008228601074E+00  0.3533888241610482E+00  0.3513882132771944E+00  0.3493989256728258E+00
  0.3474208971755512E+00  0.3454540639741997E+00  0.3434983626167207E+00  0.3415537300080967E+00  0.3396201034082625E+00
  0.3376974204300391E+00  0.3357856190370762E+00  0.3338846375418036E+00  0.3319944146033971E+00  0.3301148892257466E+00
  0.3282460007554446E+00  0.3263876888797748E+00  0.3245398936247180E+00  0.3227025553529608E+00  0.3208756147619218E+00
  0.3190590128817802E+00  0.3172526910735179E+00  0.3154565910269714E+00  0.3136706547588874E+00  0.3118948246109973E+00
  0.3101290432480905E+00  0.3083732536561049E+00  0.3066273991402196E+00  0.3048914233229639E+00  0.3031652701423273E+00
  0.3014488838498836E+00  0.2997422090089215E+00  0.2980451904925839E+00  0.2963577734820168E+00  0.2946799034645234E+00
  0.2930115262317303E+00  0.2913525878777590E+00  0.2897030347974077E+00  0.2880628136843386E+00  0.2864318715292752E+00
  0.2848101556182057E+00  0.2831976135305960E+00  0.2815941931376093E+00  0.2799998426003319E+00  0.2784145103680091E+00
  0.2768381451762859E+00  0.2752706960454578E+00  0.2737121122787253E+00  0.2721623434604581E+00  0.2706213394544655E+00
  0.2690890504022731E+00  0.2675654267214080E+00  0.2660504191036880E+00  0.2645439785135196E+00  0.2630460561862020E+00
  0.2615566036262379E+00  0.2600755726056484E+00  0.2586029151622973E+00  0.2571385835982201E+00  0.2556825304779572E+00
  0.2542347086268985E+00  0.2527950711296253E+00  0.2513635713282681E+00  0.2499401628208607E+00  0.2485247994597070E+00
  0.2471174353497474E+00  0.2457180248469370E+00  0.2443265225566227E+00  0.2429428833319295E+00  0.2415670622721517E+00
  0.2401990147211453E+00  0.2388386962657322E+00  0.2374860627341013E+00  0.2361410701942214E+00  0.2348036749522523E+00
  0.2334738335509663E+00  0.2321515027681700E+00  0.2308366396151319E+00  0.2295292013350138E+00  0.2282291454013071E+00
  0.2269364295162729E+00  0.2256510116093839E+00  0.2243728498357739E+00  0.2231019025746872E+00  0.2218381284279350E+00
  0.2205814862183521E+00  0.2193319349882588E+00  0.2180894339979263E+00  0.2168539427240444E+00  0.2156254208581928E+00
  0.2144038283053145E+00  0.2131891251821939E+00  0.2119812718159346E+00  0.2107802287424433E+00  0.2095859567049151E+00
  0.2083984166523184E+00  0.2072175697378877E+00  0.2060433773176119E+00  0.2048758009487312E+00  0.2037148023882324E+00
  0.2025603435913452E+00  0.2014123867100443E+00  0.2002708940915489E+00  0.1991358282768254E+00  0.1980071519990944E+00
  0.1968848281823335E+00  0.1957688199397856E+00  0.1946590905724682E+00  0.1935556035676792E+00  0.1924583225975120E+00
  0.1913672115173616E+00  0.1902822343644391E+00  0.1892033553562837E+00  0.1881305388892748E+00  0.1870637495371449E+00
  0.1860029520494944E+00  0.1849481113503038E+00  0.1838991925364490E+00  0.1828561608762127E+00  0.1818189818077996E+00
  0.1807876209378502E+00  0.1797620440399509E+00  0.1787422170531498E+00  0.1777281060804664E+00  0.1767196773874033E+00
  0.1757168974004576E+00  0.1747197327056282E+00  0.1737281500469267E+00  0.1727421163248843E+00  0.1717615985950568E+00
  0.1707865640665316E+00  0.1698169801004301E+00  0.1688528142084094E+00  0.1678940340511652E+00  0.1669406074369282E+00
  0.1659925023199633E+00  0.1650496867990643E+00  0.1641121291160458E+00  0.1631797976542387E+00  0.1622526609369753E+00
  0.1613306876260784E+00  0.1604138465203473E+00  0.1595021065540384E+00  0.1585954367953472E+00  0.1576938064448843E+00
  0.1567971848341521E+00  0.1559055414240174E+00  0.1550188458031801E+00  0.1541370676866422E+00  0.1532601769141705E+00
  0.1523881434487593E+00  0.1515209373750891E+00  0.1506585288979822E+00  0.1498008883408556E+00  0.1489479861441716E+00
  0.1480997928638827E+00  0.1472562791698789E+00  0.1464174158444248E+00  0.1455831737805997E+00  0.1447535239807324E+00
  0.1439284375548311E+00  0.1431078857190135E+00  0.1422918397939321E+00  0.1414802712031965E+00  0.1406731514717933E+00
  0.1398704522245024E+00  0.1390721451843107E+00  0.1382782021708242E+00  0.1374885950986741E+00  0.1367032959759247E+00
  0.1359222769024746E+00  0.1351455100684575E+00  0.1343729677526414E+00  0.1336046223208224E+00  0.1328404462242199E+00
  0.1320804119978683E+00  0.1313244922590059E+00  0.1305726597054641E+00  0.1298248871140539E+00  0.1290811473389507E+00
  0.1283414133100806E+00  0.1276056580315025E+00  0.1268738545797925E+00  0.1261459761024260E+00  0.1254219958161609E+00
  0.1247018870054223E+00  0.1239856230206842E+00  0.1232731772768566E+00  0.1225645232516716E+00  0.1218596344840708E+00
  0.1211584845725973E+00  0.1204610471737876E+00  0.1197672960005687E+00  0.1190772048206585E+00  0.1183907474549694E+00
  0.1177078977760171E+00  0.1170286297063362E+00  0.1163529172168982E+00  0.1156807343255410E+00  0.1150120550954006E+00
  0.1143468536333546E+00  0.1136851040884726E+00  0.1130267806504757E+00  0.1123718575482092E+00  0.1117203090481217E+00
  0.1110721094527613E+00  0.1104272330992817E+00  0.1097856543579636E+00  0.1091473476307497E+00  0.1085122873497992E+00
  0.1078804479760553E+00  0.1072518039978353E+00  0.1066263299294363E+00  0.1060040003097656E+00  0.1053847897009920E+00
  0.1047686726872191E+00  0.1041556238731872E+00  0.1035456178829991E+00  0.1029386293588753E+00  0.1023346329599393E+00
  0.1017336033610333E+00  0.1011355152515691E+00  0.1005403433344131E+00  0.9994806232480756E-01  0.9935864694933302E-01
  0.9877207194491011E-01  0.9818831205784491E-01  0.9760734204292103E-01  0.9702913666253740E-01  0.9645367068589791E-01
  0.9588091888825223E-01  0.9531085605019254E-01  0.9474345695700793E-01  0.9417869639809803E-01  0.9361654916645128E-01
  0.9305699005818861E-01  0.9249999387217542E-01  0.9194553540970682E-01  0.9139358947426661E-01  0.9084413087136638E-01
  0.9029713440846526E-01  0.8975257489497497E-01  0.8921042714235393E-01  0.8867066596429425E-01  0.8813326617700330E-01
  0.8759820259958767E-01  0.8706545005453874E-01  0.8653498336832777E-01  0.8600677737211294E-01  0.8548080690256188E-01
  0.8495704680279655E-01  0.8443547192346119E-01  0.8391605712392249E-01  0.8339877727360252E-01  0.8288360725345108E-01
  0.8237052195756207E-01  0.8185949629493980E-01  0.8135050519141740E-01  0.8084352359173612E-01  0.8033852646178744E-01
  0.7983548879102546E-01  0.7933438559505469E-01  0.7883519191839596E-01  0.7833788283744143E-01  0.7784243346359744E-01
  0.7734881894662668E-01  0.7685701447819224E-01  0.7636699529560888E-01  0.7587873668580937E-01  0.7539221398953068E-01
  0.7490740260572391E-01  0.7442427799619732E-01  0.7394281569049449E-01  0.7346299129101574E-01  0.7298478047838861E-01
  0.7250815901709007E-01  0.7203310276133028E-01  0.7155958766119942E-01  0.7108758976908572E-01  0.7061708524636923E-01
  0.7014805037039445E-01  0.6968046154173092E-01  0.6921429529172247E-01  0.6874952829033174E-01  0.6828613735428489E-01
  0.6782409945551837E-01  0.6736339172993459E-01  0.6690399148646814E-01  0.6644587621646539E-01  0.6598902360338232E-01
  0.6553341153280240E-01  0.6507901810277456E-01  0.6462582163447740E-01  0.6417380068320599E-01  0.6372293404968546E-01
  0.6327320079171053E-01  0.6282458023610939E-01  0.6237705199103381E-01  0.6193059595856987E-01  0.6148519234767150E-01
  0.6104082168741034E-01  0.6059746484053926E-01  0.6015510301736518E-01  0.5971371778992669E-01  0.5927329110646733E-01
  0.5883380530620077E-01  0.5839524313435671E-01  0.5795758775750071E-01  0.5752082277911668E-01  0.5708493225543947E-01
  0.5664990071152876E-01  0.5621571315756635E-01  0.5578235510536545E-01  0.5534981258507464E-01  0.5491807216205905E-01
  0.5448712095394087E-01  0.5405694664778024E-01  0.5362753751737251E-01  0.5319888244064346E-01  0.5277097091711459E-01
  0.5234379308541602E-01  0.5191733974082009E-01  0.5149160235276518E-01  0.5106657308234376E-01  0.5064224479972065E-01
  0.5021861110145116E-01  0.4979566632766488E-01  0.4937340557907862E-01  0.4895182473380452E-01  0.4853092046391367E-01
  0.4811069025171562E-01  0.4769113240571578E-01  0.4727224607620630E-01  0.4685403127044921E-01  0.4643648886740862E-01
  0.4601962063198441E-01  0.4560342922870445E-01  0.4518791823482737E-01  0.4477309215280750E-01  0.4435895642207661E-01
  0.4394551743009033E-01  0.4353278252259317E-01  0.4312076001305140E-01  0.4270945919120400E-01  0.4229889033068385E-01
  0.4188906469565735E-01  0.4147999454643657E-01  0.4107169314401304E-01  0.4066417475346596E-01  0.4025745464619863E-01
  0.3985154910095726E-01  0.3944647540358581E-01  0.3904225184547644E-01  0.3863889772067124E-01  0.3823643332157792E-01
  0.3783487993326092E-01  0.3743425982627144E-01  0.3703459624798708E-01  0.3663591341242646E-01  0.3623823648851562E-01
  0.3584159158678021E-01  0.3544600574444268E-01  0.3505150690890823E-01  0.3465812391962622E-01  0.3426588648831567E-01
  0.3387482517755217E-01  0.3348497137771224E-01  0.3309635728228019E-01  0.3270901586152523E-01  0.3232298083455899E-01
  0.3193828663979328E-01  0.3155496840381876E-01  0.3117306190873045E-01  0.3079260355793444E-01  0.3041363034046922E-01
  0.3003617979388704E-01  0.2966028996573944E-01  0.2928599937371943E-01  0.2891334696451819E-01  0.2854237207145585E-01
  0.2817311437095393E-01  0.2780561383792078E-01  0.2743991070012280E-01  0.2707604539162375E-01  0.2671405850537469E-01
  0.2635399074504055E-01  0.2599588287615767E-01  0.2563977567671280E-01  0.2528570988724391E-01  0.2493372616056186E-01
  0.2458386501119474E-01  0.2423616676466142E-01  0.2389067150667805E-01  0.2354741903240811E-01  0.2320644879586252E-01
  0.2286779985955946E-01  0.2253151084455391E-01  0.2219761988094687E-01  0.2186616455897942E-01  0.2153718188082453E-01
  0.2121070821317756E-01  0.2088677924075340E-01  0.2056542992079097E-01  0.2024669443866382E-01  0.1993060616469577E-01
  0.1961719761227202E-01  0.1930650039733716E-01  0.1899854519936527E-01  0.1869336172388251E-01  0.1839097866661954E-01
  0.1809142367936621E-01  0.1779472333759273E-01  0.1750090310990171E-01  0.1720998732936408E-01  0.1692199916679037E-01
  0.1663696060598232E-01  0.1635489242099991E-01  0.1607581415547980E-01  0.1579974410402916E-01  0.1552669929571461E-01
  0.1525669547966162E-01  0.1498974711277030E-01  0.1472586734955110E-01  0.1446506803407508E-01  0.1420735969402839E-01
  0.1395275153685622E-01  0.1370125144797362E-01  0.1345286599101741E-01  0.1320760041010689E-01  0.1296545863407587E-01
  0.1272644328263461E-01  0.1249055567441647E-01  0.1225779583685658E-01  0.1202816251785091E-01  0.1180165319913517E-01
  0.1157826411132346E-01  0.1135799025054218E-01  0.1114082539659096E-01  0.1092676213256179E-01  0.1071579186584350E-01
  0.1050790485043870E-01  0.1030309021051726E-01  0.1010133596512959E-01  0.9902629054002313E-02  0.9706955364338904E-02
  0.9514299758544880E-02  0.9324646102801145E-02  0.9137977296405012E-02  0.8954275301801817E-02  0.8773521175229997E-02
  0.8595695097901864E-02  0.8420776407646309E-02  0.8248743630938107E-02  0.8079574515241522E-02  0.7913246061598309E-02
  0.7749734557389651E-02  0.7589015609205975E-02  0.7431064175759997E-02  0.7275854600779300E-02  0.7123360645819647E-02
  0.6973555522939957E-02  0.6826411927184388E-02  0.6681902068819213E-02  0.6539997705273209E-02  0.6400670172735830E-02
  0.6263890417367355E-02  0.6129629026079370E-02  0.5997856256847236E-02  0.5868542068516502E-02  0.5741656150071359E-02
  0.5617167949332479E-02  0.5495046701056582E-02  0.5375261454412092E-02  0.5257781099806847E-02  0.5142574395047492E-02
  0.5029609990812531E-02  0.4918856455422032E-02  0.4810282298891346E-02  0.4703855996256552E-02  0.4599546010162290E-02
  0.4497320812705428E-02  0.4397148906527746E-02  0.4298998845155682E-02  0.4202839252584221E-02  0.4108638842105286E-02
  0.4016366434382694E-02  0.3925990974775665E-02  0.3837481549916614E-02  0.3750807403548124E-02  0.3665937951626598E-02
  0.3582842796700789E-02  0.3501491741574844E-02  0.3421854802265094E-02  0.3343902220263415E-02  0.3267604474117709E-02
  0.3192932290343349E-02  0.3119856653678435E-02  0.3048348816697166E-02  0.2978380308796036E-02  0.2909922944567787E-02
  0.2842948831578524E-02  0.2777430377564028E-02  0.2713340297061153E-02  0.2650651617490775E-02  0.2589337684708844E-02
  0.2529372168041872E-02  0.2470729064823912E-02  0.2413382704451496E-02  0.2357307751973456E-02  0.2302479211232332E-02
  0.2248872427573532E-02  0.2196463090139393E-02  0.2145227233764086E-02  0.2095141240485473E-02  0.2046181840690168E-02
  0.1998326113907257E-02  0.1951551489266442E-02  0.1905835745635662E-02  0.1861157011453165E-02  0.1817493764268773E-02
  0.1774824830008575E-02  0.1733129381977194E-02  0.1692386939611300E-02  0.1652577366997565E-02  0.1613680871168239E-02
  0.1575678000187041E-02  0.1538549641037365E-02  0.1502277017325210E-02  0.1466841686807793E-02  0.1432225538759685E-02
  0.1398410791186884E-02  0.1365379987899429E-02  0.1333115995452732E-02  0.1301601999967275E-02  0.1270821503836214E-02
  0.1240758322329852E-02  0.1211396580105671E-02  0.1182720707632311E-02  0.1154715437535633E-02  0.1127365800874314E-02
  0.1100657123352643E-02  0.1074575021477303E-02  0.1049105398665037E-02  0.1024234441307661E-02  0.9999486148003646E-03
  0.9762346595394298E-03  0.9530795868947040E-03  0.9304706751622016E-03  0.9083954655019540E-03  0.8868417578657110E-03
  0.8657976069190960E-03  0.8452513179625721E-03  0.8251914428550537E-03  0.8056067759442046E-03  0.7864863500068353E-03
  0.7678194322028531E-03  0.7495955200460076E-03  0.7318043373942278E-03  0.7144358304625615E-03  0.6974801638611424E-03
  0.6809277166606896E-03  0.6647690784878517E-03  0.6489950456523587E-03  0.6335966173080959E-03  0.6185649916497515E-03
  0.6038915621467599E-03  0.5895679138160936E-03  0.5755858195352074E-03  0.5619372363964512E-03  0.5486143021041386E-03
  0.5356093314151882E-03  0.5229148126244106E-03  0.5105234040951492E-03  0.4984279308360441E-03  0.4866213811246172E-03
  0.4750969031780903E-03  0.4638478018720539E-03  0.4528675355072712E-03  0.4421497126249537E-03  0.4316880888708066E-03
  0.4214765639079232E-03  0.4115091783787514E-03  0.4017801109161063E-03  0.3922836752032566E-03  0.3830143170830685E-03
  0.3739666117160547E-03  0.3651352607871984E-03  0.3565150897614171E-03  0.3481010451873436E-03  0.3398881920492525E-03
  0.3318717111667817E-03  0.3240468966421113E-03  0.3164091533542903E-03  0.3089539945002775E-03  0.3016770391822898E-03
  0.2945740100410433E-03  0.2876407309343979E-03  0.2808731246609627E-03  0.2742672107281494E-03  0.2678191031641470E-03
  0.2615250083733244E-03  0.2553812230344928E-03  0.2493841320415104E-03  0.2435302064856344E-03  0.2378160016790644E-03
  0.2322381552191164E-03  0.2267933850924256E-03  0.2214784878185808E-03  0.2162903366326274E-03  0.2112258797058033E-03
  0.2062821384039460E-03  0.2014562055829437E-03  0.1967452439206290E-03  0.1921464842845257E-03  0.1876572241348291E-03
  0.1832748259620355E-03  0.1789967157586104E-03  0.1748203815240924E-03  0.1707433718030454E-03  0.1667632942552753E-03
  0.1628778142577003E-03  0.1590846535373126E-03  0.1553815888346329E-03  0.1517664505971023E-03  0.1482371217018282E-03
  0.1447915362071186E-03  0.1414276781322507E-03  0.1381435802649320E-03  0.1349373229958776E-03  0.1318070331800003E-03
  0.1287508830236490E-03  0.1257670889973833E-03  0.1228539107737717E-03  0.1200096501896729E-03  0.1172326502325329E-03
  0.1145212940501633E-03  0.1118740039835284E-03  0.1092892406220625E-03  0.1067655018810170E-03  0.1043013221003984E-03
  0.1018952711650117E-03  0.9954595364516184E-04  0.9725200795758042E-04  0.9501210554611589E-04  0.9282495008176991E-04
  0.9068927668165847E-04  0.8860385114646889E-04  0.8656746921601459E-04  0.8457895584247951E-04  0.8263716448096287E-04
  0.8074097639693496E-04  0.7888929999022256E-04  0.7708107013515002E-04  0.7531524753648352E-04  0.7359081810079719E-04
  0.7190679232293573E-04  0.7026220468720752E-04  0.6865611308298036E-04  0.6708759823435558E-04  0.6555576314357761E-04
  0.6405973254788438E-04  0.6259865238946794E-04  0.6117168929825086E-04  0.5977803008718199E-04  0.5841688125975167E-04
  0.5708746852944424E-04  0.5578903635085384E-04  0.5452084746217693E-04  0.5328218243882807E-04  0.5207233925790525E-04
  0.5089063287325212E-04  0.4973639480087229E-04  0.4860897271443703E-04  0.4750773005066111E-04  0.4643204562430075E-04
  0.4538131325254820E-04  0.4435494138860278E-04  0.4335235276418906E-04  0.4237298404081893E-04  0.4141628546957923E-04
  0.4048172055924302E-04  0.3956876575250754E-04  0.3867691011015748E-04  0.3780565500296436E-04  0.3695451381113978E-04
  0.3612301163115031E-04  0.3531068498972705E-04  0.3451708156488610E-04  0.3374175991379386E-04  0.3298428920731410E-04
  0.3224424897106592E-04  0.3152122883284427E-04  0.3081482827623986E-04  0.3012465640031068E-04  0.2945033168516000E-04
  0.2879148176327045E-04  0.2814774319646039E-04  0.2751876125831973E-04  0.2690418972199329E-04  0.2630369065318131E-04
  0.2571693420823006E-04  0.2514359843718174E-04  0.2458336909167190E-04  0.2403593943754590E-04  0.2350101007208534E-04
  0.2297828874572694E-04  0.2246749018816470E-04  0.2196833593872865E-04  0.2148055418093416E-04  0.2100387958109738E-04
  0.2053805313091991E-04  0.2008282199394155E-04  0.1963793935576888E-04  0.1920316427798468E-04  0.1877826155564701E-04
  0.1836300157829108E-04  0.1795716019434547E-04  0.1756051857888037E-04  0.1717286310460525E-04  0.1679398521603221E-04
  0.1642368130673256E-04  0.1606175259960622E-04  0.1570800503008997E-04  0.1536224913223322E-04  0.1502429992756862E-04
  0.1469397681671036E-04  0.1437110347361139E-04  0.1405550774241367E-04  0.1374702153682821E-04  0.1344548074198126E-04
  0.1315072511866674E-04  0.1286259820994499E-04  0.1258094725002891E-04  0.1230562307540165E-04  0.1203648003811160E-04
  0.1177337592118810E-04  0.1151617185612923E-04  0.1126473224240567E-04  0.1101892466893530E-04  0.1077861983747733E-04
  0.1054369148789836E-04  0.1031401632526521E-04  0.1008947394871822E-04  0.9869946782082052E-05  0.9655320006170385E-05
  0.9445481492742331E-05  0.9240321740070075E-05  0.9039733810078725E-05  0.8843613267017464E-05  0.8651858117626570E-05
  0.8464368752761432E-05  0.8281047890438191E-05  0.8101800520266799E-05  0.7926533849235241E-05  0.7755157248813801E-05
  0.7587582203344979E-05  0.7423722259688020E-05  0.7263492978087690E-05  0.7106811884235895E-05  0.6953598422497342E-05
  0.6803773910271038E-05  0.6657261493458238E-05  0.6513986103011287E-05  0.6373874412535214E-05  0.6236854796916714E-05
  0.6102857291955970E-05  0.5971813554974842E-05  0.5843656826379420E-05  0.5718321892151871E-05  0.5595745047249317E-05
  0.5475864059887905E-05  0.5358618136689141E-05  0.5243947888668614E-05  0.5131795298045322E-05  0.5022103685851912E-05
  0.4914817680326464E-05  0.4809883186065949E-05  0.4707247353922986E-05  0.4606858551628097E-05  0.4508666335118668E-05
  0.4412621420558428E-05  0.4318675657029611E-05  0.4226781999881645E-05  0.4136894484720689E-05  0.4048968202023432E-05
  0.3962959272360872E-05  0.3878824822216404E-05  0.3796522960383854E-05  0.3716012754931812E-05  0.3637254210719404E-05
  0.3560208247451202E-05  0.3484836678257068E-05  0.3411102188784720E-05  0.3338968316792536E-05  0.3268399432229983E-05
  0.3199360717794020E-05  0.3131818149950190E-05  0.3065738480406258E-05  0.3001089218028397E-05  0.2937838611188322E-05
  0.2875955630531193E-05  0.2815409952154245E-05  0.2756171941185912E-05  0.2698212635755671E-05  0.2641503731345362E-05
  0.2586017565512454E-05  0.2531727102976499E-05  0.2478605921059763E-05  0.2426628195473490E-05  0.2375768686441468E-05
  0.2326002725152650E-05  0.2277306200535051E-05  0.2229655546342883E-05  0.2183027728549451E-05  0.2137400233038551E-05
  0.2092751053587031E-05  0.2049058680131401E-05  0.2006302087311819E-05  0.1964460723286599E-05  0.1923514498810825E-05
  0.1883443776572712E-05  0.1844229360781337E-05  0.1805852486999878E-05  0.1768294812218294E-05  0.1731538405159858E-05
  0.1695565736815771E-05  0.1660359671202419E-05  0.1625903456335850E-05  0.1592180715418495E-05  0.1559175438232708E-05
  0.1526871972736418E-05  0.1495255016855875E-05  0.1464309610470893E-05  0.1434021127587954E-05  0.1404375268696531E-05
  0.1375358053304474E-05  0.1346955812647949E-05  0.1319155182571949E-05  0.1291943096577191E-05  0.1265306779029426E-05
  0.1239233738527269E-05  0.1213711761424922E-05  0.1188728905505806E-05  0.1164273493803831E-05  0.1140334108568521E-05
  0.1116899585370663E-05  0.1093959007345263E-05  0.1071501699568248E-05  0.1049517223564067E-05  0.1027995371940824E-05
   29     63.546         3.6150    fcc     
  0.0000000000000000E+00 -0.2930796084349241E-01 -0.5836077422842356E-01 -0.8715950733899314E-01 -0.1157052273593999E+00
 -0.1439990014738437E+00 -0.1720418968665236E+00 -0.1998349807216392E+00 -0.2273793202233899E+00 -0.2546759825559742E+00
 -0.2817260349035929E+00 -0.3085305444504447E+00 -0.3350905783807288E+00 -0.3614072038786448E+00 -0.3874814881283921E+00
 -0.4133144983141699E+00 -0.4389073016201775E+00 -0.4642609652306147E+00 -0.4893765563296807E+00 -0.5142551421015743E+00
 -0.5388977897304955E+00 -0.5633055664006436E+00 -0.5874795392962174E+00 -0.6114207756014175E+00 -0.6351303425004414E+00
 -0.6586093071774906E+00 -0.6818587368167626E+00 -0.7048796986024586E+00 -0.7276732597187759E+00 -0.7502404873499158E+00
 -0.7725824486800762E+00 -0.7947002108934575E+00 -0.8165948411742585E+00 -0.8382674067066790E+00 -0.8597189746749176E+00
 -0.8809506122631744E+00 -0.9019633866556487E+00 -0.9227583650365395E+00 -0.9433366145900466E+00 -0.9636992025003683E+00
 -0.9838471959517060E+00 -0.1003781662128257E+01 -0.1023503668214222E+01 -0.1043014281393800E+01 -0.1062314568851190E+01
 -0.1081405597770592E+01 -0.1100288435336205E+01 -0.1118964148732228E+01 -0.1137433805142861E+01 -0.1155698471752303E+01
 -0.1173759215744754E+01 -0.1191617104304412E+01 -0.1209273204615478E+01 -0.1226728583862150E+01 -0.1243984309228629E+01
 -0.1261041447899113E+01 -0.1277901067057801E+01 -0.1294564233888894E+01 -0.1311032015576589E+01 -0.1327305479305088E+01
 -0.1343385692258590E+01 -0.1359273721621292E+01 -0.1374970634577396E+01 -0.1390477498311100E+01 -0.1405795380006603E+01
 -0.1420925346848106E+01 -0.1435868466019807E+01 -0.1450625804705906E+01 -0.1465198430090602E+01 -0.1479587409358095E+01
 -0.1493793809692583E+01 -0.1507818698278267E+01 -0.1521663142299346E+01 -0.1535328208940018E+01 -0.1548814965384484E+01
 -0.1562124478816942E+01 -0.1575257816421593E+01 -0.1588216045382635E+01 -0.1601000232884269E+01 -0.1613611446110692E+01
 -0.1626050752246105E+01 -0.1638319218474707E+01 -0.1650417911980697E+01 -0.1662347899948274E+01 -0.1674110249561640E+01
 -0.1685706028004991E+01 -0.1697136302462529E+01 -0.1708402140118451E+01 -0.1719504608156958E+01 -0.1730444773762249E+01
 -0.1741223704118523E+01 -0.1751842466409980E+01 -0.1762302127820819E+01 -0.1772603755535240E+01 -0.1782748416737441E+01
 -0.1792737178611622E+01 -0.1802571108341983E+01 -0.1812251273112723E+01 -0.1821778740108041E+01 -0.1831154576512137E+01
 -0.1840379849509209E+01 -0.1849455626283458E+01 -0.1858382974019083E+01 -0.1867162959900283E+01 -0.1875796651111257E+01
 -0.1884285114836205E+01 -0.1892629418259327E+01 -0.1900830628564821E+01 -0.1908889812936887E+01 -0.1916808038559724E+01
