  DATE: 2018-03-30 CONTRIBUTOR: Xiaowang Zhou xzhou@sandia.gov and Lucas Hale lucas.hale@nist.gov CITATION: X. W. Zhou, R. A. Johnson, H. N. G. Wadley, Phys. Rev. B, 69, 144113(2004)
  Generated from Zhou04_create_v2.f
  Fixes precision issues with older version
    5 Cr Fe Co Ni Cu          
 2000  0.6522197227699011E-01 2000  0.2859305649575697E-02  0.5715751993501819E+01
   24     51.996         3.3434    fcc     
  0.0000000000000000E+00  0.4409058735996929E-01  0.1418106356720594E-01 -0.1549742675253896E-01 -0.4494578551829775E-01
 -0.7416491464910591E-01 -0.1031557160639962E+00 -0.1319190916820037E+00 -0.1604559434221611E+00 -0.1887671732035043E+00
 -0.2168536829450654E+00 -0.2447163745658791E+00 -0.2723561499849794E+00 -0.2997739111214006E+00 -0.3269705598941752E+00
 -0.3539469982223400E+00 -0.3807041280249259E+00 -0.4072428512209696E+00 -0.4335640697295038E+00 -0.4596686854695611E+00
 -0.4855576003601785E+00 -0.5112317163203868E+00 -0.5366919352692232E+00 -0.5619391591257188E+00 -0.5869742898089094E+00
 -0.6117982292378283E+00 -0.6364118793315099E+00 -0.6608161420089875E+00 -0.6850119191892956E+00 -0.7090001127914680E+00
 -0.7327816247345391E+00 -0.7563573569375424E+00 -0.7797282113195128E+00 -0.8028950897994822E+00 -0.8258588942964864E+00
 -0.8486205267295599E+00 -0.8711808890177342E+00 -0.8935408830800451E+00 -0.9157014108355273E+00 -0.9376633742032137E+00
 -0.9594276751021376E+00 -0.9809952154513339E+00 -0.1002366897169836E+01 -0.1023543622176680E+01 -0.1044526292390897E+01
 -0.1065315809731522E+01 -0.1085913076117589E+01 -0.1106318993468133E+01 -0.1126534463702188E+01 -0.1146560388738785E+01
 -0.1166397670496962E+01 -0.1186047210895750E+01 -0.1205509911854184E+01 -0.1224786675291299E+01 -0.1243878403126127E+01
 -0.1262785997277704E+01 -0.1281510359665063E+01 -0.1300052392207238E+01 -0.1318412996823263E+01 -0.1336593075432172E+01
 -0.1354593529952999E+01 -0.1372415262304778E+01 -0.1390059174406543E+01 -0.1407526168177328E+01 -0.1424817145536167E+01
 -0.1441933008402094E+01 -0.1458874658694144E+01 -0.1475642998331348E+01 -0.1492238929232744E+01 -0.1508663353317363E+01
 -0.1524917172504240E+01 -0.1541001288712408E+01 -0.1556916603860902E+01 -0.1572664019868757E+01 -0.1588244438655005E+01
 -0.1603658762138681E+01 -0.1618907892238820E+01 -0.1633992730874454E+01 -0.1648914179964618E+01 -0.1663673141428345E+01
 -0.1678270517184670E+01 -0.1692707209152628E+01 -0.1706984119251250E+01 -0.1721102149399573E+01 -0.1735062201516629E+01
 -0.1748865177521453E+01 -0.1762511979333080E+01 -0.1776003508870541E+01 -0.1789340668052873E+01 -0.1802524358799108E+01
 -0.1815555483028281E+01 -0.1828434942659425E+01 -0.1841163639611575E+01 -0.1853742475803765E+01 -0.1866172353155028E+01
 -0.1878454173584399E+01 -0.1890588839010912E+01 -0.1902577251353600E+01 -0.1914420312531498E+01 -0.1926118924463640E+01
 -0.1937673989069059E+01 -0.1949086408266789E+01 -0.1960357083975865E+01 -0.1971486918115321E+01 -0.1982476812604190E+01
 -0.1993327669361507E+01 -0.2004040390306305E+01 -0.2014615877357619E+01 -0.2025055032434482E+01 -0.2035358757455929E+01
 -0.2045527954340992E+01 -0.2055563525008709E+01 -0.2065466371378109E+01 -0.2075237395368229E+01 -0.2084877498898103E+01
 -0.2094387583886764E+01 -0.2103768552253248E+01 -0.2113021305916585E+01 -0.2122146746795813E+01 -0.2131145776809964E+01
 -0.2140019297878071E+01 -0.2148768211919171E+01 -0.2157393420852296E+01 -0.2165895826596480E+01 -0.2174276331070757E+01
 -0.2182535836194162E+01 -0.2190675243885728E+01 -0.2198695456064489E+01 -0.2206597374649479E+01 -0.2214381901559733E+01
 -0.2222049938714283E+01 -0.2229602388032166E+01 -0.2237040151432413E+01 -0.2244364130834059E+01 -0.2251575228156139E+01
 -0.2258674345317686E+01 -0.2265662384237734E+01 -0.2272540246835317E+01 -0.2279308835029469E+01 -0.2285969050739225E+01
 -0.2292521795883617E+01 -0.2298967972381681E+01 -0.2305308482152449E+01 -0.2311544227114957E+01 -0.2317676109188238E+01
 -0.2323705030291325E+01 -0.2329631892343254E+01 -0.2335457597263058E+01 -0.2341183046969771E+01 -0.2346809143382427E+01
 -0.2352336788420060E+01 -0.2357766884001704E+01 -0.2363100332046393E+01 -0.2368338034473160E+01 -0.2373480893201042E+01
 -0.2378529810149069E+01 -0.2383485687236278E+01 -0.2388349426381701E+01 -0.2393121929504374E+01 -0.2397804098523329E+01
 -0.2402396835357602E+01 -0.2406901041926225E+01 -0.2411317620148233E+01 -0.2415647471942659E+01 -0.2419891499228540E+01
 -0.2424050603924906E+01 -0.2428125687950793E+01 -0.2432117653225235E+01 -0.2436027401667266E+01 -0.2439855835195920E+01
 -0.2443603855730230E+01 -0.2447272365189231E+01 -0.2450862265491957E+01 -0.2454374458557441E+01 -0.2457809846304719E+01
 -0.2461169330652823E+01 -0.2464453813520788E+01 -0.2467664196827648E+01 -0.2470801382492436E+01 -0.2473866272434186E+01
 -0.2476859768571934E+01 -0.2479782772824711E+01 -0.2482636187111555E+01 -0.2485420913351495E+01 -0.2488137853463570E+01
 -0.2490787909366810E+01 -0.2493371982980251E+01 -0.2495890976222927E+01 -0.2498345791013871E+01 -0.2500737329272118E+01
 -0.2503066492916701E+01 -0.2505334183866655E+01 -0.2507541304041013E+01 -0.2509688755358810E+01 -0.2511777439739079E+01
 -0.2513808259100855E+01 -0.2515782115363171E+01 -0.2517699910445062E+01 -0.2519562546265561E+01 -0.2521370924743703E+01
 -0.2523125947798521E+01 -0.2524828517349049E+01 -0.2526479535314322E+01 -0.2528079903613373E+01 -0.2529630524165236E+01
 -0.2531132298888946E+01 -0.2532586129703536E+01 -0.2533992918528041E+01 -0.2535353567281494E+01 -0.2536668977882929E+01
 -0.2537940052251381E+01 -0.2539167692305882E+01 -0.2540352799965469E+01 -0.2541496277149173E+01 -0.2542599025776029E+01
 -0.2543661947765072E+01 -0.2544685945035336E+01 -0.2545671919505853E+01 -0.2546620773095658E+01 -0.2547533407723786E+01
 -0.2548410725309270E+01 -0.2549253627771144E+01 -0.2550063017028442E+01 -0.2550839795000198E+01 -0.2551584863605447E+01
 -0.2552299124763222E+01 -0.2552983480392556E+01 -0.2553638832412485E+01 -0.2554266082742042E+01 -0.2554866133300261E+01
 -0.2555439886006176E+01 -0.2555988242778822E+01 -0.2556512105537231E+01 -0.2557012376200438E+01 -0.2557489956687477E+01
 -0.2557945748917383E+01 -0.2558380654809188E+01 -0.2558795576281927E+01 -0.2559191415254634E+01 -0.2559569073646344E+01
 -0.2559929453376089E+01 -0.2560273456362904E+01 -0.2560601984525823E+01 -0.2560915939783880E+01 -0.2561216224056109E+01
 -0.2561503739261544E+01 -0.2561779387319219E+01 -0.2562044070148167E+01 -0.2562298689667423E+01 -0.2562544147796021E+01
 -0.2562781346452996E+01 -0.2563011187557380E+01 -0.2563009606932709E+01 -0.2563260650492181E+01 -0.2563505500238937E+01
 -0.2563744191342868E+01 -0.2563976758973874E+01 -0.2564203238301848E+01 -0.2564423664496686E+01 -0.2564638072728285E+01
 -0.2564846498166537E+01 -0.2565048975981342E+01 -0.2565245541342592E+01 -0.2565436229420184E+01 -0.2565621075384012E+01
 -0.2565800114403974E+01 -0.2565973381649964E+01 -0.2566140912291877E+01 -0.2566302741499611E+01 -0.2566458904443059E+01
 -0.2566609436292117E+01 -0.2566754372216681E+01 -0.2566893747386647E+01 -0.2567027596971909E+01 -0.2567155956142363E+01
 -0.2567278860067906E+01 -0.2567396343918431E+01 -0.2567508442863836E+01 -0.2567615192074015E+01 -0.2567716626718863E+01
 -0.2567812781968278E+01 -0.2567903692992153E+01 -0.2567989394960385E+01 -0.2568069923042868E+01 -0.2568145312409500E+01
 -0.2568215598230173E+01 -0.2568280815674786E+01 -0.2568340999913233E+01 -0.2568396186115408E+01 -0.2568446409451209E+01
 -0.2568491705090531E+01 -0.2568532108203268E+01 -0.2568567653959318E+01 -0.2568598377528573E+01 -0.2568624314080932E+01
 -0.2568645498786289E+01 -0.2568661966814540E+01 -0.2568673753335579E+01 -0.2568680893519303E+01 -0.2568683422535607E+01
 -0.2568681375566901E+01 -0.2568674787858664E+01 -0.2568663694676192E+01 -0.2568648131284796E+01 -0.2568628132949781E+01
 -0.2568603734936454E+01 -0.2568574972510121E+01 -0.2568541880936091E+01 -0.2568504495479669E+01 -0.2568462851406162E+01
 -0.2568416983980878E+01 -0.2568366928469124E+01 -0.2568312720136206E+01 -0.2568254394247431E+01 -0.2568191986068106E+01
 -0.2568125530863537E+01 -0.2568055063899033E+01 -0.2567980620439900E+01 -0.2567902235751445E+01 -0.2567819945098973E+01
 -0.2567733783747793E+01 -0.2567643786963212E+01 -0.2567549990010536E+01 -0.2567452428155072E+01 -0.2567351136662126E+01
 -0.2567246150797007E+01 -0.2567137505825021E+01 -0.2567025237011475E+01 -0.2566909379621674E+01 -0.2566789968920928E+01
 -0.2566667040174541E+01 -0.2566540628647823E+01 -0.2566410769606078E+01 -0.2566277498314614E+01 -0.2566140850038738E+01
 -0.2566000860043757E+01 -0.2565857563594979E+01 -0.2565710995957708E+01 -0.2565561192397253E+01 -0.2565408188178921E+01
 -0.2565252018568018E+01 -0.2565092718829851E+01 -0.2564930324229727E+01 -0.2564764870032954E+01 -0.2564762796870347E+01
 -0.2564630568733904E+01 -0.2564494474448395E+01 -0.2564354538333479E+01 -0.2564210784498058E+01 -0.2564063236842660E+01
 -0.2563911919061801E+01 -0.2563756854646301E+01 -0.2563598066885575E+01 -0.2563435578869887E+01 -0.2563269413492578E+01
 -0.2563099593452260E+01 -0.2562926141254981E+01 -0.2562749079216356E+01 -0.2562568429463678E+01 -0.2562384213937989E+01
 -0.2562196454396129E+01 -0.2562005172412757E+01 -0.2561810389382344E+01 -0.2561612126521135E+01 -0.2561410404869091E+01
 -0.2561205245291802E+01 -0.2560996668482370E+01 -0.2560784694963274E+01 -0.2560569345088207E+01 -0.2560350639043885E+01
 -0.2560128596851836E+01 -0.2559903238370168E+01 -0.2559674583295305E+01 -0.2559442651163708E+01 -0.2559207461353566E+01
 -0.2558969033086475E+01 -0.2558727385429085E+01 -0.2558482537294732E+01 -0.2558234507445042E+01 -0.2557983314491522E+01
 -0.2557728976897128E+01 -0.2557471512977805E+01 -0.2557210940904022E+01 -0.2556947278702272E+01 -0.2556680544256562E+01
 -0.2556410755309881E+01 -0.2556137929465653E+01 -0.2555862084189161E+01 -0.2555583236808968E+01 -0.2555301404518307E+01
 -0.2555016604376459E+01 -0.2554728853310114E+01 -0.2554438168114715E+01 -0.2554144565455781E+01 -0.2553848061870223E+01
 -0.2553548673767626E+01 -0.2553246417431537E+01 -0.2552941309020720E+01 -0.2552633364570404E+01 -0.2552322599993514E+01
 -0.2552009031081879E+01 -0.2551692673507443E+01 -0.2551373542823443E+01 -0.2551051654465577E+01 -0.2550727023753171E+01
 -0.2550399665890310E+01 -0.2550069595966974E+01 -0.2549736828960151E+01 -0.2549401379734932E+01 -0.2549063263045612E+01
 -0.2548722493536750E+01 -0.2548379085744244E+01 -0.2548033054096370E+01 -0.2547684412914825E+01 -0.2547333176415748E+01
 -0.2546979358710736E+01 -0.2546622973807837E+01 -0.2546264035612547E+01 -0.2545902557928780E+01 -0.2545538554459834E+01
 -0.2545172038809348E+01 -0.2544803024482242E+01 -0.2544431524885650E+01 -0.2544057553329834E+01 -0.2543681123029107E+01
 -0.2543302247102717E+01 -0.2542920938575748E+01 -0.2542537210379993E+01 -0.2542151075354822E+01 -0.2541762546248040E+01
 -0.2541371635716743E+01 -0.2540978356328143E+01 -0.2540582720560410E+01 -0.2540184740803485E+01 -0.2539784429359893E+01
 -0.2539381798445540E+01 -0.2538976860190512E+01 -0.2538569626639853E+01 -0.2538160109754340E+01 -0.2537748321411248E+01
 -0.2537334273405108E+01 -0.2536917977448459E+01 -0.2536499445172579E+01 -0.2536078688128226E+01 -0.2535655717786356E+01
 -0.2535230545538841E+01 -0.2534803182699174E+01 -0.2534373640503174E+01 -0.2533941930109673E+01 -0.2533508062601201E+01
 -0.2533072048984666E+01 -0.2532633900192022E+01 -0.2532193627080927E+01 -0.2531751240435406E+01 -0.2531306750966493E+01
 -0.2530860169312871E+01 -0.2530411506041510E+01 -0.2529960771648293E+01 -0.2529507976558631E+01 -0.2529053131128084E+01
 -0.2528596245642960E+01 -0.2528137330320924E+01 -0.2527676395311583E+01 -0.2527213450697082E+01 -0.2526748506492675E+01
 -0.2526281572647312E+01 -0.2525812659044199E+01 -0.2525341775501363E+01 -0.2524868931772211E+01 -0.2524394137546081E+01
 -0.2523917402448781E+01 -0.2523438736043140E+01 -0.2522958147829530E+01 -0.2522475647246401E+01 -0.2521991243670804E+01
 -0.2521504946418905E+01 -0.2521016764746496E+01 -0.2520526707849509E+01 -0.2520034784864507E+01 -0.2519541004869188E+01
 -0.2519045376882872E+01 -0.2518547909866989E+01 -0.2518048612725559E+01 -0.2517547494305665E+01 -0.2517044563397933E+01
 -0.2516539828736986E+01 -0.2516033299001917E+01 -0.2515524982816737E+01 -0.2515014888750831E+01 -0.2514503025319408E+01
 -0.2513989400983939E+01 -0.2513474024152599E+01 -0.2512956903180700E+01 -0.2512438046371122E+01 -0.2511917461974737E+01
 -0.2511395158190827E+01 -0.2510871143167509E+01 -0.2510345425002143E+01 -0.2509818011741738E+01 -0.2509288911383363E+01
 -0.2508758131874542E+01 -0.2508225681113656E+01 -0.2507691566950327E+01 -0.2507155797185820E+01 -0.2506618379573413E+01
 -0.2506079321818791E+01 -0.2505538631580419E+01 -0.2504996316469909E+01 -0.2504452384052401E+01 -0.2503906841846925E+01
 -0.2503359697326761E+01 -0.2502810957919802E+01 -0.2502260631008909E+01 -0.2501708723932265E+01 -0.2501155243983719E+01
 -0.2500600198413140E+01 -0.2500043594426749E+01 -0.2499485439187469E+01 -0.2498925739815253E+01 -0.2498364503387420E+01
 -0.2497801736938982E+01 -0.2497237447462973E+01 -0.2496671641910771E+01 -0.2496104327192420E+01 -0.2495535510176942E+01
 -0.2494965197692656E+01 -0.2494393396527489E+01 -0.2493820113429279E+01 -0.2493245355106088E+01 -0.2492669128226496E+01
 -0.2492091439419910E+01 -0.2491512295276851E+01 -0.2490931702349255E+01 -0.2490349667150761E+01 -0.2489766196157001E+01
 -0.2489181295805886E+01 -0.2488594972497886E+01 -0.2488007232596315E+01 -0.2487418082427606E+01 -0.2486827528281586E+01
 -0.2486235576411755E+01 -0.2485642233035547E+01 -0.2485047504334603E+01 -0.2484451396455038E+01 -0.2483853915507700E+01
 -0.2483255067568433E+01 -0.2482654858678334E+01 -0.2482053294844012E+01 -0.2481450382037836E+01 -0.2480846126198190E+01
 -0.2480240533229723E+01 -0.2479633609003592E+01 -0.2479025359357709E+01 -0.2478415790096983E+01 -0.2477804906993561E+01
 -0.2477192715787061E+01 -0.2476579222184816E+01 -0.2475964431862102E+01 -0.2475348350462369E+01 -0.2474730983597474E+01
 -0.2474112336847909E+01 -0.2473492415763020E+01 -0.2472871225861239E+01 -0.2472248772630300E+01 -0.2471625061527460E+01
 -0.2471000097979716E+01 -0.2470373887384025E+01 -0.2469746435107509E+01 -0.2469117746487677E+01 -0.2468487826832627E+01
 -0.2467856681421261E+01 -0.2467224315503482E+01 -0.2466590734300411E+01 -0.2465955943004580E+01 -0.2465319946780138E+01
 -0.2464682750763048E+01 -0.2464044360061285E+01 -0.2463404779755034E+01 -0.2462764014896881E+01 -0.2462122070512008E+01
 -0.2461478951598383E+01 -0.2460834663126950E+01 -0.2460189210041814E+01 -0.2459542597260430E+01 -0.2458894829673787E+01
 -0.2458245912146590E+01 -0.2457595849517441E+01 -0.2456944646599019E+01 -0.2456292308178260E+01 -0.2455638839016531E+01
 -0.2454984243849806E+01 -0.2454328527388843E+01 -0.2453671694319350E+01 -0.2453013749302162E+01 -0.2452354696973406E+01
 -0.2451694541944673E+01 -0.2451033288803179E+01 -0.2450370942111937E+01 -0.2449707506409915E+01 -0.2449042986212202E+01
 -0.2448377386010166E+01 -0.2447710710271620E+01 -0.2447042963440969E+01 -0.2446374149939381E+01 -0.2445704274164932E+01
 -0.2445033340492766E+01 -0.2444361353275244E+01 -0.2443688316842104E+01 -0.2443014235500600E+01 -0.2442339113535663E+01
 -0.2441662955210042E+01 -0.2440985764764454E+01 -0.2440307546417728E+01 -0.2439628304366951E+01 -0.2438948042787613E+01
 -0.2438266765833747E+01 -0.2437584477638068E+01 -0.2436901182312121E+01 -0.2436216883946409E+01 -0.2435531586610542E+01
 -0.2434845294353363E+01 -0.2434158011203094E+01 -0.2433469741167460E+01 -0.2432780488233832E+01 -0.2432090256369354E+01
 -0.2431399049521072E+01 -0.2430706871616072E+01 -0.2430013726561602E+01 -0.2429319618245203E+01 -0.2428624550534837E+01
 -0.2427928527279012E+01 -0.2427231552306905E+01 -0.2426533629428490E+01 -0.2425834762434662E+01 -0.2425134955097351E+01
 -0.2424434211169654E+01 -0.2423732534385948E+01 -0.2423029928462011E+01 -0.2422326397095143E+01 -0.2421621943964278E+01
 -0.2420916572730108E+01 -0.2420210287035190E+01 -0.2419503090504070E+01 -0.2418794986743388E+01 -0.2418085979341997E+01
 -0.2417376071871074E+01 -0.2416665267884227E+01 -0.2415953570917612E+01 -0.2415240984490039E+01 -0.2414527512103078E+01
 -0.2413813157241173E+01 -0.2413097923371742E+01 -0.2412381813945290E+01 -0.2411664832395510E+01 -0.2410946982139389E+01
 -0.2410228266577309E+01 -0.2409508689093156E+01 -0.2408788253054416E+01 -0.2408066961812279E+01 -0.2407344818701742E+01
 -0.2406621827041703E+01 -0.2405897990135066E+01 -0.2405173311268835E+01 -0.2404447793714214E+01 -0.2403721440726704E+01
 -0.2402994255546197E+01 -0.2402266241397074E+01 -0.2401537401488300E+01 -0.2400807739013512E+01 -0.2400077257151121E+01
 -0.2399345959064397E+01 -0.2398613847901567E+01 -0.2397880926795903E+01 -0.2397147198865812E+01 -0.2396412667214928E+01
 -0.2395677334932196E+01 -0.2394941205091971E+01 -0.2394204280754095E+01 -0.2393466564963990E+01 -0.2392728060752743E+01
 -0.2391988771137191E+01 -0.2391248699120009E+01 -0.2390507847689793E+01 -0.2389766219821144E+01 -0.2389023818474750E+01
 -0.2388280646597472E+01 -0.2387536707122424E+01 -0.2386792002969057E+01 -0.2386046537043236E+01 -0.2385300312237322E+01
 -0.2384553331430256E+01 -0.2383805597487631E+01 -0.2383057113261778E+01 -0.2382307881591838E+01 -0.2381557905303843E+01
 -0.2380807187210794E+01 -0.2380055730112731E+01 -0.2379303536796818E+01 -0.2378550610037412E+01 -0.2377796952596140E+01
 -0.2377042567221974E+01 -0.2376287456651300E+01 -0.2375531623607999E+01 -0.2374775070803514E+01 -0.2374017800936923E+01
 -0.2373259816695013E+01 -0.2372501120752347E+01 -0.2371741715771339E+01 -0.2370981604402324E+01 -0.2370220789283622E+01
 -0.2369459273041613E+01 -0.2368697058290805E+01 -0.2367934147633898E+01 -0.2367170543661859E+01 -0.2366406248953979E+01
 -0.2365641266077950E+01 -0.2364875597589925E+01 -0.2364109246034587E+01 -0.2363342213945212E+01 -0.2362574503843734E+01
 -0.2361806118240812E+01 -0.2361037059635892E+01 -0.2360267330517270E+01 -0.2359496933362157E+01 -0.2358725870636739E+01
 -0.2357954144796244E+01 -0.2357181758284996E+01 -0.2356408713536486E+01 -0.2355635012973425E+01 -0.2354860659007808E+01
 -0.2354085654040974E+01 -0.2353310000463665E+01 -0.2352533700656085E+01 -0.2351756756987962E+01 -0.2350979171818602E+01
 -0.2350200947496949E+01 -0.2349422086361641E+01 -0.2348642590741074E+01 -0.2347862462953449E+01 -0.2347081705306835E+01
 -0.2346300320099226E+01 -0.2345518309618590E+01 -0.2344735676142932E+01 -0.2343952421940345E+01 -0.2343168549269062E+01
 -0.2342384060377518E+01 -0.2341598957504397E+01 -0.2340813242878689E+01 -0.2340026918719742E+01 -0.2339239987237312E+01
 -0.2338452450631622E+01 -0.2337664311093409E+01 -0.2336875570803976E+01 -0.2336086231935247E+01 -0.2335296296649814E+01
 -0.2334505767100989E+01 -0.2333714645432856E+01 -0.2332922933780319E+01 -0.2332130634269151E+01 -0.2331337749016047E+01
 -0.2330544280128671E+01 -0.2329750229705703E+01 -0.2328955599836889E+01 -0.2328160392603091E+01 -0.2327364610076331E+01
 -0.2326568254319842E+01 -0.2325771327388110E+01 -0.2324973831326930E+01 -0.2324175768173441E+01 -0.2323377139956182E+01
 -0.2322577948695132E+01 -0.2321778196401759E+01 -0.2320977885079062E+01 -0.2320177016721619E+01 -0.2319375593315632E+01
 -0.2318573616838967E+01 -0.2317771089261204E+01 -0.2316968012543676E+01 -0.2316164388639518E+01 -0.2315360219493702E+01
 -0.2314555507043090E+01 -0.2313750253216468E+01 -0.2312944459934595E+01 -0.2312138129110239E+01 -0.2311331262648227E+01
 -0.2310523862445478E+01 -0.2309715930391050E+01 -0.2308907468366178E+01 -0.2308098478244320E+01 -0.2307288961891189E+01
 -0.2306478921164802E+01 -0.2305668357915516E+01 -0.2304857273986065E+01 -0.2304045671211606E+01 -0.2303233551419754E+01
 -0.2302420916430622E+01 -0.2301607768056861E+01 -0.2300794108103693E+01 -0.2299979938368961E+01 -0.2299165260643154E+01
 -0.2298350076709454E+01 -0.2297534388343769E+01 -0.2296718197314772E+01 -0.2295901505383938E+01 -0.2295084314305580E+01
 -0.2294266625826888E+01 -0.2293448441687963E+01 -0.2292629763621853E+01 -0.2291810593354592E+01 -0.2290990932605233E+01
 -0.2290170783085884E+01 -0.2289350146501744E+01 -0.2288529024551138E+01 -0.2287707418925551E+01 -0.2286885331309666E+01
 -0.2286062763381392E+01 -0.2285239716811903E+01 -0.2284416193265674E+01 -0.2283592194400508E+01 -0.2282767721867576E+01
 -0.2281942777311446E+01 -0.2281117362370119E+01 -0.2280291478675062E+01 -0.2279465127851239E+01 -0.2278638311517144E+01
 -0.2277811031284834E+01 -0.2276983288759960E+01 -0.2276155085541803E+01 -0.2275326423223299E+01 -0.2274497303391078E+01
 -0.2273667727625489E+01 -0.2272837697500635E+01 -0.2272007214584403E+01 -0.2271176280438497E+01 -0.2270344896618460E+01
 -0.2269513064673718E+01 -0.2268680786147600E+01 -0.2267848062577373E+01 -0.2267014895494268E+01 -0.2266181286423513E+01
 -0.2265347236884363E+01 -0.2264512748390126E+01 -0.2263677822448193E+01 -0.2262842460560074E+01 -0.2262006664221413E+01
 -0.2261170434922032E+01 -0.2260333774145947E+01 -0.2259496683371403E+01 -0.2258659164070903E+01 -0.2257821217711231E+01
 -0.2256982845753484E+01 -0.2256144049653096E+01 -0.2255304830859871E+01 -0.2254465190818004E+01 -0.2253625130966115E+01
 -0.2252784652737267E+01 -0.2251943757559004E+01 -0.2251102446853367E+01 -0.2250260722036929E+01 -0.2249418584520813E+01
 -0.2248576035710729E+01 -0.2247733077006990E+01 -0.2246889709804543E+01 -0.2246045935492993E+01 -0.2245201755456631E+01
 -0.2244357171074456E+01 -0.2243512183720204E+01 -0.2242666794762370E+01 -0.2241821005564236E+01 -0.2240974817483891E+01
 -0.2240128231874262E+01 -0.2239281250083134E+01 -0.2238433873453177E+01 -0.2237586103321969E+01 -0.2236737941022019E+01
 -0.2235889387880795E+01 -0.2235040445220744E+01 -0.2234191114359316E+01 -0.2233341396608992E+01 -0.2232491293277300E+01
 -0.2231640805666846E+01 -0.2230789935075332E+01 -0.2229938682795582E+01 -0.2229087050115562E+01 -0.2228235038318407E+01
 -0.2227382648682438E+01 -0.2226529882481191E+01 -0.2225676740983435E+01 -0.2224823225453193E+01 -0.2223969337149772E+01
 -0.2223115077327776E+01 -0.2222260447237131E+01 -0.2221405448123109E+01 -0.2220550081226349E+01 -0.2219694347782874E+01
 -0.2218838249024120E+01 -0.2217981786176952E+01 -0.2217124960463685E+01 -0.2216267773102106E+01 -0.2215410225305500E+01
 -0.2214552318282661E+01 -0.2213694053237923E+01 -0.2212835431371171E+01 -0.2211976453877867E+01 -0.2211117121949072E+01
 -0.2210257436771461E+01 -0.2209397399527347E+01 -0.2208537011394700E+01 -0.2207676273547164E+01 -0.2206815187154084E+01
 -0.2205953753380517E+01 -0.2205091973387257E+01 -0.2204229848330855E+01 -0.2203367379363635E+01 -0.2202504567633714E+01
 -0.2201641414285023E+01 -0.2200777920457325E+01 -0.2199914087286232E+01 -0.2199049915903229E+01 -0.2198185407435687E+01
 -0.2197320563006884E+01 -0.2196455383736025E+01 -0.2195589870738257E+01 -0.2194724025124692E+01 -0.2193857848002418E+01
 -0.2192991340474528E+01 -0.2192124503640125E+01 -0.2191257338594349E+01 -0.2190389846428395E+01 -0.2189522028229524E+01
 -0.2188653885081086E+01 -0.2187785418062538E+01 -0.2186916628249457E+01 -0.2186047516713560E+01 -0.2185178084522722E+01
 -0.2184308332740994E+01 -0.2183438262428614E+01 -0.2182567874642033E+01 -0.2181697170433925E+01 -0.2180826150853203E+01
 -0.2179954816945044E+01 -0.2179083169750897E+01 -0.2178211210308503E+01 -0.2177338939651911E+01 -0.2176466358811497E+01
 -0.2175593468813972E+01 -0.2174720270682410E+01 -0.2173846765436255E+01 -0.2172972954091338E+01 -0.2172098837659898E+01
 -0.2171224417150594E+01 -0.2170349693568519E+01 -0.2169474667915221E+01 -0.2168599341188713E+01 -0.2167723714383492E+01
 -0.2166847788490553E+01 -0.2165971564497403E+01 -0.2165095043388084E+01 -0.2164218226143174E+01 -0.2163341113739814E+01
 -0.2162463707151720E+01 -0.2161586007349194E+01 -0.2160708015299146E+01 -0.2159829731965098E+01 -0.2158951158307211E+01
 -0.2158072295282293E+01 -0.2157193143843812E+01 -0.2156313704941914E+01 -0.2155433979523435E+01 -0.2154553968531918E+01
 -0.2153673672907625E+01 -0.2152793093587551E+01 -0.2151912231505440E+01 -0.2151031087591796E+01 -0.2150149662773900E+01
 -0.2149267957975824E+01 -0.2148385974118439E+01 -0.2147503712119438E+01 -0.2146621172893340E+01 -0.2145738357351513E+01
 -0.2144855266402177E+01 -0.2143971900950428E+01 -0.2143088261898244E+01 -0.2142204350144501E+01 -0.2141320166584987E+01
 -0.2140435712112412E+01 -0.2139550987616425E+01 -0.2138665993983625E+01 -0.2137780732097572E+01 -0.2136895202838804E+01
 -0.2136009407084847E+01 -0.2135123345710230E+01 -0.2134237019586493E+01 -0.2133350429582206E+01 -0.2132463576562975E+01
 -0.2131576461391461E+01 -0.2130689084927387E+01 -0.2129801448027554E+01 -0.2128913551545849E+01 -0.2128025396333266E+01
 -0.2127136983237906E+01 -0.2126248313104997E+01 -0.2125359386776907E+01 -0.2124470205093149E+01 -0.2123580768890402E+01
 -0.2122691079002514E+01 -0.2121801136260521E+01 -0.2120910941492653E+01 -0.2120020495524349E+01 -0.2119129799178272E+01
 -0.2118238853274309E+01 -0.2117347658629595E+01 -0.2116456216058519E+01 -0.2115564526372735E+01 -0.2114672590381174E+01
 -0.2113780408890057E+01 -0.2112887982702902E+01 -0.2111995312620539E+01 -0.2111102399441121E+01 -0.2110209243960133E+01
 -0.2109315846970402E+01 -0.2108422209262114E+01 -0.2107528331622817E+01 -0.2106634214837438E+01 -0.2105739859688290E+01
 -0.2104845266955084E+01 -0.2103950437414941E+01 -0.2103055371842399E+01 -0.2102160071009430E+01 -0.2101264535685440E+01
 -0.2100368766637293E+01 -0.2099472764629308E+01 -0.2098576530423281E+01 -0.2097680064778485E+01 -0.2096783368451690E+01
 -0.2095886442197164E+01 -0.2094989286766689E+01 -0.2094091902909571E+01 -0.2093194291372649E+01 -0.2092296452900300E+01
 -0.2091398388234459E+01 -0.2090500098114620E+01 -0.2089601583277851E+01 -0.2088702844458803E+01 -0.2087803882389717E+01
 -0.2086904697800436E+01 -0.2086005291418414E+01 -0.2085105663968729E+01 -0.2084205816174084E+01 -0.2083305748754826E+01
 -0.2082405462428952E+01 -0.2081504957912113E+01 -0.2080604235917634E+01 -0.2079703297156514E+01 -0.2078802142337441E+01
 -0.2077900772166797E+01 -0.2076999187348672E+01 -0.2076097388584867E+01 -0.2075195376574908E+01 -0.2074293152016057E+01
 -0.2073390715603313E+01 -0.2072488068029429E+01 -0.2071585209984913E+01 -0.2070682142158047E+01 -0.2069778865234888E+01
 -0.2068875379899278E+01 -0.2067971686832857E+01 -0.2067067786715065E+01 -0.2066163680223156E+01 -0.2065259368032205E+01
 -0.2064354850815118E+01 -0.2063450129242636E+01 -0.2062545203983349E+01 -0.2061640075703702E+01 -0.2060734745068001E+01
 -0.2059829212738429E+01 -0.2058923479375044E+01 -0.2058017545635795E+01 -0.2057111412176529E+01 -0.2056205079650996E+01
 -0.2055298548710860E+01 -0.2054391820005709E+01 -0.2053484894183054E+01 -0.2052577771888353E+01 -0.2051670453765001E+01
 -0.2050762940454353E+01 -0.2049855232595720E+01 -0.2048947330826391E+01 -0.2048039235781623E+01 -0.2047130948094665E+01
 -0.2046222468396756E+01 -0.2045313797317138E+01 -0.2044404935483060E+01 -0.2043495883519789E+01 -0.2042586642050614E+01
 -0.2041677211696859E+01 -0.2040767593077884E+01 -0.2039857786811097E+01 -0.2038947793511963E+01 -0.2038037613794005E+01
 -0.2037127248268818E+01 -0.2036216697546072E+01 -0.2035305962233524E+01 -0.2034395042937019E+01 -0.2033483940260504E+01
 -0.2032572654806032E+01 -0.2031661187173767E+01 -0.2030749537961994E+01 -0.2029837707767129E+01 -0.2028925697183720E+01
 -0.2028013506804458E+01 -0.2027101137220184E+01 -0.2026188589019894E+01 -0.2025275862790748E+01 -0.2024362959118077E+01
 -0.2023449878585387E+01 -0.2022536621774371E+01 -0.2021623189264911E+01 -0.2020709581635088E+01 -0.2019795799461187E+01
 -0.2018881843317705E+01 -0.2017967713777357E+01 -0.2017053411411085E+01 -0.2016138936788059E+01 -0.2015224290475691E+01
 -0.2014309473039635E+01 -0.2013394485043800E+01 -0.2012479327050352E+01 -0.2011563999619721E+01 -0.2010648503310608E+01
 -0.2009732838679993E+01 -0.2008817006283142E+01 -0.2007901006673607E+01 -0.2006984840403244E+01 -0.2006068508022205E+01
 -0.2005152010078958E+01 -0.2004235347120283E+01 -0.2003318519691286E+01 -0.2002401528335399E+01 -0.2001484373594391E+01
 -0.2000567056008371E+01 -0.1999649576115795E+01 -0.1998731934453475E+01 -0.1997814131556580E+01 -0.1996896167958647E+01
 -0.1995978044191582E+01 -0.1995059760785672E+01 -0.1994141318269586E+01 -0.1993222717170384E+01 -0.1992303958013520E+01
 -0.1991385041322852E+01 -0.1990465967620645E+01 -0.1989546737427577E+01 -0.1988627351262746E+01 -0.1987707809643676E+01
 -0.1986788113086318E+01 -0.1985868262105066E+01 -0.1984948257212753E+01 -0.1984028098920660E+01 -0.1983107787738525E+01
 -0.1982187324174541E+01 -0.1981266708735370E+01 -0.1980345941926145E+01 -0.1979425024250473E+01 -0.1978503956210445E+01
 -0.1977582738306640E+01 -0.1976661371038130E+01 -0.1975739854902485E+01 -0.1974818190395779E+01 -0.1973896378012596E+01
 -0.1972974418246037E+01 -0.1972052311587719E+01 -0.1971130058527790E+01 -0.1970207659554927E+01 -0.1969285115156342E+01
 -0.1968362425817791E+01 -0.1967439592023577E+01 -0.1966516614256554E+01 -0.1965593492998135E+01 -0.1964670228728295E+01
 -0.1963746821925579E+01 -0.1962823273067103E+01 -0.1961899582628563E+01 -0.1960975751084236E+01 -0.1960051778906991E+01
 -0.1959127666568288E+01 -0.1958203414538189E+01 -0.1957279023285356E+01 -0.1956354493277062E+01 -0.1955429824979194E+01
 -0.1954505018856256E+01 -0.1953580075371379E+01 -0.1952654994986320E+01 -0.1951729778161469E+01 -0.1950804425355858E+01
 -0.1949878937027159E+01 -0.1948953313631694E+01 -0.1948027555624437E+01 -0.1947101663459020E+01 -0.1946175637587740E+01
 -0.1945249478461558E+01 -0.1944323186530108E+01 -0.1943396762241701E+01 -0.1942470206043333E+01 -0.1941543518380680E+01
 -0.1940616699698112E+01 -0.1939689750438697E+01 -0.1938762671044199E+01 -0.1937835461955090E+01 -0.1936908123610548E+01
 -0.1935980656448469E+01 -0.1935053060905463E+01 -0.1934125337416867E+01 -0.1933197486416744E+01 -0.1932269508337888E+01
 -0.1931341403611830E+01 -0.1930413172668843E+01 -0.1929484815937943E+01 -0.1928556333846899E+01 -0.1927627726822232E+01
 -0.1926698995289221E+01 -0.1925770139671909E+01 -0.1924841160393106E+01 -0.1923912057874393E+01 -0.1922982832536128E+01
 -0.1922053484797448E+01 -0.1921124015076275E+01 -0.1920194423789319E+01 -0.1919264711352082E+01 -0.1918334878178866E+01
 -0.1917404924682771E+01 -0.1916474851275704E+01 -0.1915544658368383E+01 -0.1914614346370336E+01 -0.1913683915689912E+01
 -0.1912753366734280E+01 -0.1911822699909437E+01 -0.1910891915620208E+01 -0.1909961014270253E+01 -0.1909029996262071E+01
 -0.1908098861997002E+01 -0.1907167611875234E+01 -0.1906236246295801E+01 -0.1905304765656597E+01 -0.1904373170354370E+01
 -0.1903441460784731E+01 -0.1902509637342157E+01 -0.1901577700419996E+01 -0.1900645650410469E+01 -0.1899713487704673E+01
 -0.1898781212692590E+01 -0.1897848825763083E+01 -0.1896916327303908E+01 -0.1895983717701713E+01 -0.1895050997342041E+01
 -0.1894118166609338E+01 -0.1893185225886952E+01 -0.1892252175557140E+01 -0.1891319016001073E+01 -0.1890385747598833E+01
 -0.1889452370729425E+01 -0.1888518885770775E+01 -0.1887585293099736E+01 -0.1886651593092092E+01 -0.1885717786122559E+01
 -0.1884783872564793E+01 -0.1883849852791388E+01 -0.1882915727173886E+01 -0.1881981496082775E+01 -0.1881047159887495E+01
 -0.1880112718956442E+01 -0.1879178173656971E+01 -0.1878243524355400E+01 -0.1877308771417010E+01 -0.1876373915206056E+01
 -0.1875438956085762E+01 -0.1874503894418330E+01 -0.1873568730564943E+01 -0.1872633464885764E+01 -0.1871698097739946E+01
 -0.1870762629485630E+01 -0.1869827060479953E+01 -0.1868891391079044E+01 -0.1867955621638039E+01 -0.1867019752511072E+01
 -0.1866083784051287E+01 -0.1865147716610836E+01 -0.1864211550540887E+01 -0.1863275286191624E+01 -0.1862338923912250E+01
 -0.1861402464050993E+01 -0.1860465906955108E+01 -0.1859529252970877E+01 -0.1858592502443620E+01 -0.1857655655717688E+01
 -0.1856718713136478E+01 -0.1855781675042422E+01 -0.1854844541777005E+01 -0.1853907313680758E+01 -0.1852969991093264E+01
 -0.1852032574353165E+01 -0.1851095063798155E+01 -0.1850157459764996E+01 -0.1849219762589512E+01 -0.1848281972606596E+01
 -0.1847344090150212E+01 -0.1846406115553396E+01 -0.1845468049148263E+01 -0.1844529891266010E+01 -0.1843591642236914E+01
 -0.1842653302390339E+01 -0.1841714872054741E+01 -0.1840776351557664E+01 -0.1839837741225749E+01 -0.1838899041384738E+01
 -0.1837960252359471E+01 -0.1837021374473892E+01 -0.1836082408051055E+01 -0.1835143353413120E+01 -0.1834204210881364E+01
 -0.1833264980776178E+01 -0.1832325663417070E+01 -0.1831386259122673E+01 -0.1830446768210743E+01 -0.1829507190998163E+01
 -0.1828567527800946E+01 -0.1827627778934238E+01 -0.1826687944712324E+01 -0.1825748025448622E+01 -0.1824808021455698E+01
 -0.1823867933045255E+01 -0.1822927760528151E+01 -0.1821987504214388E+01 -0.1821047164413122E+01 -0.1820106741432665E+01
 -0.1819166235580489E+01 -0.1818225647163223E+01 -0.1817284976486661E+01 -0.1816344223855765E+01 -0.1815403389574664E+01
 -0.1814462473946659E+01 -0.1813521477274226E+01 -0.1812580399859018E+01 -0.1811639242001866E+01 -0.1810698004002786E+01
 -0.1809756686160976E+01 -0.1808815288774824E+01 -0.1807873812141907E+01 -0.1806932256558994E+01 -0.1805990622322052E+01
 -0.1805048909726243E+01 -0.1804107119065931E+01 -0.1803165250634684E+01 -0.1802223304725273E+01 -0.1801281281629678E+01
 -0.1800339181639094E+01 -0.1799397005043922E+01 -0.1798454752133785E+01 -0.1797512423197521E+01 -0.1796570018523189E+01
 -0.1795627538398072E+01 -0.1794684983108679E+01 -0.1793742352940747E+01 -0.1792799648179242E+01 -0.1791856869108367E+01
 -0.1790914016011556E+01 -0.1789971089171483E+01 -0.1789028088870064E+01 -0.1788085015388456E+01 -0.1787141869007062E+01
 -0.1786198650005531E+01 -0.1785255358662763E+01 -0.1784311995256913E+01 -0.1783368560065385E+01 -0.1782425053364846E+01
 -0.1781481475431220E+01 -0.1780537826539690E+01 -0.1779594106964710E+01 -0.1778650316979992E+01 -0.1777706456858524E+01
 -0.1776762526872562E+01 -0.1775818527293633E+01 -0.1774874458392545E+01 -0.1773930320439381E+01 -0.1772986113703502E+01
 -0.1772041838453556E+01 -0.1771097494957472E+01 -0.1770153083482468E+01 -0.1769208604295052E+01 -0.1768264057661020E+01
 -0.1767319443845465E+01 -0.1766374763112774E+01 -0.1765430015726632E+01 -0.1764485201950028E+01 -0.1763540322045247E+01
 -0.1762595376273884E+01 -0.1761650364896838E+01 -0.1760705288174317E+01 -0.1759760146365842E+01 -0.1758814939730247E+01
 -0.1757869668525678E+01 -0.1756924333009603E+01 -0.1755978933438807E+01 -0.1755033470069398E+01 -0.1754087943156807E+01
 -0.1753142352955792E+01 -0.1752196699720437E+01 -0.1751250983704157E+01 -0.1750305205159702E+01 -0.1749359364339153E+01
 -0.1748413461493929E+01 -0.1747467496874785E+01 -0.1746521470731820E+01 -0.1745575383314472E+01 -0.1744629234871526E+01
 -0.1743683025651114E+01 -0.1742736755900713E+01 -0.1741790425867155E+01 -0.1740844035796621E+01 -0.1739897585934648E+01
 -0.1738951076526130E+01 -0.1738004507815318E+01 -0.1737057880045827E+01 -0.1736111193460628E+01 -0.1735164448302063E+01
 -0.1734217644811838E+01 -0.1733270783231025E+01 -0.1732323863800070E+01 -0.1731376886758788E+01 -0.1730429852346369E+01
 -0.1729482760801381E+01 -0.1728535612361768E+01 -0.1727588407264853E+01 -0.1726641145747343E+01 -0.1725693828045326E+01
 -0.1724746454394279E+01 -0.1723799025029062E+01 -0.1722851540183927E+01 -0.1721904000092517E+01 -0.1720956404987866E+01
 -0.1720008755102405E+01 -0.1719061050667960E+01 -0.1718113291915757E+01 -0.1717165479076420E+01 -0.1716217612379978E+01
 -0.1715269692055861E+01 -0.1714321718332906E+01 -0.1713373691439357E+01 -0.1712425611602869E+01 -0.1711477479050505E+01
 -0.1710529294008743E+01 -0.1709581056703477E+01 -0.1708632767360013E+01 -0.1707684426203079E+01 -0.1706736033456821E+01
 -0.1705787589344807E+01 -0.1704839094090030E+01 -0.1703890547914905E+01 -0.1702941951041276E+01 -0.1701993303690416E+01
 -0.1701044606083025E+01 -0.1700095858439240E+01 -0.1699147060978629E+01 -0.1698198213920192E+01 -0.1697249317482374E+01
 -0.1696300371883051E+01 -0.1695351377339544E+01 -0.1694402334068616E+01 -0.1693453242286471E+01 -0.1692504102208760E+01
 -0.1691554914050583E+01 -0.1690605678026486E+01 -0.1689656394350465E+01 -0.1688707063235972E+01 -0.1687757684895909E+01
 -0.1686808259542634E+01 -0.1685858787387963E+01 -0.1684909268643170E+01 -0.1683959703518988E+01 -0.1683010092225614E+01
 -0.1682060434972707E+01 -0.1681110731969391E+01 -0.1680160983424255E+01 -0.1679211189545361E+01 -0.1678261350540236E+01
 -0.1677311466615879E+01 -0.1676361537978763E+01 -0.1675411564834835E+01 -0.1674461547389517E+01 -0.1673511485847711E+01
 -0.1672561380413796E+01 -0.1671611231291631E+01 -0.1670661038684559E+01 -0.1669710802795405E+01 -0.1668760523826480E+01
 -0.1667810201979582E+01 -0.1666859837455995E+01 -0.1665909430456497E+01 -0.1664958981181352E+01 -0.1664008489830321E+01
 -0.1663057956602656E+01 -0.1662107381697106E+01 -0.1661156765311919E+01 -0.1660206107644838E+01 -0.1659255408893108E+01
 -0.1658304669253475E+01 -0.1657353888922189E+01 -0.1656403068095003E+01 -0.1655452206967178E+01 -0.1654501305733479E+01
 -0.1653550364588184E+01 -0.1652599383725077E+01 -0.1651648363337456E+01 -0.1650697303618133E+01 -0.1649746204759431E+01
 -0.1648795066953192E+01 -0.1647843890390775E+01 -0.1646892675263056E+01 -0.1645941421760432E+01 -0.1644990130072823E+01
 -0.1644038800389669E+01 -0.1643087432899936E+01 -0.1642136027792116E+01 -0.1641184585254227E+01 -0.1640233105473816E+01
 -0.1639281588637958E+01 -0.1638330034933264E+01 -0.1637378444545871E+01 -0.1636426817661455E+01 -0.1635475154465224E+01
 -0.1634523455141925E+01 -0.1633571719875840E+01 -0.1632619948850792E+01 -0.1631668142250145E+01 -0.1630716300256803E+01
 -0.1629764423053216E+01 -0.1628812510821376E+01 -0.1627860563742820E+01 -0.1626908581998635E+01 -0.1625956565769455E+01
 -0.1625004515235462E+01 -0.1624052430576393E+01 -0.1623100311971534E+01 -0.1622148159599724E+01 -0.1621195973639361E+01
 -0.1620243754268395E+01 -0.1619291501664334E+01 -0.1618339216004246E+01 -0.1617386897464758E+01 -0.1616434546222060E+01
 -0.1615482162451901E+01 -0.1614529746329596E+01 -0.1613577298030025E+01 -0.1612624817727634E+01 -0.1611672305596434E+01
 -0.1610719761810009E+01 -0.1609767186541509E+01 -0.1608814579963657E+01 -0.1607861942248747E+01 -0.1606909273568648E+01
 -0.1605956574094804E+01 -0.1605003843998232E+01 -0.1604051083449529E+01 -0.1603098292618870E+01 -0.1602145471676008E+01
 -0.1601192620790279E+01 -0.1600239740130597E+01 -0.1599286829865464E+01 -0.1598333890162963E+01 -0.1597380921190763E+01
 -0.1596427923116121E+01 -0.1595474896105880E+01 -0.1594521840326473E+01 -0.1593568755943922E+01 -0.1592615643123841E+01
 -0.1591662502031438E+01 -0.1590709332831512E+01 -0.1589756135688457E+01 -0.1588802910766265E+01 -0.1587849658228522E+01
 -0.1586896378238414E+01 -0.1585943070958726E+01 -0.1584989736551844E+01 -0.1584036375179754E+01 -0.1583082987004045E+01
 -0.1582129572185912E+01 -0.1581176130886150E+01 -0.1580222663265165E+01 -0.1579269169482966E+01 -0.1578315649699174E+01
 -0.1577362104073015E+01 -0.1576408532763330E+01 -0.1575454935928567E+01 -0.1574501313726789E+01 -0.1573547666315673E+01
 -0.1572593993852508E+01 -0.1571640296494202E+01 -0.1570686574397277E+01 -0.1569732827717875E+01 -0.1568779056611756E+01
 -0.1567825261234299E+01 -0.1566871441740507E+01 -0.1565917598285001E+01 -0.1564963731022029E+01 -0.1564009840105460E+01
 -0.1563055925688791E+01 -0.1562101987925144E+01 -0.1561148026967268E+01 -0.1560194042967541E+01 -0.1559240036077970E+01
 -0.1558286006450192E+01 -0.1557331954235476E+01 -0.1556377879584725E+01 -0.1555423782648472E+01 -0.1554469663576887E+01
 -0.1553515522519774E+01 -0.1552561359626576E+01 -0.1551607175046370E+01 -0.1550652968927875E+01 -0.1549698741419446E+01
 -0.1548744492669082E+01 -0.1547790222824420E+01 -0.1546835932032741E+01 -0.1545881620440972E+01 -0.1544927288195679E+01
 -0.1543972935443080E+01 -0.1543018562329031E+01 -0.1542064168999044E+01 -0.1541109755598274E+01 -0.1540155322271527E+01
 -0.1539200869163258E+01 -0.1538246396417574E+01 -0.1537291904178237E+01 -0.1536337392588656E+01 -0.1535382861791898E+01
 -0.1534428311930685E+01 -0.1533473743147395E+01 -0.1532519155584061E+01 -0.1531564549382374E+01 -0.1530609924683687E+01
 -0.1529655281629010E+01 -0.1528700620359012E+01 -0.1527745941014026E+01 -0.1526791243734048E+01 -0.1525836528658737E+01
 -0.1524881795927413E+01 -0.1523927045679064E+01 -0.1522972278052346E+01 -0.1522017493185577E+01 -0.1521062691216749E+01
 -0.1520107872283517E+01 -0.1519153036523208E+01 -0.1518198184072820E+01 -0.1517243315069025E+01 -0.1516288429648162E+01
 -0.1515333527946245E+01 -0.1514378610098966E+01 -0.1513423676241687E+01 -0.1512468726509449E+01 -0.1511513761036969E+01
 -0.1510558779958641E+01 -0.1509603783408537E+01 -0.1508648771520410E+01 -0.1507693744427693E+01 -0.1506738702263501E+01
 -0.1505783645160627E+01 -0.1504828573251551E+01 -0.1503873486668436E+01 -0.1502918385543127E+01 -0.1501963270007157E+01
 -0.1501008140191745E+01 -0.1500052996227795E+01 -0.1499097838245901E+01 -0.1498142666376346E+01 -0.1497187480749100E+01
 -0.1496232281493827E+01 -0.1495277068739879E+01 -0.1494321842616301E+01 -0.1493366603251832E+01 -0.1492411350774904E+01
 -0.1491456085313643E+01 -0.1490500806995872E+01 -0.1489545515949108E+01 -0.1488590212300566E+01 -0.1487634896177159E+01
 -0.1486679567705498E+01 -0.1485724227011895E+01 -0.1484768874222359E+01 -0.1483813509462603E+01 -0.1482858132858041E+01
 -0.1481902744533789E+01 -0.1480947344614666E+01 -0.1479991933225196E+01 -0.1479036510489608E+01 -0.1478081076531837E+01
 -0.1477125631475523E+01 -0.1476170175444014E+01 -0.1475214708560367E+01 -0.1474259230947347E+01 -0.1473303742727430E+01
 -0.1472348244022798E+01 -0.1471392734955349E+01 -0.1470437215646691E+01 -0.1469481686218146E+01 -0.1468526146790747E+01
 -0.1467570597485241E+01 -0.1466615038422094E+01 -0.1465659469721483E+01 -0.1464703891503304E+01 -0.1463748303887171E+01
 -0.1462792706992412E+01 -0.1461837100938078E+01 -0.1460881485842938E+01 -0.1459925861825479E+01 -0.1458970229003911E+01
 -0.1458014587496167E+01 -0.1457058937419900E+01 -0.1456103278892485E+01 -0.1455147612031024E+01 -0.1454191936952343E+01
 -0.1453236253772989E+01 -0.1452280562609242E+01 -0.1451324863577102E+01 -0.1450369156792302E+01 -0.1449413442370297E+01
 -0.1448457720426279E+01 -0.1447501991075161E+01 -0.1446546254431591E+01 -0.1445590510609947E+01 -0.1444634759724339E+01
 -0.1443679001888610E+01 -0.1442723237216334E+01 -0.1441767465820820E+01 -0.1440811687815111E+01 -0.1439855903311986E+01
 -0.1438900112423959E+01 -0.1437944315263280E+01 -0.1436988511941939E+01 -0.1436032702571660E+01 -0.1435076887263907E+01
 -0.1434121066129885E+01 -0.1433165239280537E+01 -0.1432209406826548E+01 -0.1431253568878342E+01 -0.1430297725546087E+01
 -0.1429341876939693E+01 -0.1428386023168813E+01 -0.1427430164342844E+01 -0.1426474300570929E+01 -0.1425518431961953E+01
 -0.1424562558624550E+01 -0.1423606680667100E+01 -0.1422650798197729E+01 -0.1421694911324311E+01 -0.1420739020154471E+01
 -0.1419783124795580E+01 -0.1418827225354760E+01 -0.1417871321938885E+01 -0.1416915414654577E+01 -0.1415959503608213E+01
 -0.1415003588905920E+01 -0.1414047670653579E+01 -0.1413091748956825E+01 -0.1412135823921046E+01 -0.1411179895651387E+01
 -0.1410223964252748E+01 -0.1409268029829783E+01 -0.1408312092486904E+01 -0.1407356152328283E+01 -0.1406400209457847E+01
 -0.1405444263979282E+01 -0.1404488315996034E+01 -0.1403532365611309E+01 -0.1402576412928074E+01 -0.1401620458049056E+01
 -0.1400664501076744E+01 -0.1399708542113390E+01 -0.1398752581261008E+01 -0.1397796618621377E+01 -0.1396840654296039E+01
 -0.1395884688386300E+01 -0.1394928720993235E+01 -0.1393972752217679E+01 -0.1393016782160241E+01 -0.1392060810921290E+01
 -0.1391104838600968E+01 -0.1390148865299182E+01 -0.1389192891115610E+01 -0.1388236916149699E+01 -0.1387280940500665E+01
 -0.1386324964267496E+01 -0.1385368987548951E+01 -0.1384413010443561E+01 -0.1383457033049629E+01 -0.1382501055465231E+01
 -0.1381545077788218E+01 -0.1380589100116212E+01 -0.1379633122546613E+01 -0.1378677145176594E+01 -0.1377721168103106E+01
 -0.1376765191422875E+01 -0.1375809215232404E+01 -0.1374853239627974E+01 -0.1373897264705644E+01 -0.1372941290561253E+01
 -0.1371985317290416E+01 -0.1371029344988531E+01 -0.1370073373750774E+01 -0.1369117403672105E+01 -0.1368161434847261E+01
 -0.1367205467370767E+01 -0.1366249501336924E+01 -0.1365293536839820E+01 -0.1364337573973327E+01 -0.1363381612831098E+01
 -0.1362425653506575E+01 -0.1361469696092982E+01 -0.1360513740683331E+01 -0.1359557787370418E+01 -0.1358601836246827E+01
 -0.1357645887404932E+01 -0.1356689940936890E+01 -0.1355733996934649E+01 -0.1354778055489949E+01 -0.1353822116694314E+01
 -0.1352866180639062E+01 -0.1351910247415300E+01 -0.1350954317113926E+01 -0.1349998389825631E+01 -0.1349042465640897E+01
 -0.1348086544649999E+01 -0.1347130626943005E+01 -0.1346174712609777E+01 -0.1345218801739971E+01 -0.1344262894423039E+01
 -0.1343306990748225E+01 -0.1342351090804573E+01 -0.1341395194680920E+01 -0.1340439302465901E+01 -0.1339483414247949E+01
 -0.1338527530115294E+01 -0.1337571650155964E+01 -0.1336615774457786E+01 -0.1335659903108386E+01 -0.1334704036195193E+01
 -0.1333748173805430E+01 -0.1332792316026126E+01 -0.1331836462944110E+01 -0.1330880614646010E+01 -0.1329924771218262E+01
 -0.1328968932747101E+01 -0.1328013099318563E+01 -0.1327057271018492E+01 -0.1326101447932534E+01 -0.1325145630146141E+01
 -0.1324189817744569E+01 -0.1323234010812881E+01 -0.1322278209435944E+01 -0.1321322413698433E+01 -0.1320366623684830E+01
 -0.1319410839479425E+01 -0.1318455061166315E+01 -0.1317499288829407E+01 -0.1316543522552415E+01 -0.1315587762418863E+01
 -0.1314632008512087E+01 -0.1313676260915231E+01 -0.1312720519711252E+01 -0.1311764784982915E+01 -0.1310809056812799E+01
 -0.1309853335283297E+01 -0.1308897620476610E+01 -0.1307941912474756E+01 -0.1306986211359567E+01 -0.1306030517212686E+01
 -0.1305074830115573E+01 -0.1304119150149501E+01 -0.1303163477395561E+01 -0.1302207811934658E+01 -0.1301252153847513E+01
 -0.1300296503214664E+01 -0.1299340860116470E+01 -0.1298385224633102E+01 -0.1297429596844553E+01 -0.1296473976830632E+01
 -0.1295518364670969E+01 -0.1294562760445013E+01 -0.1293607164232032E+01 -0.1292651576111115E+01 -0.1291695996161173E+01
 -0.1290740424460935E+01 -0.1289784861088955E+01 -0.1288829306123608E+01 -0.1287873759643090E+01 -0.1286918221725422E+01
 -0.1285962692448447E+01 -0.1285007171889833E+01 -0.1284051660127071E+01 -0.1283096157237477E+01 -0.1282140663298194E+01
 -0.1281185178386186E+01 -0.1280229702578249E+01 -0.1279274235951000E+01 -0.1278318778580885E+01 -0.1277363330544178E+01
 -0.1276407891916979E+01 -0.1275452462775217E+01 -0.1274497043194649E+01 -0.1273541633250862E+01 -0.1272586233019269E+01
 -0.1271630842575117E+01 -0.1270675461993481E+01 -0.1269720091349266E+01 -0.1268764730717208E+01 -0.1267809380171875E+01
 -0.1266854039787668E+01 -0.1265898709638817E+01 -0.1264943389799387E+01 -0.1263988080343274E+01 -0.1263032781344211E+01
 -0.1262077492875760E+01 -0.1261122215011320E+01 -0.1260166947824124E+01 -0.1259211691387240E+01 -0.1258256445773571E+01
 -0.1257301211055856E+01 -0.1256345987306670E+01 -0.1255390774598424E+01 -0.1254435573003368E+01 -0.1253480382593587E+01
 -0.1252525203441003E+01 -0.1251570035617380E+01 -0.1250614879194317E+01 -0.1249659734243252E+01 -0.1248704600835464E+01
 -0.1247749479042070E+01 -0.1246794368934029E+01 -0.1245839270582138E+01 -0.1244884184057037E+01 -0.1243929109429205E+01
 -0.1242974046768963E+01 -0.1242018996146476E+01 -0.1241063957631749E+01 -0.1240108931294631E+01 -0.1239153917204812E+01
 -0.1238198915431828E+01 -0.1237243926045058E+01 -0.1236288949113722E+01 -0.1235333984706892E+01 -0.1234379032893477E+01
 -0.1233424093742234E+01 -0.1232469167321768E+01 -0.1231514253700527E+01 -0.1230559352946807E+01 -0.1229604465128750E+01
 -0.1228649590314345E+01 -0.1227694728571428E+01 -0.1226739879967685E+01 -0.1225785044570648E+01 -0.1224830222447698E+01
 -0.1223875413666065E+01 -0.1222920618292830E+01 -0.1221965836394919E+01 -0.1221011068039113E+01 -0.1220056313292042E+01
 -0.1219101572220184E+01 -0.1218146844889870E+01 -0.1217192131367283E+01 -0.1216237431718458E+01 -0.1215282746009279E+01
 -0.1214328074305486E+01 -0.1213373416672670E+01 -0.1212418773176277E+01 -0.1211464143881601E+01 -0.1210509528853797E+01
 -0.1209554928157869E+01 -0.1208600341858679E+01 -0.1207645770020941E+01 -0.1206691212709226E+01 -0.1205736669987959E+01
 -0.1204782141921422E+01 -0.1203827628573755E+01 -0.1202873130008951E+01 -0.1201918646290859E+01 -0.1200964177483191E+01
 -0.1200009723649511E+01 -0.1199055284853245E+01 -0.1198100861157674E+01 -0.1197146452625938E+01 -0.1196192059321037E+01
 -0.1195237681305831E+01 -0.1194283318643038E+01 -0.1193328971395235E+01 -0.1192374639624861E+01 -0.1191420323394216E+01
 -0.1190466022765459E+01 -0.1189511737800609E+01 -0.1188557468561553E+01 -0.1187603215110031E+01 -0.1186648977507651E+01
  0.1303787225817032E+03  0.1303787225817032E+03  0.1303787225817032E+03  0.1303787225817032E+03  0.1303787225817032E+03
  0.1303787225817032E+03  0.1303787225817032E+03  0.1303787225817032E+03  0.1303787225817032E+03  0.1303787225817032E+03
  0.1303787225817032E+03  0.1303787225817032E+03  0.1303787225817032E+03  0.1303787225817032E+03  0.1303787225817032E+03
  0.1303787225817032E+03  0.1303787225817032E+03  0.1303787225817032E+03  0.1303787225817032E+03  0.1303787225817032E+03
  0.1303787225817032E+03  0.1303787225817032E+03  0.1303787225817032E+03  0.1303787225817032E+03  0.1303787225817032E+03
  0.1303787225817032E+03  0.1303787225817032E+03  0.1303787225817032E+03  0.1303787225817032E+03  0.1303787225817032E+03
  0.1303787225817032E+03  0.1303787225817032E+03  0.1303787225817032E+03  0.1303787225817032E+03  0.1303787225817032E+03
  0.1303787225817032E+03  0.1303787225817032E+03  0.1303787225817032E+03  0.1303787225817032E+03  0.1303787225817032E+03
  0.1303787225817032E+03  0.1303787225817032E+03  0.1303787225817032E+03  0.1303787225817032E+03  0.1303787225817032E+03
  0.1303787225817032E+03  0.1303787225817032E+03  0.1303787225817032E+03  0.1303787225817032E+03  0.1303787225817032E+03
  0.1303787225817032E+03  0.1303787225817032E+03  0.1303787225817032E+03  0.1303787225817032E+03  0.1303787225817032E+03
  0.1303787225817032E+03  0.1303787225817032E+03  0.1303787225817032E+03  0.1303787225817032E+03  0.1303787225817032E+03
  0.1303787225817032E+03  0.1303787225817032E+03  0.1303787225817032E+03  0.1303787225817032E+03  0.1303787225817032E+03
  0.1303787225817032E+03  0.1303787225817032E+03  0.1303787225817032E+03  0.1303787225817032E+03  0.1303787225817032E+03
  0.1303787225817032E+03  0.1303787225817032E+03  0.1303787225817032E+03  0.1303787225817032E+03  0.1303787225817032E+03
  0.1303787225817032E+03  0.1303787225817032E+03  0.1303787225817032E+03  0.1303787225817032E+03  0.1303787225817032E+03
  0.1303787225817032E+03  0.1303787225817032E+03  0.1303787225817032E+03  0.1303787225817032E+03  0.1303787225817032E+03
  0.1303787225817032E+03  0.1303787225817032E+03  0.1303787225817032E+03  0.1303787225817032E+03  0.1303787225817032E+03
  0.1303787225817032E+03  0.1303787225817032E+03  0.1303787225817032E+03  0.1303787225817032E+03  0.1303787225817032E+03
  0.1303787225817032E+03  0.1303787225817032E+03  0.1303787225817032E+03  0.1303787225817032E+03  0.1303787225817032E+03
  0.1303787225817032E+03  0.1303787225817032E+03  0.1303787225817032E+03  0.1303787225817032E+03  0.1303787225817032E+03
  0.1303787225817032E+03  0.1303787225817032E+03  0.1303787225817032E+03  0.1303787225817032E+03  0.1303787225817032E+03
  0.1303787225817032E+03  0.1303787225817032E+03  0.1303787225817032E+03  0.1303787225817032E+03  0.1303787225817032E+03
  0.1303787225817032E+03  0.1303787225817032E+03  0.1303787225817032E+03  0.1303787225817032E+03  0.1303787225817032E+03
  0.1303787225817032E+03  0.1303787225817032E+03  0.1303787225817032E+03  0.1303787225817032E+03  0.1303787225817032E+03
  0.1303787225817032E+03  0.1303787225817032E+03  0.1303787225817032E+03  0.1303787225817032E+03  0.1303787225817032E+03
  0.1303787225817032E+03  0.1303787225817032E+03  0.1303787225817032E+03  0.1303787225817032E+03  0.1303787225817032E+03
  0.1303787225817032E+03  0.1303787225817032E+03  0.1303787225817032E+03  0.1303787225817032E+03  0.1303787225817032E+03
  0.1303787225817032E+03  0.1303787225817032E+03  0.1303787225817032E+03  0.1303787225817032E+03  0.1303787225817032E+03
  0.1303787225817032E+03  0.1303787225817032E+03  0.1303787225817032E+03  0.1303787225817032E+03  0.1303787225817032E+03
  0.1303787225817032E+03  0.1303787225817032E+03  0.1303787225817032E+03  0.1303787225817032E+03  0.1303787225817032E+03
  0.1303787225817032E+03  0.1303787225817032E+03  0.1303787225817032E+03  0.1303787225817032E+03  0.1303787225817032E+03
  0.1303787225817032E+03  0.1303787225817032E+03  0.1303787225817032E+03  0.1303787225817032E+03  0.1303787225817032E+03
  0.1303787225817032E+03  0.1303787225817032E+03  0.1303787225817032E+03  0.1303787225817032E+03  0.1303787225817032E+03
  0.1303787225817032E+03  0.1303787225817032E+03  0.1303787225817032E+03  0.1303787225817032E+03  0.1303787225817032E+03
  0.1302665444092254E+03  0.1294222034867863E+03  0.1285833352787462E+03  0.1277499043129373E+03  0.1269218753471097E+03
  0.1260992133674410E+03  0.1252818835870559E+03  0.1244698514445549E+03  0.1236630826025535E+03  0.1228615429462293E+03
  0.1220651985818802E+03  0.1212740158354908E+03  0.1204879612513086E+03  0.1197070015904293E+03  0.1189311038293911E+03
  0.1181602351587786E+03  0.1173943629818352E+03  0.1166334549130845E+03  0.1158774787769615E+03  0.1151264026064514E+03
  0.1143801946417381E+03  0.1136388233288615E+03  0.1129022573183823E+03  0.1121704654640579E+03  0.1114434168215236E+03
  0.1107210806469855E+03  0.1100034263959196E+03  0.1092904237217808E+03  0.1085820424747192E+03  0.1078782527003054E+03
  0.1071790246382639E+03  0.1064843287212146E+03  0.1057941355734226E+03  0.1051084160095559E+03  0.1044271410334512E+03
  0.1037502818368883E+03  0.1030778097983707E+03  0.1024096964819174E+03  0.1017459136358582E+03  0.1010864331916403E+03
  0.1004312272626415E+03  0.9978026814299027E+02  0.9913352830639477E+02  0.9849098040497867E+02  0.9785259726812475E+02
  0.9721835190132597E+02  0.9658821748504394E+02  0.9596216737357491E+02  0.9534017509392307E+02  0.9472221434468086E+02
  0.9410825899491719E+02  0.9349828308307218E+02  0.9289226081585949E+02  0.9229016656717555E+02  0.9169197487701602E+02
  0.9109766045039918E+02  0.9050719815629617E+02  0.8992056302656854E+02  0.8933773025491234E+02  0.8875867519580912E+02
  0.8818337336348384E+02  0.8761180043086944E+02  0.8704393222857824E+02  0.8647974474387969E+02  0.8591921411968526E+02
  0.8536231665353948E+02  0.8480902879661762E+02  0.8425932715273002E+02  0.8371318847733268E+02  0.8317058967654441E+02
  0.8263150780617028E+02  0.8209592007073118E+02  0.8156380382250052E+02  0.8103513656054571E+02  0.8050989592977734E+02
  0.7998805972000363E+02  0.7946960586499121E+02  0.7895451244153222E+02  0.7844275766851692E+02  0.7793431990601330E+02
  0.7742917765435122E+02  0.7692730955321386E+02  0.7642869438073427E+02  0.7593331105259800E+02  0.7544113862115158E+02
  0.7495215627451661E+02  0.7446634333570996E+02  0.7398367926176915E+02  0.7350414364288393E+02  0.7302771620153283E+02
  0.7255437679162627E+02  0.7208410539765426E+02  0.7161688213384014E+02  0.7115268724329984E+02  0.7069150109720613E+02
  0.7023330419395887E+02  0.6977807715836032E+02  0.6932580074079576E+02  0.6887645581641951E+02  0.6843002338434633E+02
  0.6798648456684789E+02  0.6754582060855451E+02  0.6710801287566204E+02  0.6667304285514398E+02  0.6624089215396863E+02
  0.6581154249832123E+02  0.6538497573283141E+02  0.6496117381980535E+02  0.6454011883846309E+02  0.6412179298418071E+02
  0.6370617856773746E+02  0.6329325801456782E+02  0.6288301386401815E+02  0.6247542876860864E+02  0.6207048549329954E+02
  0.6166816691476242E+02  0.6126845602065615E+02  0.6087133590890748E+02  0.6047678978699627E+02  0.6008480097124555E+02
  0.5969535288611584E+02  0.5930842906350443E+02  0.5892401314204891E+02  0.5854208886643534E+02  0.5816264008671087E+02
  0.5778565075760087E+02  0.5741110493783041E+02  0.5703898678945006E+02  0.5666928057716653E+02  0.5630197066767684E+02
  0.5593704152900749E+02  0.5557447772985772E+02  0.5521426393894686E+02  0.5485638492436610E+02  0.5450082555293444E+02
  0.5414757078955865E+02  0.5379660569659762E+02  0.5344791543323062E+02  0.5310148525482980E+02  0.5275730051233671E+02
  0.5241534665164280E+02  0.5207560921297404E+02  0.5173807383027950E+02  0.5140272623062375E+02  0.5106955223358342E+02
  0.5073853775064756E+02  0.5040966878462189E+02  0.5008293142903690E+02  0.4975831186755987E+02  0.4943579637341049E+02
  0.4911537130878057E+02  0.4879702312425729E+02  0.4848073835825021E+02  0.4816650363642215E+02  0.4785430567112349E+02
  0.4754413126083045E+02  0.4723596728958675E+02  0.4692980072644905E+02  0.4662561862493588E+02  0.4632340812248020E+02
  0.4602315643988556E+02  0.4572485088078558E+02  0.4542847883110723E+02  0.4513402775853737E+02  0.4484148521199277E+02
  0.4455083882109368E+02  0.4426207629564069E+02  0.4397518542509504E+02  0.4369015407806234E+02  0.4340697020177945E+02
  0.4312562182160498E+02  0.4284609704051284E+02  0.4256838403858920E+02  0.4229247107253263E+02  0.4201834647515760E+02
  0.4174599865490108E+02  0.4147541609533233E+02  0.4120658735466603E+02  0.4093950106527839E+02  0.4067414593322647E+02
  0.4041051073777060E+02  0.4014858433089992E+02  0.3988835563686099E+02  0.3962981365168932E+02  0.3937294744274437E+02
  0.3911774614824680E+02  0.3886419897681964E+02  0.3861229520703155E+02  0.3836202418694384E+02  0.3811337533365973E+02
  0.3786633813287698E+02  0.3762090213844341E+02  0.3737705697191483E+02  0.3713479232211660E+02  0.3689409794470725E+02
  0.3665496366174556E+02  0.3641737936126001E+02  0.3618133499682131E+02  0.3594682058711738E+02  0.3571382621553158E+02
  0.3548234202972307E+02  0.3525235824121050E+02  0.3502386512495774E+02  0.3479685301896302E+02  0.3457131232385013E+02
  0.3434723350246252E+02  0.3412460707946018E+02  0.3390342364091870E+02  0.3368367383393151E+02  0.3346534836621402E+02
  0.3324843800571108E+02  0.3303293358020629E+02  0.3281882597693429E+02  0.3260610614219541E+02  0.3239476508097277E+02
  0.3218479385655198E+02  0.3197618359014323E+02  0.3176892546050581E+02  0.3156301070357513E+02  0.3135843061209212E+02
  0.3115517653523504E+02  0.3095323987825365E+02  0.3075261210210582E+02  0.3055328472309638E+02  0.3035524931251848E+02
  0.3015849749629706E+02  0.2996302095463484E+02  0.2976881142166047E+02  0.2957586068507899E+02  0.2938416058582462E+02
  0.2919370301771567E+02  0.2900447992711186E+02  0.2881648331257364E+02  0.2862970522452397E+02  0.2844413776491211E+02
  0.2825977308687960E+02  0.2807660339442856E+02  0.2789462094209192E+02  0.2771381803460595E+02  0.2753418702658486E+02
  0.2735572032219755E+02  0.2717841037484625E+02  0.2700224968684766E+02  0.2682723080911569E+02  0.2665334634084653E+02
  0.2648058892920579E+02  0.2630895126901745E+02  0.2613842610245506E+02  0.2596900621873476E+02  0.2580068445381043E+02
  0.2563345369007068E+02  0.2546730685603794E+02  0.2530223692606944E+02  0.2513823692006007E+02  0.2497529990314727E+02
  0.2481341898541774E+02  0.2465258732161615E+02  0.2449279811085568E+02  0.2433404459633033E+02  0.2417632006502935E+02
  0.2401961784745331E+02  0.2386393131733207E+02  0.2370925389134459E+02  0.2355557902884054E+02  0.2340290023156379E+02
  0.2325121104337745E+02  0.2310050504999115E+02  0.2295077587868949E+02  0.2280201719806284E+02  0.2265422271773942E+02
  0.2250738618811941E+02  0.2236150140011066E+02  0.2221656218486605E+02  0.2207256241352284E+02  0.2192949599694323E+02
  0.2178735688545716E+02  0.2164613906860624E+02  0.2150583657488979E+02  0.2136644347151221E+02  0.2122795386413217E+02
  0.2109036189661333E+02  0.2095366175077674E+02  0.2081784764615476E+02  0.2068291383974669E+02  0.2054885462577589E+02
  0.2041566433544851E+02  0.2028333733671381E+02  0.2015186803402592E+02  0.2002125086810736E+02  0.1989148031571382E+02
  0.1976255088940073E+02  0.1963445713729112E+02  0.1950719364284518E+02  0.1938075502463108E+02  0.1925513593609760E+02
  0.1913033106534785E+02  0.1900633513491481E+02  0.1888314290153810E+02  0.1876074915594221E+02  0.1863914872261635E+02
  0.1851833645959548E+02  0.1839830725824298E+02  0.1827905604303451E+02  0.1816057777134354E+02  0.1804286743322795E+02
  0.1792592005121833E+02  0.1780973068010738E+02  0.1769429440674088E+02  0.1757960634980993E+02  0.1746566165964449E+02
  0.1735245551800836E+02  0.1723998313789539E+02  0.1712823976332711E+02  0.1701722066915156E+02  0.1690692116084356E+02
  0.1679733657430611E+02  0.1668846227567323E+02  0.1658029366111401E+02  0.1647282615663789E+02  0.1636605521790127E+02
  0.1625997633001539E+02  0.1615458500735530E+02  0.1604987679337037E+02  0.1594584726039560E+02  0.1584249200946462E+02
  0.1573980667012354E+02  0.1563778690024616E+02  0.1553642838585044E+02  0.1543572684091593E+02  0.1533567800720274E+02
  0.1523627765407124E+02  0.1513752157830336E+02  0.1503940560392475E+02  0.1494192558202822E+02  0.1484507739059831E+02
  0.1474885693433699E+02  0.1465326014449045E+02  0.1455828297867711E+02  0.1446392142071661E+02  0.1437017148046007E+02
  0.1427702919362129E+02  0.1418449062160915E+02  0.1409255185136106E+02  0.1400120899517748E+02  0.1391045819055757E+02
  0.1382029560003576E+02  0.1373071741101965E+02  0.1364171983562857E+02  0.1355329911053364E+02  0.1346545149679842E+02
  0.1337817327972098E+02  0.1329146076867669E+02  0.1320531029696225E+02  0.1311971822164062E+02  0.1303468092338690E+02
  0.1295019480633540E+02  0.1286625629792750E+02  0.1278286184876064E+02  0.1270000793243816E+02  0.1261769104542026E+02
  0.1253590770687581E+02  0.1245465445853515E+02  0.1237392786454387E+02  0.1229372451131753E+02  0.1221404100739730E+02
  0.1213487398330654E+02  0.1205622009140834E+02  0.1197807600576396E+02  0.1190043842199218E+02  0.1182330405712954E+02
  0.1174666964949160E+02  0.1167053195853494E+02  0.1159488776472015E+02  0.1151973386937569E+02  0.1144506709456267E+02
  0.1137088428294037E+02  0.1129718229763287E+02  0.1122395802209624E+02  0.1115120835998691E+02  0.1107893023503061E+02
  0.1100712059089236E+02  0.1093577639104724E+02  0.1086489461865189E+02  0.1079447227641707E+02  0.1072450638648080E+02
  0.1065499399028253E+02  0.1058593214843795E+02  0.1051731794061477E+02  0.1044914846540917E+02  0.1038142084022315E+02
  0.1031413220114259E+02  0.1024727970281622E+02  0.1018086051833521E+02  0.1011487183911369E+02  0.1004931087476997E+02
  0.9984174853008529E+01  0.9919461019502798E+01  0.9855166637778687E+01  0.9791288989098867E+01  0.9727825372347802E+01
  0.9664773103917510E+01  0.9602129517594109E+01  0.9539891964445076E+01  0.9478057812707165E+01  0.9416624447675220E+01
  0.9355589271591501E+01  0.9294949703535908E+01  0.9234703179316801E+01  0.9174847151362576E+01  0.9115379088613963E+01
  0.9056296476416913E+01  0.8997596816416364E+01  0.8939277626450487E+01  0.8881336440445802E+01  0.8823770808312851E+01
  0.8766578295842589E+01  0.8709756484603457E+01  0.8653302971839096E+01  0.8597215370366760E+01  0.8541491308476310E+01
  0.8486128429830005E+01  0.8431124393362769E+01  0.8376476873183238E+01  0.8322183558475382E+01  0.8268242153400767E+01
  0.8214650377001501E+01  0.8161405963103737E+01  0.8108506660221858E+01  0.8055950231463232E+01  0.8003734454433642E+01
  0.7951857121143298E+01  0.7900316037913419E+01  0.7849109025283513E+01  0.7798233917919148E+01  0.7747688564520423E+01
  0.7697470827730960E+01  0.7647578584047502E+01  0.7598009723730143E+01  0.7548762150713034E+01  0.7499833782515804E+01
  0.7451222550155412E+01  0.7402926398058717E+01  0.7354943283975470E+01  0.7307271178891975E+01  0.7259908066945258E+01
  0.7212851945337801E+01  0.7166100824252847E+01  0.7119652726770200E+01  0.7073505688782662E+01  0.7027657758912897E+01
  0.6982106998430934E+01  0.6936851481172132E+01  0.6891889293455723E+01  0.6847218534003846E+01  0.6802837313861139E+01
  0.6758743756314822E+01  0.6714935996815306E+01  0.6671412182897317E+01  0.6628170474101561E+01  0.6585209041896801E+01
  0.6542526069602562E+01  0.6500119752312243E+01  0.6457988296816766E+01  0.6416129921528715E+01  0.6374542856406937E+01
  0.6333225342881696E+01  0.6292175633780209E+01  0.6251391993252780E+01  0.6210872696699302E+01  0.6170616030696329E+01
  0.6130620292924533E+01  0.6090883792096694E+01  0.6051404847886126E+01  0.6012181790855551E+01  0.5973212962386490E+01
  0.5934496714609011E+01  0.5896031410332055E+01  0.5857815422974086E+01  0.5819847136494282E+01  0.5782124945324115E+01
  0.5744647254299405E+01  0.5707412478592785E+01  0.5670419043646621E+01  0.5633665385106355E+01  0.5597149948754276E+01
  0.5560871190443714E+01  0.5524827576033694E+01  0.5489017581323925E+01  0.5453439691990309E+01  0.5418092403520800E+01
  0.5382974221151686E+01  0.5348083659804308E+01  0.5313419244022129E+01  0.5278979507908287E+01  0.5244762995063457E+01
  0.5210768258524212E+01  0.5176993860701662E+01  0.5143438373320625E+01  0.5110100377359053E+01  0.5076978462987935E+01
  0.5044071229511558E+01  0.5011377285308135E+01  0.4978895247770857E+01  0.4946623743249247E+01  0.4914561406990989E+01
  0.4882706883084031E+01  0.4851058824399125E+01  0.4819615892532704E+01  0.4788376757750130E+01  0.4757340098929310E+01
  0.4726504603504656E+01  0.4695868967411427E+01  0.4665431895030396E+01  0.4635192099132890E+01  0.4605148300826181E+01
  0.4575299229499205E+01  0.4545643622768643E+01  0.4516180226425345E+01  0.4486907794381078E+01  0.4457825088615639E+01
  0.4428930879124255E+01  0.4400223943865390E+01  0.4371703068708800E+01  0.4343367047383986E+01  0.4315214681428921E+01
  0.4287244780139142E+01  0.4259456160517129E+01  0.4231847647222028E+01  0.4204418072519668E+01  0.4177166276232918E+01
  0.4150091105692346E+01  0.4123191415687169E+01  0.4096466068416530E+01  0.4069913933441097E+01  0.4043533887634917E+01
  0.4017324815137627E+01  0.3991285607306902E+01  0.3965415162671271E+01  0.3939712386883161E+01  0.3914176192672282E+01
  0.3888805499799264E+01  0.3863599235009606E+01  0.3838556331987924E+01  0.3813675731312418E+01  0.3788956380409715E+01
  0.3764397233509910E+01  0.3739997251601928E+01  0.3715755402389137E+01  0.3691670660245256E+01  0.3667742006170526E+01
  0.3643968427748137E+01  0.3620348919100924E+01  0.3596882480848357E+01  0.3573568120063763E+01  0.3550404850231797E+01
  0.3527391691206217E+01  0.3504527669167878E+01  0.3481811816582987E+01  0.3459243172161616E+01  0.3436820780816472E+01
  0.3414543693621894E+01  0.3392410967773114E+01  0.3370421666545752E+01  0.3348574859255567E+01  0.3326869621218425E+01
  0.3305305033710531E+01  0.3283880183928865E+01  0.3262594164951893E+01  0.3241446075700477E+01  0.3220435020899012E+01
  0.3199560111036834E+01  0.3178820462329801E+01  0.3158215196682133E+01  0.3137743441648453E+01  0.3117404330396062E+01
  0.3097197001667440E+01  0.3077120599742927E+01  0.3057174274403657E+01  0.3037357180894688E+01  0.3017668479888342E+01
  0.2998107337447753E+01  0.2978672924990622E+01  0.2959364419253182E+01  0.2940181002254358E+01  0.2921121861260126E+01
  0.2902186188748081E+01  0.2883373182372199E+01  0.2864682044927779E+01  0.2846111984316592E+01  0.2827662213512227E+01
  0.2809331950525605E+01  0.2791120418370704E+01  0.2773026845030434E+01  0.2755050463422751E+01  0.2737190511366891E+01
  0.2719446231549819E+01  0.2701816871492857E+01  0.2684301683518466E+01  0.2666899924717226E+01  0.2649610856914950E+01
  0.2632433746640029E+01  0.2615367865090877E+01  0.2598412488103595E+01  0.2581566896119758E+01  0.2564830374154397E+01
  0.2548202211764127E+01  0.2531681703015424E+01  0.2515268146453073E+01  0.2498960845068763E+01  0.2482759106269844E+01
  0.2466662241848211E+01  0.2450669567949364E+01  0.2434780405041602E+01  0.2418994077885354E+01  0.2403309915502666E+01
  0.2387727251146829E+01  0.2372245422272129E+01  0.2356863770503759E+01  0.2341581641607830E+01  0.2326398385461567E+01
  0.2311313356023587E+01  0.2296325911304324E+01  0.2281435413336597E+01  0.2266641228146276E+01  0.2251942725723100E+01
  0.2237339279991572E+01  0.2222830268782040E+01  0.2208415073801828E+01  0.2194093080606531E+01  0.2179863678571393E+01
  0.2165726260862814E+01  0.2151680224409970E+01  0.2137724969876514E+01  0.2123859901632416E+01  0.2110084427725887E+01
  0.2096397959855414E+01  0.2082799913341885E+01  0.2069289707100819E+01  0.2055866763614701E+01  0.2042530508905390E+01
  0.2029280372506629E+01  0.2016115787436661E+01  0.2003036190170909E+01  0.1990041020614752E+01  0.1977129722076386E+01
  0.1964301741239774E+01  0.1951556528137662E+01  0.1938893536124690E+01  0.1926312221850553E+01  0.1913812045233282E+01
  0.1901392469432547E+01  0.1889052960823062E+01  0.1876792988968057E+01  0.1864612026592805E+01  0.1852509549558221E+01
  0.1840485036834520E+01  0.1828537970474944E+01  0.1816667835589553E+01  0.1804874120319045E+01  0.1793156315808659E+01
  0.1781513916182137E+01  0.1769946418515706E+01  0.1758453322812133E+01  0.1747034131974836E+01  0.1735688351782015E+01
  0.1724415490860852E+01  0.1713215060661731E+01  0.1702086575432532E+01  0.1691029552192925E+01  0.1680043510708730E+01
  0.1669127973466302E+01  0.1658282465646953E+01  0.1647506515101402E+01  0.1636799652324261E+01  0.1626161410428548E+01
  0.1615591325120230E+01  0.1605088934672786E+01  0.1594653779901802E+01  0.1584285404139584E+01  0.1573983353209796E+01
  0.1563747175402113E+01  0.1553576421446902E+01  0.1543470644489911E+01  0.1533429400066979E+01  0.1523452246078763E+01
  0.1513538742765470E+01  0.1503688452681615E+01  0.1493900940670779E+01  0.1484175773840389E+01  0.1474512521536487E+01
  0.1464910755318537E+01  0.1455370048934218E+01  0.1445889978294232E+01  0.1436470121447117E+01  0.1427110058554067E+01
  0.1417809371863768E+01  0.1408567645687209E+01  0.1399384466372535E+01  0.1390259422279881E+01  0.1381192103756228E+01
  0.1372182103110231E+01  0.1363229014587098E+01  0.1354332434343444E+01  0.1345491960422148E+01  0.1336707192727241E+01
  0.1327977732998773E+01  0.1319303184787715E+01  0.1310683153430837E+01  0.1302117246025632E+01  0.1293605071405229E+01
  0.1285146240113320E+01  0.1276740364379107E+01  0.1268387058092271E+01  0.1260085936777947E+01  0.1251836617571729E+01
  0.1243638719194690E+01  0.1235491861928451E+01  0.1227395667590247E+01  0.1219349759508044E+01  0.1211353762495706E+01
  0.1203407302828169E+01  0.1195510008216690E+01  0.1187661507784125E+01  0.1179861432040283E+01  0.1172109412857310E+01
  0.1164405083445162E+01  0.1156748078327140E+01  0.1149138033315498E+01  0.1141574585487143E+01  0.1134057373159413E+01
  0.1126586035865973E+01  0.1119160214332794E+01  0.1111779550454260E+01  0.1104443687269399E+01  0.1097152268938238E+01
  0.1089904940718313E+01  0.1082701348941313E+01  0.1075541140989911E+01  0.1068423965274755E+01  0.1061349471211647E+01
  0.1054317309198933E+01  0.1047327130595094E+01  0.1040378587696580E+01  0.1033471333715869E+01  0.1026605022759800E+01
  0.1019779309808173E+01  0.1012993850692646E+01  0.1006248302075930E+01  0.9995423214313314E+00  0.9928755670226218E+00
  0.9862476978842912E+00  0.9796583738021893E+00  0.9731072552945610E+00  0.9665940035935445E+00  0.9601182806271064E+00
  0.9536797490014765E+00  0.9472780719840734E+00  0.9409129134869924E+00  0.9345839380510462E+00  0.9282908108303929E+00
  0.9220331975778118E+00  0.9158107646306243E+00  0.9096231788973047E+00  0.9034701078448205E+00  0.8973512194867405E+00
  0.8912661823721337E+00  0.8852146655753060E+00  0.8791963386864120E+00  0.8732108718029974E+00  0.8672579355224839E+00
  0.8613372009356661E+00  0.8554483396212637E+00  0.8495910236415639E+00  0.8437649255392071E+00  0.8379697183351673E+00
  0.8322050755279933E+00  0.8264706710943246E+00  0.8207661794907830E+00  0.8150912756572581E+00  0.8094456350216774E+00
  0.8038289335062856E+00  0.7982408475355233E+00  0.7926810540455527E+00  0.7871492304954981E+00  0.7816450548804663E+00
  0.7761682057464080E+00  0.7707183622069111E+00  0.7652952039619580E+00  0.7598984113187547E+00  0.7545276652146845E+00
  0.7491826472424654E+00  0.7438630396775897E+00  0.7385685255081135E+00  0.7332987884668865E+00  0.7280535130662903E+00
  0.7228323846355698E+00  0.7176350893608378E+00  0.7124613143278329E+00  0.7073107475675143E+00  0.7021830781045746E+00
  0.6970779960089537E+00  0.6919951924504368E+00  0.6869343597564194E+00  0.6818951914729214E+00  0.6768773824289337E+00
  0.6718806288041769E+00  0.6669046282003532E+00  0.6619490797159789E+00  0.6570136840248523E+00  0.6520981434582679E+00
  0.6472021620910260E+00  0.6423254458313067E+00  0.6374677025145065E+00  0.6326286420010708E+00  0.6278079762784096E+00
  0.6230054195669321E+00  0.6182206884302864E+00  0.6134535018898274E+00  0.6087035815433635E+00  0.6039706516882334E+00
  0.5992544394487377E+00  0.5945546749079523E+00  0.5898710912439388E+00  0.5852034248703737E+00  0.5805514155816004E+00
  0.5759148067020806E+00  0.5712933452402490E+00  0.5666867820467444E+00  0.5620948719769713E+00  0.5575173740579481E+00
  0.5529540516593874E+00  0.5484046726689384E+00  0.5438690096714895E+00  0.5393468401324507E+00  0.5348379465848868E+00
  0.5303421168203866E+00  0.5258591440835001E+00  0.5213888272695981E+00  0.5169309711259766E+00  0.5124853864559831E+00
  0.5080518903259750E+00  0.5036303062748556E+00  0.4992204645259453E+00  0.4948222022008884E+00  0.4904353635353244E+00
  0.4860598000959848E+00  0.4816953709988840E+00  0.4773419431282367E+00  0.4729993913557183E+00  0.4686675987596606E+00
  0.4643464568437510E+00  0.4600358657547824E+00  0.4557357344989774E+00  0.4514459811563912E+00  0.4471665330928672E+00
  0.4428973271690093E+00  0.4386383099456011E+00  0.4343894378848936E+00  0.4301506775471505E+00  0.4259220057818366E+00
  0.4217034099127897E+00  0.4174948879167463E+00  0.4132964485945149E+00  0.4091081117341365E+00  0.4049299082653015E+00
  0.4007618804043463E+00  0.3966040817890818E+00  0.3924565776027277E+00  0.3883194446862439E+00  0.3841927716382961E+00
  0.3800766589021435E+00  0.3759712188386989E+00  0.3718765757850622E+00  0.3677928660977883E+00  0.3637202381801973E+00
  0.3596588524930365E+00  0.3556088815478355E+00  0.3515705098822928E+00  0.3475439340170761E+00  0.3435293623934629E+00
  0.3395270152912404E+00  0.3355371247263548E+00  0.3315599343278285E+00  0.3275956991935126E+00  0.3236446857242787E+00
  0.3197071714363141E+00  0.3157834447512415E+00  0.3118738047638471E+00  0.3079785609872313E+00  0.3040980330753117E+00
  0.3002325505226285E+00  0.2963824523415119E+00  0.2925480867167004E+00  0.2887298106376188E+00  0.2849279895085817E+00
  0.2811429967372443E+00  0.2773752133017516E+00  0.2736250272970684E+00  0.2698928334610967E+00  0.2661790326812195E+00
  0.2624840314820442E+00  0.2588082414951587E+00  0.2551520789118096E+00  0.2515159639194857E+00  0.2479003201234650E+00
  0.2443055739544575E+00  0.2407321540635415E+00  0.2371804907056614E+00  0.2336510151130143E+00  0.2301441588597139E+00
  0.2266603532191673E+00  0.2232000285156534E+00  0.2197636134716346E+00  0.2163515345523626E+00  0.2129642153093802E+00
  0.2096020757245392E+00  0.2062655315561623E+00  0.2029549936890185E+00  0.1996708674897438E+00  0.1964135521693668E+00
  0.1931834401545771E+00  0.1899809164693556E+00  0.1868063581285662E+00  0.1836601335450650E+00  0.1805426019518689E+00
  0.1774541128408460E+00  0.1743950054193738E+00  0.1713656080863152E+00  0.1683662379286446E+00  0.1653972002399403E+00
  0.1624587880619102E+00  0.1595512817500377E+00  0.1566749485643447E+00  0.1538300422861786E+00  0.1510168028618372E+00
  0.1482354560737719E+00  0.1454862132399801E+00  0.1427692709421222E+00  0.1400848107827920E+00  0.1374329991722701E+00
  0.1348139871449885E+00  0.1322279102058270E+00  0.1296748882062731E+00  0.1271550252503829E+00  0.1246684096303568E+00
  0.1222151137914861E+00  0.1197951943261118E+00  0.1174086919961509E+00  0.1150556317836676E+00  0.1127360229688873E+00
  0.1104498592349691E+00  0.1081971187987776E+00  0.1059777645668371E+00  0.1037917443155927E+00  0.1016389908950225E+00
  0.9951942245462798E-01  0.9743294269074793E-01  0.9537944111413754E-01  0.9335879333668132E-01  0.9137086137611593E-01
  0.8941549397758142E-01  0.8749252695083175E-01  0.8560178352189321E-01  0.8374307469797984E-01  0.8191619964444212E-01
  0.8012094607255925E-01  0.7835709063695810E-01  0.7662439934148631E-01  0.7492262795234964E-01  0.7325152241737400E-01
  0.7161081929024464E-01  0.7000024615863200E-01  0.6841952207511091E-01  0.6686835798984435E-01  0.6534645718400661E-01
  0.6385351570298538E-01  0.6238922278841615E-01  0.6095326130816723E-01  0.5954530818341294E-01  0.5816503481199144E-01
  0.5681210748728344E-01  0.5548618781189140E-01  0.5418693310544267E-01  0.5291399680588940E-01  0.5166702886372469E-01
  0.5044567612857476E-01  0.4924958272767006E-01  0.4807839043575766E-01  0.4693173903603711E-01  0.4580926667177018E-01
  0.4471061018823198E-01  0.4363540546473664E-01  0.4258328773648692E-01  0.4155389190605031E-01  0.4054685284429821E-01
  0.3956180568067544E-01  0.3859838608270472E-01  0.3765623052466124E-01  0.3673497654538672E-01  0.3583426299523750E-01
  0.3495373027218684E-01  0.3409302054713301E-01  0.3325177797848768E-01  0.3242964891613300E-01  0.3162628209487208E-01
  0.3084132881749894E-01  0.3007444312765034E-01  0.2932528197259823E-01  0.2859350535617630E-01  0.2787877648202904E-01
  0.2718076188739926E-01  0.2649913156766651E-01  0.2583355909187007E-01  0.2518372170945129E-01  0.2454930044845600E-01
  0.2392998020544872E-01  0.2332544982739228E-01  0.2273540218574626E-01  0.2215953424304880E-01  0.2159754711223821E-01
  0.2104914610898129E-01  0.2051404079726652E-01  0.1999194502852762E-01  0.1948257697455461E-01  0.1898565915445454E-01
  0.1850091845591398E-01  0.1802808615102092E-01  0.1756689790689102E-01  0.1711709379134881E-01  0.1667841827390091E-01
  0.1625062022224191E-01  0.1583345289452162E-01  0.1542667392760380E-01  0.1503004532153387E-01  0.1464333342043577E-01
  0.1426630889004296E-01  0.1389874669207269E-01  0.1354042605563667E-01  0.1319113044588437E-01  0.1285064753006064E-01
  0.1251876914116085E-01  0.1219529123935414E-01  0.1188001387134250E-01  0.1157274112781783E-01  0.1127328109917024E-01
  0.1098144582959693E-01  0.1069705126975346E-01  0.1041991722808586E-01  0.1014986732097272E-01  0.9886728921802906E-02
  0.9630333109108257E-02  0.9380514613866114E-02  0.9137111766078163E-02  0.8899966440730990E-02  0.8668924003235372E-02
  0.8443833254437169E-02  0.8224546375288480E-02  0.8010918871262701E-02  0.7802809516592230E-02  0.7600080298402926E-02
  0.7402596360815905E-02  0.7210225949082858E-02  0.7022840353816819E-02  0.6840313855376107E-02  0.6662523668456454E-02
  0.6489349886942471E-02  0.6320675429064960E-02  0.6156385982909458E-02  0.5996369952315840E-02  0.5840518403208348E-02
  0.5688725010389590E-02  0.5540886004832547E-02  0.5396900121498690E-02  0.5256668547710882E-02  0.5120094872104459E-02
  0.4987085034180349E-02  0.4857547274479324E-02  0.4731392085396732E-02  0.4608532162653033E-02  0.4488882357435582E-02
  0.4372359629223286E-02  0.4258882999306278E-02  0.4148373505008901E-02  0.4040754154625069E-02  0.3935949883071567E-02
  0.3833887508265391E-02  0.3734495688228300E-02  0.3637704878922289E-02  0.3543447292816781E-02  0.3451656858189089E-02
  0.3362269179157333E-02  0.3275221496444768E-02  0.3190452648873821E-02  0.3107903035586817E-02  0.3027514578989751E-02
  0.2949230688415544E-02  0.2872996224501192E-02  0.2798757464274347E-02  0.2726462066942542E-02  0.2656059040379607E-02
  0.2587498708301758E-02  0.2520732678126467E-02  0.2455713809506595E-02  0.2392396183531837E-02  0.2330735072589111E-02
  0.2270686910873575E-02  0.2212209265541630E-02  0.2155260808496893E-02  0.2099801288799971E-02  0.2045791505692834E-02
  0.1993193282228499E-02  0.1941969439496391E-02  0.1892083771433702E-02  0.1843501020213169E-02  0.1796186852197656E-02
  0.1750107834451366E-02  0.1705231411798358E-02  0.1661525884418094E-02  0.1618960385968621E-02  0.1577504862227204E-02
  0.1537130050238913E-02  0.1497807457963371E-02  0.1459509344409856E-02  0.1422208700251248E-02  0.1385879228907258E-02
  0.1350495328087468E-02  0.1316032071784664E-02  0.1282465192709234E-02  0.1249771065155519E-02  0.1217926688290723E-02
  0.1186909669857694E-02  0.1156698210282363E-02  0.1127271087177331E-02  0.1098607640232663E-02  0.1070687756485603E-02
  0.1043491855960511E-02  0.1017000877670982E-02  0.9911962659756948E-03  0.9660599572802274E-03  0.9415743670766266E-03
  0.9177223773132326E-03  0.8944873240868329E-03  0.8718529856498670E-03  0.8498035707250621E-03  0.8283237071204780E-03
  0.8073984306376058E-03  0.7870131742657605E-03  0.7671537576556700E-03  0.7478063768658027E-03  0.7289575943745829E-03
  0.7105943293522477E-03  0.6927038481858513E-03  0.6752737552513553E-03  0.6582919839266164E-03  0.6417467878393744E-03
  0.6256267323444473E-03  0.6099206862244040E-03  0.5946178136081239E-03  0.5797075661018075E-03  0.5651796751271435E-03
  0.5510241444613698E-03  0.5372312429740991E-03  0.5237914975560349E-03  0.5106956862345946E-03  0.4979348314717173E-03
  0.4855001936392350E-03  0.4733832646672341E-03  0.4615757618609613E-03  0.4500696218819448E-03  0.4388569948891262E-03
  0.4279302388358467E-03  0.4172819139186389E-03  0.4069047771739167E-03  0.3967917772187054E-03  0.3869360491316837E-03
  0.3773309094708328E-03  0.3679698514241575E-03  0.3588465400900221E-03  0.3499548078836212E-03  0.3412886500663808E-03
  0.3328422203949536E-03  0.3246098268867568E-03  0.3165859276988858E-03  0.3087651271175026E-03  0.3011421716546924E-03
  0.2937119462500241E-03  0.2864694705739653E-03  0.2794098954305095E-03  0.2725284992563569E-03  0.2658206847140677E-03
  0.2592819753767057E-03  0.2529080125015444E-03  0.2466945518904240E-03  0.2406374608344945E-03  0.2347327151410390E-03
  0.2289763962402383E-03  0.2233646883696814E-03  0.2178938758345955E-03  0.2125603403417140E-03  0.2073605584048579E-03
  0.2022910988202576E-03  0.1973486202097939E-03  0.1925298686302796E-03  0.1878316752470604E-03  0.1832509540701552E-03
  0.1787846997512999E-03  0.1744299854402086E-03  0.1701839606985040E-03  0.1660438494697194E-03  0.1620069481039006E-03
  0.1580706234352960E-03  0.1542323109117440E-03  0.1504895127743261E-03  0.1468397962859498E-03  0.1432807920075343E-03
  0.1398101921205197E-03  0.1364257487944323E-03  0.1331252725983024E-03  0.1299066309547485E-03  0.1267677466355707E-03
  0.1237065962977285E-03  0.1207212090586138E-03  0.1178096651095617E-03  0.1149700943665578E-03  0.1122006751571353E-03
  0.1094996329424842E-03  0.1068652390738295E-03  0.1042958095821297E-03  0.1017897040002203E-03  0.9934532421649852E-04
  0.9696111335931579E-04  0.9463555471123976E-04  0.9236717065236926E-04  0.9015452163193452E-04  0.8799620516739868E-04
  0.8589085487032556E-04  0.8383713949829387E-04  0.8183376203214299E-04  0.7987945877786642E-04  0.7797299849250164E-04
  0.7611318153334486E-04  0.7429883902987192E-04  0.7252883207775668E-04  0.7080205095437436E-04  0.6911741435522641E-04
  0.6747386865070379E-04  0.6587038716265571E-04  0.6430596946021888E-04  0.6277964067438768E-04  0.6129045083082148E-04
  0.5983747420039943E-04  0.5841980866703705E-04  0.5703657511230262E-04  0.5568691681638029E-04  0.5436999887494172E-04
  0.5308500763148641E-04  0.5183115012475009E-04  0.5060765355075879E-04  0.4941376473914751E-04  0.4824874964334973E-04
  0.4711189284428652E-04  0.4600249706719973E-04  0.4491988271126156E-04  0.4386338739162733E-04  0.4283236549359492E-04
  0.4182618773854228E-04  0.4084424076132771E-04  0.3988592669884886E-04  0.3895066278945298E-04  0.3803788098291547E-04
  0.3714702756069756E-04  0.3627756276620782E-04  0.3542896044480295E-04  0.3460070769326234E-04  0.3379230451848413E-04
  0.3300326350515703E-04  0.3223310949216721E-04  0.3148137925750244E-04  0.3074762121143355E-04  0.3003139509774483E-04
  0.2933227170280133E-04  0.2864983257224530E-04  0.2798366973511310E-04  0.2733338543517988E-04  0.2669859186933551E-04
  0.2607891093280449E-04  0.2547397397103014E-04  0.2488342153804137E-04  0.2430690316113191E-04  0.2374407711168471E-04
  0.2319461018197395E-04  0.2265817746779028E-04  0.2213446215673214E-04  0.2162315532201135E-04  0.2112395572162877E-04
  0.2063656960277680E-04  0.2016071051132882E-04  0.1969609910628148E-04  0.1924246297901928E-04  0.1879953647727161E-04
  0.1836706053363924E-04  0.1794478249856976E-04  0.1753245597766229E-04  0.1712984067318938E-04  0.1673670222972250E-04
  0.1635281208375252E-04  0.1597794731720326E-04  0.1561189051472997E-04  0.1525442962470624E-04  0.1490535782380211E-04
  0.1456447338505693E-04  0.1423157954935601E-04  0.1390648440022112E-04  0.1358900074182855E-04  0.1327894598016741E-04
  0.1297614200725841E-04  0.1268041508835054E-04  0.1239159575201886E-04  0.1210951868308621E-04  0.1183402261829492E-04
  0.1156495024465714E-04  0.1130214810041289E-04  0.1104546647852691E-04  0.1079475933265956E-04  0.1054988418554533E-04
  0.1031070203971635E-04  0.1007707729051083E-04  0.9848877641304565E-05  0.9625974020909428E-05  0.9408240503081211E-05
  0.9195554228081583E-05  0.8987795326241872E-05  0.8784846843474891E-05  0.8586594668684843E-05  0.8392927463026703E-05
  0.8203736590964871E-05  0.8018916053086398E-05  0.7838362420622213E-05  0.7661974771631712E-05  0.7489654628807990E-05
  0.7321305898861896E-05  0.7156834813443109E-05  0.6996149871559176E-05  0.6839161783453571E-05  0.6685783415904265E-05
  0.6535929738907351E-05  0.6389517773708562E-05  0.6246466542148681E-05  0.6106697017288838E-05  0.5970132075282030E-05
  0.5836696448459448E-05  0.5706316679600008E-05  0.5578921077352211E-05  0.5454439672779184E-05  0.5332804176997827E-05
  0.5213947939883496E-05  0.5097805909813699E-05  0.4984314594422889E-05  0.4873412022343538E-05  0.4765037705907587E-05
  0.4659132604783447E-05  0.4555639090524901E-05  0.4454500912008712E-05  0.4355663161737535E-05  0.4259072242986259E-05
  0.4164675837770820E-05  0.4072422875617272E-05  0.3982263503111510E-05  0.3894149054209593E-05  0.3808032021288826E-05
  0.3723866026921292E-05  0.3641605796350882E-05  0.3561207130656025E-05  0.3482626880581148E-05  0.3405822921018991E-05
  0.3330754126127701E-05  0.3257380345066754E-05  0.3185662378335482E-05  0.3115561954699152E-05  0.3047041708687729E-05
  0.2980065158652794E-05  0.2914596685368124E-05  0.2850601511160722E-05  0.2788045679558299E-05  0.2726896035440566E-05
  0.2667120205681318E-05  0.2608686580268953E-05  0.2551564293893423E-05  0.2495723207987838E-05  0.2441133893212979E-05
  0.2387767612373983E-05  0.2335596303757907E-05  0.2284592564881717E-05  0.2234729636640515E-05  0.2185981387845585E-05
  0.2138322300142784E-05  0.2091727453301538E-05  0.2046172510865134E-05  0.2001633706153233E-05  0.1958087828607923E-05
  0.1915512210474372E-05  0.1873884713808082E-05  0.1833183717800145E-05  0.1793388106412915E-05  0.1754477256318092E-05
  0.1716431025129690E-05  0.1679229739924548E-05  0.1642854186043256E-05  0.1607285596164369E-05  0.1572505639645069E-05
  0.1538496412121921E-05  0.1505240425364822E-05  0.1472720597378067E-05  0.1440920242742440E-05  0.1409823063192098E-05
  0.1379413138420681E-05  0.1349674917110657E-05  0.1320593208180630E-05  0.1292153172245038E-05  0.1264340313280977E-05
  0.1237140470497038E-05  0.1210539810399219E-05  0.1184524819048895E-05  0.1159082294508160E-05  0.1134199339467917E-05
  0.1109863354054213E-05  0.1086062028808279E-05  0.1062783337836189E-05  0.1040015532123738E-05  0.1017747133012660E-05
  0.9959669258340533E-06  0.9746639536951436E-06  0.9538275114158079E-06  0.9334471396108716E-06  0.9135126189147819E-06
  0.8940139643451611E-06  0.8749414198017191E-06  0.8562854526972681E-06  0.8380367487176113E-06  0.8201862067070679E-06
  0.8027249336766537E-06  0.7856442399318238E-06  0.7689356343168653E-06  0.7525908195731519E-06  0.7366016878083638E-06
  0.7209603160740447E-06  0.7056589620488036E-06  0.6906900598246331E-06  0.6760462157937114E-06  0.6617202046333920E-06
  0.6477049653868598E-06  0.6339935976371562E-06  0.6205793577723603E-06  0.6074556553396000E-06  0.5946160494858137E-06
  0.5820542454831331E-06  0.5697640913367857E-06  0.5577395744735939E-06  0.5459748185090241E-06  0.5344640800909431E-06
  0.5232017458182125E-06  0.5121823292322605E-06  0.5014004678799241E-06  0.4908509204458081E-06  0.4805285639524614E-06
  0.4704283910267543E-06  0.4605455072308602E-06  0.4508751284562502E-06  0.4414125783792212E-06  0.4321532859764221E-06
  0.4230927830989790E-06  0.4142267021037852E-06  0.4055507735405630E-06  0.3970608238933752E-06  0.3887527733752862E-06
  0.3806226337748622E-06  0.3726665063532620E-06  0.3648805797907768E-06  0.3572611281815165E-06  0.3498045090751694E-06
  0.3425071615646947E-06  0.3353656044187997E-06  0.3283764342582057E-06  0.3215363237745639E-06  0.3148420199910843E-06
  0.3082903425638266E-06  0.3018781821226880E-06  0.2956024986511641E-06  0.2894603199039328E-06  0.2834487398613508E-06
  0.2775649172200291E-06  0.2718060739185576E-06  0.2661694936976025E-06  0.2606525206935279E-06  0.2552525580647438E-06
  0.2499670666500006E-06  0.2447935636578977E-06  0.2397296213868153E-06  0.2347728659745935E-06  0.2299209761772283E-06
  0.2251716821758958E-06  0.2205227644116325E-06  0.2159720524470416E-06  0.2115174238543357E-06  0.2071568031291456E-06
  0.2028881606294469E-06  0.1987095115390153E-06  0.1946189148548677E-06  0.1906144723980662E-06  0.1866943278473653E-06
  0.1828566657951736E-06  0.1790997108252726E-06  0.1754217266117982E-06  0.1718210150389865E-06  0.1682959153411879E-06
  0.1648448032626643E-06  0.1614660902367314E-06  0.1581582225837495E-06  0.1549196807275671E-06  0.1517489784299449E-06
  0.1486446620425524E-06  0.1456053097761363E-06  0.1426295309864408E-06  0.1397159654764876E-06  0.1368632828148518E-06
  0.1340701816695322E-06  0.1313353891570699E-06  0.1286576602065564E-06  0.1260357769381708E-06  0.1234685480559219E-06
  0.1209548082542586E-06  0.1184934176382128E-06  0.1160832611567825E-06  0.1137232480492239E-06  0.1114123113039620E-06
  0.1091494071298316E-06  0.1069335144393456E-06  0.1047636343437245E-06  0.1026387896594126E-06  0.1005580244258022E-06
  0.9852040343391709E-07  0.9652501176580192E-07  0.9457095434435437E-07  0.9265735549337739E-07  0.9078335850760044E-07
  0.8894812523244085E-07  0.8715083565328908E-07  0.8539068749408364E-07  0.8366689582496924E-07  0.8197869267883058E-07
  0.8032532667648840E-07  0.7870606266035778E-07  0.7712018133639014E-07  0.7556697892408247E-07  0.7404576681438361E-07
  0.7255587123531700E-07  0.7109663292512956E-07  0.6966740681280874E-07  0.6826756170578371E-07  0.6689647998465581E-07
  0.6555355730479418E-07  0.6423820230463475E-07  0.6294983632053049E-07  0.6168789310800905E-07  0.6045181856928065E-07
  0.5924107048685523E-07  0.5805511826314038E-07  0.5689344266586389E-07  0.5575553557920085E-07  0.5464089976047441E-07
  0.5354904860229365E-07  0.5247950590001571E-07  0.5143180562440176E-07  0.5040549169934951E-07  0.4940011778459524E-07
  0.4841524706325781E-07  0.4745045203412322E-07  0.4650531430856261E-07  0.4557942441197267E-07  0.4467238158963727E-07
  0.4378379361691359E-07  0.4291327661364029E-07  0.4206045486266969E-07  0.4122496063243916E-07  0.4040643400347798E-07
  0.3960452269877132E-07  0.3881888191788661E-07  0.3804917417477913E-07  0.3729506913919467E-07  0.3655624348158741E-07
  0.3583238072146986E-07  0.3512317107912385E-07  0.3442831133058999E-07  0.3374750466586437E-07  0.3308046055023251E-07
  0.3242689458866342E-07  0.3178652839320077E-07  0.3115908945328117E-07  0.3054431100891207E-07  0.2994193192664634E-07
  0.2935169657829268E-07  0.2877335472229446E-07  0.2820666138772394E-07  0.2765137676082635E-07  0.2710726607406205E-07
  0.2657409949758745E-07  0.2605165203312043E-07  0.2553970341013655E-07  0.2503803798434588E-07  0.2454644463839619E-07
  0.2406471668475311E-07  0.2359265177071261E-07  0.2313005178549155E-07  0.2267672276935386E-07  0.2223247482472746E-07
  0.2179712202926350E-07  0.2137048235079911E-07  0.2095237756417772E-07  0.2054263316988581E-07  0.2014107831446927E-07
  0.1974754571268389E-07  0.1936187157134512E-07  0.1898389551483936E-07  0.1861346051225746E-07  0.1825041280611578E-07
  0.1789460184262978E-07  0.1754588020350515E-07  0.1720410353921169E-07  0.1686913050370952E-07  0.1654082269059209E-07
  0.1621904457061801E-07  0.1590366343059818E-07  0.1559454931360836E-07  0.1529157496050096E-07  0.1499461575268263E-07
  0.1470354965613232E-07  0.1441825716663298E-07  0.1413862125618776E-07  0.1386452732059589E-07  0.1359586312816333E-07
  0.1333251876952083E-07  0.1307438660852747E-07  0.1282136123423427E-07  0.1257333941388416E-07  0.1233022004692718E-07
  0.1209190412002665E-07  0.1185829466303528E-07  0.1162929670592028E-07  0.1140481723661623E-07  0.1118476515978430E-07
  0.1096905125646015E-07  0.1075758814456859E-07  0.1055029024028737E-07  0.1034707372024146E-07  0.1014785648450861E-07
  0.9952558120419443E-08  0.9761099867134370E-08  0.9573404580979487E-08  0.9389396701526480E-08  0.9209002218398562E-08
  0.9032148638787317E-08  0.8858764955665526E-08  0.8688781616679195E-08  0.8522130493705477E-08  0.8358744853061248E-08
  0.8198559326347922E-08  0.8041509881918920E-08  0.7887533796956680E-08  0.7736569630144670E-08  0.7588557194922994E-08
  0.7443437533313337E-08  0.7301152890302115E-08  0.7161646688769127E-08  0.7024863504949632E-08  0.6890749044418581E-08
  0.6759250118585873E-08  0.6630314621691027E-08  0.6503891508286309E-08  0.6379930771198955E-08  0.6258383419960441E-08
  0.6139201459693498E-08  0.6022337870447419E-08  0.5907746586970753E-08  0.5795382478913188E-08  0.5685201331446348E-08
  0.5577159826294869E-08  0.5471215523169038E-08  0.5367326841590132E-08  0.5265453043099603E-08  0.5165554213844724E-08
  0.5067591247531685E-08  0.4971525828738595E-08  0.4877320416580741E-08  0.4784938228720467E-08  0.4694343225713743E-08
  0.4605500095687131E-08  0.4518374239337187E-08  0.4432931755245612E-08  0.4349139425503810E-08  0.4266964701639405E-08
  0.4186375690838909E-08  0.4107341142459993E-08  0.4029830434826713E-08  0.3953813562302492E-08  0.3879261122634047E-08
  0.3806144304560846E-08  0.3734434875684640E-08  0.3664105170592872E-08  0.3595128079231149E-08  0.3527477035519176E-08
  0.3461126006204831E-08  0.3396049479951488E-08  0.3332222456653693E-08  0.3269620436975898E-08  0.3208219412109957E-08
  0.3147995853746598E-08  0.3088926704255892E-08  0.3030989367073048E-08  0.2974161697284406E-08  0.2918421992409740E-08
  0.2863748983376802E-08  0.2810121825683657E-08  0.2757520090744973E-08  0.2705923757418702E-08  0.2655313203708679E-08
  0.2605669198639812E-08  0.2556972894302289E-08  0.2509205818060800E-08  0.2462349864925766E-08  0.2416387290082660E-08
  0.2371300701576502E-08  0.2327073053147981E-08  0.2283687637218039E-08  0.2241128078017760E-08  0.2199378324860683E-08
  0.2158422645554226E-08  0.2118245619947457E-08  0.2078832133612365E-08  0.2040167371655733E-08  0.2002236812658807E-08
  0.1965026222742264E-08  0.1928521649753549E-08  0.1892709417574336E-08  0.1857576120545304E-08  0.1823108618005784E-08
  0.1789294028946189E-08  0.1756119726770375E-08  0.1723573334165889E-08  0.1691642718079924E-08  0.1660315984798495E-08
  0.1629581475126839E-08  0.1599427759668971E-08  0.1569843634204092E-08  0.1540818115158051E-08  0.1512340435167773E-08
  0.1484400038736598E-08  0.1456986577978886E-08  0.1430089908451742E-08  0.1403700085072202E-08  0.1377807358118060E-08
  0.1352402169310616E-08  0.1327475147977479E-08  0.1303017107294020E-08  0.1279019040601584E-08  0.1255472117800935E-08
  0.1232367681819533E-08  0.1209697245150772E-08  0.1187452486463997E-08  0.1165625247283664E-08  0.1144207528736172E-08
  0.1123191488363123E-08  0.1102569436999439E-08  0.1082333835715085E-08  0.1062477292819126E-08  0.1042992560924668E-08
  0.1023872534073564E-08  0.1005110244919616E-08  0.9866988619689647E-09  0.9686316868765758E-09  0.9509021517976783E-09
  0.9335038167928963E-09  0.9164303672860807E-09  0.8996756115737187E-09  0.8832334783848107E-09  0.8670980144901746E-09
  0.8512633823602724E-09  0.8357238578703436E-09  0.8204738280521075E-09  0.8055077888908701E-09  0.7908203431671751E-09
  0.7764061983421892E-09  0.7622601644857030E-09  0.7483771522460134E-09  0.7347521708608468E-09  0.7213803262083602E-09
  0.7082568188974699E-09  0.6953769423967190E-09  0.6827360812008473E-09  0.6703297090342572E-09  0.6581533870907363E-09
  0.6462027623085346E-09  0.6344735656802220E-09  0.6229616105964956E-09  0.6116627912232879E-09  0.6005730809115102E-09
  0.5896885306387456E-09  0.5790052674821879E-09  0.5685194931222927E-09  0.5582274823764092E-09  0.5481255817618222E-09
  0.5382102080876302E-09  0.5284778470748027E-09  0.5189250520038991E-09  0.5095484423898761E-09  0.5003447026833675E-09
  0.4913105809980137E-09  0.4824428878631834E-09  0.4737384950016462E-09  0.4651943341316916E-09  0.4568073957931273E-09
  0.4485747281967525E-09  0.4404934360967827E-09  0.4325606796857552E-09  0.4247736735114717E-09  0.4171296854155492E-09
   26     55.847         3.5101    fcc     
  0.0000000000000000E+00 -0.2781812555167740E-01 -0.5543062627726991E-01 -0.8283827071400474E-01 -0.1100418273991073E+00
 -0.1370420648698030E+00 -0.1638397516633194E+00 -0.1904356563168816E+00 -0.2168305473677159E+00 -0.2430251933530481E+00
 -0.2690203628101044E+00 -0.2948168242761109E+00 -0.3204153462882933E+00 -0.3458166973838783E+00 -0.3710216461000917E+00
 -0.3960309609741592E+00 -0.4208454105433066E+00 -0.4454657633447610E+00 -0.4698927879157482E+00 -0.4941272527934939E+00
 -0.5181699265152246E+00 -0.5420215776181658E+00 -0.5656829746395431E+00 -0.5891548861165836E+00 -0.6124380805865133E+00
 -0.6355333265865579E+00 -0.6584413926539427E+00 -0.6811630473258949E+00 -0.7036990591396401E+00 -0.7260501966324049E+00
 -0.7482172283414146E+00 -0.7702009228038957E+00 -0.7920020485570740E+00 -0.8136213741381759E+00 -0.8350596680844271E+00
 -0.8563176989330539E+00 -0.8773962352212810E+00 -0.8982960454863373E+00 -0.9190178982654458E+00 -0.9395625620958346E+00
 -0.9599308055147293E+00 -0.9801233970593561E+00 -0.1000141105266940E+01 -0.1019984698674708E+01 -0.1039654945819887E+01
 -0.1059152615239700E+01 -0.1078478475471377E+01 -0.1097633295052141E+01 -0.1116617842519219E+01 -0.1135432886409838E+01
 -0.1154079195261223E+01 -0.1172557537610600E+01 -0.1190868681995196E+01 -0.1209013396952236E+01 -0.1226992451018946E+01
 -0.1244806612732554E+01 -0.1262456650630283E+01 -0.1279943333249362E+01 -0.1297267429127014E+01 -0.1314429706800469E+01
 -0.1331430934806950E+01 -0.1348271881683683E+01 -0.1364953315967896E+01 -0.1381476006196813E+01 -0.1397840720907661E+01
 -0.1414048228637667E+01 -0.1430099297924056E+01 -0.1445994697304053E+01 -0.1461735195314887E+01 -0.1477321560493781E+01
 -0.1492754561377963E+01 -0.1508034966504658E+01 -0.1523163544411093E+01 -0.1538141063634493E+01 -0.1552968292712085E+01
 -0.1567646000181095E+01 -0.1582174954578747E+01 -0.1596555924442271E+01 -0.1610789678308889E+01 -0.1624876984715830E+01
 -0.1638818612200318E+01 -0.1652615329299580E+01 -0.1666267904550843E+01 -0.1679777106491331E+01 -0.1693143703658272E+01
 -0.1706368464588890E+01 -0.1719452157820414E+01 -0.1732395551890067E+01 -0.1745199415335077E+01 -0.1757864516692668E+01
 -0.1770391624500069E+01 -0.1782781507294504E+01 -0.1795034933613199E+01 -0.1807152671993382E+01 -0.1819135490972275E+01
 -0.1830984159087110E+01 -0.1842699444875108E+01 -0.1854282116873497E+01 -0.1865732943619503E+01 -0.1877052693650352E+01
 -0.1888242135503269E+01 -0.1899302037715483E+01 -0.1910233168824217E+01 -0.1921036297366698E+01 -0.1931712191880152E+01
 -0.1942261620901806E+01 -0.1952685352968885E+01 -0.1962984156618615E+01 -0.1973158800388223E+01 -0.1983210052814934E+01
