  DATE: 2018-03-30 CONTRIBUTOR: Xiaowang Zhou xzhou@sandia.gov and Lucas Hale lucas.hale@nist.gov CITATION: X. W. Zhou, R. A. Johnson, H. N. G. Wadley, Phys. Rev. B, 69, 144113(2004)
  Generated from Zhou04_create_v2.f
  Fixes precision issues with older version
    5 Al Cr Fe Co Ni          
 2000  0.6522197227699011E-01 2000  0.3203566156274691E-02  0.6403928746393108E+01
   13     26.982         4.0502    fcc     
  0.0000000000000000E+00 -0.2458810381376475E-01 -0.4903434002866813E-01 -0.7334010592803208E-01 -0.9750579879518129E-01
 -0.1215318159134371E+00 -0.1454185545661231E+00 -0.1691664120365619E+00 -0.1927757856080770E+00 -0.2162470725639902E+00
 -0.2395806701876260E+00 -0.2627769757623057E+00 -0.2858363865713534E+00 -0.3087592998980913E+00 -0.3315461130258428E+00
 -0.3541972232379305E+00 -0.3767130278176776E+00 -0.3990939240484062E+00 -0.4213403092134396E+00 -0.4434525805961020E+00
 -0.4654311354797140E+00 -0.4872763711476010E+00 -0.5089886848830836E+00 -0.5305684739694866E+00 -0.5520161356901310E+00
 -0.5733320673283421E+00 -0.5945166661674404E+00 -0.6155703294907506E+00 -0.6364934545815943E+00 -0.6572864387232957E+00
 -0.6779496791991763E+00 -0.6984835732925606E+00 -0.7188885182867699E+00 -0.7391649114651281E+00 -0.7593131501109577E+00
 -0.7793336315075825E+00 -0.7992267529383237E+00 -0.8189929116865053E+00 -0.8386325050354505E+00 -0.8581459302684816E+00
 -0.8775335846689224E+00 -0.8967958655200945E+00 -0.9159331701053210E+00 -0.9349458957079263E+00 -0.9538344396112323E+00
 -0.9725991990985606E+00 -0.9912405714532369E+00 -0.1009758953958581E+01 -0.1028154743897919E+01 -0.1046428338554571E+01
 -0.1064580135211862E+01 -0.1082610531153113E+01 -0.1100519923661649E+01 -0.1118308710020792E+01 -0.1135977287513864E+01
 -0.1153526053424189E+01 -0.1170955405035089E+01 -0.1188265739629889E+01 -0.1205457454491910E+01 -0.1222530946904474E+01
 -0.1239486614150906E+01 -0.1256324853514528E+01 -0.1273046062278663E+01 -0.1289650637726635E+01 -0.1306138977141765E+01
 -0.1322511477807377E+01 -0.1338768537006793E+01 -0.1354910552023337E+01 -0.1370937920140332E+01 -0.1386851038641100E+01
 -0.1402650304808965E+01 -0.1418336115927248E+01 -0.1433908869279275E+01 -0.1449368962148365E+01 -0.1464716791817844E+01
 -0.1479952755571034E+01 -0.1495077250691258E+01 -0.1510090674461838E+01 -0.1524993424166098E+01 -0.1539785897087360E+01
 -0.1554468490508949E+01 -0.1569041601714184E+01 -0.1583505627986392E+01 -0.1597860966608894E+01 -0.1612108014865013E+01
 -0.1626247170038071E+01 -0.1640278829411393E+01 -0.1654203390268301E+01 -0.1668021249892117E+01 -0.1681732805566164E+01
 -0.1695338454573767E+01 -0.1708838594198247E+01 -0.1722233621722927E+01 -0.1735523934431131E+01 -0.1748709929606181E+01
 -0.1761792004531400E+01 -0.1774770556490110E+01 -0.1787645982765636E+01 -0.1800418680641300E+01 -0.1813089047400424E+01
 -0.1825657480326332E+01 -0.1838124376702346E+01 -0.1850490133811791E+01 -0.1862755148937987E+01 -0.1874919819364259E+01
 -0.1886984542373928E+01 -0.1898949715250319E+01 -0.1910815735276755E+01 -0.1922582999736556E+01 -0.1934251905913047E+01
 -0.1945822851089553E+01 -0.1957296232549393E+01 -0.1968672447575891E+01 -0.1979951893452371E+01 -0.1991134967462156E+01
 -0.2002222066888568E+01 -0.2013213589014931E+01 -0.2024109931124566E+01 -0.2034911490500797E+01 -0.2045618664426947E+01
 -0.2056231850186339E+01 -0.2066751445062296E+01 -0.2077177846338141E+01 -0.2087511451297196E+01 -0.2097752657222784E+01
 -0.2107901861398230E+01 -0.2117959461106854E+01 -0.2127925853631980E+01 -0.2137801436256932E+01 -0.2147586606265032E+01
 -0.2157281760939603E+01 -0.2166887297563967E+01 -0.2176403613421448E+01 -0.2185831105795370E+01 -0.2195170171969053E+01
 -0.2204421209225822E+01 -0.2213584614849000E+01 -0.2222660786121909E+01 -0.2231650120327872E+01 -0.2240553014750212E+01
 -0.2249369866672252E+01 -0.2258101073377316E+01 -0.2266747032148725E+01 -0.2275308140269803E+01 -0.2283784795023873E+01
 -0.2292177393694258E+01 -0.2300486333564279E+01 -0.2308712011917262E+01 -0.2316854826036527E+01 -0.2324915173205399E+01
 -0.2332893450707200E+01 -0.2340790055825253E+01 -0.2348605385842881E+01 -0.2356339838043407E+01 -0.2363993809710154E+01
 -0.2371567698126445E+01 -0.2379061900575602E+01 -0.2386476814340948E+01 -0.2393812836705808E+01 -0.2401070364953502E+01
 -0.2408249796367355E+01 -0.2415351528230689E+01 -0.2422375957826827E+01 -0.2429323482439092E+01 -0.2436194499350807E+01
 -0.2442989405845295E+01 -0.2449708599205878E+01 -0.2456352476715880E+01 -0.2462921435658624E+01 -0.2469415873317432E+01
 -0.2475836186975628E+01 -0.2482182773916534E+01 -0.2488456031423472E+01 -0.2494656356779768E+01 -0.2500784147268742E+01
 -0.2506839800173718E+01 -0.2512823712778018E+01 -0.2518736282364967E+01 -0.2524577906217886E+01 -0.2530348981620099E+01
 -0.2536049905854928E+01 -0.2541681076205697E+01 -0.2547242889955728E+01 -0.2552735744388344E+01 -0.2558160036786868E+01
 -0.2563516164434624E+01 -0.2568804524614934E+01 -0.2574025514611119E+01 -0.2579179531706505E+01 -0.2584266973184414E+01
 -0.2589288236328168E+01 -0.2594243718421091E+01 -0.2599133816746504E+01 -0.2603958928587733E+01 -0.2608719451228098E+01
 -0.2613415781950924E+01 -0.2618048318039533E+01 -0.2622617456777247E+01 -0.2627123595447391E+01 -0.2631567131333286E+01
 -0.2635948461718256E+01 -0.2640267983885623E+01 -0.2644526095118712E+01 -0.2648723192700843E+01 -0.2652859673915341E+01
 -0.2656935936045528E+01 -0.2660952376374727E+01 -0.2664909392186261E+01 -0.2668807380763454E+01 -0.2672646739389626E+01
 -0.2676427865348103E+01 -0.2680151155922207E+01 -0.2683817008395260E+01 -0.2687425820050585E+01 -0.2690977988171507E+01
 -0.2694473910041346E+01 -0.2697913982943427E+01 -0.2701298604161071E+01 -0.2704628170977603E+01 -0.2707903080676345E+01
 -0.2711123730540620E+01 -0.2714290517853751E+01 -0.2717403839899060E+01 -0.2720464093959870E+01 -0.2723471677319506E+01
 -0.2726426987261289E+01 -0.2729330421068542E+01 -0.2732182376024588E+01 -0.2734983249412751E+01 -0.2737733438516353E+01
 -0.2740433340618716E+01 -0.2743083353003165E+01 -0.2745683872953022E+01 -0.2748235297751608E+01 -0.2750738024682249E+01
 -0.2753192451028266E+01 -0.2755598974072983E+01 -0.2757957991099723E+01 -0.2760269899391806E+01 -0.2762535096232559E+01
 -0.2764753978905303E+01 -0.2766926944693361E+01 -0.2769054390880055E+01 -0.2771136714748709E+01 -0.2773174313582647E+01
 -0.2775167584665189E+01 -0.2777116925279660E+01 -0.2779022732709383E+01 -0.2780885404237681E+01 -0.2782705337147875E+01
 -0.2784482928723290E+01 -0.2786218576247247E+01 -0.2787912677003071E+01 -0.2789565628274083E+01 -0.2791177827343609E+01
 -0.2792749671494967E+01 -0.2794281558011485E+01 -0.2795773884176482E+01 -0.2797227047273283E+01 -0.2798641444585211E+01
 -0.2800017473395587E+01 -0.2801355530987736E+01 -0.2802656014644980E+01 -0.2803919321650642E+01 -0.2805145849288045E+01
 -0.2806335994840512E+01 -0.2807490155591366E+01 -0.2808608405330946E+01 -0.2809691881528973E+01 -0.2810740734596713E+01
 -0.2811755451135526E+01 -0.2812736517746773E+01 -0.2813684421031813E+01 -0.2814599647592008E+01 -0.2815482684028718E+01
 -0.2816334016943303E+01 -0.2817154132937125E+01 -0.2817943518611543E+01 -0.2818702660567919E+01 -0.2819432045407611E+01
 -0.2820132159731982E+01 -0.2820803490142392E+01 -0.2821446523240200E+01 -0.2822061745626768E+01 -0.2822649643903457E+01
 -0.2823210704671625E+01 -0.2823745414532636E+01 -0.2824254260087847E+01 -0.2824737727938621E+01 -0.2825196304686318E+01
 -0.2825630476932297E+01 -0.2826040731277920E+01 -0.2826427554324547E+01 -0.2826791432673540E+01 -0.2827132852926256E+01
 -0.2827452301684060E+01 -0.2827750265548309E+01 -0.2828027231120364E+01 -0.2828283685001587E+01 -0.2828520113793338E+01
 -0.2828737004096977E+01 -0.2828934842513864E+01 -0.2829114115645361E+01 -0.2829275310092827E+01 -0.2829418912457624E+01
 -0.2829545409341111E+01 -0.2829655287344650E+01 -0.2829749033069600E+01 -0.2829827133117323E+01 -0.2829890074089178E+01
 -0.2829938342586527E+01 -0.2829972425210730E+01 -0.2829992808563146E+01 -0.2829999979245138E+01 -0.2829994423858065E+01
 -0.2829976629003288E+01 -0.2829947081282166E+01 -0.2829906267296062E+01 -0.2829854673646335E+01 -0.2829792786934346E+01
 -0.2829721093761455E+01 -0.2829640080729023E+01 -0.2829550234438411E+01 -0.2829452041490977E+01 -0.2829345988488085E+01
 -0.2829232562031093E+01 -0.2829112248721363E+01 -0.2828985535160255E+01 -0.2828852907949129E+01 -0.2828714853689346E+01
 -0.2828571858982266E+01 -0.2828424410429250E+01 -0.2828272994631659E+01 -0.2828118098190853E+01 -0.2827960207708192E+01
 -0.2827799809785036E+01 -0.2827637391022748E+01 -0.2827473438022686E+01 -0.2827308437386211E+01 -0.2827142875714685E+01
 -0.2826977239609467E+01 -0.2826812015671918E+01 -0.2826647690503398E+01 -0.2826484750705269E+01 -0.2826323682878890E+01
 -0.2826164973625622E+01 -0.2826009109546825E+01 -0.2825856577243861E+01 -0.2825707863318089E+01 -0.2825563454370869E+01
 -0.2825423837003564E+01 -0.2825289497817532E+01 -0.2825160923414135E+01 -0.2825038600394733E+01 -0.2824923015360687E+01
 -0.2824814654913356E+01 -0.2824714005654102E+01 -0.2824621554184286E+01 -0.2824537787105266E+01 -0.2824463191018405E+01
 -0.2824398252525063E+01 -0.2824331499057413E+01 -0.2824251654709972E+01 -0.2824158362199762E+01 -0.2824051674438970E+01
 -0.2823931643991572E+01 -0.2823798323076552E+01 -0.2823651763571093E+01 -0.2823492017013724E+01 -0.2823319134607433E+01
 -0.2823133167222741E+01 -0.2822934165400741E+01 -0.2822722179356102E+01 -0.2822497258980031E+01 -0.2822259453843214E+01
 -0.2822008813198709E+01 -0.2821745385984809E+01 -0.2821469220827880E+01 -0.2821180366045150E+01 -0.2820878869647484E+01
 -0.2820564779342113E+01 -0.2820238142535338E+01 -0.2819899006335199E+01 -0.2819547417554124E+01 -0.2819183422711528E+01
 -0.2818807068036405E+01 -0.2818418399469872E+01 -0.2818017462667698E+01 -0.2817604303002792E+01 -0.2817178965567677E+01
 -0.2816741495176919E+01 -0.2816291936369549E+01 -0.2815830333411437E+01 -0.2815356730297656E+01 -0.2814871170754811E+01
 -0.2814373698243346E+01 -0.2813864355959822E+01 -0.2813343186839172E+01 -0.2812810233556933E+01 -0.2812265538531449E+01
 -0.2811709143926053E+01 -0.2811141091651225E+01 -0.2810561423366726E+01 -0.2809970180483704E+01 -0.2809367404166791E+01
 -0.2808753135336160E+01 -0.2808127414669569E+01 -0.2807490282604386E+01 -0.2806841779339584E+01 -0.2806181944837719E+01
 -0.2805510818826887E+01 -0.2804828440802661E+01 -0.2804134850030006E+01 -0.2803430085545168E+01 -0.2802714186157557E+01
 -0.2801987190451596E+01 -0.2801249136788558E+01 -0.2800500063308379E+01 -0.2799740007931462E+01 -0.2798969008360449E+01
 -0.2798187102081978E+01 -0.2797394326368434E+01 -0.2796590718279661E+01 -0.2795776314664675E+01 -0.2794951152163347E+01
 -0.2794115267208075E+01 -0.2793268696025437E+01 -0.2792411474637826E+01 -0.2791543638865070E+01 -0.2790665224326033E+01
 -0.2789776266440202E+01 -0.2788876800429259E+01 -0.2787966861318634E+01 -0.2787046483939040E+01 -0.2786115702928001E+01
 -0.2785174552731355E+01 -0.2784223067604751E+01 -0.2783261281615124E+01 -0.2782289228642153E+01 -0.2781306942379718E+01
 -0.2780314456337326E+01 -0.2779311803841534E+01 -0.2778299018037352E+01 -0.2777276131889637E+01 -0.2776243178184466E+01
 -0.2775200189530504E+01 -0.2774147198360354E+01 -0.2773084236931892E+01 -0.2772011337329590E+01 -0.2770928531465835E+01
 -0.2769835851082215E+01 -0.2768733327750817E+01 -0.2767620992875493E+01 -0.2766498877693121E+01 -0.2765367013274858E+01
 -0.2764225430527372E+01 -0.2763074160194072E+01 -0.2761913232856313E+01 -0.2760742678934609E+01 -0.2759562528689809E+01
 -0.2758372812224289E+01 -0.2757173559483109E+01 -0.2755964800255177E+01 -0.2754746564174389E+01 -0.2753518880720765E+01
 -0.2752281779221573E+01 -0.2751035288852444E+01 -0.2749779438638470E+01 -0.2748514257455303E+01 -0.2747239774030230E+01
 -0.2745956016943251E+01 -0.2744663014628138E+01 -0.2743360795373488E+01 -0.2742049387323763E+01 -0.2740728818480331E+01
 -0.2739399116702475E+01 -0.2738060309708422E+01 -0.2736712425076336E+01 -0.2735355490245321E+01 -0.2733989532516402E+01
 -0.2732614579053505E+01 -0.2731230656884424E+01 -0.2729837792901780E+01 -0.2728436013863973E+01 -0.2727025346396122E+01
 -0.2725605816991004E+01 -0.2724177452009967E+01 -0.2722740277683862E+01 -0.2721294320113941E+01 -0.2719839605272762E+01
 -0.2718376159005077E+01 -0.2716904007028722E+01 -0.2715423174935486E+01 -0.2713933688191991E+01 -0.2712435572140541E+01
 -0.2710928851999980E+01 -0.2709413552866540E+01 -0.2707889699714677E+01 -0.2706357317397900E+01 -0.2704816430649597E+01
 -0.2703267064083854E+01 -0.2701709242196257E+01 -0.2700142989364697E+01 -0.2698568329850173E+01 -0.2696985287797566E+01
 -0.2695393887236431E+01 -0.2693794152081765E+01 -0.2692186106134784E+01 -0.2690569773083671E+01 -0.2688945176504342E+01
 -0.2687312339861187E+01 -0.2685671286507817E+01 -0.2684022039687795E+01 -0.2682364622535367E+01 -0.2680699058076186E+01
 -0.2679025369228024E+01 -0.2677343578801490E+01 -0.2675653709500725E+01 -0.2673955783924110E+01 -0.2672249824564954E+01
 -0.2670535853812179E+01 -0.2668813893951004E+01 -0.2667083967163622E+01 -0.2665346095529862E+01 -0.2663600301027863E+01
 -0.2661846605534723E+01 -0.2660085030827160E+01 -0.2658315598582153E+01 -0.2656538330377590E+01 -0.2654753247692898E+01
 -0.2652960371909682E+01 -0.2651159724312345E+01 -0.2649351326088710E+01 -0.2647535198330643E+01 -0.2645711362034652E+01
 -0.2643879838102506E+01 -0.2642040647341823E+01 -0.2640193810466676E+01 -0.2638339348098181E+01 -0.2636477280765081E+01
 -0.2634607628904329E+01 -0.2632730412861668E+01 -0.2630845652892197E+01 -0.2628953369160946E+01 -0.2627053581743430E+01
 -0.2625146310626219E+01 -0.2623231575707480E+01 -0.2621309396797532E+01 -0.2619379793619395E+01 -0.2617442785809324E+01
 -0.2615498392917346E+01 -0.2613546634407800E+01 -0.2611587529659853E+01 -0.2609621097968034E+01 -0.2607647358542749E+01
 -0.2605666330510793E+01 -0.2603678032915871E+01 -0.2601682484719095E+01 -0.2599679704799495E+01 -0.2597669711954512E+01
 -0.2595652524900502E+01 -0.2593628162273215E+01 -0.2591596642628297E+01 -0.2589557984441762E+01 -0.2587512206110484E+01
 -0.2585459325952658E+01 -0.2583399362208287E+01 -0.2581332333039644E+01 -0.2579258256531740E+01 -0.2577177150692785E+01
 -0.2575089033454641E+01 -0.2572993922673291E+01 -0.2570891836129273E+01 -0.2568782791528142E+01 -0.2566666806500904E+01
 -0.2564543898604463E+01 -0.2562414085322058E+01 -0.2560277384063697E+01 -0.2558133812166583E+01 -0.2555983386895551E+01
 -0.2553826125443486E+01 -0.2551662044931745E+01 -0.2549491162410576E+01 -0.2547313494859536E+01 -0.2545129059187894E+01
 -0.2542937872235051E+01 -0.2540739950770937E+01 -0.2538535311496418E+01 -0.2536323971043694E+01 -0.2534105945976698E+01
 -0.2531881252791484E+01 -0.2529649907916625E+01 -0.2527411927713595E+01 -0.2525167328477158E+01 -0.2522916126435748E+01
 -0.2520658337751850E+01 -0.2518393978522373E+01 -0.2516123064779027E+01 -0.2513845612488695E+01 -0.2511561637553797E+01
 -0.2509271155812659E+01 -0.2506974183039877E+01 -0.2504670734946670E+01 -0.2502360827181249E+01 -0.2500044475329162E+01
 -0.2497721694913650E+01 -0.2495392501396000E+01 -0.2493056910175887E+01 -0.2490714936591725E+01 -0.2488366595921001E+01
 -0.2486011903380624E+01 -0.2483650874127255E+01 -0.2481283523257648E+01 -0.2478909865808978E+01 -0.2476529916759175E+01
 -0.2474143691027246E+01 -0.2471751203473610E+01 -0.2469352468900413E+01 -0.2466947502051851E+01 -0.2464536317614491E+01
 -0.2462118930217586E+01 -0.2459695354433386E+01 -0.2457265604777458E+01 -0.2454829695708985E+01 -0.2452387641631084E+01
 -0.2449939456891104E+01 -0.2447485155780932E+01 -0.2445024752537296E+01 -0.2442558261342059E+01 -0.2440085696322521E+01
 -0.2437607071551711E+01 -0.2435122401048681E+01 -0.2432631698778797E+01 -0.2430134978654024E+01 -0.2427632254533220E+01
 -0.2425123540222414E+01 -0.2422608849475093E+01 -0.2420088195992478E+01 -0.2417561593423811E+01 -0.2415029055366623E+01
 -0.2412490595367017E+01 -0.2409946226919933E+01 -0.2407395963469426E+01 -0.2404839818408933E+01 -0.2402277805081543E+01
 -0.2399709936780257E+01 -0.2397136226748257E+01 -0.2394556688179168E+01 -0.2391971334217317E+01 -0.2389380177957990E+01
 -0.2386783232447693E+01 -0.2384180510684403E+01 -0.2381572025617825E+01 -0.2378957790149645E+01 -0.2376337817133770E+01
 -0.2373712119376590E+01 -0.2371080709637216E+01 -0.2368443600627729E+01 -0.2365800805013417E+01 -0.2363152335413030E+01
 -0.2360498204399005E+01 -0.2357838424497714E+01 -0.2355173008189697E+01 -0.2352501967909901E+01 -0.2349825316047912E+01
 -0.2347143064948185E+01 -0.2344455226910278E+01 -0.2341761814189081E+01 -0.2339062838995039E+01 -0.2336358313494391E+01
 -0.2333648249809376E+01 -0.2330932660018472E+01 -0.2328211556156611E+01 -0.2325484950215402E+01 -0.2322752854143346E+01
 -0.2320015279846058E+01 -0.2317272239186479E+01 -0.2314523743985096E+01 -0.2311769806020150E+01 -0.2309010437027852E+01
 -0.2306245648702589E+01 -0.2303475452697140E+01 -0.2300699860622876E+01 -0.2297918884049974E+01 -0.2295132534507615E+01
 -0.2292340823484193E+01 -0.2289543762427518E+01 -0.2286741362745011E+01 -0.2283933635803914E+01 -0.2281120592931479E+01
 -0.2278302245415170E+01 -0.2275478604502858E+01 -0.2272649681403019E+01 -0.2269815487284925E+01 -0.2266976033278835E+01
 -0.2264131330476190E+01 -0.2261281389929799E+01 -0.2258426222654033E+01 -0.2255565839625006E+01 -0.2252700251780767E+01
 -0.2249829470021485E+01 -0.2246953505209629E+01 -0.2244072368170155E+01 -0.2241186069690686E+01 -0.2238294620521695E+01
 -0.2235398031376679E+01 -0.2232496312932343E+01 -0.2229589475828777E+01 -0.2226677530669630E+01 -0.2223760488022285E+01
 -0.2220838358418035E+01 -0.2217911152352256E+01 -0.2214978880284575E+01 -0.2212041552639048E+01 -0.2209099179804320E+01
 -0.2206151772133806E+01 -0.2203199339945849E+01 -0.2200241893523889E+01 -0.2197279443116631E+01 -0.2194311998938208E+01
 -0.2191339571168344E+01 -0.2188362169952522E+01 -0.2185379805402132E+01 -0.2182392487594653E+01 -0.2179400226573790E+01
 -0.2176403032349650E+01 -0.2173400914898890E+01 -0.2170393884164880E+01 -0.2167381950057854E+01 -0.2164365122455064E+01
 -0.2161343411200944E+01 -0.2158316826107249E+01 -0.2155285376953219E+01 -0.2152249073485722E+01 -0.2149207925419411E+01
 -0.2146161942436867E+01 -0.2143111134188752E+01 -0.2140055510293956E+01 -0.2136995080339742E+01 -0.2133929853881896E+01
 -0.2130859840444865E+01 -0.2127785049521906E+01 -0.2124705490575232E+01 -0.2121621173036148E+01 -0.2118532106305197E+01
 -0.2115438299752298E+01 -0.2112339762716890E+01 -0.2109236504508065E+01 -0.2106128534404714E+01 -0.2103015861655659E+01
 -0.2099898495479790E+01 -0.2096776445066201E+01 -0.2093649719574333E+01 -0.2090518328134090E+01 -0.2087382279845996E+01
 -0.2084241583781307E+01 -0.2081096248982158E+01 -0.2077946284461683E+01 -0.2074791699204151E+01 -0.2071632502165100E+01
 -0.2068468702271456E+01 -0.2065300308421669E+01 -0.2062127329485835E+01 -0.2058949774305829E+01 -0.2055767651695425E+01
 -0.2052580970440423E+01 -0.2049389739298778E+01 -0.2046193967000715E+01 -0.2042993662248864E+01 -0.2039788833718369E+01
 -0.2036579490057019E+01 -0.2033365639885368E+01 -0.2030147291796850E+01 -0.2026924454357907E+01 -0.2023697136108101E+01
 -0.2020465345560233E+01 -0.2017229091200465E+01 -0.2013988381488434E+01 -0.2010743224857368E+01 -0.2007493629714200E+01
 -0.2004239604439689E+01 -0.2000981157388529E+01 -0.1997718296889463E+01 -0.1994451031245400E+01 -0.1991179368733520E+01
 -0.1987903317605398E+01 -0.1984622886087099E+01 -0.1981338082379304E+01 -0.1978048914657410E+01 -0.1974755391071643E+01
 -0.1971457519747165E+01 -0.1968155308784186E+01 -0.1964848766258068E+01 -0.1961537900219429E+01 -0.1958222718694259E+01
 -0.1954903229684013E+01 -0.1951579441165730E+01 -0.1948251361092124E+01 -0.1944918997391699E+01 -0.1941582357968846E+01
 -0.1938241450703946E+01 -0.1934896283453477E+01 -0.1931546864050110E+01 -0.1928193200302813E+01 -0.1924835299996954E+01
 -0.1921473170894394E+01 -0.1918106820733597E+01 -0.1914736257229716E+01 -0.1911361488074702E+01 -0.1907982520937399E+01
 -0.1904599363463639E+01 -0.1901212023276341E+01 -0.1897820507975603E+01 -0.1894424825138809E+01 -0.1891024982320710E+01
 -0.1887620987053527E+01 -0.1884212846847046E+01 -0.1880800569188707E+01 -0.1877384161543701E+01 -0.1873963631355061E+01
 -0.1870538986043753E+01 -0.1867110233008771E+01 -0.1863677379627227E+01 -0.1860240433254440E+01 -0.1856799401224026E+01
 -0.1853354290847995E+01 -0.1849905109416829E+01 -0.1846451864199576E+01 -0.1842994562443945E+01 -0.1839533211376381E+01
 -0.1836067818202165E+01 -0.1832598390105488E+01 -0.1829124934249551E+01 -0.1825647457776643E+01 -0.1822165967808226E+01
 -0.1818680471445025E+01 -0.1815190975767107E+01 -0.1811697487833971E+01 -0.1808200014684628E+01 -0.1804698563337686E+01
 -0.1801193140791432E+01 -0.1797683754023914E+01 -0.1794170409993024E+01 -0.1790653115636581E+01 -0.1787131877872411E+01
 -0.1783606703598424E+01 -0.1780077599692701E+01 -0.1776544573013571E+01 -0.1773007630399688E+01 -0.1769466778670114E+01
 -0.1765922024624396E+01 -0.1762373375042644E+01 -0.1758820836685609E+01 -0.1755264416294762E+01 -0.1751704120592370E+01
 -0.1748139956281571E+01 -0.1744571930046453E+01 -0.1741000048552126E+01 -0.1737424318444807E+01 -0.1733844746351882E+01
 -0.1730261338881989E+01 -0.1726674102625091E+01 -0.1723083044152551E+01 -0.1719488170017201E+01 -0.1715889486753420E+01
 -0.1712287000877205E+01 -0.1708680718886245E+01 -0.1705070647259988E+01 -0.1701456792459723E+01 -0.1697839160928636E+01
 -0.1694217759091900E+01 -0.1690592593356728E+01 -0.1686963670112454E+01 -0.1683330995730599E+01 -0.1679694576564943E+01
 -0.1676054418951591E+01 -0.1672410529209046E+01 -0.1668762913638271E+01 -0.1665111578522766E+01 -0.1661456530128627E+01
 -0.1657797774704624E+01 -0.1654135318482255E+01 -0.1650469167675824E+01 -0.1646799328482503E+01 -0.1643125807082398E+01
 -0.1639448609638615E+01 -0.1635767742297326E+01 -0.1632083211187836E+01 -0.1628395022422644E+01 -0.1624703182097511E+01
 -0.1621007696291524E+01 -0.1617308571067154E+01 -0.1613605812470330E+01 -0.1609899426530494E+01 -0.1606189419260666E+01
 -0.1602475796657512E+01 -0.1598758564701396E+01 -0.1595037729356451E+01 -0.1591313296570636E+01 -0.1587585272275801E+01
 -0.1583853662387746E+01 -0.1580118472806279E+01 -0.1576379709415284E+01 -0.1572637378082775E+01 -0.1568891484660958E+01
 -0.1565142034986288E+01 -0.1561389034879535E+01 -0.1557632490145837E+01 -0.1553872406574763E+01 -0.1550108789940364E+01
 -0.1546341646001243E+01 -0.1542570980500603E+01 -0.1538796799166307E+01 -0.1535019107710943E+01 -0.1531237911831867E+01
 -0.1527453217211272E+01 -0.1523665029516241E+01 -0.1519873354398798E+01 -0.1516078197495974E+01 -0.1512279564429854E+01
 -0.1508477460807637E+01 -0.1504671892221688E+01 -0.1500862864249600E+01 -0.1497050382454239E+01 -0.1493234452383804E+01
 -0.1489415079571883E+01 -0.1485592269537499E+01 -0.1481766027785177E+01 -0.1477936359804983E+01 -0.1474103271072585E+01
 -0.1470266767049305E+01 -0.1466426853182173E+01 -0.1462583534903975E+01 -0.1458736817633306E+01 -0.1454886706774629E+01
 -0.1451033207718319E+01 -0.1447176325840714E+01 -0.1443316066504173E+01 -0.1439452435057120E+01 -0.1435585436834100E+01
 -0.1431715077155825E+01 -0.1427841361329228E+01 -0.1423964294647510E+01 -0.1420083882390193E+01 -0.1416200129823165E+01
 -0.1412313042198734E+01 -0.1408422624755673E+01 -0.1404528882719274E+01 -0.1400631821301392E+01 -0.1396731445700494E+01
 -0.1392827761101707E+01 -0.1388920772676872E+01 -0.1385010485584580E+01 -0.1381096904970233E+01 -0.1377180035966079E+01
 -0.1373259883691266E+01 -0.1369336453251892E+01 -0.1365409749741039E+01 -0.1361479778238834E+01 -0.1357546543812486E+01
 -0.1353610051516337E+01 -0.1349670306391901E+01 -0.1345727313467917E+01 -0.1341781077760392E+01 -0.1337831604272644E+01
 -0.1333878897995350E+01 -0.1329922963906588E+01 -0.1325963806971883E+01 -0.1322001432144252E+01 -0.1318035844364247E+01
 -0.1314067048559996E+01 -0.1310095049647256E+01 -0.1306119852529446E+01 -0.1302141462097697E+01 -0.1298159883230891E+01
 -0.1294175120795706E+01 -0.1290187179646662E+01 -0.1286196064626158E+01 -0.1282201780564513E+01 -0.1278204332280020E+01
 -0.1274203724578974E+01 -0.1270199962255717E+01 -0.1266193050092691E+01 -0.1262182992860462E+01 -0.1258169795317775E+01
 -0.1254153462211588E+01 -0.1250133998277116E+01 -0.1246111408237869E+01 -0.1242085696805694E+01 -0.1238056868680816E+01
 -0.1234024928551879E+01 -0.1229989881095981E+01 -0.1225951730978721E+01 -0.1221910482854233E+01 -0.1217866141365224E+01
 -0.1213818711143024E+01 -0.1209768196807612E+01 -0.1205714602967663E+01 -0.1201657934220582E+01 -0.1197598195152547E+01
 -0.1193535390338545E+01 -0.1189469524342411E+01 -0.1185400601716865E+01 -0.1181328627003547E+01 -0.1177253604733065E+01
 -0.1173175539425024E+01 -0.1169094435588060E+01 -0.1165010297719888E+01 -0.1160923130307332E+01 -0.1156832937826361E+01
 -0.1152739724742135E+01 -0.1148643495509025E+01 -0.1144544254570670E+01 -0.1140442006359992E+01 -0.1136336755299252E+01
 -0.1132228505800071E+01 -0.1128117262263471E+01 -0.1124003029079912E+01 -0.1119885810629333E+01 -0.1115765611281171E+01
 -0.1111642435394411E+01 -0.1107516287317615E+01 -0.1103387171388960E+01 -0.1099255091936270E+01 -0.1095120053277049E+01
 -0.1090982059718521E+01 -0.1086841115557658E+01 -0.1082697225081218E+01 -0.1078550392565783E+01 -0.1074400622277780E+01
 -0.1070247918473530E+01 -0.1066092285399269E+01 -0.1061933727291189E+01 -0.1057772248375471E+01 -0.1053607852868313E+01
 -0.1049440544975967E+01 -0.1045270328894770E+01 -0.1041097208811182E+01 -0.1036921188901811E+01 -0.1032742273333447E+01
 -0.1028560466263098E+01 -0.1024375771838022E+01 -0.1020188194195756E+01 -0.1015997737464147E+01 -0.1011804405761387E+01
 -0.1007608203196046E+01 -0.1003409133867096E+01 -0.9992072018639535E+00 -0.9950024112665002E+00 -0.9907947661451179E+00
 -0.9865842705607230E+00 -0.9823709285647922E+00 -0.9781547441993959E+00 -0.9739357214972295E+00 -0.9697138644816415E+00
 -0.9654891771666613E+00 -0.9612616635570427E+00 -0.9570313276482714E+00 -0.9527981734266173E+00 -0.9485622048691525E+00
 -0.9443234259437784E+00 -0.9400818406092692E+00 -0.9358374528152859E+00 -0.9315902665024114E+00 -0.9273402856021843E+00
 -0.9230875140371202E+00 -0.9188319557207468E+00 -0.9145736145576306E+00 -0.9103124944434046E+00 -0.9060485992647973E+00
 -0.9017819328996587E+00 -0.8975124992170014E+00 -0.8932403020770064E+00 -0.8889653453310724E+00 -0.8846876328218310E+00
 -0.8804071683831840E+00 -0.8761239558403205E+00 -0.8718379990097512E+00 -0.8675493016993372E+00 -0.8632578677083125E+00
 -0.8589637008273171E+00 -0.8546668048384168E+00 -0.8503671835151392E+00 -0.8460648406224943E+00 -0.8417597799170001E+00
 -0.8374520051467181E+00 -0.8331415200512701E+00 -0.8288283283618715E+00 -0.8245124338013531E+00 -0.8201938400841927E+00
 -0.8158725509165329E+00 -0.8115485699962208E+00 -0.8072219010128185E+00 -0.8028925476476380E+00 -0.7985605135737683E+00
 -0.7942258024560983E+00 -0.7898884179513382E+00 -0.7855483637080514E+00 -0.7812056433666776E+00 -0.7768602605595603E+00
 -0.7725122189109673E+00 -0.7681615220371198E+00 -0.7638081735462138E+00 -0.7594521770384489E+00 -0.7550935361060542E+00
 -0.7507322543333044E+00 -0.7463683352965533E+00 -0.7420017825642559E+00 -0.7376325996969928E+00 -0.7332607902474921E+00
 -0.7288863577606562E+00 -0.7245093057735835E+00 -0.7201296378155939E+00 -0.7157473574082585E+00 -0.7113624680654125E+00
 -0.7069749732931842E+00 -0.7025848765900217E+00 -0.6981921814467081E+00 -0.6937968913464004E+00 -0.6893990097646325E+00
 -0.6849985401693526E+00 -0.6805954860209443E+00 -0.6761898507722456E+00 -0.6717816378685759E+00 -0.6673708507477576E+00
 -0.6629574928401364E+00 -0.6585415675686059E+00 -0.6541230783486335E+00 -0.6497020285882822E+00 -0.6452784216882234E+00
 -0.6408522610417712E+00 -0.6364235500349018E+00 -0.6319922920462707E+00 -0.6275584904472417E+00 -0.6231221486019030E+00
 -0.6186832698670945E+00 -0.6142418575924220E+00 -0.6097979151202901E+00 -0.6053514457859138E+00 -0.6009024529173433E+00
 -0.5964509398354890E+00 -0.5919969098541373E+00 -0.5875403662799797E+00 -0.5830813124126215E+00 -0.5786197515446189E+00
 -0.5741556869614842E+00 -0.5696891219417226E+00 -0.5652200597568360E+00 -0.5607485036713630E+00 -0.5562744569428806E+00
 -0.5517979228220379E+00 -0.5473189045525741E+00 -0.5428374053713360E+00 -0.5383534285083017E+00 -0.5338669771865950E+00
 -0.5293780546225169E+00 -0.5248866640255544E+00 -0.5203928085984074E+00 -0.5158964915370057E+00 -0.5113977160305315E+00
 -0.5068964852614357E+00 -0.5023928024054641E+00 -0.4978866706316693E+00 -0.4933780931024340E+00 -0.4888670729734931E+00
 -0.4843536133939529E+00 -0.4798377175063042E+00 -0.4753193884464469E+00 -0.4707986293437129E+00 -0.4662754433208727E+00
 -0.4617498334941744E+00 -0.4572218029733420E+00 -0.4526913548616074E+00 -0.4481584922557277E+00 -0.4436232182459962E+00
 -0.4390855359162749E+00 -0.4345454483440019E+00 -0.4300029586002120E+00 -0.4254580697495591E+00 -0.4209107848503357E+00
 -0.4163611069544829E+00 -0.4118090391076181E+00 -0.4072545843490506E+00 -0.4026977457117925E+00 -0.3981385262225920E+00
 -0.3935769289019376E+00 -0.3890129567640821E+00 -0.3844466128170603E+00 -0.3798779000627064E+00 -0.3753068214966757E+00
 -0.3707333801084521E+00 -0.3661575788813777E+00 -0.3615794207926610E+00 -0.3569989088134050E+00 -0.3524160459086132E+00
 -0.3478308350372146E+00 -0.3432432791520781E+00 -0.3386533812000305E+00 -0.3340611441218734E+00 -0.3294665708524061E+00
 -0.3248696643204314E+00 -0.3202704274487812E+00 -0.3156688631543311E+00 -0.3110649743480183E+00 -0.3064587639348571E+00
 -0.3018502348139574E+00 -0.2972393898785402E+00 -0.2926262320159508E+00 -0.2880107641076861E+00 -0.2833929890293997E+00
 -0.2787729096509249E+00 -0.2741505288362881E+00 -0.2695258494437278E+00 -0.2648988743257082E+00 -0.2602696063289408E+00
 -0.2556380482943909E+00 -0.2510042030573041E+00 -0.2463680734472158E+00 -0.2417296622879732E+00 -0.2370889723977438E+00
 -0.2324460065890343E+00 -0.2278007676687109E+00 -0.2231532584380100E+00 -0.2185034816925579E+00 -0.2138514402223782E+00
 -0.2091971368119205E+00 -0.2045405742400623E+00 -0.1998817552801379E+00 -0.1952206826999419E+00 -0.1905573592617527E+00
 -0.1858917877223442E+00 -0.1812239708330023E+00 -0.1765539113395420E+00 -0.1718816119823140E+00 -0.1672070754962366E+00
 -0.1625303046107885E+00 -0.1578513020500479E+00 -0.1531700705326884E+00 -0.1484866127720035E+00 -0.1438009314759172E+00
 -0.1391130293470018E+00 -0.1344229090824951E+00 -0.1297305733743065E+00 -0.1250360249090398E+00 -0.1203392663680035E+00
 -0.1156403004272269E+00 -0.1109391297574770E+00 -0.1062357570242682E+00 -0.1015301848878787E+00 -0.9682241600336786E-01
 -0.9211245302058325E-01 -0.8740029858418484E-01 -0.8268595533365332E-01 -0.7796942590329793E-01 -0.7325071292228688E-01
 -0.6852981901464632E-01 -0.6380674679928361E-01 -0.5908149888999515E-01 -0.5435407789548310E-01 -0.4962448641937044E-01
 -0.4489272706021303E-01 -0.4015880241151503E-01 -0.3542271506173966E-01 -0.3068446759432584E-01 -0.2594406258769851E-01
 -0.2120150261528903E-01 -0.1645679024553829E-01 -0.1170992804192179E-01 -0.6960918562951376E-02 -0.2209764362199043E-02
  0.2543532011694058E-02  0.7298968015007089E-02  0.1205654110892412E-01  0.1681624875951810E-01  0.2157808843774009E-01
  0.2634205761940539E-01  0.3110815378518328E-01  0.3587637442058354E-01  0.4064671701593455E-01  0.4541917906638578E-01
  0.5019375807188112E-01  0.5497045153715491E-01  0.5974925697171263E-01  0.6453017188982554E-01  0.6931319381050845E-01
  0.7409832025751466E-01  0.7888554875932284E-01  0.8367487684912037E-01  0.8846630206479740E-01  0.9325982194891856E-01
  0.9805543404873655E-01  0.1028531359161520E+00  0.1076529251077257E+00  0.1124547991846461E+00  0.1172587557127260E+00
  0.1220647922623966E+00  0.1268729064086838E+00  0.1316830957312008E+00  0.1364953578141354E+00  0.1413096902462430E+00
  0.1461260906208234E+00  0.1509445565357216E+00  0.1557650855933054E+00  0.1605876754004602E+00  0.1654123235685730E+00
  0.1702390277135243E+00  0.1750677854556736E+00  0.1798985944198487E+00  0.1847314522353294E+00  0.1895663565358462E+00
  0.1944033049595592E+00  0.1992422951490500E+00  0.2040833247513113E+00  0.2089263914177292E+00  0.2137714928040852E+00
  0.2186186265705277E+00  0.2234677903815739E+00  0.2283189819060875E+00  0.2331721988172834E+00  0.2380274387926969E+00
  0.2428846995141848E+00  0.2477439786679168E+00  0.2526052739443496E+00  0.2574685830382302E+00  0.2623339036485755E+00
  0.2672012334786750E+00  0.2720705702360595E+00  0.2769419116325036E+00  0.2818152553840125E+00  0.2866905992108112E+00
  0.2915679408373360E+00  0.2964472779922105E+00  0.3013286084082499E+00  0.3062119298224514E+00  0.3110972399759667E+00
  0.3159845366141108E+00  0.3208738174863329E+00  0.3257650803462203E+00  0.3306583229514858E+00  0.3355535430639462E+00
  0.3404507384495254E+00  0.3453499068782346E+00  0.3502510461241682E+00  0.3551541539654867E+00  0.3600592281844142E+00
  0.3649662665672183E+00  0.3698752669042117E+00  0.3747862269897304E+00  0.3796991446221302E+00  0.3846140176037762E+00
  0.3895308437410286E+00  0.3944496208442382E+00  0.3993703467277288E+00  0.4042930192097960E+00  0.4092176361126912E+00
  0.4141441952626129E+00  0.4190726944896956E+00  0.4240031316280044E+00  0.4289355045155167E+00  0.4338698109941221E+00
  0.4388060489096048E+00  0.4437442161116382E+00  0.4486843104537733E+00  0.4536263297934315E+00  0.4585702719918878E+00
  0.4635161349142697E+00  0.4684639164295406E+00  0.4734136144105007E+00  0.4783652267337598E+00  0.4833187512797475E+00
  0.4882741859326847E+00  0.4932315285805926E+00  0.4981907771152672E+00  0.5031519294322836E+00  0.5081149834309695E+00
  0.5130799370144149E+00  0.5180467880894524E+00  0.5230155345666461E+00  0.5279861743602892E+00  0.5329587053883865E+00
  0.5379331255726565E+00  0.5429094328385050E+00  0.5478876251150383E+00  0.5528677003350339E+00  0.5578496564349408E+00
  0.5628334913548724E+00  0.5678192030385888E+00  0.5728067894335029E+00  0.5777962484906469E+00  0.5827875781646885E+00
  0.5877807764139098E+00  0.5927758412001999E+00  0.5977727704890423E+00  0.6027715622495141E+00  0.6077722144542734E+00
  0.6127747250795462E+00  0.6177790921051211E+00  0.6227853135143473E+00  0.6277933872941133E+00  0.6328033114348439E+00
  0.6378150839304983E+00  0.6428287027785500E+00  0.6478441659799800E+00  0.6528614715392786E+00  0.6578806174644271E+00
  0.6629016017668921E+00  0.6679244224616150E+00  0.6729490775670018E+00  0.6779755651049307E+00  0.6830038831007167E+00
  0.6880340295831244E+00  0.6930660025843587E+00  0.6980998001400327E+00  0.7031354202891982E+00  0.7081728610743029E+00
  0.7132121205411971E+00  0.7182531967391298E+00  0.7232960877207296E+00  0.7283407915420005E+00  0.7333873062623186E+00
  0.7384356299444226E+00  0.7434857606543940E+00  0.7485376964616626E+00  0.7535914354389990E+00  0.7586469756624945E+00
  0.7637043152115671E+00  0.7687634521689358E+00  0.7738243846206350E+00  0.7788871106559873E+00  0.7839516283676049E+00
  0.7890179358513871E+00  0.7940860312064941E+00  0.7991559125353532E+00  0.8042275779436557E+00  0.8093010255403335E+00
  0.8143762534375628E+00  0.8194532597507503E+00  0.8245320425985314E+00  0.8296126001027582E+00  0.8346949303884925E+00
  0.8397790315839984E+00  0.8448649018207329E+00  0.8499525392333404E+00  0.8550419419596512E+00  0.8601331081406608E+00
  0.8652260359205266E+00  0.8703207234465720E+00  0.8754171688692615E+00  0.8805153703422081E+00  0.8856153260221558E+00
  0.8907170340689723E+00  0.8958204926456502E+00  0.9009256999182945E+00  0.9060326540561099E+00  0.9111413532314069E+00
  0.9162517956195743E+00  0.9213639793990974E+00  0.9264779027515277E+00  0.9315935638614876E+00  0.9367109609166602E+00
  0.9418300921077861E+00  0.9469509556286453E+00  0.9520735496760683E+00  0.9571978724499106E+00  0.9623239221530491E+00
  0.9674516969913903E+00  0.9725811951738436E+00  0.9777124149123255E+00  0.9828453544217511E+00  0.9879800119200154E+00
  0.9931163856280127E+00  0.9982544737696036E+00  0.1003394274571614E+01  0.1008535786263849E+01  0.1013679007079047E+01
  0.1018823935252912E+01  0.1023970569024081E+01  0.1029118906634127E+01  0.1034268946327555E+01  0.1039420686351784E+01
  0.1044574124957156E+01  0.1049729260396912E+01  0.1054886090927201E+01  0.1060044614807063E+01  0.1065204830298423E+01
  0.1070366735666088E+01  0.1075530329177744E+01  0.1080695609103940E+01  0.1085862573718084E+01  0.1091031221296445E+01
  0.1096201550118130E+01  0.1101373558465100E+01  0.1106547244622133E+01  0.1111722606876849E+01  0.1116899643519690E+01
  0.1122078352843902E+01  0.1127258733145548E+01  0.1132440782723491E+01  0.1137624499879389E+01  0.1142809882917691E+01
  0.1147996930145627E+01  0.1153185639873203E+01  0.1158376010413198E+01  0.1163568040081151E+01  0.1168761727195362E+01
  0.1173957070076878E+01  0.1179154067049497E+01  0.1184352716439749E+01  0.1189553016576899E+01  0.1194754965792942E+01
  0.1199958562422588E+01  0.1205163804803259E+01  0.1210370691275092E+01  0.1215579220180920E+01  0.1220789389866270E+01
  0.1226001198679364E+01  0.1231214644971098E+01  0.1236429727095060E+01  0.1241646443407493E+01  0.1246864792267313E+01
  0.1252084772036094E+01  0.1257306381078062E+01  0.1262529617760089E+01  0.1267754480451687E+01  0.1272980967525012E+01
  0.1278209077354834E+01  0.1283438808318560E+01  0.1288670158796203E+01  0.1293903127170396E+01  0.1299137711826370E+01
  0.1304373911151964E+01  0.1309611723537602E+01  0.1314851147376298E+01  0.1320092181063659E+01  0.1325334822997850E+01
  0.1330579071579616E+01  0.1335824925212271E+01  0.1341072382301681E+01  0.1346321441256267E+01  0.1351572100487002E+01
  0.1356824358407390E+01  0.1362078213433485E+01  0.1367333663983863E+01  0.1372590708479623E+01  0.1377849345344393E+01
  0.1383109573004304E+01  0.1388371389888003E+01  0.1393634794426635E+01  0.1398899785053844E+01  0.1404166360205765E+01
  0.1409434518321018E+01  0.1414704257840704E+01  0.1419975577208399E+01  0.1425248474870149E+01  0.1430522949274463E+01
  0.1435798998872310E+01  0.1441076622117107E+01  0.1446355817464727E+01  0.1451636583373481E+01  0.1456918918304110E+01
  0.1462202820719799E+01  0.1467488289086151E+01  0.1472775321871193E+01  0.1478063917545368E+01  0.1483354074581523E+01
  0.1488645791454918E+01  0.1493939066643205E+01  0.1499233898626438E+01  0.1504530285887055E+01  0.1509828226909878E+01
  0.1515127720182111E+01  0.1520428764193325E+01  0.1525731357435467E+01  0.1531035498402840E+01  0.1536341185592111E+01
  0.1541648417502291E+01  0.1546957192634751E+01  0.1552267509493193E+01  0.1557579366583663E+01  0.1562892762414534E+01
  0.1568207695496513E+01  0.1573524164342623E+01  0.1578842167468208E+01  0.1584161703390920E+01  0.1589482770630721E+01
  0.1594805367709875E+01  0.1600129493152943E+01  0.1605455145486776E+01  0.1610782323240510E+01  0.1616111024945571E+01
  0.1621441249135658E+01  0.1626772994346738E+01  0.1632106259117050E+01  0.1637441041987094E+01  0.1642777341499629E+01
  0.1648115156199665E+01  0.1653454484634460E+01  0.1658795325353516E+01  0.1664137676908573E+01  0.1669481537853600E+01
  0.1674826906744803E+01  0.1680173782140601E+01  0.1685522162601646E+01  0.1690872046690787E+01  0.1696223432973097E+01
  0.1701576320015849E+01  0.1706930706388510E+01  0.1712286590662752E+01  0.1717643971412432E+01  0.1723002847213588E+01
  0.1728363216644456E+01  0.1733725078285429E+01  0.1739088430719080E+01  0.1744453272530154E+01  0.1749819602305553E+01
  0.1755187418634337E+01  0.1760556720107723E+01  0.1765927505319071E+01  0.1771299772863890E+01  0.1776673521339831E+01
  0.1782048749346672E+01  0.1787425455486333E+01  0.1792803638362843E+01  0.1798183296582373E+01  0.1803564428753201E+01
  0.1808947033485707E+01  0.1814331109392402E+01  0.1819716655087883E+01  0.1825103669188854E+01  0.1830492150314113E+01
  0.1835882097084540E+01  0.1841273508123118E+01  0.1846666382054899E+01  0.1852060717507009E+01  0.1857456513108660E+01
  0.1862853767491123E+01  0.1868252479287733E+01  0.1873652647133890E+01  0.1879054269667047E+01  0.1884457345526707E+01
  0.1889861873354419E+01  0.1895267851793777E+01  0.1900675279490413E+01  0.1906084155091995E+01  0.1911494477248211E+01
  0.1916906244610789E+01  0.1922319455833465E+01  0.1927734109571999E+01  0.1933150204484168E+01  0.1938567739229744E+01
  0.1943986712470517E+01  0.1949407122870271E+01  0.1954828969094784E+01  0.1960252249811834E+01  0.1965676963691174E+01
  0.1971103109404555E+01  0.1976530685625698E+01  0.1981959691030302E+01  0.1987390124296039E+01  0.1992821984102541E+01
  0.1998255269131412E+01  0.2003689978066214E+01  0.2009126109592460E+01  0.2014563662397614E+01  0.2020002635171091E+01
  0.2025443026604242E+01  0.2030884835390365E+01  0.2036328060224690E+01  0.2041772699804373E+01  0.2047218752828504E+01
  0.2052666217998089E+01  0.2058115094016062E+01  0.2063565379587264E+01  0.2069017073418449E+01  0.2074470174218280E+01
  0.2079924680697319E+01  0.2085380591568031E+01  0.2090837905544781E+01  0.2096296621343812E+01  0.2101756737683272E+01
  0.2107218253283176E+01  0.2112681166865429E+01  0.2118145477153811E+01  0.2123611182873970E+01  0.2129078282753429E+01
  0.2134546775521568E+01  0.2140016659909632E+01  0.2145487934650727E+01  0.2150960598479799E+01  0.2156434650133657E+01
  0.2161910088350952E+01  0.2167386911872173E+01  0.2172865119439649E+01  0.2178344709797547E+01  0.2183825681691858E+01
  0.2189308033870408E+01  0.2194791765082837E+01  0.2200276874080610E+01  0.2205763359617009E+01  0.2211251220447126E+01
  0.2216740455327862E+01  0.2222231063017921E+01  0.2227723042277808E+01  0.2233216391869832E+01  0.2238711110558091E+01
  0.2244207197108467E+01  0.2249704650288640E+01  0.2255203468868066E+01  0.2260703651617985E+01  0.2266205197311409E+01
  0.2271708104723124E+01  0.2277212372629684E+01  0.2282717999809406E+01  0.2288224985042376E+01  0.2293733327110434E+01
  0.2299243024797164E+01  0.2304754076887922E+01  0.2310266482169796E+01  0.2315780239431619E+01  0.2321295347463974E+01
  0.2326811805059168E+01  0.2332329611011256E+01  0.2337848764116009E+01  0.2343369263170936E+01  0.2348891106975263E+01
  0.2354414294329934E+01  0.2359938824037612E+01  0.2365464694902678E+01  0.2370991905731214E+01  0.2376520455331015E+01
  0.2382050342511572E+01  0.2387581566084077E+01  0.2393114124861426E+01  0.2398648017658195E+01  0.2404183243290659E+01
  0.2409719800576772E+01  0.2415257688336175E+01  0.2420796905390189E+01  0.2426337450561805E+01  0.2431879322675688E+01
  0.2437422520558178E+01  0.2442967043037278E+01  0.2448512888942646E+01  0.2454060057105613E+01  0.2459608546359152E+01
  0.2465158355537900E+01  0.2470709483478140E+01  0.2476261929017797E+01  0.2481815690996443E+01  0.2487370768255284E+01
  0.2492927159637177E+01  0.2498484863986596E+01  0.2504043880149656E+01  0.2509604206974092E+01  0.2515165843309262E+01
  0.2520728788006150E+01  0.2526293039917360E+01  0.2531858597897100E+01  0.2537425460801194E+01  0.2542993627487077E+01
  0.2548563096813784E+01  0.2554133867641951E+01  0.2559705938833820E+01  0.2565279309253218E+01  0.2570853977765569E+01
  0.2576429943237890E+01  0.2582007204538778E+01  0.2587585760538414E+01  0.2593165610108560E+01  0.2598746752122553E+01
  0.2604329185455311E+01  0.2609912908983308E+01  0.2615497921584599E+01  0.2621084222138796E+01  0.2626671809527081E+01
  0.2632260682632182E+01  0.2637850840338391E+01  0.2643442281531547E+01  0.2649035005099048E+01  0.2654629009929824E+01
  0.2660224294914363E+01  0.2665820858944682E+01  0.2671418700914342E+01  0.2677017819718434E+01  0.2682618214253582E+01
  0.2688219883417948E+01  0.2693822826111197E+01  0.2699427041234541E+01  0.2705032527690696E+01  0.2710639284383900E+01
  0.2716247310219910E+01  0.2721856604105983E+01  0.2727467164950884E+01  0.2733078991664903E+01  0.2738692083159806E+01
  0.2744306438348872E+01  0.2749922056146879E+01  0.2755538935470090E+01  0.2761157075236266E+01  0.2766776474364649E+01
  0.2772397131775973E+01  0.2778019046392451E+01  0.2783642217137770E+01  0.2789266642937104E+01  0.2794892322717095E+01
  0.2800519255405849E+01  0.2806147439932959E+01  0.2811776875229465E+01  0.2817407560227872E+01  0.2823039493862159E+01
  0.2828672675067743E+01  0.2834307102781508E+01  0.2839942775941780E+01  0.2845579693488344E+01  0.2851217854362426E+01
  0.2856857257506694E+01  0.2862497901865250E+01  0.2868139786383649E+01  0.2873782910008868E+01  0.2879427271689325E+01
  0.2885072870374859E+01  0.2890719705016738E+01  0.2896367774567664E+01  0.2902017077981747E+01  0.2907667614214520E+01
  0.2913319382222935E+01  0.2918972380965353E+01  0.2924626609401553E+01  0.2930282066492717E+01  0.2935938751201425E+01
  0.2941596662491674E+01  0.2947255799328852E+01  0.2952916160679743E+01  0.2958577745512538E+01  0.2964240552796806E+01
  0.2969904581503509E+01  0.2975569830605001E+01  0.2981236299075019E+01  0.2986903985888680E+01  0.2992572890022476E+01
  0.2998243010454283E+01  0.3003914346163348E+01  0.3009586896130289E+01  0.3015260659337095E+01  0.3020935634767114E+01
  0.3026611821405071E+01  0.3032289218237040E+01  0.3037967824250456E+01  0.3043647638434119E+01  0.3049328659778169E+01
  0.3055010887274105E+01  0.3060694319914775E+01  0.3066378956694376E+01  0.3072064796608437E+01  0.3077751838653840E+01
  0.3083440081828798E+01  0.3089129525132863E+01  0.3094820167566919E+01  0.3100512008133184E+01  0.3106205045835203E+01
  0.3111899279677848E+01  0.3117594708667314E+01  0.3123291331811116E+01  0.3128989148118086E+01  0.3134688156598384E+01
  0.3140388356263468E+01  0.3146089746126115E+01  0.3151792325200415E+01  0.3157496092501759E+01  0.3163201047046840E+01
  0.3168907187853662E+01  0.3174614513941520E+01  0.3180323024331013E+01  0.3186032718044027E+01  0.3191743594103745E+01
  0.3197455651534642E+01  0.3203168889362471E+01  0.3208883306614285E+01  0.3214598902318407E+01  0.3220315675504447E+01
  0.3226033625203292E+01  0.3231752750447098E+01  0.3237473050269306E+01  0.3243194523704626E+01  0.3248917169789026E+01
  0.3254640987559750E+01  0.3260365976055306E+01  0.3266092134315459E+01  0.3271819461381237E+01  0.3277547956294928E+01
  0.3283277618100068E+01  0.3289008445841451E+01  0.3294740438565117E+01  0.3300473595318355E+01  0.3306207915149712E+01
  0.3311943397108950E+01  0.3317680040247106E+01  0.3323417843616432E+01  0.3329156806270428E+01  0.3334896927263827E+01
  0.3340638205652586E+01  0.3346380640493904E+01  0.3352124230846204E+01  0.3357868975769127E+01  0.3363614874323551E+01
  0.3369361925571562E+01  0.3375110128576471E+01  0.3380859482402808E+01  0.3386609986116314E+01  0.3392361638783941E+01
  0.3398114439473857E+01  0.3403868387255427E+01  0.3409623481199239E+01  0.3415379720377070E+01  0.3421137103861899E+01
  0.3426895630727916E+01  0.3432655300050495E+01  0.3438416110906213E+01  0.3444178062372838E+01  0.3449941153529325E+01
  0.3455705383455823E+01  0.3461470751233663E+01  0.3467237255945361E+01  0.3473004896674622E+01  0.3478773672506318E+01
  0.3484543582526511E+01  0.3490314625822432E+01  0.3496086801482487E+01  0.3501860108596258E+01  0.3507634546254486E+01
  0.3513410113549094E+01  0.3519186809573159E+01  0.3524964633420923E+01  0.3530743584187789E+01  0.3536523660970329E+01
  0.3542304862866257E+01  0.3548087188974448E+01  0.3553870638394937E+01  0.3559655210228902E+01  0.3565440903578668E+01
  0.3571227717547710E+01  0.3577015651240649E+01  0.3582804703763251E+01  0.3588594874222414E+01  0.3594386161726185E+01
  0.3600178565383740E+01  0.3605972084305387E+01  0.3611766717602583E+01  0.3617562464387893E+01  0.3623359323775027E+01
  0.3629157294878817E+01  0.3634956376815217E+01  0.3640756568701308E+01  0.3646557869655282E+01  0.3652360278796468E+01
  0.3658163795245291E+01  0.3663968418123305E+01  0.3669774146553170E+01  0.3675580979658660E+01  0.3681388916564653E+01
  0.3687197956397140E+01  0.3693008098283217E+01  0.3698819341351074E+01  0.3704631684730012E+01  0.3710445127550424E+01
  0.3716259668943807E+01  0.3722075308042748E+01  0.3727892043980926E+01  0.3733709875893124E+01  0.3739528802915193E+01
  0.3745348824184089E+01  0.3751169938837847E+01  0.3756992146015586E+01  0.3762815444857509E+01  0.3768639834504899E+01
  0.3774465314100111E+01  0.3780291882786583E+01  0.3786119539708828E+01  0.3791948284012427E+01  0.3797778114844027E+01
  0.3803609031351360E+01  0.3809441032683210E+01  0.3815274117989429E+01  0.3821108286420937E+01  0.3826943537129710E+01
  0.3832779869268788E+01  0.3838617281992261E+01  0.3844455774455289E+01  0.3850295345814071E+01  0.3856135995225864E+01
  0.3861977721848973E+01  0.3867820524842758E+01  0.3873664403367623E+01  0.3879509356585009E+01  0.3885355383657411E+01
  0.3891202483748359E+01  0.3897050656022426E+01  0.3902899899645218E+01  0.3908750213783376E+01  0.3914601597604582E+01
  0.2578844276293752E+02  0.2578844276293752E+02  0.2578844276293752E+02  0.2578844276293752E+02  0.2578844276293752E+02
  0.2578844276293752E+02  0.2578844276293752E+02  0.2578844276293752E+02  0.2578844276293752E+02  0.2578844276293752E+02
  0.2578844276293752E+02  0.2578844276293752E+02  0.2578844276293752E+02  0.2578844276293752E+02  0.2578844276293752E+02
  0.2578844276293752E+02  0.2578844276293752E+02  0.2578844276293752E+02  0.2578844276293752E+02  0.2578844276293752E+02
  0.2578844276293752E+02  0.2578844276293752E+02  0.2578844276293752E+02  0.2578844276293752E+02  0.2578844276293752E+02
  0.2578844276293752E+02  0.2578844276293752E+02  0.2578844276293752E+02  0.2578844276293752E+02  0.2578844276293752E+02
  0.2578844276293752E+02  0.2578844276293752E+02  0.2578844276293752E+02  0.2578844276293752E+02  0.2578844276293752E+02
  0.2578844276293752E+02  0.2578844276293752E+02  0.2578844276293752E+02  0.2578844276293752E+02  0.2578844276293752E+02
  0.2578844276293752E+02  0.2578844276293752E+02  0.2578844276293752E+02  0.2578844276293752E+02  0.2578844276293752E+02
  0.2578844276293752E+02  0.2578844276293752E+02  0.2578844276293752E+02  0.2578844276293752E+02  0.2578844276293752E+02
  0.2578844276293752E+02  0.2578844276293752E+02  0.2578844276293752E+02  0.2578844276293752E+02  0.2578844276293752E+02
  0.2578844276293752E+02  0.2578844276293752E+02  0.2578844276293752E+02  0.2578844276293752E+02  0.2578844276293752E+02
  0.2578844276293752E+02  0.2578844276293752E+02  0.2578844276293752E+02  0.2578844276293752E+02  0.2578844276293752E+02
  0.2578844276293752E+02  0.2578844276293752E+02  0.2578844276293752E+02  0.2578844276293752E+02  0.2578844276293752E+02
  0.2578844276293752E+02  0.2578844276293752E+02  0.2578844276293752E+02  0.2578844276293752E+02  0.2578844276293752E+02
  0.2578844276293752E+02  0.2578844276293752E+02  0.2578844276293752E+02  0.2578844276293752E+02  0.2578844276293752E+02
  0.2578844276293752E+02  0.2578844276293752E+02  0.2578844276293752E+02  0.2578844276293752E+02  0.2578844276293752E+02
  0.2578844276293752E+02  0.2578844276293752E+02  0.2578844276293752E+02  0.2578844276293752E+02  0.2578844276293752E+02
  0.2578844276293752E+02  0.2578844276293752E+02  0.2578844276293752E+02  0.2578844276293752E+02  0.2578844276293752E+02
  0.2578844276293752E+02  0.2578844276293752E+02  0.2578844276293752E+02  0.2578844276293752E+02  0.2578844276293752E+02
  0.2578844276293752E+02  0.2578844276293752E+02  0.2578844276293752E+02  0.2578844276293752E+02  0.2578844276293752E+02
  0.2578844276293752E+02  0.2578844276293752E+02  0.2578844276293752E+02  0.2578844276293752E+02  0.2578844276293752E+02
  0.2578844276293752E+02  0.2578844276293752E+02  0.2578844276293752E+02  0.2578844276293752E+02  0.2578844276293752E+02
  0.2578844276293752E+02  0.2578844276293752E+02  0.2578844276293752E+02  0.2578844276293752E+02  0.2578844276293752E+02
  0.2578844276293752E+02  0.2578844276293752E+02  0.2578844276293752E+02  0.2578844276293752E+02  0.2578844276293752E+02
  0.2578844276293752E+02  0.2578844276293752E+02  0.2578844276293752E+02  0.2578844276293752E+02  0.2578844276293752E+02
  0.2578844276293752E+02  0.2578844276293752E+02  0.2578844276293752E+02  0.2578844276293752E+02  0.2578844276293752E+02
  0.2578844276293752E+02  0.2578844276293752E+02  0.2578844276293752E+02  0.2578844276293752E+02  0.2578844276293752E+02
  0.2578844276293752E+02  0.2578844276293752E+02  0.2578844276293752E+02  0.2578844276293752E+02  0.2578844276293752E+02
  0.2578844276293752E+02  0.2578844276293752E+02  0.2578844276293752E+02  0.2578844276293752E+02  0.2578844276293752E+02
  0.2578844276293752E+02  0.2578844276293752E+02  0.2578844276293752E+02  0.2578844276293752E+02  0.2578844276293752E+02
  0.2578844276293752E+02  0.2578844276293752E+02  0.2569462954036568E+02  0.2559347672787020E+02  0.2549272139385769E+02
  0.2539236200413482E+02  0.2529239702942677E+02  0.2519282494539679E+02  0.2509364423266448E+02  0.2499485337682270E+02
  0.2489645086845317E+02  0.2479843520314090E+02  0.2470080488148743E+02  0.2460355840912286E+02  0.2450669429671683E+02
  0.2441021105998832E+02  0.2431410721971459E+02  0.2421838130173900E+02  0.2412303183697782E+02  0.2402805736142624E+02
  0.2393345641616339E+02  0.2383922754735653E+02  0.2374536930626439E+02  0.2365188024923964E+02  0.2355875893773079E+02
  0.2346600393828304E+02  0.2337361382253865E+02  0.2328158716723654E+02  0.2318992255421110E+02  0.2309861857039059E+02
  0.2300767380779469E+02  0.2291708686353159E+02  0.2282685633979442E+02  0.2273698084385721E+02  0.2264745898807023E+02
  0.2255828938985482E+02  0.2246947067169785E+02  0.2238100146114552E+02  0.2229288039079681E+02  0.2220510609829648E+02
  0.2211767722632768E+02  0.2203059242260402E+02  0.2194385033986139E+02  0.2185744963584940E+02  0.2177138897332230E+02
  0.2168566702002980E+02  0.2160028244870736E+02  0.2151523393706622E+02  0.2143052016778321E+02  0.2134613982849009E+02
  0.2126209161176285E+02  0.2117837421511051E+02  0.2109498634096381E+02  0.2101192669666360E+02  0.2092919399444902E+02
  0.2084678695144547E+02  0.2076470428965227E+02  0.2068294473593028E+02  0.2060150702198916E+02  0.2052038988437457E+02
  0.2043959206445514E+02  0.2035911230840929E+02  0.2027894936721184E+02  0.2019910199662054E+02  0.2011956895716241E+02
  0.2004034901411999E+02  0.1996144093751740E+02  0.1988284350210634E+02  0.1980455548735186E+02  0.1972657567741825E+02
  0.1964890286115455E+02  0.1957153583208015E+02  0.1949447338837024E+02  0.1941771433284116E+02  0.1934125747293573E+02
  0.1926510162070843E+02  0.1918924559281053E+02  0.1911368821047521E+02  0.1903842829950255E+02  0.1896346469024448E+02
  0.1888879621758975E+02  0.1881442172094871E+02  0.1874034004423818E+02  0.1866655003586625E+02  0.1859305054871696E+02
  0.1851984044013508E+02  0.1844691857191073E+02  0.1837428381026407E+02  0.1830193502582995E+02  0.1822987109364252E+02
  0.1815809089311978E+02  0.1808659330804825E+02  0.1801537722656749E+02  0.1794444154115466E+02  0.1787378514860914E+02
  0.1780340695003703E+02  0.1773330585083575E+02  0.1766348076067858E+02  0.1759393059349924E+02  0.1752465426747646E+02
  0.1745565070501853E+02  0.1738691883274793E+02  0.1731845758148590E+02  0.1725026588623711E+02  0.1718234268617418E+02
  0.1711468692462246E+02  0.1704729754904459E+02  0.1698017351102526E+02  0.1691331376625585E+02  0.1684671727451923E+02
  0.1678038299967443E+02  0.1671430990964150E+02  0.1664849697638627E+02  0.1658294317590522E+02  0.1651764748821031E+02
  0.1645260889731384E+02  0.1638782639121347E+02  0.1632329896187709E+02  0.1625902560522787E+02  0.1619500532112921E+02
  0.1613123711336985E+02  0.1606771998964898E+02  0.1600445296156133E+02  0.1594143504458232E+02  0.1587866525805331E+02
  0.1581614262516682E+02  0.1575386617295180E+02  0.1569183493225897E+02  0.1563004793774619E+02  0.1556850422786381E+02
  0.1550720284484015E+02  0.1544614283466699E+02  0.1538532324708508E+02  0.1532474313556970E+02  0.1526440155731631E+02
  0.1520429757322614E+02  0.1514443024789195E+02  0.1508479864958374E+02  0.1502540185023457E+02  0.1496623892542630E+02
  0.1490730895437561E+02  0.1484861101991979E+02  0.1479014420850280E+02  0.1473190761016120E+02  0.1467390031851026E+02
  0.1461612143073008E+02  0.1455857004755171E+02  0.1450124527324334E+02  0.1444414621559656E+02  0.1438727198591265E+02
  0.1433062169898890E+02  0.1427419447310506E+02  0.1421798943000964E+02  0.1416200569490654E+02  0.1410624239644146E+02
  0.1405069866668853E+02  0.1399537364113694E+02  0.1394026645867754E+02  0.1388537626158963E+02  0.1383070219552768E+02
  0.1377624340950817E+02  0.1372199905589640E+02  0.1366796829039344E+02  0.1361415027202307E+02  0.1356054416311876E+02
  0.1350714912931076E+02  0.1345396433951313E+02  0.1340098896591097E+02  0.1334822218394751E+02  0.1329566317231140E+02
  0.1324331111292402E+02  0.1319116519092677E+02  0.1313922459466846E+02  0.1308748851569270E+02  0.1303595614872545E+02
  0.1298462669166247E+02  0.1293349934555693E+02  0.1288257331460698E+02  0.1283184780614345E+02  0.1278132203061754E+02
  0.1273099520158856E+02  0.1268086653571175E+02  0.1263093525272612E+02  0.1258120057544231E+02  0.1253166172973060E+02
  0.1248231794450881E+02  0.1243316845173038E+02  0.1238421248637243E+02  0.1233544928642390E+02  0.1228687809287367E+02
  0.1223849814969883E+02  0.1219030870385287E+02  0.1214230900525405E+02  0.1209449830677372E+02  0.1204687586422468E+02
  0.1199944093634966E+02  0.1195219278480979E+02  0.1190513067417312E+02  0.1185825387190317E+02  0.1181156164834761E+02
  0.1176505327672683E+02  0.1171872803312270E+02  0.1167258519646731E+02  0.1162662404853175E+02  0.1158084387391493E+02
  0.1153524396003248E+02  0.1148982359710567E+02  0.1144458207815037E+02  0.1139951869896601E+02  0.1135463275812472E+02
  0.1130992355696032E+02  0.1126539039955755E+02  0.1122103259274117E+02  0.1117684944606522E+02  0.1113284027180226E+02
  0.1108900438493269E+02  0.1104534110313408E+02  0.1100184974677057E+02  0.1095852963888228E+02  0.1091538010517478E+02
  0.1087240047400860E+02  0.1082959007638884E+02  0.1078694824595465E+02  0.1074447431896894E+02  0.1070216763430803E+02
  0.1066002753345139E+02  0.1061805336047137E+02  0.1057624446202295E+02  0.1053460018733369E+02  0.1049311988819346E+02
  0.1045180291894451E+02  0.1041064863647126E+02  0.1036965640019042E+02  0.1032882557204096E+02  0.1028815551647420E+02
  0.1024764560044391E+02  0.1020729519339647E+02  0.1016710366726105E+02  0.1012707039643983E+02  0.1008719475779827E+02
  0.1004747613065544E+02  0.1000791389677429E+02  0.9968507440352111E+01  0.9929256148010882E+01  0.9890159408787792E+01
  0.9851216614125658E+01  0.9812427157863510E+01  0.9773790436227122E+01  0.9735305847819657E+01  0.9696972793612254E+01
  0.9658790676934741E+01  0.9620758903466337E+01  0.9582876881226403E+01  0.9545144020565239E+01  0.9507559734154885E+01
  0.9470123436979994E+01  0.9432834546328726E+01  0.9395692481783668E+01  0.9358696665212832E+01  0.9321846520760610E+01
  0.9285141474838849E+01  0.9248580956117893E+01  0.9212164395517721E+01  0.9175891226199077E+01  0.9139760883554636E+01
  0.9103772805200226E+01  0.9067926430966073E+01  0.9032221202888094E+01  0.8996656565199194E+01  0.8961231964320623E+01
  0.8925946848853357E+01  0.8890800669569515E+01  0.8855792879403831E+01  0.8820922933445106E+01  0.8786190288927745E+01
  0.8751594405223305E+01  0.8717134743832087E+01  0.8682810768374738E+01  0.8648621944583923E+01  0.8614567740295991E+01
  0.8580647625442696E+01  0.8546861072042958E+01  0.8513207554194633E+01  0.8479686548066333E+01  0.8446297531889263E+01
  0.8413039985949110E+01  0.8379913392577951E+01  0.8346917236146199E+01  0.8314051003054566E+01  0.8281314181726074E+01
  0.8248706262598104E+01  0.8216226738114436E+01  0.8183875102717391E+01  0.8151650852839914E+01  0.8119553486897766E+01
  0.8087582505281725E+01  0.8055737410349776E+01  0.8024017706419395E+01  0.7992422899759808E+01  0.7960952498584340E+01
  0.7929606013042724E+01  0.7898382955213497E+01  0.7867282839096404E+01  0.7836305180604827E+01  0.7805449497558257E+01
  0.7774715309674772E+01  0.7744102138563595E+01  0.7713609507717610E+01  0.7683236942505959E+01  0.7652983970166675E+01
  0.7622850119799288E+01  0.7592834922357523E+01  0.7562937910641977E+01  0.7533158619292872E+01  0.7503496584782789E+01
  0.7473951345409460E+01  0.7444522441288590E+01  0.7415209414346686E+01  0.7386011808313941E+01  0.7356929168717111E+01
  0.7327961042872468E+01  0.7299106979878726E+01  0.7270366530610044E+01  0.7241739247709027E+01  0.7213224685579760E+01
  0.7184822400380877E+01  0.7156531950018649E+01  0.7128352894140109E+01  0.7100284794126186E+01  0.7072327213084881E+01
  0.7044479715844488E+01  0.7016741868946779E+01  0.6989113240640300E+01  0.6961593400873618E+01  0.6934181921288653E+01
  0.6906878375213982E+01  0.6879682337658228E+01  0.6852593385303419E+01  0.6825611096498412E+01  0.6798735051252336E+01
  0.6771964831228038E+01  0.6745300019735584E+01  0.6718740201725764E+01  0.6692284963783644E+01  0.6665933894122116E+01
  0.6639686582575500E+01  0.6613542620593155E+01  0.6587501601233121E+01  0.6561563119155784E+01  0.6535726770617560E+01
  0.6509992153464631E+01  0.6484358867126659E+01  0.6458826512610566E+01  0.6433394692494326E+01  0.6408063010920767E+01
  0.6382831073591428E+01  0.6357698487760396E+01  0.6332664862228216E+01  0.6307729807335786E+01  0.6282892934958299E+01
  0.6258153858499210E+01  0.6233512192884198E+01  0.6208967554555191E+01  0.6184519561464382E+01  0.6160167833068295E+01
  0.6135911990321850E+01  0.6111751655672469E+01  0.6087686453054201E+01  0.6063716007881863E+01  0.6039839947045218E+01
  0.6016057898903155E+01  0.5992369493277909E+01  0.5968774361449309E+01  0.5945272136149023E+01  0.5921862451554857E+01
  0.5898544943285047E+01  0.5875319248392588E+01  0.5852185005359604E+01  0.5829141854091691E+01  0.5806189435912341E+01
  0.5783327393557330E+01  0.5760555371169189E+01  0.5737873014291638E+01  0.5715279969864077E+01  0.5692775886216102E+01
  0.5670360413062012E+01  0.5648033201495376E+01  0.5625793903983585E+01  0.5603642174362448E+01  0.5581577667830815E+01
  0.5559600040945192E+01  0.5537708951614412E+01  0.5515904059094294E+01  0.5494185023982348E+01  0.5472551508212501E+01
  0.5451003175049812E+01  0.5429539689085252E+01  0.5408160716230474E+01  0.5386865923712612E+01  0.5365654980069105E+01
  0.5344527555142530E+01  0.5323483320075479E+01  0.5302521947305417E+01  0.5281643110559607E+01  0.5260846484850016E+01
  0.5240131746468259E+01  0.5219498572980568E+01  0.5198946643222761E+01  0.5178475637295255E+01  0.5158085236558076E+01
  0.5137775123625908E+01  0.5117544982363150E+01  0.5097394497878989E+01  0.5077323356522510E+01  0.5057331245877801E+01
  0.5037417854759105E+01  0.5017582873205961E+01  0.4997825992478390E+01  0.4978146905052086E+01  0.4958545304613626E+01
  0.4939020886055711E+01  0.4919573345472402E+01  0.4900202380154409E+01  0.4880907688584360E+01  0.4861688970432120E+01
  0.4842545926550117E+01  0.4823478258968673E+01  0.4804485670891382E+01  0.4785567866690476E+01  0.4766724551902239E+01
  0.4747955433222401E+01  0.4729260218501602E+01  0.4710638616740816E+01  0.4692090338086841E+01  0.4673615093827778E+01
  0.4655212596388541E+01  0.4636882559326381E+01  0.4618624697326418E+01  0.4600438726197219E+01  0.4582324362866355E+01
  0.4564281325376004E+01  0.4546309332878567E+01  0.4528408105632282E+01  0.4510577364996887E+01  0.4492816833429266E+01
  0.4475126234479146E+01  0.4457505292784777E+01  0.4439953734068657E+01  0.4422471285133265E+01  0.4405057673856794E+01
  0.4387712629188933E+01  0.4370435881146631E+01  0.4353227160809913E+01  0.4336086200317678E+01  0.4319012732863535E+01
  0.4302006492691658E+01  0.4285067215092633E+01  0.4268194636399357E+01  0.4251388493982914E+01  0.4234648526248506E+01
  0.4217974472631367E+01  0.4201366073592713E+01  0.4184823070615706E+01  0.4168345206201417E+01  0.4151932223864836E+01
  0.4135583868130864E+01  0.4119299884530347E+01  0.4103080019596105E+01  0.4086924020858999E+01  0.4070831636843993E+01
  0.4054802617066238E+01  0.4038836712027177E+01  0.4022933673210665E+01  0.4007093253079095E+01  0.3991315205069547E+01
  0.3975599283589944E+01  0.3959945244015243E+01  0.3944352842683621E+01  0.3928821836892665E+01  0.3913351984895627E+01
  0.3897943045897638E+01  0.3882594780051967E+01  0.3867306948456279E+01  0.3852079313148933E+01  0.3836911637105272E+01
  0.3821803684233915E+01  0.3806755219373113E+01  0.3791766008287066E+01  0.3776835817662291E+01  0.3761964415103972E+01
  0.3747151569132364E+01  0.3732397049179180E+01  0.3717700625583996E+01  0.3703062069590690E+01  0.3688481153343869E+01
  0.3673957649885333E+01  0.3659491333150528E+01  0.3645081977965041E+01  0.3630729360041095E+01  0.3616433255974040E+01
  0.3602193443238899E+01  0.3588009700186892E+01  0.3573881806041984E+01  0.3559809540897453E+01  0.3545792685712470E+01
  0.3531831022308683E+01  0.3517924333366821E+01  0.3504072402423318E+01  0.3490275013866941E+01  0.3476531952935428E+01
  0.3462843005712151E+01  0.3449207959122786E+01  0.3435626600931999E+01  0.3422098719740131E+01  0.3408624104979919E+01
  0.3395202546913221E+01  0.3381833836627735E+01  0.3368517766033762E+01  0.3355254127860965E+01  0.3342042715655134E+01
  0.3328883323774984E+01  0.3315775747388946E+01  0.3302719782471983E+01  0.3289715225802410E+01  0.3276761874958734E+01
  0.3263859528316507E+01  0.3251007985045177E+01  0.3238207045104970E+01  0.3225456509243776E+01  0.3212756178994049E+01
  0.3200105856669707E+01  0.3187505345363069E+01  0.3174954448941782E+01  0.3162452972045771E+01  0.3150000720084192E+01
  0.3137597499232416E+01  0.3125243116428997E+01  0.3112937379372681E+01  0.3100680096519401E+01  0.3088471077079300E+01
  0.3076310131013766E+01  0.3064197069032465E+01  0.3052131702590403E+01  0.3040113843884984E+01  0.3028143305853095E+01
  0.3016219902168183E+01  0.3004343447237368E+01  0.2992513756198542E+01  0.2980730644917502E+01  0.2968993929985074E+01
  0.2957303428714267E+01  0.2945658959137423E+01  0.2934060340003387E+01  0.2922507390774686E+01  0.2910999931624721E+01
  0.2899537783434964E+01  0.2888120767792171E+01  0.2876748706985603E+01  0.2865421424004267E+01  0.2854138742534154E+01
  0.2842900486955496E+01  0.2831706482340033E+01  0.2820556554448292E+01  0.2809450529726872E+01  0.2798388235305741E+01
  0.2787369498995554E+01  0.2776394149284960E+01  0.2765462015337942E+01  0.2754572926991155E+01  0.2743726714751281E+01
  0.2732923209792377E+01  0.2722162243953265E+01  0.2711443649734907E+01  0.2700767260297793E+01  0.2690132909459350E+01
  0.2679540431691356E+01  0.2668989662117360E+01  0.2658480436510115E+01  0.2648012591289024E+01  0.2637585963517599E+01
  0.2627200390900911E+01  0.2616855711783076E+01  0.2606551765144736E+01  0.2596288390600551E+01  0.2586065428396700E+01
  0.2575882719408402E+01  0.2565740105137431E+01  0.2555637427709653E+01  0.2545574529872568E+01  0.2535551254992864E+01
  0.2525567447053978E+01  0.2515622950653663E+01  0.2505717611001574E+01  0.2495851273916863E+01  0.2486023785825764E+01
  0.2476234993759220E+01  0.2466484745350491E+01  0.2456772888832789E+01  0.2447099273036906E+01  0.2437463747388871E+01
  0.2427866161907604E+01  0.2418306367202575E+01  0.2408784214471489E+01  0.2399299555497962E+01  0.2389852242649217E+01
  0.2380442128873782E+01  0.2371069067699210E+01  0.2361732913229792E+01  0.2352433520144282E+01  0.2343170743693649E+01
  0.2333944439698811E+01  0.2324754464548398E+01  0.2315600675196509E+01  0.2306482929160496E+01  0.2297401084518739E+01
  0.2288354999908436E+01  0.2279344534523408E+01  0.2270369548111903E+01  0.2261429900974418E+01  0.2252525453961514E+01
  0.2243656068471664E+01  0.2234821606449085E+01  0.2226021930381592E+01  0.2217256903298460E+01  0.2208526388768290E+01
  0.2199830250896889E+01  0.2191168354325143E+01  0.2182540564226926E+01  0.2173946746306992E+01  0.2165386766798884E+01
  0.2156860492462856E+01  0.2148367790583799E+01  0.2139908528969173E+01  0.2131482575946948E+01  0.2123089800363557E+01
  0.2114730071581858E+01  0.2106403259479091E+01  0.2098109234444860E+01  0.2089847867379116E+01  0.2081619029690146E+01
  0.2073422593292563E+01  0.2065258430605329E+01  0.2057126414549755E+01  0.2049026418547533E+01  0.2040958316518752E+01
  0.2032921982879953E+01  0.2024917292542164E+01  0.2016944120908948E+01  0.2009002343874479E+01  0.2001091837821595E+01
  0.1993212479619886E+01  0.1985364146623764E+01  0.1977546716670568E+01  0.1969760068078656E+01  0.1962004079645504E+01
  0.1954278630645836E+01  0.1946583600829728E+01  0.1938918870420749E+01  0.1931284320114086E+01  0.1923679831074696E+01
  0.1916105284935454E+01  0.1908560563795302E+01  0.1901045550217428E+01  0.1893560127227429E+01  0.1886104178311490E+01
  0.1878677587414574E+01  0.1871280238938615E+01  0.1863912017740716E+01  0.1856572809131360E+01  0.1849262498872622E+01
  0.1841980973176396E+01  0.1834728118702615E+01  0.1827503822557494E+01  0.1820307972291771E+01  0.1813140455898955E+01
  0.1806001161813585E+01  0.1798889978909493E+01  0.1791806796498073E+01  0.1784751504326557E+01  0.1777723992576302E+01
  0.1770724151861080E+01  0.1763751873225372E+01  0.1756807048142676E+01  0.1749889568513818E+01  0.1742999326665264E+01
  0.1736136215347452E+01  0.1729300127733113E+01  0.1722490957415620E+01  0.1715708598407320E+01  0.1708952945137891E+01
  0.1702223892452699E+01  0.1695521335611157E+01  0.1688845170285098E+01  0.1682195292557151E+01  0.1675571598919122E+01
  0.1668973986270385E+01  0.1662402351916272E+01  0.1655856593566483E+01  0.1649336609333485E+01  0.1642842297730935E+01
  0.1636373557672089E+01  0.1629930288468240E+01  0.1623512389827146E+01  0.1617119761851464E+01  0.1610752305037205E+01
  0.1604409920272176E+01  0.1598092508834444E+01  0.1591799972390794E+01  0.1585532212995204E+01  0.1579289133087314E+01
  0.1573070635490913E+01  0.1566876623412424E+01  0.1560707000439396E+01  0.1554561670539008E+01  0.1548440538056568E+01
  0.1542343507714027E+01  0.1536270484608498E+01  0.1530221374210779E+01  0.1524196082363873E+01  0.1518194515281534E+01
  0.1512216579546802E+01  0.1506262182110548E+01  0.1500331230290024E+01  0.1494423631767429E+01  0.1488539294588461E+01
  0.1482678127160891E+01  0.1476840038253141E+01  0.1471024936992858E+01  0.1465232732865499E+01  0.1459463335712928E+01
  0.1453716655732007E+01  0.1447992603473204E+01  0.1442291089839192E+01  0.1436612026083472E+01  0.1430955323808985E+01
  0.1425320894966737E+01  0.1419708651854431E+01  0.1414118507115100E+01  0.1408550373735749E+01  0.1403004165045996E+01
  0.1397479794716728E+01  0.1391977176758757E+01  0.1386496225521475E+01  0.1381036855691533E+01  0.1375598982291500E+01
  0.1370182520678547E+01  0.1364787386543130E+01  0.1359413495907678E+01  0.1354060765125280E+01  0.1348729110878389E+01
  0.1343418450177523E+01  0.1338128700359976E+01  0.1332859779088525E+01  0.1327611604350154E+01  0.1322384094454775E+01
  0.1317177168033958E+01  0.1311990744039662E+01  0.1306824741742978E+01  0.1301679080732867E+01  0.1296553680914909E+01
  0.1291448462510061E+01  0.1286363346053413E+01  0.1281298252392947E+01  0.1276253102688312E+01  0.1271227818409588E+01
  0.1266222321336073E+01  0.1261236533555062E+01  0.1256270377460629E+01  0.1251323775752428E+01  0.1246396651434481E+01
  0.1241488927813986E+01  0.1236600528500123E+01  0.1231731377402859E+01  0.1226881398731770E+01  0.1222050516994858E+01
  0.1217238656997376E+01  0.1212445743840661E+01  0.1207671702920962E+01  0.1202916459928284E+01  0.1198179940845229E+01
  0.1193462071945846E+01  0.1188762779794479E+01  0.1184081991244629E+01  0.1179419633437811E+01  0.1174775633802423E+01
  0.1170149920052618E+01  0.1165542420187172E+01  0.1160953062488369E+01  0.1156381775520883E+01  0.1151828488130668E+01
  0.1147293129443846E+01  0.1142775628865608E+01  0.1138275916079114E+01  0.1133793921044393E+01  0.1129329573997267E+01
  0.1124882805448247E+01  0.1120453546181465E+01  0.1116041727253589E+01  0.1111647279992754E+01  0.1107270135997491E+01
  0.1102910227135665E+01  0.1098567485543408E+01  0.1094241843624071E+01  0.1089933234047163E+01  0.1085641589747314E+01
  0.1081366843923220E+01  0.1077108930036607E+01  0.1072867781811197E+01  0.1068643333231681E+01  0.1064435518542674E+01
  0.1060244272247714E+01  0.1056069529108227E+01  0.1051911224142514E+01  0.1047769292624744E+01  0.1043643670083944E+01
  0.1039534292302995E+01  0.1035441095317631E+01  0.1031364015415444E+01  0.1027302989134899E+01  0.1023257953264332E+01
  0.1019228844840979E+01  0.1015215601149988E+01  0.1011218159723451E+01  0.1007236458339417E+01  0.1003270435020940E+01
  0.9993200280351034E+00  0.9953851758920632E+00  0.9914658173440860E+00  0.9875618913846045E+00  0.9836733372472583E+00
  0.9798000944049527E+00  0.9759421025689153E+00  0.9720993016877590E+00  0.9682716319465438E+00  0.9644590337658475E+00
  0.9606614478008378E+00  0.9568788149403508E+00  0.9531110763059629E+00  0.9493581732510852E+00  0.9456200473600400E+00
  0.9418966404471603E+00  0.9381878945558731E+00  0.9344937519578089E+00  0.9308141551518938E+00  0.9271490468634582E+00
  0.9234983700433431E+00  0.9198620678670150E+00  0.9162400837336758E+00  0.9126323612653856E+00  0.9090388443061826E+00
  0.9054594769212111E+00  0.9018942033958450E+00  0.8983429682348276E+00  0.8948057161613997E+00  0.8912823921164458E+00
  0.8877729412576282E+00  0.8842773089585423E+00  0.8807954408078581E+00  0.8773272826084761E+00  0.8738727803766816E+00
  0.8704318803413065E+00  0.8670045289428876E+00  0.8635906728328351E+00  0.8601902588725991E+00  0.8568032341328465E+00
  0.8534295458926282E+00  0.8500691416385660E+00  0.8467219690640283E+00  0.8433879760683199E+00  0.8400671107558630E+00
  0.8367593214353972E+00  0.8334645566191674E+00  0.8301827650221230E+00  0.8269138955611189E+00  0.8236578973541210E+00
  0.8204147197194086E+00  0.8171843121747878E+00  0.8139666244368021E+00  0.8107616064199529E+00  0.8075692082359099E+00
  0.8043893801927430E+00  0.8012220727941390E+00  0.7980672367386369E+00  0.7949248229188502E+00  0.7917947824207103E+00
  0.7886770665226959E+00  0.7855716266950764E+00  0.7824784145991531E+00  0.7793973820865077E+00  0.7763284811982458E+00
  0.7732716641642526E+00  0.7702268834024446E+00  0.7671940915180294E+00  0.7641732413027604E+00  0.7611642857342071E+00
  0.7581671779750138E+00  0.7551818713721705E+00  0.7522083194562850E+00  0.7492464759408557E+00  0.7462962947215483E+00
  0.7433577298754742E+00  0.7404307356604737E+00  0.7375152665144021E+00  0.7346112770544134E+00  0.7317187220762533E+00
  0.7288375565535514E+00  0.7259677356371158E+00  0.7231092146542314E+00  0.7202619491079626E+00  0.7174258946764531E+00
  0.7146010072122341E+00  0.7117872427415304E+00  0.7089845574635760E+00  0.7061929077499220E+00  0.7034122501437561E+00
  0.7006425413592189E+00  0.6978837382807284E+00  0.6951357979622990E+00  0.6923986776268708E+00  0.6896723346656362E+00
  0.6869567266373711E+00  0.6842518112677692E+00  0.6815575464487765E+00  0.6788738902379283E+00  0.6762008008576920E+00
  0.6735382366948072E+00  0.6708861562996338E+00  0.6682445183854958E+00  0.6656132818280338E+00  0.6629924056645549E+00
  0.6603818490933875E+00  0.6577815714732393E+00  0.6551915323225531E+00  0.6526116913188690E+00  0.6500420082981877E+00
  0.6474824432543360E+00  0.6449329563383325E+00  0.6423935078577582E+00  0.6398640582761279E+00  0.6373445682122643E+00
  0.6348349984396719E+00  0.6323353098859182E+00  0.6298454636320102E+00  0.6273654209117774E+00  0.6248951431112557E+00
  0.6224345917680743E+00  0.6199837285708411E+00  0.6175425153585342E+00  0.6151109141198927E+00  0.6126888869928115E+00
  0.6102763962637344E+00  0.6078734043670531E+00  0.6054798738845055E+00  0.6030957675445768E+00  0.6007210482219019E+00
  0.5983556789366705E+00  0.5959996228540322E+00  0.5936528432835044E+00  0.5913153036783818E+00  0.5889869676351501E+00
  0.5866677988928942E+00  0.5843577613327158E+00  0.5820568189771484E+00  0.5797649359895767E+00  0.5774820766736510E+00
  0.5752082054727140E+00  0.5729432869692179E+00  0.5706872858841504E+00  0.5684401670764585E+00  0.5662018955424769E+00
  0.5639724364153527E+00  0.5617517549644770E+00  0.5595398165949134E+00  0.5573365868468326E+00  0.5551420313949407E+00
  0.5529561160479182E+00  0.5507788067478516E+00  0.5486100695696734E+00  0.5464498707205947E+00  0.5442981765395505E+00
  0.5421549534966335E+00  0.5400201681925380E+00  0.5378937873580008E+00  0.5357757778532459E+00  0.5336661066674242E+00
  0.5315647409180622E+00  0.5294716478505035E+00  0.5273867948373601E+00  0.5253101493779532E+00  0.5232416790977666E+00
  0.5211813517478914E+00  0.5191291352044779E+00  0.5170849974681809E+00  0.5150489066636166E+00  0.5130208310388069E+00
  0.5110007389646350E+00  0.5089885989342949E+00  0.5069843795627454E+00  0.5049880495861612E+00  0.5029995778613857E+00
  0.5010189333653852E+00  0.4990460851947021E+00  0.4970810025649065E+00  0.4951236548100533E+00  0.4931740113821323E+00
  0.4912320418505254E+00  0.4892977159014564E+00  0.4873710033374488E+00  0.4854518740767761E+00  0.4835402981529172E+00
  0.4816362457140075E+00  0.4797396870222945E+00  0.4778505924535879E+00  0.4759689324967120E+00  0.4740946777529578E+00
  0.4722277989355352E+00  0.4703682668690206E+00  0.4685160524888093E+00  0.4666711268405632E+00  0.4648334610796608E+00
  0.4630030264706411E+00  0.4611797943866551E+00  0.4593637363089075E+00  0.4575548238261040E+00  0.4557530286338914E+00
  0.4539583225343042E+00  0.4521706774352018E+00  0.4503900653497107E+00  0.4486164583956608E+00  0.4468498287950251E+00
  0.4450901488733515E+00  0.4433373910591987E+00  0.4415915278835673E+00  0.4398525319793313E+00  0.4381203760806626E+00
  0.4363950330224624E+00  0.4346764757397811E+00  0.4329646772672439E+00  0.4312596107384662E+00  0.4295612493854767E+00
  0.4278695665381279E+00  0.4261845356235108E+00  0.4245061301653647E+00  0.4228343237834850E+00  0.4211690901931266E+00
  0.4195104032044066E+00  0.4178582367217019E+00  0.4162125647430470E+00  0.4145733613595227E+00  0.4129406007546493E+00
  0.4113142572037692E+00  0.4096943050734306E+00  0.4080807188207647E+00  0.4064734729928628E+00  0.4048725422261443E+00
  0.4032779012457254E+00  0.4016895248647810E+00  0.4001073879839045E+00  0.3985314655904605E+00  0.3969617327579352E+00
  0.3953981646452818E+00  0.3938407364962602E+00  0.3922894236387726E+00  0.3907442014841953E+00  0.3892050455267020E+00
  0.3876719313425853E+00  0.3861448345895707E+00  0.3846237310061263E+00  0.3831085964107659E+00  0.3815994067013457E+00
  0.3800961378543571E+00  0.3785987659242108E+00  0.3771072670425180E+00  0.3756216174173599E+00  0.3741417933325561E+00
  0.3726677711469222E+00  0.3711995272935227E+00  0.3697370382789167E+00  0.3682802806823935E+00  0.3668292311552050E+00
  0.3653838664197868E+00  0.3639441632689746E+00  0.3625100985652091E+00  0.3610816492397355E+00  0.3596587922917938E+00
  0.3582415047878000E+00  0.3568297638605199E+00  0.3554235467082313E+00  0.3540228305938802E+00  0.3526275928442256E+00
  0.3512378108489751E+00  0.3498534620599124E+00  0.3484745239900109E+00  0.3471009742125418E+00  0.3457327903601684E+00
  0.3443699501240323E+00  0.3430124312528249E+00  0.3416602115518538E+00  0.3403132688820919E+00  0.3389715811592180E+00
  0.3376351263526473E+00  0.3363038824845441E+00  0.3349778276288303E+00  0.3336569399101732E+00  0.3323411975029673E+00
  0.3310305786302987E+00  0.3297250615629000E+00  0.3284246246180872E+00  0.3271292461586871E+00  0.3258389045919485E+00
  0.3245535783684386E+00  0.3232732459809286E+00  0.3219978859632591E+00  0.3207274768891939E+00  0.3194619973712596E+00
  0.3182014260595649E+00  0.3169457416406096E+00  0.3156949228360719E+00  0.3144489484015845E+00  0.3132077971254902E+00
  0.3119714478275826E+00  0.3107398793578274E+00  0.3095130705950690E+00  0.3082910004457159E+00  0.3070736478424096E+00
  0.3058609917426768E+00  0.3046530111275579E+00  0.3034496850002212E+00  0.3022509923845556E+00  0.3010569123237420E+00
  0.2998674238788090E+00  0.2986825061271621E+00  0.2975021381610981E+00  0.2963262990862946E+00  0.2951549680202807E+00
  0.2939881240908827E+00  0.2928257464346519E+00  0.2916678141952668E+00  0.2905143065219137E+00  0.2893652025676454E+00
  0.2882204814877157E+00  0.2870801224378892E+00  0.2859441045727296E+00  0.2848124070438610E+00  0.2836850089982075E+00
  0.2825618895762045E+00  0.2814430279099883E+00  0.2803284031215577E+00  0.2792179943209109E+00  0.2781117806041550E+00
  0.2770097410515913E+00  0.2759118547257705E+00  0.2748181006695235E+00  0.2737284579039642E+00  0.2726429054264643E+00
  0.2715614222085987E+00  0.2704839871940661E+00  0.2694105792965770E+00  0.2683411773977153E+00  0.2672757603447711E+00
  0.2662143069485420E+00  0.2651567959811065E+00  0.2641032061735677E+00  0.2630535162137644E+00  0.2620077047439560E+00
  0.2609657503584729E+00  0.2599276316013373E+00  0.2588933269638550E+00  0.2578628148821744E+00  0.2568360737348130E+00
  0.2558130818401553E+00  0.2547938174539167E+00  0.2537782587665774E+00  0.2527663839007825E+00  0.2517581709087138E+00
  0.2507535977694252E+00  0.2497526423861501E+00  0.2487552825835732E+00  0.2477614961050744E+00  0.2467712606099371E+00
  0.2457845536705261E+00  0.2448013527694347E+00  0.2438216352965997E+00  0.2428453785463823E+00  0.2418725597146224E+00
  0.2409031558956574E+00  0.2399371440793132E+00  0.2389745011478622E+00  0.2380152038729546E+00  0.2370592289125151E+00
  0.2361065528076155E+00  0.2351571519793131E+00  0.2342110027254648E+00  0.2332680812175121E+00  0.2323283634972370E+00
  0.2313918254734942E+00  0.2304584429189168E+00  0.2295281914665947E+00  0.2286010466067323E+00  0.2276769836832801E+00
  0.2267559778905461E+00  0.2258380042697843E+00  0.2249230377057656E+00  0.2240110529233269E+00  0.2231020244839057E+00
  0.2221959267820560E+00  0.2212927340419515E+00  0.2203924203138760E+00  0.2194949594706993E+00  0.2186003252043484E+00
  0.2177084910222676E+00  0.2168194302438733E+00  0.2159331159970070E+00  0.2150495212143846E+00  0.2141686186300491E+00
  0.2132903807758237E+00  0.2124147799777757E+00  0.2115417883526839E+00  0.2106713778045217E+00  0.2098035200209530E+00
  0.2089381864698460E+00  0.2080753483958108E+00  0.2072149768167572E+00  0.2063570425204855E+00  0.2055015160613078E+00
  0.2046483677567044E+00  0.2037975676840229E+00  0.2029490856772216E+00  0.2021028913236620E+00  0.2012589539609554E+00
  0.2004172426738709E+00  0.1995777262913062E+00  0.1987403733833291E+00  0.1979051522582952E+00  0.1970720309600468E+00
  0.1962409772652013E+00  0.1954119586805309E+00  0.1945849424404476E+00  0.1937598955045934E+00  0.1929367845555460E+00
  0.1921155759966485E+00  0.1912962359499695E+00  0.1904787302544004E+00  0.1896630244639025E+00  0.1888490838459063E+00
  0.1880368733798796E+00  0.1872263577560667E+00  0.1864175013744121E+00  0.1856102683436780E+00  0.1848046224807671E+00
  0.1840005273102571E+00  0.1831979460641626E+00  0.1823968416819356E+00  0.1815971768107103E+00  0.1807989138058124E+00
  0.1800020147315401E+00  0.1792064413622300E+00  0.1784121551836238E+00  0.1776191173945447E+00  0.1768272889089037E+00
  0.1760366303580429E+00  0.1752471020934365E+00  0.1744586641897594E+00  0.1736712764483438E+00  0.1728848984010346E+00
  0.1720994893144628E+00  0.1713150081947531E+00  0.1705314137926797E+00  0.1697486646092912E+00  0.1689667189020197E+00
  0.1681855346912908E+00  0.1674050697676563E+00  0.1666252816994628E+00  0.1658461278410801E+00  0.1650675653417035E+00
  0.1642895511547524E+00  0.1635120420478819E+00  0.1627349946136299E+00  0.1619583652807156E+00  0.1611821103260114E+00
  0.1604061858872102E+00  0.1596305479762012E+00  0.1588551524931819E+00  0.1580799552415221E+00  0.1573049119433984E+00
  0.1565299782562250E+00  0.1557551097898919E+00  0.1549802621248390E+00  0.1542053908309781E+00  0.1534304514874864E+00
  0.1526553997034865E+00  0.1518801911396349E+00  0.1511047815306332E+00  0.1503291267086807E+00  0.1495531826278856E+00
  0.1487769053896492E+00  0.1480002512690371E+00  0.1472231767421558E+00  0.1464456385145414E+00  0.1456675935505795E+00
  0.1448889991039597E+00  0.1441098127491816E+00  0.1433299924141149E+00  0.1425494964136237E+00  0.1417682834842577E+00
  0.1409863128200168E+00  0.1402035441091878E+00  0.1394199375722536E+00  0.1386354540008754E+00  0.1378500547979393E+00
  0.1370637020186616E+00  0.1362763584127472E+00  0.1354879874675824E+00  0.1346985534524552E+00  0.1339080214637787E+00
  0.1331163574713042E+00  0.1323235283652932E+00  0.1315295020046292E+00  0.1307342472658324E+00  0.1299377340929503E+00
  0.1291399335482819E+00  0.1283408178638975E+00  0.1275403604939100E+00  0.1267385361674481E+00  0.1259353209422775E+00
  0.1251306922590180E+00  0.1243246289958901E+00  0.1235171115239311E+00  0.1227081217626065E+00  0.1218976432357481E+00
  0.1210856611277345E+00  0.1202721623398371E+00  0.1194571355466381E+00  0.1186405712524359E+00  0.1178224618475334E+00
  0.1170028016643153E+00  0.1161815870330054E+00  0.1153588163369951E+00  0.1145344900676289E+00  0.1137086108783296E+00
  0.1128811836379405E+00  0.1120522154831583E+00  0.1112217158699276E+00  0.1103896966236646E+00  0.1095561719881703E+00
  0.1087211586730979E+00  0.1078846758998284E+00  0.1070467454456127E+00  0.1062073916858319E+00  0.1053666416342252E+00
  0.1045245249809406E+00  0.1036810741282535E+00  0.1028363242238000E+00  0.1019903131911809E+00  0.1011430817577752E+00
  0.1002946734796227E+00  0.9944513476321817E-01  0.9859451488407943E-01  0.9774286600193495E-01  0.9689024317239980E-01
  0.9603670435499523E-01  0.9518231041738330E-01  0.9432712513568810E-01  0.9347121519077790E-01  0.9261465016039780E-01
  0.9175750250703976E-01  0.9089984756144831E-01  0.9004176350167217E-01  0.8918333132757243E-01  0.8832463483071627E-01
  0.8746576055958744E-01  0.8660679778006353E-01  0.8574783843110949E-01  0.8488897707566379E-01  0.8403031084669009E-01
  0.8317193938839247E-01  0.8231396479259862E-01  0.8145649153032707E-01  0.8059962637857795E-01  0.7974347834238887E-01
  0.7888815857221777E-01  0.7803378027673179E-01  0.7718045863108913E-01  0.7632831068081886E-01  0.7547745524141874E-01
  0.7462801279380681E-01  0.7378010537576850E-01  0.7293385646956940E-01  0.7208939088590252E-01  0.7124683464436424E-01
  0.7040631485065993E-01  0.6956795957075118E-01  0.6873189770217798E-01  0.6789825884278787E-01  0.6706717315712382E-01
  0.6623877124072995E-01  0.6541318398264326E-01  0.6459054242634502E-01  0.6377097762945834E-01  0.6295462052248259E-01
  0.6214160176685520E-01  0.6133205161264585E-01  0.6052609975618441E-01  0.5972387519792545E-01  0.5892550610086065E-01
  0.5813111964977909E-01  0.5734084191168800E-01  0.5655479769769036E-01  0.5577311042662217E-01  0.5499590199074404E-01
  0.5422329262377702E-01  0.5345540077156304E-01  0.5269234296562757E-01  0.5193423369991128E-01  0.5118118531092326E-01
  0.5043330786156695E-01  0.4969070902887059E-01  0.4895349399584424E-01  0.4822176534767564E-01  0.4749562297245612E-01
  0.4677516396662353E-01  0.4606048254528444E-01  0.4535166995756818E-01  0.4464881440715015E-01  0.4395200097806245E-01
  0.4326131156589460E-01  0.4257682481447350E-01  0.4189861605809348E-01  0.4122675726934655E-01  0.4056131701259557E-01
  0.3990236040310922E-01  0.3924994907186354E-01  0.3860414113600179E-01  0.3796499117492372E-01  0.3733255021196562E-01
  0.3670686570161506E-01  0.3608798152218946E-01  0.3547593797389498E-01  0.3487077178217216E-01  0.3427251610621561E-01
  0.3368120055255212E-01  0.3309685119354065E-01  0.3251949059065945E-01  0.3194913782242343E-01  0.3138580851677717E-01
  0.3082951488779298E-01  0.3028026577650339E-01  0.2973806669568416E-01  0.2920291987840458E-01  0.2867482433015448E-01
  0.2815377588435236E-01  0.2763976726103813E-01  0.2713278812855214E-01  0.2663282516799707E-01  0.2613986214028318E-01
  0.2565387995555251E-01  0.2517485674478326E-01  0.2470276793337138E-01  0.2423758631649274E-01  0.2377928213604804E-01
  0.2332782315899937E-01  0.2288317475690585E-01  0.2244529998647433E-01  0.2201415967094321E-01  0.2158971248212108E-01
  0.2117191502290923E-01  0.2076072191014172E-01  0.2035608585758074E-01  0.1995795775891397E-01  0.1956628677060313E-01
  0.1918102039444367E-01  0.1880210455969612E-01  0.1842948370466328E-01  0.1806310085758683E-01  0.1770289771675071E-01
  0.1734881472967851E-01  0.1700079117132468E-01  0.1665876522116284E-01  0.1632267403908179E-01  0.1599245384000623E-01
  0.1566803996716768E-01  0.1534936696395376E-01  0.1503636864427443E-01  0.1472897816138660E-01  0.1442712807512709E-01
  0.1413075041750698E-01  0.1383977675662967E-01  0.1355413825889634E-01  0.1327376574947162E-01  0.1299858977098474E-01
  0.1272854064044666E-01  0.1246354850437048E-01  0.1220354339208362E-01  0.1194845526722664E-01  0.1169821407743790E-01
  0.1145274980222471E-01  0.1121199249902829E-01  0.1097587234749033E-01  0.1074431969193480E-01  0.1051726508207875E-01
  0.1029463931199148E-01  0.1007637345732151E-01  0.9862398910815084E-02  0.9652647416150892E-02  0.9447051100117485E-02
  0.9245542503163291E-02  0.9048054608348897E-02  0.8854520868733135E-02  0.8664875233227211E-02  0.8479052170950003E-02
  0.8296986694120496E-02  0.8118614379523043E-02  0.7943871388582855E-02  0.7772694486087945E-02  0.7605021057596769E-02
  0.7440789125568495E-02  0.7279937364255158E-02  0.7122405113393961E-02  0.6968132390737847E-02  0.6817059903463832E-02
  0.6669129058496610E-02  0.6524281971785920E-02  0.6382461476575734E-02  0.6243611130702672E-02  0.6107675222960633E-02
  0.5974598778568502E-02  0.5844327563777413E-02  0.5716808089652254E-02  0.5591987615063562E-02  0.5469814148923197E-02
  0.5350236451698181E-02  0.5233204036235515E-02  0.5118667167929841E-02  0.5006576864266318E-02  0.4896884893768849E-02
  0.4789543774383743E-02  0.4684506771328380E-02  0.4581727894433060E-02  0.4481161895003574E-02  0.4382764262231512E-02
  0.4286491219178483E-02  0.4192299718358853E-02  0.4100147436946126E-02  0.4009992771626000E-02  0.3921794833119283E-02
  0.3835513440396605E-02  0.3751109114605778E-02  0.3668543072733046E-02  0.3587777221017191E-02  0.3508774148135769E-02
  0.3431497118181754E-02  0.3355910063448022E-02  0.3281977577036326E-02  0.3209664905307079E-02  0.3138937940185369E-02
  0.3069763211337577E-02  0.3002107878233243E-02  0.2935939722105341E-02  0.2871227137821741E-02  0.2807939125680479E-02
  0.2746045283140036E-02  0.2685515796496251E-02  0.2626321432516056E-02  0.2568433530038111E-02  0.2511823991550097E-02
  0.2456465274751483E-02  0.2402330384110275E-02  0.2349392862421962E-02  0.2297626782378315E-02  0.2247006738152936E-02
  0.2197507837010714E-02  0.2149105690947322E-02  0.2101776408364716E-02  0.2055496585788502E-02  0.2010243299632012E-02
  0.1965994098012468E-02  0.1922726992623447E-02  0.1880420450668015E-02  0.1839053386856587E-02  0.1798605155473089E-02
  0.1759055542512770E-02  0.1720384757894867E-02  0.1682573427753041E-02  0.1645602586806006E-02  0.1609453670810946E-02
  0.1574108509101844E-02  0.1539549317214584E-02  0.1505758689600759E-02  0.1472719592431551E-02  0.1440415356493312E-02
  0.1408829670175848E-02  0.1377946572554602E-02  0.1347750446567537E-02  0.1318226012287599E-02  0.1289358320291208E-02
  0.1261132745123409E-02  0.1233534978860009E-02  0.1206551024766838E-02  0.1180167191056407E-02  0.1154370084741938E-02
  0.1129146605588644E-02  0.1104483940162206E-02  0.1080369555974065E-02  0.1056791195723369E-02  0.1033736871634998E-02
  0.1011194859893352E-02  0.9891536951711908E-03  0.9676021652531394E-03  0.9465293057529921E-03  0.9259243949242280E-03
  0.9057769485630016E-03  0.8860767150026728E-03  0.8668136701991693E-03  0.8479780129062502E-03  0.8295601599396965E-03
  0.8115507415296081E-03  0.7939405967596893E-03  0.7767207690926078E-03  0.7598825019804059E-03  0.7434172345588577E-03
  0.7273165974247323E-03  0.7115724084949280E-03  0.6961766689462999E-03  0.6811215592351427E-03  0.6663994351951641E-03
  0.6520028242128777E-03  0.6379244214791998E-03  0.6241570863162030E-03  0.6106938385778053E-03  0.5975278551233346E-03
  0.5846524663627305E-03  0.5720611528723143E-03  0.5597475420799611E-03  0.5477054050185298E-03  0.5359286531463899E-03
  0.5244113352339886E-03  0.5131476343152305E-03  0.5021318647026616E-03  0.4913584690652232E-03  0.4808220155676011E-03
  0.4705171950699595E-03  0.4604388183870253E-03  0.4505818136054730E-03  0.4409412234584751E-03  0.4315122027563965E-03
  0.4222900158726030E-03  0.4132700342833249E-03  0.4044477341605471E-03  0.3958186940169351E-03  0.3873785924017695E-03
  0.3791232056469582E-03  0.3710484056620794E-03  0.3631501577775330E-03  0.3554245186348665E-03  0.3478676341233196E-03
  0.3404757373616550E-03  0.3332451467243963E-03  0.3261722639115505E-03  0.3192535720609786E-03  0.3124856339024723E-03
  0.3058650899527766E-03  0.2993886567506216E-03  0.2930531251310311E-03  0.2868553585380151E-03  0.2807922913748917E-03
  0.2748609273914578E-03  0.2690583381071924E-03  0.2633816612697920E-03  0.2578280993482445E-03  0.2523949180597241E-03
  0.2470794449296164E-03  0.2418790678839158E-03  0.2367912338733404E-03  0.2318134475284730E-03  0.2269432698452646E-03
  0.2221783169002275E-03  0.2175162585946997E-03  0.2129548174275239E-03  0.2084917672955592E-03  0.2041249323213750E-03
  0.1998521857075588E-03  0.1956714486170553E-03  0.1915806890789591E-03  0.1875779209191935E-03  0.1836612027155320E-03
  0.1798286367764411E-03  0.1760783681431866E-03  0.1724085836147020E-03  0.1688175107947284E-03  0.1653034171606910E-03
  0.1618646091538764E-03  0.1584994312903873E-03  0.1552062652924395E-03  0.1519835292395435E-03  0.1488296767391019E-03
  0.1457431961160186E-03  0.1427226096208623E-03  0.1397664726561801E-03  0.1368733730205580E-03  0.1340419301700090E-03
  0.1312707944963084E-03  0.1285586466218933E-03  0.1259041967109484E-03  0.1233061837963044E-03  0.1207633751217935E-03
  0.1182745654997218E-03  0.1158385766830924E-03  0.1134542567522597E-03  0.1111204795156776E-03  0.1088361439244234E-03
  0.1066001735001843E-03  0.1044115157763892E-03  0.1022691417521920E-03  0.1001720453590172E-03  0.9811924293936649E-04
  0.9610977273761170E-04  0.9414269440250646E-04  0.9221708850112902E-04  0.9033205604401578E-04  0.8848671802120780E-04
  0.8668021494896938E-04  0.8491170642693794E-04  0.8318037070544835E-04  0.8148540426281655E-04  0.7982602139233839E-04
  0.7820145379878322E-04  0.7661095020417144E-04  0.7505377596260766E-04  0.7352921268397005E-04  0.7203655786624941E-04
  0.7057512453633790E-04  0.6914424089906904E-04  0.6774324999432035E-04  0.6637150936199688E-04  0.6502839071470355E-04
  0.6371327961793703E-04  0.6242557517761654E-04  0.6116468973479021E-04  0.5993004856734661E-04  0.5872108959856823E-04
  0.5753726311237060E-04  0.5637803147507508E-04  0.5524286886355706E-04  0.5413126099962567E-04  0.5304270489049434E-04
  0.5197670857519158E-04  0.5093279087678524E-04  0.4991048116027726E-04  0.4890931909603910E-04  0.4792885442866633E-04
  0.4696864675111417E-04  0.4602826528400547E-04  0.4510728865997829E-04  0.4420530471296831E-04  0.4332191027230138E-04
  0.4245671096149206E-04  0.4160932100163438E-04  0.4077936301928202E-04  0.3996646785871216E-04  0.3917027439847113E-04
  0.3839042937210182E-04  0.3762658719296097E-04  0.3687840978302460E-04  0.3614556640559475E-04  0.3542773350181355E-04
  0.3472459453090010E-04  0.3403583981402126E-04  0.3336116638171285E-04  0.3270027782476856E-04  0.3205288414852003E-04
  0.3141870163042438E-04  0.3079745268088549E-04  0.3018886570723514E-04  0.2959267498080000E-04  0.2900862050698186E-04
  0.2843644789828405E-04  0.2787590825021325E-04  0.2732675801999444E-04  0.2678875890802836E-04  0.2626167774203441E-04
  0.2574528636381090E-04  0.2523936151855848E-04  0.2474368474670241E-04  0.2425804227815914E-04  0.2378222492898968E-04
  0.2331602800038556E-04  0.2285925117993365E-04  0.2241169844510610E-04  0.2197317796892509E-04  0.2154350202775407E-04
  0.2112248691116313E-04  0.2070995283382347E-04  0.2030572384938344E-04  0.1990962776628148E-04  0.1952149606544963E-04
  0.1914116381986618E-04  0.1876846961591357E-04  0.1840325547650200E-04  0.1804536678591617E-04  0.1769465221634638E-04
  0.1735096365606644E-04  0.1701415613921994E-04  0.1668408777717701E-04  0.1636061969142774E-04  0.1604361594797500E-04
  0.1573294349319471E-04  0.1542847209112770E-04  0.1513007426217173E-04  0.1483762522314162E-04  0.1455100282866654E-04
  0.1427008751389279E-04  0.1399476223846361E-04  0.1372491243174578E-04  0.1346042593927643E-04  0.1320119297039940E-04
  0.1294710604706744E-04  0.1269805995378042E-04  0.1245395168863680E-04  0.1221468041547049E-04  0.1198014741704978E-04
  0.1175025604931463E-04  0.1152491169662702E-04  0.1130402172801349E-04  0.1108749545437573E-04  0.1087524408664772E-04
  0.1066718069487901E-04  0.1046322016822145E-04  0.1026327917579992E-04  0.1006727612844729E-04  0.9875131141283570E-05
  0.9686765997120051E-05  0.9502104110670294E-05  0.9321070493549162E-05  0.9143591720043146E-05  0.8969595893633233E-05
  0.8799012614254139E-05  0.8631772946273432E-05  0.8467809387174046E-05  0.8307055836924238E-05  0.8149447568019522E-05
  0.7994921196182213E-05  0.7843414651702762E-05  0.7694867151408665E-05  0.7549219171248040E-05  0.7406412419471950E-05
   24     51.996         3.3434    fcc     
  0.0000000000000000E+00  0.4409058735996929E-01  0.1418106356720594E-01 -0.1549742675253896E-01 -0.4494578551829775E-01
 -0.7416491464910591E-01 -0.1031557160639962E+00 -0.1319190916820037E+00 -0.1604559434221611E+00 -0.1887671732035043E+00
 -0.2168536829450654E+00 -0.2447163745658791E+00 -0.2723561499849794E+00 -0.2997739111214006E+00 -0.3269705598941752E+00
 -0.3539469982223400E+00 -0.3807041280249259E+00 -0.4072428512209696E+00 -0.4335640697295038E+00 -0.4596686854695611E+00
 -0.4855576003601785E+00 -0.5112317163203868E+00 -0.5366919352692232E+00 -0.5619391591257188E+00 -0.5869742898089094E+00
 -0.6117982292378283E+00 -0.6364118793315099E+00 -0.6608161420089875E+00 -0.6850119191892956E+00 -0.7090001127914680E+00
 -0.7327816247345391E+00 -0.7563573569375424E+00 -0.7797282113195128E+00 -0.8028950897994822E+00 -0.8258588942964864E+00
 -0.8486205267295599E+00 -0.8711808890177342E+00 -0.8935408830800451E+00 -0.9157014108355273E+00 -0.9376633742032137E+00
 -0.9594276751021376E+00 -0.9809952154513339E+00 -0.1002366897169836E+01 -0.1023543622176680E+01 -0.1044526292390897E+01
 -0.1065315809731522E+01 -0.1085913076117589E+01 -0.1106318993468133E+01 -0.1126534463702188E+01 -0.1146560388738785E+01
 -0.1166397670496962E+01 -0.1186047210895750E+01 -0.1205509911854184E+01 -0.1224786675291299E+01 -0.1243878403126127E+01
 -0.1262785997277704E+01 -0.1281510359665063E+01 -0.1300052392207238E+01 -0.1318412996823263E+01 -0.1336593075432172E+01
 -0.1354593529952999E+01 -0.1372415262304778E+01 -0.1390059174406543E+01 -0.1407526168177328E+01 -0.1424817145536167E+01
 -0.1441933008402094E+01 -0.1458874658694144E+01 -0.1475642998331348E+01 -0.1492238929232744E+01 -0.1508663353317363E+01
 -0.1524917172504240E+01 -0.1541001288712408E+01 -0.1556916603860902E+01 -0.1572664019868757E+01 -0.1588244438655005E+01
 -0.1603658762138681E+01 -0.1618907892238820E+01 -0.1633992730874454E+01 -0.1648914179964618E+01 -0.1663673141428345E+01
 -0.1678270517184670E+01 -0.1692707209152628E+01 -0.1706984119251250E+01 -0.1721102149399573E+01 -0.1735062201516629E+01
 -0.1748865177521453E+01 -0.1762511979333080E+01 -0.1776003508870541E+01 -0.1789340668052873E+01 -0.1802524358799108E+01
 -0.1815555483028281E+01 -0.1828434942659425E+01 -0.1841163639611575E+01 -0.1853742475803765E+01 -0.1866172353155028E+01
 -0.1878454173584399E+01 -0.1890588839010912E+01 -0.1902577251353600E+01 -0.1914420312531498E+01 -0.1926118924463640E+01
 -0.1937673989069059E+01 -0.1949086408266789E+01 -0.1960357083975865E+01 -0.1971486918115321E+01 -0.1982476812604190E+01
 -0.1993327669361507E+01 -0.2004040390306305E+01 -0.2014615877357619E+01 -0.2025055032434482E+01 -0.2035358757455929E+01
